<?xml version="1.0" encoding="UTF-8"?>
<!-- This file was created by ACADEMIC version of SMILE -->
<smile version="1.0" id="Unnamed" numsamples="10000" discsamples="10000">
	<nodes>
		<cpt id="U1">
			<state id="State0" />
			<state id="State1" />
			<state id="State2" />
			<state id="State3" />
			<state id="State4" />
			<state id="State5" />
			<probabilities>0.1 0.1 0.1 0.1 0.1 0.1</probabilities>
		</cpt>
		<cpt id="U3">
			<state id="State0" />
			<state id="State1" />
			<state id="State2" />
			<state id="State3" />
			<state id="State4" />
			<state id="State5" />
			<probabilities>0.1 0.1 0.1 0.1 0.1 0.1</probabilities>
		</cpt>
		<cpt id="U5">
			<state id="State0" />
			<state id="State1" />
			<state id="State2" />
			<state id="State3" />
			<state id="State4" />
			<state id="State5" />
			<probabilities>0.1 0.1 0.1 0.1 0.1 0.1</probabilities>
		</cpt>
		<cpt id="U7">
			<state id="State0" />
			<state id="State1" />
			<state id="State2" />
			<state id="State3" />
			<state id="State4" />
			<state id="State5" />
			<probabilities>0.1 0.1 0.1 0.1 0.1 0.1</probabilities>
		</cpt>
		<cpt id="V0">
			<state id="State0" />
			<state id="State1" />
			<state id="State2" />
			<state id="State3" />
			<parents>U1 U3 U5 U7</parents>
			<probabilities>0.1695891671720805 0.8231967575248459 0.002692368390043752 0.004521706913029613 9.946493125256398e-09 9.727308836060979e-09 0.0304527255784651 0.9695472547477328 1.008857786011865e-10 0.08873618380797194 0.9112638160911422 1.190296394274721e-22 2.23347547823039e-08 8.603025018765473e-05 0.000385553643877616 0.99952839377118 0.9404005893546752 2.962116017047628e-13 0.05959936500596879 4.563905972070338e-08 1.398601818658844e-15 0.2935981199887367 0.03661948143798895 0.6697823985732728 0.05485026535592745 0.9160106835251144 1.413826775261438e-12 0.02913905111754423 3.55208980984236e-57 0.8609123299821922 1.452100668983215e-10 0.1390876698725977 0.9885441547412966 0.01137671702952381 5.966354517598617e-07 7.853159372770423e-05 0.07743839498318333 0.7786458466667773 0.0008833892459645481 0.1430323691040749 0.01430916684440309 0.000650228404069737 8.857272197722493e-05 0.9849520320295498 8.39398975795672e-07 3.543191013267828e-06 0.9999956092034041 8.206606884921185e-09 5.882326043166919e-05 0.9999408213908652 1.851890479374437e-10 3.551635141392677e-07 0.9986529171197402 2.202482889078999e-07 0.001332457454540606 1.440517743024564e-05 5.371479784973421e-05 0.5423709747005451 0.4575643938074966 1.091669410845735e-05 1.049949680651602e-05 0.0005258526831388207 0.9994636478200547 2.284201771815806e-252 0.09107855472862045 2.326188908492417e-35 0.06282765947647154 0.8460937857949081 2.086656312295107e-22 0.007577108013828287 0.0006781719029672211 0.9917447200832045 1.073667172224834e-10 0.2889568393253416 0.02099329395339282 0.6900498666138988 2.430112108961952e-40 0.04432779093485605 2.140491453377317e-06 0.9556700685736905 0.01061142275300133 0.002961249161537068 0.001415767324873615 0.985011560760588 0.3397281136638542 0.00480012719676627 1.145258022020829e-243 0.6554717591393796 0.9473393301347742 3.347087838292636e-13 0.05266066986489104 1.295404160577098e-18 0.9428081123714512 0.03845170250749058 0.01874018512105826 3.496922223183187e-33 0.9999881296905089 1.186972498317859e-05 5.76512788150675e-10 7.995195269559801e-12 0 0.2009397742484564 0.7990602257515437 4.219444933030941e-24 0.001330469993618658 8.023697551968989e-07 2.338087437981342e-282 0.9986687276366261 0.9999999991122225 1.42135128846939e-159 8.877775605166801e-10 1.702874339562087e-24 2.249013702858612e-09 0.9880726560912952 1.386603845271327e-06 0.01192595505584575 0.9799282258203125 1.416485315060839e-07 0.01613905979357178 0.003932572737584139 2.762325674314344e-06 0.03348668758691493 0.9665104960419385 5.404547227546157e-08 5.624553209526794e-09 0.9999999943754467 1.229219821216556e-52 1.518448002325464e-33 2.899904060359641e-08 0.09490555356507271 0.9050942739528008 1.434830858235867e-07 0.4526906544685249 9.73311164905894e-06 0.2520287446473949 0.295270867772431 0.007799470651517581 0.003514380932299475 3.507971206641554e-17 0.9886861484161829 1.723636566491677e-27 0.2676357067625522 2.392374487907502e-08 0.732364269313703 0.0008037016280812366 5.268448304577018e-05 0.9991433005455203 3.133433527663242e-07 0.0008983060273136843 1.029231771008556e-06 0.02897623855561968 0.9701244261852956 5.699299104165437e-11 3.319702290532368e-06 0.03029070815234521 0.9697059720883713 0.9912981540076957 3.826929696172469e-80 2.668768405002596e-19 0.008701845992304303 0.02435774825819586 0.9504869255954336 0.02515532613437894 1.199151780015496e-11 0.4683663256185275 0.5316324699240348 2.862444563144183e-36 1.204457437742533e-06 0.002983567274257383 0.9970110676876127 5.365038033065104e-06 9.681343150806329e-14 0.2190952787233212 3.939012711843365e-12 5.586246355806808e-20 0.7809047212727397 0.7822624229128684 0.217221697041405 1.234233905686507e-57 0.0005158800457266693 0.9764252085042006 0.02242080810479738 6.142667181866186e-23 0.001153983391002034 0.7009903124463812 0.003530574392864952 0.2954790434533257 6.970742813413656e-08 8.555513753046209e-09 0.9987133840798718 0.001286607364614592 1.03740624605886e-32 0.002544005313896786 1.31141140099354e-09 3.076749901099443e-07 0.9974556856997018 0.374768424611024 0.4424679246122812 0.1826487518083229 0.0001148989683719117 0.1930481785592733 1.435644354871382e-06 0.001785263382827803 0.805165122413544 0.02773872057981364 0.9722612543559013 1.388467414091623e-32 2.506428512144973e-08 0.94959039363057 0.01367825204188383 0.03672396469728266 7.389630263506915e-06 0.1586232325902907 0.009751856967118281 0.831624910442591 3.148596447192402e-181 5.193355495922016e-08 3.135576823858709e-05 0.2141038461766125 0.785864746121594 8.586466431312133e-16 4.237314558969012e-08 2.975986506560052e-06 0.9999969816403471 5.922205397976921e-120 1 7.228047363868264e-49 0 1.705404662673987e-11 0.0001188257831636205 0.03367574191193128 0.9662054322878511 0.1090818764752593 0.6263697379054455 0.07371213914715627 0.190836246472139 0.06936207530555728 0.9300593912466394 0.0005785287016305725 4.746172647574537e-09 7.712808698882645e-06 4.375469070412761e-26 3.484165899709116e-20 0.9999922871913012 5.575275423213859e-53 0.9454368184310563 0.05456318156891401 2.978702400877751e-14 0.02561585612408449 9.570924073839257e-11 0.059936148935704 0.9144479948445023 3.834459514462543e-05 1.312778944086245e-06 0.001150058109588524 0.9988102845163227 6.766111632964011e-08 0.01628015091133469 7.220139239072434e-08 0.9837197092261565 3.931764429015363e-49 7.131310746038674e-06 5.961181578661232e-08 0.9999928090774381 6.827652568540136e-06 1.133551091058767e-10 1.261603479040784e-25 0.9999931722340765 1.054097074208839e-17 8.645935699821225e-05 0.0847924239992067 0.915121116643795 5.541160288211278e-08 0.7972810232850249 0.01236527862833589 0.1903536426750363 0.005827347809538388 0.005219310323934257 0.9889530574764611 2.843900661650371e-07 0.02878013781583439 3.756768434896087e-12 0.9369890263019524 0.03423083587845659 1.015883949732234e-10 0.9740675770932279 0.02593242280513831 4.54439193555503e-14 0.9976591336555855 4.867234074577159e-05 0.002292192035901306 1.967767491248658e-09 0.9112960009120017 0.0887039797041317 1.9383866645075e-08 1.267771020082474e-97 2.463415208855243e-11 0.7009101893362301 2.695035299683275e-12 0.2990898106364408 0.9999991304868113 7.319463350758688e-07 1.298656431196424e-38 1.37566853663754e-07 1.468726131361821e-41 5.262557916685092e-16 0.4350622355166524 0.5649377644833471 0.09481437877410925 0.8481231027515517 0.05706127025042427 1.248223914775868e-06 0.9999999851001306 1.794476799283681e-11 4.330697132814364e-19 1.488192479783294e-08 0.0008644293889266345 0.2485707891273058 0.7409580975904 0.009606683893367423 0.06497954754405756 2.527179065968666e-05 0.3416967168439848 0.593298463821298 1.46989782966677e-09 6.923816131136773e-07 0.9999993061484891 2.788481984245784e-81 5.308072939817094e-14 0.5822816528003508 0.4177183027304813 4.446911476416531e-08 6.429023226337769e-09 0.9998677171397214 1.763830908355832e-08 0.0001322587929461048 0.1953915987217003 0.75665959840297 0.04128929642729864 0.006659506448031051 0.006569353700122223 2.62500763928963e-38 0.7751042970108757 0.2183263492890022 0.1909935350224473 0.01243051233568855 2.357500083578502e-12 0.7965759526395066 1.155925730563813e-61 7.640417910029838e-43 1 3.308939632626391e-51 1.555241914199755e-05 1.784439587537729e-06 0.9999826631412705 1.241191184252644e-269 0.997238749347746 0.002758545574662895 1.775335689737711e-10 2.704900057511101e-06 0.04660984596816092 0.2813080999516069 0.6720810131578545 1.040922377637659e-06 3.549979970797577e-08 6.127472899908168e-66 0.9999970332746133 2.931225586917745e-06 0.0251133311247152 2.84016862674957e-224 0.9748866426345094 2.624077556054451e-08 0.8306689270987299 8.208132168952562e-09 0.1693305207389252 5.439542126657565e-07 4.985032300941388e-12 1.14954859756998e-09 0.00213430694642509 0.9978656918990413 0.001267318147856254 0.02469018181483903 0.9740425000371756 1.291640323437277e-13 0.01508457179248583 0.004246373682404722 0.9806690538377346 6.87374855797266e-10 6.944781172209979e-05 0.1769042437574358 0.1706599111911636 0.6523663972396785 0.5685887789532823 4.95629842879388e-11 1.047324006028939e-07 0.431411116264754 0.5566892662830681 0.000673360818181207 0.4426355827227836 1.790175966962603e-06 2.558059831831714e-24 3.409997281978012e-05 1.63558619597331e-18 0.9999659000271802 0.0003220980338517427 0.9766888354253171 0.0006803950845302359 0.02230867145630091 2.274639098566174e-05 2.559370559065488e-05 0.9999516599033327 9.096810296877095e-14 5.922388462746049e-13 0.0001064971070578186 0.99989350289235 3.689476105440075e-29 0.1814428687819445 1.170257823021422e-08 0.8185296130532981 2.750646217917887e-05 0.9969409570795706 7.605057998479668e-35 0.0002651653154752479 0.00279387760495412 0.01005034630979448 0.02724550803140625 0.9626561449663659 4.800069243338605e-05 0.3828570697260056 0.606448251626365 0.01069400859332142 6.700543081319267e-07 0.8273794328393461 0.0001922850678957312 0.1724282820927582 4.735533703233496e-29 1.455341802418989e-34 0.5688009863354407 0.0001780237314563576 0.4310209899331028 3.77288603847685e-05 5.223244123253968e-06 0.0007056404679599782 0.9992514074275319 0.7871021529895201 5.88413865415828e-43 0.2128978470104799 8.884591338577057e-30 0.9947767134652573 0.005223286534742793 9.091287105901322e-19 5.093963235116332e-18 1 9.248109120472078e-20 5.985719088091182e-18 6.37479272423572e-54 0.05011005279117847 2.550714510825164e-07 0.9498896921373705 2.539572459361227e-165 0.0548545634533174 0.555518056214538 0.3409128890361392 0.04871449129600545 4.908972594790553e-05 3.634803538050062e-25 0.0002589941790950994 0.999691916094957 4.80754561213269e-15 0.02995029918254624 0.9672400293043889 0.002809671513060111 0.03236665522190293 0.9586076572587173 0.0001137926079871906 0.008911894911392668 0.02174403960621891 0.008227549231804616 0.9700239538406387 4.457321337728732e-06 7.551736601930345e-05 6.5735104771936e-06 0.5123439806387915 0.487573928484712 9.351515447935635e-09 1.318008318150527e-05 0.1178301717077667 0.8821566388575365 0.1343531157466306 0.345008575206228 6.105732034512892e-16 0.5206383090471407 8.807105523944511e-06 0.04999492497421076 7.859757392380325e-11 0.9499962678416677 0.9881202695210842 0.01015601795429872 0.001723712524617216 8.726269375829449e-29 8.138509382119048e-05 0.820109420729994 0.0178349470794009 0.1619742470967838 0.0006640197681681854 0.002099807374111299 0.03962731392513019 0.9576088589325902 1.192879917405676e-42 0.002183093228008943 0.4340771565967123 0.5637397501752788 0.816252311994947 0.001503101568196817 0.08857318488808047 0.09367140154877586 0.9837881026300119 0.005014837838984423 5.373701744721325e-20 0.01119705953100347 8.666785860628641e-06 6.218782004081077e-08 2.476912105704248e-29 0.9999912710263192 0.00129993871753582 9.70560430829971e-06 0.9979803940457278 0.000709961632428094 2.941614901304504e-10 0.8104038708033572 0.1895961289024814 1.571673680884069e-199 1.336166564977945e-07 0.9942418997565351 2.581103066729914e-13 0.005757966626550486 1.407259486066413e-05 0.001817657782542767 1.768681607264084e-07 0.9981680927544357 8.333332690186188e-10 0.0003166345448931355 4.627268254259415e-11 0.9996833645755009 0.948948753267605 0.01678886731075458 0.01751273952736421 0.01674963989427609 3.047626763300496e-09 0.000229421881145129 0.3896122614685278 0.6101583136027002 0.4753169151689517 0.5246830674472752 7.704306648704527e-12 1.737606868748763e-08 0.004185029454802698 1.770225488609352e-06 0.9958132003197088 6.551968462562067e-18 0.5420120424572119 0.4570727843049256 0.000915173237862331 1.085359836058483e-23 0.7869201573230731 0 0.0003176589451087716 0.2127621837318183 0.2121455247396472 0.4429705860621863 2.648528921457215e-05 0.3448574039089518 1.868006030087164e-99 0.02397358163395054 0.01653991043169016 0.9594865079343593 0.09283408348673869 0.7710279390159676 0.1306940516165708 0.005443925880722876 0.008768312815634607 0.9912316871843654 2.055203300292325e-64 0 1.940493409436366e-09 4.39550125163047e-37 0.004492165618688562 0.995507832440818 0.008677828866367886 5.614012332064143e-09 0.9913221655196198 5.056066455758453e-20 0.008044413134351763 0.04670899213866265 0.6959309564091051 0.2493156383178806 0.01221224217086627 0.9388494079846723 4.360385445175209e-09 0.04893834548407598 7.804466597955793e-15 1.058428355076475e-16 0.0005320783609374857 0.9994679216390546 0.001963029150343575 5.423963100899078e-05 0.2012614399402688 0.7967212912783787 0.8400144951413476 0.1598492210551101 1.328507769921307e-07 0.0001361509527654145 6.050789315944687e-19 6.956882369142321e-06 0.9999930431176309 5.211424590894e-60 0.9999419804994 5.169700169914921e-16 5.801950059931498e-05 9.356111977806389e-27 1.404377404037661e-19 0.9995053653121305 0.0004946346857482682 2.121182994231066e-12 0.9179241991143116 0.0180922261852945 0.06170249514644923 0.002281079553944632 0.9949649226053561 1.256923025062733e-110 0.004768260102119279 0.0002668172925245798 0.9998219462495669 1.26899462317423e-16 0.0001466697351315193 3.138401530131211e-05 3.002005030905975e-18 0.9999999999999198 8.023842694100961e-14 4.032404084664819e-32 6.245409065426669e-23 1.753689447377287e-24 0.9999975068870562 2.493112943788878e-06 1.005226131838799e-09 0.8851518865328114 0.01015960966256669 0.1046885027993957 0.7147665432301044 0.2850761639469487 1.867103517704022e-17 0.0001572928229470683 0.8846186728105371 2.306273397555012e-06 4.933974645154344e-09 0.1153790159820906 9.117594748095678e-05 0.9959531977811811 8.696270872679746e-22 0.003955626271337904 0.9181450836855185 5.818525702017819e-13 0.08185366477717386 1.251536725843475e-06 1.563670481807406e-15 0.9970359417872868 1.110149283921254e-29 0.00296405821271161 7.23515711810513e-11 0.4201311548795914 0.5798686345301491 2.105179081268655e-07 1.045641153053614e-12 1.224816164788742e-09 0.06793901803179139 0.9320609807423468 0.009542595368134727 2.206255694321926e-96 0.03004032945528706 0.9604170751765781 1.43751514638075e-11 4.99891445096236e-10 0.06855874939088323 0.9314412500948501 4.605398023919637e-26 7.163223050979508e-15 4.533835545871126e-09 0.9999999954661573 0.4058692125377618 0.07033198195455337 0.5040931967177775 0.01970560878990733 0.175082295256065 0.8247054312680577 0.000212273429127279 4.675007657297245e-11 0.9998493559607785 1.0163538221535e-05 0.0001402228411282307 2.576598715933413e-07 1.067250230013373e-06 0.02406821518934454 0.7543851565738299 0.2215455609865956 8.489015285330421e-155 4.277222023601374e-70 1.194802718722986e-11 0.999999999988052 1.67971046351072e-09 9.29197877324179e-06 0.9999904994865885 2.068549276788443e-07 1.55320165850404e-06 7.516930976650803e-10 0.01036711158023754 0.9896313344664109 2.361058931576721e-08 0.9999887149303253 1.126145908542304e-05 3.878193790972273e-22 0.8572789302354067 0.0007992570577299618 0.1382120487740939 0.00370976393276951 0.04368753391441607 1.361782205247004e-15 0.9563124659982027 8.737975346412677e-11 6.220835555707796e-48 0.9999999992925517 7.074482960630944e-10 1.429776567388406e-54 0.0009279479063716121 1.407927837788099e-50 0.4765547575303362 0.5225172945632922 1.728085534165983e-05 0.0007160474962938812 0.9973836614965713 0.001883010151793335 6.496634704175739e-14 0.9999525760214012 4.742397853310243e-05 6.633337215643346e-16 2.462019259883898e-05 6.736196569485393e-25 0.9999753798074013 3.44927371107469e-23 0.02195466676169586 0.9585828885959762 8.694576014298457e-09 0.01946243594775211 4.581152824855962e-95 0.6088493978362949 0.391150602163705 3.372588356067508e-76 0.04111308248270926 3.925179205087879e-11 1.741131452940655e-06 0.958885176346586 0.0001009076447086016 3.792662336542448e-15 0.900149473577205 0.09974961877808265 0.1888971805791686 0.8111028194208314 7.490568250506893e-28 1.077652291155923e-27 0.1326900371372223 0.8669110766616143 0.000398856922596424 2.927856704754125e-08 1.995569304612178e-12 2.077600082720313e-11 5.046842845054549e-09 0.9999999949303855 0.6184968835364835 0.000839121146215297 1.390389064047241e-59 0.3806639953173012 1.045356993974554e-06 0.06044208625763376 0.9371340520359562 0.00242281634941608 0.0002797474585198182 0.9996619456636512 6.912792692356732e-37 5.830687782907217e-05 0.2247800419730156 0.7489400723401026 0.01493820383043439 0.01134168185644739 0.04170498801480593 0.4576760811039992 0.500618930881195 1.845661833065181e-26 9.532661270079626e-40 4.505042791248135e-08 0.7566678308038288 0.2433321241457433 0.0038098965015212 0.002892710469600857 0.962039503687659 0.03125788934121892 0.002528352782186473 5.955646874805163e-06 4.366975142134443e-21 0.9974656915709387 5.131498576471063e-39 9.81691013934756e-15 0.003213015058976206 0.9967869849410139 0.01631740482518656 9.507730387310796e-30 1.014401533443059e-22 0.9836825951748134 0.1031631941637019 0.8052361595665269 0.05248862721872291 0.0391120190510482 0.0002896842969659303 0.9994118598356877 1.066314136343909e-09 0.0002984548010324364 0.02828807352116499 0.09123273004722635 1.095695427134818e-07 0.880479086862066 1.840834402099423e-05 3.41805862855842e-19 0.9465818879676208 0.05339970368835825 6.089597349723263e-20 7.276301745628826e-13 0.5583779111865252 0.4416220888127472 6.861789936241725e-09 7.168398170582847e-07 0.9999992762983905 2.599554053691065e-15 1.38003362545635e-06 0.9525714669514815 8.765315546838028e-11 0.04742715292723979 9.781243250476687e-27 0.9995804786903217 0.0004195210410964435 2.68581918224801e-10 0.4437766053875911 0.001921441308604758 0.5543019409577734 1.234603074002066e-08 0.9993730507577396 0.0004662827239105563 2.252060437470013e-06 0.0001584144579123062 3.61508205296278e-12 0.9999997824420287 3.377882825026871e-12 2.175509782693113e-07 0.0295728953121771 0.2256706181726803 0.0001039511347862418 0.7446525353803564 1.70693097071537e-07 0.08936211994749663 0.9106377093576964 1.70997048077411e-12 1.576563929457516e-06 1.852198262604159e-05 0.9999746582313626 5.243222081933941e-06 3.885064750830097e-05 0.001060666069859486 0.001590189881451499 0.9973102934011807 9.013702492637921e-07 0.5925000859973442 2.595894351379852e-36 0.4074990126324066 0.1679996632092241 0.3409836702837842 0.04074454907759772 0.4502721174293939 8.380998014441446e-22 1.550674082172514e-10 0.9976866447722644 0.002313355072668151 0.9980268670583921 7.330769402999201e-06 0.001913776250937852 5.202592126705289e-05 4.723811500387762e-27 1.351614805119081e-10 0.975896140495627 0.02410385936921147 0.8795596368968751 0.0001524839762987153 0.1202878791268262 1.065557462571395e-18 0.9804753176625709 0.0005262960913099789 0.01879143729808992 0.0002069489480293284 0 0.01804304954388826 1.239130978704136e-10 0.9819569503321987 0.9999608754710627 3.912449200058934e-05 3.693669688982608e-11 1.958178535465552e-34 0.9984731944981069 0.001525151407364288 8.534112997370234e-08 1.568753398786471e-06 0.8811422729939846 1.272302549912585e-12 0.1188552113775911 2.515627151963309e-06 0.9523294151831243 5.174775700301191e-05 0.01015920118706195 0.03745963587281066 0.6964304691046681 0.3014774359277833 0.002092094966982534 5.659653196251126e-13 0.007114405992069922 0.7088917967198909 0.2839937972880392 7.048495838101537e-22 5.929185278361019e-05 0.9636198948620226 0.03625475187501141 6.606141018242087e-05 0.429474033007665 0.05838486773570347 0.4839321831265408 0.02820891613009078 0.003452773382956206 0.001399502944751414 0.2884030196828164 0.7067447039894761 1.73228589090911e-36 0.9999999983148571 1.685142885548875e-09 2.838125351309128e-17 2.316887713085139e-10 0.9999990434227198 2.552009844877036e-27 9.56345591415524e-07 1.498201779294927e-271 0.1911912151157558 0.8079523507673122 0.0008564341169318932 0.306947459871213 0.687296861744455 0.001926867520521022 0.003828810863810938 0.3445015848420373 2.750625369308715e-39 0.6554984151579628 6.441350368732557e-51 0.9159129768726916 2.005453700161427e-08 1.143482961624361e-06 0.08408585958980991 0.1358195853623974 0.8633557888577188 0.0006447522436263593 0.0001798735362574727 1.501753433709129e-23 0.7945604490386532 0.0001504474428320256 0.2052891035185146 3.338204504121729e-08 5.34005992631702e-08 0.9999935409577615 6.372259594179476e-06 3.658830737608529e-13 0.004291402530367437 0.9395417189919711 0.05616687847729564 5.978957674753419e-08 7.929399006334631e-16 0.7259028586843811 0.2740970815260412 0.0002062023197120033 0.00505616715887598 0.9947372380457264 3.924756855506777e-07 0.02153263392478313 0.02802136878306178 0.9504075056100437 3.849168211133225e-05 0.7023637254190168 1.580831542088615e-07 0.297636107029719 9.468109721877474e-09 0.9567723606582622 0.02460892896929728 0.008933104147801921 0.009685606224638621 6.716797745357213e-07 0.009900996782212873 0.7375245873794763 0.2525737441585362 0.02557414080460117 0.6877919671182706 4.343733125157195e-08 0.2866338486397971 1.736297687640538e-18 0.9986819801901212 3.454230663985557e-08 0.001317985267572171 0.7049749424979669 0.152127815100481 0.1416608283056591 0.001236414095893089 0.004271433581983041 0.0105822066917067 4.799915220955061e-09 0.9851463549263951 0.0002470932614542704 1.762127861653379e-11 0.9997529067209244 9.060648938545639e-100 2.926210983993269e-44 1.261593027806438e-12 0.9999999999987383 0 0.980811919454426 0.01839518425000316 0.0007928962608518397 3.471903110556949e-11 0.2848437726556503 0.3171614716010819 0.002263071495729119 0.3957316842475386 0.03179212767388483 0.9682070859290687 2.357091485457636e-149 7.863970464878598e-07 6.765374230065013e-08 0.300225734009813 0.3799649809822412 0.3198092173542034 3.862478850574569e-18 0.01555982320115071 0.02997364881158781 0.9544665279872615 2.175271078266344e-12 0.1301115609030046 0.6968772872668173 0.1730111518280028 0 5.828534110227503e-24 0.9999416964868524 5.830351314763381e-05 7.482712420711879e-05 4.30831789089529e-110 0.999925172875793 3.081580678942022e-19 1.733325891766362e-11 0.9999999948816055 5.101061343053671e-09 1.387691144705047e-19 0.9722289074850756 0.02621977412599353 0.001551318373328138 1.560267387523652e-11 0.3624252208593739 9.812949862128391e-18 0.5600833957896242 0.07749138335100204 0.03575273426861993 1.283238933185523e-34 1.871918123349892e-21 0.9642472657313802 0.9996225405365498 4.850478642673313e-10 0.0003774589784022857 4.345440635823969e-26 2.955627230592531e-08 0.002711856663431668 0.9972881137802961 8.460451078782062e-18 7.444304943421153e-08 2.039709314586739e-05 0.9961362347917406 0.003843293672064005 0.8271573193019838 1.083296780273632e-06 0.172841597401236 2.39119840200413e-36 2.332250101844602e-104 0.9830263000317855 0.01697369996821452 3.135839175329745e-19 0.9965661972026775 2.297225382829786e-149 1.437982314658971e-14 0.00343380279730816 4.148123502433205e-05 0.0008843746098919341 0.7348573106684841 0.2642168334865997 0.7428704958199515 0.2530748381345191 0.004050952373690215 3.713671839187381e-06 8.334771482525141e-13 0.001376889301520947 0.9904454784728914 0.00817763222475407 3.227017522748597e-19 1.365575664853225e-45 0.001154540612591328 0.9988454593874088 1.532254902473422e-06 8.161273734779596e-20 0.9999964256797325 2.042065365176047e-06 0.1691330781805351 0.003613474828515527 0.8272534000719756 4.69189735436254e-08 0.002488119803734898 0.9973479584199937 0.0001639217762712917 1.04917836726334e-162 0.1049365737112133 4.938199998870583e-09 1.269487051178194e-05 0.895050726480075 0.9985105034507005 2.456005622019987e-05 0.001464936493079346 1.466049187461415e-117 0.1637816079244231 0.8362183920755558 0 2.098307246725775e-14 0.0001955647781103102 1.329237200026049e-05 1.096249937678731e-20 0.9997911428498895 0.6987352186155863 4.211588117913832e-06 0.3012598510561973 7.187400983745894e-07 7.856027925314013e-17 0.2450165459111275 0.6852893477340966 0.06969410635477577 0.004882447110802404 0.9951175448267926 8.062405089884339e-09 3.662940341404785e-75 1.90928386405528e-16 0.002831658950548781 0.04475867817748626 0.9524096628719648 0.9991744911876103 8.000380754525695e-60 1.355055320489902e-14 0.0008255088123760012 0.1910683737552591 0.7797138868334118 2.308353123047052e-07 0.02921750857601662 0.01080396226677407 7.716849874173732e-13 0.001098976743916242 0.9880970609885379 0.0001398694693853432 1.047564747096293e-37 1.471953080964937e-23 0.9998601305306146 8.804982367308224e-28 0.8655275252559226 0.004247162350285651 0.1302253123937919 0.7784985128266851 0.2215014490865188 3.808679588272328e-08 7.139864897875533e-46 8.779851290085636e-06 1.291613430007105e-07 0.9999477789846616 4.331200270555449e-05 0.03416862143073712 5.371966568718331e-06 0.9658260065107664 9.192777754541812e-11 3.04620240406905e-09 2.143666231885096e-11 0.9571879433066492 0.0428120536257116 0.141293320792808 0.001884401555498701 0.8568181739900225 4.103661670759571e-06 0.9996678137562035 0.0002872482107146777 0 4.493803308179569e-05 3.28215059214072e-05 1.025021109291062e-07 0.9999670759919361 3.142294690167772e-14 0.1549494084078467 0.6714317886847445 0.1736188029074087 1.627928600532173e-72 0.005451146571567571 0.01519975046702908 2.809826910974887e-05 0.9793210046922936 0.7378070211705879 0.2324260876952893 0.02976689113394277 1.799926936616977e-13 6.106340575811331e-53 0.0002738682749619869 0.04181532746102481 0.9579108042640131 8.440252940690804e-08 0.9999999155974643 5.378327626570638e-18 6.346495941985972e-15 6.925439400034696e-09 0.0538328202773191 0.9461671727972415 3.116555239228466e-24 1.207688168810199e-06 0.2836137528273329 0.7146861086757813 0.001698930808716933 0.9962446895876542 3.604133320484385e-05 0.0004396615718151506 0.003279607507325704 0.0008430476481855758 0.9991564796385796 3.633917141642528e-07 1.093215205463612e-07 0.9994214273993022 8.015956407055781e-08 5.41674882296306e-23 0.0005784924411337266 0.06316092513270399 6.720100689183396e-22 5.362806010488529e-25 0.9368390748672959 4.258638745823243e-23 1.614696930109593e-06 0.3085523931196231 0.6914459921834467 0.990440538726282 0.009559461273709755 7.007359631765197e-22 8.193441305612911e-15 0.9984351960146112 3.651977339590215e-11 6.766564290398303e-07 0.001564127292439973 0.8403458531658328 6.351109239003199e-21 0.1557835595086427 0.003870587325524615 0.01798071361663954 0.9820192863833606 1.95007236345661e-37 1.43558411980888e-71 0.5918946195968892 0.4030853928276577 0.002091669845050038 0.00292831773040321 3.885595212237698e-60 0.0005376546736657726 0.9994623453263342 4.982093165031831e-28 1.496218375558079e-06 1.197823900462439e-06 0.998744264315143 0.001253041642580993 9.357762935594361e-07 0.0002180326703872823 0.9997796085307304 1.423022588724717e-06 1.356872204682828e-05 1.364104222112367e-08 0.999986417636911 2.291685958497366e-24 0.3470744379630317 0.5398980415299828 4.293261081348353e-05 0.1129845878961721 0.26723287107653 1.683446930447517e-23 0.6936272219905276 0.03913990693294227 0.9375306420764422 0.008168179679545551 1.358185024478863e-07 0.05430104242550969 2.568131868650971e-05 0.9972231469765205 0.002751171659897771 4.489531878417962e-11 0.09192685226678231 1.31003894240054e-138 0.9080731477332177 2.160499363867655e-31 6.573509223450531e-08 0.09042665257760742 4.844673289047147e-26 0.9095732816873002 0.0003390443880653524 0.9978434377388183 0.001766981811154925 5.053606196136077e-05 0.01947892351250223 0.003501005557213319 0.9699347299354848 0.007085340994799582 0.2303515651316241 1.623694982724737e-14 0.7696484348683595 2.849016250357562e-31 2.744584333668213e-06 0.0005301383163157698 0.9067246906961489 0.09274242640320156 2.418019133845263e-14 4.839481193905171e-07 0.9999995160518566 8.691231954697698e-53 0.8570903654319985 0.1080793530173801 0.0001791963200730455 0.03465108523054847 0.02977544147737085 0.6020162891123615 0.3682073870518477 8.823584198566576e-07 0.9412968498395181 0.03229045028465122 2.366560347728191e-24 0.02641269987583065 0.999700982575631 0.0002814747319386803 1.555739584442322e-05 1.985296585785619e-06 0.2920655024638331 0.06772229052502371 0.1386537110135155 0.5015584959976275 0.000113581577730049 7.54068318147418e-20 0.2181533896830484 0.7817330287392215 0.9999999995317982 1.620583776636681e-187 4.682017835112601e-10 4.631835554000917e-59 0.4974793430711169 0.499043154268633 0.003473080444953468 4.422215296687106e-06 2.217504368992222e-06 0.8284915193299611 0.1715062631656698 9.767406693220927e-44 2.726475503422365e-05 8.895420479121086e-07 0.9599319704764051 0.04003987522651274 0.007843510146294499 0.5333688074986384 3.345547838463452e-50 0.4587876823550672 0.002756593875470374 4.734612614164423e-05 0.0327509372470384 0.9644451227513496 2.194249219651906e-05 0.9670091685772091 0.000474449866516045 0.0324944390640782 0.1738808336321911 0.628198190432012 0.1979209758815474 5.424943323956813e-11 0.0004756881375414657 0.9983103517380009 6.173788601992464e-08 0.001213898386571666 0.01135083703029532 0.01188153855365247 0.9767411532263097 2.647118974257889e-05 0.0001557512874470264 2.191078726969006e-10 0.5526568467661639 0.4471874017272814 0.9382855212821551 3.387615664190317e-06 9.335834433196979e-05 0.06161773275784872 0.9988223773197324 9.560738138842822e-06 4.692450382272885e-09 0.001168057249678377 0.002646037387032674 0.03695314462542987 0.9603776362311256 2.318175641189258e-05 0.6835756000594153 2.564226052841816e-16 0.2629501360236558 0.05347426391692849 3.641884435139237e-06 2.998539377492434e-06 3.172146670687989e-10 0.9999933592589727 1.858470788802151e-11 0.9129464258630914 0.08705357411832303 8.087431721778686e-16 0.1078264787492868 0.8091769124923029 0.0469161777429418 0.03608043101546859 0.998628343106149 2.013226715346019e-17 0.001275698846187314 9.59580476636412e-05 0.7253056160913004 0.2448181043099275 0.02987627959877202 1.20853505606236e-24 0.1035952207780967 1.857368656690488e-06 0.896402921796431 5.681553427272735e-11 0.02621425298846744 2.199527354911761e-11 1.577388479690303e-14 0.9737857469895216 3.570836690464116e-41 0.01834413971546988 0.8251331933942277 0.1565226668903025 0.9919227443102318 0.00807725568976814 1.016521589726135e-49 3.851822728164345e-33 7.701155207947137e-25 0.9680350835454075 0.02461699698456561 0.007347919470026815 0.9999999997871668 2.128332353988772e-10 4.130191929432142e-38 5.17311604104255e-113 0.999921439928395 8.318112246933811e-06 4.60674476123036e-05 2.417451174577101e-05 0.9819570530963715 0.01804294690362849 9.569386464067815e-60 5.449768959862201e-37 0.08574713274890033 0.01578902874459091 0.898463838400174 1.063348392302616e-10 0.01313152517353048 0.04829535507089894 0.02143312790426635 0.9171399918513041 0.4714749739132074 5.268761624987279e-08 0.1027771354478977 0.4257478379512786 0.02111586590030791 0.1216276368145483 0.7867003813278055 0.07055611595733834 0.2880186107398115 0.6871736493094782 1.736406506815111e-07 0.02480756631005954 6.598604468928823e-06 0.002788724844241524 0.982001316756301 0.01520335979498863 0.01056622389854294 9.19711345178809e-33 0.07341784996908753 0.9160159261323695 0.9996922232332509 3.096542750237157e-08 0.0002589490380838409 4.879676323774111e-05 1.530849654684383e-176 2.02423852276401e-13 0.06196495702717529 0.9380350429726222 0.01067034372137961 6.070786303588672e-12 0.1843065964316243 0.8050230598409254 0.0006686906452664211 3.050218426657827e-05 0.00160555077976191 0.997695256390705 0.9974789691424077 9.89890096471824e-40 0.002521030833778102 2.381424011167764e-11 0.01883878244416634 2.257232181487695e-05 0.9806403094186524 0.0004983358153664587 0.002479237777531093 2.270812872786813e-06 1.937617515443285e-08 0.997518472033421 0.0119411299438491 0.001705354102835098 0.1951283803335912 0.7912251356197245 1.176498506917603e-05 0.9364441088460674 0.04296098688105229 0.02058313928781103 0.2184129271133546 0.6156728209490506 0.1547830196912422 0.01113123224635244 0.1963780300348192 2.217098713031296e-37 0.8036006714075928 2.129855758807542e-05 1.256011784763631e-19 0.0002918356603236622 0.0156710746203535 0.9840370897193229 0.1171435456528003 0.8095560650103577 0.05576970912462899 0.01753068021221303 4.454735617044946e-08 1.85765089996165e-05 3.466381313695459e-15 0.9999813789436406 0.3707308567922006 0.003460413118592385 4.524618169588658e-29 0.6258087300892069 0.0001479621487279338 1.866937832751718e-12 0.999852037849405 4.516266194543112e-33 7.923220053671323e-10 0.9999999992076736 7.366109914198651e-49 4.442435420124204e-15 3.276983701025843e-30 0.999727100309198 0.0002620529784621907 1.084671233988886e-05 0.1646479333635166 0.0385778363087723 0.6476544234909681 0.1491198068367431 0.9942492038635233 0.0003778390462610908 0.005372957090215539 4.33022595571757e-223 0.002453136803313774 0.9975420746594365 4.788537249891947e-06 6.506343330166046e-49 1.316301992161949e-20 8.33112444580295e-29 0.987522727417694 0.01247727258230605 0.929301494032255 3.333954053998497e-08 4.333821254834904e-05 0.07065513441565616 1.201837216356282e-09 0.7944933120097329 8.759371506823912e-06 0.205497927416923 4.620526384573344e-08 0.2809802883636594 0.001126062281239103 0.7178936031498377 0.0003167481267216991 0.9884879901801465 0.01119526128843496 4.046968754328674e-10 0.001450731272518296 0.9470519484148276 6.959417108621805e-15 0.05149732031264698 0.01754537615942996 1.687622736886506e-09 0.9824546221529474 9.574180883479582e-35 2.88025429996431e-07 0.1013948054411532 0.8986012700730557 3.636460361055255e-06 0.0001784869197655812 0.9856245495913916 7.033164881931505e-06 0.01418993032396078 4.043884616631666e-06 0.5354665932724931 6.353882880492637e-13 0.4645293628422549 0.02817226256624522 1.451939268487743e-08 0.7851979842793497 0.1866297386350124 3.976955275613633e-39 0.05005541984711882 0.06579718178262239 0.8841473983702588 1.268495467223286e-23 0.999999999973891 2.610849992296051e-11 3.988676686805066e-16 0.0002931892153340129 0 0.08339046632557653 0.9163163444590894 0.03039075261160203 0.5819265481960183 0.384510142528803 0.003172556663576723 0.008423788212312034 0.05325452906820146 4.819408655462276e-06 0.9383168633108311 1.499307621253041e-06 0.9859849636287098 0.01401352840560622 8.658062671961126e-09 4.241913055930823e-05 3.987387726088592e-18 0.9999571449574615 4.359119793041388e-07 0.935098812889588 0.03629420692001063 0.01860158708482527 0.01000539310557611 0.25882668115893 0.74117331884107 1.055235085655423e-56 2.741219831542378e-58 1.443129647850216e-09 0.2096837113136099 3.348892371682763e-05 0.7902827983195435 0.9999967743258876 3.222751853249014e-06 3.144613206919491e-18 2.922259203319883e-09 0.9953928382013755 0.0004200551179581999 4.674102893417973e-08 0.004187059939637516 7.394990739708327e-10 0.7656278417931706 4.917735112837184e-06 0.2343672397322176 0.230207721867843 0.02604485840858534 5.108510015617658e-11 0.7437474196724864 0.001629526412805269 0.0002599549774057804 0.274894557905091 0.7232159607046978 0.9999999004943484 2.854040444519703e-09 0 9.665161117559298e-08 0.992536738034272 2.553049322840493e-135 5.163896710802881e-28 0.00746326196572795 7.436276840513664e-05 0.000223673205882211 0.05254445453038344 0.9471575094953292 0.9999999973780094 7.793605187525911e-14 2.621912740870245e-09 2.824293746110018e-18 0.7064973713236816 0.003182245601510766 0.01230029341599172 0.2780200896588159 0.08985640918851609 1.378681525264769e-53 0.9101435908114838 1.627404265274444e-37 0.8450716470269358 0.03840056733725628 2.36580648543966e-07 0.1165275490551593 0.01711545537800079 0.00995544223322113 4.918203958717316e-14 0.9729291023887288 7.313918149531626e-13 9.672394669637406e-23 0.01131524329964421 0.9886847566996245 0.19317103937836 8.218045223889911e-05 2.426145375687388e-10 0.8067467799267867 1.196480374007325e-09 0.9654540746381662 0.001147269792501302 0.033398654372852 0.005769695029200633 0.001874669027121804 0.9923556359414111 2.266585460544327e-12 1.066084108293468e-17 0.4861107167222453 0.000140418700484049 0.5137488645772706 0.2713033278550392 8.196510633151605e-07 0.7286958524938976 4.929841971509237e-25 0.9012361970382323 0.09876366023660035 1.403631698827271e-07 2.361997622732053e-09 1.807797312373712e-234 0.395518936954337 0.5962415443571137 0.008239518688549229 8.912422844120736e-07 0.1285353883873423 3.333156114993169e-05 0.8714303888092233 0.002256758058100935 3.388097805956941e-09 0.05082654697335631 0.946916691580445 0.5719335406431642 0.4280582401777912 8.21917901474488e-06 2.980409881502659e-14 0.008462881335217167 0.07631793284685567 0.9152191850561507 7.617763966674578e-10 0.3775357280031842 0.0001724921711139117 0.04676197307170919 0.5755298067539927 0.9071356072413452 0.0003837152368260288 0.09247132044187904 9.357079949578457e-06 1.119142790554398e-09 0.1392506369722996 0.4359027760375761 0.4248465858709815 0.9854392884132971 0.01356229316965957 0.0009983361913462154 8.222569702491273e-08 0.0007412142830489198 0.998861148703297 8.430189809144779e-111 0.0003976370136541247 0.9454676387256048 0.005410856933974884 0.03363716505919821 0.01548433928122231 0.99998377288912 3.053225626022178e-06 7.535296460765251e-24 1.317388525398325e-05 0.8993525061513966 0.001215942877742666 0.09943154959902838 1.371832424413032e-09 2.28617271875849e-06 0.001942690597169543 2.658588175830268e-09 0.9980550205715234 0.209503250597172 5.610765800461366e-26 0.7904919115596438 4.837843184230502e-06 0 0 0.9999999672499473 3.27500528406909e-08 1.785799971642526e-22 0.7149126523230149 0.285087347676985 3.931437642697271e-34 0.9737469987850164 0.002135299123744199 5.451611988844131e-39 0.02411770209123954 0.9953046136798114 0.004256411610548945 1.331251759464391e-69 0.000438974709639649 2.256345697493417e-198 5.064938429431977e-09 0.0008703909487075518 0.999129603986354 0.9999999842542935 2.791157468705894e-10 2.465977658422409e-17 1.546659079299462e-08 0.9984419942603401 1.970849181055457e-21 0.001558005739659808 3.157288813571167e-21 0.001210513413442743 0.001331471075876773 1.614303011317296e-46 0.9974580155106805 6.884428625379206e-08 1.315001442558723e-15 0.4993366555579939 0.5006632755977184 0.2770268498525509 0.7210600370349775 0.001913112432024006 6.804476940616101e-10 6.375149219432187e-25 0.003742219265696168 0.9962577807327517 1.552193696824452e-12 0.9045390414147909 0.001143961232729295 2.508607048127139e-06 0.09431448874543152 0.0006074570552310362 3.548426438068091e-07 0.9993921881021252 2.279685861514506e-130 9.04924302779205e-15 0.7708475743670694 0 0.2291524256329215 0.002997317656662031 0.9970011156926866 3.996860280667962e-11 1.566610682782493e-06 7.238210761753712e-24 0.9740157811462431 0.02493243669700494 0.001051782156752083 0.07834483008766331 1.646417868934937e-27 0.8889992288466823 0.03265594106565452 0.04065269061523537 0.1312802280545098 0.8280038924348611 6.318889539397066e-05 0.952865272870805 6.79413906384905e-19 0.027957546954959 0.01917718017423602 0.2066497203315844 0 4.183953758091927e-73 0.7933502796684156 2.232300402281401e-06 0.0003157451081777038 0.9884698740159866 0.01121214857543336 0.02201466150388019 0.3129149264107615 5.045852853539628e-38 0.6650704120853583 0.587807091777769 8.657751902202764e-22 0.4022903045356789 0.009902603686551966 8.713030263412535e-20 3.835498294981416e-07 0.9999996164501704 5.32596358639479e-17 0.9914217210133542 0.0007498599634843693 0.007828419023161459 9.366565057004696e-130 0.0009040587289400219 3.56686079182933e-05 0.9965999711551888 0.002460301507953051 0.9715403636777808 0.0009999482855150964 0.02745968802308778 1.361628371709257e-11 6.266399650958305e-68 2.745672918044348e-47 0.250258068997387 0.7497419310026131 0.02180663029557939 0.9732823418867687 0.0004887968012062177 0.004422231016445735 0.06093599570830113 0.09600901942889827 0.8430546485276594 3.363351412533069e-07 0.3172266691606029 5.400317224771748e-26 1.065017794467336e-09 0.6827733297743792 4.9182212939174e-05 0.3582859516881923 1.991789516674564e-07 0.641664666919917 0.005570293245263825 0.366542203020801 0.03316383203999627 0.5947236716939389 0.02954244635643944 0.8555143808474608 0.01277557170318839 0.1021676010929116 0.9561044027358457 0.04357131736064992 0.0003237562151675305 5.23688336633148e-07 0.004167552444471461 0.1949650746164829 5.115828867422608e-16 0.8008673729390451 0.006182576900960943 0.01911971916403986 3.467116872882439e-39 0.9746977039349992 2.864252553181395e-33 0.01810019070478294 1.715972308375303e-110 0.9818998092952171 0.0005810161917286621 0.6894971715302359 0.2103157499641464 0.09960606231388895 0.7220677532511488 0.005578636878999678 0.2721365499685654 0.0002170599012861341 0.001272311517120058 4.96684010061163e-10 0.01954915023463684 0.9791785377515592 0.08701553297820017 0.9121889747787316 5.897033723267875e-05 0.0007365219058355965 0.9934625890475158 0.006537410952484209 8.048737718429275e-48 5.339425840579673e-18 1.781768249828602e-07 0.8851799425148292 2.429042931377269e-06 0.1148174502654144 7.577214828922656e-06 6.202701494281075e-05 1.09287199394289e-69 0.9999303957702284 3.045264375839971e-07 4.782100052598285e-14 0.9999996954735146 2.72023946605554e-226 7.668147631065884e-08 0.0006079876619151188 4.487107662283765e-11 0.9993919356117376 0.9242372987714097 1.743583573438239e-05 0.007249033384286487 0.06849623200856951 1.184765718937423e-11 0.9996101910304214 0.0003898050389369559 3.918794136891049e-09 0.009354671844050068 4.031837219724923e-09 0.9906453241241128 8.835281072422168e-44 0.004611218955575288 1.13813255440616e-25 0.9953887810444247 6.556971753842346e-26 0.9999984347618919 9.949497265643027e-09 1.555288610973075e-06 9.33179104901917e-130 0.06234736681704763 0.8032083399458775 4.645390568777613e-07 0.1344438286980179 0.01467879270523354 0.1371149168743562 0.8481877464775486 1.85439428617492e-05 0.0004742055545215539 0.01859738635646319 0.7106844735365909 0.2702439345524243 0.8120086635256551 0.008271092442453888 6.827779313323874e-96 0.179720244031891 0.005091496543268943 0.9894892453493835 0.00540226587613882 1.69922312088376e-05 0.6553253310927302 4.526756137294404e-07 0.0003760892929888198 0.3442981269386674 0.9582998922290317 0.004001217324930507 2.72973029807331e-19 0.03769889044603784 0.9473857337274364 1.621176573069608e-49 0.0037610942785565 0.04885317199400704 0.05413566767532402 0.07575269834407364 0.02775679672026509 0.8423548372603372 2.394188862833946e-18 0.9999999999999994 5.442574979174931e-16 3.381739940529153e-99 1.341399075922273e-15 0.2771219114634033 1.916846379016507e-06 0.7228761716902165 0.246472014895765 0.1223298243540472 1.815168493320294e-05 0.6311800090652545 0.2962955754676307 3.291291607672389e-07 0.0003669064976898164 0.7033371889055188 0.6454033338813858 0.01665129680744445 1.540159473105758e-08 0.337945353909575 0.03463500178261734 0.9615786835268249 0.003743479889487325 4.283480107055819e-05 1.564262298978914e-07 0.99999984357377 6.851081799328609e-34 3.977573101681021e-22 3.054532621963224e-10 3.565373909962557e-05 0.9999643457952778 1.601693825410063e-10 0.000885796924830863 8.200432730820475e-06 0.9217565720892881 0.0773494305531503 1.869420232245624e-10 0.003720650701804865 1.332366334150352e-05 0.9962660254479118 1.372570407289638e-12 0.1042290576301108 0.06482761436845681 0.8309433280000597 0.9585030068669431 4.346269153823607e-10 0.03763074805436612 0.003866244644063836 0.02403554639448092 9.821669457898469e-28 0.1950972571282085 0.7808671964773105 2.082927350881915e-18 0.005691816740538784 0.994295806866579 1.237639288215873e-05 1.17259108342748e-54 0.9809170472995054 9.49529985861452e-11 0.01908295260554165 2.094776830244115e-09 0.999861523518408 0.0001322998930726106 6.174493742671005e-06 1.415720776365055e-08 0.0001421122879999585 0.03363781278021412 0.9662200607745782 0.9996218882619493 4.906665800139447e-05 2.2494993362063e-05 0.0003065500866872697 6.609761056316291e-07 4.568238977810348e-12 1.283110396440679e-06 0.9999980559089297 0.004409437805743833 0.8934643780627917 0.1021261841314645 9.999389912151482e-32 0.9635609025405315 0.01085177796290305 0.007084899701869946 0.01850241979469544 5.66556963959241e-09 0.9999999939685142 8.476247166165066e-16 3.659152254903686e-10 4.140817936589051e-09 0.797242466409761 0.0006188137500864095 0.2021387156993347 0.004793305763258185 0.8486394510848893 4.981783670035501e-15 0.1465672431518477 0.994754819492213 1.100017148779646e-12 0.005245180506666934 2.016165412658252e-14 0.9906507958231023 9.999631922206661e-08 0.005467522342704783 0.003881581837873647 0.02855504406940349 0.9714414149240619 3.259737487650112e-06 2.812690470370552e-07 0.1887234265955594 0.8112747663455212 1.807058919343517e-06 7.235265941634794e-23 0.01220911596452932 4.811559852842142e-23 0.987783645786431 7.238249039625262e-06 0.6797761712521236 3.823788563728448e-06 6.822134182450986e-79 0.3202200049593126 1.067170290028203e-07 0.009728875143139325 0.9835210625958706 0.006749955543961182 0.1052375667778965 0.001503257035569973 0.8905127835702615 0.00274639261627192 9.399034254491705e-05 0.8273277833823224 0.05892442613787816 0.1136538001372545 0.4965109241068341 0.01971635632727313 1.469603937279318e-39 0.4837727195658929 1.350870575553973e-13 1.085686331195201e-48 0.1798127568045511 0.8201872431953138 0 0.9997234755457017 4.429717876673299e-14 0.0002765244542540547 0.9315762626945028 0.06656454369386375 0.00185919361163349 3.489606149886848e-96 1.506307993984372e-94 0.9966900235780747 0.003169893942397468 0.0001400824795277662 5.136382987521792e-16 0.0002075691068362093 0.9986764644723048 0.001115966420858393 0.01203981013994694 0.001124256245700687 0.9868359336143379 1.446899930327052e-14 4.266690074303158e-05 0.8196469934813937 9.442201824763507e-15 0.1803103396178537 1.804085562470201e-12 7.376843735713836e-37 5.414996402101653e-20 0.9999999999981959 1.7465435431502e-49 9.341688001202727e-05 0.9829587631041089 0.01694782001587892 0.1735534830712454 0.8264245453550907 9.889832979691262e-13 2.197157267501809e-05 2.820243839330092e-11 0.9852943684165706 7.079756894533974e-05 0.01463483398628156 1.422863167672253e-06 0.2588058075762112 7.095821784644557e-06 0.7411856737388365 0.09620504703025966 3.877067850431542e-05 0.9037561822912222 1.385326902340634e-14 0.2212571082874425 0.004759298861278328 0.0827303278231506 0.6912532650281286 0.04325317341068163 0.9239686489322944 8.290511919163093e-114 0.03277817765702409 2.122555270587107e-05 0.9421882585949957 8.279556073519251e-09 0.05779050757274231 0.9481661445801802 3.176615916254114e-07 0.04359281731858364 0.008240720439644425 8.334371561136175e-06 0.3597937232278225 0.6400512913945182 0.0001466510060981066 0.05021598165396338 0.01785286278160608 5.865121771114526e-12 0.9319311555585654 4.846032592619966e-19 0.9999999904682674 1.771506760645516e-36 9.531732601970162e-09 0.8424137950295907 0.004839729451573394 2.238969732129328e-08 0.1527464531291385 0.2131238523797307 0.7868761476187107 1.647520559976191e-15 1.556970065099134e-12 0.3183438243060637 0.08457065457115114 0.5970855211227852 9.528667854959715e-39 1.128504096847496e-12 5.650509904848172e-08 1.811945786646373e-09 0.9999999416818266 0.2988324504409194 3.15728294382434e-26 0.07216563851241976 0.6290019110466608 4.657068372629508e-21 0.1893158669057417 0.8106841330716601 2.25983372531427e-11 4.527282899332524e-15 0.3227935453942669 0.6385146446675974 0.03869180993813107 0.9477718151392804 0.0004031112994823613 0.05182507347722001 8.40172989863898e-11 6.435774692632832e-32 0.01074501154594878 3.331347812531281e-11 0.9892549884207377 0.01022412856513646 0.5617611671494047 0.4280147042756201 9.83895867929634e-12 0.9963751910846582 0.003428677307925879 2.645624424029508e-12 0.000196131604770352 5.156950187545042e-27 0.9999999998801103 1.198894727667279e-10 5.60383611245161e-27 7.32310605130832e-09 5.706201066635014e-06 0.985120265851907 0.01487402062392025 1.91499049294482e-05 1.157970274463979e-07 0.9746858562555971 0.02529487804244597 0.1149897365665634 0.8850091499130087 5.519744403193257e-08 1.05832298381732e-06 8.689892636183658e-102 0.9999758409910776 0 2.415900892235007e-05 0.0003667225264816863 0.978805398100868 0.01805457609820705 0.002773303274443149 0.1115632172629402 2.867900244085306e-10 0.8884367824502698 8.04236940505451e-38 0.9614463270909196 1.238041871242954e-13 0.03855367208795944 8.209970578934916e-10 6.375873455360343e-17 0.992897521226753 0 0.007102478773246954 0.8713515155747736 0 0.1286220213568925 2.64630683340082e-05 7.439293962586264e-110 2.039223338744446e-05 0.9999796077666124 0 0.003997219272743093 3.253684614122238e-19 0.05214042725844684 0.9438623534688101 0.9998536540129256 0.0001446032644174163 1.008538098265143e-06 7.34184558890594e-07 2.382855552626147e-25 0.9986574895690642 1.306415462950423e-06 0.001341204015472907 0.359083807736252 0.6365345321322641 0.004381530393420158 1.297380638803234e-07 3.5039955461786e-07 5.800402269523835e-10 0.01473059954567035 0.9852690494747348 6.524564726723322e-08 0.04126500258369576 0.25801940258642 0.700715529584237 1.651033420227822e-132 0.9999987591227724 1.240876732377496e-06 4.954538175195005e-13 5.263299513598968e-07 0.3935441206201911 2.708262384941363e-26 0.6064553530498575 0.003681766930879382 1.835879347148153e-74 0.9963182328876956 1.814250807507091e-10 0.6415531562060059 0.3584468417227267 2.071225707836274e-09 4.174510752535796e-14 0.0002984903693696395 1.560396288363462e-18 0 0.9997015096306304 0.360751160552291 0.6390688092419946 0.0001730268846611542 7.003321053327042e-06 0.00243379910003567 0.3949514474612028 0.6026147534387616 2.386742669893116e-28 3.560825825498609e-25 0.9999999999738037 2.619636556867973e-11 3.714677613859459e-96 0.9905475999899795 1.211563311357284e-27 0.00945240001002042 3.407391375888347e-19 0.786716121160543 8.166490979467495e-12 0.2132838760227499 2.808540611906608e-09 0.9227740867551438 0.07722591324440521 4.507493633022069e-13 1.379187797808435e-24 0.9974535839586914 0.002194128707985136 6.670466157163176e-05 0.0002855826717517937 9.172157606958779e-06 0.9999889806736996 1.826239163371746e-09 1.845342454488146e-06 0.04502838111494825 5.619563369438188e-09 3.87274103924096e-07 0.9549712259913844 0.9999939295084758 3.619069860432917e-28 6.070491524171456e-06 7.827885849672032e-31 2.414064101854677e-05 0.8188515496732848 5.887119511307461e-07 0.1811237209737455 0.9988904925252419 0.001109507474758082 2.959288151081857e-26 2.052646469898775e-40 3.600990562230295e-08 5.061865643720746e-05 0.4527000643761848 0.5472492809574724 0.009874416891186745 1.003819035941645e-10 0.04507301562705205 0.9450525673813794 0.4491607495577111 0.5508384587551967 8.087126014228008e-09 7.835999661866649e-07 4.296543377958246e-09 2.489797434842405e-06 0.0402398862011849 0.959757619704837 0.0009798406033186559 0.5030861000797074 4.969506499235237e-38 0.495934059316974 2.443287681356712e-41 5.32776627071501e-06 0.9988278643387422 0.001166807894986992 0.00115582559027526 0.9275855638879558 0 0.07125861052176886 0.08797523731371464 0.0002714329820383187 0.0008502588694248651 0.9109030708348221 0.6465665356476749 0.01756935337955784 0.3358101665461405 5.394442662680418e-05 0.9901969846493565 8.191558314182201e-05 9.67491043861822e-28 0.009721099767501689 0.2457051257407085 0.7542722293453468 2.264491394456429e-05 3.657678698649778e-21 0.0004162501446474315 2.614461254507848e-101 0.9995837498553525 1.583718328846022e-23 0.9776778934289277 0.02232210657043024 6.421041443798111e-13 3.430499714080224e-32 0.6076241931764139 0.3923746807158793 1.105889982608465e-06 2.021772408063458e-08 1.436957759387769e-70 3.750681103562699e-06 0.8721265934545673 0.127869655864329 7.296175415425109e-22 3.998071399298709e-55 0.9997147497912933 0.0002852502087067041 0.3883844857471724 0.608843002273482 1.254751624383288e-120 0.00277251197934557 5.340289082346207e-08 0.9999891598095654 6.769724739766369e-06 4.017062804141754e-06 0.6984361789738954 5.328740370852528e-05 0.3014944289460107 1.610467638541234e-05 3.551456427463403e-07 1.53072855587554e-11 6.720376955629216e-05 0.9999324410694935 1.125446338462107e-06 0.7088310070992566 0.1588820720821537 0.1322857953722512 3.33437219033991e-25 0.9621227906231513 0.0001126714436212075 0.03776453793322753 0.2132050532731083 1.819849328396226e-226 2.36349612100413e-13 0.7867949467266553 0.4760528810922452 0.2552136977012943 0.2687332558513147 1.653551460590751e-07 0.0003263402251574939 0.009217465634773325 0.9838100719701333 0.006646122169935978 0.002813503232883495 1.350192793977877e-10 0.1528653836346253 0.8443211129974719 0.001873114216331267 0.8252616956325913 1.290008700208724e-18 0.1728651901510774 3.88987366469935e-92 4.722199918091882e-07 0.9999627422671457 3.678551286254481e-05 3.281315764413779e-06 0.8113367099119549 0.1886600087722805 1.334248928597693e-71 3.056925459457058e-07 6.509359074411649e-07 0.378885112622291 0.6211139307492557 2.084889091523382e-09 0.9983654646495105 0.001634533264129656 1.470854363982039e-12 0.421064293001494 0.578935706998506 6.799472229153403e-30 2.816995344580205e-184 6.333123486585682e-42 0.8712279798549771 2.858689644050362e-06 0.1287691614553787 0.0002240829099212325 0.5677828689783549 0.147536983185671 0.2844560649260529 0.08926158507786848 0.07028211078712532 0.8397035635085869 0.0007527406264193067 1.940820749373542e-15 4.692586993299856e-07 1.37904954027006e-16 0.9999995307412987 0.9999995433408423 4.540580938861741e-07 2.601063811788038e-09 9.230184549204709e-42 0.1039685340658538 0.896031465930803 6.968296205740152e-95 3.343422518104245e-12 0.5470030898143209 0.4330844024569942 5.193877488519349e-51 0.01991250772868479 0.4280320392277436 4.672501742477863e-85 9.946869414269051e-58 0.5719679607722563 8.795963496610882e-11 1.633963860471612e-20 0.9999999999120404 2.401488391161811e-147 0.09603338739926927 6.366014505997849e-14 0.007839796434957989 0.896126816165709 0.7103620893461607 0.2008147046875448 4.593664540912144e-06 0.08881861230175363 0.2714615795285432 3.410529928936575e-05 0.6526098887612912 0.07589442641087613 1.249973454411871e-05 0.000842822143808847 0.001449934109564897 0.9976947440120821 0.9440250076044273 0.05593868115232024 3.619380629900765e-05 1.174369535610042e-07 0.002611764735041832 0.997388235264958 2.488723399824491e-41 2.800828552386391e-17 0.001456290927222448 0.2258931392082567 5.78264873961478e-29 0.7726505698645211 0.09492682110422011 6.5395130247529e-61 9.921438751098619e-06 0.9050632574570288 8.25886863139844e-19 0.9999999999999972 2.798086249876786e-15 8.150759926136212e-34 0.1458756048394952 0.1162901676409556 0.7378342273639936 1.555555272280159e-10 0.8082636096732027 0.1272164138359699 1.075705130531074e-05 0.06450921943952218 0.3275903161267056 0.6683468904330954 3.326406530169573e-05 0.004029529374897299 0.002522576568514071 2.354306353047839e-63 0.9974774234277148 3.771050858822794e-12 6.292407636646641e-07 0 1.466976011970898e-09 0.9999993692922603 0.2217573075591433 3.362833187841124e-19 1.058259207739059e-233 0.7782426924408568 1.162356078830901e-05 0.1144721026963652 0.1750454306436574 0.7104708430991892 0.6602759569491877 0 1.82855472205994e-26 0.3397240430508123 1.172099918507742e-07 8.100192250990634e-10 0.9999642290451558 3.565293483318762e-05 0.623104848652105 0.02519601629516487 0.3516991350527301 4.222705117037103e-29 0.02057238248285816 0.9794264984806409 3.409285972223503e-11 1.119002408081495e-06 0.0001683517540172346 0.1272706268975998 0.001369056591073257 0.8711919647573098 0.9938204290969734 0.006121322710833204 4.117651976983521e-08 5.820701567371645e-05 3.388617911481101e-149 0.2077437445656368 0.7922562284496483 2.698471494011666e-08 1.00455235530184e-07 0.6771596761999771 0.1501253942696041 0.1727148290751832 3.109201210136329e-07 0.1259521741758439 0.8740475149040351 3.358083165895112e-36 0.6621809957148167 7.595847732574476e-311 0.2011825945620292 0.1366364097231542 5.587989148759608e-31 0.3310417403515402 0.06391419581900395 0.6050440638294556 0.0006753527573627993 0.02077917055767996 0.9785454387128656 3.797209154823217e-08 9.226354682085319e-10 0.03931938056302027 4.358292132719706e-12 0.9606806185099861 0.99999532782324 8.324067001892401e-07 7.817211038335933e-09 3.831952848936756e-06 0.9907890335631391 0.008095063975833934 0.001115902387820471 7.320653328182985e-11 0.2902623527343617 0.010700207364085 2.261327890105834e-07 0.6990372137687643 7.098537229936294e-05 2.072844209825726e-11 1.088659789757259e-28 0.9999290146069721 4.025569329958504e-32 0.1779635645458435 7.659487448893468e-27 0.8220364354541565 1.407357914334275e-17 0.6913810462949609 0.0870809356570741 0.2215380180479651 0.0001461797006224512 0.04757644412350032 4.054690298268136e-08 0.9522773356289742 1.063469321786026e-09 0.1811074891179058 0.8188925098186249 2.215505101842565e-24 1.43098562141227e-39 1.105181527419423e-09 0.9859405915930034 0.01405940730181499 0.0008876258141318593 1.381140134839671e-05 0.9990985627845197 3.60416304242589e-243 0.6716322523375989 0.1918922379809646 2.066151696782555e-09 0.1364755076152848 0.7170366546082443 0 7.157389355526337e-09 0.2829633382343663 0.01934809250876627 0.1067572205388487 0.09083678614154118 0.7830579008108437 0.002646496601056602 0.88540574379229 7.324208971071985e-05 0.1118745175169426 0.01329131052645933 2.281674843342155e-06 0.0007946940724175424 0.9859117137262799 0.0004178569297636505 7.295407539938817e-16 0.9116808101025961 0.08790133296763969 0.2446955806113992 4.542438378271239e-09 0.7510885819018637 0.004215832944298629 0.9981942480829994 2.01713502538758e-19 0.001376982754737298 0.000428769162263284 4.14449646924274e-05 0.9900909421939522 0.009861393740878235 6.219100476983484e-06 4.231230667540451e-10 4.273209031633615e-18 3.573787754566267e-06 0.9999964257891224 0.9871540933965786 0.002085003115998229 0.0002436486225619684 0.01051725486486117 1.676178424901345e-11 0.2139935344928943 3.489446320518698e-10 0.7860064651413993 0.02615481777454736 0.9565196382724576 0.008550721732485835 0.00877482222050922 0.09468003628575986 0.1420887830136297 0.7630767793905238 0.0001544013100866891 0.3666440086410256 0.00117358946966389 0.00235908043870902 0.6298233214506014 0.0001218501063025157 0.9998781498936975 1.062377744298326e-285 1.007998413389574e-31 3.505081202935637e-09 0.4250904322997955 0.5749095641538019 4.132145362744665e-11 1.594323907058815e-21 0.5664521926433068 0.4335478073566932 7.290381370388152e-20 3.760810116259763e-68 0.9976423301826389 1.405382641097475e-05 0.002343615990950114 1.050511647741408e-135 1.899991773135131e-21 0.05629034008709449 0.9437096599129053 3.294220189232856e-05 0.09827186737795932 0.8971659337875277 0.004529256632620694 3.270920426684466e-07 0.2695586359862646 0.730441036913054 8.638807952754518e-12 2.985963420809256e-08 0.9971987667566272 8.347265115353572e-19 0.002801203383738612 0.975416930975159 0.0005451417837712185 0.003082982871391835 0.02095494436967782 0.005569169065918041 0.002902283364690976 0.7905506195637327 0.2009779280056582 0.2048863546978886 0.02087166098586669 0.7742419843162447 2.36944308110979e-22 5.908661585224707e-72 0.01429250594343922 0.4635856278052184 0.5221218662513424 0.00145712567056073 9.657004628935e-19 0.0002143750573770327 0.9983284992720622 0.7423099317901216 2.428855464215394e-12 0.2575519471631595 0.0001381210442902038 1.332803117913792e-05 5.219752687805873e-44 0.00441568180781905 0.9955709901610018 0.4553377525289639 0.02023258737692349 1.008952640714572e-05 0.5244195705677056 1.570418640423245e-07 0.05978398739742153 0.9261400127065409 0.01407584285417348 1.318659133425442e-06 0.0001408276373660116 4.868158999014024e-41 0.9998578537035006 2.232235053265057e-07 0.09115922786275427 6.019409030730929e-16 0.9088405489137399 1.256726719286468e-13 0.9850231175288172 0.01495515005553567 2.17324155215928e-05 8.847072448016549e-09 0.9999409203875054 2.103765835583472e-09 5.906866165616594e-05 0.0874563088687192 0.6788651134879368 0.2335438237802898 0.0001347538630542763 0.02265117546669298 4.717832041092476e-09 0.0002139491014637616 0.9771348707140113 0.0002522124176097136 0.001146834007312656 0.9986009535750777 2.269472408321094e-17 6.30234656775345e-13 0.9906106880179931 0.009389311981376628 2.915005497054727e-19 0.4015921215527873 0.02187923437592589 2.074124429220681e-07 0.5765284366588439 0.9716186432370946 2.465803335022772e-18 0.000903579204972569 0.02747777755793282 0.607651132783871 0.004741132428939948 0.387416337157769 0.0001913976294201006 0.6207168916089872 0.2388267481222041 3.17348934532993e-11 0.1404563602370738 2.216799142371083e-18 8.633069175701336e-13 0.9999995287782166 4.712209201028278e-07 4.527718656311692e-05 0.07224412400766769 7.340270255437123e-30 0.9277105988057692 1.258947356150843e-11 0.007415904963007378 0.7989606019828311 0.193623493041572 0.9981835597540831 0.001813615118840315 1.662618058527706e-14 2.825127059894621e-06 0.9982593316680056 0.0008103479413125462 0.0009303171816718286 3.209010019986144e-09 0.0124302781324444 0.00157197585154201 0.9859935777389112 4.168277102451999e-06 0.004890484262376435 0.7242502053538952 0.1719954832902588 0.09886382709346946 0.6531553594122684 0.3462208036878722 3.497163046543535e-07 0.0006234871835545458 0.01321469130190384 0.0001806138603737761 0.1407407566742182 0.8458639381635041 0.003027733772359976 0.0001716133328230257 0.996800652894817 1.983680727544084e-20 0.7083197986205968 1.206885435715576e-13 0.2916793333281871 8.680510954847088e-07 0.7675029377377584 5.606496850194796e-08 1.202854216239855e-08 0.232496994168731 0.9774552629422876 8.222828226030331e-07 0.02248910887118809 5.48059037018601e-05 0.001994572679075304 0.179189539013794 0.8188158883071308 4.088362443510683e-48 0.9965403005174036 9.474730033508136e-20 0.003457166345756267 2.533136840187366e-06 5.313004322370742e-06 0.9999882128342404 8.42570938608343e-11 6.47407718011101e-06 5.586631601252632e-17 0.9999999694927592 3.365341723820081e-09 2.714189917439238e-08 1.002051158079935e-09 0.3827625854156236 0.6172372377328287 1.758494967624862e-07 0.01378815290310634 0.0005365452828201739 0.9796000016803211 0.006075300133752459 1.242129704531656e-15 0.9999383165102512 6.16834897475172e-05 5.286011019900738e-65 0.003367952055834727 0.7256478524321976 0.2709841955119676 1.377781089439797e-188 0.9999999999580373 4.196265523679496e-11 1.78925951912221e-17 2.514448999538331e-20 0.4179283182699843 3.207237707363065e-06 0.580848642879954 0.001219831612354363 5.221472719296019e-05 0.5791854207407956 0.4207623645273668 4.644677973480866e-12 2.130070097228813e-07 0.9773784674472534 0.02262131913146624 4.142705726508558e-10 0.9938849746069672 0.006115025392623188 4.096978431047839e-13 1.36711486980057e-45 3.273817720134493e-06 0.376468424436735 2.628030882957796e-12 0.6235283017429168 0.000140348622450819 0.7332347439234138 0.00325713620477627 0.2633677712493591 7.942042680689553e-35 0.005902016262200576 0.9940979837377995 3.636863399895801e-26 0.2659324650678381 0.0008286162510900928 0.7332389186810717 5.111896604402972e-32 0.721990753599649 2.388780749975203e-62 0.2752388573415155 0.002770389058835389 1.018175283445136e-09 0.004781164168607127 1.586880734897257e-84 0.9952188348132175 0.002649524889180345 0.1053303383681647 0.8920201364720299 2.706251407806539e-10 0.002967719791613327 0.9970315084032064 7.718050639089674e-07 1.162803667210339e-13 7.176213748585948e-06 1.13358087086001e-06 0.9999867776604077 4.912544972850978e-06 1.543649378765657e-184 0.09064956924304098 5.161396079783704e-62 0.909350430756959 1.193037668329756e-07 5.69280950546593e-13 0.009921839570947381 0.9900780411247165 0.001254890636912912 1.48750063594495e-69 0.9987451093630758 1.120437902230467e-14 0.9967029272290027 4.145434690589199e-06 0.0008056820489145004 0.002487245287392289 0.0004747511555186707 3.352501901774176e-16 0.9122688916310667 0.08725635721341421 7.897927078468238e-09 0.144763026510915 0.7735280784005362 0.0817088871906219 2.173669382306997e-07 1.73451544267496e-55 0.999999753160964 2.947209778273579e-08 0.002883849434272848 2.622665159073635e-12 0.0107965742441941 0.9863195763189105 0.0009867438489449493 0.9990132561509038 5.080823642282197e-15 1.460470677996528e-13 0.2747322713526252 0.7064169681178094 2.158003226473436e-19 0.01885076052956544 6.097521457260536e-09 3.007876308835646e-11 0.9999999938723998 5.862891481542785e-17 2.432441468751431e-29 0.3462226044631765 0.02533897868932778 0.6284384168474958 0.3709467804059808 0.6022907616516491 0.002826776152227443 0.02393568179014269 1.067824924181474e-05 0.9999893217507582 7.145349590215657e-34 0 0.003975945113352678 0.00100902419741768 0.9950150306892296 2.842748606947584e-42 0.3920233188148447 0.5859914637397515 2.58184344684481e-06 0.02198263560195689 0.670835601591949 0.002676209163975014 2.851455543399994e-21 0.3264881892440759 3.196086058273046e-11 0.9999999999667671 3.83137075384247e-18 1.271937232351727e-12 0.6139578382694726 0.1729367742906777 0.2130997399999759 5.647439874026504e-06 4.419428788249186e-77 0.9999999986081441 1.373873498456926e-13 1.391718493049153e-09 0.002697230365102676 1.055785921228259e-15 0.002908006986551502 0.9943947626483448 0 0.9690877902365076 0.01174367048462543 0.01916853927886691 0.9999999999999869 1.306786707675342e-14 8.611871827354044e-26 3.147657578230308e-21 2.900545249674019e-06 2.143590670636919e-09 0.0004815172119044236 0.9995155800992552 0.00103420706110629 3.130516466886683e-05 0.9989335110822036 9.766920212838993e-07 1.405504066424643e-05 0.403479384440578 2.693882942326443e-311 0.5965065605187579 3.150672126594373e-26 3.542877090927984e-11 1.956255559647471e-11 0.9999999999450087 0.1263508921757021 3.913406349506514e-06 6.621227623476394e-05 0.8735789821417136 0.4948582128618926 0.2622367232429236 0.001492215874203252 0.2414128480209805 0.01069785901090875 0 1.014728672643326e-34 0.9893021409890912 0.0003724633200695764 0.9994271694289436 0.0002003672508414205 1.455443475240442e-13 4.313949913268126e-10 0.0004192633834209853 0.7437839425966672 0.2557967935885168 0.01795959069118209 6.920976728438898e-22 8.72269654636104e-07 0.9820395370391632 8.664223165095638e-13 2.279648297430788e-06 0.9999957785696931 1.941781143032689e-06 0.0272346265955845 0.9727495377320441 4.846098819800492e-18 1.583567237142179e-05 0.9071195381553498 4.412723993643137e-10 0.09288029339099127 1.680123864424412e-07 5.227745703846642e-07 2.013349258362679e-05 0.1281017920017692 0.8718775517310767 0.0001488927546923282 0.7286540940601153 0.2711970131851924 8.647041324111816e-54 0.005469188298090554 0.9945307790232298 3.760418767557459e-13 3.267830358762486e-08 4.523356611261527e-14 0.9999998905838615 7.315148216463337e-08 3.626461117890289e-08 0.0004037730184997108 0.9995962269814724 2.800541145625152e-14 1.558840778700203e-59 6.185757272390095e-08 0.007206447502779445 0.992793490639633 1.490218982263389e-14 0.9966056814047135 2.03332984325723e-11 0.0008943923140179088 0.00249992626093535 1.71690061913178e-142 0.09937293349454082 0.8929668372496918 0.007660229255767339 0 2.457415674967593e-05 0.9999577183073887 1.770753586181072e-05 0 4.501899102285024e-21 1 1.410432707932196e-51 2.405300591230767e-07 0.9366117108947517 0.06197076855191908 0.00141728002327021 0.2763747763049795 0.6850172217372731 0.038608001953022 4.725608905873269e-12 1.295611603998398e-12 0.9999880433230534 3.163823887060751e-16 1.195667565082068e-05 0.9999989475726845 2.572521135831623e-69 1.547627209359063e-281 1.052427315414618e-06 0.001444914713968777 0.00248216674737536 2.555388933130564e-05 0.9960473646493245 0.03707655680383913 0.9373708028153411 1.419631944211069e-150 0.02555264038081962 2.854939021397941e-41 9.012188412597887e-15 0.009601576664094539 0.9903984233358964 0.001753290418219368 0.09280410216148037 0.9054426074203001 7.791422950267949e-17 0.05068341805373239 1.315944070386301e-08 0.924961667715443 0.02435490107138409 0.01301458222478184 0.6397125084706785 0.3472729093045372 2.515405087482233e-15 7.664068907752398e-60 0.9980720138877259 0.001927986112274145 7.193933631298873e-22 7.439665703099699e-94 0.998910187544539 0.001089812455460992 1.9205145341487e-134 0.00152692839673946 0.01983983047617961 9.04598933458389e-06 0.9786241951377465 0.02567264999101162 9.79962087774673e-12 2.477608736210674e-07 0.9743271022383151 1.585548058888594e-16 0.8926920522510604 4.243163209052317e-15 0.1073079477489352 0.9999854775723188 1.266869553224173e-05 1.853732148987605e-06 7.948226835205485e-20 0.0007208305115246885 0.4570411616050259 9.276633350510783e-14 0.5422380078833566 0.07868970506474829 0.8308882167101944 7.727830657478445e-08 0.09042200094675067 0.9254585937189108 0.002314720392628798 0.05940723870837656 0.01281944718008392 0.1110932915162426 1.672762522179158e-11 0.8889066994412438 9.025786001067772e-09 0.08344419459760913 0.0005368053487519337 0.1055432851967419 0.8104757148568971 0.009188819411613605 0.1804116287983092 0.8103791098190766 2.044197100054878e-05 0.04491266091826933 0.9477539576764539 3.877568784095069e-95 0.007333381405276888 9.989723099360567e-21 0.995743861558011 2.202865923305635e-100 0.004256138441988885 1.421008295394162e-23 0.9999822053673351 6.391170961313616e-32 1.779463266479693e-05 0.009061735208520133 0.9843203548413056 1.928830760780173e-12 0.006617909948245368 9.251266532406772e-18 0.9663508087640187 0.02891878428660307 0.004730406949378396 0.2322168395928706 0.04788266456428615 0.5370739076433914 0.1828265881994518 0.006967264335807602 0.780543314256344 0.2124434351880871 4.598621976124122e-05 0.9795993182755022 4.45928967354822e-05 0.0001385122756370446 0.02021757655212523 6.574603707320974e-14 3.844230579677904e-05 5.708897567991889e-11 0.9999615576370486 0.9863356625338908 0.007954156134562119 0.0007194423832363776 0.004990738948310747 0.4222806441475179 0.5775328183661926 0.0001865368668501778 6.194393714488327e-10 0.02138620221853729 0.0007618318363368899 2.803922217061601e-11 0.9778519659170865 0.996439105686764 6.908864764461349e-51 0.003560894313236128 4.901451648353424e-153 3.075403604527739e-12 2.650493057639082e-10 0.999999950968818 4.876305730234245e-08 0.5327223985269648 0.3719488639720486 0.09531959990382158 9.137597165016105e-06 0.1635241802582248 1.955080179036801e-15 0.8339370489498897 0.002538770791883454 0.9943623497936267 0.005627565169479594 1.008503689375445e-05 2.864157705786785e-39 0.2208695508158572 4.030570528748539e-05 0.007356031109853448 0.7717341123690019 2.726938016989326e-15 0.04808076036717035 4.201530445267001e-09 0.9519192354312965 0.05477111158775175 6.454106087784301e-07 2.489741899354502e-13 0.9452282430013905 0.9999999514410135 5.068250264214717e-33 4.855898645512291e-08 7.634224544358095e-17 0.008186401523883604 0.001099714392652188 7.239194984703137e-13 0.9907138840827402 1.052807960180094e-18 0.9999989878231521 1.012176847830795e-06 3.549249021016076e-191 0.003219660159966657 1.368236793375953e-20 0.05160028031184381 0.9451800595281895 0.002928805186566006 0.001105886569675894 5.973827043098804e-09 0.9959653022699311 0.3738423501306445 1.088287289276917e-12 0.6261576498682674 1.479962913175015e-44 0.672535545476575 0.3264227795596987 0.001041674963726154 7.656576706467288e-26 0.1989849989282314 0.800320380869484 0.0006946202021063047 1.781819105437104e-13 0.04558519778239194 0.954410891852845 1.149610305684461e-07 3.795403732346423e-06 3.188853789518805e-06 0.9996871573690924 2.798659244479154e-07 0.0003093739111934451 0.003343461606423368 0.7921652457982761 0.2044912925953006 3.774525578561753e-60 0.6151563494169432 2.63503401951908e-09 9.748496425613383e-05 0.3847461629837667 0.7585511429572326 2.845592878367615e-32 0.221041550302896 0.02040730673987161 9.501165399895269e-17 3.860218885986467e-09 2.330900862069318e-07 0.9999997630496948 0.9011463400653191 1.685773984130364e-26 0.0987322734433935 0.0001213864912873499 1.853729491510605e-07 5.019220354666734e-12 0.9999987063054633 1.10831656830139e-06 0.09142009152791776 0.7072627805396005 0.05001765986574411 0.1512994680667376 0.9999999955957863 2.97994410813864e-09 1.424253624444546e-09 1.583500185105685e-14 3.973122400638328e-22 2.75051936561863e-05 0.9999390815556377 3.341325070630787e-05 0.005989039801009411 0.5836803893637231 0.001058908177196061 0.4092716626580714 0.1026171498537502 0.8069655359449801 0.08387531689068296 0.006541997310586688 0.7985134998333524 0.0002018639298938687 6.525446007859936e-108 0.2012846362367539 0.004680937347981587 8.782784245105001e-18 0.9948004500414566 0.000518612610561738 0.6990915682936341 0.3009084317040347 2.326387083969654e-12 4.954286408983831e-15 9.612055677810107e-63 0.001856685909869527 1.200661404691437e-09 0.9981433128894691 0.0546512674600093 0.01578287556530919 0.9281511128118486 0.001414744162832784 0.568856951454544 2.889182419818453e-16 0.1533074324569856 0.2778356160884702 4.524212478785477e-50 0.3336944685102058 0.6392939643631653 0.02701156712662893 0.9891952548700775 7.996301573356923e-05 0.01072478211403863 1.503637644475583e-13 0.9883815303101043 0.01161846653472768 3.155167906339409e-09 9.034242347961867e-59 0.1176327985373172 1.147823633642085e-10 0.1050801036475467 0.7772870977003538 2.399177563422736e-26 8.239900861321519e-14 0.0008874582714932706 0.9991125417284245 7.54910972519843e-05 0.8681684775107826 0.1057262164822314 0.02602981490973408 0.9946470194155789 0.002491205598027572 0.0002973664559165597 0.002564408530477021 5.575997062568577e-09 0.862459368343114 0.1117738480799607 0.02576677800092811 0.1415341203763494 0.0002685199327230143 0.8509173967561635 0.00727996293476408 0.05908684060241202 0.9408854230349744 2.767675424456745e-05 5.96083690057208e-08 0.9933386517091293 0.005364394918856221 0.0005099470707174531 0.0007870063012969608 0.03950494453651903 0.0139662367332875 0.8356271481928889 0.1109016705373047 4.391156615510713e-24 0.0002826187442195644 2.911041384657168e-06 0.9997144702143959 0.07124890263436955 0.5693365189663433 0.3418033532876432 0.0176112251116439 0.9994478880123411 0.0005521119876590009 1.805140948858581e-18 8.582508435750867e-28 0.2385646220021274 0.7476754106334468 0.01375996736442572 1.418552437659496e-66 4.54796011335277e-77 0.9999999975585057 2.396435118153327e-09 4.505930431100909e-11 0.001019261133430057 0.998447520942924 0.0005332179236457806 2.352000911564335e-35 0.0001289482320058591 5.849359460072515e-05 3.411524249769483e-06 0.9998091466491437 0.9313613355901624 5.048537260259689e-09 1.319536433255334e-20 0.06863865936130017 2.167910652570562e-10 0.566484672901276 9.488461813035669e-09 0.4335153173934711 0.00454698271255527 1.04396459218311e-08 0.9953720320079736 8.097483982516034e-05 0.06052296288201774 0.8518585576955069 0.0005844943396067953 0.08703398508286871 0.3325408835218182 9.046885207309873e-05 0.02945096407703797 0.6379176835490707 1.607148066507616e-15 3.665196462300219e-14 2.786345024393308e-17 0.9999999999999617 0.07403354009185716 0.9258537273855036 1.657220724193064e-64 0.0001127325226391898 3.844510393943674e-06 0.0001400564883862566 0.9998560989083944 9.282543451957376e-11 0.9434783257411175 0.05651794726606103 5.541891793280799e-08 3.671573903607451e-06 2.136313163602296e-37 0.1382541917374012 0.4535978419876457 0.4081479662749531 0.06265820774437271 0.9372263359351479 0.0001154563204792614 3.198013951291346e-43 0.002832666671978742 0.9019098144089192 0.09525694467707618 5.74242025872596e-07 0.9990693303795154 0.0009305947454763722 4.738472273078011e-08 2.749028537542374e-08 1.994383234313895e-06 0.9999855274209523 2.748354748137802e-18 1.247819581339567e-05 2.041337013440721e-05 0.0001773733879719617 0.9998022132418936 9.505567349536795e-47 0.9909594222252182 0.0004422820244393725 0.008598295750342357 1.082536278569024e-30 0.1143939994813599 0.8856058835188697 1.169997668968101e-07 3.656437116119122e-15 4.420263840310983e-19 6.838563428373576e-07 0.9996859204582983 0.0003133956853588624 4.725297839934641e-13 0.9999833737553586 7.893828311836438e-08 1.654730588573306e-05 0.0002477737978014574 0.9997499333918756 2.292810322935822e-06 2.044654647223741e-42 0.003327995792922105 2.246811218094167e-18 0.3758460563098691 0.6208259478972088 6.097256550298145e-05 0.9998977707325238 4.125664929407407e-05 5.26791121168275e-11 0.004753912640933084 0.06104994487904304 0.5091095861278039 0.42508655635222 0.06084682358564093 7.620762929222219e-12 0.2156701305343332 0.7234830458724052 2.957769351226546e-27 0.9999999999999917 8.060684743049268e-15 1.272422894055118e-16 1.790608458342828e-21 0.004702245716526922 0.995297754283473 1.082518133912481e-20 0.8365081398588786 0.00230021270292309 0.161172925746664 1.872169153441132e-05 0.9999999978016914 1.424036194109541e-16 1.14606323425606e-16 2.198308317793095e-09 0.0004287087758888593 2.000770953576379e-13 0.9995568950884989 1.439613541213165e-05 0.1716813689276158 6.978462629115573e-21 0.8282762402609436 4.239081144060563e-05 4.617266097974448e-42 0.999999999999995 5.316584668488149e-25 4.955319618521662e-15 0.9245125696926516 0.0003035926488377771 0.0391958988108592 0.03598793884765127 2.916648251520784e-06 0.5779852190060155 0.03628823704841933 0.3857236272973136 0.1661998051028121 0.8199580512001583 4.045686952141742e-05 0.0138016868275082 4.106246980425164e-09 0.2611640926268597 1.190259947747687e-23 0.7388359032668933 0.999999999999973 2.695656534068094e-14 0 0 0.0005699362113671494 0.3004490107322584 0.4867129493774883 0.2122681036788862 2.599767460261872e-07 0.991473645636938 0.006879802125348639 0.00164629226096757 0.06913719622663406 0.02772904631948029 0.1414979064917109 0.7616358509621748 0.8945930112814846 7.47644165455364e-27 0.1054069887185155 2.226158702374627e-30 0.3765619718875489 0.6225368203242726 0.0009012077808128933 7.36582453882558e-12 2.081130242436055e-06 0.5920951335630181 0.3590873567835301 0.0488154285232094 0.6357940285805541 0.3642059714194461 4.152458941186995e-267 1.129375050593494e-35 1 0 1.945501957599893e-84 0 2.35350825549604e-06 0.5912392834110717 0.1017587085876855 0.3069996544929875 1.567631778164024e-12 9.262656564517218e-06 0.001579976221558661 0.9984107611203092 0.2201566188778549 8.240349442663317e-05 0.000227914714090894 0.7795330629136277 0.3794913221055623 0.0002612039818792991 0.6202188515437472 2.862236881118458e-05 0.04134608688227662 0.7371141806839121 0.2215397324338112 2.085053038791181e-35 0.001473943210382557 0.01545323521491811 0.9787218329247552 0.004350988649944071 0.1090623450138326 0.002155152066958882 0.8877669002342784 0.001015602684929956 0.0007426398908261759 9.279035950192708e-10 0.09931252491428873 0.8999448342669816 2.594322802212346e-06 0.408951233027943 3.572791548509641e-11 0.5910461726135268 0.9946999900448441 3.539560155886087e-11 1.189087265704133e-07 0.005299891011033796 2.830916006438987e-08 1.103987131578515e-06 0.9999988677037083 1.732655171754266e-24 0.4824087922813726 0.2046623252286715 0.3046626937757803 0.008266188714175794 0.8890093302738807 0.0005377569794383096 4.541661196292397e-32 0.110452912746681 1.612441257971542e-13 0.999999999923205 7.663377372318697e-11 7.374480537679681e-47 0.4330617756257438 0.0007559156083157818 0.5370239877565928 0.02915832100934768 0.0005979536409883994 0.9942969303432279 0.005105116015781796 2.055286977291189e-15 0.004545102989755604 0.2112925341029747 0.7841623629072697 1.071180234479817e-43 0.002333580249085171 0.8939372900899172 8.536992878083694e-15 0.103729129660989 0 0.3223795601657101 2.755789189490734e-23 0.67762043983429 0.3211583349633501 0.2291031368428967 6.267932105414185e-05 0.449675848872699 0.02380889851315735 1.774617447236027e-42 1.403795478455402e-07 0.9761909611072949 0.4856725055379934 4.059680559447751e-121 2.452761388462296e-123 0.5143274944620068 1.930990906191377e-05 2.11710514416589e-08 0.1318702496488283 0.8681104192710584 2.949083287993987e-21 0.9940847360880635 0.005890336314019153 2.492759791740964e-05 7.165479274804781e-15 1.888910042481136e-10 0.122590608063759 0.8774093917473429 7.100307505469739e-11 0.9999962557911831 3.738090738456811e-06 6.047075323485201e-09 0.004022780176244598 0.1609561061225089 0.8350211136950814 6.164988342186459e-12 0.9867151032526604 2.902023043913602e-06 5.340592966172244e-08 0.01328194131836604 0.1891334536213219 7.996712871272378e-07 0.3440693995247745 0.4667963471826165 0.0006633002864026101 0.7713157483036949 4.332702090349185e-69 0.2280209514099026 7.543289103579716e-13 1.561300039025812e-05 0.0003293973077757187 0.9996549896910796 4.299725211047252e-07 9.373011619671164e-19 0.001345798473171533 0.9986537715543075 1.71916881975804e-28 1.285575226750382e-06 7.31733196989809e-18 0.9999987144247733 0.003756073218509527 0.996243667734856 3.739946787610086e-20 2.590466346521589e-07 0.0001351906166378781 3.009829508171124e-06 6.013867759729358e-08 0.9998617394151763 6.994170686455484e-05 0.9998919694939932 8.401259117369912e-19 3.808879914225246e-05 2.413394872672579e-07 0.0001035004976185751 0.940341869682417 0.05955438848047709 1.356765952914026e-05 0.9992958151528346 0.0006904689275902611 1.482600459282204e-07 6.823846936178227e-48 0.9998534561949547 3.586461661579114e-05 0.0001106791884294854 0.02647454552075813 0.9647479310244451 0.008777473500978775 4.995381793474211e-08 0.9995222991423733 2.657051222796535e-19 0.0004735824072729718 4.118450353726949e-06 0.1160243549239871 0.46220789565249 0.4217676438915171 1.055320057345835e-07 2.439614490013139e-13 0.9425203923497668 0.02102995316467413 0.03644965448531502 0.0002255812375698562 0.9972958200544754 0.001406272103206112 0.001072326604748592 1.047242016422092e-06 5.850588386559969e-32 0.999998952757983 5.93382325660975e-16 2.113650226201723e-05 0.9999784089528401 4.283269241180906e-07 2.621797364520828e-08 2.399351677237715e-08 9.187447503246004e-09 1.683948144299307e-09 0.9999999651350876 0.424124631982098 0.03083695739500296 0.5444565771891173 0.0005818334337817947 0.2671455027449855 0.001346966634211121 0.001844664116848944 0.7296628665039545 0.6939562918917677 0.06498495195686199 1.328460502836584e-14 0.2410587561513571 0.8715848029853495 0.05579380895388038 0.0588320707406484 0.01378931732012174 0.01442974047500056 3.143844920586377e-06 3.734516046675098e-79 0.9855671156800788 0.07995214295100725 0.4447425253371203 0.3928017012761313 0.0825036304357411 0.007888501870314814 2.080543358738166e-09 0.8795230667611235 0.1125884292880183 3.440868200018345e-23 0.008369749531903028 3.158468009530451e-06 0.9916270920000875 1.824938852229896e-10 7.200287774756799e-06 0.99999278318469 1.63450413687822e-08 0.9961591713603287 3.052274109039509e-08 2.667558249882239e-18 0.003840798116930282 3.955470762098983e-06 0.1825368221413906 0.8174592223878473 3.609335246751815e-26 0.1526778755105857 7.272568984997756e-05 0.8472493987274251 7.213919374913116e-11 0.0002395740125663898 0.7119446670274768 0.2878157589599568 9.541536639397916e-258 0.9999990639559381 1.360279169409705e-25 2.759643661343798e-30 9.36044061904004e-07 0.9999561298626458 1.946275228125013e-06 4.185831924194193e-05 6.554288410822071e-08 1.527365162272762e-47 5.036433538542838e-25 0.8009820131439769 0.1990179868560233 0.7671264968787883 0.009753688005106245 7.061517486418088e-19 0.2231198151161055 1.159167909008523e-16 7.476565933656589e-23 0.3558525143921941 0.6441474856078059 0.9730918374300469 1.848006315771806e-09 0.02522005486804296 0.001688105853903924 0.9975107185989796 6.60133556231978e-15 0.00248928140101386 6.813301611384579e-24 4.899196844162712e-12 0.7424460766391489 3.42283695960611e-12 0.2575539233525291 0.1456231729515206 0.431793157609702 0.0213983597341699 0.4011853097046075 0.001728595308634302 1.952427393824411e-07 0.9976587723447189 0.0006124371039073532 1.527673110588775e-11 0.01250735337517814 0.9843092063658248 0.00318344024372035 0.8438045013090366 3.476747147801589e-11 0.1561954986561961 8.855546756048061e-42 1.264624018835637e-14 0.3270959352725556 2.901681356881873e-12 0.6729040647245301 6.876533491133707e-17 0.9996838459302945 5.763805367368708e-17 0.000316154069705598 0.9412238459582022 0.05877615201097688 2.030820820016008e-09 1.774310595040429e-22 0.8538396849549911 1.629994155791871e-14 0.1461593950109277 9.20034064884758e-07 0.6576503117932226 8.964005770797982e-09 0.3423056390443728 4.404019839871464e-05 0.8199565086816462 0.1751172863041713 0.004926129445942538 7.556823990312901e-08 0.9980785128784572 0.0001216239713753463 0.001799863150167629 8.293418564511886e-24 0.9930188190935302 0.006787757089344737 0.000193423817125192 4.800050492698295e-52 1.441511453094354e-84 0.2371637941894625 0.7364380480901522 0.0263981577203853 0.2678655300359469 2.275574966630704e-05 0.7321117142085345 5.852399875898425e-12 4.765591891117309e-07 0 0.0008025703678007923 0.9991969530730102 3.096507403476859e-06 0.9648993833875472 0.03509685335100685 6.66754042399808e-07 0.03975097554278222 1.336857450553628e-07 0.9602488907714727 1.786974140074948e-34 0.01113567572014186 0.2011729230525487 0.0004558199962312689 0.7872355812310782 0.2091448177230129 0.7908520099138954 2.283907097050474e-06 8.884559947619066e-07 0.911003637216045 1.400319172147206e-18 0.05111688224963059 0.03787948053432439 0.8375366476391649 8.05636046243959e-22 2.025021485064089e-06 0.1624613273393501 4.290306172273069e-10 2.926396221876095e-11 4.650000722293338e-07 0.9999995345416332 0.005281520433784588 0.09764720184019382 0.6371948650838732 0.2598764126421483 0.000165877201909519 0.9981246286765547 0.001709494121235494 3.001367126007303e-13 0.01047071585244715 0.4590733626257872 0.5304558981167912 2.340497429425866e-08 0.6004087786713479 0.005062620608604787 8.751392984224804e-06 0.3945198493270631 0.0198507760302593 0.0006876414309909155 0 0.9794615825387498 4.711518303582893e-41 0.01338709296609766 0.0003378069456389868 0.9862751000882632 2.269716062663349e-40 0.1910083181634833 0.8089916818365163 3.067300992959842e-16 0.267315719387966 0.3964651885455556 9.623369650047105e-52 0.3362190920664784 8.795262713460349e-06 0.9538244290755783 0.04616677354151318 2.120195174149103e-09 1.787736043800165e-05 0.8329321979195776 8.427733131015043e-99 0.1670499247199844 3.678960034782497e-07 0.0009810869644586134 0.9839573322944347 0.01506121284510321 1.182141644904226e-83 2.901147443432681e-38 3.738441130123063e-14 0.9999999999999625 0.007402098572205384 0.8820363363682147 0.11056156505958 1.220071597827557e-84 0.927937957923938 5.440195097848487e-08 0.07206198766929582 4.815249253494548e-12 0.963343241743324 0.0002102318086618409 1.795498706001575e-31 0.03644652644801437 0.9980197984472979 5.579868217817336e-80 0.001980201406605841 1.460960942889651e-10 0.005224704067024749 1.624341255999088e-05 2.373044382576867e-10 0.9947590522831107 0.1578314526754678 0.0001310879403895949 0.8420374435476619 1.58364807194064e-08 2.270689977484149e-10 0.9855786710813671 0.006017825389248744 0.008403503302315044 0.9999698112692941 2.81053955287218e-05 1.122713233557657e-06 9.60621943752841e-07 0.001147815496446854 0.8499751319174709 0.1488770263335817 2.625250042431862e-08 0.001732398372301152 0.006219114055744026 0.9914339475623539 0.0006145400096007874 0.581656106371771 0.003016708368366334 1.61591673198564e-25 0.4153271852598626 0.02351125171084953 0.5832497803246446 3.892803123430886e-05 0.3932000399332716 9.52923679008652e-19 0.02489995116365417 0.9751000488363458 1.386280710844724e-20 0.01768598194238527 1.086317796783629e-27 0.9823140180576146 3.156999014426089e-18 2.30192492187918e-10 0.9999642953340032 3.570443580422508e-05 5.821515777474998e-34 0.000122653704227952 0.9998017618334861 6.443888579135079e-08 7.552002340019871e-05 0.9220713492385345 0.0001671664496547477 0.000481411179859708 0.07728007313195098 5.533435309991371e-12 5.285808644742276e-27 0.0006168493787142655 0.9993831506157523 1.371744698506564e-07 0.1782943050694112 0.8080421966019963 0.01366336115412259 0.9551010963040845 3.287736529376672e-118 0.04489890368639982 9.515660417738496e-12 0.9999606853754722 4.4403730688441e-17 3.240763609321838e-111 3.931462452791193e-05 2.561751792067401e-21 0.5421346709911102 1.936002203511241e-79 0.4578653290088897 2.066022120414381e-247 0.00180548389160471 0.998194516108258 1.373858081276396e-13 0.350502218090438 1.50840210609349e-258 0.3041833726763285 0.3453144092332333 6.819364473033864e-23 9.344248445067512e-05 3.607580653353594e-234 0.9999065575155494 0.004285193373949844 0.1037627248593153 0.0003488550888766407 0.8916032266778582 0.004085301816751622 0.4456981045711018 0.01459386157356685 0.5356227320385797 0.999981494480664 1.067709007551963e-14 5.841183100388621e-114 1.850551932547348e-05 0.03158988423043083 5.363456290808602e-05 2.855813329274574e-19 0.9683564812066611 0.01430159032751103 0.7806337829021097 0.2050646267703794 1.742536108150505e-17 0.0001415556512234625 1.640533523069114e-18 0.009378608722182042 0.9904798356265945 0.01363677560417478 0.9826062091884608 6.028949558416729e-10 0.003757014604469467 5.007856099581328e-14 0.002863084237106225 2.820108818031269e-09 0.9971369129427349 0.01062078904150864 0.989379210689084 2.693991782300254e-10 8.262664520874327e-15 0.5782665649545194 2.556109030416116e-26 0.0003578117742805274 0.4213756232712 0.9773211895105108 0.002534857417674854 0.0139336280298873 0.00621032504192712 0.005643360940185437 4.30518483743218e-10 0.0078766452105292 0.9864799934187669 7.790419818832211e-12 0.7655366043952652 3.034293704613085e-51 0.2344633955969443 0.5120470971754897 3.334961510097658e-06 0.4077676415032997 0.08018192635970058 0.2553873230139111 0.2264076714319387 4.520689448187525e-08 0.5182049603472557 0.0232291993390993 0.9767708006609006 3.84775486784783e-27 8.466227994689017e-170 0.002598458210865321 0.01294470439045788 3.386222501025498e-19 0.9844568373986768 0.1069959627156166 0.8758546719706337 0.0002824362867815714 0.01686692902696819 2.12620342893138e-06 0.6928299771380908 0.3071678966584804 1.627114261600573e-23 0.9326043641720394 0.06739563375857642 5.009979747401855e-15 2.069379176417961e-09 0.2687073330552665 0.7308461980442975 2.506183848981298e-61 0.0004464689004359409 0.3516449324598823 0.169662572172444 0.4339887565766783 0.04470373879099546 0.4072177411567914 0.05760245706063333 1.648539054821423e-14 0.5351798017825589 3.576987649147027e-12 4.351490045056244e-23 7.675277510124295e-05 0.9999232472213219 0.9566849683536023 0.04331501190453334 0 1.974186430841867e-08 0.980511976030553 1.14306537039697e-07 0.019487611480411 2.981824990059846e-07 0.0003319151411890264 5.10515590551355e-05 6.387937592748548e-11 0.9996170332358765 2.709920167497988e-13 0.9912009344914806 0.008799065508248376 8.241807910560626e-51 0.9999774523916005 2.254760348992411e-05 1.049114876034815e-15 4.908332018346563e-12 0.03823338004578051 0.01017530101887934 0.7362813074253151 0.215310011510025 0.9993889852678078 0.0006108574927306134 3.070533278114966e-09 1.541689281348402e-07 1.689453005657237e-12 2.085530536622852e-38 0.9866829015445405 0.01331709845377003 6.517348998959964e-62 1 3.027046610188457e-24 6.330915384608068e-109 2.677104074898728e-05 5.007614212038989e-20 0.04845328622426332 0.9515199427349876 0.1665219716269684 3.715787355599278e-06 0.003016365848524173 0.8304579467371519 0.3231293981701829 0.001301722223561174 7.859174608270297e-16 0.675568879606255 2.741175929558014e-06 0.8790665200716855 0.1209245891903433 6.149562041523444e-06 5.333642379119941e-16 0.07817069722166718 0.9218293027783324 4.842158302021391e-23 0.4360147290152702 0.003141643880230564 1.082075826808591e-13 0.560843627104391 0.374710856675092 3.109080261931446e-07 0.5926650927225973 0.03262373969428457 0.1128728954705143 0.8867987866425078 5.630088512455657e-06 0.0003226877984654507 6.11720489479336e-59 0.9999997979937316 4.27167552408178e-17 2.02006268303715e-07 0.008491251238725978 0.9881568818866686 0.003344309438471514 7.557436133841901e-06 0.4798250718402132 0.5199033364157164 0.0002715916165327221 1.275378080559817e-10 2.359901988068177e-12 0.5481505942610062 0.4483507261721331 0.003498679564500831 5.933578525539214e-10 3.48083749777551e-06 0.9884309280744352 0.01156559049470914 0.848094274884042 0.1519056531516099 1.508926448956452e-31 7.196434821321356e-08 0.9841587175059102 0.008731679391794585 0.007109603102295263 4.770646931848866e-25 0.9518387689768185 0.01965580285674877 6.528426103791342e-09 0.02850542163800659 0.5800068535290391 0.3011985164998855 0.009694130648471154 0.1091004993226042 1.674914241965044e-11 6.959571304481859e-08 0.1388283500724387 0.8611715803150991 1.146315930225468e-09 0.0001733209756850865 0.9998266778779991 4.358300043179461e-28 0.01487892606429384 0.2465632989255852 0.0001583923731430435 0.738399382636978 1.292774243120387e-15 7.317347871162989e-05 1.493754832260261e-36 0.9999268265212872 1.145672974413433e-16 9.908818985089578e-06 0.9999900911810148 4.203009396469477e-34 4.99560875415964e-06 0.5382789185270045 0.4436184740001352 0.01809761186410616 0.7357419678484681 1.461435624670497e-07 0.2642578860079694 6.816752615190381e-19 8.427862665782878e-08 0.9387079768896518 1.930114385810827e-07 0.061291745820283 4.433799345152669e-13 0.0002797085549396129 2.057306798377045e-81 0.999720291444617 0.4579540365028132 0.003388978070467469 0.5386569854267194 1.357578768917991e-33 0.9999999497501519 1.139799592357477e-62 9.173477021261958e-09 4.107637104659001e-08 0.2893992735767722 0.6903675265699395 2.859459648436587e-31 0.0202331998532884 0.0001805499162884726 0.2450521210800304 7.218090171003164e-13 0.7547673290029593 6.250876257769371e-07 0.9978486927487795 7.367182373970713e-07 0.002149945445357257 0.2592486819968058 5.536325281881745e-05 0.475203690854292 0.2654922638960835 0.009420490615343089 0.9027858882009903 0.08752624446441309 0.000267376719253429 0.01194796755376462 1.049663256498816e-08 1.883782619977707e-09 0.9880520200658203 0.9640054718011706 1.635298610604532e-06 0.03519675344679839 0.000796139453420431 0.496796271207719 6.026828186523399e-25 0.5028932789545111 0.0003104498377697651 0.0425457072805238 0.005475645235507574 0.9519376701897855 4.097729418322572e-05 0.9662194887872011 1.010504101224743e-07 0.02468414494363555 0.009096265218753242 0.9999834601859232 1.653981200416185e-05 4.309393754611137e-18 2.072649975930839e-12 0.00339911589347343 0.02632587204338099 0.970275011964892 9.825371078484888e-11 6.075823548829388e-37 4.383975213496986e-05 0.9999561602478652 0 1.681156311230007e-06 0.04034896792029836 0.008720001163232242 0.9509293497601581 0.2944720364031543 0.7055278455227594 1.180740864434668e-07 3.427862366948919e-21 0.5129859232018268 0.006252746776150513 0.4807613299402007 8.182189400659001e-11 0.7924400367349634 0.004037054617272021 0.20352290863752 1.024464208283465e-11 0.0001013963519131876 2.181780166343975e-20 6.296724631560912e-19 0.9998986036480867 7.647639804089528e-07 0.9983845763912458 4.06955110382479e-12 0.001614658840704265 0.9941408249051457 2.345207800238686e-54 1.1773478034875e-89 0.005859175094854379 0.3118260089837656 0.6881739910162346 2.620590870858937e-130 1.200772470717783e-122 0.06124473062162469 0.1000434888590357 0.8387117802547676 2.64571949219149e-10 0.001383616529416744 2.287121404576616e-07 0.9958164873526413 0.002799667405801675 0.005669472838156843 4.743473325694815e-06 0.0007396806338645948 0.9935861030546529 0.9994101515738719 1.737623842717152e-08 0.0005257161415881801 6.411490830155836e-05 0.4018964128235085 7.771222496734581e-05 0.5980258741404754 8.110486113648826e-10 0.02260068376518889 0.5635565924161572 0.1575801529332419 0.2562625708854121 0.01438062181398271 3.711861930078891e-09 0.004627882389009149 0.9809914920851462 4.789360698273664e-09 0.9989631797832407 4.936804265484447e-06 0.001031878623133036 1.212794432727067e-17 0.0008058528910426617 0.5090400150435984 0.4901541320653591 6.561307305246593e-76 0.2456015739438776 0.7543958727992494 2.553256873187842e-06 0.9999996628566495 3.213856899413191e-07 6.790769332928127e-26 1.575766048994823e-08 3.498285039241263e-06 0.01429317580003292 0.9857033259149278 1.085434179248941e-129 3.928565545255428e-13 0.9734860617896557 7.142243235370834e-16 0.0265139382099508 0.9999993001749848 4.712984155025818e-12 1.738441827311641e-07 5.259761193620311e-07 5.846134648998852e-05 2.000678784205039e-06 0.9999395379747257 3.282579467956534e-27 0.8678731781664907 0.1321268218329952 5.140615621095246e-13 3.675318675914389e-23 0.9699896412464143 0.03001035317631456 5.577271171275196e-09 3.54333438651252e-20 1.369708311078946e-10 0.1557240083329893 0.8442759915296794 3.60716831887648e-13 0.9998762598781428 5.004546454830512e-08 0.0001236900763927959 4.08002625926672e-17 0.03890504403162131 2.856617727259463e-22 0.1038444237239762 0.8572505322444025 0.00329988896798479 3.765864150827316e-95 0.435297389064515 0.5614027219675002 4.000199899177204e-19 0.9999897123278856 2.135240864999267e-07 1.007414802798757e-05 0.998621963873023 2.788295574197435e-08 0.001292855379239268 8.515286478195972e-05 0.3849764062931621 0.605598870238687 0.009424719212191577 4.255959271450184e-09 1.801491967105423e-05 0.3466030636289739 0.3117764953832258 0.3416024260681293 4.143239262515828e-05 7.623945695189493e-10 2.041418968462948e-06 0.9999565254260117 0.152057112268263 2.208583078292487e-10 0.1290572867814552 0.7188856007294236 0.002675376956136591 6.81487409532429e-06 3.458053950857382e-86 0.997317808169768 1.912580846165681e-07 3.430648420435102e-08 4.596993320834983e-05 0.9999538045022228 5.64260139657713e-06 3.514806899327565e-34 3.579424873225446e-12 0.999994357395024 2.938588997244579e-19 1.40322497430451e-23 1.169810664113789e-104 0.9999999999999999 8.333643633053304e-06 0.1320435887323207 0.1422338239398008 0.7257142536842455 0.999819016043653 0.0001257468144817504 5.48355679667716e-05 4.015738985023371e-07 0.9656217030194607 7.28053771265198e-19 0.009126919129802546 0.02525137785073666 0.7951091596322268 0.1806823146558664 0.02412909231702228 7.943339488458661e-05 2.817501923209047e-46 0.9999090784378089 2.54208381707598e-11 9.092153677035866e-05 4.389422615906903e-09 3.036253965991436e-07 0.9612953439295502 0.03870434805563053 9.790408740126251e-07 2.763225603027322e-05 0.9999713090537868 7.964930897242271e-08 0.1241594478442682 0.5236247604299995 0.3519726316599572 0.0002431600657751564 0.09619373741228399 2.481062546632726e-09 0.9038049814604561 1.278646197421941e-06 7.419552335782204e-08 0.05313484746798057 0.9389206691185189 0.007944409217977282 0.01763632110234034 0.001293900911080631 0.9810695691384848 2.088480943312671e-07 0.9985694005779333 4.569817609487318e-11 7.829014457505858e-21 0.001430599376368395 1.152442829925827e-11 0.008203264602771352 0.0004285893033544811 0.9913681460823499 0.05539912572913711 7.234107649381318e-52 0.5441205244705611 0.4004803498003019 5.771911646383432e-05 2.711888121399303e-06 0.9376435453462997 0.06229602364911518 0.003238084221433576 0 0.4534861588349761 0.5432757569435904 1.373053033719765e-06 4.96558408009486e-55 1.161538280251491e-05 0.9999870115641638 0.4083316852838579 0.0003930610710878878 0.008953669789447503 0.5823215838556068 2.580171289634184e-10 1.392289863215776e-08 0.002402107834965194 0.997597877984119 1.320148438885853e-05 2.723232277982969e-07 0.9999865248219223 1.370460868155401e-09 8.53065082480988e-05 4.99645585399148e-14 0.0003544315886945636 0.9995602619030074 0.05698798360997142 0.278559333458295 0.6408152897611216 0.02363739317061182 0.03049870566506173 0.5914885542275184 1.546376731640265e-31 0.3780127401074196 0.01038500781906167 0.1076186661350913 0.0005184294287726756 