<?xml version="1.0" encoding="UTF-8"?>
<!-- This file was created by ACADEMIC version of SMILE -->
<smile version="1.0" id="Unnamed" numsamples="10000" discsamples="10000">
	<nodes>
		<cpt id="U0">
			<state id="a" />
			<state id="b" />
			<probabilities>0.5 0.5</probabilities>
		</cpt>
		<cpt id="U4">
			<state id="a" />
			<state id="b" />
			<probabilities>0.5 0.5</probabilities>
		</cpt>
		<cpt id="V10">
			<state id="a" />
			<state id="b" />
			<state id="c" />
			<state id="d" />
			<parents>U0 U4</parents>
			<probabilities>0.25 0.25 0.25 0.25 0.25 0.25 0.25 0.25 0.25 0.25 0.25 0.25 0.25 0.25 0.25 0.25</probabilities>
		</cpt>
		<cpt id="U1">
			<state id="a" />
			<state id="b" />
			<probabilities>0.5 0.5</probabilities>
		</cpt>
		<cpt id="V11">
			<state id="a" />
			<state id="b" />
			<state id="c" />
			<state id="d" />
			<parents>U1 U0</parents>
			<probabilities>0.25 0.25 0.25 0.25 0.25 0.25 0.25 0.25 0.25 0.25 0.25 0.25 0.25 0.25 0.25 0.25</probabilities>
		</cpt>
		<cpt id="V6">
			<state id="a" />
			<state id="b" />
			<state id="c" />
			<state id="d" />
			<parents>V10 V11</parents>
			<probabilities>1.410357544430244e-31 6.013262067758611e-23 0.9999999999999999 3.03287530179199e-23 0.07298406158457733 2.649904876935291e-10 0.9269927312951208 2.320685531126729e-05 2.329479114703899e-31 4.235794742412003e-08 0.9330631406673046 0.066936816974748 0.308927478326333 0.6910541486075727 1.516081203961012e-05 3.212254054591194e-06 0.8227203411055437 1.488055584093454e-09 4.638718327110852e-77 0.1772796574064008 0.0001003882343006835 0.01144959408984561 2.228573907188472e-05 0.9884277319367818 0.6987069668778064 0.1881921062362244 0.1131009268859693 1.718061415394005e-22 0.08291194712198426 0.0008111208771025497 0.03928408571114859 0.8769928462897647 0.6263016406240983 0.07941329566666853 1.412593295090586e-07 0.2942849224499037 9.623121343093047e-10 2.220622891046826e-16 0.9921529198902094 0.007847079147478396 0.03405936501787393 0.8175089320374287 0.1484316473242796 5.562041782862803e-08 0.03009048501068498 0.008176864222122292 1.01254686888591e-06 0.9617316382203239 4.320566273605326e-23 0.9429768912139153 9.346175252396066e-06 0.05701376261083234 0.3418887073054506 0.5149716960286147 0.141930867914648 0.00120872875128654 0.1201522812987125 0.8778865899501198 0.001954435992272742 6.692758894882018e-06 0.9999992143312918 3.641897719659751e-14 2.098983418040604e-16 7.856686717302958e-07</probabilities>
		</cpt>
		<cpt id="U2">
			<state id="a" />
			<state id="b" />
			<probabilities>0.5 0.5</probabilities>
		</cpt>
		<cpt id="V12">
			<state id="a" />
			<state id="b" />
			<state id="c" />
			<state id="d" />
			<parents>U2 U1</parents>
			<probabilities>0.25 0.25 0.25 0.25 0.25 0.25 0.25 0.25 0.25 0.25 0.25 0.25 0.25 0.25 0.25 0.25</probabilities>
		</cpt>
		<cpt id="V7">
			<state id="a" />
			<state id="b" />
			<state id="c" />
			<state id="d" />
			<parents>V11 V12</parents>
			<probabilities>2.312859168558858e-10 1.941500716236738e-13 0.9998717442416842 0.0001282555268357273 0.6397085960209711 7.219515639636056e-07 2.407144187768554e-06 0.3602882748832772 1.593385090071674e-35 9.922019290078507e-08 0.9999999007772391 2.568155556508839e-12 6.652700116587855e-34 0.01370403956688738 0.986295958711387 1.721725722891952e-09 0.9624605526801555 0.01304993119210201 4.607110454666359e-13 0.0244895161272818 0.01634891705888989 2.637242682244152e-07 0.9548613740067058 0.02878944521013609 0.0001031314016059859 6.600652599891236e-06 0.9998902679457941 1.62619695255528e-32 0.002331647884476119 0.9976683520979464 1.757757461059172e-11 0 0.003938894403782973 0.9960611055962161 2.83012548800411e-18 9.997014447423146e-16 1.031706305129274e-26 0 0.8131563000054945 0.1868436999945054 2.223363024620628e-11 0.0004800317871000107 0.0002035799036381417 0.9993163882870282 6.452513095757129e-06 0.998779915759092 2.834245947914321e-57 0.001213631727812358 4.968628345392339e-11 0.006033754002851196 0.008384478726520104 0.9855817672209424 0.9807422949671331 1.379479266827894e-09 2.265885331550362e-233 0.01925770365338761 0.005557301577431865 0.005457758288122977 0.9883097951743864 0.0006751449600587946 0.9505682182729945 1.877106206016377e-07 5.616085681352581e-32 0.04943159401638487</probabilities>
		</cpt>
		<cpt id="U6">
			<state id="a" />
			<state id="b" />
			<probabilities>0.5 0.5</probabilities>
		</cpt>
		<cpt id="V3">
			<state id="a" />
			<state id="b" />
			<state id="c" />
			<state id="d" />
			<parents>V6 V7 U4 U6</parents>
			<probabilities>0.25 0.25 0.25 0.25 0.25 0.25 0.25 0.25 0.25 0.25 0.25 0.25 0.25 0.25 0.25 0.25 0.25 0.25 0.25 0.25 0.25 0.25 0.25 0.25 0.25 0.25 0.25 0.25 0.25 0.25 0.25 0.25 0.25 0.25 0.25 0.25 0.25 0.25 0.25 0.25 0.25 0.25 0.25 0.25 0.25 0.25 0.25 0.25 0.25 0.25 0.25 0.25 0.25 0.25 0.25 0.25 0.25 0.25 0.25 0.25 0.25 0.25 0.25 0.25 0.25 0.25 0.25 0.25 0.25 0.25 0.25 0.25 0.25 0.25 0.25 0.25 0.25 0.25 0.25 0.25 0.25 0.25 0.25 0.25 0.25 0.25 0.25 0.25 0.25 0.25 0.25 0.25 0.25 0.25 0.25 0.25 0.25 0.25 0.25 0.25 0.25 0.25 0.25 0.25 0.25 0.25 0.25 0.25 0.25 0.25 0.25 0.25 0.25 0.25 0.25 0.25 0.25 0.25 0.25 0.25 0.25 0.25 0.25 0.25 0.25 0.25 0.25 0.25 0.25 0.25 0.25 0.25 0.25 0.25 0.25 0.25 0.25 0.25 0.25 0.25 0.25 0.25 0.25 0.25 0.25 0.25 0.25 0.25 0.25 0.25 0.25 0.25 0.25 0.25 0.25 0.25 0.25 0.25 0.25 0.25 0.25 0.25 0.25 0.25 0.25 0.25 0.25 0.25 0.25 0.25 0.25 0.25 0.25 0.25 0.25 0.25 0.25 0.25 0.25 0.25 0.25 0.25 0.25 0.25 0.25 0.25 0.25 0.25 0.25 0.25 0.25 0.25 0.25 0.25 0.25 0.25 0.25 0.25 0.25 0.25 0.25 0.25 0.25 0.25 0.25 0.25 0.25 0.25 0.25 0.25 0.25 0.25 0.25 0.25 0.25 0.25 0.25 0.25 0.25 0.25 0.25 0.25 0.25 0.25 0.25 0.25 0.25 0.25 0.25 0.25 0.25 0.25 0.25 0.25 0.25 0.25 0.25 0.25 0.25 0.25 0.25 0.25 0.25 0.25 0.25 0.25 0.25 0.25 0.25 0.25 0.25 0.25 0.25 0.25 0.25 0.25</probabilities>
		</cpt>
		<cpt id="U3">
			<state id="a" />
			<state id="b" />
			<probabilities>0.5 0.5</probabilities>
		</cpt>
		<cpt id="V13">
			<state id="a" />
			<state id="b" />
			<state id="c" />
			<state id="d" />
			<parents>U3 U2</parents>
			<probabilities>0.25 0.25 0.25 0.25 0.25 0.25 0.25 0.25 0.25 0.25 0.25 0.25 0.25 0.25 0.25 0.25</probabilities>
		</cpt>
		<cpt id="V8">
			<state id="a" />
			<state id="b" />
			<state id="c" />
			<state id="d" />
			<parents>V12 V13</parents>
			<probabilities>0.02502437117473615 8.08153959107931e-09 0.9749755999303653 2.081335901901512e-08 0.89519347060091 0.03904769890835014 0.06575880070937515 2.97813648020463e-08 3.366839722253085e-06 0.9581166835564058 0.0006735025314849002 0.04120644707238719 4.175042406255023e-14 1.40315321627565e-07 0.180024244672319 0.8199756150123177 0.09877874984503394 2.077530824139442e-07 0.878495535625377 0.02272550677650674 4.524202059512098e-05 2.634021315704598e-08 0.04767028288679067 0.9522844487524009 0.9881465917712958 9.585905332479092e-05 5.669678438508976e-08 0.01175749247859516 5.249038169003096e-09 0.999999994662742 2.648694136960648e-13 8.795504576920732e-11 0.9518301686755234 2.198804762639355e-22 0.04760718971425491 0.0005626416102217652 0.9832609747220559 3.952647313254558e-56 0.01673901712909356 8.148850460987503e-09 0.0001198483712227809 0.5950851429749341 0.4047950086538432 1.663302669088224e-78 1.891901284710525e-11 0.9898720960584471 1.690580096379225e-19 0.01012790392263412 0.9937132823740334 2.125598983769886e-09 0.006286712236443734 3.263923936041098e-09 9.682193428725793e-159 0.03481617356240697 0.9564116097529868 0.008772216684606281 0.0006784397060910051 0.06073213792395892 1.172780165390916e-40 0.9385894223699502 0.02485401405411829 1.931195430946932e-43 2.055323530267504e-07 0.9751457804135287</probabilities>
		</cpt>
		<cpt id="V4">
			<state id="a" />
			<state id="b" />
			<state id="c" />
			<state id="d" />
			<parents>V7 V8</parents>
			<probabilities>2.149232020180736e-13 0.01604286213831871 0.9424538508118596 0.04150328704960673 0.2432518062555231 0.7567481908347147 2.909762312361675e-09 1.275282965675417e-50 0.01617116125565436 1.198404275640901e-29 1.50068726998963e-39 0.9838288387443456 9.723409665497949e-25 1 6.724621058762812e-162 1.324224852876017e-17 0.9499583275745501 2.275728776051264e-154 0.0002277808749970593 0.04981389155045261 0.0004967659803981225 8.390630764431628e-08 2.592304754769795e-139 0.9995031501132942 0.999999999880026 1.135837179914582e-36 1.199740355026546e-10 3.135424560803077e-39 0.04368228473694576 0.04588632559589196 0.5274138387741907 0.3830175508929716 0.1124298011280444 0.887570184404108 7.084487195238149e-10 1.375939895401963e-08 0.9176415498369174 4.084283772537564e-08 3.350530465414682e-19 0.08235840932024495 5.812441461214979e-08 0.01311297564048999 1.76013666957312e-13 0.9868869662349194 1.322430381277157e-05 0.007111405866994542 0.9928753698291926 9.011961690273459e-174 3.090449874400742e-10 5.604376390594495e-08 8.597168629288118e-17 0.999999943647191 0.0273452164060105 0.0001792374926607449 0.9723654309527854 0.0001101151485433371 0.0001191051341201516 0.9998808948658799 3.470726883543521e-18 4.967864799326711e-29 6.089756819879016e-07 1.877842737436108e-07 0.9999992032400442 6.861573154701422e-26</probabilities>
		</cpt>
		<cpt id="V1">
			<state id="a" />
			<state id="b" />
			<state id="c" />
			<state id="d" />
			<parents>V3 V4</parents>
			<probabilities>1.209901671024602e-21 0.8100255952628483 0.001976513361283748 0.1879978913758679 0.9995360478988613 0.0004639516043820669 2.290647515370828e-59 4.967566553478886e-10 1.133193083116041e-05 0.9857359191334026 0.01425274893576624 0 0.4017364236100517 0.002107500117487128 8.231806609460857e-09 0.5961560680406545 0.9947154201926027 3.087418403336532e-07 0.005284271065556966 4.726011528010242e-30 0.1269265556345706 8.047780946005661e-28 4.064729296988126e-15 0.8730734443654253 0.0008350112924282036 0.3764483540107682 0.6162166447951845 0.006499989901619224 0.9368791832549468 8.564328597951989e-07 0.0244119509338453 0.03870800937834803 0.9970281130019409 3.615431290910525e-05 0.0005500877975214403 0.002385644887628604 0.9944442457940631 0.005555751971794975 0 2.234142064309481e-09 0.4485937361275211 3.32234443491057e-12 0.551406020073106 2.437960506565123e-07 0.004643656547633461 0.995185977063386 0.0001702441941980329 1.221947826914074e-07 0.552635472913719 9.09329011953795e-07 7.381276199751652e-07 0.4473628796296491 2.027181330080809e-05 0.4562205452117876 0.0001412953094069841 0.5436178876655046 9.5649637953805e-80 0.9703205457096763 1.339029860912145e-24 0.02967945429032372 0.2334559451689697 0.001300241159636667 0.7652438136711436 2.502016153270144e-13</probabilities>
		</cpt>
		<cpt id="U5">
			<state id="a" />
			<state id="b" />
			<probabilities>0.5 0.5</probabilities>
		</cpt>
		<cpt id="V14">
			<state id="a" />
			<state id="b" />
			<state id="c" />
			<state id="d" />
			<parents>U3 U5</parents>
			<probabilities>0.25 0.25 0.25 0.25 0.25 0.25 0.25 0.25 0.25 0.25 0.25 0.25 0.25 0.25 0.25 0.25</probabilities>
		</cpt>
		<cpt id="V9">
			<state id="a" />
			<state id="b" />
			<state id="c" />
			<state id="d" />
			<parents>V13 V14</parents>
			<probabilities>6.216418811260628e-29 0.9999999941469622 5.719881323380445e-77 5.853037659907902e-09 0.001828460271035841 0.2624132228079064 1.678178209686944e-13 0.73575831692089 0.08536812179071734 4.661983304290433e-10 0.9146301121777831 1.765565301274971e-06 2.859000735014499e-05 7.547940060634642e-17 0.9999370933568376 3.431663581215205e-05 0.8912196042432828 6.833871000161268e-06 0.03597386639717241 0.0727996954885447 0.000214179056262854 2.320736588927934e-12 0.02318666646140637 0.9765991544800101 0.1393997791781911 2.353128922655905e-06 0.00671406861273237 0.8538837990801539 6.17494622378904e-08 1.238903682200567e-05 0.0001686546032645308 0.9998188946104513 0.9097118306592546 2.594528067570806e-05 0.09026222405990503 1.64596415958645e-13 0.9999971875918717 6.549833928366328e-07 2.836584435568336e-07 1.873766291909461e-06 0.9984712272898953 0.0007588571254064743 0.000736603708534354 3.331187616398719e-05 0.001760790900316171 0.8294896740025232 1.614760397741104e-09 0.1687495334824003 1.581146060683776e-14 4.043250121253722e-14 0.8957699177976414 0.1042300822023026 0.9983093075824222 1.068145605608532e-11 0.001673407174769487 1.728523212684917e-05 0.002045158999222319 0.9915822801214791 2.790484678326232e-13 0.006372560879019554 0.08843087618096827 0.7878064252920397 0.1237495542733637 1.314425362835921e-05</probabilities>
		</cpt>
		<cpt id="U7">
			<state id="a" />
			<state id="b" />
			<probabilities>0.5 0.5</probabilities>
		</cpt>
		<cpt id="V5">
			<state id="a" />
			<state id="b" />
			<state id="c" />
			<state id="d" />
			<parents>V8 V9 U5 U7</parents>
			<probabilities>0.25 0.25 0.25 0.25 0.25 0.25 0.25 0.25 0.25 0.25 0.25 0.25 0.25 0.25 0.25 0.25 0.25 0.25 0.25 0.25 0.25 0.25 0.25 0.25 0.25 0.25 0.25 0.25 0.25 0.25 0.25 0.25 0.25 0.25 0.25 0.25 0.25 0.25 0.25 0.25 0.25 0.25 0.25 0.25 0.25 0.25 0.25 0.25 0.25 0.25 0.25 0.25 0.25 0.25 0.25 0.25 0.25 0.25 0.25 0.25 0.25 0.25 0.25 0.25 0.25 0.25 0.25 0.25 0.25 0.25 0.25 0.25 0.25 0.25 0.25 0.25 0.25 0.25 0.25 0.25 0.25 0.25 0.25 0.25 0.25 0.25 0.25 0.25 0.25 0.25 0.25 0.25 0.25 0.25 0.25 0.25 0.25 0.25 0.25 0.25 0.25 0.25 0.25 0.25 0.25 0.25 0.25 0.25 0.25 0.25 0.25 0.25 0.25 0.25 0.25 0.25 0.25 0.25 0.25 0.25 0.25 0.25 0.25 0.25 0.25 0.25 0.25 0.25 0.25 0.25 0.25 0.25 0.25 0.25 0.25 0.25 0.25 0.25 0.25 0.25 0.25 0.25 0.25 0.25 0.25 0.25 0.25 0.25 0.25 0.25 0.25 0.25 0.25 0.25 0.25 0.25 0.25 0.25 0.25 0.25 0.25 0.25 0.25 0.25 0.25 0.25 0.25 0.25 0.25 0.25 0.25 0.25 0.25 0.25 0.25 0.25 0.25 0.25 0.25 0.25 0.25 0.25 0.25 0.25 0.25 0.25 0.25 0.25 0.25 0.25 0.25 0.25 0.25 0.25 0.25 0.25 0.25 0.25 0.25 0.25 0.25 0.25 0.25 0.25 0.25 0.25 0.25 0.25 0.25 0.25 0.25 0.25 0.25 0.25 0.25 0.25 0.25 0.25 0.25 0.25 0.25 0.25 0.25 0.25 0.25 0.25 0.25 0.25 0.25 0.25 0.25 0.25 0.25 0.25 0.25 0.25 0.25 0.25 0.25 0.25 0.25 0.25 0.25 0.25 0.25 0.25 0.25 0.25 0.25 0.25 0.25 0.25 0.25 0.25 0.25 0.25</probabilities>
		</cpt>
		<cpt id="V2">
			<state id="a" />
			<state id="b" />
			<state id="c" />
			<state id="d" />
			<parents>V4 V5</parents>
			<probabilities>0.8420487654548031 5.825342110339146e-12 0.0003248588369707647 0.1576263757024007 0.0005608551332432648 0.03960867460747946 0.9595289394119858 0.0003015308472915148 0.000129663752323544 0.1663268787896524 0.03908666870478637 0.7944567887532378 1.04042267726532e-08 7.180692259714225e-05 0.3429739325459028 0.6569542501272732 0.008702454498592999 0.003983941908700626 0.02063776954401338 0.9666758340486931 1.170366323839359e-15 0.7457906807176281 0.253790392966438 0.0004189263159326717 0.7725371902536581 0.005242381433481649 0.2222204283128603 0 5.29958443491271e-17 0.9795611282360568 0.00486335007971688 0.0155755216842265 0.003050553954369472 4.743898048661499e-28 0.9948191160146355 0.002130330030995012 0.001883286873989406 0.0001019814764970972 0.3868804773968165 0.6111342542526972 0.0004294586823898689 0.003948687631183 1.524799018850055e-29 0.9956218536864271 0.02349871801460563 2.790837428696793e-13 0.8827096257985989 0.09379165618651633 8.723804725355362e-05 0.9988717275465555 0.001041034406190853 1.266891791254633e-54 0 2.643859446558664e-07 1.437424198680093e-06 0.9999982981898565 5.314993143959018e-09 7.783852205129425e-19 0.9298893078140151 0.07011068687099166 0.004163369054558484 0.3871385670402741 4.363247891936297e-07 0.6086976275803782</probabilities>
		</cpt>
		<cpt id="V0">
			<state id="a" />
			<state id="b" />
			<state id="c" />
			<state id="d" />
			<parents>V1 V2 U7 U6</parents>
			<probabilities>0.25 0.25 0.25 0.25 0.25 0.25 0.25 0.25 0.25 0.25 0.25 0.25 0.25 0.25 0.25 0.25 0.25 0.25 0.25 0.25 0.25 0.25 0.25 0.25 0.25 0.25 0.25 0.25 0.25 0.25 0.25 0.25 0.25 0.25 0.25 0.25 0.25 0.25 0.25 0.25 0.25 0.25 0.25 0.25 0.25 0.25 0.25 0.25 0.25 0.25 0.25 0.25 0.25 0.25 0.25 0.25 0.25 0.25 0.25 0.25 0.25 0.25 0.25 0.25 0.25 0.25 0.25 0.25 0.25 0.25 0.25 0.25 0.25 0.25 0.25 0.25 0.25 0.25 0.25 0.25 0.25 0.25 0.25 0.25 0.25 0.25 0.25 0.25 0.25 0.25 0.25 0.25 0.25 0.25 0.25 0.25 0.25 0.25 0.25 0.25 0.25 0.25 0.25 0.25 0.25 0.25 0.25 0.25 0.25 0.25 0.25 0.25 0.25 0.25 0.25 0.25 0.25 0.25 0.25 0.25 0.25 0.25 0.25 0.25 0.25 0.25 0.25 0.25 0.25 0.25 0.25 0.25 0.25 0.25 0.25 0.25 0.25 0.25 0.25 0.25 0.25 0.25 0.25 0.25 0.25 0.25 0.25 0.25 0.25 0.25 0.25 0.25 0.25 0.25 0.25 0.25 0.25 0.25 0.25 0.25 0.25 0.25 0.25 0.25 0.25 0.25 0.25 0.25 0.25 0.25 0.25 0.25 0.25 0.25 0.25 0.25 0.25 0.25 0.25 0.25 0.25 0.25 0.25 0.25 0.25 0.25 0.25 0.25 0.25 0.25 0.25 0.25 0.25 0.25 0.25 0.25 0.25 0.25 0.25 0.25 0.25 0.25 0.25 0.25 0.25 0.25 0.25 0.25 0.25 0.25 0.25 0.25 0.25 0.25 0.25 0.25 0.25 0.25 0.25 0.25 0.25 0.25 0.25 0.25 0.25 0.25 0.25 0.25 0.25 0.25 0.25 0.25 0.25 0.25 0.25 0.25 0.25 0.25 0.25 0.25 0.25 0.25 0.25 0.25 0.25 0.25 0.25 0.25 0.25 0.25 0.25 0.25 0.25 0.25 0.25 0.25</probabilities>
		</cpt>
	</nodes>
	<extensions>
		<genie version="1.0" app="SMILE_ACADEMIC 2.2.0@40eb97e8a55a" name="Unnamed">
			<node id="V0">
				<name>V0</name>
				<interior color="e5f6f7" />
				<outline color="0000bb" />
				<font color="000000" name="MS Sans Serif" size="8" />
				<position>120 80 205 135</position>
			</node>
			<node id="V1">
				<name>V1</name>
				<interior color="e5f6f7" />
				<outline color="0000bb" />
				<font color="000000" name="MS Sans Serif" size="8" />
				<position>121 81 206 136</position>
			</node>
			<node id="V2">
				<name>V2</name>
				<interior color="e5f6f7" />
				<outline color="0000bb" />
				<font color="000000" name="MS Sans Serif" size="8" />
				<position>122 82 207 137</position>
			</node>
			<node id="V3">
				<name>V3</name>
				<interior color="e5f6f7" />
				<outline color="0000bb" />
				<font color="000000" name="MS Sans Serif" size="8" />
				<position>123 83 208 138</position>
			</node>
			<node id="V4">
				<name>V4</name>
				<interior color="e5f6f7" />
				<outline color="0000bb" />
				<font color="000000" name="MS Sans Serif" size="8" />
				<position>124 84 209 139</position>
			</node>
			<node id="V5">
				<name>V5</name>
				<interior color="e5f6f7" />
				<outline color="0000bb" />
				<font color="000000" name="MS Sans Serif" size="8" />
				<position>125 85 210 140</position>
			</node>
			<node id="V6">
				<name>V6</name>
				<interior color="e5f6f7" />
				<outline color="0000bb" />
				<font color="000000" name="MS Sans Serif" size="8" />
				<position>126 86 211 141</position>
			</node>
			<node id="V7">
				<name>V7</name>
				<interior color="e5f6f7" />
				<outline color="0000bb" />
				<font color="000000" name="MS Sans Serif" size="8" />
				<position>127 87 212 142</position>
			</node>
			<node id="V8">
				<name>V8</name>
				<interior color="e5f6f7" />
				<outline color="0000bb" />
				<font color="000000" name="MS Sans Serif" size="8" />
				<position>128 88 213 143</position>
			</node>
			<node id="V9">
				<name>V9</name>
				<interior color="e5f6f7" />
				<outline color="0000bb" />
				<font color="000000" name="MS Sans Serif" size="8" />
				<position>129 89 214 144</position>
			</node>
			<node id="V10">
				<name>V10</name>
				<interior color="e5f6f7" />
				<outline color="0000bb" />
				<font color="000000" name="MS Sans Serif" size="8" />
				<position>130 90 215 145</position>
			</node>
			<node id="V11">
				<name>V11</name>
				<interior color="e5f6f7" />
				<outline color="0000bb" />
				<font color="000000" name="MS Sans Serif" size="8" />
				<position>131 91 216 146</position>
			</node>
			<node id="V12">
				<name>V12</name>
				<interior color="e5f6f7" />
				<outline color="0000bb" />
				<font color="000000" name="MS Sans Serif" size="8" />
				<position>132 92 217 147</position>
			</node>
			<node id="V13">
				<name>V13</name>
				<interior color="e5f6f7" />
				<outline color="0000bb" />
				<font color="000000" name="MS Sans Serif" size="8" />
				<position>133 93 218 148</position>
			</node>
			<node id="V14">
				<name>V14</name>
				<interior color="e5f6f7" />
				<outline color="0000bb" />
				<font color="000000" name="MS Sans Serif" size="8" />
				<position>134 94 219 149</position>
			</node>
			<node id="U0">
				<name>U0</name>
				<interior color="e5f6f7" />
				<outline color="0000bb" />
				<font color="000000" name="MS Sans Serif" size="8" />
				<position>50 50 135 105</position>
			</node>
			<node id="U1">
				<name>U1</name>
				<interior color="e5f6f7" />
				<outline color="0000bb" />
				<font color="000000" name="MS Sans Serif" size="8" />
				<position>51 51 136 106</position>
			</node>
			<node id="U2">
				<name>U2</name>
				<interior color="e5f6f7" />
				<outline color="0000bb" />
				<font color="000000" name="MS Sans Serif" size="8" />
				<position>52 52 137 107</position>
			</node>
			<node id="U3">
				<name>U3</name>
				<interior color="e5f6f7" />
				<outline color="0000bb" />
				<font color="000000" name="MS Sans Serif" size="8" />
				<position>53 53 138 108</position>
			</node>
			<node id="U4">
				<name>U4</name>
				<interior color="e5f6f7" />
				<outline color="0000bb" />
				<font color="000000" name="MS Sans Serif" size="8" />
				<position>54 54 139 109</position>
			</node>
			<node id="U5">
				<name>U5</name>
				<interior color="e5f6f7" />
				<outline color="0000bb" />
				<font color="000000" name="MS Sans Serif" size="8" />
				<position>55 55 140 110</position>
			</node>
			<node id="U6">
				<name>U6</name>
				<interior color="e5f6f7" />
				<outline color="0000bb" />
				<font color="000000" name="MS Sans Serif" size="8" />
				<position>56 56 141 111</position>
			</node>
			<node id="U7">
				<name>U7</name>
				<interior color="e5f6f7" />
				<outline color="0000bb" />
				<font color="000000" name="MS Sans Serif" size="8" />
				<position>57 57 142 112</position>
			</node>
		</genie>
	</extensions>
</smile>
