<?xml version="1.0" encoding="UTF-8"?>
<!-- This file was created by ACADEMIC version of SMILE -->
<smile version="1.0" id="Unnamed" numsamples="10000" discsamples="10000">
	<nodes>
		<cpt id="U1">
			<state id="State0" />
			<state id="State1" />
			<state id="State2" />
			<state id="State3" />
			<state id="State4" />
			<state id="State5" />
			<probabilities>0.1287040015623781 0.833002182281774 0.01408289525515763 4.142316084133671e-10 0.0005599914463782422 0.02365092904008031</probabilities>
		</cpt>
		<cpt id="V0">
			<state id="State0" />
			<state id="State1" />
			<state id="State2" />
			<state id="State3" />
			<parents>U1</parents>
			<probabilities>2.629684723594617e-14 0.8927902979571314 0.1065083718636469 0.0007013301791954803 1.553232241165393e-25 0.97291210568335 0.01286578370110848 0.01422211061554154 0.9922303039827823 0.0002676612213517957 1.956542939703143e-20 0.007502034795865793 0.0002403422644699818 0.1118780312993201 0.887881626436208 2.014564958191028e-15 0.0104575743507553 5.071438565355843e-08 8.028287482552345e-17 0.989542374934859 0.9999999806468517 1.935313046379951e-08 7.489629707810662e-237 1.781282623182966e-14</probabilities>
		</cpt>
		<cpt id="V1">
			<state id="State0" />
			<state id="State1" />
			<state id="State2" />
			<state id="State3" />
			<parents>V0</parents>
			<probabilities>0.9934662700434911 0.004861835096208671 0.0007868653113454248 0.0008850295489547832 0.005639494447379253 0.9934662700434911 0.0005139059230688033 0.0003803295860608233 0.005741816743355776 0.0003509606210120946 0.9934662700434911 0.0004409525921410091 0.00546130117213184 0.0002689902791706673 0.000803438505206372 0.9934662700434911</probabilities>
		</cpt>
		<cpt id="U2">
			<state id="State0" />
			<state id="State1" />
			<state id="State2" />
			<state id="State3" />
			<state id="State4" />
			<state id="State5" />
			<probabilities>4.795789703910153e-06 1.114467732511281e-15 8.985168874000489e-05 0.0006132052389897888 2.584921811057028e-30 0.9992921472825651</probabilities>
		</cpt>
		<cpt id="V2">
			<state id="State0" />
			<state id="State1" />
			<state id="State2" />
			<state id="State3" />
			<parents>V1 U1 U2</parents>
			<probabilities>0.9930714493570058 0.004123219359522048 0.002714150238925945 9.118104454620144e-05 0.00205201637971996 0.997719519539923 0.0001911522373399341 3.731184301715348e-05 0.002803399642694599 0.000270027964876708 0.9958088009752135 0.001117771417215133 0.0004843674516550711 0.0006353176066610427 0.0001012241389660911 0.9987790908027178 0.9970866446073208 0.001348942532161138 0.001408916427548493 0.0001554964329695773 0.003167330909385124 0.9949103132366426 0.001554081623882531 0.0003682742300897602 9.350582517743763e-05 0.003536529601551578 0.001588044399887211 0.9947819201733837 8.006837574017284e-05 0.003275313337619162 0.9951903251042452 0.001454293182395457 0.9985020138101162 0.0006926823608767461 0.0006025080221158167 0.0002027958068912914 0.00694350433223528 0.0009160474651893932 0.9913716361550348 0.000768812047540614 0.008191764005200209 0.9902118134232926 0.001241515893873808 0.0003549066776334102 0.001823046216468504 0.002582366520029119 0.004494903988034611 0.9910996832754677 0.9928577719897537 0.003912161866970376 1.47404265771892e-05 0.003215325716698772 0.001852470420191948 0.0009335817218618025 0.9955724227045439 0.001641525153402291 0.002231047557463175 0.0008973264017640114 0.002038745139455382 0.9948328809013174 0.001654928143876404 0.9960317642015817 0.0007975565424834459 0.001515751112058482 0.9908191362918963 0.005958178270206006 0.002338220751194368 0.0008844646867032431 0.003429085237404352 0.0003268944677003614 4.236465974975356e-05 0.9962016556351455 0.001530892343933466 0.9977393156883492 0.0001206251904134497 0.0006091667773038819 0.006739525116505564 0.001503567869896721 0.9914139064548161 0.0003430005587816247 0.997355076345798 0.0009137909084270348 0.0007358370481173585 0.0009952956976575825 0.001549465187610888 0.00408530184139361 0.002214957700472421 0.9921502752705231 3.630671191657398e-05 0.0001353070414918941 0.9995311440278485 0.0002972422187430214 0.006216337187344679 0.9919257848844194 0.001719548777792178 0.0001383291504437445 0.005828820605458675 0.0002212619806775588 0.0002616286416414784 0.9936882887722223 0.004272531111795487 0.0008637822849585706 0.9940342432737374 0.000829443329508591 0.007496059671926142 0.9900421963291746 0.002200021789700916 0.0002617222091983733 0.996650181408185 0.00101551736460507 0.0009164416557991193 0.001417859571410848 0.002229650641415093 0.0008224786177731214 0.004684149437713522 0.9922637213030983 0.0002368441360953738 7.271367247116573e-05 0.9995832066425482 0.000107235548885274 0.9949511847719639 0.001079461280141063 0.0002577140931992011 0.003711639854695852 0.001523363853367714 0.9949642261650786 0.0003187951524353467 0.003193614829118352 0.000500162836340425 0.000429210018220442 6.838600854665468e-05 0.9990022411368925 0.0003660287441686344 0.9990655761524574 5.310433488073448e-05 0.0005152907684932903 0.0004000826414638563 0.000589131537269098 0.9987578198798509 0.0002529659414161801 0.9975728293083321 0.001793086328765669 0.000557930324749206 7.615403815302072e-05 0.0007148269355357461 0.0002185557617223462 0.002464310172762424 0.9966023071299794 1.664131464928919e-05 0.9999362348469033 3.541153534980977e-05 1.171230309764307e-05 0.9972722431997791 0.0008119913061217365 0.0006381344586027764 0.00127763103549638 0.005866495936539888 0.0004844912252199168 0.9936144061198062 3.460671843398961e-05 0.004107389195572385 0.00030212291663345 0.001772728004832509 0.9938177598829616 0.9953527978139109 0.001522832017602472 0.000224937708551322 0.002899432459935231 0.005093768873857715 0.00090572594245821 0.9937345335490392 0.0002659716346448699 0.0002121399104739805 0.9964012681187038 0.0001324945492584104 0.003254097421563814 0.0007223460103965759 0.001026627028686403 0.0003832475568594038 0.9978677794040576 0.9980149648440367 0.001977698516408125 9.587402611007633e-07 6.377899294010512e-06 0.005841104389095584 0.9935370191744797 0.000300095253637916 0.0003217811827868123 0.003319164954409621 5.959264038095911e-05 0.9957174073639862 0.0009038350412232998 0.9968236373120841 0.001751433115469186 0.0009458760119023313 0.0004790535605443461 0.004794396070259025 0.9928193992040163 0.001200439351974959 0.00118576537374972 0.001041215037649686 0.001887437941009361 0.9921994456945349 0.004871901326806118 0.00172270988551714 0.004311713470338021 0.000540386344572384 0.9934251902995724 0.9947121926853307 0.004226675549104188 0.0004621777753977275 0.0005989539901673655 0.00302819266911773 0.990613308653877 0.0003126074418861316 0.006045891235119165 0.003403677887697218 0.0008173160292671772 0.003381129171993783 0.9923978769110419 0.0008001459351317932 0.000423166047430878 0.9986027359547455 0.000173952062691866 0.9944625513369378 0.004859934783041041 0.0001605168736778273 0.0005169970063433323 0.001053425589163559 0.0009083229412252421 0.998011686838518 2.656463109311762e-05 0.000528271942297934 0.9981556059809451 0.00088085139913213 0.0004352706776248439 0.007955195477291869 0.001151001997534444 0.0008245401159689314 0.9900692624092048 0.9929032354893557 0.005738281124988077 0.0006420188827181824 0.0007164645029380682 0.004685911395678323 0.00261056472710488 0.9926877151298836 1.580874733321785e-05 0.001388638283938174 0.002631524610246482 0.0003500513300135912 0.9956297857758017 0.002949664677942395 0.9968330809706921 0.0001717677768778584 4.548657448766251e-05 0.9967266465073544 0.002844677348079703 0.0002821711914518055 0.0001465049531140965 7.859679136791876e-05 8.969071836384521e-05 0.0002408158051326656 0.9995908966851356 0.006510743945896006 0.993440691841421 3.528970691423509e-06 4.503524199152855e-05 0.000241180614441668 0.001613130353559012 0.998052282454668 9.34065773312892e-05 0.9971369327523459 0.001956957044472877 5.024252844949926e-05 0.0008558676747316371 0.0002406551427775093 3.299645769264456e-06 1.847365160597396e-05 0.9997375715598472 0.001119229967051693 9.750678135733492e-06 0.9985444673140598 0.000326552040752751 0.001667192118881613 0.9909122360806621 0.0003530332704298344 0.007067538530026399 0.0005562857861605461 0.001073370941739507 0.001866998476223521 0.9965033447958764 0.0001503232900177442 5.848867599889723e-05 0.9997544968414006 3.66911925827591e-05 0.003059918930446518 0.9920465648863949 0.001520469213836205 0.003373046969322393 0.9922556603196567 0.003589699739562825 0.004073031178575373 8.16087622051067e-05 4.382113381356059e-06 0.002951587716363995 0.004490629435801771 0.9925534007344529 0.0001115320849070463 1.185133666233812e-05 0.9993645477437265 0.0005120688347041222 0.9913521082784884 0.002284448247433619 0.005471069680139245 0.0008923737939386727 0.0004477793850143189 0.9982880741981368 2.967508860014328e-05 0.001234471328248708 0.004649138696636767 0.0009715586228675048 0.002391318663035991 0.9919879840174597 0.002596595783756847 0.9918370601389815 0.001596686250327658 0.0039696578269339 0.001672716364048228 0.001358995411043119 0.9934777466024066 0.003490541622502085 0.9946325222867951 0.001378907883595688 0.003976871392223256 1.169843738594873e-05 0.002234362734355964 0.0002151850417821223 0.0001459465174343905 0.9974045057064275 0.0007953729046177673 0.9978118986021606 0.001122227028185328 0.0002705014650362895 0.9963019965599283 0.001507709945781863 0.0002370029528877408 0.001953290541402022 0.000467531681656405 0.004733361967400629 0.9923094623661508 0.002489643984792114 0.001189578250260227 0.001340565601622395 0.003730212319891942 0.9937396438282254 0.995725953809829 0.001120028236564813 0.0005791551276640671 0.002574862825942161 0.001796658041328689 0.0004554891943837046 0.9934444752762385 0.004303377488049177 0.003695315968611989 0.9915844775288305 0.001451274407295112 0.003268932095262361 0.006725723447279899 0.002434263519746858 0.0002397113425012466 0.990600301690472 0.995666297725577 0.0038212323304291 0.0003325626172381933 0.0001799073267556544 0.0001352178259374985 0.9988756874523127 0.0003519484886913388 0.0006371462330584455 0.0007961922128228329 0.0004953527900803928 0.9962667539048108 0.002441701092286008 0.9959674875402061 0.001172758722122713 0.001756225031116076 0.001103528706555014 0.0002746525076659416 0.9963704897062964 0.0008991213700495609 0.002455736415988127 0.004091922660145313 0.0001100211583733635 0.9947974999133524 0.001000556268128944 0.0008844663840163339 0.0006235948706559555 0.0003509816804526921 0.998140957064875 0.9921482125689336 0.004298827493060496 0.002716282413311448 0.0008366775246944802 0.0006759772428067108 0.9993088039443043 9.993869008833853e-06 5.224943880171714e-06 0.003831834828321755 0.001781536569038098 0.0009837082321436067 0.9934029203704965 0.002183693333133896 0.003202311006844747 0.9931867855097045 0.001427210150316808 0.9900651467189848 0.004677622192389268 0.002160632729559467 0.003096598359066421 0.0003391742845775311 0.00449720988223397 0.9929510534397744 0.002212562393414096 0.002165848806469797 0.9967249801616889 0.0009153297302557467 0.0001938413015855645 0.0005181862664728201 0.0007599019787301537 0.001010118587048842 0.9977117931677482 0.9942181612463864 0.002033810322905754 0.001979499193892452 0.001768529236815405 0.001287190803818843 0.0001443955918417341 0.9961596395889201 0.002408774015419303 0.001788279307543579 0.0004780627527207242 0.0001589039851800923 0.9975747539545556 9.155449559923204e-06 0.9999906257887954 1.805124697940993e-07 3.82491748829431e-08 0.9974901919750475 0.00198822548688583 0.0004953983210076096 2.618421705901253e-05 0.00153003085968991 0.001490776629667871 0.006451965802261862 0.9905272267083803 1.170688982220698e-05 0.9998599942787759 4.071190157974932e-05 8.7586929822095e-05 0.0009429472511123402 0.001337271007436084 0.9969650397963842 0.0007547419450673861 0.9961109811309325 0.001817397415870452 0.0007884597744059187 0.001283161678791041 0.0008326636543619393 0.001731078186458629 0.0002492784700089898 0.9971869796891705 0.005918599113282825 0.001111240709160495 0.9925688461542804 0.0004013140232762612 0.003626131123298186 0.9955738185256588 0.0004461043440192038 0.0003539460070237128 0.005729559199693978 0.001917635751202285 0.001836316912398433 0.9905164881367053 0.0003508695384498944 0.001043759208734441 0.9974617946124905 0.001143576640325111 0.000489202262364836 0.9992788899766046 0.0001242535893805937 0.0001076541716498942 0.9998820490623054 5.634936212380173e-05 5.835430287352079e-05 3.247272697299432e-06 0.004001696513821318 0.001556108594743163 0.003894051033027139 0.9905481438584084 0.002936818996606065 0.00279983820524026 0.9915044834309475 0.00275885936720608 0.993733954775741 0.001348938366761193 0.0007250348231937092 0.004192072034304078 0.003998344852655609 0.9949472409914907 0.0005320471487147762 0.0005223670071388984 0.0006293907822782343 0.002726126764599825 0.002272509904768274 0.9943719725483536 0.001847716697888251 0.9946537895850145 0.002011073627624812 0.001487420089472401 0.002976902618060938 9.295806459226472e-05 0.9965275962609188 0.0004025430564280213 0.9924983464020417 0.006773106884699042 0.0006054712580950305 0.000123075455164271 0.001996561855414736 0.0005623096814315009 0.002197922999020356 0.9952432054641334 0.0008005605189071398 0.996122991330721 0.0008669668176653959 0.002209481332706487 0.99655183255782 0.0006598264192749206 0.002173970657583494 0.0006143703653215572 0.001309504367996073 2.595381180473844e-06 0.9967570058415193 0.001930894409304151 0.005303749634006031 0.001092950039927698 0.000640645354690146 0.9929626549713761 0.9950759673879144 0.003644332857229253 0.001127892225598074 0.0001518075292583246 0.004145860055463807 0.0003197194533901561 0.9949006659610219 0.0006337545301241337 0.0008743410442954071 0.9960225903048381 0.002273948289752912 0.0008291203611135722 0.0003125238579315765 1.295754311508157e-05 0.0001205808112536908 0.9995539377876996 0.9997186014688462 2.431328051253711e-05 0.0002297548229292828 2.733042771197377e-05 0.004575421674634415 0.9916643653025276 0.002302362435593666 0.001457850587244346 0.000265724839041811 0.0003866993855654257 0.9992987087987267 4.886697666603191e-05</probabilities>
		</cpt>
		<cpt id="V3">
			<state id="State0" />
			<state id="State1" />
			<state id="State2" />
			<state id="State3" />
			<parents>V2</parents>
			<probabilities>0.9972871856176942 0.001915132618037637 0.0007074869269103032 9.01948373578e-05 0.0006216041504800239 0.9972871856176942 0.0008253931944264107 0.001265817037399306 0.00249542521804137 0.0001075120298966321 0.9972871856176942 0.0001098771343677388 6.749746543752367e-05 0.001985168974991399 0.0006601479418768181 0.9972871856176942</probabilities>
		</cpt>
		<cpt id="U3">
			<state id="State0" />
			<state id="State1" />
			<state id="State2" />
			<state id="State3" />
			<state id="State4" />
			<state id="State5" />
			<probabilities>0.2028071448564271 4.56175238545008e-23 0.7971928344932915 2.065028002405848e-08 1.351587618459034e-15 5.525183572567079e-140</probabilities>
		</cpt>
		<cpt id="V4">
			<state id="State0" />
			<state id="State1" />
			<state id="State2" />
			<state id="State3" />
			<parents>V3 U2 U3</parents>
			<probabilities>0.99553873468147 0.001946912905706093 0.0007120152117322171 0.001802337201091657 0.001797822853988127 0.9960900311709997 0.0007826648739486267 0.00132948110106358 0.001203293732055513 0.0002002700359249926 0.9980552262033264 0.0005412100286930652 0.002424916605711924 0.0002855444410830964 0.001377981234738789 0.9959115577184662 0.9922761346346781 0.002687735171342483 0.004607181943571956 0.0004289482504074068 0.0007166029295830488 0.9951033460471952 0.001755873580380436 0.002424177442841379 0.005537387029512327 0.0004304065381287322 0.001079914692158929 0.9929522917402001 0.005325843412764557 0.003692312760367131 0.9905447765648817 0.0004370672619865468 0.9923353025955308 0.00415669008881528 0.002603913309582595 0.0009040940060712961 0.0003037252715768355 0.0009226148481575598 0.9983415401197788 0.0004321197604867295 0.005520333549450713 0.9911739919363032 0.002104965432862802 0.001200709081383319 0.001426478451771742 0.0004020885925718671 0.003348086054612151 0.9948233469010442 0.9991404966732041 0.0002389514512804236 6.652296574186569e-05 0.0005540289097735448 0.009074312559571423 0.0005585467895087256 0.990002627590885 0.000364513060034929 0.008395518842199381 3.592158461006832e-05 1.47448340202665e-05 0.9915538147391703 0.001436516654786653 0.9956970495647153 0.001969700585350664 0.0008967331951474241 0.9906232104999797 0.009199463317382361 0.0001597248708922607 1.760131174570505e-05 0.004123073769330786 0.001982770627200367 0.0006765955244322727 0.9932175600790366 0.000977682174828012 0.9988695160963107 3.668165087401435e-06 0.0001491335637738444 0.0006749405661024277 6.450041119544249e-05 0.9950284674435581 0.004232091579144008 0.9952080683999467 0.001557156913662546 0.00285988880582304 0.0003748858805676827 0.004144584367779341 0.0003327464853671772 0.001306145677518215 0.9942165234693353 0.0022895339460431 0.0001190983603161539 0.9975565629143138 3.480477932691142e-05 0.0001782383878740497 0.9994280246797007 0.000285048671754689 0.0001086882606705284 0.002200602879525744 0.002953692842026612 0.000829049442548416 0.9940166548358992 0.009044486243004768 0.0004201433139026135 0.9904724905070816 6.287993601093375e-05 0.003464550628961458 0.9921640820952786 0.002964144935021256 0.001407222340738663 0.9947055260374817 0.001977318379793334 0.0008345198902409127 0.002482635692484017 0.000604789155774275 0.001518430336309483 6.36414992890267e-05 0.9978131390086272 0.003759504356733561 0.0003375716566132526 0.9953487814583145 0.0005541425283387179 0.9949111501603014 0.001178969895111587 0.002705725484098923 0.001204154460488084 0.0006706604336466787 0.9991243602530137 0.0001246761750085591 8.030313833114189e-05 0.001207246358625041 0.002886991521235042 0.0008657096605008473 0.9950400524596391 0.00388561675360195 0.993019336958254 0.001968209833939479 0.001126836454204593 3.209116803442003e-05 1.547196689383134e-05 0.999941703124866 1.073374020573159e-05 0.9970650575198209 0.001899996599634968 0.0004905566491116544 0.0005443892314325212 0.002819486776486619 0.001889650680075307 6.839218094540364e-05 0.9952224703624927 0.003480287460272262 0.9910927080313815 0.001914529686780167 0.003512474821566116 0.9991551525361855 0.0005270447994862365 0.000112539572751486 0.0002052630915768217 0.001268542274149827 0.000259876398947672 0.997745830547167 0.0007257507797354488 0.003265230608759427 0.001271390562246413 0.005119971999221089 0.9903434068297731 0.9940747129579084 0.003563303844874291 0.002234218746596762 0.000127764450620581 0.004834677768554577 0.003826485353049075 0.9909098709955999 0.0004289658827964383 0.0006215156498098199 0.9958756974750279 0.0004421314018648948 0.003060655473297382 0.0002382659456872737 0.0008691220953644672 0.002054959596909736 0.9968376523620385 0.9952732654278076 8.997848328111436e-05 0.001513926238802949 0.003122829850108339 0.00313094317716111 0.9900968491593567 0.00669310776253578 7.909990094645287e-05 0.003812416271728057 0.00121208978070429 0.9938517416460488 0.00112375230151877 0.9964658797346597 0.002571873703150066 0.0003299053053412868 0.0006323412568489524 0.00469853691238114 0.9927246357675236 0.001837721193682168 0.0007391061264131291 0.002620581134810372 0.000374617288428462 0.9944926046390575 0.002512196937703608 0.00125905063473268 0.0003363423115830036 0.003140380513468485 0.9952642265402158 0.9980261722415376 0.001590375445365906 9.747282787377979e-05 0.0002859794852227039 0.0003638830015455667 0.9993747144208796 3.945163005378729e-05 0.0002219509475211041 0.001694256180514221 0.0003289222093916019 0.001261637233020034 0.9967151843770742 0.005125785348396535 0.0005594564433509455 0.9936279692676607 0.000686788940591814 0.9980994157129145 0.0002796091077005031 0.001425588024255443 0.0001953871551295724 0.002530419965044386 0.0022625725463188 0.9926649763774643 0.002542031111172468 0.001386117571902341 0.9971527391766156 0.001306548022614503 0.0001545952288675326 0.00200193348664736 4.840207712180855e-06 4.27579608196225e-05 0.9979504683448208 0.9918039333540292 0.00402327498741968 0.0008169388716063949 0.003355852786944766 0.008322472960438783 0.0002414423881073363 0.9907927643564127 0.0006433202950411727 0.001013539017965841 0.0002865752267828859 0.000270038471753796 0.9984298472834975 0.001291426430588698 0.9904973332843781 0.007102964459348555 0.001108275825684743 0.9950220813881506 0.0004533061748617968 0.002318883379450226 0.0022057290575373 0.001489581498472856 0.0001098536402622491 0.001686054775502457 0.9967145100857624 0.001127964743561631 0.9983720723020785 0.0003616103354386801 0.0001383526189212485 0.0004334656973652356 0.0001562682147102986 0.9968392869105404 0.002570979177384083 0.9938590745911499 0.001989191302959965 0.003420660099946634 0.0007310740059434883 0.000256429865738009 0.0001529870440623968 0.005378103058028405 0.9942124800321712 0.001037836018405831 8.766416294474048e-05 0.9983924752293639 0.0004820245892854914 0.0001134767996623551 0.9998857879674582 5.297335657681074e-07 2.054993137050839e-07 0.007962077856071921 0.000509845231920644 0.0005465073974746436 0.9909815695145328 0.002641589992163549 0.00136169862642545 0.9938903587510813 0.002106352630329704 0.001401185521021627 0.9980365147735409 0.0004228496670131373 0.0001394500384243453 0.9987776301237875 0.0004706804558144453 1.229445560516262e-05 0.0007393949647929233 0.004703375034227681 0.002647840428492977 0.0003876264539498858 0.9922611580833295 0.009608680519235024 0.0001062842944181478 0.9902056539184378 7.938126790903338e-05 0.9979677771795936 0.0009566409237514099 0.0008404072822013127 0.0002351746144536805 0.004213106551589933 0.9902450652138344 0.002807842153028543 0.002733986081547164 0.000326661605499183 0.0003578360122858862 0.0003334559031483308 0.9989820464790666 0.001441306359320454 0.9906824491135501 0.003375960751654969 0.00450028377547446 0.001101669017826401 0.001191860008038377 0.9966152182844392 0.001091252689696019 0.9922035103452668 0.00413643965962471 0.002074810232550361 0.001585239762558185 0.002984695897632878 0.004643671538428563 0.0007346454970049935 0.9916369870669336 0.003769050075572734 0.9947309341773271 0.001475359156380916 2.465659071929777e-05 0.9987616954961064 0.0003216686275888248 0.0002885634535903672 0.0006280724227144051 1.982812322127723e-05 0.003956618579544348 0.9928312872206572 0.003192266076577161 0.002391790301276224 0.0006365603946290021 0.001015814706299625 0.9959558345977951 0.9996136749746568 0.0002501897599780546 5.623203137873406e-05 7.990323398643958e-05 0.0002044983960316307 0.0006693780306943193 0.9986881282728092 0.0004379953004648776 0.003306077859276773 0.9956486269369017 0.0003962762069826002 0.0006490189968389592 0.006902363758868242 0.0005760404587411966 0.00147850711024046 0.9910430886721501 0.9913246172351424 0.007615303264186586 2.796430497478742e-05 0.00103211519569619 0.003191476779468416 0.9915162408219897 0.001631674038695382 0.003660608359846426 0.007212695944574177 0.0003422143256502964 0.992141102736441 0.0003039869933345915 0.9993050884639204 0.0001735617150871626 0.0003223859728242367 0.0001989638481681873 0.004288080810887679 0.9943733327713371 0.0004138388564433642 0.0009247475613318401 0.001487604210369739 0.0002453618024929032 0.9977899782876521 0.0004770556994852219 1.437841645563971e-05 0.0008684901690051637 1.239963215288826e-05 0.9991047317823863 0.9915747630893649 0.006283293882783692 0.0002458479785645633 0.001896095049286882 0.0003063145853036631 0.9983480530939248 0.0003250819687920907 0.001020550351979413 0.005155756543452964 0.0006628709738113514 0.002372476768283544 0.9918088957144522 0.0002484841453839982 2.15941657556167e-06 0.9971026732888552 0.002646683149185335 0.9963391249427387 0.002613139206021261 0.000200282261530059 0.0008474535897099628 0.003317430312261191 0.0003924535776293712 0.9960367451919456 0.0002533709181638094 0.004612597390242356 0.9950244500596412 0.000184769900036049 0.0001781826500803614 0.006725217304502723 0.001226926803299766 0.0007459966637332063 0.9913018592284643 0.9984856588148033 0.0003032972300243826 2.811720885809716e-05 0.001182926746314137 0.0003481449511142653 0.0009334315187076483 0.9977594470628919 0.0009589764672861743 0.0003399077998995545 0.0001626165329657283 0.0001833957330618074 0.999314079934073 0.003816467987031898 0.9939780578775443 0.0001827774812013171 0.00202269665422248 0.9949653085413018 0.001042997677691738 0.001256216353856457 0.002735477427149952 0.002388894227998567 0.0002329326719583923 0.00216661563899005 0.9952115574610529 0.00133005699615918 0.9968162539376108 0.001498873694707312 0.0003548153715227194 0.001608108043882949 0.0002289519943252768 0.9952085192611709 0.002954420700620853 0.9936101851174702 0.004258136566536307 0.001111393720794985 0.00102028459519852 0.000123931633946973 0.006347174094739013 0.001870927130030437 0.9916579671412836 0.0007991910020158082 5.9162067152795e-05 0.9990784872222147 6.315970861664848e-05 0.008648212830703239 0.9903928969720573 0.0006018517571075166 0.0003570384401319048 0.0001123206241621431 1.847991632003689e-05 3.975484180065987e-05 0.9998294446177172 0.0001395651226588785 8.990160432613611e-05 0.9983271999330026 0.001443333340012426 0.00147486464759398 0.9952379612729144 0.001420902585644118 0.001866271493847429 0.9966908374632109 0.001152602532928079 0.0008203380407585908 0.001336221963102518 0.001388689014902021 4.181818286825275e-05 1.921267948105847e-05 0.9985502801227487 0.0002538641571030931 0.001237123057425762 0.9953020744228783 0.00320693836259277 0.9975242602846655 0.001858422818157393 0.0001801770987286577 0.0004371397984484855 0.0005723979560659291 0.9968935230172429 0.0001513393924641415 0.002382739634227026 0.00102954408890938 0.0002546666338751516 0.002074838427790508 0.9966409508494249 0.0004303181691009195 0.9977214319960002 0.00128449914553826 0.0005637506893606883 0.003839357996848862 0.001128010154256961 0.9946490766398691 0.0003835552090250809 0.9991277131940113 0.0007546333371891891 0.0001113456479305511 6.307820868988796e-06 0.003443635794546461 0.002329490011722331 0.003003311793833789 0.9912235623998974 0.007170393911695639 0.9924751787114143 0.0002685634264753709 8.586395041469951e-05 0.9933713133558904 0.003682732438586065 0.002332143257557944 0.0006138109479656103 0.003341365321954697 0.0008986109290900182 0.9925822944597876 0.003177729289167645 0.004585889233865192 0.004518852329607151 0.0005889418644096228 0.990306316572118 0.9972503984052821 0.002415554980183282 3.026370255387922e-05 0.0003037829119807967 0.004189672543162192 3.957642200646917e-06 0.9943052293846354 0.001501140430001736 0.0001731691123575738 0.9991916039969777 0.0004118270121585226 0.0002233998785061616 0.00395021121368795 0.001353956151452968 0.001311164091756438 0.9933846685431026 0.9995458156920273 0.0003392518248594363 4.727664869461722e-05 6.765583441864793e-05 0.001044712766676701 0.9981114497479038 0.0004148251589071055 0.0004290123265124684 0.007087550689635727 0.001503124556704955 0.9907667345458736 0.0006425902077857122</probabilities>
		</cpt>
		<cpt id="V5">
			<state id="State0" />
			<state id="State1" />
			<state id="State2" />
			<state id="State3" />
			<parents>V4</parents>
			<probabilities>0.9918234897517887 0.004588913474010538 0.00267869326468212 0.000908903509518607 0.00775222430271055 0.9918234897517887 4.52806973711233e-05 0.0003790052481295917 0.005359490895957803 0.002566482949312528 0.9918234897517887 0.0002505364029409341 0.00804509802657365 9.4239301637841e-05 3.71729199997744e-05 0.9918234897517887</probabilities>
		</cpt>
		<cpt id="U4">
			<state id="State0" />
			<state id="State1" />
			<state id="State2" />
			<state id="State3" />
			<state id="State4" />
			<state id="State5" />
			<probabilities>1.20431189562082e-10 0.9993571375029813 3.423727998515795e-09 0.000642857001503931 2.70037651034274e-15 1.951353012722405e-09</probabilities>
		</cpt>
		<cpt id="V6">
			<state id="State0" />
			<state id="State1" />
			<state id="State2" />
			<state id="State3" />
			<parents>V5 U3 U4</parents>
			<probabilities>0.9973444962143501 0.0002614557641446692 0.0007298856476558568 0.001664162373849356 0.0009226076318274704 0.9956549864522418 0.001932955878432666 0.001489450037498027 0.003102563906980613 0.003606113368092748 0.9909518089459706 0.002339513778956116 0.0003914967775239102 0.0004724737826807915 0.00892574887245132 0.9902102805673439 0.9904830804920072 0.003479122315962119 0.005343721408305327 0.0006940757837253881 0.0007001922656912494 0.9989521673220673 0.0001625873050442867 0.0001850531071972102 0.00350130029177647 7.598301741763078e-05 0.001005289826153822 0.9954174268646521 2.409676608144567e-06 6.013908022635432e-07 0.9999935105876245 3.478344965034095e-06 0.9918724234710298 0.004470622099245111 0.001431673008826938 0.002225281420898183 0.0006370235659370027 0.0004065467068273168 0.9988322640028804 0.000124165724355275 0.0004139839508383569 0.9949909145064225 0.0008556837758666599 0.003739417766872472 0.0002628031628441999 0.0001610702362160193 0.0005444929209736974 0.9990316336799661 0.994911411784419 0.004177568023318081 0.0006880277523360758 0.0002229924399268054 0.0009615729473557166 0.0001746225286772586 0.9987187346595855 0.0001450698643814861 0.006650495805659552 0.0004771799093495987 0.000305441278453433 0.9925668830065374 0.002713562677938261 0.9965712771810574 0.0004673457246930166 0.0002478144163112527 0.9952897535075693 0.003382178415153557 8.02544921681778e-05 0.001247813585108942 0.000265092530002097 0.000763119193278574 0.004549284897384039 0.9944225033793352 0.00540660426472927 0.9924618431987554 0.002033689183157864 9.786335335748705e-05 0.0001061087696861751 0.0002112097935016399 0.999428218528171 0.0002544629086412498 0.9942997160929995 0.001294820186442119 0.002014345452682696 0.002391118267875739 0.001527860530207485 0.0009184355471545019 7.607335446675018e-05 0.9974776305681713 0.002876446414150541 0.002523393473417483 0.9926590747699233 0.001941085342508691 0.003122406509220476 0.9905233675273175 0.006075632909061032 0.0002785930544010311 0.003204699229002096 0.001732067811513966 0.0001570647281220207 0.9949061682313619 0.004317588832113708 0.003363375728383395 0.9917223401017311 0.000596695337771768 0.000225476102377519 0.9980440513756116 0.0009897512614530366 0.0007407212605578274 0.9980541722077021 0.0005389320624192323 0.0009658217591935912 0.0004410739706850826 0.003906712406275215 0.0007276645241202026 0.002101803128599753 0.9932638199410049 0.00555848228857453 0.0006023375557907083 0.9931515910700762 0.0006875890855585279 0.9911835543197367 0.005858492418658374 0.001203685250168936 0.001754268011435936 0.001252592328552491 0.995426276473482 0.002745578277208928 0.0005755529207565188 0.0002684783985514399 3.420500834321281e-05 0.0003030288081737741 0.9993942877849316 0.001127891035894749 0.9967123906471826 0.001875780128102524 0.0002839381888200881 0.0002467360102625452 8.189723420688331e-06 0.9996579282721825 8.714599413428538e-05 0.9981724515687534 0.00171529800722617 9.733864622011999e-05 1.491177780027253e-05 0.002226387234031966 0.004032962981176862 0.002271654958906638 0.9914689948258846 0.003233688322749045 0.9948666376255522 0.001502698101695359 0.0003969759500034608 0.9932953530952142 0.00601997050677031 0.0005228358096806351 0.0001618405883347993 0.006283859906948271 0.001443363060099883 0.9921309487551058 0.0001418282778460811 0.002929975021392497 0.00577355855120825 0.001177052822377382 0.9901194136050219 0.9969439998134842 0.001207377638460395 0.001575485896260859 0.0002731366517944808 0.008171076044303706 0.000337729067881767 0.9908405650822539 0.0006506298055605931 0.009123611083787481 0.9908271159909082 4.515960220472475e-05 4.11332309956628e-06 0.002311226171304766 0.002538631586827711 0.001844949532375023 0.9933051927094925 0.9968563147985012 0.001874523021104897 0.000649923798848663 0.0006192383815452288 0.0005635738643694627 0.9930332110281367 0.0004506465988715746 0.005952568508622328 0.008324309552815873 0.0001188913456684606 0.9906019505436027 0.0009548485579129685 0.9913132645546141 0.004909928360134252 0.001616664755244104 0.002160142330007532 0.0006456068551296635 0.9977578369658305 0.0004195954544114907 0.001176960724628276 0.0004174414104033383 5.682259249868583e-05 0.9990430085015044 0.000482727495593602 0.0043958031927736 0.0003383316345777564 0.0003828480042662436 0.9948830171683825 0.991989335873716 0.005537654012105907 0.002107649232193406 0.0003653608819847286 0.0007910005803772736 0.9910314769562082 0.004918863863032213 0.003258658600382371 0.0001002539776574503 0.002341005986676193 0.0006646111579140675 0.9968941288777523 0.001390530758731252 0.002071136478582621 0.9955189779105071 0.001019354852178969 0.9970458683595116 0.0003004659032976293 0.000439358175589034 0.00221430756160175 0.001425127687806464 1.18711210500089e-05 0.9984705330341156 9.246815702797334e-05 0.002702305925543424 0.9959195457681966 0.0001419010218276276 0.001236247284432293 0.003416375917261801 0.002773888352742798 0.003737248401749906 0.9900724873282455 0.9992516674237886 0.0001327765009869532 0.0004521482650210475 0.0001634078102034139 0.004246709962120417 0.0008120536856289517 0.9929101446520707 0.002031091700179917 0.004593071738136028 0.000270883559996522 0.00173830321001995 0.9933977414918475 0.001653157563280605 0.9924229784318289 0.0008026485159836842 0.005121215488906782 0.9907910311109087 0.007255581109183954 0.001830058247077712 0.0001233295328295888 0.0002724525411400759 7.316246015497133e-05 2.871934283397575e-06 0.9996515130644216 0.006674390673920404 0.9924008595532315 0.0001423082551607465 0.0007824415176872707 0.002405326535766413 0.0001009012447361201 0.9972124421092649 0.0002813301102326194 0.9971862250769457 0.0003354160384488236 0.0004962378119372996 0.001982121072668253 0.004209282513732965 0.0006957579961171958 0.0002214363791214418 0.9948735231110284 0.005021453518738282 0.0002418964237164473 0.990236596716761 0.004500053340784221 0.001347162380709366 0.9985301093786142 6.168159933030038e-05 6.104664134612992e-05 0.00155837038473295 0.003626133136182604 0.0006910635799991529 0.9941244328990853 0.002065380915061654 0.0002676383866723031 0.9976622976309346 4.683067331382124e-06 0.005493180234740209 0.9921933034222351 0.001895130721313698 0.0004183856217109894 0.991226851489141 0.003396692385902182 0.001700874548676529 0.003675581576280318 0.0012034357845801 0.0008695378091299539 0.0003817800937756966 0.9975452463125143 0.002876144568226966 0.0001966487615592654 0.9969060635198456 2.114315036823788e-05 0.9945461512683117 0.0001833869916036867 0.0007174046598883326 0.004553057080196301 4.025081117975323e-05 0.9998740615439168 5.604876381382134e-05 2.963888108967982e-05 0.003522814387397869 0.001192599399751686 3.59707850556923e-05 0.9952486154277947 0.003846182309076433 0.9951224006466702 9.74264545504433e-05 0.0009339905897028909 0.0005816955433450196 0.002989426220156924 0.9913822746934627 0.005046603543035311 0.9958976372597038 0.004001649578757233 5.601557526258271e-05 4.469758627637105e-05 0.0002528150208831909 0.0001743623074291064 0.0003790423279683906 0.9991937803437193 0.001893685868493705 0.9958233579946989 0.00222899060639797 5.396553040945724e-05 0.9937936113485349 0.0009276243563323042 0.0009165554593351729 0.004362208835797632 0.006910865303725863 0.0007283839460215906 0.991563677370312 0.0007970733799405244 0.004750350595821551 0.002185251561240287 0.0005258446959075722 0.9925385531470305 0.9936730520901644 0.001780634314372815 0.001369498883740996 0.003176814711721741 0.0007682595779639363 1.386989370627269e-05 0.9992099271495259 7.943378803810468e-06 0.006795528492835377 0.9921933965575218 0.0005363024066351427 0.0004747725430077189 0.002150259929808276 0.0003039809768245996 0.0006226373225840394 0.9969231217707831 0.9978145860220948 0.001552582173989375 0.0001753258597090374 0.0004575059442067227 0.002572780262277943 0.9909518737480605 0.00329101060029713 0.003184335389364402 0.0007150086311200065 0.002698649949812991 0.995973113718855 0.0006132277002120494 0.9987274675347215 0.0001102795941694713 0.0001161778003622237 0.001046075070746823 4.058979524220931e-05 0.9995861625788811 0.0001843307184625259 0.0001889169074141193 0.002928131910741228 0.001753146899360965 0.9951598344193474 0.0001588867705503564 0.000659918638652557 0.0002034330280880333 0.0004455814014102214 0.9986910669318492 0.9974964484398237 0.001336616891193121 0.0009405827081439067 0.0002263519608393181 0.003393426929603206 0.9949341560259124 0.001574246899840634 9.817014464381067e-05 0.0009548547282436147 0.0002998095528666355 0.001993917953707296 0.9967514177651825 0.001031825299817701 0.0002159365137625137 0.9975755204847386 0.001176717701681207 0.9926846413928139 0.00024452147877657 0.0004085546200055584 0.006662282508403972 0.003582583765762169 0.001635069728363511 0.991194806669678 0.003587539836196385 0.003226276191355282 0.9964176628280541 0.0003095481692679417 4.651281132266754e-05 0.004280924199817714 0.002324016705399707 0.001371686478921907 0.9920233726158607 0.9914698305911022 0.00689845100620167 0.001301047766667108 0.0003306706360290755 0.002011600302159207 5.260988182693637e-05 0.9964430646282307 0.001492725187783142 0.002249653179809562 0.001672268795771536 0.0008468656853824487 0.9952312123390364 6.321380450451514e-05 0.9992650915080759 0.0003985215649870456 0.0002731731224326281 0.995144132241054 0.002594228973148626 0.0007607334040335384 0.001500905381763759 0.002120463847337363 0.0001503693372390786 0.000292952807745352 0.9974362140076782 0.003007403588453616 0.9925483896575141 0.004314554478151399 0.0001296522758808399 0.007160968681657305 2.639361152144159e-05 0.9926209292116195 0.0001917084952017889 0.9927297012649868 0.001473015438081169 0.00197498168866168 0.003822301608270326 0.006601580494718407 0.001029539393332662 0.001114307681197208 0.9912545724307518 0.0001217956694611015 0.0005933293836594194 0.9979155095591014 0.001369365387778081 0.002062207124066022 0.9975504439553108 9.994288776872923e-05 0.0002874060328544318 0.006066591399023162 0.0002844206525833082 0.0001732666598622049 0.9934757212885313 0.003497758832162692 0.0005977094024460433 0.9952870870861099 0.0006174446792812982 4.559039367284599e-05 0.9989751032831956 0.0001529228231388984 0.0008263834999926787 0.9939461825321595 0.002964497740070883 0.002900071896986068 0.0001892478307835527 0.002837702250374261 0.002637314497015933 0.0009418070942808989 0.9935831761583289 0.001120304905710754 0.002396246999065287 0.9940105570593972 0.002472891035826725 0.9943541016736923 0.004756222893416086 0.0005405711216498579 0.0003491043112417964 0.001510554123859339 0.9932229351925836 0.005244554835304411 2.19558482526163e-05 0.0007183509138451756 0.003984871261639896 0.0005955986016389497 0.9947011792228759 0.002684138397617127 0.994670952815371 0.001741196306536219 0.0009037124804756357 0.0006791984671004335 0.004190877207109132 0.9922158645338006 0.002914059791989842 0.9961656243118361 0.002777665302104136 0.0004118308528811616 0.0006448795331785714 0.002449616831755716 0.001282516390786062 0.00562998183481625 0.9906378849426419 0.005706623054678147 0.9904816915066822 0.001087358824616429 0.002724326614023278 0.9943803795540684 0.0007164764595197496 0.0004761949874380011 0.004426948998973796 0.001531909074050951 0.005306784794772488 0.991895038840631 0.001266267290545543 1.377182207089467e-05 6.083994445624985e-06 6.466882528839872e-05 0.999915475358195 0.9936605559900566 0.0002622133479850681 0.001275445647986196 0.004801785013972052 0.0005529250894305693 0.004207133641961583 0.9936000379001507 0.001639903368457167 0.003098884717710257 0.9951746099473786 0.0006555560564954429 0.001070949278415739 0.006964982198873379 0.0004477965446567738 0.0002198120100703621 0.9923674092463994 0.9976289870505066 0.001373621800933696 0.000693371984570302 0.0003040191639893337 0.002113651202185791 0.990265962327363 0.004787108776394831 0.002833277694056358 0.002849856294948696 0.001922897641004739 0.990140381853575 0.005086864210471564</probabilities>
		</cpt>
		<cpt id="V7">
			<state id="State0" />
			<state id="State1" />
			<state id="State2" />
			<state id="State3" />
			<parents>V6</parents>
			<probabilities>0.9906264982948513 0.005728597069914873 0.003526928656581794 0.0001179759786521053 0.007524839074379869 0.9906264982948513 0.001787675509765051 6.09871210038521e-05 0.0075732364734704 6.542980649293232e-05 0.9906264982948513 0.00173483542518544 0.002867570133811873 0.004918266987985419 0.00158766458335148 0.9906264982948513</probabilities>
		</cpt>
		<cpt id="U5">
			<state id="State0" />
			<state id="State1" />
			<state id="State2" />
			<state id="State3" />
			<state id="State4" />
			<state id="State5" />
			<probabilities>0.0004846644891514481 0.757194077344567 0.2411161633229418 1.486532364280112e-25 0.001203527909984663 1.566933355185878e-06</probabilities>
		</cpt>
		<cpt id="V8">
			<state id="State0" />
			<state id="State1" />
			<state id="State2" />
			<state id="State3" />
			<parents>V7 U4 U5</parents>
			<probabilities>0.9941141738191624 0.004914027721162913 7.723081738733135e-05 0.0008945676422873066 0.0009337814723730128 0.9948876399256281 0.003584773724808031 0.0005938048771908871 0.005564200527641439 0.00120207602600952 0.9930723532027673 0.0001613702435817061 0.002629230183562937 0.0002740345243660903 0.000513283879334902 0.9965834514127361 0.9996788540191417 0.000218717201530788 5.258384404490123e-05 4.984493528266468e-05 0.001375916086096846 0.9931892129309308 0.002472427347169548 0.002962443635802796 0.002068388661484399 0.003669141589325423 5.150432534357713e-05 0.9942109654238466 0.0001550231830059895 0.0005717348757828922 0.9991219696351314 0.0001512723060796444 0.9959747063250578 0.001908819744173963 0.001968845196487278 0.0001476287342809901 0.001838975541959933 0.001493294672813968 0.996435827383726 0.0002319024015000452 0.001111346068726706 0.9936446652586504 0.002615349755858252 0.002628638916764694 0.00627916137573269 0.002133582235156676 0.0009067531750764006 0.9906805032140342 0.9944905832403884 0.0006649852680992565 0.003335149913992804 0.001509281577519489 0.003996985893761035 0.002094196464850268 0.9927853575086655 0.001123460132723191 0.0002639210636714243 0.0003995179499708241 0.00134262254089101 0.9979939384454667 0.006924476344435776 0.9907354231363144 0.002255986850874663 8.411366837518574e-05 0.9928077181721279 0.003469552496388464 0.002426507870941937 0.001296221460541739 0.002544937150733367 0.001495962942243299 0.002512560387409864 0.9934465395196135 4.859450027979661e-05 0.9988099984766945 0.0001116477121077131 0.001029759310918035 0.00715562891659064 0.0001053782898141846 0.9922196278245783 0.0005193649690168611 0.9970056597417104 0.002106142410968125 3.376567765423328e-05 0.0008544321696672426 0.003700217456942844 0.001170623915671566 0.0003338626602545683 0.994795295967131 0.001660229912099839 0.0004652825972796766 0.9932019504410959 0.004672537049524564 0.002093792855255505 0.9900255173170727 0.001313228517754039 0.006567461309917812 0.0006335579004310998 0.001657416361147844 0.005400640626541277 0.9923083851118798 0.001092479815486675 0.007202480406316331 0.9909571048967866 0.0007479348814103852 0.00110103513722155 0.9963034021338816 0.001571914833971681 0.001023647894925231 0.9937582430786018 0.0007413139106422262 0.005298126660699055 0.0002023163500568439 0.003418186552023542 0.0002474646476918693 0.0004620700994179747 0.9958722787008666 0.001264201075125446 0.0008221699112765164 0.9970752921829666 0.0008383368306313415 0.9902357712351452 0.005581468563178274 0.002159625187353925 0.002023135014322588 0.004045108579528276 0.9917109153703252 0.0009355434437405338 0.003308432606406012 0.0003214185316311464 2.377529979882711e-05 2.895747678099255e-05 0.9996258486917891 0.002258297663999583 0.9973576746080283 0.00017324276230714 0.0002107849656650238 0.004451136570510506 7.980644745004619e-05 0.9940397669825053 0.001429289999534143 0.9985120489097771 0.0005109350895299558 0.0003043093218464794 0.0006727066788465279 0.005355696314632678 0.003312056257487658 0.001011500198586619 0.9903207472292931 0.0009473301486331503 0.998963239411736 1.925549496126376e-05 7.017494466954113e-05 0.9914090452679628 0.004801245671949492 0.003551911154644856 0.0002377979054428965 0.0006525297075879742 0.0002183685881985812 0.9975950320185304 0.001534069685683086 0.0044865097744095 0.0003606055628858137 0.00323716665932732 0.9919157180033774 0.9986823581082171 0.0001303006274347185 0.001161799258739172 2.554200560901426e-05 0.004881617097542923 3.008011864735985e-05 0.9950204762911905 6.782649261918711e-05 0.001797496098678285 0.9922059132666172 0.0003936849389739205 0.005602905695730596 0.0004854288413644579 0.0003534354727645256 0.00245529694860229 0.9967058387372687 0.9913902755092505 0.008325981861415718 0.0001466972239382782 0.0001370454053955205 0.001336982579397059 0.9961336367288032 0.000375768586979049 0.002153612104820721 0.0008998822374637291 0.0007662807975226719 0.9933485593661465 0.0049852775988671 0.9988408685405153 0.0004666474791216248 0.0001036038150731246 0.0005888801652898932 0.0005212532287042378 0.9947380035615825 0.001137577542397747 0.003603165667315586 0.002866097609808711 0.001322330074222537 0.9927124221414996 0.003099150174469162 0.00326953409684919 0.001141197929126897 0.0002555695889674954 0.9953336983850564 0.997291868868097 0.001719322473503733 0.0009627295961926049 2.607906220671269e-05 0.002329802364777996 0.99540998262369 0.001339260956418208 0.0009209540551138079 0.001054031976808425 0.0001306182301566573 0.002140266623705463 0.9966750831693294 0.004035186487428846 0.0002993554007484366 0.9951998899524405 0.0004655681593822343 0.9947727974206734 0.0003900245937417908 0.003554883850649466 0.001282294134935357 0.005669610331115302 1.419999879978103e-05 0.9941729119623834 0.000143277707701504 0.0002885641099536659 0.9987093390930253 9.254789398146994e-05 0.0009095489030396019 0.001513025147866061 0.0007251508603538838 0.0003419844275526379 0.9974198395642274 0.9974583137361785 0.001554390030931357 0.0006219172181416071 0.0003653790147485168 0.00499950410711164 0.0005493224193635366 0.993782253535667 0.0006689199378578127 0.008056582937490172 0.0008153645963251566 0.0007153104025128202 0.9904127420636718 0.0001013199802115734 0.9980148289969144 0.0001350120713959315 0.001748838951478123 0.9992371972278047 2.705319329382153e-05 0.0003303186238367773 0.0004054309550647168 0.006687467153315856 0.00015892768684211 0.002056748673297675 0.9910968564865443 0.002668840946044799 0.9971304083424667 0.00011815584195017 8.259486953829841e-05 0.0008592495907920866 0.001428984724061318 0.9958318513487933 0.001879914336353372 0.9958673074045109 0.00396419371457292 2.294903305647854e-05 0.0001455498478597169 0.000299395751416156 0.0002261769121268999 0.0001955068736283971 0.9992789204628285 7.499154417074173e-05 3.738924118324782e-06 0.9997647993899976 0.0001564701417132942 0.003528148313788634 0.9959453628829105 0.000422293109875284 0.0001041956934255705 0.001492678616889725 0.000756925584063282 0.0004380633957889644 0.997312332403258 0.007047744354268752 6.957191753027984e-05 0.9928133111125867 6.937261561424717e-05 0.006914038110692024 0.991709351601337 0.0005094824588238171 0.000867127829147207 0.9987497665909194 0.0002474590427548816 0.0008294850868522131 0.0001732892794735231 0.001772423053745527 0.0004031843784528322 0.0009193267431087378 0.9969050658246928 0.00501285194864081 0.001272486441167542 0.9925481846736496 0.001166476936542103 0.9916047610328454 0.00447339012216902 0.0002861636238929602 0.003635685221092624 0.00828372794230941 0.9907427477163144 0.0009386675152584252 3.485682611768088e-05 3.189707492878874e-05 0.002605408715680107 0.003778509581539058 0.993584184627852 0.008479379602649125 0.9902909977179283 0.0008106068317841985 0.0004190158476383766 0.00212826119268871 9.831641637829079e-05 0.9975989696581469 0.0001744527327860797 0.9942881473108436 0.002713924718602581 0.0004573089658981695 0.002540619004655614 0.001361352685776343 0.001990332508358961 0.001476906288356531 0.9951714085175082 0.005267075781050793 0.9931583606714489 0.0005526421565747643 0.001021921390925478 0.9993478085724081 0.000303682233579695 0.0001744104015993676 0.0001740987924128624 0.006511021472868882 0.0005041614499272511 0.9928126129420276 0.0001722041351762622 0.0008345348153183331 6.452316668911712e-06 4.045112244911825e-05 0.9991185617455637 0.9954055646961152 0.00122786640929262 0.002955041732004954 0.0004115271625872476 0.0003252177705794062 1.4804755382529e-05 0.9996526959847294 7.281489308695687e-06 8.092376125766876e-06 0.9999900950155746 1.464402751120577e-06 3.482055485309761e-07 0.003275869028318766 0.001322369120232467 0.001953207853469096 0.9934485539979797 0.9900634943417026 0.0004839198183574457 0.009375486455582413 7.709938435759324e-05 0.003027244721603178 0.9940183850368199 0.0006300627854397788 0.002324307456137089 0.002606505446970255 0.0003981782283865211 0.9967964913498496 0.0001988249747935866 0.9929648974092494 0.006185657299171592 0.0004213026419432699 0.000428142649635688 0.003483987301942237 0.9957913823954374 0.000181757924700906 0.0005428723779194204 0.006132916560515949 0.002004231923863475 0.9901764936562845 0.001686357859336131 0.001869668955672499 0.00285621175590747 0.002499886509573525 0.9927742327788465 0.9933420571019648 0.002977738404068197 0.002442749869518837 0.00123745462444818 0.0009458140174037098 0.9988603252422712 1.788881641614733e-05 0.0001759719239089952 0.0003763966070393607 0.001302855523026685 0.0003625556040146543 0.9979581922659193 0.001096361087513211 0.000656180628696954 0.9959694414188048 0.002278016864984984 0.9981397958996714 0.001677745692609414 0.0001632559108265453 1.920249689270231e-05 0.003500914018638812 0.004176734889007413 0.9921321147491389 0.0001902363432148757 0.0002292229575792255 0.9921062924169031 0.005687456583493639 0.001977028042024102 0.004820485257325836 0.004156457246937651 0.000135829864180103 0.9908872276315565 0.9994604684908679 7.647718386052315e-05 0.0002334583618762711 0.0002295959633953531 0.0004912078639454442 4.998889661451035e-06 0.9988958571487255 0.0006079360976676004 3.945211089434092e-05 1.235494766252281e-06 1.498593798972654e-05 0.9999443264563497 0.0001367640911184616 0.9991967571379295 0.0004706082440930928 0.0001958705268588636 0.9929544585839254 0.006423598243646908 0.0002112631939496141 0.0004106799784780776 0.004742523594755133 6.712221685302931e-05 0.0002190953176797707 0.994971258870712 0.0009580194616584068 0.9984633469103679 0.0003411908885895301 0.0002374427393841938 0.0002728336595807286 6.443991744760344e-06 0.9996949248565744 2.579749210009042e-05 0.999818630094702 0.0001495396578440544 1.514822110052805e-05 1.668202635346195e-05 0.001281214335174445 7.646902043693983e-06 0.0001309151873434145 0.9985802235754384 0.002697312643605532 4.158020723526489e-05 0.9972133134653659 4.779368379330831e-05 0.001729638065513884 0.996606818214461 0.0001856107487953724 0.001477932971229797 0.0001042829949560529 0.001058265035757952 0.000131719849101479 0.9987057321201845 0.0005355962604237822 0.00292744553321235 0.9957655663811648 0.0007713918251991423 0.0001981238261456315 0.99781195941268 0.001406604611462224 0.0005833121497121185 0.9995456023091073 0.000348468795233879 3.976876116747077e-05 6.616013449139405e-05 0.001676685814719737 0.003501433612241555 0.002282435791212929 0.9925394447818258 0.006483952262227059 0.001491685236872173 0.9909404678765091 0.001083894624391592 0.9966571824303713 0.0006046534371425812 0.0008272250527090793 0.001910939079777075 0.0008102581209616063 0.9959490837602485 0.002001754828604204 0.001238903290185686 0.0001260244928673929 0.0001398095097014813 0.0003777700947730757 0.999356395902658 0.004737429802177504 0.9948876031040335 0.0001459379381586049 0.0002290291556304857 0.002646305437158476 0.001849835565890814 0.9929115890726842 0.002592269924266541 0.9904793600448706 0.0003251141619809901 0.009143570482594541 5.195531055389967e-05 0.005117620132207041 0.0005277039581072332 0.001634730706874889 0.9927199452028108 0.006216924208534844 0.9933468656865115 2.619199155020141e-06 0.0004335909057986448 0.9950026447274981 0.0005659006697249316 0.004338833219859843 9.262138291710447e-05 0.006231450404127066 7.709462215912336e-06 0.9937366326196575 2.420751399948253e-05 0.004279861800562525 0.0004777332480010774 0.001038679218649554 0.9942037257327868 0.9938860616198818 0.003117876667965642 0.001410984073299962 0.001585077638852541 0.0002414801889443624 0.0001147876678454641 0.9996282281750947 1.550396811554603e-05 0.006262939362683366 0.9932621856515502 0.0001135259086129579 0.0003613490771534639 0.0001447807144702324 0.001134823655690968 0.0006602591927096428 0.9980601364371292 0.9922899231729263 0.005784834636275103 0.0006534809327078187 0.001271761258090769 0.0009333921548823254 0.9988535225299118 0.0002115610111370044 1.524304068906455e-06 0.00151889984850768 0.0002282716853453171 0.9965243840930574 0.001728444373089569</probabilities>
		</cpt>
		<cpt id="V9">
			<state id="State0" />
			<state id="State1" />
			<state id="State2" />
			<state id="State3" />
			<parents>V8</parents>
			<probabilities>0.9912813325100372 0.006107110981700015 0.0009113908307386537 0.001700165677524072 0.007266424191711951 0.9912813325100372 0.0003685767222996989 0.001083666575951092 0.002819972974133923 0.0007376689447809213 0.9912813325100372 0.005161025571047897 0.003317725668807554 0.005150500286954983 0.0002504415342002055 0.9912813325100372</probabilities>
		</cpt>
		<cpt id="U6">
			<state id="State0" />
			<state id="State1" />
			<state id="State2" />
			<state id="State3" />
			<state id="State4" />
			<state id="State5" />
			<probabilities>1.344094070926161e-10 4.756341464888498e-07 0.05986419391267071 0.03881275267763182 0.3223952920585506 0.5789272855825911</probabilities>
		</cpt>
		<cpt id="V10">
			<state id="State0" />
			<state id="State1" />
			<state id="State2" />
			<state id="State3" />
			<parents>V9 U5 U6</parents>
			<probabilities>0.9900707623312919 0.002318004210233563 0.006244941812840225 0.001366291645634338 0.0007705202538496269 0.9929227205184431 0.005013927479989551 0.001292831747717708 0.003540561424588973 0.001536938195371258 0.9947282163002421 0.0001942840797976553 0.0001690320249247438 0.003137740715835842 0.004565535849443147 0.9921276914097963 0.9903943576012157 0.004610350050756878 0.001487035720017973 0.003508256628009391 0.002854818110522474 0.9960247991302419 0.0007947162720158089 0.0003256664872197996 6.064578694076648e-05 2.894347175769417e-05 1.605682681292434e-05 0.9998943539144887 0.001779252338351887 0.0002952676147943944 0.9963764304796965 0.001549049567157189 0.9997193537422485 0.0001078388707879483 1.555913317757897e-05 0.0001572482537859306 0.001786702112611275 0.003920276050851975 0.9929009360132636 0.001392085823273229 0.000875785199424481 0.9986778066491631 4.127667211150979e-05 0.0004051314793009624 0.0006511834496450149 0.0003348555502774357 0.0006121762359554785 0.9984017847641221 0.9975840881936696 0.002149004723765493 0.0002235023554102155 4.340472715470318e-05 0.002174997103748366 0.0004718381453337996 0.9963440623714828 0.001009102379435083 0.007021865220098508 0.000140640427676476 1.006808903830029e-05 0.9928274262631868 0.003882671789648578 0.9959631931626268 0.0001291171565929064 2.501789113170053e-05 0.9982190863453865 0.001149556664462157 0.0001032757470268834 0.0005280812431244322 0.001332495812394746 0.005429509907805111 0.002481087458957835 0.9907569068208423 0.003521985953018584 0.9937067647228147 0.0003858648313160163 0.002385384492850718 0.002619943261743245 0.0008976318637841541 0.9963618138298554 0.0001206110446171995 0.9945009007624951 0.0009538513108480129 0.00313715696464514 0.001408090962011779 0.001098470487630749 0.0002352085703054598 0.0001518571566143254 0.9985144637854495 0.006799326721171052 0.0001278222853611121 0.9929155308390767 0.0001573201543910934 0.002070804395752795 0.9942437031158672 0.001637128697816584 0.00204836379056343 0.001875027002483313 0.001266080225072332 0.006618624226172645 0.9902402685462717 0.0009155716731169759 0.0001115162652964012 0.9980049071656086 0.0009680048959779784 0.001590729965159658 0.994509745049505 0.002403024198925424 0.001496500786409983 0.9953364209927327 0.001058343724603815 0.0009696809783674869 0.002635554304295976 0.0006474749959303888 0.0002472822666713501 0.0001546070367360282 0.9989506357006622 0.006910235874289592 0.0005979659446300969 0.9923724361453958 0.0001193620356844768 0.9926178123296465 0.001263055423355268 0.002484394025872347 0.003634738221125909 0.0008306914427270516 0.9990291323460068 0.0001358298909650668 4.346320301073169e-06 0.0002130951064230838 3.043159651910418e-05 0.000248389109679407 0.9995080841873784 0.003040749231967069 0.9962588712889003 0.0006364360484369439 6.394343069560582e-05 0.0009113038001834382 0.001085655394244509 0.9964684790138145 0.001534561791757563 0.9996017331835882 0.0003406464121935814 3.557122042061773e-05 2.204918379757513e-05 0.000127230347207438 0.0003055548635369463 2.92163140052602e-05 0.9995379984752504 0.002535619875773552 0.9951756446954583 0.0008368150404260379 0.001451920388342174 0.9913772927263396 0.003493292992455763 0.001508641880211433 0.003620772400993253 0.005662783659998726 0.002003223902745326 0.9922088621813401 0.0001251302559158226 0.0002744261626536041 0.0001252927057773078 0.0001177850181213777 0.9994824961134477 0.9965090310338657 0.001403310600397639 0.001986333355982683 0.0001013250097539817 0.0002862256510423316 9.089754136982663e-05 0.9990219986484588 0.0006008781591290629 8.307898463479094e-05 0.9999001387730486 1.394714401778652e-05 2.835098298816853e-06 0.0004388334173580994 0.003677508763117975 0.002245425361869513 0.9936382324576544 0.990537846848401 0.008703589838179723 0.0002899685122896523 0.0004685948011296194 0.00194835212569788 0.9949120920541238 0.002096479053101807 0.001043076767076497 0.001045239899543921 0.001910911874248452 0.9969672161459329 7.663208027472879e-05 0.9957471941481283 0.003121926319038474 0.0006582104155373093 0.0004726691172959682 0.0008215446251164364 0.9968458879772322 0.0009514415035501052 0.001381125894101282 0.003616714352339799 0.002270031326979031 0.992405446767941 0.001707807552740212 0.0002843878839280957 0.00549365845299198 0.001027076111108331 0.9931948775519716 0.998588270163644 7.903644082193605e-05 5.837213979998336e-06 0.001326856181553977 0.0002848710624390126 0.9930100008154191 0.003524864595905609 0.003180263526236269 0.007421895668110683 6.27233134423756e-05 0.001004130601527041 0.9915112504169199 0.005424530998209253 0.001018837831962448 0.9915184547748549 0.002038176394973358 0.9943502880567692 0.0008447530130662251 0.00194871184468442 0.002856247085480171 0.00757692320389519 0.0001006029981185087 0.9916748198123077 0.0006476539856786991 0.0004911012989001069 0.9901689215667229 0.005016914577831572 0.004323062556545456 0.002699764920015097 0.0006975329260445513 0.005597298584090598 0.9910054035698498 0.9971963161283475 0.0008887393559319417 0.001045968512601385 0.0008689760031192076 0.0002616811480846507 5.576799891216637e-05 0.9989721528349916 0.000710398018011504 0.002279982051607308 0.0004535256207746884 0.004426268376100846 0.9928402239515172 0.005008264601304632 0.9907760850888123 0.00293405525356906 0.001281595056313994 0.9926458718795658 6.768701847445882e-05 0.0002882851658217801 0.006998155936137995 0.007560913331328841 4.185442113255014e-05 0.001113678940899715 0.9912835533066389 0.002281558352009691 0.9932775937846989 0.0005055722858009876 0.003935275577490412 0.001104216466311265 2.877852270855573e-05 0.9988318819399914 3.512307098880908e-05 0.9926714334090557 0.007239864799366023 7.862014102101895e-05 1.008165055726754e-05 0.003128400991878668 0.003506459702046195 0.0007689463764056102 0.9925961929296695 0.0006377019826167738 5.531548915567562e-05 0.9989849986302892 0.000321983897938349 0.004918610729309259 0.9947916468450488 0.0002335610771837815 5.618134845810827e-05 0.0006625146406583031 0.001374510377560483 0.000117206724923391 0.9978457682568578 7.020340428038407e-06 0.0003320591204778936 0.999310829132944 0.0003500914061500817 0.0007159332211420825 0.9957099724364451 0.0009817198313870764 0.002592374511025779 0.9960343695411716 0.0005417485321869654 0.002159740985576294 0.001264140941065099 0.003390436282465839 0.0002276076646591205 0.00179122069859298 0.9945907353542821 0.001377023950782836 0.002938519842400056 0.9954543866341277 0.0002300695726893892 0.9951002478583176 0.002871042587968182 0.0008238481842765466 0.001204861369437595 0.001308790776250865 0.9952647376261937 0.0003548530021893741 0.003071618595366035 0.004552679281107211 0.00121970657009354 0.002812616078075186 0.9914149980707241 7.89161015747743e-05 0.9986053353296201 0.001297679158749243 1.806941005579347e-05 0.002846649691341721 0.0003307704847240923 0.9965707800614604 0.0002517997624738219 0.9932961732709059 0.001237842951890518 0.00538307533343056 8.290844377296935e-05 0.002759718953316454 0.0003523531434544794 0.001749435222885367 0.9951384926803437 0.003532755817809517 0.9903932384242122 4.086722948447342e-05 0.006033138528493834 0.9970659530784038 0.002015137032521619 0.0003795478889452359 0.0005393620001293402 0.002570915869136964 0.001288058661975079 0.9941463300555582 0.001994695413329732 0.0009174346763654335 0.003733061131925226 0.002972826878022901 0.9923766773136864 0.9932950964078937 0.00238920958643638 0.003629980607903999 0.0006857133977659288 0.0002661808419146148 1.288291416373697e-05 0.9993006110482086 0.0004203251957131135 0.001977426811881435 0.9955627295059273 0.001301387180380113 0.001158456501811216 0.003185792470396807 0.002348990489644233 0.0005260878002142345 0.9939391292397447 0.9963665323745238 0.001218975423157252 0.000495870258460015 0.001918621943859015 0.003743180595707018 0.9916564747603837 0.002490649716507723 0.002109694927401603 0.007618078882043244 0.001654083626382766 0.990535935677135 0.0001919018144389704 0.993888630744368 0.0005015506911320055 0.00370951832415621 0.001900300240343887 0.005501063082026494 0.9929641022316485 0.00072035429365102 0.0008144803926739643 0.003135157381264044 0.0002815855528725226 0.9961591604263771 0.0004240966394863415 0.001400007036179524 0.0007933124092147039 0.002275355387789249 0.9955313251668165 0.9902305670727737 0.001635637092273081 0.001687809763772535 0.006445986071180706 0.001682052164686457 0.9980632357939667 0.0002326448532082538 2.206718813853526e-05 0.001025159999519766 0.002338994859542566 0.000199340585175155 0.9964365045557625 0.003973637570140353 0.0004821070841228451 0.995431046438737 0.0001132089069998023 0.9928794021629272 0.006981653804592268 1.380811152393535e-05 0.0001251359209565988 0.0001071197863256821 0.0005536868861786012 0.9954163771786447 0.00392281614885104 0.001033839263611197 0.9985592279515543 0.0002858300742870409 0.0001211027105475315 0.0006132434706621958 1.280557769063038e-05 4.02850333158829e-05 0.9993336659183313 0.9984794021056029 2.4013888932192e-06 0.0007194928274613162 0.0007987036780424989 0.0008206418839883941 0.003784974805072349 0.9925553557892902 0.002839027521649007 0.002630369504087273 0.001802499558925331 0.0004037020331180276 0.9951634289038693 0.002604079520157736 0.9962819137980805 0.0007949260042516038 0.0003190806775101282 0.9986250722071446 0.001000837741318762 9.828096209044971e-06 0.0003642619553276103 0.0001177107046065751 0.00112628207467912 0.0001404658386949234 0.9986155413820194 0.0007702423428585318 0.9972322440598059 0.0008618238965191509 0.001135689700816399 0.0005751632124438182 0.00111488603467482 0.9977071578308486 0.000602792922032742 0.9930038788431698 0.004724906824330178 0.001392555630072556 0.0008786587024274919 0.002417675475946949 0.0001286003057080869 0.007211045522878259 0.9902426786954667 0.001024589076768816 0.0006481269814899305 0.9943999855211865 0.003927298420554756 0.0004749968501074839 0.9923981649561965 0.001090590564204286 0.006036247629491792 0.002046991845184448 0.001108329905389551 0.0002091702980016946 0.9966355079514243 0.007091256972273011 0.0001396823477471249 0.9926969767768907 7.208390308911965e-05 9.441259028534589e-05 0.9956061275833007 0.0005944793636622162 0.003704980462751702 0.9908744983173748 0.001193918691406671 0.005787828199227514 0.002143754791990968 0.003528154883658103 0.000846678256343448 0.0008411490880171678 0.9947840177719813 0.007746980364765746 0.001284917246638359 0.9905290951307699 0.0004390072578259968 0.9971816312065119 0.001149175510839797 0.00152221893966819 0.0001469743429801038 0.006754300839591513 0.9927394359133372 0.0002855104576178745 0.0002207527894533863 1.56959852553116e-06 0.0002881196093005483 1.258287162337658e-05 0.9996977279205506 0.004003831455948029 0.9921453804836563 0.003310946983058843 0.0005398410773368163 0.00320168180445924 0.000564234244484821 0.9962138268293497 2.025712170632187e-05 0.9936388164848851 0.002137348256875521 0.003162338831897911 0.00106149642634155 0.001884177897033002 0.0002808378439415458 0.001555658948771816 0.9962793253102536 0.0001618766984962424 0.9972155845230559 0.002307082239450102 0.000315456538997747 0.9991514917933276 4.616803776145414e-05 0.0005484128213706726 0.0002539273475402537 0.007467744511796743 0.0005879439468604377 0.9915293076404442 0.0004150039008985795 0.004383518872527843 5.020236896762401e-05 3.219986952072502e-06 0.9955630587715525 0.9948264320901739 0.0007772275801959453 0.004126625200840607 0.0002697151287896016 0.004059213201295391 6.206161141847726e-05 0.9957044974029485 0.0001742277843375477 0.0004647118022273428 0.9958394872529563 0.000438195136795528 0.003257605808020767 0.001760200928486755 0.0001895099693832446 0.003163677074622276 0.9948866120275077 0.9909367631850575 0.001817671754685321 0.005791742235781955 0.001453822824475167 0.0001058361944313027 0.9990266652836222 8.838170418923475e-05 0.0007791168177573009 0.0003952590677960651 2.873886686780759e-05 0.9991138215522347 0.0004621805131013786</probabilities>
		</cpt>
		<cpt id="V11">
			<state id="State0" />
			<state id="State1" />
			<state id="State2" />
			<state id="State3" />
			<parents>V10</parents>
			<probabilities>0.9935517264483544 0.005819141751331582 0.0001474019281403982 0.0004817298721735426 0.005872841451481552 0.9935517264483544 0.0002348051496036655 0.0003406269505603052 0.004607555266874852 0.0006389053062474562 0.9935517264483544 0.001201812978523214 0.002179950693877124 0.0008902380021394649 0.003378084855628934 0.9935517264483544</probabilities>
		</cpt>
		<cpt id="U7">
			<state id="State0" />
			<state id="State1" />
			<state id="State2" />
			<state id="State3" />
			<state id="State4" />
			<state id="State5" />
			<probabilities>6.931173172028548e-07 0.5816353462186975 0.3259712976817811 0.001667729247720454 0 0.09072493373448387</probabilities>
		</cpt>
		<cpt id="V12">
			<state id="State0" />
			<state id="State1" />
			<state id="State2" />
			<state id="State3" />
			<parents>V11 U6 U7</parents>
			<probabilities>0.9968571165872564 0.001512801393926514 0.001496997548069826 0.0001330844707472889 0.001327633537000399 0.9901204183880463 0.0009366833555997577 0.007615264719353475 0.0001479072727333619 5.528210374987402e-05 0.9994995085165981 0.0002973021069186655 0.002511109255744253 0.00310043048610724 0.001987683454932159 0.9924007768032164 0.9951522079736032 0.003020994649054639 0.0001230600183704498 0.00170373735897181 0.0005730278788441028 0.9923235752251217 0.006383972200193828 0.0007194246958403192 0.002640688010301871 0.001198461918524208 2.073063639247501e-05 0.9961401194347814 0.0008819157952479196 2.188476990282386e-06 0.9990029604713466 0.0001129352564151596 0.9914375518876134 0.001744923431722462 0.003970874284869906 0.0028466503957942 0.0004697268842495201 0.004552817939138888 0.9933742776068005 0.001603177569811065 0.0005701716432928589 0.9945789637352378 0.001118380432062724 0.00373248418940666 0.002188250711901136 0.0005088091310886585 3.770280221478454e-06 0.9972991698767887 0.9948851330025781 0.001190614631199154 0.003650122020410909 0.0002741303458118605 0.007682157521946748 1.733536095149808e-05 0.9922390360628763 6.147105422539464e-05 0.005105379938227085 0.0006542246940733151 0.0001403010027632568 0.9941000943649363 0.0002641761916914673 0.9992494238436789 0.0002860170758855522 0.0002003828887440694 0.9914057434960981 0.001830215156249139 0.005169241458012144 0.001594799889640657 0.004013893009430926 0.001036750157564384 0.0004591182479892241 0.9944902385850155 0.0003090850250038752 0.9991389759702539 1.527474387085525e-05 0.0005366642608713565 0.001959280157826462 0.004513842279441784 0.9926443168524987 0.0008825607102331164 0.9972253457588288 0.002410374302222024 4.227039635976384e-05 0.0003220095425894417 0.004707895728190237 0.0001115774407707168 0.0006596858302621758 0.9945208410007769 0.001207473901948167 2.143721418685642e-05 0.9919385103581975 0.006832578525667455 0.007164057621591802 0.99067393817266 0.0009942128786713197 0.001167791327076861 0.0001258270233248683 0.00223877302574109 0.003114956012826354 0.9945204439381077 0.001248391495088336 0.003640837107559919 0.9905421054944085 0.004568665902943279 0.006348560246500419 0.9925527127249405 0.0006338449394745731 0.00046488208908447 0.9984548611001937 0.0004961621394035152 0.0008397058951686324 0.00020927086523419 0.002667701467369124 0.005681831932626118 0.0007505980096652902 0.9908998685903395 0.001781525277167105 0.0006501217280774024 0.9966188670383612 0.0009494859563943044 0.9924918057943657 0.004289713367602803 0.0002807522137562441 0.002937728624275257 0.001075969559618815 0.9986853269391887 2.075249744058152e-05 0.0002179510037519379 0.0009852590691775181 0.001048690875488538 0.0007529079193739441 0.99721314213596 0.005544666976463587 0.9930315131271789 0.001210000022925095 0.000213819873432469 0.0009286065581476243 0.0001309422108961565 0.998902443079083 3.800815187312269e-05 0.9966021717408758 0.003363418421386002 3.313070326014706e-05 1.279134477967498e-06 0.002229634899717781 0.0009076307082023382 0.003400100448546268 0.9934626339435336 0.005056972222180853 0.9931292659209597 7.692246403718611e-05 0.001736839392822252 0.9939715998387965 0.001012747887522468 0.00322658654997179 0.001789065723709242 0.000184347934506346 0.001335987994743988 0.9967341314428027 0.00174553262794697 0.001457363796644838 0.002907384687573364 0.001099094177266935 0.9945361573385149 0.9985292526252526 0.001069347716456549 0.0002143610921515338 0.0001870385661393544 0.0009159709937450607 0.001815937295416433 0.9971211433374487 0.0001469483733897454 0.005556723703751067 0.99325387919949 0.0006090153300725723 0.0005803817666863142 0.003066571992341846 0.0007143801692434306 0.003055818715663617 0.9931632291227511 0.9922708266962503 0.005390368677158527 0.001935953729171115 0.0004028508974200662 0.001144355550498199 0.9930648969529361 0.004364561322127561 0.001426186174438193 0.001285380807310963 0.005770374489446889 0.992730653287036 0.0002135914162060982 0.9991852738471565 0.0007391667946216789 1.242469071719435e-05 6.313466750462916e-05 0.002192596525819419 0.9961101512658508 0.001194407477119312 0.0005028447312104981 0.001532520900239224 0.001791658978945796 0.9965089376323527 0.0001668824884622549 0.003471117834370321 0.001894819987414578 0.001465880333340423 0.9931681818448747 0.992350771762596 0.002285685526477479 0.001205662908918673 0.004157879802007806 0.0004316696519143348 0.9988225821315554 0.0002038221841109726 0.0005419260324192807 0.003372404335403322 1.88173050138753e-05 0.0001029500066638683 0.9965058283529189 0.009827562107695179 5.668994040392346e-05 0.9900985360503974 1.721190150347919e-05 0.990383328876118 0.002123649854361713 0.003740963233721357 0.00375205803579888 0.002203907075683938 0.001729353520178848 0.9938937074470784 0.002173031957058817 0.001901729465977388 0.9974357472605219 0.0005056035413207145 0.0001569197321800709 0.006335964879296358 0.000425029220862824 0.0003905547161804132 0.9928484511836604 0.9963137280625078 0.002434382900428344 0.0009689031000278379 0.0002829859370360171 0.002259691695868988 0.0005609835849532803 0.9940256056399925 0.003153719079185226 0.006693693537007244 0.0006889170317970941 0.0004811477234138216 0.9921362417077818 0.005949481323519672 0.9906797801470907 0.002725974396309471 0.000644764133080187 0.991742081605836 0.007003129063868886 0.0009330619179078509 0.0003217274123872434 0.001174191339849947 0.002903895006734926 0.0005298552327945407 0.9953920584206206 0.001538321044870795 0.9958349300976882 0.002350507763046793 0.0002762410943941973 0.002678748946369426 0.0002363349914096489 0.9964093326958401 0.0006755833663807888 0.9958135084461278 0.0002250695699572007 0.0030031864577334 0.0009582355261815996 0.002828831399312318 0.001436502325080387 0.00420134635816238 0.9915333199174449 0.0004665517944945701 0.002576222099134863 0.9967107365243802 0.0002464895819902675 0.0001216976318143187 0.9916062621531462 0.006296337318965792 0.001975702896073666 0.002770844757526367 0.003340422622000151 0.002494704968722437 0.991394027651751 0.003865222014141302 0.002622188932883829 0.9931049264014018 0.0004076626515730868 0.003583583057977634 0.9918614103557583 0.0009215667476917387 0.003633439838572354 0.996472986066719 0.001401658010176561 0.0005096288471364232 0.001615727075968018 0.00123582421648611 0.001823223863504251 0.004663169903246162 0.9922777820167635 0.001743087319405955 0.001341427415835552 0.9923882891907569 0.004527196074001561 0.9956444459841227 0.00409891402706138 4.018710397672265e-05 0.0002164528848391923 0.001250275647093489 0.998146403452927 0.0004440534773727901 0.0001592674226066772 0.002623752057189664 0.0009863556714774203 0.002463184769365024 0.9939267075019679 0.0007390848468994056 0.9989018871195602 6.395054123654192e-05 0.0002950774923038179 0.00105667451538721 0.0006188962788555198 0.9979580680752074 0.0003663611305499372 0.9998220250908858 3.361421389417059e-05 7.314472009053379e-05 7.121597512948695e-05 0.001325966962441978 0.0001112916587948815 0.0001897599609009664 0.9983729814178621 0.002827096965780539 0.9970016749785564 0.0001207353141884577 5.049274147461049e-05 0.9988922201175167 0.0005758298089197905 0.000473016967370846 5.893310619266322e-05 0.001794667753846808 0.001172369216681452 0.9968951861317105 0.0001377768977612335 0.004611731233078594 0.001170536951552603 0.001260897791370637 0.9929568340239981 0.9953461858953029 0.004632558905030511 1.259349918642541e-05 8.661700480174223e-06 0.0006166969291519546 0.001154604418772651 0.9944103196468729 0.003818379005202508 2.144595424808331e-05 0.9998885847365739 5.444089712237851e-05 3.552841205565047e-05 0.003769391200567954 0.001050478524465993 0.0006953541923569622 0.9944847760826091 0.9904285337049648 0.0005502130451829212 0.008734654077543504 0.0002865991723088358 0.008132673203820507 0.9906971209705123 0.0004003851542851874 0.0007698206713820161 0.001361115994978926 0.0002590082869980132 0.994329696627653 0.004050179090370087 0.9977693408358795 0.001459280703670467 0.0004467224135938283 0.000324656046856141 0.002736501674654012 0.9941657208956021 0.001442363874877945 0.00165541355486596 0.002031179316292009 0.0008097806791716081 0.9970540107804875 0.0001050292240488958 0.001532305634810058 0.0004638621852820312 0.0001211559180772284 0.9978826762618307 0.9927343456428795 0.004967300121631468 0.001093138978251419 0.001205215257237515 0.001018869937309542 0.9916918713924597 0.005646252252688133 0.001643006417542621 0.002237154939168639 0.0007125379248666392 0.001832284805060323 0.9952180223309044 0.0001436470574235145 6.40076249666691e-05 0.9995999522537699 0.0001923930638399441 0.99922878535408 0.0004298895256677794 9.670558191269802e-05 0.0002446195383394901 0.0001521759031212906 1.757288796164588e-05 0.9997794782939017 5.077291501543019e-05 0.0001723630746867285 0.9997347086486768 6.769030793985161e-05 2.523796869667451e-05 0.003003019013275784 0.002314494099118683 0.002238588521113384 0.9924438983664922 0.9998854706836202 0.0001120009911204947 1.399037001862902e-06 1.129288257452402e-06 0.003249807039746751 0.003189324020076706 0.9925101528039226 0.001050716136253929 0.003270615785770635 0.0009784620345517415 0.0004118383482185194 0.9953390838314591 0.006344467592768473 0.9924394995008957 0.00100777957436184 0.0002082533319740106 0.9935077866728913 0.002197351056090151 0.003282093196767523 0.00101276907425104 0.00925214663774118 5.473934482758426e-05 9.690206905217078e-06 0.990683423810526 0.001074164292146467 0.9939400746252376 0.003013059008204064 0.00197270207441193 0.001869041622591323 0.0001772334177210227 0.9966489433596714 0.001304781600016334 0.992665088045112 0.004060284002238687 0.0004513530755835477 0.00282327487706577 0.001444923857730497 0.001094275845143939 0.001989361944822546 0.995471438352303 0.002470363250176071 0.002891003192712104 0.9945046279019116 0.0001340056552001558 0.007669219306150887 0.9915493916882918 3.238215178197749e-05 0.0007490068537753154 0.0008692444022767627 0.000587322105504767 0.0009186243364235102 0.997624809155795 0.00681749327211009 0.001794103517149785 0.9902987615026693 0.001089641708070907 0.001288083042186813 0.9967746510886036 0.001741903952899586 0.0001953619163099355 0.9938268015123441 0.003482368899657091 0.0004706951478647566 0.002220134440133987 0.0004599887979436544 0.00100610353239395 0.003285299293728969 0.9952486083759334 0.001362644019255535 0.0004836471433295191 0.9976529292707367 0.0005007795666783109 0.9991704589754289 0.0007351636874651282 2.136512554584926e-05 7.301221156012807e-05 0.004232327897735212 0.9901949249436331 0.003778182196177882 0.001794564962453784 0.0009313140693123259 0.0006411748444847172 0.002220197269845446 0.9962073138163575 0.00380759123760537 0.9936802451608496 5.215187921678171e-05 0.002460011722328175 0.000653353178083448 3.810488369548536e-05 0.9992050225950342 0.0001035193431869064 0.9940558159318255 0.001283116743106356 0.000177127688173911 0.004483939636894231 0.005070959818536514 0.001828751261323823 0.001233421505439072 0.9918668674147005 0.002491746310867034 0.992194998420035 0.00481097082457585 0.0005022844445221105 0.9959825051734289 0.002154611417660563 0.001096294244249728 0.0007665891646608063 0.0003077953474420166 0.0001864366923126051 0.9991134218839559 0.0003923460762894627 0.006933761815174115 0.001198828396841693 0.0001702551714690102 0.9916971546165152 0.9997802288705938 7.144774444663925e-06 1.764111229326086e-05 0.0001949852426682985 0.003328504361609583 0.001998127773726392 0.9927843184789537 0.001889049385710414 0.002802124488302231 0.9916298674348737 0.003886954311332512 0.001681053765491566 0.002173393668661234 0.0005596513958645207 0.0003229444349246601 0.9969440105005496 0.9954269385661161 0.003771069783192344 0.0006131181398681193 0.0001888735108234865 0.003933014204237952 0.9959132076327082 5.899379083098994e-05 9.478437222282382e-05 0.001079401279784927 0.001886268357200611 0.9955182780778201 0.001516052285194347</probabilities>
		</cpt>
		<cpt id="V13">
			<state id="State0" />
			<state id="State1" />
			<state id="State2" />
			<state id="State3" />
			<parents>V12</parents>
			<probabilities>0.9959496051046269 0.0004491318020411352 0.002700660452686096 0.0009006026406458475 0.001286056565174583 0.9959496051046269 0.0006446791767934464 0.002119659153405049 0.001514320809962021 0.001157789535328492 0.9959496051046269 0.001378284550082565 0.003657932079321792 0.0001628419451940224 0.0002296208708572641 0.9959496051046269</probabilities>
		</cpt>
		<cpt id="U8">
			<state id="State0" />
			<state id="State1" />
			<state id="State2" />
			<state id="State3" />
			<state id="State4" />
			<state id="State5" />
			<probabilities>1.230636785537905e-05 0.05820085666048633 0.000494521500255093 0.9412796339905428 1.268148086036971e-05 0</probabilities>
		</cpt>
		<cpt id="V14">
			<state id="State0" />
			<state id="State1" />
			<state id="State2" />
			<state id="State3" />
			<parents>V13 U7 U8</parents>
			<probabilities>0.9932955210075191 0.003942336888865339 6.978985122646029e-06 0.00275516311849299 0.008626633017163789 0.9906460494468996 0.0007233935896916293 3.923946244969501e-06 0.002829998853060361 0.0005635033037873455 0.9963009704401059 0.0003055274030463427 0.000294327261437942 2.035401411932147e-05 8.512407647390268e-05 0.9996001946479688 0.9928857860277202 0.005416175385573957 0.001060789518033171 0.0006372490686727722 0.000128952857284171 0.9992321247752954 0.0003458910499510646 0.000293031317469275 0.0006333851285498158 0.002450972630217364 0.0001355729874385494 0.9967800692537943 0.001984959494017326 0.001532721445130707 0.9921504339839723 0.004331885076879647 0.996793896482906 0.001011590782901786 8.358981424206676e-05 0.002110922919950211 0.004470308403712439 0.00470836735730226 0.990526613456009 0.000294710782976243 0.0006897523230869721 0.9978262499828325 0.0001796432038845436 0.001304354490195956 0.0004131977939284607 0.003629091670529206 0.005661563460408513 0.9902961470751338 0.9999258078859501 7.121920355587987e-05 1.370503787754882e-06 1.602406706323197e-06 0.0003432657943867338 0.000156531078598531 0.9994985173739823 1.685753032465968e-06 0.0004012690651376245 0.003448637363192366 0.000162291060824138 0.9959878025108458 3.851219748581502e-05 0.9967067942480835 0.001653257702886412 0.00160143585154423 0.9910049018392094 0.007557902490906454 0.0006072942614128763 0.0008299014084712107 0.002818556965579359 0.001116342092033498 0.005096808844522015 0.9909682920978651 0.005957867259312457 0.9928900607883704 0.001049294218057475 0.0001027777342597208 0.003770708258563262 0.0001480062158068024 0.9954273513753513 0.0006539341502786119 0.9979022166145363 0.0007652113113048254 0.0009853088173943847 0.000347263256764492 0.003271540137726765 0.0001047227699486464 0.002193783830236671 0.9944299532620879 0.0007318906579133954 0.00738895406093621 0.9918724871618086 6.668119341758302e-06 0.005587979857780717 0.9928671725005189 0.0009477933334638798 0.0005970543082364617 0.005214948116040401 0.001517211056082582 0.0003352594443457213 0.9929325813835312 0.004489503502774731 0.001012577346317726 0.991620795870894 0.002877123280013574 5.331276446212978e-05 0.999669883171348 6.632046923577951e-05 0.0002104835949541136 0.9925744365947565 0.00670370284979751 9.617401733730601e-05 0.0006256865381086908 0.005842393690437818 0.0003309361123345101 0.0008030700605619473 0.9930236001366657 0.001187996845292997 9.864310918650173e-05 0.9970120630867604 0.001701296958760073 0.9963155000412572 0.00198504212338561 0.0001990673491342813 0.001500390486222857 0.0002896772472535916 0.9987869535570026 0.0003181941109365966 0.0006051750848072048 0.0003975254901597512 4.824283196893477e-05 2.197868036138161e-05 0.9995322529975099 0.003806754233253304 0.9934466604055148 0.001413872748249885 0.001332712612982018 0.001505776521797079 0.00492521643407774 0.9925964744710508 0.000972532573074357 0.9995457719391601 0.0002536609272386665 0.0001508064897215495 4.976064387977693e-05 0.002047133760337147 0.002866650872100924 0.001578559571150501 0.9935076557964114 0.0001875259729677316 0.9920488522107547 0.006668543267516604 0.001095078548760941 0.9967678111319697 0.0003130787053566111 0.002849786663375369 6.932349929834186e-05 4.489830693556038e-05 7.690917720651633e-05 0.9997289100526158 0.0001492824632421953 0.002128030844915737 0.001759908987851753 0.004241161664429966 0.9918708985028025 0.9982917290897872 0.0003296641842845654 0.0009638237188081711 0.0004147830071200504 0.008613051273688581 5.303744749689575e-05 0.9912003792741819 0.0001335320046326596 0.002805343392374238 0.9971734121361321 1.10780527879009e-05 1.016641870574456e-05 0.002801770957305087 1.568533885668092e-06 4.913184263033027e-06 0.9971917473245462 0.9992940135025508 0.0003387280741652443 0.0003555451550051541 1.171326827883968e-05 0.0007486235804730495 0.9988165340939102 0.0002699182063652509 0.0001649241192514042 0.0003288594977744315 0.001572705740643937 0.9942097782420518 0.003888656519529876 0.9984510012086508 0.0006973211988431518 0.0008437335223317244 7.944070174313589e-06 0.00559219567390067 0.9908932557760627 0.0004918184726922173 0.003022730077344419 0.001431469337542324 1.726956549242469e-05 0.9983265724540893 0.0002246886428759981 0.001627368519382023 0.00086790725832724 0.00041882478852293 0.9970858994337678 0.9910309334064735 0.002950574343417591 0.001379692398211602 0.004638799851897238 0.003359860538112395 0.9954815158836637 0.001082769879509531 7.585369871435706e-05 0.001765257276703842 0.0001460593521416653 9.85696371540868e-05 0.9979901137340004 0.0004485046768270644 0.0002098043377282919 0.9989025474960673 0.0004391434893772748 0.9949582184576679 0.004197591329635797 0.0003640024229628884 0.0004801877897335093 0.0008785023299076425 0.0001261884320837343 0.9982691159705666 0.0007261932674421058 0.0009013437059285861 0.9928467536525116 0.000531900437956873 0.005720002203602861 0.0004455813330367045 0.0001584188301957392 4.324387176220918e-05 0.9993527559650054 0.999579394156431 0.0002408983978342319 3.135562560112824e-05 0.0001483518201336107 0.004832875906802057 0.001127712176805643 0.990686775049091 0.003352636867301341 0.002452699536726168 0.00258163261089342 0.001460147645482415 0.993505520206898 0.0007663913011619357 0.9952631896346619 0.003566124174258947 0.0004042948899172362 0.9918827907884527 0.002592523782881561 0.0009267139867340307 0.004597971441931763 1.037419635132413e-05 1.947442792746406e-07 4.175606284417706e-06 0.999985255453085 0.0006985668157908456 0.997887465295889 0.001283300523009744 0.0001306673653104556 0.007480664976073345 0.0001080723313758791 0.9902701553245329 0.0021411073680179 0.9977737277158354 0.001109290999201145 0.0008111667330418165 0.0003058145519215955 0.002332999354576537 0.002188040869580356 0.002752705961468148 0.992726253814375 0.002195580327213609 0.005462638041406078 0.9905923512983345 0.001749430333045828 0.004989484542915926 0.9948628847849927 6.249838563800079e-06 0.0001413808335275332 0.001282817229960924 0.0006993559390465307 0.0002585766506628512 0.9977592501803297 0.0006315806461591633 0.0001751480591863921 0.9991156624673015 7.760882735286277e-05 0.008050209777636028 0.9919073591215356 4.046194590790512e-05 1.969154920514169e-06 0.9904132101595213 0.002754157520202613 0.001483868802612051 0.005348763517664031 0.001421136009606557 0.0001479764424504819 0.001831787392283486 0.9965991001556594 0.004106369284992666 0.002746722159560422 0.9928500251030434 0.0002968834524034801 0.9952890798561284 0.00456361326813294 0.0001307080306268704 1.65988451117942e-05 0.001902455409654414 0.9944331398506571 0.00319186848537935 0.0004725362543091158 0.006166863507536407 0.0004411759067160222 0.001693891531426961 0.9916980690543206 0.007064478920213239 0.9907198710492892 0.002028388318716585 0.000187261711780985 0.003212182987357403 0.0003077916588272023 0.996462500524256 1.752482955934981e-05 0.9964034862068248 0.003492626404914793 4.295280778600759e-05 6.093458047437111e-05 0.00706880165192547 0.0009560245330379794 0.0007554419605980919 0.9912197318544385 0.002521660297026609 0.996295362650093 0.0007697650453107105 0.0004132120075697074 0.995799386953787 0.0007028269347524973 0.002944440213390788 0.0005533458980697473 0.0005833898877701471 0.0002078510697839687 0.9970878578107245 0.002120901231721387 0.002369626792606856 0.0005569784896320722 0.00245476429829933 0.9946186304194617 0.9985023580975942 0.0006763175280248743 0.0005900587876384317 0.0002312655867424482 0.004468608199769281 0.00101226847202859 0.9936885793080531 0.0008305440201490464 0.004404222662980317 0.9947077825142231 2.665604608489989e-05 0.0008613387767116953 0.005156172810561311 0.001392569223834237 0.001642797696761168 0.9918084602688433 0.9974825375204794 0.0008380661822408094 0.001562249136521702 0.0001171471607581001 0.0008663292922303504 0.9986411954768527 0.0001635404223231913 0.0003289348085937041 0.0003552356764015096 0.0001485315209372138 0.9993017765452815 0.000194456257379765 0.9975654398525021 0.002355687661904736 6.533706886309988e-05 1.353541673004895e-05 0.008866785791336091 0.991062164812307 4.736273573623065e-05 2.368666062068377e-05 0.0003617910403797891 6.075719582026596e-05 0.9985022749102083 0.001075176853591635 0.005768208092011692 0.0005153677655698513 0.0008900395824362501 0.9928263845599822 0.9954774899088351 0.004450314601711733 2.420376179256773e-06 6.977511327391798e-05 0.001670735351576269 0.9907282733471883 0.0004104934990823294 0.007190497802153145 0.002323263684299915 0.001103285239324153 0.001909292678462325 0.9946641583979136 0.003304401333273424 0.0009424584928072455 0.9912039955132136 0.004549144660705794 0.9987052142359266 0.0002344207618844575 0.0007852189521467697 0.0002751460500421377 0.003975009774845873 0.0002936481622396494 0.9955962192466113 0.0001351228163031497 0.001170886709243342 0.9979527980847243 0.0004321194238632996 0.0004441957821691226 0.002230175655859014 0.003671057220312331 0.001831155414749507 0.9922676117090792 0.9932275640782067 0.003102137196977051 0.002973104967322383 0.0006971937574939374 0.003381996298374463 0.002816498710161864 0.9900152473971722 0.003786257594291529 0.002097110107049987 0.0002370595618188087 0.003994541948484891 0.9936712883826463 0.001976832362123176 0.9968831817922159 0.0005471015308989755 0.000592884314761969 0.9955236378136921 0.001483455019794062 0.0007532656771895533 0.002239641489324294 0.004978172427181166 0.001755391161198713 0.0003236911861653593 0.9929427452254548 0.003470080290119297 0.9952832547999204 0.000368202159708551 0.0008784627502517368 0.0005742682363550365 9.323342193259537e-05 0.9993323382864043 1.600553079823e-07 0.9911364225012508 0.004837597517168197 0.003032434051909146 0.0009935459296719251 0.00345127594738521 0.00108614902678268 0.002173432867160879 0.9932891421586713 0.001492832644209359 0.001925895356750816 0.9962465955087048 0.0003346764903350695 0.0005120174191743283 0.9990348668110641 0.0002095574488803796 0.000243558320881217 0.0003109761096180063 0.003337994935081964 0.003953768700377969 0.992397260254922 0.001284095280255398 0.0005349571582680666 0.9976417941107028 0.0005391534507737346 0.002850002739755679 0.9965137546460567 0.000289239394313113 0.0003470032198744962 0.9922322417060702 0.007438229882387321 0.0002123850243362244 0.0001171433872063222 0.001810096197401443 0.0001371889848925672 3.361489343921376e-05 0.9980190999242667 0.004775084351051125 0.0002422311845118774 0.9916612715774984 0.003321412886938606 0.9951680240457523 0.003367228125117196 0.0009814182340525709 0.0004833295950778854 0.005266111594962086 0.9930528000055626 0.001164508822761673 0.0005165795767136272 0.001123615330173721 0.0009823596713325064 0.0005453866414192757 0.9973486383570745 0.002777187484823375 0.9970084455192365 0.0001294623995940682 8.490459634608779e-05 0.00204010839581549 0.0006878166164300055 0.9968581052580048 0.000413969729749746 0.9926681038414766 0.005537132735065778 0.001483425606210627 0.0003113378172469965 0.003455191249261679 7.877067637223634e-05 0.002796719219871328 0.9936693188544947 0.007619193255402997 0.9904118699960702 0.001341996078307762 0.0006269406702190678 0.9956715686789046 0.001181008388075666 0.001153912891431284 0.001993510041588493 0.00142813853356467 0.004529962198488409 0.9908051597544666 0.003236739513480309 0.000981684627707753 0.001023796738377467 0.001459399206332882 0.9965351194275819 0.9970316276535202 0.001303332546110026 0.0003353576856491504 0.001329682114720693 0.00708953149232716 0.0007896948557174526 0.991512055240557 0.0006087184113984205 0.002032500279222064 0.9947331685400941 0.002087900503880571 0.001146430676803286 0.001925353116957436 0.0002026291626153384 0.004427510459976549 0.9934445072604506 0.9926596430064886 0.005029666245622121 0.001032134871721153 0.001278555876168186 0.002850234519748618 0.996968898817719 7.335799503981626e-05 0.0001075086674925396 0.000390425076463471 1.089020994955872e-05 0.9994939390375824 0.0001047456760045807</probabilities>
		</cpt>
		<cpt id="V15">
			<state id="State0" />
			<state id="State1" />
			<state id="State2" />
			<state id="State3" />
			<parents>V14</parents>
			<probabilities>0.9949280721773682 0.003750803032364416 0.0004717356235335477 0.0008493891667337764 0.0001921420205276253 0.9949280721773682 0.003916435341976182 0.0009633504601279331 0.002111413575780569 0.002081543484543318 0.9949280721773682 0.0008789707623078537 0.003330971213198834 0.0001445970195841972 0.001596359589848709 0.9949280721773682</probabilities>
		</cpt>
		<cpt id="U9">
			<state id="State0" />
			<state id="State1" />
			<state id="State2" />
			<state id="State3" />
			<state id="State4" />
			<state id="State5" />
			<probabilities>0.08438853335921015 0.001192742184407417 0.6177845915190127 0.2917220182458016 0.004837488947808797 7.462574375922455e-05</probabilities>
		</cpt>
		<cpt id="V16">
			<state id="State0" />
			<state id="State1" />
			<state id="State2" />
			<state id="State3" />
			<parents>V15 U8 U9</parents>
