<?xml version="1.0" encoding="UTF-8"?>
<!-- This file was created by ACADEMIC version of SMILE -->
<smile version="1.0" id="Unnamed" numsamples="10000" discsamples="10000">
	<nodes>
		<cpt id="U1">
			<state id="State0" />
			<state id="State1" />
			<state id="State2" />
			<state id="State3" />
			<probabilities>2.358302051972727e-111 2.489918910575505e-10 3.600008762109949e-13 0.9999999997506481</probabilities>
		</cpt>
		<cpt id="V0">
			<state id="State0" />
			<state id="State1" />
			<state id="State2" />
			<state id="State3" />
			<parents>U1</parents>
			<probabilities>0.002073397684754431 0.9970615537337439 0.0008650485815016333 5.161417019825873e-30 4.276148732446893e-13 0.9999960697822496 2.67956115417651e-10 3.929949366767456e-06 2.653280968806658e-13 0.1753509288697276 0.5073189704789778 0.3173301006510293 0.9999999999996977 2.458438524469295e-26 3.02244013547872e-13 1.431135943526889e-20</probabilities>
		</cpt>
		<cpt id="V1">
			<state id="State0" />
			<state id="State1" />
			<state id="State2" />
			<state id="State3" />
			<parents>V0</parents>
			<probabilities>0.9950505331028584 0.003971047805405641 0.0009336299517297181 4.478914000626043e-05 0.001727352520417463 0.9950505331028584 0.002564029538993221 0.000658084837730936 0.0007744456782068881 0.001210647601721157 0.9950505331028584 0.002964373617213574 0.004828235476932988 0.0001188309397308014 2.400480477829836e-06 0.9950505331028584</probabilities>
		</cpt>
		<cpt id="U2">
			<state id="State0" />
			<state id="State1" />
			<state id="State2" />
			<state id="State3" />
			<probabilities>0.003858849982634287 2.26855036739883e-08 0.996139172115094 1.955216768015164e-06</probabilities>
		</cpt>
		<cpt id="V2">
			<state id="State0" />
			<state id="State1" />
			<state id="State2" />
			<state id="State3" />
			<parents>V1 U1 U2</parents>
			<probabilities>0.9979950879691781 0.0001148794231867195 0.001448767883503331 0.0004412647241317912 0.0003629387944748646 0.9990172278762356 0.0001571691947998696 0.0004626641344896196 0.0002674078223818346 0.006042348394602003 0.9927637148749221 0.0009265289080940533 0.001891048727348376 5.196245910752898e-05 0.001678326370778261 0.9963786624427659 0.9953946041654812 0.003039149083767034 0.001221003972216474 0.0003452427785352826 0.002758616424238967 0.990930792484561 0.003710562028292485 0.002600029062907609 0.0003026881056732679 0.004067030522334686 0.0008465302822395328 0.9947837510897525 0.003304188235691214 0.0001411504527459157 0.9953586692471417 0.00119599206442115 0.9928950021190761 0.0004075976251056583 0.003736191441908661 0.002961208813909555 0.001387932353484833 0.001129282693689422 0.9967186170490937 0.0007641679037320237 0.0003634250250568608 0.9943119746918112 0.002014802754613607 0.003309797528518287 0.005412839134421987 0.0003610891985289573 0.0008529638390860853 0.993373107827963 0.9987187642306639 0.001223385748860648 4.496240968809634e-05 1.28876107873886e-05 0.0002442710226634888 0.001615111323612734 0.9977683074084944 0.0003723102452293907 0.006449459555341808 0.0004793160342915581 0.0004783492911953726 0.9925928751191713 0.003226507755311345 0.9910072422120548 0.003742273210773193 0.002023976821860627 0.9987876424132814 0.0006039593021794495 3.244142708394159e-07 0.0006080738702683076 6.235620269012693e-06 0.002593625949829643 0.005158796149592601 0.9922413422803087 0.0001785343184070966 0.9989741438548381 0.0001860108411342355 0.0006613109856205576 0.001534389459273909 0.0003111619446706438 0.9978085188797231 0.0003459297163323729 0.9986365002806147 0.00126932158449882 3.207261300676731e-06 9.097087358579775e-05 0.001228434091390149 0.0002572414139753122 5.655235919122355e-05 0.9984577721354433 0.001671828309877938 0.001283220282019484 0.9968087061657214 0.0002362452423812279 0.0002887775562420658 0.9963860954595313 0.0002956545529781069 0.003029472431248588 0.006196899324122288 0.001105197193813671 0.001794635237607426 0.9909032682444566 0.004309013357404619 0.001521557283883254 0.9911646518544639 0.003004777504248202 0.00631232870488336 0.9934725098039174 1.877864357102885e-05 0.0001963828476281369 0.9969950061328187 0.00280697533754452 0.0001130817057540578 8.493682388280942e-05 0.002089370855826325 0.001591759442970409 0.005275058860544091 0.9910438108406592 2.58807779228262e-05 8.143401281480527e-05 0.9997745657840481 0.000118119425214287 0.9958322422987803 0.002215351281246792 0.000341796353499245 0.001610610066473635 0.0007391019143854519 0.9960722981913054 0.0004309808667543579 0.002757619027554767 0.0001615314060589417 0.0002971812490674339 0.0002003223392336749 0.99934096500564 0.002995382817235328 0.992966956616483 0.0006271281708894822 0.003410532395392158 0.001639798127527634 7.380411182634458e-05 0.9982616117825639 2.478597808211344e-05 0.9916562397041421 0.006758690987341408 0.001013371791837686 0.0005716975166787808 0.003824432441868891 0.0007682546434071028 0.0003952867630918 0.9950120261516322 0.0002587164703058975 0.999718575126109 9.773869802353369e-06 1.293453378283542e-05 0.9938055268142736 0.006087014267601547 2.398262521508032e-05 8.347629290980435e-05 0.000495208924758963 0.0002230764781509743 0.9992454048408824 3.630975620762421e-05 0.0002199096661931234 5.024180864395352e-06 8.970030631660129e-06 0.9997660961223108 0.9990282978363423 7.816824096729136e-05 0.0002290110737481241 0.0006645228489422996 0.00401589800558617 0.0009337338568768009 0.991701980524878 0.003348387612659037 0.004169972087463227 0.992559202966497 0.0006365727852871798 0.002634252160752552 0.003666574205504489 0.0002553001268460783 0.001622842624769887 0.9944552830428796 0.9972823079120354 0.0009509095784673323 0.001406696040484202 0.000360086469013064 0.0007388588005066997 0.997968303277173 0.0002160568085731724 0.001076781113747166 0.0009310448090887696 0.002984130885307242 0.9955415230427451 0.0005433012628588189 0.9944288830817885 0.0005287061104640508 0.003911298788547772 0.00113111201919968 0.001490224206728978 0.9983224685516923 0.0001293284970651442 5.797874451364014e-05 0.0004246831119967284 0.003276633566102363 0.9903628958170486 0.005935787504852346 0.003608585549517198 0.000224898384767251 0.0008112332688778675 0.9953552827968377 0.9942453097058465 0.004698834489581654 0.0007677784849591764 0.0002880773196127627 0.001686064362420764 0.9933317437813695 0.002540410288719895 0.002441781567489918 0.0006988361055382014 0.001549280732539895 0.0004225643315739797 0.9973293188303479 7.514059142296219e-06 0.0008747916792665769 0.998084288390868 0.001033405870723132 0.9973286279614962 0.0004065496455998339 0.001606846723355325 0.0006579756695486449 0.0006410882097072416 0.008092275634393364 0.9907455763314725 0.0005210598244268297 0.003843457579473133 0.992016554131696 0.002029410360646388 0.002110577928184471 0.001717400189080937 0.001026043742226725 0.0002000215668645888 0.9970565345018277 0.9949796563012611 0.002457081757503394 0.002081908487326825 0.0004813534539087295 0.007153582072584048 0.0001567015457197476 0.9908437584665991 0.001845957915097086 3.487743403052467e-05 5.756662013026207e-06 1.317531921688316e-05 0.9999461905847395 0.0004755460944758891 0.9934310513037841 0.002933023552004276 0.003160379049735743</probabilities>
		</cpt>
		<cpt id="V3">
			<state id="State0" />
			<state id="State1" />
			<state id="State2" />
			<state id="State3" />
			<parents>V2</parents>
			<probabilities>0.9954919497127962 0.0009759462811359209 0.000260408172704686 0.0032716958333632 0.000398842684787002 0.9954919497127962 0.0002581826803459663 0.003851024922070839 0.001536455666571841 0.001046767370815235 0.9954919497127962 0.001924827249816732 0.002097379903839018 0.002278734026956302 0.000131936356408487 0.9954919497127962</probabilities>
		</cpt>
		<cpt id="U3">
			<state id="State0" />
			<state id="State1" />
			<state id="State2" />
			<state id="State3" />
			<probabilities>0.1679410515261801 0.0002641048752541021 0.8312564759245201 0.0005383676740457324</probabilities>
		</cpt>
		<cpt id="V4">
			<state id="State0" />
			<state id="State1" />
			<state id="State2" />
			<state id="State3" />
			<parents>V3 U2 U3</parents>
			<probabilities>0.9943197720156945 0.004795973198373068 0.0003881060832753295 0.0004961487026570549 0.0004951149073292555 0.9989416467533528 0.0005619337567959862 1.304582521932966e-06 0.004280008204028823 0.0008259797259469406 0.9948012045553064 9.280751471785035e-05 0.003733453858244271 0.001601854811513024 0.003572087214453239 0.9910926041157895 0.999508311354791 3.53665715455859e-05 0.0001262432926956795 0.0003300787809676721 0.001651540338139459 0.9944392265132886 0.003158861750119845 0.000750371398452008 0.002645272110618865 0.0002310416291453741 0.001465552301996839 0.9956581339582389 0.002537806028494174 0.0008035758864759681 0.9965398337428147 0.0001187843422151059 0.9968828703430996 0.00152841105608106 0.0009398949712333967 0.0006488236295859479 0.003680210884828063 0.0005608182357508436 0.9947396160067508 0.001019354872670345 0.0007587650261632707 0.9973015029569403 0.0003975544885900745 0.001542177528306395 0.001412448988009087 0.004406504634481164 0.001983167761164953 0.9921978786163448 0.992153766052161 0.007814652915884854 2.162824916296243e-05 9.952782791238289e-06 0.004323553560294454 0.004299251315623211 0.9910685463635011 0.0003086487605812724 0.002798601079766512 0.001593978788324283 0.001916968253603057 0.9936904518783062 0.0008760182337940388 0.990420398060349 0.008670616273967674 3.29674318892588e-05 0.9908737997551171 0.003885146583048551 0.004714458860616816 0.0005265948012175446 0.003195120934232108 6.644473681349595e-05 0.0005233652227839369 0.9962150691061704 0.0006333889843604256 0.992265313414707 0.002853774490212198 0.00424752311072036 0.004431173423012022 0.001819210507720379 0.9927328785117912 0.001016737557476442 0.9926090224113329 0.00668987884052653 0.0002394976395915963 0.0004616011085490441 0.003610386274552079 0.0003484422668512315 2.685836490981069e-05 0.9960143130936869 0.001125232509569491 0.0003378410382490724 0.9942425786707063 0.004294347781475114 0.004447666705460614 0.9922901619350116 0.00114399393709933 0.00211817742242845 0.0002451012632967499 0.0007200316923900618 0.007955103165349585 0.9910797638789636 0.0003848912049933368 0.002766880138362854 0.9917156556036922 0.005132573052951551 0.0009812675179002217 0.9905207302472083 0.003075076606648945 0.005422925628242535 0.9903888575635099 0.0005418870221998967 0.002018829976210863 0.007050425438079363 0.002314066878056879 0.001573540060943412 4.449270438635603e-05 0.9960679003566133 9.189869780494084e-05 0.003990150707450706 0.9935094723393596 0.002408478255384733 0.9972916377525514 0.00259793494018263 7.890991392634441e-05 3.151739333963449e-05 0.006641321135142341 0.992689610005315 0.0006478184794749107 2.125038006773477e-05 0.00320130989484268 0.001651944474458185 0.0005378099413066719 0.9946089356893925 0.001974529993348808 0.9950732915419669 0.002768623233419627 0.0001835552312646981 0.008079981375401266 0.0005541623284033454 0.99126249881868 0.0001033574775154365 0.9920863651427787 0.006844619599078841 0.000119528907537607 0.0009494863506048556 0.00133010786694991 6.12330872479211e-05 3.602606137847019e-05 0.9985726329844237 0.003244377891894233 0.9951832003095477 0.000399735875283001 0.00117268592327513 0.9912243009279623 0.002635428328129173 0.001308652887964657 0.004831617855943861 0.002819460419773444 0.003482525883458068 0.9931768021197288 0.000521211577039648 0.002595343028058885 0.001175036324482811 0.0001939393329996378 0.9960356813144586 0.9921538413185639 0.005543049300634668 0.002162324761731103 0.0001407846190703164 3.275559193204048e-05 0.004889081866471063 0.9938404770960496 0.001237685445547304 0.0001540618391269312 0.9932980120495691 0.005271473959111379 0.001276452152192601 0.0001373534071180184 1.936783598061719e-07 1.417939804772038e-05 0.9998482735164744 0.9985799148906677 0.0003993137813977334 0.0004306264363959038 0.0005901448915386491 0.007064110098008991 0.9917783374368691 0.00097214441893045 0.0001854080461914754 0.002899228881137626 5.523910294415835e-06 0.9970778533141968 1.739389437115479e-05 0.9973210367290467 0.000567056650607165 0.000603288312142521 0.001508618308203588 0.001639190747311655 0.9971597009807842 0.0007325080751314764 0.0004686001967726916 0.0006119636146207876 0.0001582615938207014 0.9988624900327125 0.0003672847588459399 0.0006067350594545901 3.465676754366628e-05 0.0004525100029917118 0.9989060981700101 0.992172666235081 0.0001427079096048475 0.0006518326140270954 0.007032793241287028 0.002402493430785321 0.9942913304536584 0.0007845976189491214 0.002521578496607199 0.000362913148561212 1.140876244387605e-05 8.357367903443734e-05 0.9995421044099605 0.001445791547154149 0.0001955369688769818 0.9976191197685826 0.0007395517153862487 0.990152410039168 0.007724733766727064 0.001390913582845357 0.0007319426112595954 0.006700747890214431 0.0001933485840033451 0.9923447397411531 0.0007611637846291121 0.001837819044100163 0.9965823227940466 0.0006976641961314047 0.0008821939657218966 0.001054260967360397 0.0001225919093518741 0.003279683439144179 0.9955434636841436 0.9922094324209383 0.002045597411369293 0.005364809691247379 0.0003801604764450683 0.001015567494412642 0.0001194464661584272 0.9984283793994404 0.0004366066399884817 0.006711444546536463 0.0005098603476632429 1.346507732108144e-06 0.9927773485980682 0.004845305458413591 0.9923193592744818 0.002171331747726773 0.0006640035193778838</probabilities>
		</cpt>
		<cpt id="V5">
			<state id="State0" />
			<state id="State1" />
			<state id="State2" />
			<state id="State3" />
			<parents>V4</parents>
			<probabilities>0.9921183213792955 0.007030590520072115 0.000163716933823579 0.0006873711668088105 0.007118588947436174 0.9921183213792955 0.0006412248554363604 0.0001218648178319702 0.00107781407898499 0.002157563414679071 0.9921183213792955 0.004646301127040444 0.003190669536180918 0.003485773218345561 0.001205235866178027 0.9921183213792955</probabilities>
		</cpt>
		<cpt id="U4">
			<state id="State0" />
			<state id="State1" />
			<state id="State2" />
			<state id="State3" />
			<probabilities>4.079167687775918e-07 0.005609750507574902 0.9943898413325514 2.431050624255944e-10</probabilities>
		</cpt>
		<cpt id="V6">
			<state id="State0" />
			<state id="State1" />
			<state id="State2" />
			<state id="State3" />
			<parents>V5 U3 U4</parents>
			<probabilities>0.9935473975158943 0.002005496746467011 0.003529370778359423 0.0009177349592792783 0.002286724977233672 0.9974897343064993 0.0002075974932128366 1.594322305414488e-05 0.004210194098185716 0.0006270330205989851 0.9907051116966471 0.004457661184568157 0.005459760965221684 0.001096359736395649 6.234729686782907e-05 0.9933815320015148 0.996300471858046 0.002560360107752669 0.0001403922374772543 0.0009987757967239907 0.004478788745003513 0.9944531318538452 4.228830831253867e-05 0.001025791092838726 0.004085424655591603 1.247763489490648e-05 0.001271038273742846 0.9946310594357707 4.660220346857647e-05 0.000260504727602137 0.9992608408668414 0.0004320522020878998 0.994481981023316 0.003393826651464455 0.0007998622461102512 0.001324330079109346 0.005394912432110312 0.0007857587843931979 0.9933905592754684 0.0004287695080280659 0.002801931899480739 0.9912778173704122 0.002957573732037934 0.002962676998069068 0.001463877818278739 0.001012389595647931 0.005558592194977499 0.9919651403910958 0.9989000476377429 0.0002964770446542538 0.0002767424835223979 0.0005267328340804822 0.005468256331404408 0.002072806591589252 0.9915831268861768 0.0008758101908295499 0.001477835970938061 0.005062830755703976 0.001395458868381848 0.9920638744049761 0.002270592554047974 0.9967309306662737 0.000209391366942608 0.0007890854127357533 0.9988115482679957 0.001145689624118728 3.161701666298991e-05 1.114509122265084e-05 0.0004166387566380974 0.003860810336624609 0.003481879742679317 0.992240671164058 0.001819031505539862 0.9944143254997249 0.0007294021326233577 0.003037240862111884 0.001645937051468081 0.001384340530880622 0.9933490435164549 0.003620678901196415 0.9927797409077956 0.0009524321082000633 0.002336848609228021 0.003930978374776222 0.004169927148938228 0.002167260851768142 0.003193553516677323 0.9904692584826164 0.004012249023943356 0.0004371480138066682 0.9947628256501064 0.000787777312143518 0.006270726096162308 0.9933366898412033 0.0002340918097130205 0.0001584922529214332 0.005257280810580397 0.0009742287367381906 0.001504892827102893 0.9922635976255785 0.002232317543993756 0.001066948472727655 0.9954138744725098 0.001286859510768783 0.0003758971241308624 0.9949842060449203 0.002953462429277716 0.00168643440167111 0.9927108307814811 0.001032057817819489 0.001284753399890395 0.004972358000808999 0.007417274619503388 0.0003954786648753865 0.001408840949447647 0.9907784057661736 0.003920917207386207 3.538030555644692e-05 0.995676034742717 0.0003676677443402532 0.9997969248324474 1.05529608868913e-05 0.0001826515311848435 9.870675480879576e-06 0.0004993811339596999 0.9993761174003102 1.974998819328458e-05 0.0001047514775368433 0.0004731386816118529 0.0009430268325382503 0.001197935987748009 0.9973858984981019 0.007444553078891017 0.9916402214566609 0.0005643520509886633 0.0003508734134594776 0.003913763117585138 0.003083483165964345 0.9914830846811652 0.001519669035285282 0.9992657361488001 0.0006266073452698737 9.194051436285743e-05 1.571599156716215e-05 0.00356251205405236 0.0006593495639135361 0.0005979939777437568 0.9951801444042904 0.003305625581561568 0.9913577355377974 0.0001999836410731078 0.005136655239567971 0.9943610821974744 0.001706766448106036 0.003912781358144406 1.936999627514743e-05 0.0004700114917664145 0.0008310947328494286 0.9985897632909043 0.0001091304844798239 0.009762536659056784 2.938183784311779e-06 4.430097211946385e-06 0.990230095059947 0.9904564166436108 0.009406330524756645 9.121071133661474e-05 4.6042120295873e-05 0.00825481962774584 1.863701928451325e-05 0.9915919156733569 0.000134627679612677 0.003800824824973496 0.9921005499489732 0.001449118935696286 0.002649506290356974 0.00195559801738179 0.001876433537614431 0.002396461131073841 0.9937715073139299 0.9954038904409428 0.004059862409029853 0.000355790220208334 0.0001804569298190576 4.580585933048193e-05 0.9987592169116399 9.529771142494407e-05 0.001099679517604614 0.0003647410960356383 3.309212730082875e-05 0.9979002820283622 0.001701884748301321 0.9972451749304987 0.001656152005140445 0.0008131657045768658 0.0002855073597839456 0.001741548052319006 0.9900732664173679 0.0005543585694590178 0.007630826960854086 0.002678665325408327 0.004668160651926345 0.9913052623176016 0.001347911705063665 0.002739352121011303 0.00202116375057425 0.004530592522344899 0.9907088916060696 0.9982163128460162 0.0005925886032363651 0.001168123627200743 2.297492354670465e-05 0.005416328272363029 0.9945485028387788 1.605392271173794e-05 1.911496614640402e-05 0.001497475076426613 0.0001086413007395381 0.001561663469463796 0.99683222015337 0.004707682943745003 0.002138377348967737 0.9927688409797173 0.0003850987275700224 0.9962599274585614 0.003622187018459729 6.697173858387646e-06 0.0001111883491204404 3.846250867363534e-05 9.351549791367568e-05 0.9998510249281287 1.699706528392581e-05 0.006411090990390943 0.9931166487687642 0.0001508964958643506 0.0003213637449805077 0.002698758871546444 0.002908828553787712 0.0005698115036244364 0.9938226010710414 0.9909761339842084 0.002880255154607924 0.002109671256830872 0.004033939604352796 0.0001773252372463728 8.294822250167028e-05 0.9997324417439784 7.284796273592968e-06 0.006472016679532254 0.0001484299158834523 0.0003342423345984347 0.9930453110699858 0.005112812716170675 0.990088634760385 0.0002427505348639395 0.004555801988580347</probabilities>
		</cpt>
		<cpt id="V7">
			<state id="State0" />
			<state id="State1" />
			<state id="State2" />
			<state id="State3" />
			<parents>V6</parents>
			<probabilities>0.9972822477255071 0.001454205789167532 0.001034716924134883 0.0002288295611904488 0.001708870199789106 0.9972822477255071 0.0001970081162598718 0.0008118739584438866 0.0008748793362593212 0.0004393102475269086 0.9972822477255071 0.001403562690706634 0.0002988596378993479 0.001485249304577594 0.000933643332015922 0.9972822477255071</probabilities>
		</cpt>
		<cpt id="U5">
			<state id="State0" />
			<state id="State1" />
			<state id="State2" />
			<state id="State3" />
			<probabilities>0.8276902368182164 0.1635235378873738 0.008786225294409609 5.231885539437595e-24</probabilities>
		</cpt>
		<cpt id="V8">
			<state id="State0" />
			<state id="State1" />
			<state id="State2" />
			<state id="State3" />
			<parents>V7 U4 U5</parents>
			<probabilities>0.9967583981258156 0.003136038548260468 7.477055839109481e-05 3.079276753283532e-05 0.005510241893360234 0.9941710007042119 0.0001517477042717662 0.0001670096981560499 0.001788998740658792 0.001514253687024948 0.9929331715528273 0.003763576019488938 0.001027247448630569 0.006515227609107873 0.001104639322051436 0.9913528856202101 0.9996916140689008 0.0002916515132736482 3.457720115615867e-06 1.327669770990584e-05 0.002331873129234229 0.9965058219673407 0.0007340138627031077 0.0004282910407219934 0.007822954254746765 0.0009004891239914453 0.0002133137047686626 0.9910632429164932 0.002111672858773705 9.693041504641566e-05 0.9977843295471498 7.067179030028831e-06 0.996009792698565 0.001531782749329846 9.131955500374501e-05 0.002367104997101356 2.924129321138704e-05 0.0001925158497560352 0.999627459515304 0.0001507833417286622 0.002342978965981741 0.9975321293197418 8.587831472404123e-05 3.901339955249363e-05 0.003570465528398796 0.000645747390575427 0.0005057818008165513 0.9952780052802093 0.9939836270342807 0.001518370497869838 0.001323589442680757 0.003174413025168748 0.003203364753785316 0.0005959198881437274 0.9922379663398088 0.003962749018262181 0.001509405060270785 0.0005040042575030716 0.003047522465748503 0.9949390682164776 0.001332397386460351 0.9974164400421802 0.000869955803017841 0.0003812067683415569 0.998803016940459 0.0003770148360724116 0.0002686134516388367 0.0005513547718296721 0.002171310023094091 0.000388999172535931 0.002164380035059692 0.9952753107693103 0.003540685945070098 0.9934797591494597 0.001225942003039944 0.001753612902430247 0.002308814980738477 2.562628990223885e-05 0.9973495523538716 0.0003160063754877063 0.9957152145736672 0.003992669098838515 0.0001709964421472937 0.0001211198853469744 0.005100939569112659 0.003784351398587208 0.0006380949603106167 0.9904766140719895 0.002602444477830911 0.001840687166012094 0.9946926715966068 0.0008641967595501504 0.004716850434236147 0.991343037079483 0.002178962543400724 0.001761149942880117 0.00378870243542118 1.555102607444191e-05 0.0001572613408039959 0.9960384851977003 0.003231972667974945 0.0008278876418759821 0.9953864722627584 0.0005536674273906794 0.0005743998194303659 0.9993796271829691 2.489790913253573e-05 2.107508846792595e-05 0.9970489418113351 0.0005256270485812502 0.0003143708408136562 0.00211106029927003 0.0006455218880225056 9.032474930675034e-06 4.80609248089388e-05 0.9992973847122378 0.005154596116586948 0.0004421975810741449 0.9913250874859293 0.003078118816409616 0.9991391432813672 0.0008258684375135751 4.890063793206358e-06 3.009821732603059e-05 8.248375978143623e-05 0.9996154122744522 0.0001982169460549675 0.0001038870197114343 0.001328506302193667 0.00351292863251404 0.00100273741586802 0.9941558276494242 0.0006387898462451118 0.9972113565312117 0.001079615578439287 0.001070238044103841 0.001537343568109391 0.0003267917139009347 0.9962655015497017 0.001870363168287969 0.9959340191279251 0.002174170617194909 0.000865327889462116 0.001026482365417892 0.001465234224331984 0.0004390833866930765 0.0009702446599879617 0.997125437728987 0.000167304336790531 0.9903374104856797 0.0001879693344812961 0.009307315843048483 0.9992076089494843 0.0007917179281348866 6.696103235236932e-07 3.512057231439001e-09 0.005687743718236322 0.003295074714090504 0.9901813988397719 0.0008357827279012781 0.00399147381913588 0.003515101548709644 0.002262234284895289 0.9902311903472591 0.9950827301001752 0.0004693252993028218 0.00298729784878803 0.001460646751733976 0.006279214551060779 0.0005343007725039227 0.9931245431359151 6.194154052015471e-05 0.001352766520968786 0.9985095151447827 8.612638170530898e-05 5.159195254316388e-05 0.0009290599573450671 6.703638967894467e-05 0.001740319011906039 0.9972635846410699 0.9964975374959804 0.002465562018656267 0.0001865610545752999 0.0008503394307881019 0.002564563456995246 0.9947482307810686 0.0022432954955226 0.0004439102664136282 0.003059250484111808 1.493456444877657e-05 0.995420613329788 0.001505201621651402 0.997683454860823 0.0008129678419676423 0.0008098156256477821 0.0006937616715615764 0.0002733717052317575 0.9956848133355968 0.002950066882066536 0.001091748077104948 0.00711945908358183 0.0005564548892402771 0.9907076720025446 0.001616414024633318 0.001238360189900221 0.0005514928784362029 0.0003260197638656306 0.997884127167798 0.9998878001169302 1.337481309896745e-05 1.941807604571322e-05 7.940699392504283e-05 0.002530746557844576 0.9952684595746196 0.001375474850142675 0.0008253190173931129 0.002456691032878084 1.709572548970908e-06 7.835867649081397e-05 0.9974632407180821 0.006755132675769005 0.0001303820758566933 0.9926757989085447 0.0004386863398296122 0.9941970057622211 0.001059813107860984 0.004702781320153541 4.039980976436579e-05 0.0005753475164541595 0.002605220722978517 0.9953179396601435 0.001501492100423838 0.0008377598779553625 0.996114189571939 0.0002702696471664708 0.002777780902939179 0.000934077638071063 0.001622692300997913 0.001953409533825691 0.9954898205271053 0.9995551141515591 0.0004254449954856743 4.273393424511922e-06 1.516745953074731e-05 0.002600001597068771 0.0005644269370651332 0.9968354795135449 9.19523212477083e-08 0.001552533236399078 0.0001947882435804309 3.194503639190909e-05 0.9982207334836286 0.005978407265588007 0.9925146881761157 0.0002934757411085838 0.001213428817187745</probabilities>
		</cpt>
		<cpt id="V9">
			<state id="State0" />
			<state id="State1" />
			<state id="State2" />
			<state id="State3" />
			<parents>V8</parents>
			<probabilities>0.9906065343174396 0.003130544679198198 0.003641586633535114 0.002621334369827027 0.005810315883128432 0.9906065343174396 0.001810002412704882 0.001773147386727024 0.009354191597579255 4.992292108580359e-06 0.9906065343174396 3.428179287250317e-05 0.00683769303785154 0.0007534958153236783 0.00180227682938512 0.9906065343174396</probabilities>
		</cpt>
		<cpt id="U6">
			<state id="State0" />
			<state id="State1" />
			<state id="State2" />
			<state id="State3" />
			<probabilities>2.130888252127827e-06 0.4052688351314032 4.639301525978472e-48 0.5947290339803448</probabilities>
		</cpt>
		<cpt id="V10">
			<state id="State0" />
			<state id="State1" />
			<state id="State2" />
			<state id="State3" />
			<parents>V9 U5 U6</parents>
			<probabilities>0.9963205958469565 0.001015542807532767 0.001618019667915772 0.001045841677594913 0.004537033117027817 0.9938638220863647 0.0008792172704093384 0.0007199275261981042 0.004438224078944689 0.0005930463777305038 0.9949364382808484 3.229126247632479e-05 0.005111288911111388 0.0005107748334540356 0.001036669436470135 0.9933412668189644 0.9985109862513166 0.0007974820397418427 0.0005166467640294893 0.0001748849449120958 0.006399133737425223 0.9929420359117875 0.0006017714207602209 5.705893002697353e-05 2.701849781028546e-05 1.502368497595421e-05 5.974027031939582e-05 0.9998982175468943 0.00150223763063774 0.006545853645304735 0.9916585133578133 0.0002933953662441731 0.9956196959363716 0.00153635376833191 0.001105549785549555 0.001738400509746936 0.003542520494148968 0.001188869104963494 0.9941156134845487 0.001152996916338826 0.009113468468508152 0.9907161610042211 9.362061327790197e-05 7.674991399280904e-05 0.002978567300634089 0.001494061253143947 0.001521529259426773 0.9940058421867952 0.997265451400063 0.002213919472304294 0.0004725384222955418 4.809070533722096e-05 0.001493834222742761 0.0004035434554350552 0.9978508639243344 0.0002517583974877395 0.005346168413598767 0.002403135910831455 7.091171103103125e-05 0.9921797839645388 0.001880161825852199 0.9965347160606505 0.0007229764201801757 0.0008621456933171446 0.9931008294600849 0.003282886942486003 0.001431604722479244 0.002184678874949782 0.002714692190467526 8.923658556990562e-05 9.08562553570355e-05 0.9971052149686055 0.001721611509587013 0.9904999332110498 0.006958634149479895 0.0008198211298833247 0.0001250754044702948 0.005390976823357475 0.9911627511851644 0.003321196587007805 0.9995366676006645 0.0003541510167595091 2.686862797726434e-05 8.231275459868312e-05 0.001840466224785169 0.0008780679828384977 0.0009848368773925742 0.9962966289149837 0.0001628189078559267 0.00129184094707957 0.9981599250530687 0.0003854150919957999 0.0007260490698390692 0.997900127613962 0.0008528273914657034 0.0005209959247332926 6.121492415478544e-05 0.001697539357713075 0.001774290245100872 0.9964669554730312 0.001526169263153735 0.0001753290614020626 0.9980477071336241 0.0002507945418200631 0.008236588555020019 0.9908515074230488 0.0002301189984172021 0.0006817850235139387 0.9979851209219177 0.0006704765212917339 5.915001707809167e-05 0.001285252539712436 0.0006270436302362221 0.00906755244890272 1.250358955186444e-05 0.9902929003313092 0.001988328939426869 0.006182215702566596 0.9917046814764743 0.0001247738815322074 0.9929986641013535 0.005678844245449164 0.0006584203396941212 0.0006640713135031878 0.00221016474685458 0.9975562386244453 0.0002303968513749932 3.199777325117367e-06 0.001706076419952968 0.004884503485716918 0.0003027900649013896 0.9931066300294287 0.001567767136081652 0.9965147709850566 0.0004696833099775173 0.001447778568884253 0.006410975911362541 1.91254532494782e-05 0.9935357026759274 3.419595946054535e-05 0.9943831713068414 0.004595323572101806 0.0007265659540278953 0.0002949391670288898 0.002194718563949961 0.003742305046952474 1.560484317128389e-05 0.9940473715459263 0.0007224206931694267 0.9989377196022337 0.0002551970617430114 8.466264285395382e-05 0.9942355268763513 0.005577279361180711 9.518035092892627e-05 9.201341153901017e-05 0.0008658591507252007 0.001067171692058983 0.9966655124466436 0.001401456710572263 0.0005942396265298116 0.001379498267394906 0.0005461557814454366 0.9974801063246298 0.99115176501284 0.00824527942234466 0.0001279323611827211 0.0004750232036326232 0.0002075238382619822 0.007175839734371471 0.9907586498747125 0.001857986552653985 0.001446970342969547 0.9970165834418511 0.0006087047344380577 0.0009277414807413412 0.002202393328113559 0.0003065190101541647 0.00310770763027314 0.9943833800314591 0.9931875301263422 0.001381299600108172 0.0002065483567413114 0.005224621916808369 0.00037649520020594 0.9993387605919972 9.555158399892141e-05 0.0001891926237979714 0.001385967116792889 0.004600501843728426 0.9916645012358724 0.002349029803606349 0.9996444723020647 0.000239512587806878 9.713834314271774e-05 1.887676698571486e-05 0.000240594570036104 0.9906802606736319 0.002318915235659671 0.006760229520672357 0.0001513655242103704 0.001473581898252979 0.9981578157860621 0.0002172367914745187 0.003352657988118807 0.002487654249738092 0.0008749809253372413 0.9932847068368058 0.992455074560218 0.003281800065251767 0.003936312697350734 0.000326812677179481 0.001393900136835125 0.9913192226760135 0.0006953434890404613 0.006591533698110926 0.008871740383270214 0.0008750987801681237 3.871457931608373e-05 0.9902144462572455 0.002368507246547756 0.0005891054377429757 0.9922702857627347 0.0047721015529746 0.9982453859163957 0.001745448166952608 6.010802049660485e-06 3.155114602034166e-06 0.002927697776229123 0.00184540831544844 0.9908144782328208 0.004412415675501649 0.00408674254085883 0.9915602210274405 0.001749790290362548 0.002603246141338156 0.0003851117554650317 0.002150692266908396 0.0004426128348900701 0.9970215831427365 0.9943681636599128 0.0005253584047545576 0.00021248087147452 0.00489399706385819 0.00201257261761781 2.119668635680537e-05 0.9966278449859394 0.001338385710085987 0.002569807908745155 0.0002021790334372249 0.004046026364910135 0.9931819866929075 0.000256642223983494 0.9993493992500122 0.000125653824980936 0.0002683047010233686</probabilities>
		</cpt>
		<cpt id="V11">
			<state id="State0" />
			<state id="State1" />
			<state id="State2" />
			<state id="State3" />
			<parents>V10</parents>
			<probabilities>0.9917892189904629 0.005399843248404619 0.002147959275860841 0.0006629784852716473 0.003441301821512941 0.9917892189904629 0.001902212157398763 0.002867267030625404 0.006081534497509063 0.001181091492446069 0.9917892189904629 0.0009481550195819752 0.004302847538640515 0.0009926867832819901 0.002915246687614602 0.9917892189904629</probabilities>
		</cpt>
		<cpt id="U7">
			<state id="State0" />
			<state id="State1" />
			<state id="State2" />
			<state id="State3" />
			<probabilities>0.3979327707576287 5.490681231118564e-05 4.131740748795785e-09 0.6020123182983192</probabilities>
		</cpt>
		<cpt id="V12">
			<state id="State0" />
			<state id="State1" />
			<state id="State2" />
			<state id="State3" />
			<parents>V11 U6 U7</parents>
			<probabilities>0.9979813308483522 9.229729327849378e-05 0.001674725998614276 0.0002516458597551119 0.002137074158969609 0.9944021735346094 0.0008766350138527015 0.002584117292568364 0.001308682731675141 0.0001568255917003686 0.9984441384956906 9.035318093392157e-05 0.0007136627914138498 0.0005232923400039185 0.0009633611176387436 0.9977996837509435 0.9944761629046937 0.002869570347290469 0.002540218151864621 0.0001140485961512124 0.002210991601275488 0.9942161249278427 0.003372195600046675 0.0002006878708351537 0.006396381740435539 0.0004422149314855109 0.0004972025235878488 0.9926642008044911 1.505682318209475e-06 8.059015527035011e-06 0.9999856298009694 4.805501185415462e-06 0.9954674323370859 0.00206147966130152 0.001241241026181515 0.001229846975431107 0.00106279820046193 0.0004902487322107682 0.9902196362326618 0.00822731683466549 0.0002428125684884153 0.9997327449289589 1.61764477014139e-06 2.282485778250037e-05 0.00182920729472397 0.003937623007709072 0.0009511393328193313 0.9932820303647476 0.9987627595670193 0.0008339194134814396 0.0002133648347496546 0.0001899561847495499 0.002963912962972048 0.001801747413236576 0.9923601138208665 0.002874225802924821 0.002536244203205153 0.0003167612021646132 0.0002428608474513454 0.9969041337471789 0.0005301658122836551 0.9977808108134918 0.0009751723233931011 0.0007138510508313962 0.9974340188078352 0.002565517664984178 1.562852112257043e-07 3.072419694141755e-07 0.003465360799982968 0.002869090516842095 0.002694394099711136 0.9909711545834639 0.003197760028900448 0.9939971492916725 0.002167743865849383 0.0006373468135777004 0.009452560291986479 2.741463608127073e-06 0.9905445143188759 1.839255294344866e-07 0.9986634918983025 0.0001058492030582385 0.0002568338466198643 0.0009738250520193739 0.003434036558527225 0.001349604066065794 0.0004746530609561841 0.9947417063144508 0.0007100808862716828 0.001277757721768419 0.9960886332271556 0.001923528164804288 0.001073124379781037 0.9908435930519583 0.005618550897421145 0.002464731670839487 0.007407078752559231 0.0001093866743766596 0.0005678593625969983 0.9919156752104671 0.00303843955246046 0.0002133406544482135 0.9953517076475532 0.001396512145538147 0.001010325047545075 0.994115033142285 0.001310461305752902 0.003564180504417027 0.9975378129472166 0.002047904145045451 0.0004022352106332836 1.20476971047151e-05 0.0004907615759314954 0.001269744873772555 0.0003453531822900746 0.9978941403680058 0.0009289376307203033 0.001124531268049241 0.9979360172645264 1.051383670409725e-05 0.9921622227943604 0.003176022867214705 0.00360546037672019 0.001056293961704765 0.0001432710999490515 0.9994006315926526 0.0003988601047147536 5.723720268356537e-05 0.001157172184668782 0.001286670411824318 0.001246978639240106 0.9963091787642668 0.001567112029723188 0.9976277353433991 0.0002898473619171496 0.0005153052649606023 0.0004863023851035258 0.0001175120886371702 0.9993830149279082 1.317059835118647e-05 0.9926559195211697 0.004331470733739565 0.0002810291199307453 0.002731580625160022 0.002912132665756756 0.004020047540146214 0.001043218915520058 0.992024600878577 0.002342025938459302 0.9969461555914754 0.0005038660251062238 0.0002079524449591464 0.9907950079723267 0.007467083347088276 0.0003698371474821809 0.001368071533102826 0.002061549734607014 0.0003937658692710465 0.996755236386904 0.0007894480092179327 0.006662363303644183 0.001115975463463092 0.0001412182181971683 0.9920804430146956 0.9952591090994207 0.003686459175580186 0.0004199178551807631 0.0006345138698183317 0.0002084502998979832 1.688086256644443e-08 0.9997845047281384 7.028091101044709e-06 0.005449711396954278 0.9901614222177483 0.002569657442254958 0.00181920894304252 0.0006753366209531885 0.00112490280976861 0.0007938396286093863 0.9974059209406688 0.9935501656450907 0.004622564320440424 0.001398464268051688 0.0004288057664172033 0.001956540773242633 0.9975637687311806 8.509851131648299e-06 0.0004711806444451518 0.004700246831278964 0.003055216460192784 0.9915906218691358 0.0006539148393924069 0.9950146782496095 0.002731143760121496 0.0007619266383125182 0.001492251351956452 0.0001732113943910483 0.9966348757470607 0.0008055280907510944 0.00238638476779723 0.001281746354396594 5.321059532855352e-05 0.9985892450179572 7.579803231769147e-05 0.0006414486055527606 0.001712316221652137 0.005421756482723021 0.9922244786900721 0.9931569518378043 0.001380977120904365 0.004483390886164098 0.0009786801551272531 0.002747866718097814 0.9943230599795089 0.002603407105714869 0.0003256661966784375 1.569606548294553e-05 0.000128487244954162 3.383606999906094e-05 0.9998219806195638 0.002177225708603423 0.0002566056881665597 0.9972925548125201 0.0002736137907099149 0.9963993404025876 0.002548892187136816 0.000307147784986436 0.0007446196252891861 0.0001096013885620895 0.001819224188163239 0.9959693457154278 0.002101828707846829 0.002504168126456036 0.992797123605235 0.002055802929590447 0.002642905338718499 0.007995415412425447 0.0001323876943995186 0.0003850697312050563 0.99148712716197 0.9963861367127872 0.0002015781461597448 0.001100182957352546 0.002312102183700474 0.003184599656929469 0.001034664233833873 0.9957683326167511 1.240349248553783e-05 0.001537635133731211 0.004427096600394102 0.00358227835313635 0.9904529899127383 0.0001544320328915095 0.9995693854162192 6.981050197231312e-06 0.0002692015006920254</probabilities>
		</cpt>
		<cpt id="V13">
			<state id="State0" />
			<state id="State1" />
			<state id="State2" />
			<state id="State3" />
			<parents>V12</parents>
			<probabilities>0.9979770173824649 0.001759608769897448 0.0001216539610057391 0.0001417198866319116 0.0004672089599431499 0.9979770173824649 0.0001034018087752257 0.001452371848816723 0.001762314296119674 0.0001036003956391098 0.9979770173824649 0.0001570679257763152 0.001061632077469697 0.0005202136997454079 0.0004411368403199932 0.9979770173824649</probabilities>
		</cpt>
		<cpt id="U8">
			<state id="State0" />
			<state id="State1" />
			<state id="State2" />
			<state id="State3" />
			<probabilities>0.3024307146584953 0.0002702921763337803 0.6972989931651702 8.45131404774054e-16</probabilities>
		</cpt>
		<cpt id="V14">
			<state id="State0" />
			<state id="State1" />
			<state id="State2" />
			<state id="State3" />
			<parents>V13 U7 U8</parents>
			<probabilities>0.993532822041306 0.002480932425346248 0.002492562808817014 0.001493682724530782 5.451168000242212e-05 0.9978618835341732 0.001265175198747723 0.0008184295870767235 0.0004188925976238545 0.0008644058568004756 0.9980911699025559 0.0006255316430198487 0.005399148936387038 0.002048013372303914 0.002441094455226512 0.9901117432360825 0.992417974392496 0.0009898175289300502 0.00148444536783607 0.005107762710737855 0.002019190256049686 0.9951712383433557 0.001474513857370316 0.001335057543224257 0.000428273513011246 0.0003692124559566544 0.0005690931019286282 0.9986334209291035 0.005350622775709386 0.0008967308454100342 0.9909367908477623 0.002815855531118274 0.9971911965668696 0.0003211381434825235 0.001930410434110295 0.0005572548555375985 0.001913113769007811 8.282993137593659e-06 0.9980425886289653 3.601460888928174e-05 0.00202319270580436 0.9976047055741687 0.0001693922658429357 0.0002027094541840044 0.001825475584614036 6.817210714932394e-05 1.998259253944003e-05 0.9980863697156972 0.9974548043753793 0.002086450952802462 0.0004173516439281636 4.139302789008464e-05 0.001900450585297328 0.0002784473623384253 0.996803204233015 0.001017897819349175 0.002126777443275065 0.0009313193510562632 0.002688206392999982 0.9942536968126687 0.002877520497175504 0.9949830939051676 0.001846983724037169 0.0002924018736196825 0.9903337273532528 0.005557024056083045 0.001889937965260084 0.002219310625404127 0.0001528832426973476 0.0001274287516665695 0.000217427896494054 0.999502260109142 0.001424402429230249 0.9915232700223396 0.002964152767009379 0.004088174781420782 0.0003744712709168547 9.648797723132018e-05 0.9995092526231203 1.978812873154954e-05 0.9922869143905783 0.001660090882443415 0.0007786300628757191 0.005274364664102566 0.0003763752260166058 0.0003477041512452972 0.0001672931534251839 0.9991086274693129 0.00394071472638282 0.0004635049053202489 0.9929487938303568 0.002646986537940075 0.001743961359121305 0.9944064358241729 0.003259024295276082 0.0005905785214297471 0.0003086288685069089 0.0009878104743251798 0.0007072206472198274 0.9979963400099481 0.001402255016235343 0.003593456644907231 0.9944103191321695 0.0005939692066879642 0.002182329442343161 0.9969844351916192 0.000644931204026676 0.0001883041620109798 0.9923665045401533 0.007116993586905439 2.826111934430268e-06 0.0005136757610068531 0.0007503599161826021 0.0002202190845581339 0.001737322455741978 0.9972920985435173 0.001526100765176403 0.001100904968572051 0.9973482723662139 2.472190003762766e-05 0.9972584587390231 0.001452000153951585 0.0007064812347900995 0.0005830598722352641 2.6530203473764e-05 0.9997222816520124 0.0001562566543261815 9.493149018772659e-05 0.0007082061137300324 0.001256610327712745 0.001031205805416799 0.9970039777531404 0.00043425872437503 0.9985398842515517 0.0006910107906918075 0.0003348462333814209 0.003858655763826644 0.001993148312945173 0.9936736885319853 0.0004745073912427989 0.9961573199134721 0.003680118557519887 0.0001555288765632736 7.032652444745931e-06 0.0003189065287240352 0.006136637648095349 0.003510615452637606 0.990033840370543 0.001641761508496963 0.9910560768931813 0.001680121022881701 0.005622040575439974 0.9939280645720839 0.004810217774832264 4.893501674261446e-06 0.00125682415140953 0.004887542426772853 0.001064216542844895 0.9907452689511589 0.003302972079223354 0.0007469375078204524 0.001706790874237229 7.36469595954462e-05 0.9974726246583469 0.9904341142847325 0.003529208796940047 0.005818700375698806 0.0002179765426286165 0.001104241532949919 0.0005163222767081595 0.9979546144032148 0.0004248217871271691 0.002927856026536215 0.9960863263915889 0.0008121031045473991 0.0001737144773274608 0.002886049281498691 0.0004852543221086357 2.06965104621824e-05 0.9966079998859305 0.9938558253806101 0.002165161089808537 0.002432408464977479 0.001546605064603832 0.0005092001960102563 0.9986006340139123 0.0008462499647215061 4.391582535588146e-05 0.001892953579404388 0.001635073541354919 0.9951344901166752 0.001337482762565501 0.9909969668933302 0.00431281506943011 0.001494882221119754 0.003195335816119919 0.0005312409642875222 0.9933507597981827 0.004733816077560121 0.001384183159969684 0.001203902711862936 0.001315162928314379 0.9957951226629185 0.001685811696904164 0.004787395430228229 0.0009315034615320713 0.0005128075367230685 0.9937682935715166 0.9913874209661764 0.006599024386033633 0.002011170344203814 2.384303586192883e-06 0.0006856303452148512 0.9961085452741083 0.003175410475900281 3.041390477651279e-05 0.001420644812522598 0.0004090101316962192 0.0001791143406272241 0.9979912307151539 0.003543530326509504 0.002070046775857147 0.9907099645962543 0.003676458301379053 0.9951382115041219 0.003697675022237234 0.0005066945860605914 0.0006574188875803346 0.006026636323655416 0.0003491135164322276 0.9920971722259505 0.001527077933961899 0.001760102251775277 0.9949552964119069 0.002652767013859873 0.0006318343224578568 0.004760504498434757 0.001713827174319811 0.0003350186925460833 0.9931906496346994 0.9949649281308234 0.0009473548090762086 0.003792545617357909 0.0002951714427425582 0.003811776071211994 0.004453383973085657 0.991014954337512 0.00071988561819036 0.001238877114638864 0.004935204349033802 0.0006327013279804564 0.9931932172083469 0.002591395625730981 0.9952024199313129 0.0004728549971200888 0.001733329445836027</probabilities>
		</cpt>
		<cpt id="V15">
			<state id="State0" />
			<state id="State1" />
			<state id="State2" />
			<state id="State3" />
			<parents>V14</parents>
			<probabilities>0.9916742984989887 0.004543894085986696 0.003058631692311215 0.0007231757227133821 0.0002079606366871038 0.9916742984989887 0.00715606840262909 0.000961672461695099 0.001974422441033776 0.005340439637054491 0.9916742984989887 0.001010839422923026 0.006325952318487097 0.0005261005730153006 0.001473648609508895 0.9916742984989887</probabilities>
		</cpt>
		<cpt id="U9">
			<state id="State0" />
			<state id="State1" />
			<state id="State2" />
			<state id="State3" />
			<probabilities>0.9995749725629419 0.0004247540027443811 1.585955428600987e-127 2.734343136446558e-07</probabilities>
		</cpt>
		<cpt id="V16">
			<state id="State0" />
			<state id="State1" />
			<state id="State2" />
			<state id="State3" />
			<parents>V15 U8 U9</parents>
			<probabilities>0.9972874302678615 0.001256143331148883 0.0008313384613486771 0.0006250879396409351 0.002357276711101858 0.996565268241323 0.0001524382059179222 0.000925016841657303 0.0051498598579766 0.002124304275776278 0.9922786916735853 0.0004471441926618197 0.007658567804331835 0.0001728707264386747 0.0006737001030697972 0.9914948613661597 0.9988844495725264 0.0001832340549072232 0.0007101388623461301 0.0002221775102202428 0.004712616143510132 0.9906827087352441 0.003922867372002729 0.0006818077492429988 0.0005121023802249186 3.927941856472281e-05 8.432643828005064e-05 0.9993642917629303 0.0009005899115561565 0.0005699131625002057 0.9978683593152629 0.0006611376106807674 0.9997896314477678 0.0001232769322579494 5.565631655923741e-05 3.143530341498729e-05 0.001231972372770794 0.001166716343923356 0.9970183689499197 0.0005829423333861413 0.002538543979105418 0.9945061994137123 0.002233016771339446 0.00072223983584276 0.000609388896680144 0.004691628800641208 0.0005874568625446079 0.994111525440134 0.9957324173264316 0.002469805243742487 7.353547762130402e-05 0.001724241952204645 0.002262561461068991 0.005007221865007148 0.99047292421632 0.002257292457603761 0.0001804731392599418 0.0008679639806764742 0.0002240950725135741 0.9987274678075501 0.004834193172711822 0.9924109572477419 0.001894733209683585 0.0008601163698627025 0.9983318553974294 0.001295867949545733 0.000133043668453603 0.0002392329845712898 0.001890232183491204 0.005312393133130298 0.0008577071416913358 0.9919396675416872 0.001824371190372945 0.9912955080260092 0.002468760048186009 0.00441136073543185 0.0005557282989425822 0.0003888509227825036 0.999006594836837 4.882594143800791e-05 0.9931748158387081 0.001377837885959248 0.002526148091555225 0.002921198183777345 0.003060934038156936 7.527971802586531e-05 0.003136423161504682 0.9937273630823125 0.003365028146382111 4.718795053566948e-05 0.9918471191285163 0.004740664774565934 0.0006762224892907748 0.9950499532001476 0.001513331424366955 0.002760492886194718 0.0004154511283062289 0.0007271689083863803 0.004440210113094128 0.9944171698502132 0.002264004041907859 0.007266988985236357 0.9902243221339215 0.0002446848389342721 0.001465826140138121 0.9948214367914523 0.003040416955506958 0.0006723201129026518 0.9961265334138741 0.0002050642130655596 0.001884071343228001 0.001784331029832337 0.004379423155050985 0.002551921620921281 0.00197080417928376 0.991097851044744 0.002977724708832404 0.0007112387588659116 0.9937709661129147 0.002540070419386986 0.9989831141294061 0.000294285680281918 0.0004456838724600339 0.0002769163178519768 0.0002286900338847213 0.9955628352261827 0.00362176211534166 0.0005867126245908674 0.00255126263866061 0.0003241061117964405 5.862426100479938e-05 0.9970660069885382 0.004443173219818064 0.9908440761311899 0.003774423648609592 0.0009383270003825118 0.00260068870906445 8.778954483594327e-05 0.9970983659575177 0.0002131557885819138 0.9979431995282313 0.001121659540875692 0.0004816329352171919 0.0004535079956758566 0.00638364012863202 0.0009087614140277499 0.0001828574772013215 0.9925247409801389 0.001573680581342331 0.9984026516703075 4.452541419054321e-06 1.921520693106323e-05 0.9989702866142743 0.0009887978755742097 3.479906878200044e-05 6.116441369463256e-06 0.00668048957288287 0.001019257711882167 0.9917145859223202 0.0005856667929147145 0.002538485540078033 9.177427866833964e-05 0.002394717459330061 0.9949750227219236 0.9914047770714558 0.0003672722863635348 0.007442237371259087 0.0007857132709216223 0.006072555376620084 0.0002847109913179605 0.9914069748526623 0.002235758779399689 0.0009376950608052743 0.9980008104134412 1.843423960311473e-05 0.001043060286150358 0.001392693003792171 7.394026014483003e-05 0.000123010303313306 0.9984103564327497 0.9973574549945252 0.001471742381740644 0.0003434293965802657 0.0008273732271538549 0.0002462309689624536 0.9939870424502395 0.003414239495569088 0.002352487085228969 0.001318039464380762 0.001305531937366473 0.9960481040108482 0.001328324587404536 0.9999136176220262 7.25135819703055e-06 7.747630603657518e-05 1.654713740132543e-06 0.00236574568113286 0.9969210808795362 0.0004091034581726537 0.000304069981158293 0.005117608218634184 0.001693141627356041 0.991063794992035 0.002125455161974809 0.005237513725038862 0.003358799278948124 0.0006800726130091919 0.9907236143830038 0.9907177934476528 0.006607963405731766 0.000646364338398372 0.002027878808217127 0.0003531923399474276 0.9995109046030828 2.243010261390921e-05 0.0001134729543559305 2.327370020768948e-05 0.0001129080589299303 0.0001335818361479839 0.9997302364047144 0.001069650485563402 0.002567666094552595 0.9942027029021867 0.002159980517697308 0.9934364382633114 0.005886949436442664 1.169772504456519e-05 0.0006649145752013984 0.0003655346949641675 0.0002602825583101276 0.9985426767831805 0.0008315059635452199 0.0008330581193677534 0.9984473324736776 0.0003179051903434288 0.0004017042166112398 0.008886090387688285 0.0005749020482314739 0.0003782367595029186 0.9901607708045773 0.9930541635629174 0.001294340297163011 0.003029115685325808 0.002622380454593725 0.001684143339680344 0.001329928117532479 0.9967648276529574 0.0002211008898298343 0.0006496312785831628 0.0001599112977284122 0.0001841253073576586 0.9990063321163307 0.001018235023124322 0.9938077071072204 0.003704223783839027 0.001469834085816251</probabilities>
		</cpt>
		<cpt id="V17">
			<state id="State0" />
			<state id="State1" />
			<state id="State2" />
			<state id="State3" />
			<parents>V16</parents>
			<probabilities>0.9948662485414694 0.002566521641731284 0.001408518025493577 0.001158711791305693 0.0021577219147679 0.9948662485414694 0.001108301186903663 0.001867728356858991 0.004165377389191947 0.0006499068952425973 0.9948662485414694 0.0003184671740960098 0.005018056061431959 0.0001033265249654689 1.236887213312631e-05 0.9948662485414694</probabilities>
		</cpt>
		<cpt id="U10">
			<state id="State0" />
			<state id="State1" />
			<state id="State2" />
			<state id="State3" />
			<probabilities>0.0112680476174503 2.717736728040541e-07 0.8839593874100566 0.1047722931988202</probabilities>
		</cpt>
		<cpt id="V18">
			<state id="State0" />
			<state id="State1" />
			<state id="State2" />
			<state id="State3" />
			<parents>V17 U9 U10</parents>
			<probabilities>0.9978687903517086 0.001386555746381373 0.0004397789126864499 0.0003048749892235951 2.289993389944479e-05 0.9998820658166256 3.311091164906821e-05 6.19233378257934e-05 0.0004438833135406844 0.00164351080966024 0.9923477001682383 0.005564905708560872 0.007319978844146894 0.001055998181975311 0.0008160672213367974 0.990807955752541 0.9901914151384549 0.001980025711976791 0.0006761925331346089 0.007152366616433772 6.710022476324063e-05 0.9983245322049201 0.0002150475325845679 0.001393320037732025 0.007012950877482453 5.720316339864914e-05 0.0008045165042596532 0.9921253294548592 0.001395333445562037 0.001942863008404934 0.995456050561203 0.001205752984829992 0.9960660849995602 0.002325483419614812 9.791575804167462e-06 0.001598640005020858 0.0005942168422746488 5.627101685299012e-05 0.9992728306479164 7.668149295601075e-05 0.00649208199161031 0.9931489046495549 1.146289250415777e-05 0.0003475504663306566 0.003942185679415073 9.515391740749947e-05 0.001414230815546345 0.9945484295876311 0.9995086823476823 0.000113086497877413 0.0002813918907195961 9.683926372064622e-05 0.0007594397986646392 2.74323797340356e-05 0.9977920775797904 0.001421050241810952 0.0001343028668972333 0.001365454425843907 0.001790730941809404 0.9967095117654494 0.0009644037307080152 0.9925699454780929 0.003419139450078343 0.003046511341120833 0.9932995006551554 0.00110970118735656 0.005407571524132008 0.0001832266333560524 0.00684739703739333 0.0005860922253878208 0.001404603585755582 0.9911619071514632 0.001378104180013132 0.9929053445045841 0.004475197810633941 0.001241353504768815 0.003251039577945182 3.163527902608544e-05 0.9966956859409726 2.163920205619823e-05 0.9933890491666878 0.003511707945731649 9.536102261875361e-06 0.003089706785318658 0.002264865225472587 0.005748248236471801 0.0005918002885541172 0.9913950862495015 0.004622055231369741 0.001269638820131265 0.9934238764283591 0.0006844295201399607 0.0001638653767862065 0.9953324174675952 0.003888837934883013 0.0006148792207356052 2.935873224881497e-05 2.14488368975199e-05 7.506091232126877e-05 0.9998741315185324 0.0002049066798199787 0.0001276387159134214 0.9996390042124957 2.845039177089447e-05 0.003058578173938522 0.9958822855338955 0.0006794838107293901 0.0003796524814366547 0.9959749036520392 0.002885544555076549 0.000391611969672604 0.0007479398232116364 0.002971793777853864 0.00101345932541311 0.001011096627061276 0.9950036502696717 3.345548205281052e-05 0.002254938541053623 0.9904493532312389 0.007262252745654573 0.9986673460665313 0.0006829260060779272 0.0004975622941861032 0.0001521656332046945 0.002501871104748555 0.9908695550076445 0.004928147533812335 0.00170042635379461 3.222757475545291e-05 0.003028895796099009 0.003653673642015749 0.9932852029871297 0.002016171172520476 0.9928214470484661 0.004259080768534836 0.0009033010104785759 0.003896139490357973 0.0001706746788579302 0.9942630268105842 0.001670159020199869 0.9944374316865706 0.005003801855364679 0.0005128640825337393 4.590237553097579e-05 0.006598770105487596 0.0002727468211273977 0.0006050612502950596 0.9925234218230899 0.0006331756022823878 0.9991370448450468 0.000145909229416681 8.387032325407444e-05 0.9927422880391306 0.005904446614875786 0.000281291769875566 0.001071973576118063 0.006327240913457551 0.000218532195104869 0.9924357685346922 0.001018458356745437 0.0009074436706566166 0.0002203156237512369 0.0009226049308687193 0.9979496357747234 0.9940077453421293 0.002384491615985183 0.002908850128416499 0.0006989129134689484 0.005927607260042749 0.001270899739238693 0.9926451253763927 0.0001563676243258485 0.0006504930265280974 0.9941685712705485 0.001975474427802137 0.003205461275121313 0.0002577753177096579 0.0003486381693904388 0.0004723305715046982 0.9989212559413952 0.9946655344859415 0.001281345594616919 0.000721245992206596 0.003331873927234974 0.0001698824878077021 0.9997624199503385 4.889157047829285e-05 1.880599137544611e-05 0.005254005489994556 0.004001924721092186 0.9903965996703924 0.0003474701185208562 0.9905780564002975 0.00453477791730092 0.000770562433328498 0.004116603249073134 0.006829520702662695 0.9910305623379073 0.0006824986491000024 0.001457418310329956 0.0004295169548631821 3.592123379166007e-05 0.9993920623669551 0.0001424994443900639 0.007921817197246323 4.484912055379915e-05 0.001917620871400865 0.990115712810799 0.9911687273907815 0.0004048546376254549 0.001963754928812352 0.006462663042780637 0.0007234450256706097 0.9941056949562883 0.002852959342518952 0.002317900675522159 7.964244059681077e-05 0.001799767781424105 0.0005949821764846775 0.9975256076014944 0.004858595061995747 0.003307355663465291 0.9912478810076647 0.0005861682668742946 0.9988404900654245 0.0002820830090365183 4.011824133077224e-05 0.0008373086842081363 0.005216958555442982 0.001238200778837581 0.9932994929170237 0.0002453477486957767 2.193741390903335e-05 0.9997835105487592 0.0001490734882572211 4.547854907453446e-05 0.0001088060350707035 0.0007819301787955801 0.005784987671861746 0.993324276114272 0.9901286100604392 0.002305110434624868 0.003491562147104488 0.004074717357831451 0.0005784886558186186 0.003836823703123711 0.9924767172578915 0.003107970383166109 0.004300794787925485 0.000558356002635352 0.00208499358044771 0.9930558556289915 0.008377512016153226 0.9903346197823407 0.000220788821861953 0.001067079379644124</probabilities>
		</cpt>
		<cpt id="V19">
			<state id="State0" />
			<state id="State1" />
			<state id="State2" />
			<state id="State3" />
			<parents>V18</parents>
			<probabilities>0.9992169636297137 0.0003255348517262688 0.0001219970694646901 0.0003355044490953818 0.0006601707783498857 0.9992169636297137 4.067055531773656e-05 8.219503661871847e-05 5.882317403135205e-05 0.0003138150231224483 0.9992169636297137 0.0004103981731325403 0.0005541980510369433 3.906269747361243e-05 0.000189775621775785 0.9992169636297137</probabilities>
		</cpt>
		<cpt id="U11">
			<state id="State0" />
			<state id="State1" />
			<state id="State2" />
			<state id="State3" />
			<probabilities>0.00934177849494924 0.9903204640372386 3.375420058565808e-05 0.000304003267226318</probabilities>
		</cpt>
		<cpt id="V20">
			<state id="State0" />
			<state id="State1" />
			<state id="State2" />
			<state id="State3" />
			<parents>V19 U10 U11</parents>
			<probabilities>0.9947727098748702 0.0009772927131323761 0.0002084954129147068 0.00404150199908273 0.002720481942414242 0.9947109219206191 0.00138198682993688 0.00118660930702988 0.0005785683952228264 0.001583911074950237 0.9910248663190684 0.006812654210758559 0.001142026103375646 0.001529456730753366 0.0001720503331419888 0.997156466832729 0.9924567640289915 0.004231655175954691 0.001911107301333605 0.001400473493720145 0.002672772612761155 0.9971614452418627 0.000133126251590959 3.265589378516199e-05 0.005862349098811473 0.0009388166613454554 0.000131623132358584 0.9930672111074845 0.000335538518034923 0.0002018904955839801 0.9951701057830767 0.00429246520330437 0.9924558439418608 0.0031322343249984 0.003185664695375296 0.001226257037765492 0.00710789894227706 0.0005663544960382402 0.990898277906857 0.001427468654827722 3.356575171823248e-05 0.9998744238434836 4.861651821486686e-05 4.339388658337767e-05 0.001605387258166073 0.004434404083789069 0.0003828144891262425 0.9935773941689187 0.9953569457225856 0.002072039876796695 0.0006128221799991722 0.001958192220618552 0.002390923546614463 0.001162876463693388 0.9934022049997032 0.003043994989988933 0.002620966550753571 0.001040490713255725 0.002448478756979369 0.9938900639790114 0.002659670279359961 0.992097612228325 0.003474882209851241 0.001767835282463754 0.9900038870237344 0.003121868068764677 0.001556357702966031 0.005317887204534882 0.0001599334681140523 0.001526315156187562 0.002409348132316035 0.9959044032433824 0.0001804044203344125 0.9992817283215341 0.0004186533829216493 0.0001192138752099097 0.005765002791208748 0.001700883883511586 0.9910615398409458 0.001472573484333822 0.9936690696415623 0.003548696218968792 0.0007929151069054405 0.001989319032563451 0.002238864641398604 5.189040468092229e-05 6.934278506528398e-05 0.9976399021688552 0.0001876790649747487 0.0002496267268464042 0.9961010562277213 0.003461637980457594 0.001202492834330993 0.9910472960713709 0.00442469656618664 0.003325514528111509 0.008010908889687637 0.0002296551046463398 0.0006698221626623502 0.9910896138430036 0.001071473150544827 0.0004802211122902696 0.9926671689169257 0.005781136820239193 0.0005753377420851067 0.998907553260564 0.0002101421163102006 0.0003069668810406533 0.9972940038547039 0.002561143034463704 7.647589287764502e-05 6.837721795470036e-05 0.0005816975718261907 9.257417673457706e-05 0.0002406629063493257 0.9990850653450899 0.0002089618877665092 0.0005743936741595592 0.9980170229024483 0.001199621535625672 0.9980300476048811 0.0007488669190786279 4.285046650720434e-05 0.001178235009533026 0.001953066088638299 0.9902864573630543 0.001208891092896543 0.006551585455410867 0.008065243452672385 0.001111840766184358 0.000133684400767637 0.9906892313803756 2.453399250053736e-05 0.9999726506972909 1.013789140522816e-06 1.801521067998596e-06 0.0004715463580225192 0.0007418148806123964 0.9929343925780876 0.00585224618327755 0.9945776800586932 0.004342136025221557 2.105108786314094e-05 0.001059132828222157 0.006078392587492341 0.001849886171466888 0.0003298259950930903 0.9917418952459477 0.008602551014926255 0.9911953014626756 0.0001544440156738174 4.770350672427245e-05 0.9995477458015978 5.615357945314739e-07 0.0002641822204830974 0.0001875104421246432 0.005464725680501311 0.002203162244813419 0.9900910559397713 0.002241056134913923 0.0005757947557090792 0.002240118773819088 0.003545428813326422 0.9936386576571454 0.9972170808474028 0.001804507976064874 0.0005597279823798632 0.0004186831941524713 0.00354675131419371 0.0005467337488503085 0.9948743215582976 0.001032193378658349 0.0003693894583049142 0.9909303237808494 0.004114099169386183 0.00458618759145943 0.001232522270502631 0.0003626224269478911 0.0002148563540411356 0.9981899989485084 0.9929864855365422 0.004174238259658363 0.00137163103128941 0.001467645172510002 0.0004438634262340011 0.9993225508086915 0.0002067509672521018 2.683479782244054e-05 0.00477200263674756 0.0001032357529830517 0.9950714190407932 5.334256947613357e-05 0.9952018430664441 0.001932424996101384 0.001777118370867644 0.001088613566586918 0.003013752036333175 0.9928456293802429 0.001415642501507099 0.002724976081916869 0.0001784622107106502 0.001469471158824157 0.9975068843481797 0.0008451822822855032 0.002643157636675688 0.0006023751197948668 3.788728824751213e-05 0.996716579955282 0.9984356925161398 0.001449857173496131 2.967513020903754e-05 8.477518015503554e-05 0.004422589036147154 0.993030607338052 0.0002827971027319917 0.002264006523068767 0.006412903267834937 0.0009450342337000213 0.0003473058222123137 0.9922947566762528 0.006796864439738299 0.0002323190640803681 0.9906045862444558 0.0023662302517255 0.9948548365350386 0.004885314204701951 6.915907876200456e-05 0.0001906901814974331 0.004514259782604391 0.001874269676187262 0.9930496753894132 0.0005617951517950563 0.001025635181708645 0.9939057528452109 0.001299805086916759 0.00376880688616376 0.002668896662820361 1.117797314246148e-05 8.672669360341167e-05 0.9972331986704338 0.9989082633027222 0.0001510943193032218 0.0004683122668830839 0.0004723301110915329 0.00222476668467423 0.000563160399618466 0.9962786425139621 0.0009334304017451756 0.001196734315279754 2.315898152521772e-06 0.0003335480533977938 0.9984674017331699 0.005355268133111003 0.9910035074214102 0.002737854688074607 0.0009033697574041509</probabilities>
		</cpt>
		<cpt id="V21">
			<state id="State0" />
			<state id="State1" />
			<state id="State2" />
			<state id="State3" />
			<parents>V20</parents>
			<probabilities>0.9988562064602794 0.0006567597500369863 0.0004743277138337162 1.270607584993405e-05 0.0001810454188392116 0.9988562064602794 0.0002093298058929876 0.0007534183149884374 0.0007915800428174363 0.00019699641060412 0.9988562064602794 0.0001552170862990803 0.0001906282866555324 0.0002107064420688921 0.0007424588109962121 0.9988562064602794</probabilities>
		</cpt>
		<cpt id="U12">
			<state id="State0" />
			<state id="State1" />
			<state id="State2" />
			<state id="State3" />
			<probabilities>0.03946590948208787 0.002427323930680679 0.9581067665872314 5.726687716332982e-102</probabilities>
		</cpt>
		<cpt id="V22">
			<state id="State0" />
			<state id="State1" />
			<state id="State2" />
			<state id="State3" />
			<parents>V21 U11 U12</parents>
			<probabilities>0.9978424038466535 0.0002788201250949571 0.00181076072313557 6.801530511603361e-05 0.002834984406569076 0.9942640557636724 0.00170736953066643 0.001193590299092164 0.005653441926686607 0.0009254815490832813 0.9913391179190599 0.002081958605170172 0.001993369838762795 0.002835475218597094 0.0002040025998982799 0.9949671523427418 0.9955023300643948 0.00112268265420498 0.002367431620053788 0.001007555661346416 0.00165487824062844 0.9959500488703729 0.0006685427826570246 0.00172653010634169 0.002892971727063953 0.002196236866782953 0.00358762240146256 0.9913231690046905 0.0003227136016581195 0.00123795905966391 0.9969560320193456 0.001483295319332423 0.9938695753133413 0.005396009572961143 1.786446967487263e-05 0.0007165506440226931 0.0002798624328392457 0.0001116675306300934 0.9995928496527784 1.5620383752314e-05 0.00363502667852559 0.9904429230658277 0.003693255913434649 0.002228794342212094 0.00281591744867793 0.0001829560047075179 0.0007957042924715306 0.996205422254143 0.9960414742504261 0.001291689507910423 0.0009898007029859749 0.00167703553867749 0.001330254481568162 0.0007600299068630122 0.9978912035494771 1.851206209168535e-05 0.003736809413846509 0.001542742816893188 0.001405064305202549 0.9933153834640578 0.002662847240115013 0.9968064576481128 6.371184116673915e-05 0.0004669832706053974 0.9936483513295575 0.004357774006875204 0.001703905778018886 0.0002899688855484287 0.005307962664137993 0.001494933724809208 0.002268627571180444 0.9909284760398723 0.0010733408924729 0.9912906556969439 0.006555136795625994 0.001080866614957285 0.0003765497765796037 0.0002590577195833819 0.9993513514460084 1.304105782859308e-05 0.9978447516141656 0.001550046575450943 0.0003519612541913918 0.0002532405561920611 0.0009233251358037606 7.042326454331773e-05 8.081932833861309e-06 0.9989981696668191 0.00304527810731817 0.0005370948134811829 0.9946644715990997 0.001753155480101041 0.0003322326188698973 0.9993750243663753 0.0002283117701183827 6.443124463650468e-05 0.000869738670458279 0.001890022293247923 0.0007730750464923605 0.9964671639898014 0.002876419753755552 4.237223625510459e-05 0.9969531137935143 0.0001280942164750875 0.004299629321050471 0.9943332184451571 0.0005715821865025285 0.0007955700472899394 0.9952995848735228 0.004289724678216661 0.0001913173633113025 0.0002193730849492946 0.002328953457954444 0.005094792139521793 0.0002420239366476276 0.9923342304658761 0.0002207222478432441 2.513925205776055e-05 0.9997240777274167 3.006077268229859e-05 0.9932393487685209 0.001879225538017385 0.002983123050580827 0.001898302642880888 0.001033128647533407 0.9929607194105885 0.004603126514934069 0.001403025426944005 0.001135875238324004 0.002407029049822144 0.0002929068605138766 0.9961641888513399 0.001590399650726549 0.9967258232196227 0.001362904017803763 0.0003208731118470244 0.0003441296293561361 0.0001389154275843085 0.9993936633210699 0.0001232916219896182 0.9964367668448064 0.001026953501128173 0.002156647418436687 0.000379632235628724 0.0009387253305728991 0.0006013972840088426 6.307101274161662e-05 0.9983968063726767 0.003416514394916802 0.9921087237080453 0.002159508108531021 0.002315253788506889 0.9932297254432649 0.005998040803647089 8.798075021555737e-05 0.0006842530028723911 0.001608200938758041 0.0003094839816717069 0.9915961293822381 0.006486185697332145 0.003478231073687702 0.001753572062118788 0.002260766664598738 0.9925074301995948 0.9976330772634464 0.001979175830168337 0.0002862903929290578 0.000101456513456183 0.001400024906084795 0.0009460436592711866 0.997519547651297 0.0001343837833470212 0.0007492536829299724 0.9959204567788418 1.42179206286965e-05 0.003316071617599526 0.004378069076814079 0.002801735066576578 0.0002218060185219441 0.9925983898380873 0.9906606744955009 0.005874957639881201 0.0007547429362138635 0.002709624928404037 0.004794257565763489 0.9933639522681661 0.001084119432599865 0.0007576707334705627 0.0009645368581377037 0.001099197184942122 0.9912539470846182 0.006682318872301911 0.9924761947031562 0.0007374375287471134 0.001334681189419339 0.005451686578677378 0.005393949081993397 0.9943803592774286 0.0002017929326448206 2.38987079331798e-05 0.005216531597929305 0.0004454833156962186 0.9917035074907874 0.002634477595587068 0.004381868808521896 0.0004139114530118854 0.001968523576344745 0.9932356961621215 0.9921094883177328 0.003587742031173382 0.0005616153342727088 0.003741154316821121 0.001035854197094128 0.9989303851548398 1.052010643811861e-06 3.270863742228576e-05 0.0004985501063195228 0.001688526266573334 0.001962838730885252 0.9958500848962218 0.002969948013183745 0.0004355432581142444 0.995706854617564 0.0008876541111379949 0.9931533593329024 6.207491743991774e-05 0.002547247102317636 0.004237318647340076 0.001993875706377964 0.000901445794654369 0.9963794062567582 0.0007252722422093893 1.339028676428184e-05 0.9999249331971052 1.11014552087282e-06 6.056637060963185e-05 0.0002301516313629191 5.794891811519887e-05 2.109737787131812e-05 0.9996908020726506 0.9949641514768904 0.000784579313519425 0.0005265801151317484 0.003724689094458349 0.001194420379619394 0.001854870822439787 0.9951867335650584 0.001763975232882487 0.0007992965362430709 0.0001120283816405106 0.006184869334000245 0.9929038057481162 0.004178359543579088 0.9945731764354823 0.0004329773269045353 0.0008154866940341394</probabilities>
		</cpt>
		<cpt id="V23">
			<state id="State0" />
			<state id="State1" />
			<state id="State2" />
			<state id="State3" />
			<parents>V22</parents>
			<probabilities>0.9966136863139984 0.001373776085010321 7.557679581631457e-06 0.002004979921409652 0.001796873882993461 0.9966136863139984 0.001421703716357804 0.0001677360866503394 0.003332952715465712 4.729959628216248e-06 0.9966136863139984 4.863101090767598e-05 0.001774253408844869 0.001363102100932424 0.000248958176224311 0.9966136863139984</probabilities>
		</cpt>
		<cpt id="U13">
			<state id="State0" />
			<state id="State1" />
			<state id="State2" />
			<state id="State3" />
			<probabilities>0.00405825841199043 8.212125451649287e-12 1.089717397770085e-14 0.9959417415797865</probabilities>
		</cpt>
		<cpt id="V24">
			<state id="State0" />
			<state id="State1" />
			<state id="State2" />
			<state id="State3" />
			<parents>V23 U12 U13</parents>
			<probabilities>0.9901626180197767 0.004839588612582367 0.004677638903720506 0.0003201544639204624 0.0005788450136101067 0.9921146513031727 0.003252420433887487 0.004054083249329773 0.003407095859317511 0.001082882683555068 0.9944452885149652 0.001064732942162269 0.001942763268876357 0.005942363680003831 0.0009274747490436051 0.9911873983020763 0.9969597925915622 0.002256396997380297 7.148426512819682e-05 0.0007123261459292636 0.003748932635740318 0.9962074297424429 2.853474287574137e-05 1.510287894106503e-05 0.00172361091001114 0.003255793817116292 0.0008841703221397304 0.9941364249507328 1.339646318712497e-05 4.900734307097803e-05 0.999930989789492 6.606404249877399e-06 0.9905435947156775 0.00103595709495188 0.003355898071052591 0.005064550118318014 0.002185019011439145 0.0006849605866331318 0.9953249261756986 0.001805094226229203 0.002062648227885481 0.9945065637685585 0.00288012175886419 0.0005506662446918705 0.003228548629108772 8.927278414586861e-05 0.002717788630299513 0.9939643899564459 0.9961197292459372 0.001242006175179586 0.001051134843405202 0.001587129735478075 0.0006914902191528488 0.001249083127814381 0.9977363900247133 0.0003230366283195067 0.0003909803303631052 0.0002175253513241713 0.0008259942945307036 0.998565500023782 0.003052881361848425 0.9961747091350955 0.0005012809238068197 0.0002711285792491721 0.9942791968483778 0.004750386607908043 0.0007102598363107128 0.0002601567074034069 0.0003460832971465897 4.971482770298281e-05 0.0003165742798391379 0.9992876275953113 0.001161410760436565 0.9931950330816641 0.001150778579845968 0.004492777578053298 0.002182407297554315 0.006084280106922657 0.9902210071868411 0.001512305408681872 0.9963517513875068 0.002520463753286946 0.0002115663456371697 0.0009162185135691061 0.00347886222659626 0.0003179653089174771 0.0002324049021042136 0.995970767562382 0.0004088935540416122 3.902636364038631e-05 0.9987390767885919 0.0008130032937260918 0.003188370533110243 0.9950002721619439 0.0005445988721821001 0.00126675843276377 6.17852322723249e-05 0.0008785573252972922 0.0003571216177563649 0.9987025358246741 0.00576134513234361 0.0006168864657234574 0.9936185020635478 3.266338385112823e-06 0.008249932845476995 0.9912713956491397 0.0002181060305136295 0.0002605654748697098 0.9942608750898535 0.002877339923616131 0.002098225200624363 0.0007635597859059714 0.003073545907191336 0.0001007802561577696 7.440752044062689e-05 0.9967512663162102 0.0001294901400458605 0.00096748087621826 0.9980023718917787 0.0009006570919572029 0.9923759495127851 0.00560205668472846 0.0009861797884599837 0.001035814014026537 0.002104929927510861 0.99494239941568 0.001366997655622846 0.001585673001186356 0.003856150608430936 0.0026770274421361 0.0001194837176816893 0.9933473382317513 0.001257696191345019 0.9985981330823801 7.570096852516813e-05 6.84697577496624e-05 0.0001247088522893483 0.001253566393532598 0.9986062537789143 1.547097526368932e-05 0.9993653152596025 0.0005993347317047662 8.121148715489089e-06 2.722885997722561e-05 0.002796866550548273 0.0001175105461738536 0.0001035559183769624 0.9969820669849009 0.0008840130068028213 0.9989636027225959 7.732711889986958e-05 7.505715170141213e-05 0.9961141680293626 0.000385169545762653 0.003053961282722774 0.0004467011421519776 0.001975779463736614 7.475162134884716e-05 0.9979064037411569 4.306517375763802e-05 0.00206365204081129 0.001525768881115308 0.001015738073337422 0.995394841004736 0.9905827694987512 0.003900344511988136 0.002721356053966743 0.002795529935293919 0.003901205825672511 0.0003912994650673701 0.9950192653069426 0.0006882294023174871 0.000454325522709112 0.9972856126247223 0.002164221451978606 9.584040059006788e-05 0.0004285990075100359 0.002980867556398589 0.002261246652851998 0.9943292867832394 0.9933463958144135 0.002071629856331393 0.00376979245385703 0.0008121818753979914 0.003388118005777583 0.9937071337087754 0.001929227163969248 0.0009755211214778233 0.006417990280709726 0.0001216486942685511 0.9922988026891385 0.001161558335883178 0.9918450421512947 0.0006272159861510599 0.005655218605268486 0.001872523257285826 0.0004397084353866755 0.990803458125163 0.002222176185337463 0.006534657254112893 0.005807589881443006 8.267179065406981e-05 0.9933274782246849 0.000782260103217958 0.001199517445677461 0.0004383220534931846 0.0007541414725167905 0.9976080190283125 0.9914734744800192 0.003331973404377217 0.002415347385632312 0.002779204729971281 0.002640113914308187 0.9951418773789916 0.002049793819511963 0.0001682148871881739 0.002394259580017258 0.0003256267332349838 0.0001308950556260895 0.9971492186311217 0.007086269934346144 0.0005356818626432789 0.9923162081290617 6.184007394880201e-05 0.9925855518002452 0.001810576049657215 0.002361827982123528 0.003242044167974081 0.00447090600614704 0.0007189956161653584 0.9929199368818864 0.001890161495801154 0.0006701410868966018 0.9961444025347319 0.001915001659950703 0.001270454718420746 0.00406107761226749 0.0008888660611419381 0.0009380358206817269 0.9941120205059089 0.9982847305899127 0.001386163364261802 0.0003264905837104572 2.615462115034201e-06 0.00474277808913524 0.001310981839459804 0.9938919259901574 5.431408124754425e-05 0.0005589028135596693 0.005729385936565777 0.0003945239026818398 0.9933171873471928 0.0007987231508433272 0.9981598179558787 6.310846261831196e-05 0.0009783504306596286</probabilities>
		</cpt>
		<cpt id="V25">
			<state id="State0" />
			<state id="State1" />
			<state id="State2" />
			<state id="State3" />
			<parents>V24</parents>
			<probabilities>0.9901669306172517 0.0008360357265253719 0.007871311373268054 0.001125722282954858 0.004543892102344855 0.9901669306172517 0.0005500948998621351 0.004739082380541294 0.00923403841997157 5.575043451586144e-06 0.9901669306172517 0.0005934559193251285 0.00191914707259824 0.001475019155507218 0.006438903154642827 0.9901669306172517</probabilities>
		</cpt>
		<cpt id="U14">
			<state id="State0" />
			<state id="State1" />
			<state id="State2" />
			<state id="State3" />
			<probabilities>0.6503037407186961 2.078777368401854e-14 0.3409892295224842 0.008707029758798874</probabilities>
		</cpt>
		<cpt id="V26">
			<state id="State0" />
			<state id="State1" />
			<state id="State2" />
			<state id="State3" />
			<parents>V25 U13 U14</parents>
			<probabilities>0.9988441051038962 0.001124167241639609 1.682596717829923e-06 3.004505774637475e-05 0.001592585947858867 0.992284768143135 0.001760618470561056 0.004362027438444983 0.0005586533141898365 0.003895847465877348 0.9953117257718711 0.0002337734480617475 0.003414753819234154 0.000914147024864047 0.0001143416866894884 0.9955567574692124 0.9992537164500287 0.0007279861874960234 1.335058593950663e-05 4.946776535749361e-06 0.001139829295429844 0.997338668533213 0.0004966324911159155 0.001024869680241229 0.005805793195796106 0.0002182949550382122 1.503670403217531e-05 0.9939608751451335 0.003142996715695791 0.002411858251272073 0.9932461660948222 0.001198978938209967 0.9940558340372204 0.003630732304352168 0.0001258095006915145 0.002187624157735885 0.005542606183699345 0.000588738070216949 0.9933912301503902 0.0004774255956935125 0.00524023082422653 0.9913520173396525 0.002998253706039164 0.0004094981300817803 0.004171430054342059 0.000925231185866025 0.001983136312987345 0.9929202024468046 0.9934843424072789 0.004204792438724483 0.001822195393766087 0.0004886697602305124 0.001633067244510496 3.30097863371922e-05 0.9982702803565697 6.364261258254122e-05 0.0005362971040975698 0.0006533110782998156 0.0009677290682016276 0.997842662749401 0.001177684114117989 0.9912967210945715 0.002415546023281268 0.005110048768029327 0.9987237038982852 0.0001801473907971956 7.093349428447263e-05 0.001025215216633135 0.002293729185335042 0.004654358464710322 0.002904666481693074 0.9901472458682615 0.008698747070562928 0.9907883075961349 0.0002737625923864515 0.0002391827409157077 0.004261399466039901 0.001143746321921974 0.9904218691912139 0.004172985020824235 0.9918225251282501 0.003745142656769386 0.0008173983999254757 0.003614933815055043 0.0001276572785592429 0.0005189751942694962 0.000156645418706722 0.9991967221084646 0.0005983253470588796 0.001540969735441789 0.9956249083942937 0.002235796523205626 0.002152527744495668 0.9956060863157585 0.002156154339822718 8.523159992313532e-05 0.0003158392035282186 0.001144247262245725 0.0005593836093354845 0.9979805299248906 0.003789144269915362 0.0008265496915844705 0.9949848321654727 0.0003994738730274425 0.0004960260192453695 0.995386729401107 0.002508926608278841 0.00160831797136883 0.9929188243486148 0.002622872520853828 0.002454910701456805 0.002003392429074591 0.001697501665169209 0.000404516649780714 0.0003553607143094215 0.9975426209707406 5.574026930155509e-05 4.113172445257132e-05 0.9996408045507094 0.0002623234555364782 0.9986631407221248 0.0009003959213559833 0.0004195531578646047 1.691019865457513e-05 0.0008627964193884675 0.9990802923865009 2.459170215489363e-05 3.23194919557766e-05 0.003687059667862918 0.0001844812057983313 0.0003503927143104694 0.9957780664120283 0.000229275803406194 0.9983633138164192 0.0005842330672529037 0.0008231773129217454 0.001116539134324132 0.0002172159228363145 0.998246695816646 0.000419549126193561 0.9919826108481116 0.006669907096008633 0.0006136295882394209 0.0007338524676404307 0.007180540718928984 0.000120308115502722 0.001035452012790988 0.9916636991527773 0.0007329038842871471 0.9940391324825185 0.003025956783697387 0.002202006849497 0.995142497011259 0.0020722731530262 0.001798537333887124 0.0009866925018277078 0.003649318696031956 0.0005004106954561976 0.9952948388053356 0.0005554318031762346 0.0009725850742552456 0.005747372031345986 3.831342048469209e-05 0.9932417294739141 0.9943478578235836 0.00525651991173668 0.0003445879003881908 5.103436429156733e-05 0.0005861489969332551 0.0004530543811576726 0.9986329321070533 0.0003278645148558351 0.001946853806495374 0.9940835860169849 0.001551899189419728 0.002417660987099983 0.002253867656613252 0.0005179064954390715 0.003310071213867734 0.99391815463408 0.9901792625095076 0.00751170274137041 0.0005324177675541518 0.001776616981567871 0.003161953203468683 0.9961438402995525 0.0001440944051659423 0.0005501120918128468 0.0007714111518492586 5.68597530878111e-05 0.9988509501112135 0.0003207789838494656 0.9910000709786231 0.0006561038388027591 0.002767504655317506 0.005576320527256694 0.001573006325900097 0.9946455869110025 0.0003650516537231031 0.003416355109374384 0.001193503386235007 0.000183746898607466 0.9982920001812033 0.0003307495339542119 0.001717371828082654 0.00188059215675921 0.003295704172103966 0.9931063318430542 0.9943242654194293 0.00351121407366414 0.002041946287672198 0.0001225742192344083 0.0002208507561497016 0.9923953084923012 0.003775609539631247 0.003608231211917887 0.004428904036164458 0.0001923503948394197 0.00035507825961577 0.9950236673093803 0.0006503876271614021 0.002772432442908935 0.9938759458310213 0.002701234098908372 0.9967921456981739 0.002294681573353283 0.0004864348641147431 0.0004267378643580697 0.006000344830832238 0.0008566400684307241 0.9918035975818787 0.001339417518858314 0.0001042094222647733 0.9992864442767814 0.0005066799353660803 0.0001026663655878248 0.0005297614873290597 0.0004492169089600784 3.339091397526565e-05 0.9989876306897356 0.9984200942830573 0.001334549850440939 0.0002228653665261851 2.249049997558067e-05 0.005186563383816627 1.250602549317939e-05 0.9934075270968148 0.001393403493875396 0.004293430970723073 0.0001485474475502846 0.003634172888246802 0.9919238486934798 0.0005338195419814122 0.9937295791141074 0.004777662633659722 0.0009589387102514101</probabilities>
		</cpt>
		<cpt id="V27">
			<state id="State0" />
			<state id="State1" />
			<state id="State2" />
			<state id="State3" />
			<parents>V26</parents>
			<probabilities>0.9982055126589152 0.0008081646217033781 0.000907798652339749 7.852406704162579e-05 0.0005527840729462126 0.9982055126589152 0.000627008050639756 0.0006146952174987842 0.0008360123835714482 5.071124617210088e-06 0.9982055126589152 0.0009534038328960947 0.000682883574927799 0.0007434053702062481 0.0003681983959507058 0.9982055126589152</probabilities>
		</cpt>
		<cpt id="U15">
			<state id="State0" />
			<state id="State1" />
			<state id="State2" />
			<state id="State3" />
			<probabilities>1.800365283409076e-05 0.2636696206326886 0.0361136433697198 0.7001987323447576</probabilities>
		</cpt>
		<cpt id="V28">
			<state id="State0" />
			<state id="State1" />
			<state id="State2" />
			<state id="State3" />
			<parents>V27 U14 U15</parents>
			<probabilities>0.9901622823024779 0.005306460987414816 0.004493984693555788 3.727201655150808e-05 0.001604043876680331 0.9909302385312106 0.001826200516019378 0.005639517076089659 0.004463284082537449 0.0005778025699854564 0.9948085669078216 0.0001503464396555304 0.004653245845206681 0.001808236475538405 0.0004586612052342128 0.9930798564740208 0.9957107979452505 0.0009197652583707074 0.002675983572462119 0.0006934532239166965 0.0007970254795638494 0.9976886124479964 0.0003674663676324878 0.001146895704807268 0.005789600280483399 0.0005464101852335671 0.001890209155920062 0.9917737803783629 0.003597878013159448 0.0002692210628532178 0.9956980551793196 0.0004348457446676567 0.9918244276331655 0.003826938713621749 0.0009867025054508855 0.003361931147761895 0.004226927735981948 0.0005206101105411818 0.9933408649271529 0.001911597226323941 0.005537544418473079 0.9913351195420553 0.001893518435963256 0.00123381760350834 0.00252371362421892 0.001149472879022921 0.0001108890353940751 0.9962159244613641 0.9975674982880302 0.002426417455735906 2.300931126996299e-06 3.783325106930957e-06 0.006611577722455263 0.0002830850234048958 0.9914983500531849 0.001606987200955015 4.50177736629303e-05 5.946443373744612e-05 4.651583949902456e-05 0.9998490019531006 0.0005890845742893345 0.9963678655362783 0.002694462548244135 0.0003485873411881936 0.9945352032784546 0.00438209469606316 2.628977356536755e-05 0.00105641225191694 0.0009101468316584013 0.0001852863874477589 0.0004967858893508268 0.998407780891543 0.004473785203969261 0.9933158346952081 0.001856020431686177 0.0003543596691364841 0.005780921929976124 2.009880934861046e-05 0.9941894532567412 9.526003933980786e-06 0.9911236565099434 9.730121585676429e-05 0.0009708654993470081 0.007808176774852869 3.891004233020889e-05 6.646092526700242e-05 6.494423370205018e-05 0.9998296847987007 0.0008344721747039727 0.001611384117383412 0.9971161059249896 0.0004380377829230446 3.286687728729071e-05 0.9991012153261734 0.0007642503928638128 0.0001016674036755844 0.0021032470966531 0.002743107845732759 0.001313890122384366 0.9938397549352298 0.004074604846581393 0.002834623465633503 0.9929909732699387 9.979841784641058e-05 0.006707753470085652 0.9925592769328798 0.0003879623702648217 0.0003450072267697216 0.9959833001733825 0.001545784682444674 0.0002413206349688529 0.002229594509203899 0.007123211880122543 0.001450008408086929 0.001302089744645419 0.9901246899671451 0.003043628267502149 0.0003981077143554022 0.9904308279004747 0.006127436117667762 0.9909152367356029 0.00191759198085039 0.00491351487036587 0.00225365641318083 0.001708894957591029 0.9936371001404618 0.004570090281457417 8.391462048976464e-05 0.00372448273298262 0.004066731848994966 0.0003470895759334841 0.9918616958420889 0.001430665819896317 0.9909357879543809 0.001556963190319935 0.006076583035402846 0.001238301907112352 0.004562795080898191 0.9930502226915366 0.001148680320452813 0.99900009212856 0.0006978288095969893 0.0002921128182647957 9.966243578212808e-06 0.003317874695480092 0.001039696738637028 0.003391613721639593 0.9922508148442433 0.0002602044631034956 0.9996783927598928 8.831833174031817e-06 5.257094382970038e-05 0.9929236429924883 0.003297083802020372 0.001944860608025162 0.001834412597466182 0.002087217142603026 0.001396392794730877 0.9957584707957716 0.0007579192668944392 0.003745572201352037 0.0005381008801389355 0.001518894735617314 0.9941974321828917 0.9946595052484617 0.002589368838406962 8.622338650608483e-05 0.00266490252662521 0.0002200866913206803 0.0002091438413566955 0.9994303547533083 0.0001404147140142943 6.512349340615351e-05 0.9997009322739004 0.0002270591208799032 6.885111813492234e-06 0.00675139416166518 0.0001461066023627817 0.001668385364898617 0.9914341138710734 0.9981876248142433 0.0003377924452169712 0.0001179119116389013 0.001356670828900897 0.001574167391513889 0.9909131980878096 0.007393454762976173 0.0001191797577003006 0.001655357907690617 3.280054642090226e-05 0.9945354123107145 0.003776429235173925 0.994714979686864 0.002947938797092252 0.0020413041724303 0.000295777343613547 0.0003538236988882009 0.9945447346770498 0.001372562063503641 0.003728879560558273 0.0004996612390469176 4.239187135917516e-05 0.999404730171203 5.321671839092653e-05 0.0009539550085557189 0.001879094835622134 0.0007812780668135042 0.9963856720890086 0.9966025374520157 0.002246042606051979 0.0003890197782758817 0.0007624001636564316 0.0005487804845112344 0.9990609080104305 0.0001774561225439207 0.0002128553825143675 0.002124005487457091 0.001039801396552415 0.003601693904784833 0.9932344992112057 1.745060089492014e-05 3.242356903284638e-05 0.9997506609919 0.0001994648381722692 0.9915637237581116 0.0070482907452297 0.0003005526410673503 0.001087432855591264 0.001845917432186453 0.001054768581345652 0.9970771325168454 2.21814696225659e-05 0.0004844531842403981 0.9971044766775603 0.0005008252735196694 0.001910244864679616 0.002660796727536908 0.0002296656989367387 0.0002183412517045478 0.9968911963218218 0.9991755664400718 0.0003257225147810421 0.0001090796492582742 0.0003896313958889052 0.0006183993077034754 0.001207355898097342 0.9937740000411523 0.004400244753046818 0.006774745492153443 0.002647678997297368 4.586104493433957e-05 0.9905317144656148 0.004767661516545499 0.9947718897329951 0.0003683003662663333 9.214838419305363e-05</probabilities>
		</cpt>
		<cpt id="V29">
			<state id="State0" />
			<state id="State1" />
			<state id="State2" />
			<state id="State3" />
			<parents>V28</parents>
			<probabilities>0.9911458108622442 0.005532532074688625 0.001523119021028619 0.001798538042038582 0.002004862576522926 0.9911458108622442 0.00371005197914981 0.00313927458208309 0.006883006797687879 0.0008438603322203761 0.9911458108622442 0.001127322007847571 0.006006255327759981 0.001002384454315358 0.001845549355680488 0.9911458108622442</probabilities>
		</cpt>
		<cpt id="U16">
			<state id="State0" />
			<state id="State1" />
			<state id="State2" />
			<state id="State3" />
			<probabilities>7.939770172105536e-13 1.055434685768599e-121 0.9999999667446364 3.325456970779679e-08</probabilities>
		</cpt>
		<cpt id="V30">
			<state id="State0" />
			<state id="State1" />
			<state id="State2" />
			<state id="State3" />
			<parents>V29 U15 U16</parents>
			<probabilities>0.9989115100537035 0.001072627016188672 2.612797384867793e-06 1.325013272293717e-05 0.00701613335057497 0.9920763143858171 3.025931013247405e-05 0.0008772929534754338 0.002588807858856763 0.002649458488502005 0.990958465750441 0.00380326790220022 0.001302180359936414 0.0009657409969282342 0.001990437156887061 0.9957416414862483 0.9999055084297431 3.979048605750619e-05 7.075441505728805e-06 4.762564269367213e-05 0.001407234211697358 0.9938175534495047 0.003876314546578355 0.000898897792219599 0.006018101950697253 0.001887059720072568 8.045518614660085e-05 0.9920143831430835 0.0001427142131351964 0.006075494538869838 0.9913151168961375 0.002466674351857514 0.995402721582217 0.001195125442340261 0.0001219242007869315 0.003280228774655767 0.00118413422758355 0.001101380118961884 0.9965509503007898 0.001163535352664761 0.003392913328967594 0.9932956882270357 0.0008676689221323101 0.002443729521864308 0.0003736472703915376 0.0008503622683946691 0.0001804429777527242 0.998595547483461 0.9948776558253806 0.002812688965523907 0.0002596068017614833 0.002050048407334025 0.00513500860450447 0.0001391310681578273 0.9945912902868731 0.0001345700404646096 0.001830919344623797 0.001920777346385439 8.682848024224089e-05 0.9961614748287485 0.00411308100646595 0.9927357680055203 0.002418062505088745 0.000733088482925001 0.9971536758923172 3.834946523863167e-05 0.0008572691909110691 0.001950705451533124 0.0005486191795352986 0.0003961252316961801 9.592370736219067e-05 0.9989593318814063 0.001386912945518631 0.997808021836958 0.0002060541427210221 0.0005990110748022499 0.003913130386452334 0.0005677853558044918 0.9954339045160375 8.517974170561685e-05 0.9976136383030546 0.0009347508969327643 0.001142745474753036 0.0003088653252595463 0.007896846294772584 0.0002445044548145663 0.0005470664184495198 0.9913115828319633 0.0029540726610239 0.0001088366138733079 0.9963883447483327 0.000548745976770095 0.00555257610082811 0.9906056021534657 0.002669580779876705 0.001172240965829474 0.006945714317355107 0.0002071338742392853 0.0003036631554268752 0.9925434886529787 0.001591715544726588 0.001026311692183965 0.994114985401196 0.00326698736189346 0.0001423519626252754 0.993120778396249 0.002545170522595858 0.004191699118529901 0.9935591076488891 0.003011043071243119 0.001738378542024584 0.001691470737843182 0.0002168203376303739 0.0005483101288912804 0.0005244735392862529 0.9987103959941921 0.005852257568448625 0.0001607856825928552 0.9934843876533035 0.0005025690956550369 0.9928059748366148 0.001068672655317118 0.002884470395513989 0.003240882112554075 0.003682150854147261 0.991353404259976 0.003943655347854479 0.001020789538022288 6.92106244577735e-05 0.003704595447789225 0.003470486634929712 0.9927557072928233 0.0009346805345301228 0.9948479658338133 0.004011650854777113 0.0002057027768794994 0.00255106602395271 0.0007723599606861984 0.9912502209592005 0.005426353056160608 0.9941969775445716 0.003772960792157871 0.0008529846512523492 0.001177077012018193 0.0003882167750441904 0.0001142468191217813 0.0002782388404376256 0.9992192975653964 0.001404144539357164 0.997466039121219 0.0001784260825018536 0.0009513902569219356 0.9990253905505612 0.0004513047424905114 0.0005229348399332784 3.698670150038006e-07 0.0008396494575450583 0.003315570276049104 0.9926867689892249 0.003158011277180965 0.0001580045759981659 0.001358279664115102 0.0003895413223638155 0.9980941744375229 0.9967342435247882 0.002276772427533113 0.0007617859063583118 0.000227198141320308 0.004179002316733797 0.001639670328215331 0.990198532913024 0.003982794442026922 0.0003792104150551247 0.9916193937345246 0.006625637169566085 0.001375758680854228 0.0003295191148591261 4.682038560271553e-06 4.602974524856382e-05 0.999619769101332 0.991897516554344 0.007047123289648217 5.865401087005153e-05 0.0009967061451377748 0.004752183417668941 0.9950019853679286 0.0001216374824847311 0.0001241937319176694 0.004777572011163149 4.340991709726023e-05 0.9933138269604809 0.001865191111258742 0.9953515391980172 0.004047652226842475 9.429910414209288e-05 0.0005065094709981563 0.0001998901758571281 0.9986322302208356 8.326290251409151e-05 0.001084616700793241 0.001105820820147293 0.0005668095431073021 0.9963634897631551 0.001963879873590269 7.431304851588204e-05 0.00319855190969239 6.497441848640848e-06 0.9967206375999431 0.9927789821818978 0.003519955500304456 7.655822427786091e-05 0.003624504093519881 0.004842734627929878 0.9912489851290405 0.00137605719222171 0.002532223050807887 0.008191564622930638 0.001274162486967494 8.01704747378821e-05 0.990454102415364 0.005138551870236202 0.0001427479732150994 0.9905439417543613 0.004174758402187389 0.9930326344098018 0.005349095252491606 0.0005116873416379219 0.001106582996068601 0.00139452738340286 0.0001185017387012058 0.9982924624333558 0.0001945084445401301 0.001791821771666687 0.997344636484268 0.0001685026255961794 0.0006950391184691248 0.00943452034697877 0.0003054975074429514 0.0001410797712634712 0.9901189023743148 0.9999690661102696 1.354597122044274e-05 2.69989960535974e-06 1.468801890458321e-05 0.001178210633285508 0.002252080405552843 0.9953701829646032 0.001199525996558412 0.002979221900694223 0.0005550042989424627 0.001248859910055875 0.9952169138903074 0.004468729325978394 0.9927522948196366 0.001214312093925593 0.001564663760459465</probabilities>
		</cpt>
		<cpt id="V31">
			<state id="State0" />
			<state id="State1" />
			<state id="State2" />
			<state id="State3" />
			<parents>V30</parents>
			<probabilities>0.9900591079184682 0.001891770736824242 0.005535670389210301 0.002513450955497238 0.005517109229032691 0.9900591079184682 0.003216262366744378 0.001207520485754714 0.00971526780024342 0.0001874747837007276 0.9900591079184682 3.814949758763547e-05 0.007045074860410792 0.001232345720942628 0.001663471500178362 0.9900591079184682</probabilities>
		</cpt>
		<cpt id="U17">
			<state id="State0" />
			<state id="State1" />
			<state id="State2" />
			<state id="State3" />
			<probabilities>5.239423258128644e-08 0.999999947605767 7.152090775810925e-75 2.989317643467394e-16</probabilities>
		</cpt>
		<cpt id="V32">
			<state id="State0" />
			<state id="State1" />
			<state id="State2" />
			<state id="State3" />
			<parents>V31 U16 U17</parents>
