<?xml version="1.0" encoding="UTF-8"?>
<!-- This file was created by ACADEMIC version of SMILE -->
<smile version="1.0" id="Unnamed" numsamples="10000" discsamples="10000">
	<nodes>
		<cpt id="U0">
			<state id="a" />
			<state id="b" />
			<state id="c" />
			<state id="d" />
			<state id="e" />
			<state id="f" />
			<probabilities>0.1666666666666667 0.1666666666666667 0.1666666666666667 0.1666666666666667 0.1666666666666667 0.1666666666666667</probabilities>
		</cpt>
		<cpt id="U8">
			<state id="a" />
			<state id="b" />
			<state id="c" />
			<state id="d" />
			<state id="e" />
			<state id="f" />
			<probabilities>0.1666666666666667 0.1666666666666667 0.1666666666666667 0.1666666666666667 0.1666666666666667 0.1666666666666667</probabilities>
		</cpt>
		<cpt id="V36">
			<state id="a" />
			<state id="b" />
			<state id="c" />
			<state id="d" />
			<parents>U0 U8</parents>
			<probabilities>0.25 0.25 0.25 0.25 0.25 0.25 0.25 0.25 0.25 0.25 0.25 0.25 0.25 0.25 0.25 0.25 0.25 0.25 0.25 0.25 0.25 0.25 0.25 0.25 0.25 0.25 0.25 0.25 0.25 0.25 0.25 0.25 0.25 0.25 0.25 0.25 0.25 0.25 0.25 0.25 0.25 0.25 0.25 0.25 0.25 0.25 0.25 0.25 0.25 0.25 0.25 0.25 0.25 0.25 0.25 0.25 0.25 0.25 0.25 0.25 0.25 0.25 0.25 0.25 0.25 0.25 0.25 0.25 0.25 0.25 0.25 0.25 0.25 0.25 0.25 0.25 0.25 0.25 0.25 0.25 0.25 0.25 0.25 0.25 0.25 0.25 0.25 0.25 0.25 0.25 0.25 0.25 0.25 0.25 0.25 0.25 0.25 0.25 0.25 0.25 0.25 0.25 0.25 0.25 0.25 0.25 0.25 0.25 0.25 0.25 0.25 0.25 0.25 0.25 0.25 0.25 0.25 0.25 0.25 0.25 0.25 0.25 0.25 0.25 0.25 0.25 0.25 0.25 0.25 0.25 0.25 0.25 0.25 0.25 0.25 0.25 0.25 0.25 0.25 0.25 0.25 0.25 0.25 0.25</probabilities>
		</cpt>
		<cpt id="U1">
			<state id="a" />
			<state id="b" />
			<state id="c" />
			<state id="d" />
			<state id="e" />
			<state id="f" />
			<probabilities>0.1666666666666667 0.1666666666666667 0.1666666666666667 0.1666666666666667 0.1666666666666667 0.1666666666666667</probabilities>
		</cpt>
		<cpt id="V37">
			<state id="a" />
			<state id="b" />
			<state id="c" />
			<state id="d" />
			<parents>U1 U0</parents>
			<probabilities>0.25 0.25 0.25 0.25 0.25 0.25 0.25 0.25 0.25 0.25 0.25 0.25 0.25 0.25 0.25 0.25 0.25 0.25 0.25 0.25 0.25 0.25 0.25 0.25 0.25 0.25 0.25 0.25 0.25 0.25 0.25 0.25 0.25 0.25 0.25 0.25 0.25 0.25 0.25 0.25 0.25 0.25 0.25 0.25 0.25 0.25 0.25 0.25 0.25 0.25 0.25 0.25 0.25 0.25 0.25 0.25 0.25 0.25 0.25 0.25 0.25 0.25 0.25 0.25 0.25 0.25 0.25 0.25 0.25 0.25 0.25 0.25 0.25 0.25 0.25 0.25 0.25 0.25 0.25 0.25 0.25 0.25 0.25 0.25 0.25 0.25 0.25 0.25 0.25 0.25 0.25 0.25 0.25 0.25 0.25 0.25 0.25 0.25 0.25 0.25 0.25 0.25 0.25 0.25 0.25 0.25 0.25 0.25 0.25 0.25 0.25 0.25 0.25 0.25 0.25 0.25 0.25 0.25 0.25 0.25 0.25 0.25 0.25 0.25 0.25 0.25 0.25 0.25 0.25 0.25 0.25 0.25 0.25 0.25 0.25 0.25 0.25 0.25 0.25 0.25 0.25 0.25 0.25 0.25</probabilities>
		</cpt>
		<cpt id="V28">
			<state id="a" />
			<state id="b" />
			<state id="c" />
			<state id="d" />
			<parents>V36 V37</parents>
			<probabilities>0.01675739468251582 0.9682591799914148 0.01276008712210853 0.002223338203960788 0.002284287285895824 0.008112911709860549 7.821622276454705e-11 0.9896028009260274 4.786279508077989e-22 2.433896264936282e-18 1.043639541794316e-18 1 0.03412768000056068 6.633436453839699e-53 0.9658723199994393 2.146420783538558e-57 0.9998364197884022 0.000163556606087751 0 2.360551014135978e-08 0.698099448696738 0.30075166128065 0.001024896366139021 0.000123993656472829 2.851865961458163e-05 0.9999704855875292 9.957528561647728e-07 3.261195037226755e-27 0.01286570789538895 0.9871342276193058 4.345508136949007e-09 6.013979714064508e-08 0.001481287206798505 1.446555331544541e-07 0.9985185681376683 2.796779768447668e-49 0.1914954477103948 1.477816319713109e-07 0.2298972359494951 0.5786071685584784 0.9399053861881376 1.824038424063421e-57 0.002607839086529565 0.05748677472533287 4.803839829767654e-10 2.974142441523906e-05 0.577070075035887 0.4229001830593137 3.548447546899754e-09 2.520323563399736e-06 0.8041708352337712 0.1958266408942177 4.131568123250272e-06 0.1346818581059057 2.768222021101242e-197 0.865314010325971 0.0001068291882998811 2.023672344689314e-32 0.9998872940028088 5.876808891177492e-06 3.476108650079346e-06 0.01857325532224475 0.9814232685614612 7.643977929952371e-12</probabilities>
		</cpt>
		<cpt id="U2">
			<state id="a" />
			<state id="b" />
			<state id="c" />
			<state id="d" />
			<state id="e" />
			<state id="f" />
			<probabilities>0.1666666666666667 0.1666666666666667 0.1666666666666667 0.1666666666666667 0.1666666666666667 0.1666666666666667</probabilities>
		</cpt>
		<cpt id="V38">
			<state id="a" />
			<state id="b" />
			<state id="c" />
			<state id="d" />
			<parents>U2 U1</parents>
			<probabilities>0.25 0.25 0.25 0.25 0.25 0.25 0.25 0.25 0.25 0.25 0.25 0.25 0.25 0.25 0.25 0.25 0.25 0.25 0.25 0.25 0.25 0.25 0.25 0.25 0.25 0.25 0.25 0.25 0.25 0.25 0.25 0.25 0.25 0.25 0.25 0.25 0.25 0.25 0.25 0.25 0.25 0.25 0.25 0.25 0.25 0.25 0.25 0.25 0.25 0.25 0.25 0.25 0.25 0.25 0.25 0.25 0.25 0.25 0.25 0.25 0.25 0.25 0.25 0.25 0.25 0.25 0.25 0.25 0.25 0.25 0.25 0.25 0.25 0.25 0.25 0.25 0.25 0.25 0.25 0.25 0.25 0.25 0.25 0.25 0.25 0.25 0.25 0.25 0.25 0.25 0.25 0.25 0.25 0.25 0.25 0.25 0.25 0.25 0.25 0.25 0.25 0.25 0.25 0.25 0.25 0.25 0.25 0.25 0.25 0.25 0.25 0.25 0.25 0.25 0.25 0.25 0.25 0.25 0.25 0.25 0.25 0.25 0.25 0.25 0.25 0.25 0.25 0.25 0.25 0.25 0.25 0.25 0.25 0.25 0.25 0.25 0.25 0.25 0.25 0.25 0.25 0.25 0.25 0.25</probabilities>
		</cpt>
		<cpt id="V29">
			<state id="a" />
			<state id="b" />
			<state id="c" />
			<state id="d" />
			<parents>V37 V38</parents>
			<probabilities>4.056965663860772e-11 0.3878500728001642 9.773181613821415e-32 0.6121499271592661 4.845427735488765e-10 2.940477079780095e-08 0.9999999611305995 8.980086967181405e-09 2.44302765681527e-06 2.630115272622114e-08 1.612874752692444e-121 0.9999975306711905 0.0007804388218636483 0.5252664261812238 0.02747446833293374 0.446478666663979 1.404199353043055e-41 0.00719719601071823 0.2624521959991041 0.7303506079901775 1.970709684336966e-09 0.7251322867115175 0.2748677113177729 0 0.9994430818469037 0.0005569181530921193 2.377790803605077e-28 4.229090464563052e-15 0.001700688504305069 0.9595738656703506 0.0003040297575620799 0.03842141606778231 0.7378164751598681 5.003984178825321e-26 3.140177866866077e-05 0.2621521230614632 0.9999594168880039 3.1213234779104e-17 1.17338362749667e-09 4.058193861256218e-05 0.8723927345144401 0.12760726548556 5.076018018600857e-18 0 0.02969292163920105 1.014174329614132e-12 0.05154603715232337 0.9187610412074615 0.03570328193652956 0.0002927686217236867 0.9108918156150836 0.05311213382666341 0.9905460041537464 0.009453995829755838 3.65087344289684e-12 1.284706174423931e-11 5.109793204601385e-10 0.8489519967832588 0.1510480024683417 2.374202468345661e-10 7.490700738172411e-15 3.065532170966068e-08 0.00594004221335153 0.9940599271313192</probabilities>
		</cpt>
		<cpt id="U10">
			<state id="a" />
			<state id="b" />
			<state id="c" />
			<state id="d" />
			<state id="e" />
			<state id="f" />
			<probabilities>0.1666666666666667 0.1666666666666667 0.1666666666666667 0.1666666666666667 0.1666666666666667 0.1666666666666667</probabilities>
		</cpt>
		<cpt id="V21">
			<state id="a" />
			<state id="b" />
			<state id="c" />
			<state id="d" />
			<parents>V28 V29 U8 U10</parents>
			<probabilities>0.25 0.25 0.25 0.25 0.25 0.25 0.25 0.25 0.25 0.25 0.25 0.25 0.25 0.25 0.25 0.25 0.25 0.25 0.25 0.25 0.25 0.25 0.25 0.25 0.25 0.25 0.25 0.25 0.25 0.25 0.25 0.25 0.25 0.25 0.25 0.25 0.25 0.25 0.25 0.25 0.25 0.25 0.25 0.25 0.25 0.25 0.25 0.25 0.25 0.25 0.25 0.25 0.25 0.25 0.25 0.25 0.25 0.25 0.25 0.25 0.25 0.25 0.25 0.25 0.25 0.25 0.25 0.25 0.25 0.25 0.25 0.25 0.25 0.25 0.25 0.25 0.25 0.25 0.25 0.25 0.25 0.25 0.25 0.25 0.25 0.25 0.25 0.25 0.25 0.25 0.25 0.25 0.25 0.25 0.25 0.25 0.25 0.25 0.25 0.25 0.25 0.25 0.25 0.25 0.25 0.25 0.25 0.25 0.25 0.25 0.25 0.25 0.25 0.25 0.25 0.25 0.25 0.25 0.25 0.25 0.25 0.25 0.25 0.25 0.25 0.25 0.25 0.25 0.25 0.25 0.25 0.25 0.25 0.25 0.25 0.25 0.25 0.25 0.25 0.25 0.25 0.25 0.25 0.25 0.25 0.25 0.25 0.25 0.25 0.25 0.25 0.25 0.25 0.25 0.25 0.25 0.25 0.25 0.25 0.25 0.25 0.25 0.25 0.25 0.25 0.25 0.25 0.25 0.25 0.25 0.25 0.25 0.25 0.25 0.25 0.25 0.25 0.25 0.25 0.25 0.25 0.25 0.25 0.25 0.25 0.25 0.25 0.25 0.25 0.25 0.25 0.25 0.25 0.25 0.25 0.25 0.25 0.25 0.25 0.25 0.25 0.25 0.25 0.25 0.25 0.25 0.25 0.25 0.25 0.25 0.25 0.25 0.25 0.25 0.25 0.25 0.25 0.25 0.25 0.25 0.25 0.25 0.25 0.25 0.25 0.25 0.25 0.25 0.25 0.25 0.25 0.25 0.25 0.25 0.25 0.25 0.25 0.25 0.25 0.25 0.25 0.25 0.25 0.25 0.25 0.25 0.25 0.25 0.25 0.25 0.25 0.25 0.25 0.25 0.25 0.25 0.25 0.25 0.25 0.25 0.25 0.25 0.25 0.25 0.25 0.25 0.25 0.25 0.25 0.25 0.25 0.25 0.25 0.25 0.25 0.25 0.25 0.25 0.25 0.25 0.25 0.25 0.25 0.25 0.25 0.25 0.25 0.25 0.25 0.25 0.25 0.25 0.25 0.25 0.25 0.25 0.25 0.25 0.25 0.25 0.25 0.25 0.25 0.25 0.25 0.25 0.25 0.25 0.25 0.25 0.25 0.25 0.25 0.25 0.25 0.25 0.25 0.25 0.25 0.25 0.25 0.25 0.25 0.25 0.25 0.25 0.25 0.25 0.25 0.25 0.25 0.25 0.25 0.25 0.25 0.25 0.25 0.25 0.25 0.25 0.25 0.25 0.25 0.25 0.25 0.25 0.25 0.25 0.25 0.25 0.25 0.25 0.25 0.25 0.25 0.25 0.25 0.25 0.25 0.25 0.25 0.25 0.25 0.25 0.25 0.25 0.25 0.25 0.25 0.25 0.25 0.25 0.25 0.25 0.25 0.25 0.25 0.25 0.25 0.25 0.25 0.25 0.25 0.25 0.25 0.25 0.25 0.25 0.25 0.25 0.25 0.25 0.25 0.25 0.25 0.25 0.25 0.25 0.25 0.25 0.25 0.25 0.25 0.25 0.25 0.25 0.25 0.25 0.25 0.25 0.25 0.25 0.25 0.25 0.25 0.25 0.25 0.25 0.25 0.25 0.25 0.25 0.25 0.25 0.25 0.25 0.25 0.25 0.25 0.25 0.25 0.25 0.25 0.25 0.25 0.25 0.25 0.25 0.25 0.25 0.25 0.25 0.25 0.25 0.25 0.25 0.25 0.25 0.25 0.25 0.25 0.25 0.25 0.25 0.25 0.25 0.25 0.25 0.25 0.25 0.25 0.25 0.25 0.25 0.25 0.25 0.25 0.25 0.25 0.25 0.25 0.25 0.25 0.25 0.25 0.25 0.25 0.25 0.25 0.25 0.25 0.25 0.25 0.25 0.25 0.25 0.25 0.25 0.25 0.25 0.25 0.25 0.25 0.25 0.25 0.25 0.25 0.25 0.25 0.25 0.25 0.25 0.25 0.25 0.25 0.25 0.25 0.25 0.25 0.25 0.25 0.25 0.25 0.25 0.25 0.25 0.25 0.25 0.25 0.25 0.25 0.25 0.25 0.25 0.25 0.25 0.25 0.25 0.25 0.25 0.25 0.25 0.25 0.25 0.25 0.25 0.25 0.25 0.25 0.25 0.25 0.25 0.25 0.25 0.25 0.25 0.25 0.25 0.25 0.25 0.25 0.25 0.25 0.25 0.25 0.25 0.25 0.25 0.25 0.25 0.25 0.25 0.25 0.25 0.25 0.25 0.25 0.25 0.25 0.25 0.25 0.25 0.25 0.25 0.25 0.25 0.25 0.25 0.25 0.25 0.25 0.25 0.25 0.25 0.25 0.25 0.25 0.25 0.25 0.25 0.25 0.25 0.25 0.25 0.25 0.25 0.25 0.25 0.25 0.25 0.25 0.25 0.25 0.25 0.25 0.25 0.25 0.25 0.25 0.25 0.25 0.25 0.25 0.25 0.25 0.25 0.25 0.25 0.25 0.25 0.25 0.25 0.25 0.25 0.25 0.25 0.25 0.25 0.25 0.25 0.25 0.25 0.25 0.25 0.25 0.25 0.25 0.25 0.25 0.25 0.25 0.25 0.25 0.25 0.25 0.25 0.25 0.25 0.25 0.25 0.25 0.25 0.25 0.25 0.25 0.25 0.25 0.25 0.25 0.25 0.25 0.25 0.25 0.25 0.25 0.25 0.25 0.25 0.25 0.25 0.25 0.25 0.25 0.25 0.25 0.25 0.25 0.25 0.25 0.25 0.25 0.25 0.25 0.25 0.25 0.25 0.25 0.25 0.25 0.25 0.25 0.25 0.25 0.25 0.25 0.25 0.25 0.25 0.25 0.25 0.25 0.25 0.25 0.25 0.25 0.25 0.25 0.25 0.25 0.25 0.25 0.25 0.25 0.25 0.25 0.25 0.25 0.25 0.25 0.25 0.25 0.25 0.25 0.25 0.25 0.25 0.25 0.25 0.25 0.25 0.25 0.25 0.25 0.25 0.25 0.25 0.25 0.25 0.25 0.25 0.25 0.25 0.25 0.25 0.25 0.25 0.25 0.25 0.25 0.25 0.25 0.25 0.25 0.25 0.25 0.25 0.25 0.25 0.25 0.25 0.25 0.25 0.25 0.25 0.25 0.25 0.25 0.25 0.25 0.25 0.25 0.25 0.25 0.25 0.25 0.25 0.25 0.25 0.25 0.25 0.25 0.25 0.25 0.25 0.25 0.25 0.25 0.25 0.25 0.25 0.25 0.25 0.25 0.25 0.25 0.25 0.25 0.25 0.25 0.25 0.25 0.25 0.25 0.25 0.25 0.25 0.25 0.25 0.25 0.25 0.25 0.25 0.25 0.25 0.25 0.25 0.25 0.25 0.25 0.25 0.25 0.25 0.25 0.25 0.25 0.25 0.25 0.25 0.25 0.25 0.25 0.25 0.25 0.25 0.25 0.25 0.25 0.25 0.25 0.25 0.25 0.25 0.25 0.25 0.25 0.25 0.25 0.25 0.25 0.25 0.25 0.25 0.25 0.25 0.25 0.25 0.25 0.25 0.25 0.25 0.25 0.25 0.25 0.25 0.25 0.25 0.25 0.25 0.25 0.25 0.25 0.25 0.25 0.25 0.25 0.25 0.25 0.25 0.25 0.25 0.25 0.25 0.25 0.25 0.25 0.25 0.25 0.25 0.25 0.25 0.25 0.25 0.25 0.25 0.25 0.25 0.25 0.25 0.25 0.25 0.25 0.25 0.25 0.25 0.25 0.25 0.25 0.25 0.25 0.25 0.25 0.25 0.25 0.25 0.25 0.25 0.25 0.25 0.25 0.25 0.25 0.25 0.25 0.25 0.25 0.25 0.25 0.25 0.25 0.25 0.25 0.25 0.25 0.25 0.25 0.25 0.25 0.25 0.25 0.25 0.25 0.25 0.25 0.25 0.25 0.25 0.25 0.25 0.25 0.25 0.25 0.25 0.25 0.25 0.25 0.25 0.25 0.25 0.25 0.25 0.25 0.25 0.25 0.25 0.25 0.25 0.25 0.25 0.25 0.25 0.25 0.25 0.25 0.25 0.25 0.25 0.25 0.25 0.25 0.25 0.25 0.25 0.25 0.25 0.25 0.25 0.25 0.25 0.25 0.25 0.25 0.25 0.25 0.25 0.25 0.25 0.25 0.25 0.25 0.25 0.25 0.25 0.25 0.25 0.25 0.25 0.25 0.25 0.25 0.25 0.25 0.25 0.25 0.25 0.25 0.25 0.25 0.25 0.25 0.25 0.25 0.25 0.25 0.25 0.25 0.25 0.25 0.25 0.25 0.25 0.25 0.25 0.25 0.25 0.25 0.25 0.25 0.25 0.25 0.25 0.25 0.25 0.25 0.25 0.25 0.25 0.25 0.25 0.25 0.25 0.25 0.25 0.25 0.25 0.25 0.25 0.25 0.25 0.25 0.25 0.25 0.25 0.25 0.25 0.25 0.25 0.25 0.25 0.25 0.25 0.25 0.25 0.25 0.25 0.25 0.25 0.25 0.25 0.25 0.25 0.25 0.25 0.25 0.25 0.25 0.25 0.25 0.25 0.25 0.25 0.25 0.25 0.25 0.25 0.25 0.25 0.25 0.25 0.25 0.25 0.25 0.25 0.25 0.25 0.25 0.25 0.25 0.25 0.25 0.25 0.25 0.25 0.25 0.25 0.25 0.25 0.25 0.25 0.25 0.25 0.25 0.25 0.25 0.25 0.25 0.25 0.25 0.25 0.25 0.25 0.25 0.25 0.25 0.25 0.25 0.25 0.25 0.25 0.25 0.25 0.25 0.25 0.25 0.25 0.25 0.25 0.25 0.25 0.25 0.25 0.25 0.25 0.25 0.25 0.25 0.25 0.25 0.25 0.25 0.25 0.25 0.25 0.25 0.25 0.25 0.25 0.25 0.25 0.25 0.25 0.25 0.25 0.25 0.25 0.25 0.25 0.25 0.25 0.25 0.25 0.25 0.25 0.25 0.25 0.25 0.25 0.25 0.25 0.25 0.25 0.25 0.25 0.25 0.25 0.25 0.25 0.25 0.25 0.25 0.25 0.25 0.25 0.25 0.25 0.25 0.25 0.25 0.25 0.25 0.25 0.25 0.25 0.25 0.25 0.25 0.25 0.25 0.25 0.25 0.25 0.25 0.25 0.25 0.25 0.25 0.25 0.25 0.25 0.25 0.25 0.25 0.25 0.25 0.25 0.25 0.25 0.25 0.25 0.25 0.25 0.25 0.25 0.25 0.25 0.25 0.25 0.25 0.25 0.25 0.25 0.25 0.25 0.25 0.25 0.25 0.25 0.25 0.25 0.25 0.25 0.25 0.25 0.25 0.25 0.25 0.25 0.25 0.25 0.25 0.25 0.25 0.25 0.25 0.25 0.25 0.25 0.25 0.25 0.25 0.25 0.25 0.25 0.25 0.25 0.25 0.25 0.25 0.25 0.25 0.25 0.25 0.25 0.25 0.25 0.25 0.25 0.25 0.25 0.25 0.25 0.25 0.25 0.25 0.25 0.25 0.25 0.25 0.25 0.25 0.25 0.25 0.25 0.25 0.25 0.25 0.25 0.25 0.25 0.25 0.25 0.25 0.25 0.25 0.25 0.25 0.25 0.25 0.25 0.25 0.25 0.25 0.25 0.25 0.25 0.25 0.25 0.25 0.25 0.25 0.25 0.25 0.25 0.25 0.25 0.25 0.25 0.25 0.25 0.25 0.25 0.25 0.25 0.25 0.25 0.25 0.25 0.25 0.25 0.25 0.25 0.25 0.25 0.25 0.25 0.25 0.25 0.25 0.25 0.25 0.25 0.25 0.25 0.25 0.25 0.25 0.25 0.25 0.25 0.25 0.25 0.25 0.25 0.25 0.25 0.25 0.25 0.25 0.25 0.25 0.25 0.25 0.25 0.25 0.25 0.25 0.25 0.25 0.25 0.25 0.25 0.25 0.25 0.25 0.25 0.25 0.25 0.25 0.25 0.25 0.25 0.25 0.25 0.25 0.25 0.25 0.25 0.25 0.25 0.25 0.25 0.25 0.25 0.25 0.25 0.25 0.25 0.25 0.25 0.25 0.25 0.25 0.25 0.25 0.25 0.25 0.25 0.25 0.25 0.25 0.25 0.25 0.25 0.25 0.25 0.25 0.25 0.25 0.25 0.25 0.25 0.25 0.25 0.25 0.25 0.25 0.25 0.25 0.25 0.25 0.25 0.25 0.25 0.25 0.25 0.25 0.25 0.25 0.25 0.25 0.25 0.25 0.25 0.25 0.25 0.25 0.25 0.25 0.25 0.25 0.25 0.25 0.25 0.25 0.25 0.25 0.25 0.25 0.25 0.25 0.25 0.25 0.25 0.25 0.25 0.25 0.25 0.25 0.25 0.25 0.25 0.25 0.25 0.25 0.25 0.25 0.25 0.25 0.25 0.25 0.25 0.25 0.25 0.25 0.25 0.25 0.25 0.25 0.25 0.25 0.25 0.25 0.25 0.25 0.25 0.25 0.25 0.25 0.25 0.25 0.25 0.25 0.25 0.25 0.25 0.25 0.25 0.25 0.25 0.25 0.25 0.25 0.25 0.25 0.25 0.25 0.25 0.25 0.25 0.25 0.25 0.25 0.25 0.25 0.25 0.25 0.25 0.25 0.25 0.25 0.25 0.25 0.25 0.25 0.25 0.25 0.25 0.25 0.25 0.25 0.25 0.25 0.25 0.25 0.25 0.25 0.25 0.25 0.25 0.25 0.25 0.25 0.25 0.25 0.25 0.25 0.25 0.25 0.25 0.25 0.25 0.25 0.25 0.25 0.25 0.25 0.25 0.25 0.25 0.25 0.25 0.25 0.25 0.25 0.25 0.25 0.25 0.25 0.25 0.25 0.25 0.25 0.25 0.25 0.25 0.25 0.25 0.25 0.25 0.25 0.25 0.25 0.25 0.25 0.25 0.25 0.25 0.25 0.25 0.25 0.25 0.25 0.25 0.25 0.25 0.25 0.25 0.25 0.25 0.25 0.25 0.25 0.25 0.25 0.25 0.25 0.25 0.25 0.25 0.25 0.25 0.25 0.25 0.25 0.25 0.25 0.25 0.25 0.25 0.25 0.25 0.25 0.25 0.25 0.25 0.25 0.25 0.25 0.25 0.25 0.25 0.25 0.25 0.25 0.25 0.25 0.25 0.25 0.25 0.25 0.25 0.25 0.25 0.25 0.25 0.25 0.25 0.25 0.25 0.25 0.25 0.25 0.25 0.25 0.25 0.25 0.25 0.25 0.25 0.25 0.25 0.25 0.25 0.25 0.25 0.25 0.25 0.25 0.25 0.25 0.25 0.25 0.25 0.25 0.25 0.25 0.25 0.25 0.25 0.25 0.25 0.25 0.25 0.25 0.25 0.25 0.25 0.25 0.25 0.25 0.25 0.25 0.25 0.25 0.25 0.25 0.25 0.25 0.25 0.25 0.25 0.25 0.25 0.25 0.25 0.25 0.25 0.25 0.25 0.25 0.25 0.25 0.25 0.25 0.25 0.25 0.25 0.25 0.25 0.25 0.25 0.25 0.25 0.25 0.25 0.25 0.25 0.25 0.25 0.25 0.25 0.25 0.25 0.25 0.25 0.25 0.25 0.25 0.25 0.25 0.25 0.25 0.25 0.25 0.25 0.25 0.25 0.25 0.25 0.25 0.25 0.25 0.25 0.25 0.25 0.25 0.25 0.25 0.25 0.25 0.25 0.25 0.25 0.25 0.25 0.25 0.25 0.25 0.25 0.25 0.25 0.25 0.25 0.25 0.25 0.25 0.25 0.25 0.25 0.25 0.25 0.25 0.25 0.25 0.25 0.25 0.25 0.25 0.25 0.25 0.25 0.25 0.25 0.25 0.25 0.25 0.25 0.25 0.25 0.25 0.25 0.25 0.25 0.25 0.25 0.25 0.25 0.25 0.25 0.25 0.25 0.25 0.25 0.25 0.25 0.25 0.25 0.25 0.25 0.25 0.25 0.25 0.25 0.25 0.25 0.25 0.25 0.25 0.25 0.25 0.25 0.25 0.25 0.25 0.25 0.25 0.25 0.25 0.25 0.25 0.25 0.25 0.25 0.25 0.25 0.25 0.25 0.25 0.25 0.25 0.25 0.25 0.25 0.25 0.25 0.25 0.25 0.25 0.25 0.25 0.25 0.25 0.25 0.25 0.25 0.25 0.25 0.25 0.25 0.25 0.25 0.25 0.25 0.25 0.25 0.25 0.25 0.25 0.25 0.25 0.25 0.25 0.25 0.25 0.25 0.25 0.25 0.25 0.25 0.25 0.25 0.25 0.25 0.25 0.25 0.25 0.25 0.25 0.25 0.25 0.25 0.25 0.25 0.25 0.25 0.25 0.25 0.25 0.25 0.25 0.25 0.25 0.25 0.25 0.25 0.25 0.25 0.25 0.25 0.25 0.25 0.25 0.25 0.25 0.25 0.25 0.25 0.25 0.25 0.25 0.25 0.25 0.25 0.25 0.25 0.25 0.25 0.25 0.25 0.25 0.25 0.25 0.25 0.25 0.25 0.25 0.25 0.25 0.25 0.25 0.25 0.25 0.25 0.25 0.25 0.25 0.25 0.25 0.25 0.25 0.25 0.25 0.25 0.25 0.25 0.25 0.25 0.25 0.25 0.25 0.25 0.25 0.25 0.25 0.25 0.25 0.25 0.25 0.25 0.25 0.25 0.25 0.25 0.25 0.25 0.25 0.25 0.25 0.25 0.25 0.25 0.25 0.25 0.25 0.25 0.25 0.25 0.25 0.25 0.25 0.25 0.25 0.25 0.25 0.25 0.25 0.25 0.25 0.25 0.25 0.25 0.25 0.25 0.25 0.25 0.25 0.25 0.25 0.25 0.25 0.25 0.25 0.25 0.25 0.25 0.25 0.25 0.25 0.25 0.25 0.25 0.25 0.25 0.25 0.25 0.25 0.25 0.25 0.25 0.25 0.25 0.25 0.25 0.25 0.25 0.25 0.25 0.25 0.25 0.25 0.25 0.25 0.25 0.25 0.25 0.25 0.25 0.25 0.25 0.25 0.25 0.25 0.25 0.25 0.25 0.25 0.25 0.25 0.25 0.25 0.25 0.25 0.25 0.25 0.25 0.25 0.25 0.25 0.25 0.25 0.25 0.25 0.25 0.25 0.25 0.25 0.25 0.25 0.25 0.25 0.25 0.25 0.25 0.25 0.25 0.25 0.25 0.25 0.25 0.25 0.25 0.25 0.25 0.25 0.25 0.25 0.25 0.25 0.25 0.25 0.25 0.25 0.25 0.25 0.25 0.25 0.25 0.25 0.25 0.25 0.25 0.25 0.25 0.25 0.25 0.25 0.25 0.25 0.25 0.25 0.25 0.25 0.25 0.25 0.25 0.25 0.25 0.25 0.25 0.25 0.25 0.25 0.25 0.25 0.25 0.25 0.25 0.25 0.25 0.25 0.25 0.25 0.25 0.25 0.25 0.25 0.25 0.25 0.25 0.25 0.25 0.25 0.25 0.25 0.25 0.25 0.25 0.25 0.25 0.25 0.25 0.25 0.25 0.25 0.25 0.25 0.25 0.25 0.25 0.25 0.25 0.25 0.25 0.25 0.25 0.25 0.25 0.25 0.25 0.25 0.25 0.25 0.25 0.25 0.25 0.25 0.25 0.25 0.25 0.25 0.25 0.25 0.25 0.25 0.25 0.25 0.25 0.25 0.25 0.25 0.25 0.25 0.25 0.25 0.25 0.25 0.25 0.25 0.25 0.25 0.25 0.25 0.25 0.25 0.25 0.25 0.25 0.25 0.25 0.25 0.25 0.25 0.25 0.25 0.25 0.25 0.25 0.25 0.25 0.25 0.25 0.25 0.25 0.25 0.25 0.25 0.25 0.25 0.25 0.25 0.25 0.25 0.25 0.25 0.25 0.25 0.25 0.25 0.25 0.25 0.25 0.25 0.25 0.25 0.25</probabilities>
		</cpt>
		<cpt id="U3">
			<state id="a" />
			<state id="b" />
			<state id="c" />
			<state id="d" />
			<state id="e" />
			<state id="f" />
			<probabilities>0.1666666666666667 0.1666666666666667 0.1666666666666667 0.1666666666666667 0.1666666666666667 0.1666666666666667</probabilities>
		</cpt>
		<cpt id="V39">
			<state id="a" />
			<state id="b" />
			<state id="c" />
			<state id="d" />
			<parents>U3 U2</parents>
			<probabilities>0.25 0.25 0.25 0.25 0.25 0.25 0.25 0.25 0.25 0.25 0.25 0.25 0.25 0.25 0.25 0.25 0.25 0.25 0.25 0.25 0.25 0.25 0.25 0.25 0.25 0.25 0.25 0.25 0.25 0.25 0.25 0.25 0.25 0.25 0.25 0.25 0.25 0.25 0.25 0.25 0.25 0.25 0.25 0.25 0.25 0.25 0.25 0.25 0.25 0.25 0.25 0.25 0.25 0.25 0.25 0.25 0.25 0.25 0.25 0.25 0.25 0.25 0.25 0.25 0.25 0.25 0.25 0.25 0.25 0.25 0.25 0.25 0.25 0.25 0.25 0.25 0.25 0.25 0.25 0.25 0.25 0.25 0.25 0.25 0.25 0.25 0.25 0.25 0.25 0.25 0.25 0.25 0.25 0.25 0.25 0.25 0.25 0.25 0.25 0.25 0.25 0.25 0.25 0.25 0.25 0.25 0.25 0.25 0.25 0.25 0.25 0.25 0.25 0.25 0.25 0.25 0.25 0.25 0.25 0.25 0.25 0.25 0.25 0.25 0.25 0.25 0.25 0.25 0.25 0.25 0.25 0.25 0.25 0.25 0.25 0.25 0.25 0.25 0.25 0.25 0.25 0.25 0.25 0.25</probabilities>
		</cpt>
		<cpt id="V30">
			<state id="a" />
			<state id="b" />
			<state id="c" />
			<state id="d" />
			<parents>V38 V39</parents>
			<probabilities>3.040438483448931e-07 4.496603986157291e-22 0.2907194518213766 0.7092802441347751 3.476588606998782e-14 9.18905103297252e-07 0.999999081094862 3.691054412123039e-31 2.374679545174167e-05 0.1296631175393363 0.8703114800462805 1.655618931554154e-06 0.07961373871507002 0.8889234207741006 2.847792605212808e-20 0.03146284051082939 0.6544642310074247 0.3455357689603937 3.837116024317784e-12 2.834448010992255e-11 0.002015251070309383 0.4994678871722563 0.4985168617574341 5.125187391047424e-35 0.3257399522842632 3.982151187587124e-54 1.401663030536658e-05 0.6742460310854314 1.939881527739918e-17 1.707765490179127e-06 0.9999982922345098 7.829250530365813e-18 0.9822558161059762 6.164263415482214e-14 0.001580047284081199 0.01616413660988084 0.7374771291578134 0.1962533163539113 0.06624854985345402 2.100463482140466e-05 0.9845196396665263 0.0145153810316056 0.000964978927488524 3.743794896308713e-10 0.4926643800002115 1.321266776037978e-06 0.4487084069913828 0.05862589174162963 0.007769450408522126 0.1364201797375204 0.8557154638226523 9.490603130535845e-05 0.0004038489368608454 0.09463236849408774 0.8987572243691518 0.006206558199899447 3.514856723545599e-18 0.9999134188196032 1.204374097656849e-09 8.657997602274678e-05 0.3808732380662002 0.5983236969319009 0.02080304582134895 1.918055003168405e-08</probabilities>
		</cpt>
		<cpt id="V22">
			<state id="a" />
			<state id="b" />
			<state id="c" />
			<state id="d" />
			<parents>V29 V30</parents>
			<probabilities>3.983925878571529e-89 1.55035474952578e-47 9.020435981153046e-09 0.999999990979564 0.9582428788542324 6.748728230068504e-09 1.235645420951851e-05 0.0417447579428297 0.6370033461186438 9.266862387472006e-05 6.089675095996493e-198 0.3629039852574814 0.01587656661409291 0.005201169861510369 0.9789194619289932 2.801595403693504e-06 0.0005125329342179196 0.9992062024812078 2.034559459100038e-14 0.0002812645845536788 1.19907556257597e-12 0.0006065042105105283 0.001784952376149875 0.9976085434121404 0.0852416127483505 0.4763897341787192 0.4340056787841872 0.004362974288743161 0.8507785083221658 1.566660257025431e-06 0.1492199250175772 5.894644566634333e-103 1.13721858075041e-18 0.9961626528424873 2.628406780642971e-16 0.003837347157512414 0.8981929115376514 0.004057574969932843 0.09748106936233321 0.0002684441300827945 0.1257585814545732 3.216662382325017e-09 0.8742414153287644 1.145654708874205e-31 1.300629180929784e-07 0.0008831251491767114 2.629004241932156e-17 0.9991167447879052 0.9706718441087615 5.638202954152038e-05 0.02107433063354386 0.008197443228152914 2.444761782703265e-05 0.01974697379522003 0 0.980228578586953 0.04639769957752369 0.1633438851414768 0.7877433718419248 0.002515043439074777 0.09748336168157727 0.1651858519167546 0.7373307864016679 4.059518304381549e-34</probabilities>
		</cpt>
		<cpt id="V15">
			<state id="a" />
			<state id="b" />
			<state id="c" />
			<state id="d" />
			<parents>V21 V22</parents>
			<probabilities>0.9995480231739857 0.0004432009473614994 7.05509806824754e-07 8.070368846093004e-06 0.9982242234115459 0.001775776588454048 2.036153088894966e-23 3.151780088600484e-47 3.362079484064087e-14 0.9272228397822472 0.06999462496410401 0.002782535253615303 2.045687752589919e-05 0.006363664960159914 0.9894066959094725 0.004209182252841593 3.596370356374073e-06 0.9817760696437036 0.006566660025107995 0.01165367396083203 0.9824895699283465 0.003879056356294622 6.695644438651175e-05 0.0135644172709722 1.510892306693169e-13 0.9933227817345285 0.004288538202451156 0.002388680062869169 3.798523608237889e-08 0.8231127518470772 0.1768872100252305 1.424561927032145e-10 0.9987794129065979 7.378709506113969e-06 5.741077097645528e-06 0.001207467306798375 0.09862626617887697 0.2067078257976736 0.6936373518659825 0.001028556157467055 0.0008340178060634479 1.569633285028199e-13 3.577462682205336e-22 0.9991659821937794 0.3007542661443184 0.04678845376486922 1.874886413407961e-07 0.652457092602171 0.00632421562607727 0.9936757800278515 2.437747495600302e-42 4.346071268222699e-09 0.002772516411671424 0.7912197837536854 0.0007811766937119766 0.2052265231409313 0.9168797068574925 3.207679303751663e-05 2.043071699887977e-07 0.08308801204230001 0.001339293039941103 0.09538146812827963 0.9032792388317792 1.353983582407123e-54</probabilities>
		</cpt>
		<cpt id="U4">
			<state id="a" />
			<state id="b" />
			<state id="c" />
			<state id="d" />
			<state id="e" />
			<state id="f" />
			<probabilities>0.1666666666666667 0.1666666666666667 0.1666666666666667 0.1666666666666667 0.1666666666666667 0.1666666666666667</probabilities>
		</cpt>
		<cpt id="V40">
			<state id="a" />
			<state id="b" />
			<state id="c" />
			<state id="d" />
			<parents>U4 U3</parents>
			<probabilities>0.25 0.25 0.25 0.25 0.25 0.25 0.25 0.25 0.25 0.25 0.25 0.25 0.25 0.25 0.25 0.25 0.25 0.25 0.25 0.25 0.25 0.25 0.25 0.25 0.25 0.25 0.25 0.25 0.25 0.25 0.25 0.25 0.25 0.25 0.25 0.25 0.25 0.25 0.25 0.25 0.25 0.25 0.25 0.25 0.25 0.25 0.25 0.25 0.25 0.25 0.25 0.25 0.25 0.25 0.25 0.25 0.25 0.25 0.25 0.25 0.25 0.25 0.25 0.25 0.25 0.25 0.25 0.25 0.25 0.25 0.25 0.25 0.25 0.25 0.25 0.25 0.25 0.25 0.25 0.25 0.25 0.25 0.25 0.25 0.25 0.25 0.25 0.25 0.25 0.25 0.25 0.25 0.25 0.25 0.25 0.25 0.25 0.25 0.25 0.25 0.25 0.25 0.25 0.25 0.25 0.25 0.25 0.25 0.25 0.25 0.25 0.25 0.25 0.25 0.25 0.25 0.25 0.25 0.25 0.25 0.25 0.25 0.25 0.25 0.25 0.25 0.25 0.25 0.25 0.25 0.25 0.25 0.25 0.25 0.25 0.25 0.25 0.25 0.25 0.25 0.25 0.25 0.25 0.25</probabilities>
		</cpt>
		<cpt id="V31">
			<state id="a" />
			<state id="b" />
			<state id="c" />
			<state id="d" />
			<parents>V39 V40</parents>
			<probabilities>4.39058263194954e-07 0.9983029519218832 0.001416394099171538 0.000280214920682199 0.02222809004318026 3.968351763686163e-18 0.9777719099568198 3.570117559273655e-23 0.3286573078963189 0.007768842193962392 0.663573849909702 1.670250861140703e-14 5.69671945003943e-06 0.9547171237148294 2.084751312234574e-10 0.04527717935724557 1.389395859524715e-06 8.428139915368062e-26 0.9999986106019008 2.239763527978203e-12 0.003881226159042679 0.988923480962046 0.007195266115398909 2.676351237227273e-08 0.9999999999967157 3.284329875808708e-12 5.391787226470446e-25 1.622449983831338e-18 0.000914881951787673 6.437826033675712e-144 0.0001365185655434484 0.998948599482669 1.830488079291285e-39 0.9610216407297517 1.324243866276706e-10 0.03897835913782393 0.6945946004815911 0.2185276571216408 8.515691055787766e-09 0.08687773388107704 4.818463643526666e-21 0.0004980255364104635 0.2954514091153635 0.7040505653482261 0.9972811519561724 5.785492543598488e-23 0.002718848043827614 1.129727057932053e-99 0.1460289546766773 8.186625183323706e-06 0.8539628586981393 1.88949901571219e-30 0.1184850918186983 0.5396198016302969 0.1203405746803346 0.2215545318706701 0.3039398281537757 2.507865044328901e-11 0.696060171811993 9.152618819698726e-12 0.9685105731158952 1.769411994236017e-08 0.006122332479662414 0.02536707671032248</probabilities>
		</cpt>
		<cpt id="V23">
			<state id="a" />
			<state id="b" />
			<state id="c" />
			<state id="d" />
			<parents>V30 V31</parents>
			<probabilities>0.0001581445385602774 0.7356817535818483 1.150406491822901e-15 0.2641601018795903 0.0006504709465359021 0.9825656111823712 0.01464456201334533 0.0021393558577477 0.0001153851021094047 0.9917483307682495 0.008136266227529597 1.790211152610378e-08 3.019545966483299e-08 0.9994863613363886 8.600558789226901e-09 0.00051359986759303 0.002502595671399453 6.592881944166627e-05 9.144156372822928e-12 0.9974314755000148 8.958097045174402e-12 0.04358620578145493 0.9564123187936896 1.475415897405672e-06 0.3116068237928933 0.568587698712939 5.89186662168055e-22 0.1198054774941677 0.7664796986496952 7.699195951752746e-07 0.02284139849696113 0.2106781329337483 5.421846657213078e-13 1.266158282857862e-22 0.9998816045553315 0.0001183954441262267 0.001527398535557409 0.759846857851777 0.2386257025054977 4.110716781639176e-08 3.879998111310664e-130 0.1994923044130729 0.7621748651067402 0.03833283048018696 5.442956885579913e-28 0.9961756638476025 2.268815875280017e-201 0.003824336152397479 0.0242283918098617 1.090249156723706e-05 3.137656938049146e-10 0.9757607053848053 0.3995168579114826 0.1389010887816724 0.461582053306845 1.031130016600969e-27 0.0007502639222020647 0.9992497360777978 3.25975087203229e-20 1.241846780733768e-16 0.05727588581167017 1.982954169955015e-14 1.298273435297125e-06 0.9427228159148746</probabilities>
		</cpt>
		<cpt id="V16">
			<state id="a" />
			<state id="b" />
			<state id="c" />
			<state id="d" />
			<parents>V22 V23</parents>
			<probabilities>0.9996464862534844 7.117355419349997e-08 5.423720346576841e-06 0.0003480188526148322 0.00127370799460778 2.639144338901393e-123 1.215880390149904e-09 0.9987262907895119 0.910174076113627 4.725253672568532e-09 0.08832458607357731 0.001501333087542184 1.269498077775864e-39 0.597332344190371 0.001815449863282089 0.400852205946347 0.07753303284867345 0.03084032957094242 3.385777610719476e-52 0.8916266375803841 4.791826890592547e-06 7.718634261042236e-05 0.4797335760204041 0.5201844458100948 1.091453814457123e-06 0.9927083423204203 0.0002826881410509277 0.007007878084714263 0.2389642509009819 0.6938353142534922 3.732063076023127e-06 0.06719670278244985 1.09036803500493e-10 3.806288958826386e-06 5.215769353783537e-26 0.9999961936020043 0.05528464944673218 0.0001109855680131376 0.9434454902153786 0.001158874769876129 0.2091159788939257 8.743542767943813e-54 0.7908840211060134 6.088529737455973e-14 0.001902784894954394 0.9980971902883209 7.554794579844624e-09 1.726193023175478e-08 0.0002694811431794757 0.9788433749308367 0.02088714392598387 0 9.301977483701867e-14 0.000125522975055255 0.5578698858820575 0.4420045911427941 0.07575154239974644 5.890338029904638e-10 0.9238944525440622 0.00035400446715754 0.3490769966884313 0.6509045567971964 1.844651437214678e-05 7.616304346888862e-36</probabilities>
		</cpt>
		<cpt id="U12">
			<state id="a" />
			<state id="b" />
			<state id="c" />
			<state id="d" />
			<state id="e" />
			<state id="f" />
			<probabilities>0.1666666666666667 0.1666666666666667 0.1666666666666667 0.1666666666666667 0.1666666666666667 0.1666666666666667</probabilities>
		</cpt>
		<cpt id="V10">
			<state id="a" />
			<state id="b" />
			<state id="c" />
			<state id="d" />
			<parents>V15 V16 U10 U12</parents>
			<probabilities>0.25 0.25 0.25 0.25 0.25 0.25 0.25 0.25 0.25 0.25 0.25 0.25 0.25 0.25 0.25 0.25 0.25 0.25 0.25 0.25 0.25 0.25 0.25 0.25 0.25 0.25 0.25 0.25 0.25 0.25 0.25 0.25 0.25 0.25 0.25 0.25 0.25 0.25 0.25 0.25 0.25 0.25 0.25 0.25 0.25 0.25 0.25 0.25 0.25 0.25 0.25 0.25 0.25 0.25 0.25 0.25 0.25 0.25 0.25 0.25 0.25 0.25 0.25 0.25 0.25 0.25 0.25 0.25 0.25 0.25 0.25 0.25 0.25 0.25 0.25 0.25 0.25 0.25 0.25 0.25 0.25 0.25 0.25 0.25 0.25 0.25 0.25 0.25 0.25 0.25 0.25 0.25 0.25 0.25 0.25 0.25 0.25 0.25 0.25 0.25 0.25 0.25 0.25 0.25 0.25 0.25 0.25 0.25 0.25 0.25 0.25 0.25 0.25 0.25 0.25 0.25 0.25 0.25 0.25 0.25 0.25 0.25 0.25 0.25 0.25 0.25 0.25 0.25 0.25 0.25 0.25 0.25 0.25 0.25 0.25 0.25 0.25 0.25 0.25 0.25 0.25 0.25 0.25 0.25 0.25 0.25 0.25 0.25 0.25 0.25 0.25 0.25 0.25 0.25 0.25 0.25 0.25 0.25 0.25 0.25 0.25 0.25 0.25 0.25 0.25 0.25 0.25 0.25 0.25 0.25 0.25 0.25 0.25 0.25 0.25 0.25 0.25 0.25 0.25 0.25 0.25 0.25 0.25 0.25 0.25 0.25 0.25 0.25 0.25 0.25 0.25 0.25 0.25 0.25 0.25 0.25 0.25 0.25 0.25 0.25 0.25 0.25 0.25 0.25 0.25 0.25 0.25 0.25 0.25 0.25 0.25 0.25 0.25 0.25 0.25 0.25 0.25 0.25 0.25 0.25 0.25 0.25 0.25 0.25 0.25 0.25 0.25 0.25 0.25 0.25 0.25 0.25 0.25 0.25 0.25 0.25 0.25 0.25 0.25 0.25 0.25 0.25 0.25 0.25 0.25 0.25 0.25 0.25 0.25 0.25 0.25 0.25 0.25 0.25 0.25 0.25 0.25 0.25 0.25 0.25 0.25 0.25 0.25 0.25 0.25 0.25 0.25 0.25 0.25 0.25 0.25 0.25 0.25 0.25 0.25 0.25 0.25 0.25 0.25 0.25 0.25 0.25 0.25 0.25 0.25 0.25 0.25 0.25 0.25 0.25 0.25 0.25 0.25 0.25 0.25 0.25 0.25 0.25 0.25 0.25 0.25 0.25 0.25 0.25 0.25 0.25 0.25 0.25 0.25 0.25 0.25 0.25 0.25 0.25 0.25 0.25 0.25 0.25 0.25 0.25 0.25 0.25 0.25 0.25 0.25 0.25 0.25 0.25 0.25 0.25 0.25 0.25 0.25 0.25 0.25 0.25 0.25 0.25 0.25 0.25 0.25 0.25 0.25 0.25 0.25 0.25 0.25 0.25 0.25 0.25 0.25 0.25 0.25 0.25 0.25 0.25 0.25 0.25 0.25 0.25 0.25 0.25 0.25 0.25 0.25 0.25 0.25 0.25 0.25 0.25 0.25 0.25 0.25 0.25 0.25 0.25 0.25 0.25 0.25 0.25 0.25 0.25 0.25 0.25 0.25 0.25 0.25 0.25 0.25 0.25 0.25 0.25 0.25 0.25 0.25 0.25 0.25 0.25 0.25 0.25 0.25 0.25 0.25 0.25 0.25 0.25 0.25 0.25 0.25 0.25 0.25 0.25 0.25 0.25 0.25 0.25 0.25 0.25 0.25 0.25 0.25 0.25 0.25 0.25 0.25 0.25 0.25 0.25 0.25 0.25 0.25 0.25 0.25 0.25 0.25 0.25 0.25 0.25 0.25 0.25 0.25 0.25 0.25 0.25 0.25 0.25 0.25 0.25 0.25 0.25 0.25 0.25 0.25 0.25 0.25 0.25 0.25 0.25 0.25 0.25 0.25 0.25 0.25 0.25 0.25 0.25 0.25 0.25 0.25 0.25 0.25 0.25 0.25 0.25 0.25 0.25 0.25 0.25 0.25 0.25 0.25 0.25 0.25 0.25 0.25 0.25 0.25 0.25 0.25 0.25 0.25 0.25 0.25 0.25 0.25 0.25 0.25 0.25 0.25 0.25 0.25 0.25 0.25 0.25 0.25 0.25 0.25 0.25 0.25 0.25 0.25 0.25 0.25 0.25 0.25 0.25 0.25 0.25 0.25 0.25 0.25 0.25 0.25 0.25 0.25 0.25 0.25 0.25 0.25 0.25 0.25 0.25 0.25 0.25 0.25 0.25 0.25 0.25 0.25 0.25 0.25 0.25 0.25 0.25 0.25 0.25 0.25 0.25 0.25 0.25 0.25 0.25 0.25 0.25 0.25 0.25 0.25 0.25 0.25 0.25 0.25 0.25 0.25 0.25 0.25 0.25 0.25 0.25 0.25 0.25 0.25 0.25 0.25 0.25 0.25 0.25 0.25 0.25 0.25 0.25 0.25 0.25 0.25 0.25 0.25 0.25 0.25 0.25 0.25 0.25 0.25 0.25 0.25 0.25 0.25 0.25 0.25 0.25 0.25 0.25 0.25 0.25 0.25 0.25 0.25 0.25 0.25 0.25 0.25 0.25 0.25 0.25 0.25 0.25 0.25 0.25 0.25 0.25 0.25 0.25 0.25 0.25 0.25 0.25 0.25 0.25 0.25 0.25 0.25 0.25 0.25 0.25 0.25 0.25 0.25 0.25 0.25 0.25 0.25 0.25 0.25 0.25 0.25 0.25 0.25 0.25 0.25 0.25 0.25 0.25 0.25 0.25 0.25 0.25 0.25 0.25 0.25 0.25 0.25 0.25 0.25 0.25 0.25 0.25 0.25 0.25 0.25 0.25 0.25 0.25 0.25 0.25 0.25 0.25 0.25 0.25 0.25 0.25 0.25 0.25 0.25 0.25 0.25 0.25 0.25 0.25 0.25 0.25 0.25 0.25 0.25 0.25 0.25 0.25 0.25 0.25 0.25 0.25 0.25 0.25 0.25 0.25 0.25 0.25 0.25 0.25 0.25 0.25 0.25 0.25 0.25 0.25 0.25 0.25 0.25 0.25 0.25 0.25 0.25 0.25 0.25 0.25 0.25 0.25 0.25 0.25 0.25 0.25 0.25 0.25 0.25 0.25 0.25 0.25 0.25 0.25 0.25 0.25 0.25 0.25 0.25 0.25 0.25 0.25 0.25 0.25 0.25 0.25 0.25 0.25 0.25 0.25 0.25 0.25 0.25 0.25 0.25 0.25 0.25 0.25 0.25 0.25 0.25 0.25 0.25 0.25 0.25 0.25 0.25 0.25 0.25 0.25 0.25 0.25 0.25 0.25 0.25 0.25 0.25 0.25 0.25 0.25 0.25 0.25 0.25 0.25 0.25 0.25 0.25 0.25 0.25 0.25 0.25 0.25 0.25 0.25 0.25 0.25 0.25 0.25 0.25 0.25 0.25 0.25 0.25 0.25 0.25 0.25 0.25 0.25 0.25 0.25 0.25 0.25 0.25 0.25 0.25 0.25 0.25 0.25 0.25 0.25 0.25 0.25 0.25 0.25 0.25 0.25 0.25 0.25 0.25 0.25 0.25 0.25 0.25 0.25 0.25 0.25 0.25 0.25 0.25 0.25 0.25 0.25 0.25 0.25 0.25 0.25 0.25 0.25 0.25 0.25 0.25 0.25 0.25 0.25 0.25 0.25 0.25 0.25 0.25 0.25 0.25 0.25 0.25 0.25 0.25 0.25 0.25 0.25 0.25 0.25 0.25 0.25 0.25 0.25 0.25 0.25 0.25 0.25 0.25 0.25 0.25 0.25 0.25 0.25 0.25 0.25 0.25 0.25 0.25 0.25 0.25 0.25 0.25 0.25 0.25 0.25 0.25 0.25 0.25 0.25 0.25 0.25 0.25 0.25 0.25 0.25 0.25 0.25 0.25 0.25 0.25 0.25 0.25 0.25 0.25 0.25 0.25 0.25 0.25 0.25 0.25 0.25 0.25 0.25 0.25 0.25 0.25 0.25 0.25 0.25 0.25 0.25 0.25 0.25 0.25 0.25 0.25 0.25 0.25 0.25 0.25 0.25 0.25 0.25 0.25 0.25 0.25 0.25 0.25 0.25 0.25 0.25 0.25 0.25 0.25 0.25 0.25 0.25 0.25 0.25 0.25 0.25 0.25 0.25 0.25 0.25 0.25 0.25 0.25 0.25 0.25 0.25 0.25 0.25 0.25 0.25 0.25 0.25 0.25 0.25 0.25 0.25 0.25 0.25 0.25 0.25 0.25 0.25 0.25 0.25 0.25 0.25 0.25 0.25 0.25 0.25 0.25 0.25 0.25 0.25 0.25 0.25 0.25 0.25 0.25 0.25 0.25 0.25 0.25 0.25 0.25 0.25 0.25 0.25 0.25 0.25 0.25 0.25 0.25 0.25 0.25 0.25 0.25 0.25 0.25 0.25 0.25 0.25 0.25 0.25 0.25 0.25 0.25 0.25 0.25 0.25 0.25 0.25 0.25 0.25 0.25 0.25 0.25 0.25 0.25 0.25 0.25 0.25 0.25 0.25 0.25 0.25 0.25 0.25 0.25 0.25 0.25 0.25 0.25 0.25 0.25 0.25 0.25 0.25 0.25 0.25 0.25 0.25 0.25 0.25 0.25 0.25 0.25 0.25 0.25 0.25 0.25 0.25 0.25 0.25 0.25 0.25 0.25 0.25 0.25 0.25 0.25 0.25 0.25 0.25 0.25 0.25 0.25 0.25 0.25 0.25 0.25 0.25 0.25 0.25 0.25 0.25 0.25 0.25 0.25 0.25 0.25 0.25 0.25 0.25 0.25 0.25 0.25 0.25 0.25 0.25 0.25 0.25 0.25 0.25 0.25 0.25 0.25 0.25 0.25 0.25 0.25 0.25 0.25 0.25 0.25 0.25 0.25 0.25 0.25 0.25 0.25 0.25 0.25 0.25 0.25 0.25 0.25 0.25 0.25 0.25 0.25 0.25 0.25 0.25 0.25 0.25 0.25 0.25 0.25 0.25 0.25 0.25 0.25 0.25 0.25 0.25 0.25 0.25 0.25 0.25 0.25 0.25 0.25 0.25 0.25 0.25 0.25 0.25 0.25 0.25 0.25 0.25 0.25 0.25 0.25 0.25 0.25 0.25 0.25 0.25 0.25 0.25 0.25 0.25 0.25 0.25 0.25 0.25 0.25 0.25 0.25 0.25 0.25 0.25 0.25 0.25 0.25 0.25 0.25 0.25 0.25 0.25 0.25 0.25 0.25 0.25 0.25 0.25 0.25 0.25 0.25 0.25 0.25 0.25 0.25 0.25 0.25 0.25 0.25 0.25 0.25 0.25 0.25 0.25 0.25 0.25 0.25 0.25 0.25 0.25 0.25 0.25 0.25 0.25 0.25 0.25 0.25 0.25 0.25 0.25 0.25 0.25 0.25 0.25 0.25 0.25 0.25 0.25 0.25 0.25 0.25 0.25 0.25 0.25 0.25 0.25 0.25 0.25 0.25 0.25 0.25 0.25 0.25 0.25 0.25 0.25 0.25 0.25 0.25 0.25 0.25 0.25 0.25 0.25 0.25 0.25 0.25 0.25 0.25 0.25 0.25 0.25 0.25 0.25 0.25 0.25 0.25 0.25 0.25 0.25 0.25 0.25 0.25 0.25 0.25 0.25 0.25 0.25 0.25 0.25 0.25 0.25 0.25 0.25 0.25 0.25 0.25 0.25 0.25 0.25 0.25 0.25 0.25 0.25 0.25 0.25 0.25 0.25 0.25 0.25 0.25 0.25 0.25 0.25 0.25 0.25 0.25 0.25 0.25 0.25 0.25 0.25 0.25 0.25 0.25 0.25 0.25 0.25 0.25 0.25 0.25 0.25 0.25 0.25 0.25 0.25 0.25 0.25 0.25 0.25 0.25 0.25 0.25 0.25 0.25 0.25 0.25 0.25 0.25 0.25 0.25 0.25 0.25 0.25 0.25 0.25 0.25 0.25 0.25 0.25 0.25 0.25 0.25 0.25 0.25 0.25 0.25 0.25 0.25 0.25 0.25 0.25 0.25 0.25 0.25 0.25 0.25 0.25 0.25 0.25 0.25 0.25 0.25 0.25 0.25 0.25 0.25 0.25 0.25 0.25 0.25 0.25 0.25 0.25 0.25 0.25 0.25 0.25 0.25 0.25 0.25 0.25 0.25 0.25 0.25 0.25 0.25 0.25 0.25 0.25 0.25 0.25 0.25 0.25 0.25 0.25 0.25 0.25 0.25 0.25 0.25 0.25 0.25 0.25 0.25 0.25 0.25 0.25 0.25 0.25 0.25 0.25 0.25 0.25 0.25 0.25 0.25 0.25 0.25 0.25 0.25 0.25 0.25 0.25 0.25 0.25 0.25 0.25 0.25 0.25 0.25 0.25 0.25 0.25 0.25 0.25 0.25 0.25 0.25 0.25 0.25 0.25 0.25 0.25 0.25 0.25 0.25 0.25 0.25 0.25 0.25 0.25 0.25 0.25 0.25 0.25 0.25 0.25 0.25 0.25 0.25 0.25 0.25 0.25 0.25 0.25 0.25 0.25 0.25 0.25 0.25 0.25 0.25 0.25 0.25 0.25 0.25 0.25 0.25 0.25 0.25 0.25 0.25 0.25 0.25 0.25 0.25 0.25 0.25 0.25 0.25 0.25 0.25 0.25 0.25 0.25 0.25 0.25 0.25 0.25 0.25 0.25 0.25 0.25 0.25 0.25 0.25 0.25 0.25 0.25 0.25 0.25 0.25 0.25 0.25 0.25 0.25 0.25 0.25 0.25 0.25 0.25 0.25 0.25 0.25 0.25 0.25 0.25 0.25 0.25 0.25 0.25 0.25 0.25 0.25 0.25 0.25 0.25 0.25 0.25 0.25 0.25 0.25 0.25 0.25 0.25 0.25 0.25 0.25 0.25 0.25 0.25 0.25 0.25 0.25 0.25 0.25 0.25 0.25 0.25 0.25 0.25 0.25 0.25 0.25 0.25 0.25 0.25 0.25 0.25 0.25 0.25 0.25 0.25 0.25 0.25 0.25 0.25 0.25 0.25 0.25 0.25 0.25 0.25 0.25 0.25 0.25 0.25 0.25 0.25 0.25 0.25 0.25 0.25 0.25 0.25 0.25 0.25 0.25 0.25 0.25 0.25 0.25 0.25 0.25 0.25 0.25 0.25 0.25 0.25 0.25 0.25 0.25 0.25 0.25 0.25 0.25 0.25 0.25 0.25 0.25 0.25 0.25 0.25 0.25 0.25 0.25 0.25 0.25 0.25 0.25 0.25 0.25 0.25 0.25 0.25 0.25 0.25 0.25 0.25 0.25 0.25 0.25 0.25 0.25 0.25 0.25 0.25 0.25 0.25 0.25 0.25 0.25 0.25 0.25 0.25 0.25 0.25 0.25 0.25 0.25 0.25 0.25 0.25 0.25 0.25 0.25 0.25 0.25 0.25 0.25 0.25 0.25 0.25 0.25 0.25 0.25 0.25 0.25 0.25 0.25 0.25 0.25 0.25 0.25 0.25 0.25 0.25 0.25 0.25 0.25 0.25 0.25 0.25 0.25 0.25 0.25 0.25 0.25 0.25 0.25 0.25 0.25 0.25 0.25 0.25 0.25 0.25 0.25 0.25 0.25 0.25 0.25 0.25 0.25 0.25 0.25 0.25 0.25 0.25 0.25 0.25 0.25 0.25 0.25 0.25 0.25 0.25 0.25 0.25 0.25 0.25 0.25 0.25 0.25 0.25 0.25 0.25 0.25 0.25 0.25 0.25 0.25 0.25 0.25 0.25 0.25 0.25 0.25 0.25 0.25 0.25 0.25 0.25 0.25 0.25 0.25 0.25 0.25 0.25 0.25 0.25 0.25 0.25 0.25 0.25 0.25 0.25 0.25 0.25 0.25 0.25 0.25 0.25 0.25 0.25 0.25 0.25 0.25 0.25 0.25 0.25 0.25 0.25 0.25 0.25 0.25 0.25 0.25 0.25 0.25 0.25 0.25 0.25 0.25 0.25 0.25 0.25 0.25 0.25 0.25 0.25 0.25 0.25 0.25 0.25 0.25 0.25 0.25 0.25 0.25 0.25 0.25 0.25 0.25 0.25 0.25 0.25 0.25 0.25 0.25 0.25 0.25 0.25 0.25 0.25 0.25 0.25 0.25 0.25 0.25 0.25 0.25 0.25 0.25 0.25 0.25 0.25 0.25 0.25 0.25 0.25 0.25 0.25 0.25 0.25 0.25 0.25 0.25 0.25 0.25 0.25 0.25 0.25 0.25 0.25 0.25 0.25 0.25 0.25 0.25 0.25 0.25 0.25 0.25 0.25 0.25 0.25 0.25 0.25 0.25 0.25 0.25 0.25 0.25 0.25 0.25 0.25 0.25 0.25 0.25 0.25 0.25 0.25 0.25 0.25 0.25 0.25 0.25 0.25 0.25 0.25 0.25 0.25 0.25 0.25 0.25 0.25 0.25 0.25 0.25 0.25 0.25 0.25 0.25 0.25 0.25 0.25 0.25 0.25 0.25 0.25 0.25 0.25 0.25 0.25 0.25 0.25 0.25 0.25 0.25 0.25 0.25 0.25 0.25 0.25 0.25 0.25 0.25 0.25 0.25 0.25 0.25 0.25 0.25 0.25 0.25 0.25 0.25 0.25 0.25 0.25 0.25 0.25 0.25 0.25 0.25 0.25 0.25 0.25 0.25 0.25 0.25 0.25 0.25 0.25 0.25 0.25 0.25 0.25 0.25 0.25 0.25 0.25 0.25 0.25 0.25 0.25 0.25 0.25 0.25 0.25 0.25 0.25 0.25 0.25 0.25 0.25 0.25 0.25 0.25 0.25 0.25 0.25 0.25 0.25 0.25 0.25 0.25 0.25 0.25 0.25 0.25 0.25 0.25 0.25 0.25 0.25 0.25 0.25 0.25 0.25 0.25 0.25 0.25 0.25 0.25 0.25 0.25 0.25 0.25 0.25 0.25 0.25 0.25 0.25 0.25 0.25 0.25 0.25 0.25 0.25 0.25 0.25 0.25 0.25 0.25 0.25 0.25 0.25 0.25 0.25 0.25 0.25 0.25 0.25 0.25 0.25 0.25 0.25 0.25 0.25 0.25 0.25 0.25 0.25 0.25 0.25 0.25 0.25 0.25 0.25 0.25 0.25 0.25 0.25 0.25 0.25 0.25 0.25 0.25 0.25 0.25 0.25 0.25 0.25 0.25 0.25 0.25 0.25 0.25 0.25 0.25 0.25 0.25 0.25 0.25 0.25 0.25 0.25 0.25 0.25 0.25 0.25 0.25 0.25 0.25 0.25 0.25 0.25 0.25 0.25 0.25 0.25 0.25 0.25 0.25 0.25 0.25 0.25 0.25 0.25 0.25 0.25 0.25 0.25 0.25 0.25 0.25 0.25 0.25 0.25 0.25 0.25 0.25 0.25 0.25 0.25 0.25 0.25 0.25 0.25 0.25 0.25 0.25 0.25 0.25 0.25 0.25 0.25 0.25 0.25 0.25 0.25 0.25 0.25 0.25 0.25 0.25 0.25 0.25 0.25 0.25 0.25 0.25 0.25 0.25 0.25 0.25 0.25 0.25 0.25 0.25 0.25 0.25 0.25 0.25 0.25 0.25 0.25 0.25 0.25 0.25 0.25 0.25 0.25 0.25 0.25 0.25 0.25 0.25 0.25 0.25 0.25 0.25 0.25 0.25 0.25 0.25 0.25 0.25 0.25 0.25 0.25 0.25 0.25 0.25 0.25 0.25 0.25 0.25 0.25 0.25 0.25 0.25 0.25 0.25 0.25 0.25 0.25 0.25 0.25 0.25 0.25 0.25 0.25 0.25 0.25 0.25 0.25 0.25 0.25 0.25 0.25 0.25 0.25 0.25 0.25 0.25 0.25 0.25 0.25 0.25 0.25 0.25 0.25 0.25 0.25 0.25 0.25 0.25 0.25 0.25 0.25 0.25 0.25 0.25 0.25 0.25 0.25 0.25 0.25 0.25 0.25 0.25 0.25 0.25 0.25 0.25 0.25 0.25 0.25 0.25 0.25 0.25 0.25 0.25 0.25 0.25 0.25 0.25 0.25 0.25 0.25 0.25 0.25</probabilities>
		</cpt>
		<cpt id="U5">
			<state id="a" />
			<state id="b" />
			<state id="c" />
			<state id="d" />
			<state id="e" />
			<state id="f" />
			<probabilities>0.1666666666666667 0.1666666666666667 0.1666666666666667 0.1666666666666667 0.1666666666666667 0.1666666666666667</probabilities>
		</cpt>
		<cpt id="V41">
			<state id="a" />
			<state id="b" />
			<state id="c" />
			<state id="d" />
			<parents>U5 U4</parents>
			<probabilities>0.25 0.25 0.25 0.25 0.25 0.25 0.25 0.25 0.25 0.25 0.25 0.25 0.25 0.25 0.25 0.25 0.25 0.25 0.25 0.25 0.25 0.25 0.25 0.25 0.25 0.25 0.25 0.25 0.25 0.25 0.25 0.25 0.25 0.25 0.25 0.25 0.25 0.25 0.25 0.25 0.25 0.25 0.25 0.25 0.25 0.25 0.25 0.25 0.25 0.25 0.25 0.25 0.25 0.25 0.25 0.25 0.25 0.25 0.25 0.25 0.25 0.25 0.25 0.25 0.25 0.25 0.25 0.25 0.25 0.25 0.25 0.25 0.25 0.25 0.25 0.25 0.25 0.25 0.25 0.25 0.25 0.25 0.25 0.25 0.25 0.25 0.25 0.25 0.25 0.25 0.25 0.25 0.25 0.25 0.25 0.25 0.25 0.25 0.25 0.25 0.25 0.25 0.25 0.25 0.25 0.25 0.25 0.25 0.25 0.25 0.25 0.25 0.25 0.25 0.25 0.25 0.25 0.25 0.25 0.25 0.25 0.25 0.25 0.25 0.25 0.25 0.25 0.25 0.25 0.25 0.25 0.25 0.25 0.25 0.25 0.25 0.25 0.25 0.25 0.25 0.25 0.25 0.25 0.25</probabilities>
		</cpt>
		<cpt id="V32">
			<state id="a" />
			<state id="b" />
			<state id="c" />
			<state id="d" />
			<parents>V40 V41</parents>
			<probabilities>4.032035163125934e-14 0.9933874265357666 0.0008784385031731694 0.00573413496102 0.002811453266003744 0.3381306408091688 8.316629186093019e-15 0.6590579059248192 0.004772778996803584 0.2952634047529312 0.693484604651785 0.00647921159848024 0.9931077278878748 3.756094884804715e-46 0.006892272112119267 5.889981835927765e-15 5.419664160253885e-08 0.0003679787995308329 6.045891098297781e-21 0.9996319670038277 4.205192979831424e-09 0.04123611826178699 1.441048454917092e-07 0.9587637334281744 1.814184721613374e-36 4.28559825950503e-37 0.03299661645059963 0.9670033835494004 0.1220044141842092 7.524933074122164e-63 1.369573425087936e-16 0.8779955858157906 2.015482182342003e-15 0.003629388162166671 0.004082222450585471 0.9922883893872457 0.9972155003233082 2.116561952589488e-05 1.523922713117139e-06 0.002761810134452801 0.4023990478123841 0.06697502221622371 0.5306259299713922 2.787261809583485e-127 0.01080062177475349 0.0124700452545614 0.01662023438912194 0.9601090985815632 0.7155777519046942 6.447160675408697e-14 0.009886468838466431 0.2745357792567749 2.610260935976106e-06 3.681057227082979e-14 0.9999946949449527 2.694794074398285e-06 0.0004998784920183485 0.1144638977473007 0.8698490253762757 0.01518719838440514 0.9963568357789424 0.00135463506692557 0.002288495902848705 3.325128343794539e-08</probabilities>
		</cpt>
		<cpt id="V24">
			<state id="a" />
			<state id="b" />
			<state id="c" />
			<state id="d" />
			<parents>V31 V32</parents>
			<probabilities>8.111262892154447e-06 0.001549228814292288 1.583552049101719e-17 0.9984426599228156 4.43080328568918e-66 0.99660465678006 0.003372378289598559 2.296493034127647e-05 5.364414036905282e-05 0.0139087819796232 0.9860375738800078 1.339776905359589e-21 1.693554183545738e-07 2.989232181029802e-54 0.06006249688518971 0.9399373337593918 4.039346155320399e-09 0.001782049868370519 2.880158515249533e-15 0.9982179460922804 0.009055364518782706 0.5268512547764482 0.002481306607530931 0.4616120740972381 2.900237222818375e-08 0.9999087789630662 1.929229528167051e-19 9.119203456163146e-05 9.373131978595636e-07 0.2589461640421155 0.7410528986446868 9.284887179935889e-39 2.811171227677132e-15 0.4508922569976139 0.1772291195355472 0.3718786234668361 1.400242482605062e-06 0.1332970779643366 5.318513867033778e-34 0.8667015217931808 9.369942998599064e-10 0.002345028187121232 3.314888923240079e-13 0.997654970875553 0.9876138277900245 0.003413127703152497 0.008833618641677685 0.0001394258651455199 0.08094501141770209 4.086540780691839e-07 0.1457320456361262 0.7733225342920936 1.471269597164158e-61 3.207975400353711e-06 0.2802671786589297 0.71972961336567 2.445032797617567e-17 0.1935029973048405 0.3305958806496195 0.47590112204554 1.88211837274578e-25 0.9956671802306719 7.444675393673328e-07 0.004332075301788792</probabilities>
		</cpt>
		<cpt id="V17">
			<state id="a" />
			<state id="b" />
			<state id="c" />
			<state id="d" />
			<parents>V23 V24</parents>
			<probabilities>7.123455629595363e-06 0.9999766883451644 7.537666747364481e-37 1.618819920599586e-05 1.068738881078221e-16 0.9183486474803509 4.967338939909978e-06 0.08164638518070903 0.05761758799554212 8.001477270119044e-05 0.7677501453764777 0.1745522518552791 0.36501123303237 4.356569925529916e-07 0.613000163575235 0.0219881677354024 0.6078547037881952 0.3907147549395633 2.895029203523586e-18 0.001430541272241531 0.04142506502640388 0.9382818281801556 4.524239210829567e-06 0.02028858255422967 0.9869025741792171 4.608116145582466e-07 0.0004877800832123489 0.01260918492595597 0.8940615032939999 0.02452940796370778 7.070380327550659e-13 0.08140908874158519 0.982222670524137 4.538402647323997e-07 0.01777502837348676 1.847262111606841e-06 0.9499264134675903 0.05007358653240957 6.20765459152038e-70 6.527846815226949e-49 0.9999295990756293 7.037683865997246e-05 2.408571066077938e-08 5.747241258292015e-49 0.6248566429548665 0.1120895945083851 0.008975018514026888 0.2540787440227216 0.02316671464672706 0.7094788932887431 0.0157361333578608 0.2516182587066689 0.3113376737128279 0.6874189731963807 0.0006208615008684319 0.0006224915899229254 1.3474587388604e-23 4.803558536207422e-32 0.0258507995446394 0.9741492004553606 0.003999883191664707 0.9923068192703159 7.27233041625725e-11 0.003693297465295996</probabilities>
		</cpt>
		<cpt id="V11">
			<state id="a" />
			<state id="b" />
			<state id="c" />
			<state id="d" />
			<parents>V16 V17</parents>
			<probabilities>0.1288733024020145 5.943865830547071e-106 9.886011247717814e-86 0.8711266975979854 0.009379110009734806 0.9657586399306414 6.291797348215372e-09 0.02486224376782643 6.163646079696361e-05 0.9998190210833315 3.852583734379437e-16 0.0001193424558711421 0.001498519585603881 4.486716316981403e-05 0.000843774657571998 0.9976128385936545 2.913062847465945e-19 0.9970195177542044 0.002980482245795176 5.337820316008339e-16 5.612579348282175e-05 5.244196449635908e-58 0.8464559984336847 0.1534878757728324 0.8419465697493712 0.0003581033044395094 0.1568213559409262 0.0008739710052631278 0.9999995230356546 4.016054456713485e-26 2.752049094423794e-22 4.769643453757925e-07 0.9817530504056698 4.062299357746668e-09 0.01824685916863267 8.636339821004763e-08 0.06391947764948834 0.9117555126170332 6.101044308693329e-08 0.02432494872303534 0.5117226386594912 0.000546437471641313 1.231855843692428e-09 0.4877309226370117 1.06455361545311e-23 7.127401342361264e-05 0.1042990487653687 0.8956296772212077 2.366925039431896e-20 0.06450583598894327 0.02667208076381944 0.9088220832472372 0.001383250495065417 1.235044012907957e-05 0.008207356064519103 0.9903970430002864 0.06984722437105799 0.000392640374958307 0.833289308348692 0.09647082690529174 0.9991618797251375 1.845271045321129e-30 3.525240953358224e-89 0.0008381202748624811</probabilities>
		</cpt>
		<cpt id="V6">
			<state id="a" />
			<state id="b" />
			<state id="c" />
			<state id="d" />
			<parents>V10 V11</parents>
			<probabilities>0.0006009980889356835 2.627927026887348e-20 2.153746029707086e-08 0.9993989803736039 4.599822414658706e-12 0.9391983292435627 0.0174191913829265 0.04338247936891088 2.205236291209921e-05 0.2152253413145803 3.302824835120644e-18 0.7847526063225078 0.5620741471828725 0.4371126715638515 0.0005154554216543993 0.000297725831621423 0.01296902089275705 0.9870309788782781 2.288847899431326e-10 8.02627699016074e-14 1.595971766629057e-06 0.01358913570615906 0.9864092683220743 8.095501547902947e-20 6.184579761625502e-08 0.6304842606440638 0.00299037429240089 0.3665253032177377 0.2877579600315248 0.6415629927941597 5.390930452754364e-25 0.07067904717431552 4.24745872542993e-09 0.0001928372740540997 0.118926410966633 0.8808807475118542 8.669167095402704e-14 0.4338253286585069 0.5661746713125474 2.885912212853615e-11 4.34241074510007e-10 0.62956293220825 0.0005708775717281514 0.3698661897857807 0.872867054198318 1.433539251843592e-05 0.08819689310443321 0.03892171730473044 0.0007242808778173015 0 0.9992756997698978 1.935228477973734e-08 0.9962769113231393 8.571056317357573e-19 2.96366413730155e-06 0.003720125012723386 0.008807475872821735 0.9911539872140263 2.223250702945755e-05 1.630440612265101e-05 0.2041718953113739 7.092341771384007e-06 9.567735567779406e-11 0.7958210122511773</probabilities>
		</cpt>
		<cpt id="U6">
			<state id="a" />
			<state id="b" />
			<state id="c" />
			<state id="d" />
			<state id="e" />
			<state id="f" />
			<probabilities>0.1666666666666667 0.1666666666666667 0.1666666666666667 0.1666666666666667 0.1666666666666667 0.1666666666666667</probabilities>
		</cpt>
		<cpt id="V42">
			<state id="a" />
			<state id="b" />
			<state id="c" />
			<state id="d" />
			<parents>U6 U5</parents>
			<probabilities>0.25 0.25 0.25 0.25 0.25 0.25 0.25 0.25 0.25 0.25 0.25 0.25 0.25 0.25 0.25 0.25 0.25 0.25 0.25 0.25 0.25 0.25 0.25 0.25 0.25 0.25 0.25 0.25 0.25 0.25 0.25 0.25 0.25 0.25 0.25 0.25 0.25 0.25 0.25 0.25 0.25 0.25 0.25 0.25 0.25 0.25 0.25 0.25 0.25 0.25 0.25 0.25 0.25 0.25 0.25 0.25 0.25 0.25 0.25 0.25 0.25 0.25 0.25 0.25 0.25 0.25 0.25 0.25 0.25 0.25 0.25 0.25 0.25 0.25 0.25 0.25 0.25 0.25 0.25 0.25 0.25 0.25 0.25 0.25 0.25 0.25 0.25 0.25 0.25 0.25 0.25 0.25 0.25 0.25 0.25 0.25 0.25 0.25 0.25 0.25 0.25 0.25 0.25 0.25 0.25 0.25 0.25 0.25 0.25 0.25 0.25 0.25 0.25 0.25 0.25 0.25 0.25 0.25 0.25 0.25 0.25 0.25 0.25 0.25 0.25 0.25 0.25 0.25 0.25 0.25 0.25 0.25 0.25 0.25 0.25 0.25 0.25 0.25 0.25 0.25 0.25 0.25 0.25 0.25</probabilities>
		</cpt>
		<cpt id="V33">
			<state id="a" />
			<state id="b" />
			<state id="c" />
			<state id="d" />
			<parents>V41 V42</parents>
			<probabilities>0.9560037985072193 0.008408379530166534 0.03558782196261403 2.656228987612261e-18 0.0004333355891621275 0.9813352778968415 2.985938251057967e-13 0.01823138651369778 0.0005438263231802125 1.162359605880143e-07 0.9994560574408593 3.684455387192046e-37 4.271413430309752e-05 0.01439605025512012 0.9855612161242329 1.948634380286812e-08 1.931718986791729e-08 0.0007858711457567458 2.299114186221238e-17 0.9992141095370534 1.347877884976368e-25 0.02411354821425364 0.09631818577056356 0.8795682660151829 4.047509414633972e-25 1.602900317952268e-07 1.509002881596471e-05 0.9999847496811523 7.740474251721168e-09 0.1571943628549842 0.6061586044702563 0.2366470249342852 3.032600855129665e-08 3.181175526281801e-30 0.9926486088754378 0.007351360798553558 0.9478907967416789 8.98223366266345e-16 0.05180710916009989 0.0003020940982204241 5.439480702547399e-10 0.3139330466581343 0.001932691986666625 0.6841342608112512 3.979465361394733e-14 0.7942036769166467 0.2057963230833133 8.024311331525395e-188 4.065017209622865e-62 0.01488372985074894 0 0.985116270149251 0.002422446449282501 5.929980510451605e-19 0.0002963196108662668 0.9972812339398514 0.0001855413085969572 2.716201691139976e-11 0.9990003819443196 0.0008140767199214075 1.000145215367293e-05 0.999059568170314 2.220727589846093e-11 0.0009304303553251219</probabilities>
		</cpt>
		<cpt id="V25">
			<state id="a" />
			<state id="b" />
			<state id="c" />
			<state id="d" />
			<parents>V32 V33</parents>
			<probabilities>6.716343922791272e-12 0.6455191536175905 7.228455185235184e-13 0.3544808463749702 5.431239342741607e-08 1.718539905474453e-08 0.001443360860400602 0.9985565676418068 0.01186487055334217 0.01685948066136493 1.762905207127803e-27 0.9712756487852928 1.99233559247391e-30 0.9999999831562895 3.711330242914757e-141 1.684371047779012e-08 3.743779887593183e-18 7.231699869305331e-13 0.6844818783350544 0.3155181216642224 0.00443598401989968 0.05690791015156647 0.000138572944261218 0.9385175328842728 0.9891639079536895 3.239319025618002e-08 0.01083605925992524 3.931950852687697e-10 9.094270208378819e-20 0.04390641185063918 0.9560935881493607 1.496143666956613e-48 0.001333756649796087 0.3195001650164612 0.6791653820798637 6.962538792461503e-07 6.696636692487831e-15 0.9998940165200212 1.626752927251791e-08 0.0001059672124428245 0.9923148774287119 0.0006204082304186988 0.007062277680673286 2.43666019603981e-06 1.345919257556502e-17 9.636329414822169e-11 0.997593280718305 0.002406719185331601 1.11107757974209e-92 0.9999950607706038 9.32889241928465e-25 4.939229396136554e-06 0.8644605151547669 0.1302672044289505 0.005263298857526123 8.981558756402195e-06 0.01763816833809835 0.01269578243088992 1.121529297193395e-33 0.9696660492310119 0.1017945769744959 0.89812880821088 6.412488506009279e-05 1.248992956387255e-05</probabilities>
		</cpt>
		<cpt id="V18">
			<state id="a" />
			<state id="b" />
			<state id="c" />
			<state id="d" />
			<parents>V24 V25</parents>
			<probabilities>0.006721060369092053 3.744972769899716e-06 0.9932256663639921 4.952829414579711e-05 0.0002547957269976575 0.7400743922487167 0.2587406493403781 0.0009301626839075365 4.699546694984293e-99 0.9941568524101282 0.003748037866712765 0.002095109723159005 2.86788969491126e-10 2.268222388110174e-07 3.081241525532678e-30 0.9999997728909722 0.0004618320070870839 3.863125808917466e-08 0.9994216546926989 0.000116474668955817 0.06559302894651232 0.1829502811440793 0.7514566365603864 5.334902190282782e-08 4.022095872341441e-09 0 0.04672737474393174 0.9532726212339723 0.9994868520280623 3.727959635587709e-26 4.598177934322235e-07 0.0005126881541440717 0.7693526988316223 0.2303359587685441 0.0003113416545237601 7.453101843060137e-10 4.916818979132505e-22 0.9999999798600763 2.013992365319183e-08 1.084492620941652e-18 0.009290991798282227 0.07959433717849762 1.890706191475887e-05 0.9110957639613055 0.6944282653576908 2.062536653877089e-10 0.07758354874682472 0.227988185689231 0.1161498923308828 2.437685870167024e-10 0.8838499415085352 1.659168133939298e-07 2.846419104617898e-06 0.0002154858536453094 0.9997806049466985 1.06278055158408e-06 1.463526494892031e-15 4.608975124587423e-17 0.01040198840415544 0.989598011595843 0.9995150252134501 0.0004849747865499994 2.876668675917373e-47 2.03449614244288e-55</probabilities>
		</cpt>
		<cpt id="V12">
			<state id="a" />
			<state id="b" />
			<state id="c" />
			<state id="d" />
			<parents>V17 V18</parents>
			<probabilities>5.586333984769793e-06 6.578749502774283e-56 3.181202127208378e-21 0.9999944136660154 0.4548232668736895 0.5418380825160453 0.003338650610265381 6.648413203839429e-44 0.02396965066264363 2.624945175117773e-22 0.6805685945666191 0.2954617547707374 0.1001311846262017 0.09366837670257294 0.7771357944869313 0.02906464418429421 0.001097844769709193 0.01606669394451365 0.9828352089735123 2.523122648651696e-07 0.0002420731174315691 0.2993025159122281 0.01451113704185391 0.6859442739284864 0.3425083838200211 9.426066334030243e-05 0 0.6573973555166386 0.658956658608664 0.3259740102270864 0.01426969566680783 0.0007996354974417873 0.231021874423004 0.7172848310811694 0.02431106087661603 0.02738223361921053 0.911384314966431 0.000153874464917979 0.08846180816974734 2.398903600810481e-09 4.943270438898228e-64 2.330978533228699e-05 0.9999766902146676 3.57691225587293e-35 0.9785356673868223 4.710184111511412e-05 0.0002079789047260531 0.02120925186733655 0.02166480602014277 0.05738386401297633 2.388993817911237e-49 0.9209513299668809 4.689497266337177e-05 5.602387013574387e-09 0.9993518127325571 0.0006012866923925397 0.000950765819557326 0.001510287684341075 2.209047636122869e-14 0.9975389464960795 0.06688606325086842 1.864954885278844e-07 2.182304746748886e-10 0.9331137500354126</probabilities>
		</cpt>
		<cpt id="V7">
			<state id="a" />
			<state id="b" />
			<state id="c" />
			<state id="d" />
			<parents>V11 V12</parents>
			<probabilities>0.00717817028124576 0.9928216365752245 1.93143529531927e-07 7.639624424980465e-17 0.6673028513811649 0.2523168000684017 0.0803766270133776 3.721537055819945e-06 0.1151012623168026 0.005209869957529326 0.0004383324290604422 0.8792505352966077 3.640307973250197e-19 0.0001044094854690675 0.1500393188822726 0.8498562716322584 0.08466696623448459 0.9147105320597045 1.098695707238374e-08 0.0006224907188539131 0.0003930039315595085 0.0001844914445073883 0.9356264719471863 0.06379603267674679 0.9685272455809805 0.03146264866375834 9.338719470058506e-08 1.001236806660739e-05 0.0001601735097172807 4.046308320507087e-14 0.8487789138966546 0.1510609125935878 0.9856201459547759 0.005635956382124234 0.008743897663099931 1.275591534011213e-69 0.0006439515398493338 0.9993560484601507 7.371045259424489e-46 5.727446641666344e-20 5.069143077510698e-05 2.737761798201889e-09 3.368748916062458e-10 0.9999493054945882 1.545887403499813e-15 5.105468198790224e-05 1.307854242433596e-05 0.9999358667755862 1.749840264745189e-14 0.2132426447980827 0.02100719536650908 0.7657501598353906 0.9995680328729654 0.000296843368276124 0.0001351237587585401 1.357609283691605e-17 9.72554197875868e-13 0.9939134982375515 3.097614403442358e-08 0.006086470785331903 0.9984468029270679 9.770953245321119e-11 1.701512019134383e-21 0.001553196975222559</probabilities>
		</cpt>
		<cpt id="U14">
			<state id="a" />
			<state id="b" />
			<state id="c" />
			<state id="d" />
			<state id="e" />
			<state id="f" />
			<probabilities>0.1666666666666667 0.1666666666666667 0.1666666666666667 0.1666666666666667 0.1666666666666667 0.1666666666666667</probabilities>
		</cpt>
		<cpt id="V3">
			<state id="a" />
			<state id="b" />
			<state id="c" />
			<state id="d" />
			<parents>V6 V7 U12 U14</parents>
			<probabilities>0.25 0.25 0.25 0.25 0.25 0.25 0.25 0.25 0.25 0.25 0.25 0.25 0.25 0.25 0.25 0.25 0.25 0.25 0.25 0.25 0.25 0.25 0.25 0.25 0.25 0.25 0.25 0.25 0.25 0.25 0.25 0.25 0.25 0.25 0.25 0.25 0.25 0.25 0.25 0.25 0.25 0.25 0.25 0.25 0.25 0.25 0.25 0.25 0.25 0.25 0.25 0.25 0.25 0.25 0.25 0.25 0.25 0.25 0.25 0.25 0.25 0.25 0.25 0.25 0.25 0.25 0.25 0.25 0.25 0.25 0.25 0.25 0.25 0.25 0.25 0.25 0.25 0.25 0.25 0.25 0.25 0.25 0.25 0.25 0.25 0.25 0.25 0.25 0.25 0.25 0.25 0.25 0.25 0.25 0.25 0.25 0.25 0.25 0.25 0.25 0.25 0.25 0.25 0.25 0.25 0.25 0.25 0.25 0.25 0.25 0.25 0.25 0.25 0.25 0.25 0.25 0.25 0.25 0.25 0.25 0.25 0.25 0.25 0.25 0.25 0.25 0.25 0.25 0.25 0.25 0.25 0.25 0.25 0.25 0.25 0.25 0.25 0.25 0.25 0.25 0.25 0.25 0.25 0.25 0.25 0.25 0.25 0.25 0.25 0.25 0.25 0.25 0.25 0.25 0.25 0.25 0.25 0.25 0.25 0.25 0.25 0.25 0.25 0.25 0.25 0.25 0.25 0.25 0.25 0.25 0.25 0.25 0.25 0.25 0.25 0.25 0.25 0.25 0.25 0.25 0.25 0.25 0.25 0.25 0.25 0.25 0.25 0.25 0.25 0.25 0.25 0.25 0.25 0.25 0.25 0.25 0.25 0.25 0.25 0.25 0.25 0.25 0.25 0.25 0.25 0.25 0.25 0.25 0.25 0.25 0.25 0.25 0.25 0.25 0.25 0.25 0.25 0.25 0.25 0.25 0.25 0.25 0.25 0.25 0.25 0.25 0.25 0.25 0.25 0.25 0.25 0.25 0.25 0.25 0.25 0.25 0.25 0.25 0.25 0.25 0.25 0.25 0.25 0.25 0.25 0.25 0.25 0.25 0.25 0.25 0.25 0.25 0.25 0.25 0.25 0.25 0.25 0.25 0.25 0.25 0.25 0.25 0.25 0.25 0.25 0.25 0.25 0.25 0.25 0.25 0.25 0.25 0.25 0.25 0.25 0.25 0.25 0.25 0.25 0.25 0.25 0.25 0.25 0.25 0.25 0.25 0.25 0.25 0.25 0.25 0.25 0.25 0.25 0.25 0.25 0.25 0.25 0.25 0.25 0.25 0.25 0.25 0.25 0.25 0.25 0.25 0.25 0.25 0.25 0.25 0.25 0.25 0.25 0.25 0.25 0.25 0.25 0.25 0.25 0.25 0.25 0.25 0.25 0.25 0.25 0.25 0.25 0.25 0.25 0.25 0.25 0.25 0.25 0.25 0.25 0.25 0.25 0.25 0.25 0.25 0.25 0.25 0.25 0.25 0.25 0.25 0.25 0.25 0.25 0.25 0.25 0.25 0.25 0.25 0.25 0.25 0.25 0.25 0.25 0.25 0.25 0.25 0.25 0.25 0.25 0.25 0.25 0.25 0.25 0.25 0.25 0.25 0.25 0.25 0.25 0.25 0.25 0.25 0.25 0.25 0.25 0.25 0.25 0.25 0.25 0.25 0.25 0.25 0.25 0.25 0.25 0.25 0.25 0.25 0.25 0.25 0.25 0.25 0.25 0.25 0.25 0.25 0.25 0.25 0.25 0.25 0.25 0.25 0.25 0.25 0.25 0.25 0.25 0.25 0.25 0.25 0.25 0.25 0.25 0.25 0.25 0.25 0.25 0.25 0.25 0.25 0.25 0.25 0.25 0.25 0.25 0.25 0.25 0.25 0.25 0.25 0.25 0.25 0.25 0.25 0.25 0.25 0.25 0.25 0.25 0.25 0.25 0.25 0.25 0.25 0.25 0.25 0.25 0.25 0.25 0.25 0.25 0.25 0.25 0.25 0.25 0.25 0.25 0.25 0.25 0.25 0.25 0.25 0.25 0.25 0.25 0.25 0.25 0.25 0.25 0.25 0.25 0.25 0.25 0.25 0.25 0.25 0.25 0.25 0.25 0.25 0.25 0.25 0.25 0.25 0.25 0.25 0.25 0.25 0.25 0.25 0.25 0.25 0.25 0.25 0.25 0.25 0.25 0.25 0.25 0.25 0.25 0.25 0.25 0.25 0.25 0.25 0.25 0.25 0.25 0.25 0.25 0.25 0.25 0.25 0.25 0.25 0.25 0.25 0.25 0.25 0.25 0.25 0.25 0.25 0.25 0.25 0.25 0.25 0.25 0.25 0.25 0.25 0.25 0.25 0.25 0.25 0.25 0.25 0.25 0.25 0.25 0.25 0.25 0.25 0.25 0.25 0.25 0.25 0.25 0.25 0.25 0.25 0.25 0.25 0.25 0.25 0.25 0.25 0.25 0.25 0.25 0.25 0.25 0.25 0.25 0.25 0.25 0.25 0.25 0.25 0.25 0.25 0.25 0.25 0.25 0.25 0.25 0.25 0.25 0.25 0.25 0.25 0.25 0.25 0.25 0.25 0.25 0.25 0.25 0.25 0.25 0.25 0.25 0.25 0.25 0.25 0.25 0.25 0.25 0.25 0.25 0.25 0.25 0.25 0.25 0.25 0.25 0.25 0.25 0.25 0.25 0.25 0.25 0.25 0.25 0.25 0.25 0.25 0.25 0.25 0.25 0.25 0.25 0.25 0.25 0.25 0.25 0.25 0.25 0.25 0.25 0.25 0.25 0.25 0.25 0.25 0.25 0.25 0.25 0.25 0.25 0.25 0.25 0.25 0.25 0.25 0.25 0.25 0.25 0.25 0.25 0.25 0.25 0.25 0.25 0.25 0.25 0.25 0.25 0.25 0.25 0.25 0.25 0.25 0.25 0.25 0.25 0.25 0.25 0.25 0.25 0.25 0.25 0.25 0.25 0.25 0.25 0.25 0.25 0.25 0.25 0.25 0.25 0.25 0.25 0.25 0.25 0.25 0.25 0.25 0.25 0.25 0.25 0.25 0.25 0.25 0.25 0.25 0.25 0.25 0.25 0.25 0.25 0.25 0.25 0.25 0.25 0.25 0.25 0.25 0.25 0.25 0.25 0.25 0.25 0.25 0.25 0.25 0.25 0.25 0.25 0.25 0.25 0.25 0.25 0.25 0.25 0.25 0.25 0.25 0.25 0.25 0.25 0.25 0.25 0.25 0.25 0.25 0.25 0.25 0.25 0.25 0.25 0.25 0.25 0.25 0.25 0.25 0.25 0.25 0.25 0.25 0.25 0.25 0.25 0.25 0.25 0.25 0.25 0.25 0.25 0.25 0.25 0.25 0.25 0.25 0.25 0.25 0.25 0.25 0.25 0.25 0.25 0.25 0.25 0.25 0.25 0.25 0.25 0.25 0.25 0.25 0.25 0.25 0.25 0.25 0.25 0.25 0.25 0.25 0.25 0.25 0.25 0.25 0.25 0.25 0.25 0.25 0.25 0.25 0.25 0.25 0.25 0.25 0.25 0.25 0.25 0.25 0.25 0.25 0.25 0.25 0.25 0.25 0.25 0.25 0.25 0.25 0.25 0.25 0.25 0.25 0.25 0.25 0.25 0.25 0.25 0.25 0.25 0.25 0.25 0.25 0.25 0.25 0.25 0.25 0.25 0.25 0.25 0.25 0.25 0.25 0.25 0.25 0.25 0.25 0.25 0.25 0.25 0.25 0.25 0.25 0.25 0.25 0.25 0.25 0.25 0.25 0.25 0.25 0.25 0.25 0.25 0.25 0.25 0.25 0.25 0.25 0.25 0.25 0.25 0.25 0.25 0.25 0.25 0.25 0.25 0.25 0.25 0.25 0.25 0.25 0.25 0.25 0.25 0.25 0.25 0.25 0.25 0.25 0.25 0.25 0.25 0.25 0.25 0.25 0.25 0.25 0.25 0.25 0.25 0.25 0.25 0.25 0.25 0.25 0.25 0.25 0.25 0.25 0.25 0.25 0.25 0.25 0.25 0.25 0.25 0.25 0.25 0.25 0.25 0.25 0.25 0.25 0.25 0.25 0.25 0.25 0.25 0.25 0.25 0.25 0.25 0.25 0.25 0.25 0.25 0.25 0.25 0.25 0.25 0.25 0.25 0.25 0.25 0.25 0.25 0.25 0.25 0.25 0.25 0.25 0.25 0.25 0.25 0.25 0.25 0.25 0.25 0.25 0.25 0.25 0.25 0.25 0.25 0.25 0.25 0.25 0.25 0.25 0.25 0.25 0.25 0.25 0.25 0.25 0.25 0.25 0.25 0.25 0.25 0.25 0.25 0.25 0.25 0.25 0.25 0.25 0.25 0.25 0.25 0.25 0.25 0.25 0.25 0.25 0.25 0.25 0.25 0.25 0.25 0.25 0.25 0.25 0.25 0.25 0.25 0.25 0.25 0.25 0.25 0.25 0.25 0.25 0.25 0.25 0.25 0.25 0.25 0.25 0.25 0.25 0.25 0.25 0.25 0.25 0.25 0.25 0.25 0.25 0.25 0.25 0.25 0.25 0.25 0.25 0.25 0.25 0.25 0.25 0.25 0.25 0.25 0.25 0.25 0.25 0.25 0.25 0.25 0.25 0.25 0.25 0.25 0.25 0.25 0.25 0.25 0.25 0.25 0.25 0.25 0.25 0.25 0.25 0.25 0.25 0.25 0.25 0.25 0.25 0.25 0.25 0.25 0.25 0.25 0.25 0.25 0.25 0.25 0.25 0.25 0.25 0.25 0.25 0.25 0.25 0.25 0.25 0.25 0.25 0.25 0.25 0.25 0.25 0.25 0.25 0.25 0.25 0.25 0.25 0.25 0.25 0.25 0.25 0.25 0.25 0.25 0.25 0.25 0.25 0.25 0.25 0.25 0.25 0.25 0.25 0.25 0.25 0.25 0.25 0.25 0.25 0.25 0.25 0.25 0.25 0.25 0.25 0.25 0.25 0.25 0.25 0.25 0.25 0.25 0.25 0.25 0.25 0.25 0.25 0.25 0.25 0.25 0.25 0.25 0.25 0.25 0.25 0.25 0.25 0.25 0.25 0.25 0.25 0.25 0.25 0.25 0.25 0.25 0.25 0.25 0.25 0.25 0.25 0.25 0.25 0.25 0.25 0.25 0.25 0.25 0.25 0.25 0.25 0.25 0.25 0.25 0.25 0.25 0.25 0.25 0.25 0.25 0.25 0.25 0.25 0.25 0.25 0.25 0.25 0.25 0.25 0.25 0.25 0.25 0.25 0.25 0.25 0.25 0.25 0.25 0.25 0.25 0.25 0.25 0.25 0.25 0.25 0.25 0.25 0.25 0.25 0.25 0.25 0.25 0.25 0.25 0.25 0.25 0.25 0.25 0.25 0.25 0.25 0.25 0.25 0.25 0.25 0.25 0.25 0.25 0.25 0.25 0.25 0.25 0.25 0.25 0.25 0.25 0.25 0.25 0.25 0.25 0.25 0.25 0.25 0.25 0.25 0.25 0.25 0.25 0.25 0.25 0.25 0.25 0.25 0.25 0.25 0.25 0.25 0.25 0.25 0.25 0.25 0.25 0.25 0.25 0.25 0.25 0.25 0.25 0.25 0.25 0.25 0.25 0.25 0.25 0.25 0.25 0.25 0.25 0.25 0.25 0.25 0.25 0.25 0.25 0.25 0.25 0.25 0.25 0.25 0.25 0.25 0.25 0.25 0.25 0.25 0.25 0.25 0.25 0.25 0.25 0.25 0.25 0.25 0.25 0.25 0.25 0.25 0.25 0.25 0.25 0.25 0.25 0.25 0.25 0.25 0.25 0.25 0.25 0.25 0.25 0.25 0.25 0.25 0.25 0.25 0.25 0.25 0.25 0.25 0.25 0.25 0.25 0.25 0.25 0.25 0.25 0.25 0.25 0.25 0.25 0.25 0.25 0.25 0.25 0.25 0.25 0.25 0.25 0.25 0.25 0.25 0.25 0.25 0.25 0.25 0.25 0.25 0.25 0.25 0.25 0.25 0.25 0.25 0.25 0.25 0.25 0.25 0.25 0.25 0.25 0.25 0.25 0.25 0.25 0.25 0.25 0.25 0.25 0.25 0.25 0.25 0.25 0.25 0.25 0.25 0.25 0.25 0.25 0.25 0.25 0.25 0.25 0.25 0.25 0.25 0.25 0.25 0.25 0.25 0.25 0.25 0.25 0.25 0.25 0.25 0.25 0.25 0.25 0.25 0.25 0.25 0.25 0.25 0.25 0.25 0.25 0.25 0.25 0.25 0.25 0.25 0.25 0.25 0.25 0.25 0.25 0.25 0.25 0.25 0.25 0.25 0.25 0.25 0.25 0.25 0.25 0.25 0.25 0.25 0.25 0.25 0.25 0.25 0.25 0.25 0.25 0.25 0.25 0.25 0.25 0.25 0.25 0.25 0.25 0.25 0.25 0.25 0.25 0.25 0.25 0.25 0.25 0.25 0.25 0.25 0.25 0.25 0.25 0.25 0.25 0.25 0.25 0.25 0.25 0.25 0.25 0.25 0.25 0.25 0.25 0.25 0.25 0.25 0.25 0.25 0.25 0.25 0.25 0.25 0.25 0.25 0.25 0.25 0.25 0.25 0.25 0.25 0.25 0.25 0.25 0.25 0.25 0.25 0.25 0.25 0.25 0.25 0.25 0.25 0.25 0.25 0.25 0.25 0.25 0.25 0.25 0.25 0.25 0.25 0.25 0.25 0.25 0.25 0.25 0.25 0.25 0.25 0.25 0.25 0.25 0.25 0.25 0.25 0.25 0.25 0.25 0.25 0.25 0.25 0.25 0.25 0.25 0.25 0.25 0.25 0.25 0.25 0.25 0.25 0.25 0.25 0.25 0.25 0.25 0.25 0.25 0.25 0.25 0.25 0.25 0.25 0.25 0.25 0.25 0.25 0.25 0.25 0.25 0.25 0.25 0.25 0.25 0.25 0.25 0.25 0.25 0.25 0.25 0.25 0.25 0.25 0.25 0.25 0.25 0.25 0.25 0.25 0.25 0.25 0.25 0.25 0.25 0.25 0.25 0.25 0.25 0.25 0.25 0.25 0.25 0.25 0.25 0.25 0.25 0.25 0.25 0.25 0.25 0.25 0.25 0.25 0.25 0.25 0.25 0.25 0.25 0.25 0.25 0.25 0.25 0.25 0.25 0.25 0.25 0.25 0.25 0.25 0.25 0.25 0.25 0.25 0.25 0.25 0.25 0.25 0.25 0.25 0.25 0.25 0.25 0.25 0.25 0.25 0.25 0.25 0.25 0.25 0.25 0.25 0.25 0.25 0.25 0.25 0.25 0.25 0.25 0.25 0.25 0.25 0.25 0.25 0.25 0.25 0.25 0.25 0.25 0.25 0.25 0.25 0.25 0.25 0.25 0.25 0.25 0.25 0.25 0.25 0.25 0.25 0.25 0.25 0.25 0.25 0.25 0.25 0.25 0.25 0.25 0.25 0.25 0.25 0.25 0.25 0.25 0.25 0.25 0.25 0.25 0.25 0.25 0.25 0.25 0.25 0.25 0.25 0.25 0.25 0.25 0.25 0.25 0.25 0.25 0.25 0.25 0.25 0.25 0.25 0.25 0.25 0.25 0.25 0.25 0.25 0.25 0.25 0.25 0.25 0.25 0.25 0.25 0.25 0.25 0.25 0.25 0.25 0.25 0.25 0.25 0.25 0.25 0.25 0.25 0.25 0.25 0.25 0.25 0.25 0.25 0.25 0.25 0.25 0.25 0.25 0.25 0.25 0.25 0.25 0.25 0.25 0.25 0.25 0.25 0.25 0.25 0.25 0.25 0.25 0.25 0.25 0.25 0.25 0.25 0.25 0.25 0.25 0.25 0.25 0.25 0.25 0.25 0.25 0.25 0.25 0.25 0.25 0.25 0.25 0.25 0.25 0.25 0.25 0.25 0.25 0.25 0.25 0.25 0.25 0.25 0.25 0.25 0.25 0.25 0.25 0.25 0.25 0.25 0.25 0.25 0.25 0.25 0.25 0.25 0.25 0.25 0.25 0.25 0.25 0.25 0.25 0.25 0.25 0.25 0.25 0.25 0.25 0.25 0.25 0.25 0.25 0.25 0.25 0.25 0.25 0.25 0.25 0.25 0.25 0.25 0.25 0.25 0.25 0.25 0.25 0.25 0.25 0.25 0.25 0.25 0.25 0.25 0.25 0.25 0.25 0.25 0.25 0.25 0.25 0.25 0.25 0.25 0.25 0.25 0.25 0.25 0.25 0.25 0.25 0.25 0.25 0.25 0.25 0.25 0.25 0.25 0.25 0.25 0.25 0.25 0.25 0.25 0.25 0.25 0.25 0.25 0.25 0.25 0.25 0.25 0.25 0.25 0.25 0.25 0.25 0.25 0.25 0.25 0.25 0.25 0.25 0.25 0.25 0.25 0.25 0.25 0.25 0.25 0.25 0.25 0.25 0.25 0.25 0.25 0.25 0.25 0.25 0.25 0.25 0.25 0.25 0.25 0.25 0.25 0.25 0.25 0.25 0.25 0.25 0.25 0.25 0.25 0.25 0.25 0.25 0.25 0.25 0.25 0.25 0.25 0.25 0.25 0.25 0.25 0.25 0.25 0.25 0.25 0.25 0.25 0.25 0.25 0.25 0.25 0.25 0.25 0.25 0.25 0.25 0.25 0.25 0.25 0.25 0.25 0.25 0.25 0.25 0.25 0.25 0.25 0.25 0.25 0.25 0.25 0.25 0.25 0.25 0.25 0.25 0.25 0.25 0.25 0.25 0.25 0.25 0.25 0.25 0.25 0.25 0.25 0.25 0.25 0.25 0.25 0.25 0.25 0.25 0.25 0.25 0.25 0.25 0.25 0.25 0.25 0.25 0.25 0.25 0.25 0.25 0.25 0.25 0.25 0.25 0.25 0.25 0.25 0.25 0.25 0.25 0.25 0.25 0.25 0.25 0.25 0.25 0.25 0.25 0.25 0.25 0.25 0.25 0.25 0.25 0.25 0.25 0.25 0.25 0.25 0.25 0.25 0.25 0.25 0.25 0.25 0.25 0.25 0.25 0.25 0.25 0.25 0.25 0.25 0.25 0.25 0.25 0.25 0.25 0.25 0.25 0.25 0.25 0.25 0.25 0.25 0.25 0.25 0.25 0.25 0.25 0.25 0.25 0.25 0.25 0.25 0.25 0.25 0.25 0.25 0.25 0.25 0.25 0.25 0.25 0.25 0.25 0.25 0.25 0.25 0.25 0.25 0.25 0.25 0.25 0.25 0.25 0.25 0.25 0.25 0.25 0.25 0.25 0.25 0.25 0.25 0.25 0.25 0.25 0.25 0.25 0.25 0.25 0.25 0.25 0.25 0.25 0.25 0.25 0.25 0.25 0.25 0.25 0.25 0.25 0.25 0.25 0.25 0.25 0.25 0.25 0.25 0.25 0.25 0.25 0.25 0.25 0.25 0.25 0.25 0.25 0.25 0.25 0.25 0.25 0.25 0.25 0.25 0.25 0.25 0.25 0.25 0.25 0.25 0.25 0.25 0.25 0.25 0.25 0.25 0.25 0.25 0.25 0.25 0.25 0.25 0.25 0.25 0.25 0.25 0.25 0.25 0.25 0.25 0.25 0.25 0.25 0.25 0.25 0.25 0.25 0.25 0.25 0.25 0.25 0.25 0.25 0.25 0.25 0.25 0.25 0.25 0.25 0.25 0.25 0.25 0.25 0.25 0.25 0.25 0.25 0.25 0.25 0.25 0.25 0.25 0.25 0.25 0.25 0.25 0.25 0.25 0.25 0.25 0.25 0.25 0.25 0.25 0.25 0.25 0.25 0.25 0.25 0.25 0.25 0.25 0.25 0.25 0.25 0.25 0.25 0.25 0.25 0.25 0.25 0.25 0.25 0.25 0.25 0.25 0.25 0.25 0.25 0.25 0.25 0.25 0.25 0.25 0.25 0.25 0.25 0.25 0.25 0.25 0.25 0.25 0.25 0.25 0.25 0.25 0.25 0.25 0.25 0.25 0.25 0.25 0.25 0.25 0.25 0.25 0.25 0.25 0.25 0.25 0.25 0.25 0.25 0.25 0.25 0.25 0.25 0.25 0.25 0.25 0.25 0.25 0.25 0.25 0.25 0.25 0.25 0.25 0.25 0.25 0.25 0.25 0.25 0.25 0.25</probabilities>
		</cpt>
		<cpt id="U7">
			<state id="a" />
			<state id="b" />
			<state id="c" />
			<state id="d" />
			<state id="e" />
			<state id="f" />
			<probabilities>0.1666666666666667 0.1666666666666667 0.1666666666666667 0.1666666666666667 0.1666666666666667 0.1666666666666667</probabilities>
		</cpt>
		<cpt id="V43">
			<state id="a" />
			<state id="b" />
			<state id="c" />
			<state id="d" />
			<parents>U7 U6</parents>
			<probabilities>0.25 0.25 0.25 0.25 0.25 0.25 0.25 0.25 0.25 0.25 0.25 0.25 0.25 0.25 0.25 0.25 0.25 0.25 0.25 0.25 0.25 0.25 0.25 0.25 0.25 0.25 0.25 0.25 0.25 0.25 0.25 0.25 0.25 0.25 0.25 0.25 0.25 0.25 0.25 0.25 0.25 0.25 0.25 0.25 0.25 0.25 0.25 0.25 0.25 0.25 0.25 0.25 0.25 0.25 0.25 0.25 0.25 0.25 0.25 0.25 0.25 0.25 0.25 0.25 0.25 0.25 0.25 0.25 0.25 0.25 0.25 0.25 0.25 0.25 0.25 0.25 0.25 0.25 0.25 0.25 0.25 0.25 0.25 0.25 0.25 0.25 0.25 0.25 0.25 0.25 0.25 0.25 0.25 0.25 0.25 0.25 0.25 0.25 0.25 0.25 0.25 0.25 0.25 0.25 0.25 0.25 0.25 0.25 0.25 0.25 0.25 0.25 0.25 0.25 0.25 0.25 0.25 0.25 0.25 0.25 0.25 0.25 0.25 0.25 0.25 0.25 0.25 0.25 0.25 0.25 0.25 0.25 0.25 0.25 0.25 0.25 0.25 0.25 0.25 0.25 0.25 0.25 0.25 0.25</probabilities>
		</cpt>
		<cpt id="V34">
			<state id="a" />
			<state id="b" />
			<state id="c" />
			<state id="d" />
			<parents>V42 V43</parents>
			<probabilities>1.846919888275825e-118 0.1662575342320256 0.831890473673908 0.001851992094066439 0.1677796754098758 0.8228032760361085 0.009417048553546425 4.693099959422401e-13 0.004155974871505112 0.1717317288602322 3.115895728495812e-10 0.8241122959566732 2.697414578541114e-19 9.942152149448231e-06 8.854961830066431e-07 0.9999891723516676 0.7551672443191355 1.075212742649195e-17 0.2448327281455499 2.753531446094038e-08 0.002906243480477775 0.003381913015415748 0.03665408794387892 0.9570577555602277 1.537246434364952e-09 1.262722230086982e-18 7.935736121990037e-17 0.9999999984627534 2.279648687595636e-17 0.002746403070772173 0.1667413494058086 0.8305122475234191 0.05698874200655164 0.1863380199903015 0.7566732047242661 3.327888090729648e-08 1.032663178819888e-11 0.9999910661053513 1.782356718130847e-09 8.932101965357373e-06 0.002436317311220314 0.7492546022740121 0.0002314244556771635 0.2480776559590905 0.898703771230471 0.0930734890460541 0.008222739406047133 3.174278206605867e-10 7.502021757484663e-10 3.736179522655759e-72 0.9999999992497979 2.301371092991705e-46 0.00559203290705786 0.407702861172722 4.189527270420548e-08 0.5867050640249475 0.7497679171553134 0.02836780326512795 0.000263580681809132 0.2216006988977496 0.9999999695515555 1.17712527331873e-39 2.119505616114629e-17 3.044844445227507e-08</probabilities>
		</cpt>
		<cpt id="V26">
			<state id="a" />
			<state id="b" />
			<state id="c" />
			<state id="d" />
			<parents>V33 V34</parents>
			<probabilities>0.1669235685994758 2.084579203393917e-18 0.8173156590681114 0.01576077233241277 0.9593183401213045 0 1.165636457215929e-14 0.04068165987868403 0.7220437674405801 0.2777975807167868 0.0001313933163605064 2.72585262726614e-05 0.6833024185161609 0.1017732075448581 8.803508979535162e-05 0.2148363388491856 0.005079365631241927 0.003039121092319162 0.9867069463875057 0.005174566888933264 0.001089148239736133 0.008275639776699661 0.0009019531114206724 0.9897332588721435 0.0002203360235281772 0.5076093616183149 2.88180410565871e-09 0.4921702994763528 3.935038007444287e-18 0.001508283264849449 0.9558512650075585 0.04264045172759209 1.393786064194825e-05 0.9996417190730863 5.914086054318486e-06 0.0003384289802175488 0.846851788606189 0.1011963953348526 0.04142683214416433 0.01052498391479394 0.3826054262010184 0.6173945704775637 3.28899826591358e-09 3.241946822082392e-11 1.359781100516473e-05 0.9999842400961715 0 2.162092823493622e-06 0.9999979856535002 1.043535629283366e-30 2.014343856557369e-06 2.643305762927166e-12 0.001069339537908766 2.890853849139461e-30 0.001242243243249453 0.9976884172188417 0.9870451414191604 2.696304725054374e-07 9.533228916197151e-08 0.01295449361807787 0.98919294502804 0.002458338030385596 1.305295882517468e-08 0.008348703888615354</probabilities>
		</cpt>
		<cpt id="V19">
			<state id="a" />
			<state id="b" />
			<state id="c" />
			<state id="d" />
			<parents>V25 V26</parents>
			<probabilities>0.9969922196478718 9.025686766005594e-37 1.162382093689769e-22 0.003007780352128231 0.3631230988185477 0.008141656726905965 0.6287352418879357 2.566610535328225e-09 1.397300552139167e-18 0.1656145283711444 0.1069104087997756 0.72747506282908 5.243813095837816e-117 0 0.03271476137656617 0.9672852386234339 3.040501408363988e-10 0.9999999977525689 1.755953010567959e-10 1.767785800130251e-09 1.105460447361979e-20 0.9834833634683723 2.077180558458097e-33 0.01651663653162778 8.78637678040872e-54 2.5810096521082e-07 0.9999993658549091 3.760441257588563e-07 0.0003826468294605358 6.434977559191567e-05 0.2149301255830812 0.7846228778118662 1.021777812418832e-09 0.9999999989782222 1.649173232095768e-20 3.846095941332201e-53 3.593370318266438e-07 0.07119709227164794 2.767162615007944e-13 0.9288025483910437 0.05080031051097266 9.648483690979274e-55 0.9180772376415831 0.03112245184744421 0.5539431854645743 0 0.4454601945878638 0.0005966199475618391 0.4887900554971966 0.006468813471191039 0.002626679924539298 0.502114451107073 0.003576863892044913 0.002155151968939617 0.9942679757777181 8.361297527729081e-09 0.0007448971481863641 0.0008217554087987659 0.00127086911627956 0.9971624783267352 0.005287298583299942 1.757188557338764e-13 0.9466846947728034 0.04802800664372091</probabilities>
		</cpt>
		<cpt id="V13">
			<state id="a" />
			<state id="b" />
			<state id="c" />
			<state id="d" />
			<parents>V18 V19</parents>
			<probabilities>6.785291924381135e-12 0.1506299672414824 0.8493700327517323 1.740504743739191e-17 8.668749422878933e-12 0.2491807959662972 0.750819204025034 0 0.9999995489756404 2.051114522977437e-08 4.263436362519506e-07 4.169578093865934e-09 1.666762445539067e-05 4.852520439065744e-24 0.9975498110509581 0.002433521324586414 0.9169041604815272 0.07202851313975245 0.01102788258620943 3.944379251097567e-05 2.23647235040544e-05 0.9891431057110696 0.01083433744637549 1.921190508995505e-07 0.9982762350260734 0.001689520390132753 6.956566458767079e-06 2.728801733510696e-05 7.115388385356781e-05 1.955390141579172e-45 0.9999288461161464 1.874038955028136e-44 0.01753228212230112 1.486683458476592e-11 2.471257318316128e-08 0.9824676931502588 0.9996088127555131 0.0003820259201318251 5.911370950992443e-15 9.161324349075107e-06 5.547063392766833e-22 0.9972931479733153 0.002706845594688352 6.431996407830678e-09 0.9999957250928506 5.544020475563135e-38 4.256542807532709e-06 1.836434174368217e-08 0.875596145567324 6.869813886386674e-33 2.506627582572671e-07 0.1244036037699177 0.5005507350777519 7.270167432210468e-16 3.138584139718949e-05 0.4994178790808501 0.0455133752223214 2.482985494722549e-07 0.5830187888142634 0.3714675876648657 0.002066393191990632 8.587673205876269e-10 0.9979335925375967 1.341164550295095e-08</probabilities>
		</cpt>
		<cpt id="V8">
			<state id="a" />
			<state id="b" />
			<state id="c" />
			<state id="d" />
			<parents>V12 V13</parents>
			<probabilities>0.002889517560401019 0.1343574497096975 0.8627519867616879 1.045968213740933e-06 5.31504705410356e-08 0.5668919313836069 0.04886475014635788 0.3842432653195646 2.426456373222343e-18 0.1181433472793818 0.660266349268619 0.2215903034519992 1.444713320729885e-08 2.06555970543527e-19 7.964998919321326e-09 0.999999977587868 4.79490374640741e-17 0.007195782464537819 0.0458877512514154 0.9469164662840468 1.673407259597507e-09 1.707461303814703e-23 1.395863616003942e-31 0.9999999983265928 0.01138860151087943 1.385728013146935e-09 8.333152476557289e-08 0.9886113137718678 1.820878074823548e-06 0.004348712838821955 0.9955384501460823 0.0001110161370207194 0.98919840222572 0.008569337654795107 0.002214162750736933 1.809736874814658e-05 2.444647308391424e-108 0.9999999996080033 5.709526688347254e-34 3.919965998926042e-10 1.382723699671609e-10 1.075204967343908e-08 0.1794226356932083 0.8205773534164698 1.685527005982918e-10 2.079064514245602e-12 0.9999288087493978 7.119107997046392e-05 2.032442986815516e-05 0.5852006269980993 0.4146684983927312 0.0001105501793013149 0.9990331447115041 5.062287679367034e-05 0.0009158084609915294 4.239507107203464e-07 0.2217776736495283 0.0002986290899143263 0.7746608989045979 0.003262798355959509 0.6365658494787216 0.1172530800308314 0.2239489748218782 0.02223209566856859</probabilities>
		</cpt>
		<cpt id="V4">
			<state id="a" />
			<state id="b" />
			<state id="c" />
			<state id="d" />
			<parents>V7 V8</parents>
			<probabilities>0.000287341296355987 1.155817310314159e-05 0.9997010987751894 1.755351456848296e-09 0.1365946235036122 2.288490305883711e-10 0.1174030744239575 0.7460023018435812 0.06711171832828931 6.708261529639412e-19 0.932888078819173 2.028525377270524e-07 0.006031696591235114 0.9937552406264091 2.875449274720492e-15 0.0002130627823530556 8.533830388063463e-21 0.006749874210546855 0.9914446978676205 0.00180542792183265 4.187970047092286e-06 1.949795010387637e-24 0.001698500596276012 0.9982973114336769 0.959845830319987 0.04014227247152385 1.189720838076403e-05 1.083637359886493e-13 0.9968880547409632 0.003082352901391708 3.947387463231056e-16 2.959235764459809e-05 0.06907880981080905 0.04662856695166669 0.8842917957862454 8.274512791303901e-07 1.120839682967365e-15 0.3209143217418243 1.95909547165068e-13 0.6790856782579786 4.70070091775613e-25 0.8825854431872964 0.1174145567230611 8.964245006006791e-11 0.8595019370064146 0.001265114596177699 0.009842790749800923 0.1293901576476067 1.298068373937062e-81 0.59025079251454 0.3281049035399408 0.08164430394551916 0.2795197440418087 0.6388389601258145 0.08164129583237681 1.657433323862277e-71 2.244251833837804e-05 0.9999569914991506 2.056598251115881e-05 1.192591318017622e-21 0.9999999082092678 9.046178014104672e-08 1.328952140199936e-09 5.095936959879817e-62</probabilities>
		</cpt>
		<cpt id="V1">
			<state id="a" />
			<state id="b" />
			<state id="c" />
			<state id="d" />
			<parents>V3 V4</parents>
			<probabilities>1.491943282693718e-72 0.6409910323072345 0.3590089676927653 3.563325192662259e-108 2.111305483260115e-05 0.2103414066098012 1.221782074579895e-08 0.7896374681175454 7.388139841639623e-36 6.946427483417777e-08 0.0003359764760926054 0.9996639540596325 0.9832187359756706 0.01157850465556812 0.005202759368761227 1.435364132691405e-205 2.077121307551089e-38 0.0001516835089177903 0.02878593212664737 0.9710623843644349 8.701837771918249e-27 0.3908260349996646 0.0001792050503474821 0.608994759949988 3.398285302287307e-49 0.0721306479914043 0.1801343745347819 0.7477349774738139 7.040943733410665e-19 0.542752839961841 0.4359534926222351 0.02129366741592401 1.013489023000901e-06 0.0011368895128218 0.9988620969981489 6.255063648062179e-15 0.9994418626190729 0.0004666537484521459 8.851957779649236e-05 2.964054678506481e-06 0.0007203056509244378 2.768280980044802e-07 0.9992785820843453 8.354366322213512e-07 0.9999999992280416 7.719580761721179e-10 4.002597602694346e-16 2.710132484989875e-52 2.249215387301817e-19 0.8561404312248704 0.1438595483860139 2.03891155942499e-08 0.2880271394754217 9.332931030467198e-07 0.7119635361614834 8.391069991749141e-06 0.8405927632811707 2.726163144332141e-39 0.159407236718783 4.630230993759765e-14 3.449119359651414e-07 7.632123276075679e-07 0.00242131902146607 0.9975775728542703</probabilities>
		</cpt>
		<cpt id="U9">
			<state id="a" />
			<state id="b" />
			<state id="c" />
			<state id="d" />
			<state id="e" />
			<state id="f" />
			<probabilities>0.1666666666666667 0.1666666666666667 0.1666666666666667 0.1666666666666667 0.1666666666666667 0.1666666666666667</probabilities>
		</cpt>
		<cpt id="V44">
			<state id="a" />
			<state id="b" />
			<state id="c" />
			<state id="d" />
			<parents>U7 U9</parents>
			<probabilities>0.25 0.25 0.25 0.25 0.25 0.25 0.25 0.25 0.25 0.25 0.25 0.25 0.25 0.25 0.25 0.25 0.25 0.25 0.25 0.25 0.25 0.25 0.25 0.25 0.25 0.25 0.25 0.25 0.25 0.25 0.25 0.25 0.25 0.25 0.25 0.25 0.25 0.25 0.25 0.25 0.25 0.25 0.25 0.25 0.25 0.25 0.25 0.25 0.25 0.25 0.25 0.25 0.25 0.25 0.25 0.25 0.25 0.25 0.25 0.25 0.25 0.25 0.25 0.25 0.25 0.25 0.25 0.25 0.25 0.25 0.25 0.25 0.25 0.25 0.25 0.25 0.25 0.25 0.25 0.25 0.25 0.25 0.25 0.25 0.25 0.25 0.25 0.25 0.25 0.25 0.25 0.25 0.25 0.25 0.25 0.25 0.25 0.25 0.25 0.25 0.25 0.25 0.25 0.25 0.25 0.25 0.25 0.25 0.25 0.25 0.25 0.25 0.25 0.25 0.25 0.25 0.25 0.25 0.25 0.25 0.25 0.25 0.25 0.25 0.25 0.25 0.25 0.25 0.25 0.25 0.25 0.25 0.25 0.25 0.25 0.25 0.25 0.25 0.25 0.25 0.25 0.25 0.25 0.25</probabilities>
		</cpt>
		<cpt id="V35">
			<state id="a" />
			<state id="b" />
			<state id="c" />
			<state id="d" />
			<parents>V43 V44</parents>
			<probabilities>0.9536600408309794 4.781742207546177e-12 3.961937208347352e-13 0.04633995916384259 0.03427678683100209 1.089233751640571e-44 0.005525783102193611 0.9601974300668041 2.049926060650518e-09 0.01082093226671131 0.4492490723326008 0.539929993350762 0.0002454472461716986 0.7967734908309492 2.041038730976178e-07 0.202980857819006 9.147939601506919e-05 0.9002871368926932 0.03966177970533827 0.0599596040059534 0.6486284980732595 0.1065570445054229 0.08369942259430388 0.1611150348270135 0.001348584660070356 0.001642215870916896 3.204431614516955e-11 0.9970091994369684 0.5583367795672359 0.008294589182918751 0.4333610620823335 7.569167511832167e-06 0.001254601436513148 1.383828222848941e-08 0.0007453338606459493 0.9980000508645588 0.001821765462902539 3.585899323487216e-20 0.9978282103943695 0.0003500241427280732 0.6249482565076238 0.3496893221325824 2.520746033748648e-30 0.02536242135979385 1.344452040306642e-38 0.005868896978092546 2.221637269927103e-16 0.9941311030219072 1.973905684674766e-10 3.891289230141694e-05 7.114487597771491e-08 0.9999610157654319 0.9999999899227929 4.526496061717745e-09 5.550710952821822e-09 5.399646764807511e-50 2.470396763614178e-05 5.648910985665433e-05 0.9647721803532604 0.03514662656924678 0.9955448095580967 1.121847234224497e-76 0.004455189456478347 9.854249086756123e-10</probabilities>
		</cpt>
		<cpt id="U11">
			<state id="a" />
			<state id="b" />
			<state id="c" />
			<state id="d" />
			<state id="e" />
			<state id="f" />
			<probabilities>0.1666666666666667 0.1666666666666667 0.1666666666666667 0.1666666666666667 0.1666666666666667 0.1666666666666667</probabilities>
		</cpt>
		<cpt id="V27">
			<state id="a" />
			<state id="b" />
			<state id="c" />
			<state id="d" />
			<parents>V34 V35 U9 U11</parents>
			<probabilities>0.25 0.25 0.25 0.25 0.25 0.25 0.25 0.25 0.25 0.25 0.25 0.25 0.25 0.25 0.25 0.25 0.25 0.25 0.25 0.25 0.25 0.25 0.25 0.25 0.25 0.25 0.25 0.25 0.25 0.25 0.25 0.25 0.25 0.25 0.25 0.25 0.25 0.25 0.25 0.25 0.25 0.25 0.25 0.25 0.25 0.25 0.25 0.25 0.25 0.25 0.25 0.25 0.25 0.25 0.25 0.25 0.25 0.25 0.25 0.25 0.25 0.25 0.25 0.25 0.25 0.25 0.25 0.25 0.25 0.25 0.25 0.25 0.25 0.25 0.25 0.25 0.25 0.25 0.25 0.25 0.25 0.25 0.25 0.25 0.25 0.25 0.25 0.25 0.25 0.25 0.25 0.25 0.25 0.25 0.25 0.25 0.25 0.25 0.25 0.25 0.25 0.25 0.25 0.25 0.25 0.25 0.25 0.25 0.25 0.25 0.25 0.25 0.25 0.25 0.25 0.25 0.25 0.25 0.25 0.25 0.25 0.25 0.25 0.25 0.25 0.25 0.25 0.25 0.25 0.25 0.25 0.25 0.25 0.25 0.25 0.25 0.25 0.25 0.25 0.25 0.25 0.25 0.25 0.25 0.25 0.25 0.25 0.25 0.25 0.25 0.25 0.25 0.25 0.25 0.25 0.25 0.25 0.25 0.25 0.25 0.25 0.25 0.25 0.25 0.25 0.25 0.25 0.25 0.25 0.25 0.25 0.25 0.25 0.25 0.25 0.25 0.25 0.25 0.25 0.25 0.25 0.25 0.25 0.25 0.25 0.25 0.25 0.25 0.25 0.25 0.25 0.25 0.25 0.25 0.25 0.25 0.25 0.25 0.25 0.25 0.25 0.25 0.25 0.25 0.25 0.25 0.25 0.25 0.25 0.25 0.25 0.25 0.25 0.25 0.25 0.25 0.25 0.25 0.25 0.25 0.25 0.25 0.25 0.25 0.25 0.25 0.25 0.25 0.25 0.25 0.25 0.25 0.25 0.25 0.25 0.25 0.25 0.25 0.25 0.25 0.25 0.25 0.25 0.25 0.25 0.25 0.25 0.25 0.25 0.25 0.25 0.25 0.25 0.25 0.25 0.25 0.25 0.25 0.25 0.25 0.25 0.25 0.25 0.25 0.25 0.25 0.25 0.25 0.25 0.25 0.25 0.25 0.25 0.25 0.25 0.25 0.25 0.25 0.25 0.25 0.25 0.25 0.25 0.25 0.25 0.25 0.25 0.25 0.25 0.25 0.25 0.25 0.25 0.25 0.25 0.25 0.25 0.25 0.25 0.25 0.25 0.25 0.25 0.25 0.25 0.25 0.25 0.25 0.25 0.25 0.25 0.25 0.25 0.25 0.25 0.25 0.25 0.25 0.25 0.25 0.25 0.25 0.25 0.25 0.25 0.25 0.25 0.25 0.25 0.25 0.25 0.25 0.25 0.25 0.25 0.25 0.25 0.25 0.25 0.25 0.25 0.25 0.25 0.25 0.25 0.25 0.25 0.25 0.25 0.25 0.25 0.25 0.25 0.25 0.25 0.25 0.25 0.25 0.25 0.25 0.25 0.25 0.25 0.25 0.25 0.25 0.25 0.25 0.25 0.25 0.25 0.25 0.25 0.25 0.25 0.25 0.25 0.25 0.25 0.25 0.25 0.25 0.25 0.25 0.25 0.25 0.25 0.25 0.25 0.25 0.25 0.25 0.25 0.25 0.25 0.25 0.25 0.25 0.25 0.25 0.25 0.25 0.25 0.25 0.25 0.25 0.25 0.25 0.25 0.25 0.25 0.25 0.25 0.25 0.25 0.25 0.25 0.25 0.25 0.25 0.25 0.25 0.25 0.25 0.25 0.25 0.25 0.25 0.25 0.25 0.25 0.25 0.25 0.25 0.25 0.25 0.25 0.25 0.25 0.25 0.25 0.25 0.25 0.25 0.25 0.25 0.25 0.25 0.25 0.25 0.25 0.25 0.25 0.25 0.25 0.25 0.25 0.25 0.25 0.25 0.25 0.25 0.25 0.25 0.25 0.25 0.25 0.25 0.25 0.25 0.25 0.25 0.25 0.25 0.25 0.25 0.25 0.25 0.25 0.25 0.25 0.25 0.25 0.25 0.25 0.25 0.25 0.25 0.25 0.25 0.25 0.25 0.25 0.25 0.25 0.25 0.25 0.25 0.25 0.25 0.25 0.25 0.25 0.25 0.25 0.25 0.25 0.25 0.25 0.25 0.25 0.25 0.25 0.25 0.25 0.25 0.25 0.25 0.25 0.25 0.25 0.25 0.25 0.25 0.25 0.25 0.25 0.25 0.25 0.25 0.25 0.25 0.25 0.25 0.25 0.25 0.25 0.25 0.25 0.25 0.25 0.25 0.25 0.25 0.25 0.25 0.25 0.25 0.25 0.25 0.25 0.25 0.25 0.25 0.25 0.25 0.25 0.25 0.25 0.25 0.25 0.25 0.25 0.25 0.25 0.25 0.25 0.25 0.25 0.25 0.25 0.25 0.25 0.25 0.25 0.25 0.25 0.25 0.25 0.25 0.25 0.25 0.25 0.25 0.25 0.25 0.25 0.25 0.25 0.25 0.25 0.25 0.25 0.25 0.25 0.25 0.25 0.25 0.25 0.25 0.25 0.25 0.25 0.25 0.25 0.25 0.25 0.25 0.25 0.25 0.25 0.25 0.25 0.25 0.25 0.25 0.25 0.25 0.25 0.25 0.25 0.25 0.25 0.25 0.25 0.25 0.25 0.25 0.25 0.25 0.25 0.25 0.25 0.25 0.25 0.25 0.25 0.25 0.25 0.25 0.25 0.25 0.25 0.25 0.25 0.25 0.25 0.25 0.25 0.25 0.25 0.25 0.25 0.25 0.25 0.25 0.25 0.25 0.25 0.25 0.25 0.25 0.25 0.25 0.25 0.25 0.25 0.25 0.25 0.25 0.25 0.25 0.25 0.25 0.25 0.25 0.25 0.25 0.25 0.25 0.25 0.25 0.25 0.25 0.25 0.25 0.25 0.25 0.25 0.25 0.25 0.25 0.25 0.25 0.25 0.25 0.25 0.25 0.25 0.25 0.25 0.25 0.25 0.25 0.25 0.25 0.25 0.25 0.25 0.25 0.25 0.25 0.25 0.25 0.25 0.25 0.25 0.25 0.25 0.25 0.25 0.25 0.25 0.25 0.25 0.25 0.25 0.25 0.25 0.25 0.25 0.25 0.25 0.25 0.25 0.25 0.25 0.25 0.25 0.25 0.25 0.25 0.25 0.25 0.25 0.25 0.25 0.25 0.25 0.25 0.25 0.25 0.25 0.25 0.25 0.25 0.25 0.25 0.25 0.25 0.25 0.25 0.25 0.25 0.25 0.25 0.25 0.25 0.25 0.25 0.25 0.25 0.25 0.25 0.25 0.25 0.25 0.25 0.25 0.25 0.25 0.25 0.25 0.25 0.25 0.25 0.25 0.25 0.25 0.25 0.25 0.25 0.25 0.25 0.25 0.25 0.25 0.25 0.25 0.25 0.25 0.25 0.25 0.25 0.25 0.25 0.25 0.25 0.25 0.25 0.25 0.25 0.25 0.25 0.25 0.25 0.25 0.25 0.25 0.25 0.25 0.25 0.25 0.25 0.25 0.25 0.25 0.25 0.25 0.25 0.25 0.25 0.25 0.25 0.25 0.25 0.25 0.25 0.25 0.25 0.25 0.25 0.25 0.25 0.25 0.25 0.25 0.25 0.25 0.25 0.25 0.25 0.25 0.25 0.25 0.25 0.25 0.25 0.25 0.25 0.25 0.25 0.25 0.25 0.25 0.25 0.25 0.25 0.25 0.25 0.25 0.25 0.25 0.25 0.25 0.25 0.25 0.25 0.25 0.25 0.25 0.25 0.25 0.25 0.25 0.25 0.25 0.25 0.25 0.25 0.25 0.25 0.25 0.25 0.25 0.25 0.25 0.25 0.25 0.25 0.25 0.25 0.25 0.25 0.25 0.25 0.25 0.25 0.25 0.25 0.25 0.25 0.25 0.25 0.25 0.25 0.25 0.25 0.25 0.25 0.25 0.25 0.25 0.25 0.25 0.25 0.25 0.25 0.25 0.25 0.25 0.25 0.25 0.25 0.25 0.25 0.25 0.25 0.25 0.25 0.25 0.25 0.25 0.25 0.25 0.25 0.25 0.25 0.25 0.25 0.25 0.25 0.25 0.25 0.25 0.25 0.25 0.25 0.25 0.25 0.25 0.25 0.25 0.25 0.25 0.25 0.25 0.25 0.25 0.25 0.25 0.25 0.25 0.25 0.25 0.25 0.25 0.25 0.25 0.25 0.25 0.25 0.25 0.25 0.25 0.25 0.25 0.25 0.25 0.25 0.25 0.25 0.25 0.25 0.25 0.25 0.25 0.25 0.25 0.25 0.25 0.25 0.25 0.25 0.25 0.25 0.25 0.25 0.25 0.25 0.25 0.25 0.25 0.25 0.25 0.25 0.25 0.25 0.25 0.25 0.25 0.25 0.25 0.25 0.25 0.25 0.25 0.25 0.25 0.25 0.25 0.25 0.25 0.25 0.25 0.25 0.25 0.25 0.25 0.25 0.25 0.25 0.25 0.25 0.25 0.25 0.25 0.25 0.25 0.25 0.25 0.25 0.25 0.25 0.25 0.25 0.25 0.25 0.25 0.25 0.25 0.25 0.25 0.25 0.25 0.25 0.25 0.25 0.25 0.25 0.25 0.25 0.25 0.25 0.25 0.25 0.25 0.25 0.25 0.25 0.25 0.25 0.25 0.25 0.25 0.25 0.25 0.25 0.25 0.25 0.25 0.25 0.25 0.25 0.25 0.25 0.25 0.25 0.25 0.25 0.25 0.25 0.25 0.25 0.25 0.25 0.25 0.25 0.25 0.25 0.25 0.25 0.25 0.25 0.25 0.25 0.25 0.25 0.25 0.25 0.25 0.25 0.25 0.25 0.25 0.25 0.25 0.25 0.25 0.25 0.25 0.25 0.25 0.25 0.25 0.25 0.25 0.25 0.25 0.25 0.25 0.25 0.25 0.25 0.25 0.25 0.25 0.25 0.25 0.25 0.25 0.25 0.25 0.25 0.25 0.25 0.25 0.25 0.25 0.25 0.25 0.25 0.25 0.25 0.25 0.25 0.25 0.25 0.25 0.25 0.25 0.25 0.25 0.25 0.25 0.25 0.25 0.25 0.25 0.25 0.25 0.25 0.25 0.25 0.25 0.25 0.25 0.25 0.25 0.25 0.25 0.25 0.25 0.25 0.25 0.25 0.25 0.25 0.25 0.25 0.25 0.25 0.25 0.25 0.25 0.25 0.25 0.25 0.25 0.25 0.25 0.25 0.25 0.25 0.25 0.25 0.25 0.25 0.25 0.25 0.25 0.25 0.25 0.25 0.25 0.25 0.25 0.25 0.25 0.25 0.25 0.25 0.25 0.25 0.25 0.25 0.25 0.25 0.25 0.25 0.25 0.25 0.25 0.25 0.25 0.25 0.25 0.25 0.25 0.25 0.25 0.25 0.25 0.25 0.25 0.25 0.25 0.25 0.25 0.25 0.25 0.25 0.25 0.25 0.25 0.25 0.25 0.25 0.25 0.25 0.25 0.25 0.25 0.25 0.25 0.25 0.25 0.25 0.25 0.25 0.25 0.25 0.25 0.25 0.25 0.25 0.25 0.25 0.25 0.25 0.25 0.25 0.25 0.25 0.25 0.25 0.25 0.25 0.25 0.25 0.25 0.25 0.25 0.25 0.25 0.25 0.25 0.25 0.25 0.25 0.25 0.25 0.25 0.25 0.25 0.25 0.25 0.25 0.25 0.25 0.25 0.25 0.25 0.25 0.25 0.25 0.25 0.25 0.25 0.25 0.25 0.25 0.25 0.25 0.25 0.25 0.25 0.25 0.25 0.25 0.25 0.25 0.25 0.25 0.25 0.25 0.25 0.25 0.25 0.25 0.25 0.25 0.25 0.25 0.25 0.25 0.25 0.25 0.25 0.25 0.25 0.25 0.25 0.25 0.25 0.25 0.25 0.25 0.25 0.25 0.25 0.25 0.25 0.25 0.25 0.25 0.25 0.25 0.25 0.25 0.25 0.25 0.25 0.25 0.25 0.25 0.25 0.25 0.25 0.25 0.25 0.25 0.25 0.25 0.25 0.25 0.25 0.25 0.25 0.25 0.25 0.25 0.25 0.25 0.25 0.25 0.25 0.25 0.25 0.25 0.25 0.25 0.25 0.25 0.25 0.25 0.25 0.25 0.25 0.25 0.25 0.25 0.25 0.25 0.25 0.25 0.25 0.25 0.25 0.25 0.25 0.25 0.25 0.25 0.25 0.25 0.25 0.25 0.25 0.25 0.25 0.25 0.25 0.25 0.25 0.25 0.25 0.25 0.25 0.25 0.25 0.25 0.25 0.25 0.25 0.25 0.25 0.25 0.25 0.25 0.25 0.25 0.25 0.25 0.25 0.25 0.25 0.25 0.25 0.25 0.25 0.25 0.25 0.25 0.25 0.25 0.25 0.25 0.25 0.25 0.25 0.25 0.25 0.25 0.25 0.25 0.25 0.25 0.25 0.25 0.25 0.25 0.25 0.25 0.25 0.25 0.25 0.25 0.25 0.25 0.25 0.25 0.25 0.25 0.25 0.25 0.25 0.25 0.25 0.25 0.25 0.25 0.25 0.25 0.25 0.25 0.25 0.25 0.25 0.25 0.25 0.25 0.25 0.25 0.25 0.25 0.25 0.25 0.25 0.25 0.25 0.25 0.25 0.25 0.25 0.25 0.25 0.25 0.25 0.25 0.25 0.25 0.25 0.25 0.25 0.25 0.25 0.25 0.25 0.25 0.25 0.25 0.25 0.25 0.25 0.25 0.25 0.25 0.25 0.25 0.25 0.25 0.25 0.25 0.25 0.25 0.25 0.25 0.25 0.25 0.25 0.25 0.25 0.25 0.25 0.25 0.25 0.25 0.25 0.25 0.25 0.25 0.25 0.25 0.25 0.25 0.25 0.25 0.25 0.25 0.25 0.25 0.25 0.25 0.25 0.25 0.25 0.25 0.25 0.25 0.25 0.25 0.25 0.25 0.25 0.25 0.25 0.25 0.25 0.25 0.25 0.25 0.25 0.25 0.25 0.25 0.25 0.25 0.25 0.25 0.25 0.25 0.25 0.25 0.25 0.25 0.25 0.25 0.25 0.25 0.25 0.25 0.25 0.25 0.25 0.25 0.25 0.25 0.25 0.25 0.25 0.25 0.25 0.25 0.25 0.25 0.25 0.25 0.25 0.25 0.25 0.25 0.25 0.25 0.25 0.25 0.25 0.25 0.25 0.25 0.25 0.25 0.25 0.25 0.25 0.25 0.25 0.25 0.25 0.25 0.25 0.25 0.25 0.25 0.25 0.25 0.25 0.25 0.25 0.25 0.25 0.25 0.25 0.25 0.25 0.25 0.25 0.25 0.25 0.25 0.25 0.25 0.25 0.25 0.25 0.25 0.25 0.25 0.25 0.25 0.25 0.25 0.25 0.25 0.25 0.25 0.25 0.25 0.25 0.25 0.25 0.25 0.25 0.25 0.25 0.25 0.25 0.25 0.25 0.25 0.25 0.25 0.25 0.25 0.25 0.25 0.25 0.25 0.25 0.25 0.25 0.25 0.25 0.25 0.25 0.25 0.25 0.25 0.25 0.25 0.25 0.25 0.25 0.25 0.25 0.25 0.25 0.25 0.25 0.25 0.25 0.25 0.25 0.25 0.25 0.25 0.25 0.25 0.25 0.25 0.25 0.25 0.25 0.25 0.25 0.25 0.25 0.25 0.25 0.25 0.25 0.25 0.25 0.25 0.25 0.25 0.25 0.25 0.25 0.25 0.25 0.25 0.25 0.25 0.25 0.25 0.25 0.25 0.25 0.25 0.25 0.25 0.25 0.25 0.25 0.25 0.25 0.25 0.25 0.25 0.25 0.25 0.25 0.25 0.25 0.25 0.25 0.25 0.25 0.25 0.25 0.25 0.25 0.25 0.25 0.25 0.25 0.25 0.25 0.25 0.25 0.25 0.25 0.25 0.25 0.25 0.25 0.25 0.25 0.25 0.25 0.25 0.25 0.25 0.25 0.25 0.25 0.25 0.25 0.25 0.25 0.25 0.25 0.25 0.25 0.25 0.25 0.25 0.25 0.25 0.25 0.25 0.25 0.25 0.25 0.25 0.25 0.25 0.25 0.25 0.25 0.25 0.25 0.25 0.25 0.25 0.25 0.25 0.25 0.25 0.25 0.25 0.25 0.25 0.25 0.25 0.25 0.25 0.25 0.25 0.25 0.25 0.25 0.25 0.25 0.25 0.25 0.25 0.25 0.25 0.25 0.25 0.25 0.25 0.25 0.25 0.25 0.25 0.25 0.25 0.25 0.25 0.25 0.25 0.25 0.25 0.25 0.25 0.25 0.25 0.25 0.25 0.25 0.25 0.25 0.25 0.25 0.25 0.25 0.25 0.25 0.25 0.25 0.25 0.25 0.25 0.25 0.25 0.25 0.25 0.25 0.25 0.25 0.25 0.25 0.25 0.25 0.25 0.25 0.25 0.25 0.25 0.25 0.25 0.25 0.25 0.25 0.25 0.25 0.25 0.25 0.25 0.25 0.25 0.25 0.25 0.25 0.25 0.25 0.25 0.25 0.25 0.25 0.25 0.25 0.25 0.25 0.25 0.25 0.25 0.25 0.25 0.25 0.25 0.25 0.25 0.25 0.25 0.25 0.25 0.25 0.25 0.25 0.25 0.25 0.25 0.25 0.25 0.25 0.25 0.25 0.25 0.25 0.25 0.25 0.25 0.25 0.25 0.25 0.25 0.25 0.25 0.25 0.25 0.25 0.25 0.25 0.25 0.25 0.25 0.25 0.25 0.25 0.25 0.25 0.25 0.25 0.25 0.25 0.25 0.25 0.25 0.25 0.25 0.25 0.25 0.25 0.25 0.25 0.25 0.25 0.25 0.25 0.25 0.25 0.25 0.25 0.25 0.25 0.25 0.25 0.25 0.25 0.25 0.25 0.25 0.25 0.25 0.25 0.25 0.25 0.25 0.25 0.25 0.25 0.25 0.25 0.25 0.25 0.25 0.25 0.25 0.25 0.25 0.25 0.25 0.25 0.25 0.25 0.25 0.25 0.25 0.25 0.25 0.25 0.25 0.25 0.25 0.25 0.25 0.25 0.25 0.25 0.25 0.25 0.25 0.25 0.25 0.25 0.25 0.25 0.25 0.25 0.25 0.25 0.25 0.25 0.25 0.25 0.25 0.25 0.25 0.25 0.25 0.25 0.25 0.25 0.25 0.25 0.25 0.25 0.25 0.25 0.25 0.25 0.25 0.25 0.25 0.25 0.25 0.25 0.25 0.25 0.25 0.25 0.25 0.25 0.25 0.25 0.25 0.25 0.25 0.25 0.25 0.25 0.25 0.25 0.25 0.25 0.25 0.25 0.25 0.25 0.25 0.25 0.25 0.25 0.25 0.25 0.25 0.25 0.25 0.25 0.25 0.25 0.25 0.25 0.25 0.25 0.25 0.25 0.25 0.25 0.25 0.25 0.25 0.25 0.25 0.25 0.25 0.25 0.25 0.25 0.25 0.25 0.25 0.25 0.25 0.25 0.25 0.25 0.25 0.25 0.25 0.25 0.25 0.25 0.25 0.25 0.25 0.25 0.25 0.25 0.25 0.25 0.25 0.25 0.25 0.25 0.25 0.25 0.25 0.25 0.25 0.25 0.25 0.25 0.25 0.25 0.25 0.25 0.25 0.25 0.25 0.25 0.25 0.25 0.25 0.25 0.25 0.25 0.25 0.25 0.25 0.25 0.25 0.25 0.25 0.25 0.25 0.25 0.25 0.25 0.25 0.25 0.25 0.25 0.25 0.25 0.25 0.25 0.25 0.25 0.25 0.25 0.25 0.25 0.25 0.25 0.25 0.25 0.25 0.25 0.25 0.25 0.25 0.25 0.25 0.25 0.25 0.25 0.25 0.25 0.25 0.25 0.25 0.25 0.25 0.25 0.25 0.25 0.25 0.25 0.25 0.25 0.25 0.25 0.25 0.25 0.25 0.25 0.25 0.25 0.25 0.25 0.25 0.25 0.25 0.25 0.25 0.25 0.25 0.25 0.25 0.25 0.25 0.25 0.25 0.25 0.25 0.25 0.25 0.25 0.25</probabilities>
		</cpt>
		<cpt id="V20">
			<state id="a" />
			<state id="b" />
			<state id="c" />
			<state id="d" />
			<parents>V26 V27</parents>
			<probabilities>4.595294878858126e-13 6.565743087018231e-08 0.05651631806500565 0.9434836162771039 0.02649913864821798 0.00648802172400183 0.001835217226093261 0.9651776224016869 0.3533782112194066 0.1264965400469413 0.2008798139117011 0.3192454348219511 0.09886672521509321 0.6733863652603085 0.1101655706347568 0.1175813388898416 5.277453112065906e-15 2.258670306529662e-24 0.9999999999999948 3.611937437038205e-18 0.1267545194915324 0.7932367340493648 3.952485931552818e-08 0.08000870693424356 2.862538591034956e-05 1.732124247297517e-08 1.570927902832005e-06 0.9999697863649444 5.541322049314458e-05 0.7507591899624338 0.1827364454271002 0.0664489513899727 0.555957231223655 0.0003500178327227616 0.003248644039123229 0.440444106904499 0.9379163952612527 0.01590229729769239 0.04616635380943333 1.495363162169209e-05 4.793527387890377e-41 0.9449070226303248 0.05502489233719295 6.808503248220133e-05 1.791941386316021e-09 0.9176470171544328 0.08026688895399685 0.002086092099628945 1.301251721905116e-12 1.116889818640771e-19 0.06179730146994954 0.9382026985287492 1.403720387141564e-16 6.303900557455899e-05 0.1097377593743545 0.8901992016200709 0.000249045368624987 0.001159896306428135 0.9655595311845101 0.03303152714043676 6.074886687209281e-10 0.9234191230858754 0.07406121211739183 0.002519664189244175</probabilities>
		</cpt>
		<cpt id="U13">
			<state id="a" />
			<state id="b" />
			<state id="c" />
			<state id="d" />
			<state id="e" />
			<state id="f" />
			<probabilities>0.1666666666666667 0.1666666666666667 0.1666666666666667 0.1666666666666667 0.1666666666666667 0.1666666666666667</probabilities>
		</cpt>
		<cpt id="V14">
			<state id="a" />
			<state id="b" />
			<state id="c" />
			<state id="d" />
			<parents>V19 V20 U11 U13</parents>
