<?xml version="1.0" encoding="UTF-8"?>
<!-- This file was created by ACADEMIC version of SMILE -->
<smile version="1.0" id="Unnamed" numsamples="10000" discsamples="10000">
	<nodes>
		<cpt id="U1">
			<state id="State0" />
			<state id="State1" />
			<state id="State2" />
			<state id="State3" />
			<probabilities>0.01020424298394344 1.570551878255791e-98 0.04102602703548727 0.9487697299805693</probabilities>
		</cpt>
		<cpt id="V0">
			<state id="State0" />
			<state id="State1" />
			<state id="State2" />
			<state id="State3" />
			<parents>U1</parents>
			<probabilities>0.03510195273842073 0.02982612092307952 0.9350719263384997 1.505230773931785e-33 3.02744829912384e-05 0.9691475404403898 7.469526113796029e-14 0.03082218507654424 8.871540457991859e-06 0.007808569680629112 0.9855826815748256 0.006599877204087131 0.3133440269779604 0.6860474110915268 0.0006085619305128108 0</probabilities>
		</cpt>
		<cpt id="V1">
			<state id="State0" />
			<state id="State1" />
			<state id="State2" />
			<state id="State3" />
			<parents>V0</parents>
			<probabilities>0.9952549313792736 0.004210317722548561 0.0003083931914280389 0.0002263577067498791 0.0006697848941898139 0.9952549313792736 0.002808947048095043 0.001266336678441622 0.003454767019790385 0.0002621845393273962 0.9952549313792736 0.001028117061608697 2.474593322515544e-06 0.002189383142723991 0.002553210884679972 0.9952549313792736</probabilities>
		</cpt>
		<cpt id="U2">
			<state id="State0" />
			<state id="State1" />
			<state id="State2" />
			<state id="State3" />
			<probabilities>9.326783740084777e-15 2.358038399749757e-14 0.9907556598536457 0.009244340146321401</probabilities>
		</cpt>
		<cpt id="V2">
			<state id="State0" />
			<state id="State1" />
			<state id="State2" />
			<state id="State3" />
			<parents>V1 U1 U2</parents>
			<probabilities>0.9952428352862537 0.001992785596525026 0.00104950824693844 0.001714870870282816 0.0001652945319976526 0.9902444703540675 0.008971462792186462 0.0006187723217484023 0.003396415712619201 0.0003322970525139682 0.9956807125822609 0.0005905746526059447 0.003060856646324912 0.0007589451156292521 0.00477992275094341 0.9914002754871024 0.9922245161500758 0.007000032798295052 8.99444461223874e-05 0.0006855066055068212 0.000694870863460763 0.9983732743780256 0.0001460701997943952 0.0007857845587192004 0.008027071305862615 0.0005392120629914204 0.0005706346211316896 0.9908630820100143 0.003389623988702429 0.0009841424597428472 0.9940292290824098 0.001597004469144931 0.9922967789072084 0.0001594502388371747 0.004464233892713818 0.00307953696124067 0.002059840156825915 0.002233111672296605 0.9951224138308256 0.0005846343400518826 0.0002660656594001716 0.9994209772669272 0.0002778594569333533 3.509761673923877e-05 0.001706079895510982 4.400291115924058e-05 0.0002865983154630114 0.9979633188778667 0.9922141696169698 0.004946231330071038 0.00113543968376748 0.001704159369191606 0.0006216700221383063 0.001072669567882213 0.9945899381800952 0.003715722229884258 0.002617538431152084 0.00181432060745257 3.316342768475752e-05 0.9955349775337106 8.234334349215549e-05 0.9993979365251208 0.0003817332943529832 0.0001379868370340977 0.9963585415422709 0.0004582716020630078 0.001926516664897786 0.001256670190768296 0.0004504666743914055 0.0003194850788498763 7.061933302002736e-05 0.9991594289137387 0.007041533388765273 0.9905688577466323 0.0007327924969877473 0.001656816367614728 0.00584273494047339 9.919581425493824e-05 0.9937744358402609 0.0002836334050107796 0.991947124148972 0.00222696987698334 0.0003792939918344189 0.005446611982210217 0.0004595371689370231 0.003941162283902212 0.003039368528241167 0.9925599320189196 0.008230241453450438 0.0008125061834334167 0.9909438177098141 1.343465330207216e-05 0.002920629748609207 0.9928105429038135 0.001041430798669336 0.003227396548907868 0.002053032246057861 0.0002848173557353741 0.001392996851771173 0.9962691535464356 0.001271855681118627 0.0004991611508877141 0.9973575081129036 0.0008714750550901313 8.146437547196834e-05 0.9997624888954294 0.0001259336947439487 3.011303435467651e-05 0.9942952476703172 0.002531206776892214 0.002157019328408553 0.001016526224382042 0.001720856419288706 0.001606777382308485 0.002181101545580591 0.9944912646528222 0.0004336591631484877 0.002551509370383121 0.9933833234225424 0.003631508043926013 0.9964565086144928 0.001715261712183159 0.0005387387695440982 0.001289490903780012 0.0003568091856580935 0.9979476875540328 0.001010714045529357 0.0006847892147796792 0.004550882382558425 6.357543154850951e-05 0.0001081691836578483 0.9952773730022352 0.001005407586907033 0.9938733197173254 0.001763431816672361 0.00335784087909516 0.001471949079061751 0.001135426831193643 0.9972701653883983 0.0001224587013463417 0.992405025770281 0.00435603548132398 0.002142242717372512 0.001096696031022518 0.0006339788999606444 0.001058030555701791 0.002829823095062566 0.995478167449275 5.499664392878477e-05 0.9995465854060217 3.064554184413713e-05 0.0003677724082053455 0.9955033809121014 0.002360180646139927 0.0007661823212078118 0.001370256120550823 0.0002980542951088835 0.005799553020047254 0.9922268560743724 0.001675536610471371 0.0006395227120301534 0.0003813736672187367 0.001298613717705561 0.9976804899030456 0.9970776879830138 0.001675271475718462 0.0009319055759559534 0.0003151349653117867 0.004585532997077662 0.001772755517539967 0.9916380702836487 0.002003641201733655 0.004011815339139658 0.9935752451298507 0.001853341039574011 0.0005595984914355488 0.000909295973606761 0.0002727011607940842 5.742738291317977e-05 0.9987605754826859 0.9962016623374145 0.0008154842600886048 0.0002772460093047743 0.0027056073931921 0.001793853330873854 0.9980345382513686 4.072997685635783e-05 0.0001308784409012085 0.002508907354066871 1.754017012127882e-06 0.9972734954997776 0.0002158431291433712 0.9916289846652012 0.003835471999686875 0.002852636576935533 0.001682906758176332 0.0004068796925167639 0.9964737776045931 0.002194539893386996 0.0009248028095031006 0.001413638427629866 0.0002859710056446915 0.9982335430558019 6.684751092355979e-05 0.001406263015532069 0.00185893305621014 0.001622903548267414 0.9951119003799904 0.9967882608954129 0.00162918709752554 0.0008553773808746535 0.000727174626186877 0.004388591554234779 0.9909915532326986 0.0008625595038704345 0.003757295709196222 0.002109782161640992 0.005863921003192849 0.001302103145277829 0.9907241936898883 0.00227929504489289 0.00504089252632162 0.9923410296304285 0.0003387827983570525 0.9994085078866628 0.0003323250461212398 0.0002157834831993432 4.338358401659786e-05 0.003084465321502071 1.296532342985975e-05 0.9964782476309327 0.0004243217241353218 0.001360604760180101 0.9984481080435259 5.729720060919956e-05 0.0001339899956848342 0.006246474055882787 0.001086807913421039 0.002104656058489801 0.9905620619722064 0.9927435295941741 0.004469648137149283 0.001194045891652703 0.001592776377023895 0.002447249552024739 0.004173717801682976 0.9929812060643125 0.000397826581979792 0.006995235568966172 0.002220981466117433 0.0002038301543270623 0.9905799528105893 0.0007185036158742861 0.9945380983935399 0.004394854002054981 0.0003485439885308559</probabilities>
		</cpt>
		<cpt id="V3">
			<state id="State0" />
			<state id="State1" />
			<state id="State2" />
			<state id="State3" />
			<parents>V2</parents>
			<probabilities>0.9939546315040797 0.003379569007870291 0.002204684140032043 0.000461115348017925 0.003575125467285998 0.9939546315040797 0.002258783012295578 0.000211460016338684 0.001790639240675804 0.002961416701723767 0.9939546315040797 0.001293312553520689 0.001168420738742956 0.003493553599711494 0.001383394157465809 0.9939546315040797</probabilities>
		</cpt>
		<cpt id="V4">
			<state id="State0" />
			<state id="State1" />
			<state id="State2" />
			<state id="State3" />
			<parents>V3 U2</parents>
			<probabilities>0.9903184998623653 0.001288670259458632 0.004849655838433976 0.003543174039742088 0.0001646842216299281 0.9989388405833924 0.0003545598456936234 0.0005419153492839995 0.003598504397930515 0.0001109965391907493 0.9928768634971095 0.003413635565769298 0.0001499878143348521 7.615891711955924e-06 0.0004697296902222528 0.9993726666037309 0.9962354467189615 0.001532030522123385 0.001378509977063428 0.0008540127818517651 0.001889481369512312 0.9980658052872829 2.063565855736222e-06 4.264977734902618e-05 0.0008656597430540951 9.44415352376293e-05 0.001510535652257514 0.9975293630694507 0.0009393965033005034 0.0003886939633784515 0.9972003012976547 0.001471608235666311 0.9901336008777 0.002398111808334703 0.005675038964647113 0.001793248349318159 0.004275179537603357 0.0002448290934167877 0.9938415021353996 0.001638489233580322 0.0001658367951362825 0.9981055754253008 0.0008175868437225624 0.00091100093584036 0.001265399361243683 0.00283157865111648 0.004808840695535055 0.9910941812921048 0.9923371695504848 0.0007828095420000463 0.002409853218333555 0.004470167689181588 0.003208127278384582 0.002656162246547884 0.9912227238730527 0.002912986602014859 0.0007668577424046024 0.0005498081646905049 0.0001486506266676076 0.9985346834662373 0.007537860016181733 0.9900701020512648 0.001112293919502472 0.001279744013051001</probabilities>
		</cpt>
	</nodes>
	<extensions>
		<genie version="1.0" app="SMILE_ACADEMIC 2.2.0@40eb97e8a55a" name="Unnamed">
			<node id="V0">
				<name>V0</name>
				<interior color="e5f6f7" />
				<outline color="0000bb" />
				<font color="000000" name="MS Sans Serif" size="8" />
				<position>120 80 205 135</position>
			</node>
			<node id="V1">
				<name>V1</name>
				<interior color="e5f6f7" />
				<outline color="0000bb" />
				<font color="000000" name="MS Sans Serif" size="8" />
				<position>121 81 206 136</position>
			</node>
			<node id="V2">
				<name>V2</name>
				<interior color="e5f6f7" />
				<outline color="0000bb" />
				<font color="000000" name="MS Sans Serif" size="8" />
				<position>122 82 207 137</position>
			</node>
			<node id="V3">
				<name>V3</name>
				<interior color="e5f6f7" />
				<outline color="0000bb" />
				<font color="000000" name="MS Sans Serif" size="8" />
				<position>123 83 208 138</position>
			</node>
			<node id="V4">
				<name>V4</name>
				<interior color="e5f6f7" />
				<outline color="0000bb" />
				<font color="000000" name="MS Sans Serif" size="8" />
				<position>124 84 209 139</position>
			</node>
			<node id="U1">
				<name>U1</name>
				<interior color="e5f6f7" />
				<outline color="0000bb" />
				<font color="000000" name="MS Sans Serif" size="8" />
				<position>50 50 135 105</position>
			</node>
			<node id="U2">
				<name>U2</name>
				<interior color="e5f6f7" />
				<outline color="0000bb" />
				<font color="000000" name="MS Sans Serif" size="8" />
				<position>51 51 136 106</position>
			</node>
		</genie>
	</extensions>
</smile>
