<?xml version="1.0" encoding="UTF-8"?>
<!-- This file was created by ACADEMIC version of SMILE -->
<smile version="1.0" id="Unnamed" numsamples="10000" discsamples="10000">
	<nodes>
		<cpt id="U0">
			<state id="a" />
			<state id="b" />
			<probabilities>0.5 0.5</probabilities>
		</cpt>
		<cpt id="U2">
			<state id="a" />
			<state id="b" />
			<probabilities>0.5 0.5</probabilities>
		</cpt>
		<cpt id="V3">
			<state id="a" />
			<state id="b" />
			<state id="c" />
			<state id="d" />
			<parents>U0 U2</parents>
			<probabilities>0.25 0.25 0.25 0.25 0.25 0.25 0.25 0.25 0.25 0.25 0.25 0.25 0.25 0.25 0.25 0.25</probabilities>
		</cpt>
		<cpt id="U1">
			<state id="a" />
			<state id="b" />
			<probabilities>0.5 0.5</probabilities>
		</cpt>
		<cpt id="V4">
			<state id="a" />
			<state id="b" />
			<state id="c" />
			<state id="d" />
			<parents>U1 U0</parents>
			<probabilities>0.25 0.25 0.25 0.25 0.25 0.25 0.25 0.25 0.25 0.25 0.25 0.25 0.25 0.25 0.25 0.25</probabilities>
		</cpt>
		<cpt id="V1">
			<state id="a" />
			<state id="b" />
			<state id="c" />
			<state id="d" />
			<parents>V3 V4</parents>
			<probabilities>0.7168426371514393 0.09781520276786669 0.1799662621717864 0.005375897908907755 0.9803445385782623 0.00811058852354316 0.01154487289608007 2.114399387066305e-12 0.9771726292652869 3.077340738325449e-30 0.02282736519117832 5.543534695888828e-09 1.814487774885265e-12 0.9999241375819548 1.649495900624666e-45 7.58624162308452e-05 0.02522561335586998 0.1014273097853781 0.8733470768587503 1.5841626634831e-15 0.07858482092010338 0.9059686588415194 1.464413781236048e-05 0.01543187610056461 0.196006682808836 0.0001170154628313014 0.8038619650471882 1.433668114452e-05 4.495982291868929e-07 2.835150178419608e-06 0.9999957429905526 9.722610398175414e-07 1.598571475847383e-10 0.314520015283668 6.541002321732471e-05 0.6854145745332576 0.9424281825659181 0.004154181409311728 0.05341763602477034 1.956336610040493e-17 1.045348427712722e-33 0.06211413814380982 0.9378858618561902 6.030634869518054e-28 0.9999007400210457 7.579425983190341e-99 1.258865889263323e-09 9.925872008849421e-05 0.001994179981508315 0.009057642221218049 4.185467069525558e-16 0.9889481777972732 5.176934104971713e-05 0.5770307500559404 0.06155645765148532 0.3613610229515246 0.06463211361319125 0.1566578891323243 0.0001943076726492496 0.7785156895818353 8.979826480064479e-05 0.9659105466892224 0.03399965504597691 4.121156772497051e-165</probabilities>
		</cpt>
		<cpt id="U3">
			<state id="a" />
			<state id="b" />
			<probabilities>0.5 0.5</probabilities>
		</cpt>
		<cpt id="V5">
			<state id="a" />
			<state id="b" />
			<state id="c" />
			<state id="d" />
			<parents>U1 U3</parents>
			<probabilities>0.25 0.25 0.25 0.25 0.25 0.25 0.25 0.25 0.25 0.25 0.25 0.25 0.25 0.25 0.25 0.25</probabilities>
		</cpt>
		<cpt id="V2">
			<state id="a" />
			<state id="b" />
			<state id="c" />
			<state id="d" />
			<parents>V4 V5</parents>
			<probabilities>0.1818138311308257 6.666777336239023e-08 0.8177623450404465 0.0004237571609543981 0.001212920872677174 0.0002124641261691068 0.9985671350974821 7.479903671837935e-06 0.1198814145830625 0.7784648477029771 0.101653737552506 1.61454355865415e-10 5.452461425247595e-34 8.036114631941095e-05 0.9999195788043027 6.004937779385094e-08 0.9997878615804958 2.750698503221428e-123 5.004052333024724e-247 0.0002121384195040772 7.095537401061292e-07 0.02730117075670071 0.036651485842565 0.9360466338469942 6.006811710798535e-13 1.38346974295636e-18 0.9252046634861378 0.07479533651326153 0.9312421310759756 0.06763948211010937 0.001118386813914655 2.464528779178161e-16 3.786408823639186e-22 0.9539405383924034 0.04605946160759618 2.443048605686086e-16 0.792823703782578 0.06011697747329221 8.044375532434105e-10 0.1470593179396922 7.49822206183492e-93 0.5170428008445224 0.4815253548985178 0.001431844256959984 0.6634275185130434 0.2174083796807427 6.82902229291312e-13 0.119164101805531 1.515541030379432e-18 2.503517549772912e-09 0.6153859246497567 0.3846140728467257 0.9317194204035851 6.458494260180204e-52 3.589921901628468e-05 0.06824468037739863 0.1755755394556149 0.4908642056487421 0.3335602099985241 4.489711880348683e-08 0.002637318032162145 0.9761369770825494 0.02122570453878916 3.464992697445655e-10</probabilities>
		</cpt>
		<cpt id="V0">
			<state id="a" />
			<state id="b" />
			<state id="c" />
			<state id="d" />
			<parents>V1 V2 U3 U2</parents>
			<probabilities>0.25 0.25 0.25 0.25 0.25 0.25 0.25 0.25 0.25 0.25 0.25 0.25 0.25 0.25 0.25 0.25 0.25 0.25 0.25 0.25 0.25 0.25 0.25 0.25 0.25 0.25 0.25 0.25 0.25 0.25 0.25 0.25 0.25 0.25 0.25 0.25 0.25 0.25 0.25 0.25 0.25 0.25 0.25 0.25 0.25 0.25 0.25 0.25 0.25 0.25 0.25 0.25 0.25 0.25 0.25 0.25 0.25 0.25 0.25 0.25 0.25 0.25 0.25 0.25 0.25 0.25 0.25 0.25 0.25 0.25 0.25 0.25 0.25 0.25 0.25 0.25 0.25 0.25 0.25 0.25 0.25 0.25 0.25 0.25 0.25 0.25 0.25 0.25 0.25 0.25 0.25 0.25 0.25 0.25 0.25 0.25 0.25 0.25 0.25 0.25 0.25 0.25 0.25 0.25 0.25 0.25 0.25 0.25 0.25 0.25 0.25 0.25 0.25 0.25 0.25 0.25 0.25 0.25 0.25 0.25 0.25 0.25 0.25 0.25 0.25 0.25 0.25 0.25 0.25 0.25 0.25 0.25 0.25 0.25 0.25 0.25 0.25 0.25 0.25 0.25 0.25 0.25 0.25 0.25 0.25 0.25 0.25 0.25 0.25 0.25 0.25 0.25 0.25 0.25 0.25 0.25 0.25 0.25 0.25 0.25 0.25 0.25 0.25 0.25 0.25 0.25 0.25 0.25 0.25 0.25 0.25 0.25 0.25 0.25 0.25 0.25 0.25 0.25 0.25 0.25 0.25 0.25 0.25 0.25 0.25 0.25 0.25 0.25 0.25 0.25 0.25 0.25 0.25 0.25 0.25 0.25 0.25 0.25 0.25 0.25 0.25 0.25 0.25 0.25 0.25 0.25 0.25 0.25 0.25 0.25 0.25 0.25 0.25 0.25 0.25 0.25 0.25 0.25 0.25 0.25 0.25 0.25 0.25 0.25 0.25 0.25 0.25 0.25 0.25 0.25 0.25 0.25 0.25 0.25 0.25 0.25 0.25 0.25 0.25 0.25 0.25 0.25 0.25 0.25 0.25 0.25 0.25 0.25 0.25 0.25 0.25 0.25 0.25 0.25 0.25 0.25</probabilities>
		</cpt>
	</nodes>
	<extensions>
		<genie version="1.0" app="SMILE_ACADEMIC 2.2.0@40eb97e8a55a" name="Unnamed">
			<node id="V0">
				<name>V0</name>
				<interior color="e5f6f7" />
				<outline color="0000bb" />
				<font color="000000" name="MS Sans Serif" size="8" />
				<position>120 80 205 135</position>
			</node>
			<node id="V1">
				<name>V1</name>
				<interior color="e5f6f7" />
				<outline color="0000bb" />
				<font color="000000" name="MS Sans Serif" size="8" />
				<position>121 81 206 136</position>
			</node>
			<node id="V2">
				<name>V2</name>
				<interior color="e5f6f7" />
				<outline color="0000bb" />
				<font color="000000" name="MS Sans Serif" size="8" />
				<position>122 82 207 137</position>
			</node>
			<node id="V3">
				<name>V3</name>
				<interior color="e5f6f7" />
				<outline color="0000bb" />
				<font color="000000" name="MS Sans Serif" size="8" />
				<position>123 83 208 138</position>
			</node>
			<node id="V4">
				<name>V4</name>
				<interior color="e5f6f7" />
				<outline color="0000bb" />
				<font color="000000" name="MS Sans Serif" size="8" />
				<position>124 84 209 139</position>
			</node>
			<node id="V5">
				<name>V5</name>
				<interior color="e5f6f7" />
				<outline color="0000bb" />
				<font color="000000" name="MS Sans Serif" size="8" />
				<position>125 85 210 140</position>
			</node>
			<node id="U0">
				<name>U0</name>
				<interior color="e5f6f7" />
				<outline color="0000bb" />
				<font color="000000" name="MS Sans Serif" size="8" />
				<position>50 50 135 105</position>
			</node>
			<node id="U1">
				<name>U1</name>
				<interior color="e5f6f7" />
				<outline color="0000bb" />
				<font color="000000" name="MS Sans Serif" size="8" />
				<position>51 51 136 106</position>
			</node>
			<node id="U2">
				<name>U2</name>
				<interior color="e5f6f7" />
				<outline color="0000bb" />
				<font color="000000" name="MS Sans Serif" size="8" />
				<position>52 52 137 107</position>
			</node>
			<node id="U3">
				<name>U3</name>
				<interior color="e5f6f7" />
				<outline color="0000bb" />
				<font color="000000" name="MS Sans Serif" size="8" />
				<position>53 53 138 108</position>
			</node>
		</genie>
	</extensions>
</smile>
