<?xml version="1.0" encoding="UTF-8"?>
<!-- This file was created by ACADEMIC version of SMILE -->
<smile version="1.0" id="Unnamed" numsamples="10000" discsamples="10000">
	<nodes>
		<cpt id="U1">
			<state id="State0" />
			<state id="State1" />
			<state id="State2" />
			<state id="State3" />
			<state id="State4" />
			<state id="State5" />
			<probabilities>0.1 0.1 0.1 0.1 0.1 0.1</probabilities>
		</cpt>
		<cpt id="U9">
			<state id="State0" />
			<state id="State1" />
			<state id="State2" />
			<state id="State3" />
			<state id="State4" />
			<state id="State5" />
			<probabilities>0.1 0.1 0.1 0.1 0.1 0.1</probabilities>
		</cpt>
		<cpt id="U17">
			<state id="State0" />
			<state id="State1" />
			<state id="State2" />
			<state id="State3" />
			<state id="State4" />
			<state id="State5" />
			<probabilities>0.1 0.1 0.1 0.1 0.1 0.1</probabilities>
		</cpt>
		<cpt id="U25">
			<state id="State0" />
			<state id="State1" />
			<state id="State2" />
			<state id="State3" />
			<state id="State4" />
			<state id="State5" />
			<probabilities>0.1 0.1 0.1 0.1 0.1 0.1</probabilities>
		</cpt>
		<cpt id="V0">
			<state id="State0" />
			<state id="State1" />
			<state id="State2" />
			<state id="State3" />
			<parents>U1 U9 U17 U25</parents>
			<probabilities>0.1632033630086039 0.2330185516057168 0.3944918150268638 0.2092862703588156 0.0165809857162069 0.9834189901597445 2.412399619438353e-08 5.216607778473939e-14 0.4548912528624898 8.391772043606731e-05 0.5146437753417042 0.03038105407536984 0.4539833168175725 0.02176105073717129 0.08999533314493388 0.4342602993003222 1.292656182722172e-56 0.6765000920807231 0.2764519388933944 0.04704796902588251 0.9919688368146188 0.008011542671600208 6.069947371668167e-06 1.355056640916977e-05 0.9994585159686132 8.694847965388838e-05 3.844059907914691e-28 0.0004545355517330525 0.01727863062607356 7.600676736199051e-18 0.09768132344786486 0.8850400459260616 0.004575962039405685 0.4153488006685805 6.842361604354271e-05 0.5800068136759702 2.433859632690724e-07 0.03663725621303668 0.9633625004009997 3.09197176935254e-16 0.129549938653471 1.621539006219294e-13 0.04661165021692511 0.8238384111294418 0.1016616325092556 0.8982881145229481 5.025296779627126e-05 2.745107435307151e-18 1.596884864796427e-13 5.779201436206053e-43 0.9999999999998405 1.873698288424298e-98 0.002860955225073521 0.007845615180385245 1.490143082675939e-15 0.9892934295945398 0.0002621116687432228 7.490709577122474e-13 0.9997378883304427 6.483581565797008e-14 2.694386574860667e-10 0.6718261726824366 0.3281490996607635 2.47273873612995e-05 0.0146534831334839 0.09673636596822284 1.573087841974484e-14 0.8886101508982776 0.9162052778902881 0.07782764532746851 0.005967076782243318 1.810498299712076e-22 5.520944086239763e-09 0.9999989108169294 5.091939163708726e-28 1.083662126710244e-06 9.67950596932063e-07 1.789476629111022e-13 0.004355313177631365 0.9956437188715928 0.8280404125037627 0.1694980640712275 0.002398975721914543 6.254770309509246e-05 0.02707901202906369 0.14702070026664 0.2979744048874313 0.527925882816865 1.087821940444284e-27 0.9745145269373394 7.585417481819168e-05 0.02540961888784226 0.009519945712053408 0.9904791326256976 9.216620083063077e-07 2.408089992595366e-13 1.598741830167605e-09 0.3048300833738185 0.684259317084133 0.01091059794330681 5.58691939964763e-14 0.7322233992344062 0.2677766007655378 1.852334019725897e-119 0.9999982611161953 1.737792886113759e-06 1.090918511867709e-09 1.283306865713682e-76 0.5868833576324927 0.4122869778634219 1.017491656082539e-06 0.0008286470124293916 0.05534453480125846 0.9446390778446937 1.638594583188307e-05 1.40821580418061e-09 0.9977107190128476 0.002270178687888552 1.910229926397292e-05 8.116897382085707e-18 9.743868051718232e-05 6.774713432158087e-10 0.9227337922220523 0.07716876841995927 9.657107569178677e-06 0.003362873967056427 0.9966007318693223 2.67370560520955e-05 0.5354692732513983 0.4637030007927582 3.87985829795077e-14 0.0008277259558048792 0.03838880283435092 5.191087268378089e-46 0.2964449782092521 0.665166218956397 1.500487749557991e-25 0.9997012073844853 0.0002987925131563606 1.023583046925971e-10 0.9315121653430546 0.06848781476893544 1.988795829196382e-08 5.16571571751165e-14 0.114307950932245 0.8855552076708617 3.586082617338873e-17 0.000136841396893338 5.207024580044542e-18 6.300369505952736e-09 0.0008925727563093063 0.9991074209433212 0.612314956067051 0.3851795015135794 1.243668258539479e-11 0.002505542406933021 0.586228645336763 3.878146013118526e-05 0.3849232571508791 0.02880931605222675 0.0003427691736483889 0.9371948559099291 2.939213200186187e-15 0.06246237491641945 0.9905119860035045 1.470284297947223e-05 0.009473311153515894 7.003294736343177e-17 0.9826415761514586 0 0.01649038884728922 0.0008680350012522435 0.1682796633110162 0.8309630923578222 1.210429005027682e-09 0.0007572431207324879 7.74695840007777e-09 0.9999998170388729 1.752141686531951e-07 8.88736611925907e-140 0.1268087590490369 1.647189624588666e-111 0.8731912409509631 1.169300081411331e-17 0.2340055829955699 0.6695331586476188 0.0964612583568113 0 2.789567646895853e-42 1.147433163691272e-14 0.9947901144062479 0.005209885593740621 0.9991341479411189 7.027689659055348e-07 0.0008651492899151647 8.416206137705415e-22 2.376526552739099e-08 0.0004774529327739749 0.9995225227425601 5.594005297597565e-10 2.705128921098472e-10 1.328295530437666e-06 0.9999986568617329 1.457222346213092e-08 0.0003215537787804696 2.569361516847345e-06 0.001039344171686536 0.9986365326880161 0.09180013796709136 0.8056417303256909 0.1025581316942859 1.293194983187703e-11 0.2806938662558019 0.3863554903648169 0.3327053617573884 0.000245281621992929 0.0002414400141413772 3.433887733625418e-17 0.8244473463132813 0.1753112136725773 3.356919090290249e-11 7.312646494840985e-08 2.416032917494874e-08 0.9999999026796368 0.3428673564091694 2.393351663113674e-06 0.6571302502391676 3.953685769048228e-247 0.003415474701867099 1.332442400718019e-06 2.531855651081635e-09 0.9965831903238765 0.3987966745264628 1.064114744460027e-05 0.01038932659827086 0.5908033577278217 0.9969256899926878 0.003074309951082828 1.666696246462813e-37 5.62292301527552e-11 0.0003589098476181392 0.9796544070919647 0.01329225623293215 0.006694426827484919 2.012495636735431e-09 2.745722522697651e-09 0.9999477969445166 5.219829726514368e-05 0.9005563970015694 8.395327934129655e-13 3.935912398955991e-05 0.09940424387360147 0.0005639794543744373 0.07137297898445435 0.0006599646289338255 0.9274030769322376 0.9212125079066696 1.153765567860145e-19 0.07805562092986432 0.0007318711634660353 0.0002226880735072045 0.9997740617029319 3.250223561019523e-06 9.44383691309606e-64 0.3738951202638148 0.05285577673754197 0.004867998013640568 0.5683811049850026 0.9999931506149098 5.85071914901916e-07 2.811153316251377e-18 6.264313175444131e-06 0.9866525932519399 0.01334725559730602 1.511507540254009e-07 8.529002339039238e-35 0.3702135785444529 3.874597199356394e-15 1.251990769634182e-18 0.6297864214555433 0.9999999987086768 7.808779768513588e-39 4.582993456724428e-252 1.291323207854912e-09 5.351978679566576e-05 0.9942681825660512 1.184975858218985e-69 0.005678297647153176 0.9999999991298026 8.807121014785691e-15 8.701858824437764e-10 2.604877249712181e-15 5.655105343065446e-24 0.8550903781353265 0.001067670325569633 0.143841951539104 0.9624658154798398 0.002230469643017383 0.035303714877143 6.613950973698412e-36 3.153885250269216e-16 0.9696429128853179 0.03035708706923279 4.5449029047022e-11 0.9921699367973438 1.547527648279085e-06 0.006279833040797616 0.001548682634210247 0.01519532211863801 0.2914356533942908 4.662647184519026e-13 0.693369024486605 3.623039858499967e-13 4.679577389550909e-17 0.0004455897641450563 0.9995544102354926 0.9562044685476846 0.00967037438505103 1.762561092522115e-05 0.03410753145633923 2.455296568697248e-13 0.001849737256122363 0.3216805722938054 0.6764696904498266 0.1722274373860124 0.09816991254800597 5.781470394050381e-87 0.7296026500659815 9.701891998039737e-08 0.2137685887286492 0.000876025814637841 0.7853552884377931 0.003084560177806558 8.350119389890987e-05 0.9499719315901464 0.04686000703814826 0.8848424876833229 1.60072365140397e-140 0.1100656136094022 0.005091898707274859 5.443156533958708e-09 0.8777293785210686 2.554215752412635e-16 0.1222706160357747 0.02811969484000232 0.0001071736111992924 0.9073603173493836 0.06441281419941471 1.346069566596681e-13 1.778678507396302e-26 1.880146589634365e-08 0.9999999811983995 6.16334619288958e-06 0.8962524546895557 0.1037413819642515 5.577600162274058e-45 0.529744001479177 5.927877365039792e-55 0.0186533483855514 0.4516026501352717 2.496138872909538e-21 8.830085560166675e-133 0.7149244974765433 0.2850755025234568 4.082632465984533e-15 1.292568256829189e-33 0.001693445563546618 0.9983065544364493 3.894887939919313e-25 0.9750048846075378 2.569108460230053e-16 0.02499511539246193 0.0003967774503719517 0.0009186204441768159 0.6486168071079992 0.3500677949974521 6.213779113708792e-33 0.5490422980116555 0.4495563062636905 0.001401395724654179 0.03837526336636745 0.9572647573429449 0.00373541473767933 0.0006245645530084358 0.9999999000151946 4.863765242803093e-22 3.413591689565461e-14 9.998477120296348e-08 0.9992124151816749 0.0001434521506494966 0.0006441326676756809 5.023016433804984e-19 0.5027564803730254 0.02849546069137304 0.2198161076713285 0.248931951264273 1.614135326978861e-08 0.6328148973070515 0.2933643144004476 0.07382077215114743 0.002877921557099981 0.0001921158881356061 0.1654343653709778 0.8314955971837865 0.06983709078999542 0.3117387628722393 0.6147929982689582 0.00363114806880715 0.5548501115658142 0 0.3268286930448648 0.118321195389321 1.10621573428091e-11 1.7916720958232e-07 0.00781244361527357 0.9921873772064548 0.4424667316714804 0.5567963277292263 1.092437091451677e-14 0.0007369405992826001 0.9339429324068761 0.005308106053989663 0.0001342152444257386 0.06061474629470849 0.000116617195474262 0.000720241690675104 1.407872926402691e-06 0.9991617332409243 0.01769860323139458 0.0003666912910712032 0.9819347054634516 1.408267059819194e-11 0.5424001499682478 0.003991981503767014 0.4536078685083954 1.958995219725651e-11 0.9999932376887705 6.762311229634088e-06 5.061206210850613e-21 3.017533546626188e-30 0.004987075203878762 0.04991822549488557 0.6049784641875228 0.340116235113713 0.00851776218338153 0.4825268222300612 0.5089554155863618 1.955320976265397e-13 0.02658990612702129 2.849381903527551e-17 0.4803409497528794 0.4930691441200992 7.605256305335552e-06 3.163884155341731e-19 5.527993356179586e-06 0.9999868667503385 1.620872333275182e-52 0.9995450220997881 0.0004549779002119996 5.426656134660941e-110 0.5470050672376704 7.21641780815526e-07 0.4516130234298981 0.001381187690650789 6.655967536385435e-08 0.05380822158328449 0.9212082430103139 0.02498346884672608 0.06969033592966958 0.0003439318282125769 0.007309533235579166 0.9226561990065385 0.01661566782850708 0.736054103638905 0.226751972165053 0.02057825636753485 0.7099190937902143 2.297128005869579e-10 3.659481056478707e-56 0.2900809059800727 4.368074617048759e-06 3.382514974410665e-93 0.3224451633850783 0.6775504685403045 0.0006505261373175086 0.006677107215947974 0.001397996814556825 0.9912743698321778 0.9996015394919362 6.158331966121373e-18 0.000397087901411955 1.372606651695639e-06 0.7755779231176431 0.2242591754811341 1.23201150135143e-08 0.0001628890811076645 0.02236572405956 0.9217569486154199 0.00182440777511451 0.0540529195499057 9.242708517381521e-06 0.9998003337416485 4.514002403099148e-06 0.0001859095474310516 0.08818140225663995 0.336535780808531 0.04914001376887371 0.5261428031659553 2.088709679114322e-06 0.9998895557036297 7.359829028707726e-55 0.0001083555866912595 5.993050383070829e-05 4.01052849708394e-17 0.004500026198320027 0.9954400432978491 0.9988045226899583 7.485363759666023e-24 0.001195477310041571 7.411725881959406e-20 1.806494228014613e-08 6.59410081231585e-05 6.882014463242278e-06 0.9999271589124713 8.424224695320488e-73 0.9999999999671542 3.284585481313945e-11 7.458262677845594e-59 0.9991655329626846 3.955271401762281e-22 1.8372015154591e-09 0.000834465200113841 0.4834595832186634 0.5110110935822029 0.001950057010959779 0.003579266188173939 0.2904234168962467 0.2026524188843198 0.5015725697973952 0.005351594422038338 3.407476105639782e-06 3.261897756451556e-112 0.03836752405628133 0.961629068467613 0.001371808298853249 0.9986174591622134 3.358978659010438e-16 1.073253893307284e-05 0.0002161651532688048 0.003457168586911721 0.9963266662597077 1.117622590474105e-13 2.824325181794773e-07 0.04436379407464194 0.9556359234928399 4.804161494773476e-44 0.0008074243894075319 9.914094079839334e-34 1.455271410387648e-61 0.9991925756105926 0.0287010103112713 0.0003145827094486845 0.06589649965123236 0.9050879073280477 0.9592933758676037 0.04070641922529462 1.559193959162148e-50 2.049071017388794e-07 0.01828150754436614 2.180058180346678e-88 0.7646255562087952 0.2170929362468386 0.02585731171635405 0.0001620215818347088 0.0382066290508709 0.9357740376509402 3.145285280026886e-07 0.001411074710404332 0.04792015362276503 0.9506684571383025 0.01771641914891856 8.16800646409292e-12 1.944335565283786e-12 0.982283580840969 0.3338581520884527 1.319405692897321e-05 0.6520153841450544 0.0141132697095638 4.848196228819946e-15 0.9999574826597203 4.251724862790533e-05 9.164674888615998e-11 2.676294151441898e-12 0.9409735572787646 1.422608957436123e-55 0.0590264427185592 0.4960374128396385 0.5030298356337337 4.227985904529812e-06 0.0009285235407232137 2.63937935269884e-10 1.887558161550274e-08 2.478368680385162e-11 0.9999999808356966 9.817949691582012e-101 0.9641190449359728 0.03588095506402727 4.627000004782435e-137 9.205559570232717e-12 1.605520930088839e-15 0.6733269457406359 0.3266730542501569 1.238954433210945e-14 0.9999999996855718 9.676591506330195e-11 2.176499097241981e-10 0.00172848191188558 0.998271518088114 9.440216329658609e-29 4.718866356290065e-16 0.8097157681404956 0.1717610223940738 0.0001241498982122033 0.01839905956721844 0.03208988314300532 6.597368493815039e-09 0.2034869745180846 0.7644231357415415 0.005260257040068353 0.3361090323712757 0.004642016142930021 0.6539886944457259 0.9816739084492854 2.04700347056556e-13 0.01832609155049755 1.233111026950355e-14 2.551003832720244e-07 6.254261811593491e-10 0.9999997442741906 9.132287446461353e-18 3.757087062302494e-07 0.4404707603447681 2.122431942701136e-05 0.5595076396270987 0.9199163951890829 0.000395682503364479 0.07968691684341828 1.005464134367277e-06 7.188494142946613e-08 0.1925018419005012 0.001065343934071913 0.8064327422804856 2.592865065457941e-06 0.8138702308524405 0.1859424810956531 0.0001846951868408975 0.6154697992991118 5.578324941573411e-12 0.3828539970523447 0.001676203642965184 1.110661427660422e-09 0.08364935470552726 0.893248703554835 0.02310194062897612 0.1623630765741113 0.8232471113604265 1.059597903898951e-10 0.01438981195950238 1.194088835688628e-13 0.9997681817944613 0.0002318182027833271 2.636011114677681e-12 1.916459353832185e-62 0.06216763136572517 0.9378323686342747 1.493586050377843e-39 0.3219924776583379 0.6505903506612365 0.02730161364569522 0.0001155580347304182 0.003190910707786902 0.03183988432579737 0.00762157147073075 0.9573476334956849 0.4009324526086109 3.274059737936768e-08 2.68131067294096e-08 0.5990674878376849 6.00782232456208e-11 0.02150790260028834 0.9784920973396335 3.811875969011839e-143 0.9926928135303865 3.79188101467627e-05 1.355099237305698e-10 0.007269267523956958 0.03690076439263303 1.50587203428741e-11 3.919282931541839e-12 0.9630992355883889 0.009057863268998372 1.362252347034014e-06 0.3645559728689071 0.6263848016097474 1.769302815054539e-09 0.5525049599620732 1.43601491917262e-11 0.4474950382542641 3.478803771283179e-06 3.838757727631326e-95 2.7165130244e-06 0.9999938046832044 0.4729415098359745 0.5270569384922861 2.706022111297153e-16 1.551671738972274e-06 0.4741118898420676 2.241529463863165e-05 0.5255041738016284 0.0003615210616650946 0.02162100894923677 2.142949758010849e-07 6.210568063006191e-09 0.9783787705452194 0.001224383352264297 4.28552750733064e-06 5.022234023326778e-05 0.9987211087799951 0.9997816892631115 7.117773650092266e-10 0.0002183100251111416 2.602028066696709e-31 4.398810722692463e-07 0.9999937850994852 5.77501944243414e-06 7.896796885937019e-56 0.9999986412477975 1.01742017381565e-21 3.619495259500473e-25 1.358752202534976e-06 0.07808742276463457 0.4680705784198281 0.01019376581008404 0.4436482330054532 0.009395122769566687 0.04509821748074495 0 0.9455066597496883 0.840614568626587 2.228781120736413e-07 0.1591025071785519 0.0002827013167488553 0.1257308940186048 0.144045197551695 1.679340171550509e-09 0.7302239067503599 0.0093970591065276 0.9875544980703855 0.0002376983754747397 0.002810744447612205 0.9780864590517806 0.001878423847416627 9.048975417067787e-07 0.0200342122032609 1.144242565299726e-06 0.01622526405031097 0.9824125320822824 0.001361059624841324 0.9977995070210208 5.137514878871606e-12 0.001218094021196797 0.0009823989526449352 0.1784401887626758 0.8203421141804423 0.001217697056881851 2.303343237128291e-19 0.000614806744268404 0.4794045369670936 0.1695469098644489 0.3504337464241892 0.000117578182108488 0.4130716539410503 3.245374041822604e-06 0.5868075225027993 0.00791096173338343 1.380026480841331e-84 0.00169093131092657 0.99039810695569 6.663197049995386e-18 0.9992786763901012 0.0003573811023349639 0.0003639425075638256 8.56472307573463e-17 0.1017711153739685 0.8982288846260315 1.928413762460535e-134 5.053080160906687e-20 0.2806179868411317 0.7193820131583205 5.478790820253812e-13 1.277353713802079e-21 0.331569105126392 0.0008020848224303042 0.6676288100511778 0.02148439372865532 1.064955249528013e-08 0.9415276947152647 0.03698790090652754 1.56096605503282e-06 0.1309997785471153 0.8688009535913346 0.0001977068954950656 0.9936647613358583 1.638975266013803e-99 0.00633473685752938 5.018066123241057e-07 1.663794836895139e-24 0.07039493073926392 2.242777880849998e-10 0.9296050690364583 0.006882067092516759 9.215793716794339e-13 0.9931178868009571 4.610560452459158e-08 0.01364713109576426 0.9863528689037715 4.636612738646625e-13 4.387767401848205e-16 7.485659233964374e-07 2.075044890986085e-15 0.9999992514340746 2.845655606323459e-18 8.133203813456676e-08 1.785634634564794e-22 0.9999991140033629 8.046645988600301e-07 4.806311769541561e-05 0.8290090633218574 0.1709428735604471 2.341407625887291e-37 0.1155798371697576 0.0004314864631841835 0.883988676366082 9.760762660387062e-13 0.03982619961755365 0.1566254527691811 0.3020033114034634 0.5015450362098018 4.549355570536941e-07 0.0002350652217084031 0.004827941280959428 0.9949365385617751 0.7066939364569365 0.2014255997338548 1.020841233357248e-16 0.09188046380920868 0.549526008800776 0.4441321656545576 0.00634023024639164 1.595298274867904e-06 3.050671920163345e-06 0.5553090375607277 0.4443400307374624 0.0003478810298897793 7.152928316563437e-08 0.3594217328895933 0.2433564563930324 0.3972217391880913 0.9995039609918411 0.0004960090514302787 1.706136083247234e-26 2.995672869190706e-08 0.04612689457806425 8.460950881538754e-05 0.9158226872195463 0.03796580869357406 3.602151027512505e-53 4.655702016347095e-07 3.899379901403793e-05 0.9999605406307843 3.357453589065383e-05 0.9999658875256514 6.295383607101727e-09 5.316430742726366e-07 0.0006382356327873213 0.9765385349634729 0.02278189294016124 4.133646357858074e-05 0.610570576206217 2.696489136209301e-09 2.083872107053105e-11 0.389429421076455 0.2015267484939983 6.598810255249412e-43 1.725187796636224e-16 0.7984732515060015 0.00115439837441646 0.9957016569520325 0.002201228298721179 0.0009427163748297626 1.673752109371106e-08 0.999999983262479 3.289805215268064e-48 1.54742138550029e-17 0.0003432586877123435 1.215906500162039e-07 0.9889026763979569 0.01075394332368083 0.9127426992380134 2.676035773452824e-05 0.0815672724113445 0.005663267992907525 0.0001664398771681226 0.9998335601228308 1.092975855575428e-15 6.213157580476259e-44 1.2393217149913e-07 6.749877504669153e-33 0.9999998760678285 6.148046530788038e-32 0.04099747254634985 6.640227805957998e-47 0.9590025274536502 2.885322491205162e-34 0.1491988884305463 0.8433554826404767 0.007418051367993347 2.757756098363228e-05 0.002998377721909113 0.9742714387671928 5.314444258751606e-19 0.02273018351089807 4.7346377741617e-09 0.008557157525012144 0.004245734958682885 0.9871971027816673 6.785571874986357e-10 3.363343048485263e-26 0.9999905240626618 9.475258780865204e-06 8.965462918129843e-31 0.0009858167406197036 0.9990141832579312 1.449079709428228e-12 0.5668153142268075 8.563608167358069e-90 0.00127833428730396 0.4319063514858886 0.1490650988141203 0.02481059875018083 0.8258100272437836 0.0003142751919154503 3.22968519234604e-10 0.0005405285134221648 0.9994516643498684 7.806813740927676e-06 2.445551876537771e-12 0.9966475668863385 0.003352433111215932 2.615010064932255e-20 0.7514409498077471 0.06610405817794694 0.1824218923498497 3.309966445612454e-05 0.7346644549897332 1.857452947205865e-18 3.261889425681165e-10 0.2653355446840778 0.08770881325961397 0.9105550198096867 1.527405835735381e-06 0.001734639524863635 0.0002720226354538882 0.5111318720212892 0.109281277899875 0.3793148274433818 7.550672810043028e-05 1.050709923077223e-08 0.9985171674468147 0.001407315317985505 0.705907025920829 4.250694729180021e-07 0.2940925490096624 3.583360182697411e-14 0.1046176559122058 0.1926658170739333 3.177096247849778e-09 0.7027165238367648 0.6606038481863228 3.408458651809704e-23 0.3393961518136772 1.743304035511198e-19 6.189579644014605e-05 0.3066865465545232 0.3920636788055277 0.3011878788435089 0.1898980319107885 1.337877311764116e-05 0.8100885893160938 1.999054022276632e-35 7.949667113096001e-06 0.0752975270510307 3.077913914777962e-15 0.9246945232818532 0.7564730209845998 6.164922542152913e-11 0.2435269759968594 2.956891490059422e-09 0.8376071348678439 1.234294090637032e-05 0.1620596274287576 0.0003208947624920852 0.9745143012737308 0.013627368844451 0.004556511330684195 0.007301818551133955 5.770612138510511e-18 0.973516654142921 3.60786534665878e-13 0.02648334585671824 1.647883796884464e-05 0.0002139271923534128 0.1574864463877412 0.8422831475819366 0.4101847150323101 2.403406946670749e-61 0.5471718964024526 0.04264338856523733 1.680448632254641e-19 0.960576470923335 0.03942350902398284 2.005268220133017e-08 3.239584944822122e-09 0.01477835561765817 1.285051353054162e-10 0.9852216410142519 6.072417432447291e-05 0.560496328615247 0.2018082396766883 0.2376347075337402 0.04080592892022772 0.9121747314996493 0.04637878368851087 0.0006405558916121201 1.202201253018061e-09 0.003800071795920603 0.9961999270018782 2.453450805863493e-23 0.02140019363086112 0.2600129684756708 0.7185279609023819 5.887699108611455e-05 0.9640772669145796 1.950319145769098e-09 3.651448323045017e-08 0.03592269462061819 0.9994093603346677 1.029075557548526e-169 4.073977335196603e-14 0.0005906396652916409 0.003124734462730134 0.0001167203815143756 0.01737175999068096 0.9793867851650745 0.9999999604165232 1.281698896787306e-30 5.378212449067717e-21 3.958347668580656e-08 1.815761136072554e-07 9.43749618449346e-08 0.001821064150469118 0.9981786598984556 0.9946945079657786 0.003405575521478977 0.0006782153606884102 0.001221701152053994 0 4.397124832103626e-05 0.9999560287506403 1.038610764024346e-12 0.4828660667106068 9.236071520136758e-12 0.003047924440950296 0.514086008839207 0.0009039260929363076 0.9839796577873899 5.158751138420617e-11 0.01511641606808625 0.0009693225731566722 1.288852638878469e-09 0.01623170147755984 0.9827989746604308 0.9974345927807809 0.002278458256885046 5.819380618100148e-22 0.0002869489623340479 5.370308268485941e-05 3.052867216066708e-47 0.0007319743072515778 0.9992143226100635 0.001171792728392783 0.9988282072716071 1.082524463215685e-18 9.261168978454826e-65 0.0001960120901284885 3.85867839334105e-28 0.6258549021884031 0.3739490857214685 8.07988334681094e-10 0.005102515810768732 0.879039689020264 0.115857794360979 0.9412927765112893 4.437802393510326e-12 4.002481607820304e-11 0.05870722344424792 0.007218530128105977 0.3861819939983565 0.0001429075552202462 0.6064565683183174 0.0005211419434511205 4.009937472286247e-09 0.06076408453097605 0.9387147695156355 1.077902234291905e-12 1.919266197301201e-52 0.9953484742901471 0.004651525708775089 0.05743882452495695 0.5443025058512535 1.717449701153329e-07 0.3982584978788195 3.333639899952192e-08 1.547242850839119e-07 0.02364569014309777 0.9763541217962183 0.3623848064979746 0.0003239832225403355 0.05171107935556737 0.5855801309239177 9.292262374357213e-88 3.122511619105257e-22 0.04306465534152003 0.95693534465848 1.4223843191982e-06 0.01752692243852738 0.02955517374138997 0.9529164814357635 0.4234983749303079 0.1721656938950706 5.499407840703936e-31 0.4043359311746215 0.9470275947105156 0.01038348664505075 0.04256135761998839 2.756102444515263e-05 0.00120038546880596 9.652905361841898e-08 0.9987995180021405 0 2.528137276362328e-14 0 2.750827381672587e-15 0.9999999999999719 0.0001454659058560217 0.3318418543881424 0.02287985583761567 0.6451328238683859 5.893189580951283e-09 1.066737829725711e-19 0.9981538393568773 0.001846154749933201 1.057055088381612e-06 0.00142239793617591 1.071834262652483e-13 0.9985765450086286 1.563179658977464e-06 0.0001778828004900388 1.255406029761645e-35 0.9998205540198509 1.640453905540043e-06 1.249987215468608e-13 0.999960632980374 3.772656559554164e-05 1.138918251483885e-23 0.02966791438867616 0.9703320856113238 0 0.01190230108700875 2.813264805267485e-88 5.976471572503155e-10 0.9880976983153441 1.562874998760695e-13 1.151911005100893e-171 0.9999999999872593 1.258424639150515e-11 7.582353172603831e-17 0.8564679515644359 0.1428496034364239 0.0006824449991401337 0.9999999999611037 1.136006442209197e-18 3.889649560235259e-11 1.015870510308453e-196 0.06570763239134875 3.457160722015675e-08 0.06739480284959638 0.8668975301874475 0.9999998929469102 1.872174092781609e-08 2.647240922874101e-24 8.833134879649251e-08 2.367305116579075e-07 0.9999996891627378 1.700123624287718e-14 7.410673352496606e-08 0.0009722215603305083 9.212898989746578e-103 0.9912302535788144 0.007797524860854953 0.002063770174925894 1.429033227936284e-05 0.9957245711317745 0.002197368361020383 0.4696506872521872 3.712336995652349e-06 2.011212122644993e-181 0.5303456004108171 2.32698919705248e-12 1.891062856876188e-10 0.9999018646578757 9.81351506909831e-05 6.258803440125932e-12 0.9999999864404194 1.355332173307272e-08 6.808988572802387e-31 0.03230701489808697 0.7309766484868525 0.05648071347724788 0.1802356231378125 3.677293283957163e-06 0 0.5715072443064009 0.4284890784003152 0.9903250451507705 0.009669390306433098 1.312869639734456e-34 5.564542796465849e-06 1.640304256636693e-27 2.464417380617662e-06 5.454371475356127e-06 0.9999920812111439 1.400097158786618e-12 0.7537568869694208 0.237684980355139 0.008558132674040231 2.542250631836086e-26 1.959991063967447e-08 0.6424332257399796 0.3575667546601098 7.518017686075383e-05 0.1551485531951737 0.525109935982141 0.3196663306458247 0.002869234368565362 3.141938973750318e-09 0.008420685276398153 0.9887100772130974 0.01876736502995839 1.143242083251722e-06 0.1471890228164145 0.8340424689115438 1.015684299200764e-21 6.973119839801855e-09 0.001715923467660786 0.9982840695592194 0.767914730759933 1.00892175515495e-05 0.1492114296439654 0.08286375037855002 0.0001247631810671521 1.807121905836549e-21 0.9998722580228542 2.97879607862024e-06 0.00342702144103213 0.001955817517726085 0.1007007721702983 0.8939163888709435 1.088717966472151e-05 5.514504731461641e-24 0.000266562509465471 0.9997225503108699 0.7002576147858078 3.719767285915379e-42 0.2886011599318203 0.01114122528237168 0.1518889563893175 0.7575881039060628 5.706821122027866e-06 0.09051723288349758 4.358964327541652e-44 0.76757306600854 1.384340456044592e-12 0.2324269339900756 2.265878998405924e-16 0.0797329714881353 0.05331559973760727 0.8669514287742572 0.000655610083441098 0.9992271153271483 5.700022188821442e-13 0.0001172745888406426 0.01581567604341209 0.939044535853776 3.862402599021284e-08 0.04513974947878577 0.0003726939917512444 0.01940456733657658 0.001104297590220675 0.9791184410814515 0.003659099597785233 4.949634709226232e-10 0.8152052611293679 0.1811356387778835 0.005084884975610116 0.01727426671933793 0.2208180960686723 0.7568227522363796 0.9884759482554326 0.003237798654555851 3.662124745581896e-05 0.008249631842555763 2.683002603409905e-08 0.996907755968107 1.581085023102605e-16 0.003092217201866949 4.616079247422751e-05 6.655782835204272e-15 0.001295018271770173 0.9986588209357489 1.764836504415319e-05 0.364467817397701 9.349092096220139e-06 0.6355051851451589 1.221860993481733e-09 0.9480180438108693 0.05198156778230617 3.871849637206029e-07 0.0002637365643676669 0.9740517537085459 0.02568450846856035 1.258526035884518e-09 0.9999992247047917 4.675186951668468e-07 6.678178545610785e-75 3.077765130839899e-07 0.9355096632071462 9.139100367122956e-07 0.06448942288281707 2.084319740413041e-56 9.082403846878062e-14 0.9972683864806097 0.002731613519299535 0 4.026589313683195e-07 0.009216477847168905 1.941474659913511e-08 0.990783100079153 0.9985284297799238 7.410648060931968e-07 9.44026504102036e-132 0.001470829155270066 1.171634903895411e-07 0.02822046340051701 0.6844047818846085 0.287374637551384 6.343769272344419e-12 0.9996424588953445 0.0003575410983116444 5.692354670243481e-51 0.9999169786305441 2.118716537777107e-13 3.291795008618135e-15 8.302136924062355e-05 0.04863650306681959 0.9363317643796225 0.01344772452587673 0.001584008027680999 0.05650397968812659 0.9427602833099106 8.589350876671641e-81 0.0007357370019628546 0.2919539934828194 3.266109053198989e-61 0.09344940507481746 0.6145966014423632 0.628145758617058 1.111125176641511e-10 0.04127012478693368 0.3305841164848957 5.223618521558825e-52 2.736293879305394e-07 1.83050707663105e-10 0.9999997261875613 0.0005796561005635926 0.9985915404586998 1.002122509448907e-23 0.0008288034407366102 1.187211931965228e-21 4.105048346997784e-10 0.9832137097792595 0.01678628981023582 0.3757611171922233 0.001649284381729077 0.04241394740279813 0.5801756510232494 1.547174641800094e-05 0.9999824166841562 4.329364906107457e-10 2.111136489394558e-06 0.0008875922326361604 0.698597068568151 0.3000875331930934 0.0004278060061195786 2.108857524346031e-05 1.12428719235708e-06 0.9974442927522394 0.002533494385324606 2.696555926130588e-42 0.1212478815938194 7.498028871895347e-05 0.8786771381174617 0.002517460475709686 0.4381316552977047 0.4242638531193073 0.1350870311072781 0.8323373610699176 0.0566594438068957 7.085305679736717e-17 0.1110031951231866 0.9975417205208615 1.127722386856912e-110 0.002421342996959317 3.69364821791243e-05 1.731591461470437e-42 2.525152919220517e-12 1.31849438604654e-05 0.9999868150536144 0.4720232265510907 8.098633615423527e-126 2.136116851968348e-06 0.5279746373320573 6.134421475454081e-07 0.9225910811178208 0.06066166480309194 0.01674664063693961 0.2474249790956585 0.5991164396126739 0.113874685279036 0.0395838960126316 2.936351272683881e-39 6.126386207724234e-05 2.031873519777322e-08 0.9999387158191877 2.845188097406474e-18 2.525053304557375e-06 0.006409631245289525 0.993587843701406 0.9952483204197251 6.181044229303625e-07 0.003990214181545983 0.0007608472943060204 0.9721590245344204 1.026679374812731e-10 1.668539617396083e-25 0.02784097536291158 9.397082310196044e-15 1.428349617816154e-36 0.4242796003753059 0.5757203996246848 6.195497504669526e-08 2.640886449566667e-34 0.9915546926260755 0.008445245418949339 2.038580016806379e-06 0.001115384035035931 2.297038641251841e-98 0.9988825773849472 6.651237374874205e-12 0.3067955647724314 0.6932044352209172 9.419410468991264e-17 4.458707783664246e-11 2.366541929682878e-05 0.9999763345086086 2.750766144178767e-11 5.991888732914361e-16 0.9999919995379866 8.319677821927157e-24 8.000462012929914e-06 0.1034223491647429 0.2665265480743891 3.68428192127814e-27 0.6300511027608681 3.639352637086033e-05 3.489648185681499e-33 0.997736353192217 0.002227253281412106 0.9026665077940297 0.01670964189326042 0.08062385030720132 5.508581322119359e-12 0.6505371951537323 8.727363381268999e-06 0.00109919745011513 0.3483548800327712 3.534594574189541e-10 5.091017214574143e-06 4.126196063192982e-25 0.9999949086293259 0.03500907587435133 0.6488560587579935 5.644301346279459e-06 0.3161292210663088 1.300552930524219e-48 0.9848208240493594 0.01517917595064042 1.615419772865105e-217 5.411573774363139e-10 0.9875332455946862 1.739561355280318e-17 0.01246675386415623 0.9298940603202666 0.06652864263529128 0.003577297044442327 1.215195902861881e-23 0.6395648764157343 0.01142755428711439 9.522542203168879e-07 0.349006617042931 1.191642928731149e-07 0.8341281178239539 0.002896991518737926 0.1629747714930154 1.044167426855688e-26 0.004473559380801469 0.7072139433830231 0.2883124972361754 0.9980144121111307 7.582915007174582e-11 3.065553473476709e-08 0.001985557157505286 3.310233869416452e-26 3.439646910807095e-08 3.801473007018359e-05 0.9999619508734607 1.541336079007871e-15 0.9999989347764491 1.002659544706378e-06 6.256400469442337e-08 0.8674480731844347 0.1325518973123598 2.75679320704298e-41 2.950320545013805e-08 0.9988532374965677 0.001146762502377388 1.054809355642254e-12 3.754435725734915e-19 0.1793704704080927 4.654770880588592e-67 0.5231716429811377 0.2974578866107696 1.995148222377619e-203 0.7725998029221078 0.2265378697077548 0.0008623273701373411 1.027788215032241e-29 0.4204034806755724 0.1954311547945003 0.3841653645299273 6.381362784657615e-06 0.09305580770159703 7.611422120626486e-05 0.906861696714412 0.4449679503618477 1.318395352724874e-09 0.5550320483194469 3.100619860825734e-13 3.809513990836812e-28 0.6067964503637626 0.3932035496362374 1.226409816758923e-118 2.164897988085629e-07 1.199245192136758e-17 2.406953368145988e-19 0.9999997835102012 0.9988371844782479 4.400464433029985e-17 0.001162813530335854 1.991416273216556e-09 0.04189443131435804 1.148009190703229e-07 7.722402943191815e-09 0.9581054461623199 0.9962205862965171 6.823818438285331e-13 2.759025221212838e-36 0.003779413702800499 0.007203498249958112 1.432060076774883e-25 0.992796501750042 0 2.188541593150507e-09 1.982324796329728e-06 0.9999980147768689 7.097929860023134e-10 0.9998093192987022 1.271436345787507e-07 3.678148054351026e-17 0.0001905535576633235 0.857112433514027 1.670710387660221e-14 0.1428875664859564 2.303176542517195e-65 0.319219995601326 0.4634836039656371 0.2172964004330367 4.103168346092869e-38 0.02052771484527019 0.9794722761527489 9.001980946057692e-09 1.597027761590647e-242 5.849178706383952e-61 0.9991799616660477 0.0008200383337949849 1.571508602694836e-13 0.0005343598651369694 0.1054395006643258 7.370675771980835e-12 0.8940261394631667 0.0002770209487035406 3.529190712565626e-06 1.055530838425453e-145 0.9997194498605839 1.643395000100991e-06 0.9055489542362458 8.792243155457371e-19 0.09444940236875411 0.004435117538543924 3.467823837854313e-05 0.9376067781034128 0.05792342611966479 0.1645179046430343 0.6784730049444163 0.1570090904125364 1.309906986560429e-14 7.03481831899961e-05 1.82392785008157e-13 3.165644469507706e-05 0.9998979953719326 1.800091219079612e-15 0.002326458277362694 0.9976695974587437 3.94426389175104e-06 0.9544541245670519 0.005694892058454748 0.039819451442073 3.153193242035195e-05 0.001525911857063316 0.02476150846551669 0.01271621893400125 0.9609963607434189 3.975347829911388e-41 0.0237185830532313 0.005326514290611142 0.9709549026561576 0.9975367284761374 2.132559229065236e-16 0.002463271523862276 2.005918425989999e-16 7.818765951308819e-47 0.9382303529754218 1.930486184845535e-07 0.06176945397595977 0.0002378198099651691 1.056958031239497e-49 0.1200653219133487 0.8796968582766861 0.002077657408871947 0.0005509345619486352 0.001248862600058139 0.9961225454291214 0.999998536779524 9.742958006591248e-26 4.60963012310377e-304 1.463220475964426e-06 0.4248359169809093 0.5751640816350342 1.384056514882373e-09 2.079051870793694e-27 5.980164174065922e-07 4.202952978645094e-31 0.8224921687808551 0.1775072332027275 0.4387455958263284 0.5612544041736717 1.900445963070857e-130 0 1.186754836574234e-08 0.9527911653334157 0.04720882279903606 2.081260592366977e-28 0.5249134724187782 0.4750702523044495 0 1.627527677208199e-05 0.2467288450933472 1.162047117869032e-06 0.04634545396957565 0.7069245388899591 0.14040093774123 0.004106331075020623 0.8554927310712863 1.124631328413279e-10 0.002688373588319849 0.004346655685471461 0.0005604651168257261 0.9924045056093829 9.830429550257417e-13 0.9998634721627898 0.0001195254477074275 1.700238851973569e-05 0.0114009071995698 0.3873870648076209 0.05397738440423977 0.5472346435885695 1.350925246793119e-18 0.0007698694638213977 2.311926213252942e-23 0.9992301305361786 0.9717944173263104 0.0007118231100250859 0.02579424372672256 0.001699515836941899 1.403241596090785e-08 0.5626183954260588 0.4373815905415251 2.601864532329917e-27 9.144163480913331e-76 0.0005391084496252569 2.277640234686724e-129 0.9994608915503747 0.0004265904122931493 0.618834121202779 2.519147019045996e-49 0.3807392883849278 0.3137301181189406 3.339841439993482e-08 0.6862698390422484 9.440396687177226e-09 0.2545544979183499 1.579737945585358e-38 0.0007520785738796669 0.7446934235077705 0.1375100939152836 9.640432767485168e-10 0.8624899051105152 1.015775032075073e-11 1.291630386816672e-16 6.22833481125356e-17 0.9999026072690194 9.739273098042057e-05 4.911448233350072e-41 7.250633459561056e-07 4.492848728951041e-20 0.9999992749366541 2.408130597662324e-06 0.0118219132639784 0.6856217337998505 0.3025539448055735 2.090492400753456e-27 0.8974140120030529 0.1025859879969471 0 0.1647944278345594 1.195520368738573e-11 0.01289439555637129 0.8223111765971139 1.706172962597522e-05 6.394109065232849e-46 0.9419933526801816 0.05798958559019252 0.9919748032662767 0.006956741390268799 5.911142148042756e-06 0.001062544201306429 0.01365746720998642 1.965220763957922e-08 0.0006781606345114498 0.9856643525032944 5.767249925685299e-05 0.7073666444410628 0.2880830903177743 0.004492592741906149 0.595405479413558 0.3851925181869396 4.008721883994236e-07 0.01940160152731389 9.879141179202083e-19 2.933076874097952e-10 4.409996356026636e-20 0.9999999997066924 0.001947687158685298 0.0001298539194609736 0.9979203095040006 2.149417853100744e-06 0.07422476248948895 0.9257747067668637 5.388987983186094e-14 5.307435933736744e-07 0.01048108871689032 2.110666168241603e-46 0.9895177812414262 1.130041683644859e-06 9.147484403749557e-05 0.9987175935186879 0.001190483300635441 4.48336639079628e-07 0.04338691557360495 4.401459319671831e-10 5.372058873438038e-19 0.9566130839862491 1.013629063182622e-50 6.865025257774332e-05 0.9999313339112204 1.58362019921941e-08 2.016512274810244e-07 0.0001206042305528946 0.00151350202241932 0.9983656920958003 3.239879419043669e-08 0.3454305361851072 0.6498788855798822 0.004690545836216586 0.8702155970753691 0.1297843956235613 1.269245496856876e-79 7.301069653834281e-09 0.003822901348562633 0.9960790928652759 4.67908987281226e-13 9.800578569378447e-05 0.992824169579842 1.844210188329865e-11 1.551250845689224e-14 0.007175830401700565 0.0003704062124839706 0.2196749320438212 4.135440168594759e-10 0.7799546613301508 0.8360066441672889 0.1639812621210201 1.208224298820568e-05 1.146870285286938e-08 1.729522431418281e-84 0.0002709758488457057 0.005842370615488937 0.9938866535356653 0.0009834678833430309 0.9774830176857768 1.636124916311319e-09 0.02153351279475525 0.1025238769111294 1.022017145999909e-241 0.4032443075486596 0.4942318155402111 0.06608131969097522 0.2400793269798608 0.1124867111716123 0.5813526421575517 0.0007807468700639303 0.9475557286289024 0 0.05166352450103367 3.332624500521708e-13 1.545413024922409e-195 7.489545912358961e-08 0.9999999251042077 8.022973915049019e-06 1.173057174125057e-22 0.4139544990459109 0.586037477980174 0.01141749655963043 0.02249339016773972 0.9563022924810357 0.009786820791594058 0.9110049990820915 6.684530415140138e-10 0.08105419805010211 0.00794080219935339 0.03497992476715232 0.0004175055532958079 0.9646025696795514 6.528474852126212e-16 0.9999993859863975 1.737089920379034e-172 6.140136025819495e-07 0 3.009378961369872e-161 0.8261990298298912 8.118512817753402e-10 0.1738009693582575 8.922846829182572e-28 0.9999999999747241 2.527584306510385e-11 7.28649631203314e-106 0.9577473747813429 0.02980949260047039 2.593550335922891e-10 0.01244313235883157 0.1129357098539431 0.8831468831953151 0.003917406950741834 1.691267157510657e-19 1.035688738378246e-65 0.9766064425918822 1.048148555948154e-07 0.02339345259326228 0.02731033359961624 0.8704659094330187 0.1022236647243066 9.224305823410119e-08 0.8759422712326889 0.02663828698896611 5.525217741492146e-07 0.0974188892565709 0.05982962297037099 0.666284332481055 0.02604541101904735 0.2478406335295266 0.9993584693655831 7.901341967428434e-19 0.0006388726228157717 2.658011600982635e-06 0.06204874134637753 0.9379429657254135 8.292928209004178e-06 4.047181838202475e-109 1.926208817549161e-09 8.137157352819397e-06 0.2217751528532876 0.7782167080631508 3.458426219336148e-15 0.0001868807276854043 0.9998131175218166 1.750494638665516e-09 0.01942621931836455 0.04126950461694299 0.9393042760646925 2.665045278048267e-23 0.8679151302337548 0.1320848696107154 1.55527404764327e-10 2.363741445434804e-15 0.4551409025504707 0 0.5446900779784556 0.0001690194710737123 0.9816679253824091 0 0.005343567795179944 0.01298850682241097 0.0002347302165826333 0.2933660985799219 4.135250213672093e-05 0.7063578187013588 3.69437220402168e-09 0.7966683790503083 0.00996479806792072 0.1933668191873988 1.635477333666445e-05 0.9991312138266292 1.423347787581055e-16 0.0008524314000342202 0.3056758772413906 0.3827687693861105 0.3115553533724986 4.316207644957333e-16 4.019141309579153e-11 0.006659094685762632 0.9933409052740459 1.349272893129314e-21 1.034393732001935e-22 2.623981425114806e-240 3.348194154952826e-07 0.9999996651805846 0.9986541383816746 0.001332144565632989 3.910796206064709e-115 1.371705269248953e-05 0.9973216269606954 0.002678373039303505 3.049849389341868e-18 1.048923678290977e-15 2.333465536563187e-10 1.307075355435953e-05 0.0001285848219759185 0.9998583441911231 0.0299419000492372 1.223111078129792e-13 0.0001118673672302619 0.9699462325834102 0.9776876597939642 4.299568815998709e-06 0.02230804063721976 3.17700561976633e-276 1.087810262060742e-16 0.9973415343271437 0.002250835651539295 0.0004076300213167712 0.006276160299860265 0.1662830014780369 0.1070250432267041 0.7204157949953988 0.02168829182795178 0.9761321851556217 9.358725414694848e-05 0.002085935762279557 3.943471232835494e-05 0.6190670799333349 0.3808934842332301 1.12110670123872e-09 0.0002312546748029873 6.197432692864754e-09 0.9993600259196184 0.0004087132081458708 0.9904682750439686 3.24698310200176e-10 0.009531724631333229 3.925420825167351e-29 0.001769578502014953 0.6245456795287118 1.353982675190285e-05 0.3736712021425213 0.003410038643555617 3.511745773406536e-197 0.04423267215910761 0.9523572891973368 8.438018619864551e-05 2.389710356664182e-05 0.9998355462122537 5.617649798096842e-05 0.007525614343312898 0.02297193353967561 0.969502452117008 3.363041471976782e-15 0.9998087928600712 1.430290662671455e-08 0.0001911928363484527 6.736284124613662e-13 2.206215228377725e-11 0.9999998591768515 1.408010863992297e-07 8.434864582176551e-62 8.194494802096896e-07 0.02662537767622763 0.8797856162271526 0.09358818664713967 0.008380622698348156 0.07425292978895016 0.006281697560300676 0.9110847499524011 0.006422738733662745 5.874410366712112e-80 0.2633974746009438 0.7301797866653935 0.9781336283080375 0.02186634745271566 2.423924695862782e-08 2.913241288378044e-18 0.9430951022628137 0.02339964336887682 0.03350525436814612 1.633280906540336e-13 0.9996337740365985 2.07567905249717e-39 0.0002949382570747202 7.128770632671638e-05 8.66040827668913e-11 4.631057793854815e-06 0.0002716243837648249 0.9997237444718373 0.1797762845255247 0.01066908455779426 0.809554630916681 8.158263028042061e-21 4.578678341654632e-10 4.100676169770404e-24 2.606154056704019e-25 0.9999999995421321 1.318521119890008e-95 0.9997241423125982 4.739720339093747e-64 0.0002758576874017507 0.004535957437033468 0.568533258168806 0.01911129872851414 0.4078194856656464 0.8655003498141901 0.003776391583535905 0.1292336818094133 0.001489576792860787 1.419320806968669e-06 0.9968957815423557 3.443611436755389e-09 0.003102795693226049 1.939840237372681e-10 0.9999964115111696 3.558169101999762e-06 3.012574438165865e-08 1.135643300672399e-05 0.05958231440971103 0.9335862328293021 0.006820096327980108 0.9011787290083068 0.09882080109701834 4.698908850473219e-07 3.789812518621935e-12 4.003516558158453e-10 4.970890069077864e-23 0.004167534762712491 0.9958324648369359 0.9941199418132179 8.360930412765397e-07 0.005847653661630055 3.156843211081475e-05 2.76493703655805e-09 0.0001320162575312367 0.9854734183994321 0.01439456257809952 9.570256875816105e-18 9.69834190732055e-12 2.762063903513268e-28 0.9999999999903016 1.244307524803629e-19 0.9533458826904172 2.713058460453234e-07 0.04665384600373677 0.0002291809663571841 0.04307131493951716 0.9566995032999068 7.942189031697984e-10 0.9990321479113131 0.0009148430886735696 5.30090000133568e-05 3.137921974073006e-68 0.9953569147858287 2.507685774159361e-05 0.004618008109051874 2.473779666049742e-10 0.06220011476507319 2.083619707906941e-07 0.9222809351068187 0.01551874176613723 5.01309092177158e-06 0.902964328923474 0.0004643351070224345 0.0965663228785819 0.2976166481847797 0.4720843315440593 3.736198687816446e-07 0.2302986466512922 0.0009742169134897836 2.020795861191064e-12 8.573997723493431e-10 0.9990257822270896 0.9965134823793057 0.0002810279999179856 0.003205489528592286 9.218406672888213e-11 7.987747740947321e-58 0.0003943186446882986 0.9989419941401048 0.0006636872152069116 0.06712374713965569 0.001067761073986698 0.0001405460471670676 0.9316679457391905 0.05229637371471525 0.7188000461495194 0.003631557956628746 0.2252720221791366 0.001312194937508076 0.001243769965228567 0.0921619419530893 0.9052820931441741 0.009735133717464229 0.990202890727238 2.202208031549382e-05 3.995347498237021e-05 0.9970710833820123 0.002606475297643142 4.407555135659053e-10 0.000322440879588938 0.7937668990069685 3.675270303683303e-21 2.131433329027504e-05 0.2062117866597413 2.954199528747138e-89 1.320685638778511e-26 1.382091097666328e-07 0.9999998617908903 1.401407659704796e-19 0.4298795024899293 0.5699985393586836 0.0001219581513871442 1.86403324888144e-13 5.468682768854698e-06 0.9512054774740781 0.04878905384296655 0.9999597234904911 4.582091830143456e-18 1.835123345282251e-05 2.192527605620863e-05 0.004115415410949754 0.1481347965109079 0.003164981165725956 0.8445848069124163 0.9965768450136216 1.529529959085174e-07 1.252707542248496e-09 0.003423000780674908 0.0007550742265220577 0.05544966470218355 0.9391154079082223 0.004679853163072152 3.518596910695892e-05 0.02002430359978367 0.979940449670438 6.076067122062135e-08 0.07900938969365777 5.963688311420012e-07 0.0003754694725214935 0.9206145444649896 1.995157244921505e-14 0.003245813482938114 0.001330999680280818 0.9954231868367611 1.026867421936133e-09 0.7980578174236462 0.2019421815494863 7.889036009195277e-43 0.0004361758894506492 1.566399416551888e-10 4.325619218142674e-34 0.9995638239539095 0.0003305370537482668 4.218632586128591e-06 0.01776350518080843 0.9819017391328572 3.454253943458947e-06 3.767828797288141e-06 3.966500853582741e-08 0.9999927382522508 0.9653348817834505 2.599100897095655e-12 3.38792969800116e-42 0.03466511821395028 0.2629136240277909 0.7331312360655158 0.001741857958330268 0.002213281948363126 0.9994308506629148 0.000568828411585464 1.917220172883773e-11 3.209063275189876e-07 0.9999100036870165 3.925352119193e-20 1.530862393775951e-06 8.846545058962407e-05 0.689422928577472 0.1506789282511194 0.1598981431714086 2.700661216008449e-301 0.9706506930367201 2.033447769706527e-05 2.610984382888278e-05 0.02930286264175408 0.02189382678739251 2.00875058235269e-25 0.9780887609005885 1.741231201911997e-05 0.9970810672983736 0.002918903705628042 2.899599828847177e-08 9.000790614144137e-23 0.004889436782449765 0.03498053924263056 0.9598745615127766 0.0002554624621430441 1.947489028093367e-69 0.9998727634491438 0.0001269863309892601 2.502198670183878e-07 0.1511449339029041 1.851360530120881e-05 0.8307528595672625 0.01808369292453203 0.9997920846879009 0.0002069171322955127 1.149356657703925e-24 9.981798035619559e-07 0.7394817800512877 0.2605088095695013 1.687217633157772e-31 9.410379210963103e-06 1.309108975197014e-41 0.0001648208830728166 0.0001540305656870143 0.9996811485512401 0.9995766935504606 3.791274398691542e-08 0.0003001585480338561 0.0001231099887613646 0.9970851908876343 0.002912634874480399 2.581745774532043e-35 2.174237885363549e-06 2.445487575003383e-18 1.012759279093699e-57 0.2332013709727413 0.7667986290272588 1.551498129675105e-12 0.0001117531039464644 0.9991471890017608 0.000741057892741149 0.9371514543546329 0.05723086296240445 2.933599666254979e-06 0.005614749083296565 8.312046550083557e-13 0.9999999901765921 1.99720057168701e-10 9.622856595296294e-09 0.1684845691079312 5.469657985210626e-16 0.8313276450091031 0.000187785882965297 1.958437300759636e-22 9.169839820896841e-05 4.113757738691426e-05 0.999867164024404 0.03439117083587162 1.199147444123262e-15 0.934630275070831 0.03097855409329617 8.312631715706727e-12 1.369906398934211e-05 0.007115225058662419 0.9928710758690356 1.256478126485024e-14 1.542343530811691e-10 0.7672994332589511 0.232700566586802 0.9844875479644328 0.01551245200668318 2.888394835547304e-11 3.266533401260289e-28 0.08155400511676897 0.01252513863270696 0.9059208485445276 7.705996346938208e-09 1.0629968252673e-21 0.005762933382037608 9.379967422546637e-08 0.9942369728182883 0.001615904207752378 0.5561291224842385 0.442254972208517 1.099492141155531e-09 4.978937352374322e-07 0.9999959672229743 4.865807277350037e-15 3.534883285487185e-06 0.03229520459663201 3.404791142575707e-05 0.967665867765528 4.879726414251761e-06 0.001202425855343144 0.9986405388848963 1.040315093951826e-46 0.00015703525976064 6.227601184320556e-12 0.9999309199482653 6.906783132819073e-05 1.221417882551767e-08 0.1369231777742772 0.3333729905170171 0.5297030008178093 8.308908964518984e-07 0.2906167549843898 1.776480072716025e-05 0.5824945288796434 0.1268709513352396 0.00342983244104067 0.9965701675560338 3.171674166676461e-39 2.925564865476202e-12 0.0741180852179556 0.00107193587713768 0.9248099789048629 4.364112393404013e-14 2.341510700647025e-09 4.845975100751246e-05 3.468729743793247e-05 0.9999168506100438 3.530565168635553e-06 0.02050208944879466 0.6904377108811183 0.2890566691049182 0.01640127508804758 1.393140951508572e-12 0.001049615240774317 0.982549109669785 7.998874301734683e-12 0.9999999999919994 1.65592359269286e-15 1.806105572450469e-78 0.2376455936768377 0.7193304029643773 0.04302399790183262 5.456952340944447e-09 0.9971722281737093 0.002074281277436215 6.261890612143468e-06 0.0007472286582423138 0.01419967304350313 0.9845995791042302 0.0002524482506694078 0.0009482996015971998 0.7772713770231779 0.04521901124600227 0.1775060504094801 3.561321339505102e-06 1.528542815555555e-16 0.002672214952286135 0.9972605309957498 6.725405196395272e-05 1.935745705016367e-13 6.104276855986803e-90 0.5696052891013662 0.4303947108984402 0.3478908504908638 0.360280677481873 0.2918188955700095 9.576457253658087e-06 0.923038473297208 5.50602279873414e-17 2.912369575701645e-17 0.07696152670279208 3.163941020877625e-49 4.908399001945237e-05 2.757901368886833e-22 0.9999509160099807 1.881650784011502e-11 0.5491572262989699 0.0006220233317736115 0.45022075035044 1.155634688479101e-79 0.9999999986897014 4.460600153897465e-306 1.310298614072504e-09 0.9849769166899236 6.645599238784086e-10 0.0150222566801032 8.259654132605212e-07 0.0008695216481407567 0.1059569486669558 1.74671688592262e-08 0.8931735122177346 1.481172682669469e-36 0.9330230918761266 1.110090031976541e-274 0.06697690812387352 3.789436123538663e-77 1 0 2.934976521114721e-123 0.08394092549911324 0.001028095282776305 0.7762623395935563 0.1387686396245541 0.01939722982737085 0.3860562578530398 7.200241737404814e-08 0.5945464403171719 7.194507066775278e-50 0.004569538126197293 0.0002270253986440759 0.9952034364751586 1.150323713024602e-35 2.710279451530542e-11 0.9999986577263744 1.342246522837698e-06 4.60674330771783e-29 0.99430189125271 0.005647678572999238 5.043017429060184e-05 0.04125533102863584 0.04140517323719968 0.6541623954998659 0.2631771002342986 4.643336696680618e-18 6.269031182456026e-15 5.337353813117875e-09 0.9999999946626399 1.320314186218637e-12 0.9999848596533228 3.761556159227235e-27 1.51403453568614e-05 9.216852298671341e-11 0.0001999470970257592 0.7368292703807287 0.262970782430077 9.842076788762586e-33 0.2097363309059412 1.950079515121018e-09 0.7902636671439793 0.9095851403289575 8.285523191253207e-05 0.09033200443913005 6.43622000600433e-154 0.205082965126019 4.835432783954904e-08 0.02229445616384977 0.7726225303558034 0.006803751956405896 2.275052115858818e-61 0.5100785297095523 0.4831177183340419 6.138409831336078e-07 0.9998254258855591 5.91431293854429e-07 0.0001733688421637586 1.277208472375415e-43 1.203281713833953e-06 5.060931325758245e-09 0.9999987916573547 1.110508203031762e-23 8.031084377952769e-05 6.295846619115109e-98 0.9999196891562205 6.538151954970856e-287 0.001506340162480717 2.057427865897667e-44 0.9984936598375193 2.084502487288565e-09 0.9736506808398837 0.0263493170756137 9.05949228076278e-54 8.228741638868965e-07 0.001422328738022596 2.725761346626986e-13 0.998576848387541 0.7562221412257669 0.104946038766428 8.374566913165373e-21 0.1388318200078051 4.43937451322164e-14 0.6384265026831973 0.006095525181524615 0.3554779721352337 0.03719584156989877 0.1932210931650387 0.5663031177009219 0.2032799475641407 6.779717250471509e-145 0.5002271527492079 0.4997728466090528 6.417391793395125e-10 0 3.356509466186521e-08 0.9999998283059419 1.381289633131447e-07 1.4743490005391e-10 0.0003463759426806828 5.56291340181526e-10 0.9996536233535931 0.0003372298417633904 0.01856818703258879 0.9810945831211205 4.527227142000752e-12 0.9975242958511182 7.671469890780561e-07 4.642580616899613e-07 0.002474472743831026 9.946537145976294e-07 0.1847106253470051 0.003170508587773859 0.8121178714115066 0.9999999999864029 2.752338388479243e-12 1.158546242958391e-223 1.084479714027499e-11 9.13292944172676e-16 2.584003462623656e-21 0.9999999988203619 1.179637151024313e-09 0.0008686680989755722 0.9990890447086812 4.228718483666013e-05 7.506473671975635e-12 3.670272460347196e-22 0.05513140462446715 0.9448685953755328 8.106533185536647e-188 3.461600220453071e-08 2.270529526889395e-22 0.9999999653839978 7.49645522637368e-36 4.25318231778093e-06 0.9970558461612061 3.143530223955632e-09 0.002939897512945985 0.7095335176480365 0.2900926049045717 0.0003738094924898491 6.795490200753877e-08 0.0003908430436595946 0.0004045761057228157 1.433807358561051e-14 0.9992045808506033 0.0003879851289948684 0.9996119409401351 7.393087003726392e-08 8.074022714454253e-34 0.004315752183316 0.003433810814743541 0.8757333407225094 0.116517096279431 6.409533274042615e-19 0.008088436056766754 8.403087407543268e-08 0.9919114799123593 0.8418314536530056 0.01885880676177822 0.1393097395848419 3.743413689465913e-13 0.000561399215606103 1.707879047111813e-18 1.907633766846044e-11 0.9994386007653174 1.409440523231198e-28 4.024896791842117e-06 0.999990798091326 5.177011882231712e-06 0.9999915382233049 8.669317331544309e-07 4.119037373179678e-25 7.594844961993923e-06 0.08262720099964398 0.8358513537992899 0.07344829660795192 0.00807314859311439 0.1095632163689476 0.8904356034668917 1.180164160736246e-06 5.243922547540192e-18 1.228717059566075e-07 0.8942487120113158 5.856140689224979e-07 0.1057505795029093 8.900684052810638e-25 1.238534131075511e-09 0.9999999618662068 3.689525916645812e-08 5.821480546936648e-05 0.5407505771214551 0.4591912080576127 1.546274602792387e-11 1.163322246709455e-51 6.143125949310293e-13 0.001330226263305854 0.9986697737360797 0.05694254545928143 1.273371225519036e-07 0.9430572523196842 7.488391167146378e-08 7.787176222571038e-17 0.9999766273168648 1.033312568307222e-10 2.337257980385885e-05 0.9980954945122498 2.868719586482745e-05 0.001615042926327755 0.0002607753655573982 1.27071825565543e-06 7.322863033104986e-48 0.9999987292817445 7.954947789490542e-111 0.9869024254438148 0.01309757455577235 3.671368041492696e-24 4.128661973964162e-13 1.556370560885172e-05 0.09180120411264937 0.9081832321817418 0 0.4488112620161244 9.024529144366208e-59 0.4434577442303726 0.1077309937535031 0.9584733061823631 0.004004905460982101 0.03752178835665469 4.227115695054423e-24 1.452695732289077e-06 0.4354758842162275 0.003754139296300525 0.5607685237917396 1.266728768204407e-10 0 0.1146931356632006 0.8853068642101266 1.04086678805054e-07 0.7860310689129848 0.2079763782204063 0.005992448779930068 0.04490594871213954 5.387150485595082e-09 0.8757603558733426 0.07933369002736738 0.9442535862584882 1.741126787453353e-06 2.430388147078404e-23 0.05574467261472454 1.906491539890583e-07 0.9292683271288393 0.0107654296019375 0.05996605262006919 2.568886330536497e-08 0.9306836025997689 0.05576557832824384 0.01355079338312387 0.9615919097583658 0.00649297112340272 0.03191488006121169 2.390570197487183e-07 8.171072712441346e-63 0.9955894001024722 0.002846579972419161 0.00156401992510856 0.1659349956321043 0.8334007885666523 0.0006486509059366175 1.556489530686699e-05 2.438217872101501e-28 0.3094193239604668 0.5573594568680611 0.133221219171472 0.4538471518193154 0.0100016963684623 0.002350275027690886 0.5338008767845314 2.195545474072642e-16 0.0004676100747175894 0.0002752469035817144 0.9992571430217004 3.639983255514137e-18 0.005739413939017113 2.82581491647155e-41 0.9942605860609828 9.944801681149963e-170 0.0005591211422964123 0.9994408788553496 2.353985154941059e-12 2.993996254878018e-09 0.7455423789750619 0.1146111966803963 0.1398464213505457 2.819957540291899e-40 0.05048266507786194 5.6976298623447e-235 0.9495173349221381 0.008841123523605832 9.917480240026321e-16 3.417344973470948e-53 0.9911588764763931 0.3550671153468535 3.657124347079693e-05 0.2326257365466754 0.4122705768630002 1.630523573372104e-17 0.9999966298764085 7.98716317309393e-67 3.370123591401932e-06 0.0002248157024887078 0.9997751271903763 9.157732534132177e-15 5.710712585190157e-08 0.0324254484161579 0.9654370698960864 5.732118192548988e-06 0.002131749569563189 0.9994389716956468 2.26504800256129e-15 5.23694522748481e-28 0.0005610283043509769 8.76045346722365e-47 0.0009860715552568969 1.109818404643488e-07 0.9990138174629026 0.9202304939326416 0.07976950212192689 7.61378334334753e-130 3.945431494519801e-09 0.9988038912349656 9.737643613839421e-16 8.084183121069031e-05 0.001115266933822669 0.08421519133683639 0.04858219221305862 0.8672026164500998 5.252201403446051e-15 1.480082231638222e-05 0.8948247817808126 0.1003729639750789 0.004787453421792165 0.9794073750437374 2.237951858634117e-11 0.01804735650345462 0.002545268430428408 0.0006528207269851594 0.01571797636261572 0.03441744401633064 0.9492117588940685 1.907424344770132e-15 5.700971084476958e-06 0.9999942990286339 2.797488916986224e-13 0.9910015565641217 0.006253494610326393 0.002744948825551909 1.425869525048971e-40 1.294378763261178e-09 3.182928621049607e-08 0.7754014403740622 0.2245985265022728 0.9985011662419903 9.822722005539892e-06 0.001489011036004206 1.11326469532725e-24 0.001001468752000374 0.3395084148207641 0.6594875671721625 2.549255072792565e-06 4.550453054234091e-10 9.391485493800114e-05 0.9832526280933269 0.01665345659668976 0.626588206676704 0.09073170142655536 0.2826799092315423 1.826651983646769e-07 3.162944848227315e-11 0.4199461019782097 3.494103539937243e-06 0.5800504038866208 0.974604500465856 0.000192732839024746 0.02519583609532576 6.930599793256662e-06 0.06054302781589389 1.858006255805496e-05 8.242053302774173e-08 0.9394383097010151 9.786982154294524e-14 8.51810069549768e-204 1.359979742107123e-07 0.9999998640019279 0.9312610964755288 0.01344375570392 4.914150200454719e-07 0.05529465640553113 0.002558385063456452 0.7384443990660996 0.2587714011796147 0.000225814690829145 0.01664476325244921 0.764457946457936 0.0005710884707083143 0.2183262018189066 0.008947656931308973 1.042622933384609e-05 0.0003609440819790957 0.9906809727573781 0.5696383716569664 1.705279237797839e-08 0.4303616112902413 4.827871601138282e-28 0.3254175383980749 2.032711228650235e-10 1.845413199686647e-13 0.6745824613984694 0.0009212808053526994 0.09118813793964628 0.1539275296167626 0.7539630516382383 0.2590195920449388 0.7409804079550611 1.902398449959502e-50 1.223953603694484e-21 8.470749499572365e-05 1.283888812396977e-05 2.3678473994994e-10 0.9999024533800956 0.0008617084688118187 0.0003288768416695157 0.998724841321307 8.457336821154429e-05 0.001918019370273373 2.695397130732438e-29 6.270373005473786e-79 0.9980819806297268 2.692648439902776e-09 0.9999892066638549 1.079062600017182e-05 1.749646078791287e-11 5.427123809480515e-16 0.09180643699738086 5.467753508772836e-08 0.9081935083250836 2.612911977703233e-06 3.80040135924819e-05 0.9998607988048093 9.858426962054608e-05 4.811712613717076e-08 0.7083197782346481 0.2908800842188477 0.0008000894293779203 0.6889671004631847 0.1545753479645043 3.311272312444457e-11 0.1564575515391984 6.013528742902746e-19 9.590666026753807e-13 0.999999999999041 3.762001939030757e-44 5.71339450073543e-09 5.698175672194018e-07 0.9999994244690383 1.537752234969091e-85 8.538473452177451e-07 0.000396293577527137 0.1358456846850807 0.8637571678900469 5.848575198458346e-12 0.9999503674931079 1.030031760778006e-14 4.963250103329437e-05 0.9801549270374187 2.491876394006938e-08 4.836091168938108e-05 0.01979668713212788 0.72125808784775 0.0001882253380247164 0.03455671634649457 0.2439969704677308 0.03712579097448542 0.9610145031999561 0.001859705825558531 1.903123448292756e-22 3.02355254622956e-235 0.009497256655712981 0.8519753015519597 0.1385274417923273 0.2873217230376326 3.850750330854174e-10 2.825636167989935e-11 0.712678276549036 0.9736919782042697 1.071261338410987e-10 0.01547889077450201 0.01082913091410208 0.04139087175430734 0.04215242212083636 2.528592143739917e-17 0.9164567061248562 0.4499073038245058 3.705771139740535e-05 0.5500137857490861 4.185271501094001e-05 0.01176405753024589 6.175526437676284e-05 0.259408858700598 0.7287653285047794 0.009152625774617016 0.1562198706486564 0.8346275035767264 6.283453515541057e-20 0.8075072467948605 8.901283631987047e-05 0.1712432912078062 0.02116044916101347 1.753490339741272e-19 0.9501470081542529 0.04325331549804991 0.00659967634769722 3.407069250500439e-22 0.03905758096519987 0.9609032875437575 3.913149104252252e-05 0.9986467937630742 0.001353206236921402 4.479837642791064e-15 0 0.442228414749389 0.01064373831017382 0.5122969143588205 0.03483093258161676 1 1.298235696308409e-25 2.062683916809535e-23 0 4.555004631539227e-11 6.991246646772097e-08 0.9954648645942519 0.004535065447731701 0.9736897736526062 3.156993712396029e-187 0.02631022592678897 4.206048920337669e-10 8.69057907419432e-83 0.3219818842522276 8.098180063349383e-10 0.6780181149379545 0.0003570130305382922 0.9879165327936591 3.638822653111923e-08 0.01172641778757608 0.3858234313041811 8.164956252119178e-10 1.196692850510335e-58 0.6141765678793233 0.9997027780660697 0.0002955688707754712 8.573147134603708e-08 1.567331683526168e-06 0.0001708391756850296 0.4039911648620426 0.595837995224302 7.379704175620186e-10 0.9999969139402104 5.083904835546086e-19 9.826872862951127e-11 3.085961520895018e-06 4.813349515778408e-07 0.9996256108927385 0.0003739076683293393 1.039807557190507e-10 8.042760123846954e-12 9.907355975188432e-05 0.004183018897648837 0.9957179075345566 2.068421361547624e-21 0.9983767394887251 0.001343954799435081 0.0002793057118399492 0.9419209233122915 0.05807113132786966 1.031138731620875e-20 7.945359838813736e-06 0.9718802294143306 1.667829221840715e-05 0.02002213918037491 0.008080953113076062 0.714860870783447 0.0006444993710113911 0.1746543266803945 0.1098403031651472 8.100161037973015e-07 0.00016712803932795 2.310300792882115e-08 0.9998320388415604 0.9751322931046896 0.01078269640569719 5.827521791666288e-06 0.01407918296782149 0.9322634677208395 3.850546111080801e-06 3.83447605713581e-18 0.06773268173304955 0.9709877417260095 0.02856869449624234 0.0004435621635680725 1.614179892248392e-09 0.9255269549449852 0.07265111611655971 0.00174715182538048 7.4777113074831e-05 0.8330349471353161 4.263551752005638e-06 0.001435389212681646 0.1655254001002502 0.993815602005977 6.713563416794322e-07 0.006169001567714825 1.472506996664021e-05 2.755418663482534e-08 1.001394677226409e-74 3.221622006489432e-08 0.9999999402295933 0.9872189145655603 0.00135727790177089 0.01142380753213513 5.336520534045426e-13 0.8807795412362611 1.064473933668406e-43 1.100541453872977e-06 0.1192193582222851 0.003589417397062524 0.4817668799569771 0.4320929110504683 0.08255079159549186 0.9995896036589109 1.028474008942844e-10 0.0004103960535352353 1.847065206710511e-10 0.05355384356847315 0.6934387984895271 0.252811839989831 0.0001955179521687497 7.710070509765948e-06 4.149172692596413e-12 6.651682738004089e-05 0.999925773097961 0.9914700587048811 0.000944379662083627 0.007585452439542174 1.091934931857304e-07 1.151217417622994e-14 2.135750202058428e-05 1.762013656966828e-53 0.999978642497968 0.2946177329805126 0.03261734626307651 0.672372541608574 0.0003923791478367587 0.1166451687597991 0.01666835135995097 2.995816659563275e-12 0.8666864798772542 0.08188116924329628 0.5419920376777668 1.534130684150101e-38 0.3761267930789369 1.459067072014319e-06 0.3753548778813575 0.2989829625882687 0.3256607004633018 0.07964682753312398 3.292667716108298e-28 0.7902115949323891 0.1301415775344868 0.03926390794795721 0.0592802083670551 0.8915195493324378 0.009936334352549881 0.0003826162477864402 0.9988941167657927 0.0007231390762205231 1.279102004994833e-07 0.01644602852342224 3.823498854763217e-09 0.0003755870358071896 0.9831783806172718 5.050000132811613e-13 6.310107218004818e-19 2.724828392582705e-10 0.999999999727012 0.9879723691132539 2.392318310986226e-20 8.716034159739733e-10 0.01202763001514274 0.03876551652474737 0.555146921359826 0.04747816264430046 0.3586093994711263 0.00561942068893575 0.9913236353336181 2.203851465825938e-06 0.003054740125980401 0.001164425493103526 0.001007054583674986 1.123705622990873e-24 0.9978285199232215 2.151019459162191e-14 0.0002322632131451014 0.9997677367868335 2.092605760774057e-77 7.763378621261392e-08 0.04412960377619542 0.9549703243859468 0.0008999942040716672 0.003181162936342833 8.904443405114324e-08 9.42453450653749e-08 0.996818653773878 0.9907046898098361 0.005481145273290017 2.957898077372741e-09 0.003814161958976019 2.841254128997453e-08 1.459736197976009e-05 0.9999853742235882 1.890665469727149e-12 0.5089052588648135 0.4858852351773924 1.016170422856929e-05 0.005199344253565349 2.471176429328238e-05 0.9998955688822802 6.036984142746151e-07 7.911565501225778e-05 0.001051677393334935 0.3769744195589169 1.57414803434952e-05 0.6219581615674047 0.002143564920598762 0.9976768296969817 7.818925314680078e-05 0.0001014161292725864 0.9727844969963352 0.02285278041461983 0.00436272257903675 1.000818562285372e-11 3.668720518871517e-35 1.914597019746008e-13 9.054139760536466e-07 0.9999990945858325 0.9999995495766588 4.458796045258033e-07 2.414437045900716e-98 4.543736659024826e-09 0.8252393451052533 0.0003235484368385918 1.284745600090684e-09 0.1744371051731625 2.418794067801112e-05 6.318986584702572e-24 0.9999758120593221 3.872019467109292e-18 0.01570101990020406 0.9842986397641228 4.468225187734738e-15 3.403356688350942e-07 0.0001972116734302503 0.9287823107447363 0.07102035342791395 1.241539195150662e-07 7.343065354292737e-243 0.6667372283074493 0.3332627709088448 7.837058731416652e-10 0.0001948178059188022 0.6449330674567595 1.301232131444892e-26 0.3548721147373217 0.9991287553023902 0.0006626128738768168 3.531773663676815e-19 0.0002086318237328449 0.09236230323890704 4.977731065052586e-13 1.351079090262035e-06 0.9076363456815049 2.531906976014473e-16 0.002636610248072943 2.676505779077226e-136 0.997363389751927 6.057678473909231e-06 0.0496958717162117 0.9494309276508901 0.0008671429544241233 0.001020258356810207 0.755045610414158 0.2439341312290318 4.288010419168435e-19 0.0007812740186842749 0.0006043104201096473 0.837602079575736 0.1610123359854702 0.2504827258252235 1.357961099800373e-24 0.6323580146228914 0.1171592595518851 3.532950094458595e-17 0.9650154460612415 0.0349845539387585 4.500568447783194e-19 0.9502788603884955 1.633928510039107e-05 0.04970480032640413 6.759385238838877e-22 2.841032154980065e-10 0.0001303194860130362 0.920333533669409 0.07953614656047479 0.01184904237419803 0.04491644321914751 0.9415410377468024 0.001693476659852099 1.064042524160822e-45 5.036102249921484e-40 0.9999931620582618 6.837941738251717e-06 2.751278135915773e-38 0.0007386516411460702 0.03157923983173908 0.9676821085271149 0.001240649881286396 1.25641163323899e-36 0.0002538478347152031 0.9985055022839984 6.749696521668663e-13 1.014559518222982e-05 0.9911738749878581 0.008815979416284737 2.274985216115935e-06 0.08011556551202566 0.9198821595015029 1.255304021558234e-12 7.041567817459548e-12 0.9999999217397411 7.825321734469643e-08 4.269744532278233e-19 0.007698593117891032 2.649246481379802e-22 0.9847544457007311 0.007546961181377923 9.469078947191845e-22 1.330467722217828e-32 1.02027165982923e-10 0.9999999998979728 0.9999207208876755 1.026823728866786e-05 2.033494618602074e-57 6.901087503594624e-05 0.7271741781299976 0.007123733202120704 0.2657020885338189 1.340626845332756e-10 0.007286875419108944 0.9848150041661892 0.007898120414701677 3.201478319708043e-16 3.688093299274668e-22 2.636192346213965e-05 0.9999736380765379 1.068244538318056e-76 0.991396802920417 1.934428415217309e-09 0.008603195145154556 6.78248359495723e-25 3.926780043394218e-40 0.9999999976272682 2.372731855486539e-09 0 0.0001518356795521097 0.02282072267822585 4.937299769671999e-28 0.9770274416422221 1.13957395122978e-131 2.260912799846044e-05 8.917998483581003e-12 0.9999773908630835 0.7730295801466833 1.444771664036142e-06 0.1040244904866375 0.1229444845950152 3.242831989423721e-05 0.160452645617154 0.8372853748867345 0.002229551176217137 0.05534128215884198 0.3697544132057401 0.5748001508329412 0.0001041538024768306 0.09719414281673475 0.8913238408233702 0.01148201635983927 5.568192750280845e-14 0.9097485537762976 0.08929299882119696 0.0008195876768568652 0.000138859725648695 0.1184240181594199 0.8260250352403502 0.05535262742515958 0.0001983191750704744 0.9999976196885846 4.146573459338796e-09 2.35531080408486e-06 2.085403786619961e-08 5.962206828632737e-18 3.059364143319598e-11 4.123437612311436e-17 0.9999999999694064 4.07766480665853e-22 0.9999999996370916 7.445771929331074e-52 3.629083534543885e-10 1.551720943277751e-06 0.9962364479908236 0.003761379486553915 6.208016792165869e-07 4.293286454782968e-24 0.9208112158072387 0.07918761315281776 1.171039943686127e-06 4.081128141021831e-24 0.6688410786394978 0.3311589213605023 1.01069881777071e-43 0.02500404620343238 0.2060214522175001 0.7689388638117877 3.563776727974113e-05 0.4718836110811693 1.164223548854921e-05 0.5281047466833422 0 4.334097555053529e-06 0.9999956658341745 3.451199542560227e-209 6.827033468843591e-11 0.1370171471482086 0.11401449862123 0.0005766176717179818 0.7483917365588434 0.9999999969660518 3.033394240265855e-09 5.156250783043641e-13 3.837308959159227e-14 0.9290826455557392 0.07021480638758701 1.090620974995769e-13 0.0007025480565646597 7.129956321372966e-05 0.4685504516889241 0.001699927061847089 0.5296783216860149 2.545429617206437e-24 0.9421147749468353 2.405054153437596e-05 0.05786117451163039 0.9990451079731204 2.484349965500294e-05 0.000885854274055989 4.419425316871879e-05 5.502959682171665e-06 0.9884614544542781 1.405027910133633e-08 0.01153302853576077 8.952642431797584e-10 0.3254438584532848 0.004025367422315886 0.670530773229135 0.9748894372977964 1.27226086216655e-05 0.02344692862690108 0.001650911466680866 0.8926227572172996 4.60336067816448e-14 5.100527959082313e-62 0.1073772427826544 9.081623972154131e-47 0.9999436503672267 2.401929780211318e-71 5.634963277335694e-05 0.7632044382924249 0.09998572678787698 0.1368094018807904 4.33038907777872e-07 5.158865107603781e-166 0.0008472286418432781 0.9898423243201991 0.009310447037957593 0.9999998907821271 3.548224784269752e-35 1.089514607928771e-07 2.664121423849583e-10 0.7058800527755605 0.2884559215699057 0.005664025654531333 2.423358884239906e-15 0.04954771902635911 8.075198313630806e-13 0.9504522808315834 1.412499945695869e-10 6.39874684959654e-07 0.9998067195086209 0.0001926406160630082 6.312729912770929e-13 3.061486349474097e-06 0.0530401795297243 0.9469567061786736 5.280525261912384e-08 0.9989407290681953 1.861986607764457e-22 4.998553524753508e-09 0.001059265933251186 3.574048687996091e-40 0.8605995012920419 1.355484309188509e-10 0.1394004985724097 0.0002343018319185166 0.9993786204300799 0.0001249983341045728 0.0002620794038971504 0.9040480083622457 8.258367074039455e-05 0.09038937486006686 0.005480033106946963 0.9991485021603371 0.0001624862622842434 6.366200593533583e-06 0.0006826453767850969 0.9999989095589714 4.889217253603159e-30 1.090441028527049e-06 2.463812267576235e-32 5.71203887440461e-06 1.171635783541527e-08 0.9990645247376739 0.0009297515070939044 1.500211829303633e-10 8.283219912379837e-34 0.9999999998499788 1.220906996110278e-60 0.6334912840784108 0.2364700248191856 0.1220654154975293 0.007973275604874342 8.938078384831879e-12 0.7356803347747367 0.03617138537957828 0.2281482798367469 0.03480164838176977 0.8078054696187933 0.1570556355764019 0.0003372464230351261 0.001305579287962893 0.9332060574316038 5.303998008656244e-05 0.06543532330034649 3.848337919763627e-06 0.9916695038275443 3.330635905129406e-05 0.008293341475484849 0.9941194139338081 0.001930691883348717 6.304214268096844e-05 0.003886852040162137 0.01108656222091162 0.9809545420561805 0.0004481433908886157 0.007510752332019224 0.00605436624686945 7.430807105353379e-05 0.04866788422646331 0.9452034414556137 0.999999395546064 4.194498006644765e-25 6.044539358808498e-07 2.698221080573328e-30 0.007934187856502354 2.982347466840751e-05 0.02363608077715139 0.9683999078916778 0.04185707992997693 0.9581403132125967 2.606857101196294e-06 3.252860390329542e-13 4.019536779364668e-05 1.368016484122617e-74 0.9788225846464811 0.02113721998572523 0.002024514839952548 0.9977063837403177 8.543558953311781e-10 0.0002691005653737899 3.192263545260532e-05 0.9984429425568327 0.001524809567649314 3.252400651894734e-07 0.999490593973081 1.817060527142647e-05 0.0004912298935973375 5.528050215847959e-09 0.9998766111810409 2.414151136358386e-12 0.0001233888149561643 1.588684433716402e-12 1.121311385343396e-37 1.280690395860305e-16 0.9999999807788293 1.922117043887589e-08 3.806883704733746e-09 5.626621528464002e-23 0.9999999960030466 1.90069780949682e-10 0.6900168936055812 7.576513056923366e-07 0.3085503592000735 0.001431989543039663 0.6232015333656965 0.3232283924198535 0.05344328082170331 0.0001267933927466873 4.748929462504761e-09 8.488706111477588e-08 0.9924956842107595 0.007504226153250034 2.584401458861351e-36 0.9876343635080124 2.385320613417698e-08 0.01236561263878159 0.9995748556690769 5.610889101801735e-12 3.522112712452454e-49 0.0004251443253124647 1.17650872277751e-10 0.8386411098912429 2.061264555535402e-13 0.1613588899909002 0.00329423526486201 0.0006444046691719747 0.9960613600640751 1.890796214097041e-12 0.0003927119039810176 7.668700192010449e-07 0.9996065212259998 2.217959144794297e-28 0.9999981254785799 3.184351358155475e-47 5.215926274865621e-13 1.874520898587223e-06 3.494720265233774e-36 0.9999999758027971 2.403605814601585e-08 1.611447667509848e-10 0.04287503875733921 0.0001208522881708895 0.9469102891968285 0.0100938197576615 0.999952006521287 4.7993478713098e-05 7.659051275230313e-26 6.939414805315515e-43 0.994321418261682 5.329516010647907e-05 2.611965502283019e-05 0.005599166923188712 0.9999983637060698 1.07264346336876e-09 3.763501599495389e-16 1.635221286493904e-06 0.4873678792620215 0.5126321207379654 7.719461000791805e-23 1.323500143904623e-14 4.522372839518018e-07 0.9431951276526785 0.0001624956971558295 0.05664192441288163 0.9961274182294491 2.114971044344417e-81 0.0007468664808581458 0.003125715289692795 0.9519209004079083 0.04796013756891009 5.90560423547416e-32 0.0001189620231815715 2.795873981969793e-24 0.5265878884332919 3.387859797319032e-05 0.4733782329687349 0.157348923440519 0.6256733216902892 0.2168984956741796 7.925919501215506e-05 1.442369165521974e-08 4.374935548910186e-284 9.065294835195033e-05 0.9999093326279564 0.04134527318679977 1.147289521022108e-42 0.2045228013425422 0.754131925470658 0.0001736163360469643 0.0008589307488415806 0.9983296075487601 0.0006378453663512245 3.222899822988733e-07 5.985415706074741e-12 0.0005508823061393183 0.9994487953978931 0.01666237660532669 4.043199514198924e-35 0.9833375771524385 4.624223477591708e-08 0.0008727927557853059 0.2368167600831219 0.7623104469858093 1.752834231739093e-10 3.084719106727399e-05 0.3234630230421382 0.0003027049272012368 0.6762034248395933 1.075364794097919e-172 0.9977533664559308 0.002241977192429604 4.656351639651575e-06 0.7875955483483557 0.1463215221628076 0.06075474001742873 0.005328189471408092 2.603927970967481e-08 0.0001716245570453674 0.8332855048844608 0.1665428445192141 0.003804885902778417 1.973127886519935e-11 0.9961951140774903 3.427795887293286e-17 0.2801826860204232 1.961225286207054e-12 0.1474524353629258 0.5723648786146899 0.7546160628012694 6.504671580242034e-46 0.03904964828259967 0.2063342889161309 0.614782815031351 1.292224350571162e-06 0.002335478448445483 0.3828804142958529 0.6291563375998835 7.590727224981635e-08 0.01171013957399736 0.3591334469188468 0.9621162967625424 1.214389117878359e-07 0.03788358179854585 2.158961390736857e-21 2.811284823577823e-20 0.07417851217899414 0.9258214683149701 1.950603577503485e-08 0.8347309917592287 2.419274787853206e-11 0.1652690082165784 5.429936546271789e-38 0.6656113793712192 0.3343862345993379 2.256207345207072e-06 1.298220976685268e-07 8.480279429693249e-05 5.781257520525655e-12 9.106805391109827e-10 0.9999151962892414 2.225315119448257e-06 0.8232378812426097 0.1765894649825687 0.0001704284597020375 2.759877068172318e-19 0.985969937395392 0.01403005060280959 1.200179851750243e-08 0.0001201680197030898 0.9638166179990805 1.308760564838486e-15 0.03606321398121502 0.0447717466596674 0.7543871413458938 0.2005697022743723 0.0002714097200667679 1.046599372136344e-06 0.004348086114033752 5.369816937444138e-07 0.9956503303049004 4.050917457019588e-269 0.3238964065175443 0.6761035934824556 2.665094276907473e-45 5.910115991659632e-10 0.8490127258021571 0.1509872647038011 8.90303017774205e-09 1.10193793373433e-13 0 0.0006011830722976341 0.9993988169275921 0.001135508671951469 1.571691344550425e-06 0.0004423077169196103 0.9984206119197845 0.01006389015297649 7.5545422023963e-43 0.9543532987179756 0.0355828111290479 0.3411821469736003 0.1649325175038838 3.780344439146852e-11 0.4938853354847125 0.1258763594474545 4.908456545384295e-20 0.1665093739778419 0.7076142665747036 0.0002323198172629975 0.5604658111202934 0.3344071922558592 0.1048946768065846 0.005544827024873742 0.9839994461085212 5.599400696530863e-05 0.01039973285963989 0.1937939311845703 0.5350077006519034 8.884587586296457e-26 0.2711983681635263 0.9035992402583792 0.00531672295802431 0.007359228263852441 0.083724808519744 0.0008743055161819907 5.525544065670087e-05 3.947792597165705e-08 0.9990703995652352 0.0008395542935212251 0.001198801047062379 0.001960428361233558 0.9960012162981827 2.69015229102574e-05 0.001297959151352913 0.9034173260853522 0.09525781324038458 3.781406225650461e-11 1.460075172365005e-05 2.225720954388184e-05 0.9999631420009183 0.9507246391208752 0.01794071947890299 0.03133461646615038 2.493407133892177e-08 0.9807377963932302 3.454004239186175e-53 0.01926220360676979 9.1853895977967e-61 0.3899941892840449 0.0001210128243907352 0.001982555913316981 0.6079022419782472 3.012816359492278e-10 0.2133414910264242 0.7866584635767332 4.509556101001953e-08 0.03803720527000892 2.199939666795971e-30 0.9618298303962055 0.000132964333785646 3.025190962790984e-47 0.02002660301434607 0.9797961282583508 0.0001772687273030672 6.129495347489626e-26 0.7153301568830899 0.02202363624739781 0.2626462068695124 8.056195903671489e-15 0.0004492425541635942 0.03003204686133165 0.9695187105844968 6.635588958924351e-41 2.383073157589646e-22 1.345859838865133e-17 1 1.949936041560804e-37 0.6282330745968014 0.3285756983761133 0.04319122702708521 0.0005849138804682846 0.0003580995518660986 0.02505676265463593 0.9740002239130298 0.4475503112613269 0.5394507868798344 0.0005594982232076016 0.01243940363563118 0.8889562439672679 0.1110437522869569 2.053266324463767e-33 3.745775341081998e-09 0.001024744296895677 0.8144732748322451 1.16825222041408e-06 0.1845008126186389 4.734881132900464e-12 9.614988690808503e-10 3.358861719990354e-05 0.9999664104165663 0.09960000457920321 0.0001731293441969646 7.255557450652475e-94 0.9002268660765999 1.126518452956502e-09 8.423128217066381e-15 0.9907224555063028 0.009277543367170111 1.893187698336949e-14 3.764603400239932e-16 0.03065792589314653 0.969342074106834 2.519933237907369e-26 3.765083364983368e-07 0.0002310400915600394 0.9997685834001034 0.1964771163512017 0.0001859290242374648 0.1353538264791179 0.6679831281454428 0.002047966696626772 0.8510858112546339 0.0004129608042378335 0.1464532612445016 1.311660711482075e-08 2.793277526623338e-30 0.9999999868833688 2.400146916154557e-14 0.1066114404278869 0.3302244090069291 0.5631641505647779 4.06006934169976e-13 0.00916414080540022 0.9908259470099148 2.301694043948908e-08 9.889167744668792e-06 0.0003292459272867339 0.9893154780124941 0.01035527371047861 2.349740684131272e-09 0.0605991197248346 0.9393926601435735 8.941601857468061e-18 8.220131591951887e-06 1.606239455583044e-134 0.0001764148024279812 0.9998205018636246 3.083333947511748e-06 0.003992719839944692 0.9960002278982563 1.038336196832152e-07 6.948428179398364e-06 0.005277826812979641 0.9911417223325619 5.147924183539501e-06 0.003575302930275004 0.9999086999943119 2.416968634400669e-06 8.887676323838899e-05 6.273815268577191e-09 0.7693921262619537 0.2293016389596566 0.001297361112079431 8.873666310215407e-06 0 8.195192362218839e-06 0.01188891624851019 0.9881028885591275 0.0001596730992014844 0.7693687052889208 6.57011854739899e-14 0.2304716216118122 1.621320567887589e-05 0.01310175243750753 0.2199022117183386 0.766979822638475 2.948152884788831e-32 6.431703771974904e-06 1.226019092504153e-11 0.9999935682839678 0.08524083850168981 7.839976278938426e-05 0.2530219819800764 0.6616587797554444 1.201489971103389e-11 0.03855878131598636 0.8438167162033524 0.1176245024686464 0.001240046504853501 0.9016864767952063 1.025575618607893e-07 0.09707337414237838 0.4849017209310071 1.809496082563354e-15 0.5008000926699619 0.01429818639902916 0.3273226011281795 0.1225650101109364 0.5501123864030395 2.357844468962786e-09 0.01877666389732799 0.9543366269855686 0.009784440126018434 0.0171022689910849 1.759668391870363e-13 0.0743533420614268 0.9217570774053141 0.003889580533083107 9.096324449834442e-12 0.9997443920028806 5.841344926461619e-12 0.0002556079821817406 0.005600911164190361 0.9820152189153877 0.0006650731356245397 0.01171879678479749 2.99923375105449e-91 2.330903321503617e-07 3.064952781279326e-06 0.9999967019568866 1.096380133036653e-14 2.162794928447459e-05 0.9678949717839981 0.03208340026670656 4.200494535614451e-15 0.0001147690973508485 0.8916224835945944 0.1082627473080506 0.05227657343858854 0.0002251081395178294 0.9449540435924946 0.002544274829398915 0.0006645228377981494 2.404205139391862e-45 0.01134058105257957 0.9879948961096223 0.9999898556452966 7.398014327487924e-07 9.295562264949511e-06 1.089910058944789e-07 0.8391127856498218 0.1198523128056971 0.04067373059377379 0.0003611709507074101 0.4751405615362312 1.707041800155211e-08 0.02990293846981315 0.4949564829235376 0.9971064839514256 3.486768579572069e-07 5.740864635278345e-09 0.002893161630851829 4.764355447090473e-07 8.212197942024602e-21 1.901435888273218e-05 0.9999805092055726 0.2133669513615222 1.835013710181327e-05 0.0005489762990066658 0.7860657222023694 3.44711536827454e-06 0.1277490209050779 0.1667451880806147 0.7055023438989392 0.6130678149480644 0.3865575001210245 0.0001871543161415861 0.0001875306147696711 0.9774559569711631 0.0222715627180885 0.000272480310748427 1.119380836231497e-129 0.8373295495866596 0.154357820059178 1.483013756234259e-20 0.008312630354162472 0.003887776981426266 0.1869706746812355 6.037995630383266e-09 0.8091415422993425 0.1308113154386634 0.08920351822661331 1.584483223812871e-64 0.7799851663347233 3.896922918194374e-06 0.9999956985412622 0 4.045358197392308e-07 0.2298227271595657 0.4278808082374605 0.00863953323926203 0.3336569313637118 2.259401007561177e-05 0.3825423775305841 0.5147410814401179 0.1026939470192226 0.9999155277882168 8.4472211783182e-05 3.922511913153105e-18 1.007660819947787e-79 0.004200741899103315 0.8639264637888331 0.1318727943120636 0 0.9999721783552713 2.412760253475982e-05 6.824079490345901e-09 3.68721811443131e-06 0.9829715235466864 5.827420445815034e-12 0.01702223154597899 6.244901507056139e-06 0.3120794397582198 0.6406407965818421 1.412881608480834e-06 0.04727835077832956 0.9705682121368209 0.02943174379956227 4.390132873972979e-08 1.622881260509186e-10 0.9999971873182261 6.326588729179973e-91 3.8474928391458e-59 2.812681773800723e-06 7.537455347272833e-28 0.2289402821013588 0.7710596962579004 2.164074091837322e-08 1.742721913212147e-44 4.71078501076521e-08 0.9996510583029676 0.000348894589182345 6.29628380385443e-16 0.9943352147059318 3.68089004797466e-09 0.005664781613177589 0.9149631336851881 0.08476641918721677 0.000270447127542111 5.300385628369366e-14 2.959453218589067e-321 4.682297069270923e-07 0.003111076363420649 0.9968884554068725 1.081380089308497e-06 0.3080379181291342 0.0603559884967599 0.6316050119940165 0.9986174354720182 0.001097114075684768 2.609735810805194e-07 0.0002851894787158896 3.247766567968399e-15 1.089832697315451e-05 0.3546718636824441 0.6453172379905795 0.09012783685594294 7.551186150308202e-08 0.909700177087212 0.0001719105449835635 0.0009958650345466623 0.9957892076500691 0.00321492731538433 1.381863262604801e-37 0.4262972433393948 0.003747444147138713 0.5699553125134421 2.452466670765472e-14 0.0001742722661603802 0.0001190804996787128 2.493179514357106e-11 0.9997066472092291 1.178121334860052e-14 2.138304033524396e-05 1.770486867218779e-09 0.9999786151891662 1.404575486319976e-07 0.9416888950253739 0.00403073903203457 0.05428022548504265 0.001770213333757551 0.0001359669284838269 4.682256723695168e-23 0.9980938197377586 0.9999390527943641 2.600943552300986e-11 5.054543421321494e-17 6.094717962646946e-05 2.40073385388909e-19 0.9985515907860238 4.661355403457367e-65 0.001448409213976248 9.124802183089197e-40 3.499160174294278e-16 4.783905645032661e-23 0.9999999999999996 0.0002917620872516598 1.751577600876693e-09 0.9943915870939052 0.005316649067265642 0.9770484277620797 5.621495490142814e-39 2.845494657512378e-107 0.02295157223792035 0.04730646823225353 9.115006062734045e-16 0.9526934828437464 4.892399928692185e-08 0.2341320209970408 0.02071129785667509 0.7451565913056725 8.98406116821093e-08 0.03768525211023774 1.028565813528914e-39 7.488413000170945e-07 0.9623139990484623 2.879670832714727e-16 3.289413253610827e-05 0.0001027652476627838 0.9998643406198009 0.9925387990686527 8.499080950444007e-05 0.007376210121841944 9.383064064434406e-16 0.0004756824474993337 0.05173295748789138 0.001466139156142302 0.946325220908467 1.452692223991561e-10 0.9987166893792028 0.00128331047418088 1.347277776022672e-12 0.02539269125482553 0.01491562737229035 0.06203758659417577 0.8976540947787085 0.0009421540457755101 0.01046931948400424 0.9885814021835253 7.124286694910615e-06 0.3988197424414908 3.466418462424296e-06 0.6011767911289067 1.114024232616937e-11 0.9996446636999947 0.0003048606764465076 1.657940761619891e-13 5.047562339309146e-05 3.906316074994516e-25 1.409698763118545e-09 1.911851576741096e-15 0.9999999985902992 0.1515091842107577 0.8256870807314665 0.0174463098357009 0.005357425222074972 0.7063065544513254 2.084985796742946e-07 0.2936916260813973 1.610968697522949e-06 0.3603681674899233 5.837222761223433e-53 0.6396318303524491 2.15762777686778e-09 0.3828952798967337 0.6170917856847301 1.293441853613605e-05 1.966462403940281e-79 2.168609482898683e-119 0.01739073886902428 0.253847946533062 0.7287613145979137 0.0169081864916169 0.000930438659598064 0.8876927755162237 0.09446859933256138 0.3110721859051744 1.560080947828309e-15 0.4387404121878823 0.2501874019069418 0.0350516981507864 5.180197885831617e-10 0.9649167349255553 3.156640563848929e-05 0.001520332570602849 0.9897411212429574 0.001284358218353368 0.00745418796808639 0.8908735385071853 0.1024080889317078 1.31644794826967e-10 0.006718372429461918 0.991990536209435 4.790328395853881e-07 0.008008984757725403 1.297211026789285e-28 0.4328753136197214 0.009121654894497899 1.667292921325153e-12 0.5580030314841136 2.365944418666567e-05 0.7554151739340167 0.17384654695648 0.07071461966531666 0.07376996170125265 1.716993474117878e-09 0.9261146621046485 0.0001153744771053136 1.303589676043108e-37 1.97426158970027e-25 0.9999996484291881 3.515708118656968e-07 2.774759470579583e-20 0.0001850153872035363 0.9998139054506806 1.079162115919401e-06 0.9779202944288967 0.02192803129490761 0.0001516742761958796 1.077558330703855e-66 4.59112603902212e-106 1.592750487124766e-06 0.0003630567965992528 0.9996353504529136 3.241624671279181e-05 0.0003067548774874673 0.9996603766955037 4.521802962817274e-07 0.004562256848832669 0.9940281583884129 8.452125663344661e-06 0.001401132637091132 0.0005822858138000038 0.2847780272050346 0.6869994602482582 0.02764022673290714 0.07656674105398427 0.9234332589460158 5.704558998044795e-20 0 0.5330724034945005 0.001993310289271746 0.0562578336456785 0.4086764525705493 0.9991025138842742 6.770688170226702e-26 5.132669467092727e-12 0.0008974861105931683 0.999999307509972 6.924900246544244e-07 2.620585898078949e-16 3.264341326552487e-15 0.2575365872965799 0.4357577384390263 0.3067056742643886 5.336673156809012e-15 0.6950221342414895 0.03879334200735688 1.637365306873076e-07 0.266184360014623 0.2986014623189883 0.0001131291987242024 0.7012854084822875 5.18268664641606e-20 0.251763686293463 6.789797024378991e-52 0.0008628323282897812 0.7473734813782472 0.002182289891368385 0.6858989897037198 0.3119187204049119 1.064756785594461e-127 0.9677381630925196 0.003845230210019658 0.02091212473230893 0.007504481965151731 0.9706380610523179 0.02934594700230054 1.841167010320917e-54 1.599194538143906e-05 0.6083311818153952 0.1300559852404516 0.2578864726900524 0.003726360254100748 4.28359722808588e-12 8.058518973180282e-10 0.676917028559656 0.3230829706302085 3.436330423799914e-06 5.058799493299652e-20 6.209448000389501e-16 0.9999965636695756 0.02537083062963379 0.161476933257 0.8131522361133662 1.115734212070153e-26 0.9993946502752953 1.180607082087651e-07 0.0006052316639950593 1.521999604673706e-15 4.820360702383298e-06 0.0001115924477815519 2.173577314521619e-13 0.9998835871912987 0.9999999999998779 5.589993138433115e-79 1.4938632710934e-71 1.220652865467743e-13 0.9959205917561196 5.474551667889976e-12 0.004079408238405891 3.554983733767461e-24 0.4700793609363855 0.03687009439931025 0.06754962375515307 0.4255009209091511 0.1580974615820267 0.01272074443569457 2.016276327472954e-13 0.8291817939820769 2.651935747221906e-12 0.999999999997348 5.580570215727208e-59 6.731401717811198e-21 1.320916164721776e-08 0.2306535102670134 0.769346476523825 2.028151186317975e-21 0.9898438490199826 0.00267876324293369 0.007477387735893012 1.190705571241108e-12 7.588113010149342e-05 0.001108703850647606 2.2162906942682e-05 0.9987932521123083 2.544757780795029e-11 0.2914812237182561 0.0006359511662100411 0.7078828250900864 0.9976570355357806 1.518285144997212e-31 0.0008928692823554498 0.001450095181863926 0.8992539197043268 0.100746080120921 4.589771838923017e-18 1.747521490205889e-10 1.573228910325191e-06 1.328933269110836e-19 0.9922888882338963 0.007709538537193503 0.9998661717636838 8.736444296810393e-14 0.00013336333292711 4.649033018291417e-07 0.6838477234503686 0.3142683758902268 1.075610717188976e-17 0.001883900659404503 3.974096758226352e-53 3.150578136350534e-32 0.9891315027501388 0.01086849724986115 0.7120595132196654 0.2531080000504056 1.039985270537416e-11 0.03483248671952886 0.005649004079388303 1.612297726410378e-114 0.993939612009442 0.0004113839111695247 0.09431690999896349 1.941282786311961e-07 0.01522218041322916 0.8904607154595287 0.2773284236793563 0.718332690044674 0.004338886148282766 1.276868753445679e-10 0.0001115312866013368 0.05807024047426427 6.976932756402432e-07 0.9418175305458587 1.04728381870768e-06 0.1912679852904023 0.0001633528168373635 0.8085676146089416 0.03516539338658672 0.0003630737442408873 0.8087714541693235 0.1557000786998489 0.04123279659762888 0.6888276354760317 1.912383552238311e-307 0.2699395679263396 0.01100859361920422 0.008791558190880733 3.71716836563876e-06 0.9801961310215495 0.006278044590273564 8.806863273471517e-08 2.836950597116981e-10 0.9937218670573986 0.0001731914174940239 6.410432943384324e-14 0.9998268084492028 1.332391381634873e-10 8.747494986391414e-109 1.441553314292448e-08 0.984552006483105 0.01544797910136192 0.6080830751254005 1.117322182468738e-07 0.3919168131417193 6.619772903061045e-13 7.37258205863421e-07 0.9971113582637953 0.0005165789461070451 0.002371325531891762 9.837558900391319e-06 0.9995201018824886 1.001423337933051e-11 0.0004700605485967008 3.46108041860418e-05 0.0001139293862058982 0.2169966123807668 0.7828548474288413 1.048750369113605e-25 0.5936745537296749 0.3893650471082445 0.0169603991620807 0.001012322928869073 1.278831768373882e-14 0.9989876770711178 2.407450785057157e-16 0.007947924147195749 0.02757946907267633 6.017237948399186e-10 0.9644726061784041 0.0421068750591363 2.207218172600759e-09 0.05439442748031031 0.9034986952533353 0.9999536123311259 1.488184665016772e-05 3.149238291738123e-05 1.343930651460907e-08 1.174084691847219e-91 1.469169617994161e-284 0.854941813786288 0.1450581862137121 0.01532518145229284 2.288355410210414e-30 4.377051182426877e-45 0.9846748185477071 2.942272771895697e-05 3.795622498078559e-36 0.9983863307488312 0.001584246523449895 0.3605298040962747 0.1252960594185608 0.000118429029307848 0.5140557074558566 0.9999999421217628 2.052448092855649e-15 5.080151156027688e-32 5.78782350469178e-08 0.0001760258615347422 0.8196842933331082 0.01650794970525235 0.1636317311001046 0.0001129377321550125 0.01740155983184566 0.9824855024359993 2.663363698793082e-18 0.03112726782880531 6.457981615237959e-06 0.9688431267842921 2.314740528736268e-05 0.9326103380638812 0.06711754406027295 1.609348609801681e-06 0.0002705085272361143 8.766193902352765e-51 0.0005931568423828012 0.2968783179939165 0.7025285251637008 1.015240148885986e-49 2.518167651401572e-16 2.104797245361981e-10 0.99999999978952 0.9470366083453388 0.04106408026723435 0.01189931128339459 1.040322330815331e-10 0.7323625729579488 0.266168317146795 0.001469109895256231 1.631336738313029e-144 9.08004062382625e-09 1.25553245194469e-09 0.0001075281775602336 0.9998924614868666 1.320991586003158e-06 9.166646982291046e-20 0.8804217492253209 0.1195769297830931 0.04055410417716354 5.161180307807931e-09 0.7961791291620987 0.1632667614995576 0.9984093504256799 0.001590645125796281 4.439915597070906e-09 8.608360300567402e-12 0.001003029062660503 6.810096312353759e-05 0.9989288699742156 3.434409135356857e-16 0.01360877884757865 0.08027534773441097 0.2486908458232275 0.6574250275947829 1.127117871576407e-06 0.3982981012051707 0.009991721691298821 0.591709049985659 2.988701103229603e-12 0.3634152083969991 2.190626833292372e-05 0.6365628853316792 0.9920790320211205 9.572665702978669e-25 0.007920967008938736 9.699407366722061e-10 0.4653041341109012 0.5118598755426269 0.01582769451845857 0.007008295828013277 0.1284955629630105 3.991938281246608e-12 4.186670761236472e-14 0.8715044370329558 0.002320667164191386 0.9976731328891058 6.199946702872168e-06 1.145823875172082e-220 0.009058285349108528 0.792695773080724 0.1982405402679288 5.401302238570917e-06 7.331373447440802e-05 1.111599905298323e-06 0.01650234936662427 0.983423225298996 0.0002607986981749214 0.2359449454332798 0.7623324836439556 0.001461772224589636 2.360765096853928e-63 0.1898614780060323 1.054583184406508e-05 0.8101279761621236 8.381355369822574e-15 0.03232717447112 0.0005206752007299185 0.9671521503281417 6.341043217042243e-05 4.169576938117544e-07 0.000353009547781153 0.9995831630623546 0.1966822680788612 0.0006533666033488588 0.8026641745095534 1.908082366138538e-07 0.8194296200787434 0.1787382013309259 9.645228883628053e-05 0.001735726301494337 0.0245378958567988 0.5996197066638812 0.0007030469224338565 0.3751393505568862 3.679079820599084e-11 4.378350963115027e-06 0.999995620750225 8.620211614467252e-10 0.01441605911346572 0.9855839364585928 6.39840836443925e-15 4.427934998655045e-09 4.99189123086212e-16 0.6230058730724359 0.2008113776821489 0.1761827492454149 0.006111142347838783 0.993072022010846 0.0008138046652753758 3.030976039929214e-06 0.06336899105765369 0.9365565149879698 7.022065085630702e-05 4.273303520175834e-06 3.67664621997937e-57 1.289062518305535e-10 0.5760758059680133 0.4239241939030805 1.047929399458854e-10 4.699387167773049e-06 3.525069386584497e-17 0.9999953005080392 1.543696158017239e-106 0.9999954391513604 4.560759361191325e-06 8.927828195562379e-11 0.9993809226062923 0.0006190773897027641 2.952295334625029e-17 4.004816960424503e-12 0.0001577226000375755 0.7390466862743967 1.888631061207388e-23 0.2607955911255657 0.01892182102557265 1.47229834434959e-07 0.01051003375602342 0.9705679979885696 1.315334058136159e-10 0.9952269047181069 0.004608702745150438 0.0001643924052090281 0.4704970490011434 7.267513812423151e-05 0.4945654921315959 0.03486478372913653 1.57113561243409e-06 0.918603628574911 0.08139480028843309 1.043444007750423e-12 2.364322001515059e-05 0.02543342723000318 0.8399990905607132 0.1345438389892685 0.02576360075231984 0.9648409053656628 0.009395487957684422 5.924332878254447e-09 0.8906667040921489 1.508691829142375e-13 0.1093332959077003 2.020653373872171e-62 0.5304637135594572 0.05932133516012868 0.0007730289237591275 0.4094419223566549 0.006637759188283634 0.01716867157597935 0.9761799450273431 1.362420839391696e-05 0.9984090524231545 0.0002449831780206288 0 0.001345964398824799 0.9406380574537918 1.21133615548479e-05 0.05934982918465345 1.477762052063224e-23 4.813145050018097e-06 2.024558090396177e-27 0.2838716344686353 0.7161235523863146 2.430193396518149e-27 0.01720116943943081 0.9825212101663536 0.0002776203942155435 0.8894732649606366 0.05362368433632927 0.05480661606855963 0.002096434634474441 0.8119997355002128 0.1859941644039515 0.002006100095835594 4.055540514577828e-57 0.0582356465802391 0.0002111189109524467 0.05424258505903584 0.8873106494497726 1.536242442424255e-17 0.01451050863075806 0.8650375975543599 0.1204518938148821 0.03347560781915516 1.030219044017016e-18 0.9665145778459053 9.814334939422895e-06 0.004318615437636628 4.889492757965865e-07 5.505044748560165e-06 0.9956753905683389 0.9999999999406112 2.810256592173801e-21 6.801069598055727e-295 5.938877739998277e-11 0.8366752355190094 0.02681303293481867 6.555073186296188e-05 0.136446180814309 0.02837547090464598 0.07493513244839484 0.04113033886774408 0.8555590577792151 1.29616199475489e-09 9.923261349335867e-52 5.129474250340898e-36 0.9999999987038379 4.926946590588054e-11 4.073155068333631e-32 0.1779695577972671 0.8220304421534634 4.575117857235408e-15 3.510246188741711e-15 0.7822113215759562 0.2177886784240357 