<?xml version="1.0" encoding="UTF-8"?>
<!-- This file was created by ACADEMIC version of SMILE -->
<smile version="1.0" id="Unnamed" numsamples="10000" discsamples="10000">
	<nodes>
		<cpt id="U1">
			<state id="State0" />
			<state id="State1" />
			<state id="State2" />
			<state id="State3" />
			<state id="State4" />
			<state id="State5" />
			<probabilities>0.1 0.1 0.1 0.1 0.1 0.1</probabilities>
		</cpt>
		<cpt id="U2">
			<state id="State0" />
			<state id="State1" />
			<state id="State2" />
			<state id="State3" />
			<state id="State4" />
			<state id="State5" />
			<probabilities>0.1 0.1 0.1 0.1 0.1 0.1</probabilities>
		</cpt>
		<cpt id="U3">
			<state id="State0" />
			<state id="State1" />
			<state id="State2" />
			<state id="State3" />
			<state id="State4" />
			<state id="State5" />
			<probabilities>0.1 0.1 0.1 0.1 0.1 0.1</probabilities>
		</cpt>
		<cpt id="U4">
			<state id="State0" />
			<state id="State1" />
			<state id="State2" />
			<state id="State3" />
			<state id="State4" />
			<state id="State5" />
			<probabilities>0.1 0.1 0.1 0.1 0.1 0.1</probabilities>
		</cpt>
		<cpt id="V0">
			<state id="State0" />
			<state id="State1" />
			<state id="State2" />
			<state id="State3" />
			<parents>U1 U2 U3 U4</parents>
			<probabilities>0.8941568052355734 1.862906760312301e-05 0.1058245656968235 6.872649760252232e-19 0.3743266886500791 0.6256733113498936 6.772713000018719e-15 2.052373044817512e-14 0.03200904653079084 6.591535785107618e-82 0.03379582883825857 0.9341951246309507 0.00330336270383567 0.9928392289126309 5.226162855041273e-09 0.003857403157370517 5.149787275796757e-06 0.9999934737350118 1.37647771242495e-06 5.978386840568739e-98 0.7566364691415545 0.0005717132932440872 0.2427852440539988 6.573511202496041e-06 0.1004067507522448 0.8995878250565451 1.949007739640834e-195 5.42419120991921e-06 0.1354979396446808 0.8637006326925624 1.248073882278442e-22 0.0008014276627568701 5.337230723788272e-50 0.005476867230430846 0.06031812451088477 0.9342050082586844 1 4.367519692457806e-25 4.167977214642519e-19 3.568610600587422e-27 2.414904321359007e-10 1.881547404757755e-06 0.8707137926186891 0.1292843255924157 0.0001040177031998297 0.0102904610655629 1.717272252182221e-05 0.9895883485087155 0.02617796295517324 0.001371365801107244 0.9724506712437195 6.144978725011246e-20 0.9988810873400055 0.001118912659614857 5.542206500482994e-16 3.791052091164491e-13 1.323118155860293e-07 0.0006912954066256975 2.886537512012684e-19 0.9993085722815588 0.6822178823493308 0.3177819433203471 1.743303222418444e-07 7.467799031842294e-42 7.19970249831678e-13 0.9759207792913976 1.141285020679907e-22 0.0240792207078824 2.99944316369971e-08 0.9999999326878123 2.3284614598279e-38 3.731775608662316e-08 0.6254558090653278 9.423075322801113e-08 0.179949551478627 0.1945945452252919 1.4744085665719e-07 0.9999723653648969 4.175240728126979e-13 2.748719382893687e-05 0.0003139275176053273 8.772858977393815e-22 0.9996860724823947 2.758635088589612e-105 0.3077135295868998 0.002329534385399418 0.6899544185126735 2.517515027260798e-06 4.904087636454621e-09 0.007549919510327041 0.9898823919521414 0.002567683633444021 6.607101742734624e-168 0.982830444000281 1.211466615396825e-05 0.01715744133356498 1.189098944069185e-11 0.999999999988109 4.250056851678629e-17 1.263036997294218e-17 1.574231637908886e-06 0.005151479648285519 0.9948468357694217 1.103506548775061e-07 0.9382944551102141 0.0001549440376303773 3.474022438878802e-18 0.06155060085215559 0.0006541393896640743 0.06838420442432878 0.9306709595761476 0.000290696609859598 0.997861302628147 0.002138697371853091 0 1.044275795643045e-38 0.09465311397548624 0.01913537748888635 0.8862067090583645 4.799477262861007e-06 5.812750340967231e-33 1.944919353521337e-05 6.89544625389571e-08 0.9999804818520023 0.8341871872377528 1.064265162116944e-11 0.1547983826140074 0.01101443013759719 0.001206895168067402 0.7686967238332315 0.2300963809987011 2.10693781602151e-51 0.4618999498596284 0.5237518662836697 0.01434815888665223 2.497004951720085e-08 0.9998529784777205 6.864994438080232e-09 5.309361062869165e-20 0.0001470146572851555 0.9999999260958498 1.162842443152822e-08 9.738366354586264e-20 6.227572574379778e-08 0.005990796355854877 8.261386972341331e-05 0.9939262483760666 3.413983549843176e-07 3.143852185431325e-06 0.1160675685894062 0.8835586629214414 0.0003706246369668427 0.001709122430323902 0.9673370782520719 0.001358947210514999 0.02959485210708922 1.042645035131035e-10 0 0.1051096208225259 0.8948903790732096 1.594654596315071e-05 0.7814715176500923 1.295062202715041e-05 0.2184995851819174 7.406685812956747e-08 0.02768896438240152 0.003428692983324998 0.9688822685674154 1.266166316687634e-11 0.9990074968559967 0.0009925031313416726 1.196549835509794e-259 0.7898583002377008 0.2033542728205149 0.006787425316711839 1.6250725873784e-09 0 0.4084085435943826 0.5915892700591499 2.18634646768056e-06 3.860900403730767e-10 0.06982412230862818 0.9301758773052748 7.074068883693095e-15 0.9628288759114627 0.003110491014414797 0.01559614539337714 0.01846448768074525 0.1193472125781697 0.8799945820210139 0.000647987125328701 1.021827548767009e-05 0.004128237387774882 2.695210647604972e-154 0.9958707469843097 1.01562791536319e-06 1 2.170104062586892e-40 4.129353044433394e-305 2.163211768887737e-177 2.438104639513276e-41 0.9999774978445289 2.250215547118768e-05 1.244657249238467e-18 0.01199176374703734 8.941884975845862e-12 0.5949114219103158 0.393096814333705 0.9998082793351878 0.0001164947029383144 7.522596187391449e-05 7.292972438717189e-67 6.824203952013323e-29 8.549864541828279e-14 2.354749596165168e-21 0.9999999999999145 9.37552478944579e-163 0.9399618458613331 0.06003605778781414 2.096350852663973e-06 0.0002842094843678448 6.607526531997408e-12 2.999312235687594e-07 0.9997154905778011 0.9999998489032007 1.964378369946118e-09 1.797375975319539e-13 1.491322412098425e-07 0.139055724577959 0.8609442353369172 4.006768192555645e-08 1.744179712325726e-11 0.02251875917172659 2.049748845108181e-16 5.016902224740866e-13 0.9774812408277715 7.675993031617492e-07 0.9999992301411061 1.540712402450009e-20 2.259590706245859e-09 0.9999715342844118 1.297378090628325e-06 1.238328852107762e-07 2.704450461226387e-05 0.2730026790985746 0.7269829123347962 1.332506191818873e-08 1.439524156730105e-05 8.788365179680347e-39 0.1691215504146727 8.837135472210546e-88 0.8308784495853274 0.3068086328341045 1.554546517002628e-16 0.6917362332024168 0.001455133963478643 7.05871976182895e-05 0.9974306409070403 0.002366815913937156 0.0001319559814043268 0.9866622647374638 4.528533373243099e-08 0.01225171559872684 0.001085974378475702 6.15572949935213e-35 0.9881973462441976 0.01180265375580141 1.071212954359773e-15 3.235521917908832e-34 0.9777447614312959 0.02222805894275839 2.717962594577621e-05 0.006097231262548108 8.485539397524624e-14 2.297026511077232e-05 0.9938797984722563 5.593026121281979e-07 0.3774893358414296 0.6225101048559583 6.645988726821281e-29 5.723334545349601e-07 0.9945342466270158 2.292272283172887e-10 0.005465180810302452 6.351422443942588e-12 0.9463523209881258 0.05364269151886746 4.987486655377159e-06 9.467548602437776e-43 3.726814560120383e-10 0.0005807331150962687 0.9994192665122222 0.9952193600361983 9.95812923094737e-21 0.004780553162699424 8.680110227426253e-08 0.0007504108565479139 0.03440048537379941 1.081390045460879e-10 0.9648491036615136 0.4340406711231928 1.53088518256049e-26 0.0005765642643996906 0.5653827646124074 1.704977425707836e-06 1.399759552399445e-05 0.8344796722637027 0.1655046251633476 0.4304615687151864 0.5393553455948953 0.03017469832754959 8.387362368794244e-06 0.001286579846494392 0.000726462610997493 2.58379135399012e-12 0.9979869575399243 0.9950451112722281 9.825807914689552e-16 1.869568526296418e-05 0.00493619304250804 0.2870305491309617 0.107079602433429 0.6058898484356094 7.800368974473621e-19 0.1263684694431057 0.1699313561451845 0.703270805262255 0.0004293691494546931 0.5282279973845718 3.210603425126615e-06 4.713398717449205e-26 0.4717687920120029 3.494529992932064e-05 0.0006845885573305136 0.9989602971979471 0.0003201689447931404 1.847205166851953e-22 0.6241752604305212 0.002937340536450026 0.3728873990330288 2.653274720689461e-05 8.627555482419467e-05 0.9941962034558307 0.005690988242138363 2.954662195168595e-15 0.0626518420764509 4.929104825048244e-38 0.9373481579235462 6.885762859823788e-39 0.999991365094925 6.928369967565036e-06 1.706535107303898e-06 0.998925393309591 0.0007430429082533694 0.000102693931128048 0.0002288698510275475 1.085613868032427e-12 0 0.9999675495984289 3.245040048539604e-05 0.004520722457002118 0.006488229739147382 0.9889910478038504 4.774646410009938e-65 0.648970410600654 0.3095829837395526 0.04144660565979343 8.314152390498631e-124 0.06801662198251177 0 0.8839458423400191 0.04803753567746909 2.712217098703569e-05 3.387284390237003e-09 0.9998625439569248 0.0001103304848038889 5.047724221536372e-05 0.01574964105735185 0.3464012626401087 0.6377986190603242 6.734395033330882e-63 0.9896108403768552 0.004254843892923491 0.00613431573022117 0.002708349628943991 0.36328171685412 1.143241610146857e-07 0.634009819192775 0.504847284382782 0.1334160777301772 7.997786138516888e-41 0.3617366378870409 0.0004529312749792514 0.0002325148399927823 1.629367825560879e-05 0.9992982602067723 1.364697659400559e-05 2.010482735007628e-11 0.06074983077136845 0.9392365222319328 0.0005856442332707794 0.5081990789430874 0.4912152768224005 1.241490551901325e-12 0.8492084372276295 0.1506234033566664 0.0001681594157041425 1.851983418379968e-29 0.524175062505975 0.1933453733259582 5.90331647191088e-15 0.2824795641680609 0.0001959654781157634 1.625177530512786e-07 2.638823201039955e-23 0.999803872004131 0.967947495598288 0.03197626548036467 6.72084235180722e-05 9.030497829328686e-06 0.02548180754001986 0.972121790502039 0.00239640180138564 1.565557203271949e-10 2.878417934202223e-19 9.962486268224868e-05 0.6504896286017104 0.3494107465356073 5.375638818721418e-08 0.1040499292555326 2.673071498322783e-10 0.8959500167207721 0.01113868294960542 0.0002072983090370699 0.9175127078468799 0.07114131089447757 0.003685353121130751 0.9765996559081902 4.114431691859165e-07 0.01971457952750988 0.9111811196980224 0.06709969485399231 0.02140415221234463 0.0003150332356405807 0.659001832347779 0.288322048246882 0.05267611940533917 4.686266339116783e-26 0.977622351972623 9.484995585136631e-05 0.000299708646180656 0.02198308942534507 9.526999707681725e-19 3.63172667645352e-05 0.9994061173307188 0.0005575654025166777 0.96801866071762 0.03196824123790941 1.302184718455633e-05 7.619728613948949e-08 3.022707968646294e-11 1.375481246789657e-05 5.207100631429984e-06 0.9999810380566736 0.9998299290986156 2.568930851829055e-12 1.379239942610635e-06 0.0001686916588729463 0.9993616824437676 0.0006364145489917977 1.849931076111893e-06 5.307616457441596e-08 0.9993253962561145 0.0006735819207152301 2.103637125992701e-42 1.02182317015622e-06 0.220615472678309 0.0201761513760477 0.7536179996983515 0.00559037624729201 1.076322912934312e-24 0.01074487039712141 0.989255126878821 2.72405751954692e-09 0.0002225809316226527 0.9867769607008416 1.824262971300979e-06 0.01299863410456443 0.5505081234618394 1.897342091788506e-08 0.4491463900961388 0.0003454674686009103 0.0003745592738084723 0.9994363464868482 0.00012933542061141 5.975881873184348e-05 0.04071883041292184 0.001510932112427974 0.7661149412514002 0.1916552962232499 2.471476996199676e-05 0.9697771907414798 2.943231269923205e-22 0.03019809448855836 0.01130094863817684 2.352529149801981e-09 0.9835631327673168 0.005135916241977309 0.9850355441451176 0.01442635835873534 0.0001802714028715094 0.0003578260932754928 0.1453536673373091 0.8184485337915095 2.895819187255497e-24 0.03619779887118146 1.07424727568327e-18 0.9905104732859281 0.009489526714071725 1.779693900707903e-21 9.738146871144718e-19 0.9936488307688038 0.00635116923119608 9.365401357646676e-36 0.0004798158404582706 6.79950196643994e-12 0.7649367437871334 0.234583440365609 0.9868441850529864 6.929070643532073e-38 0.01315581494701342 1.268425031791215e-17 0.918054252454099 0.005090830624336456 0.06724557264134991 0.009609344280214373 6.083165347548689e-40 0.09974124434214517 0.9002587556578548 4.628074746881902e-128 0.6690942116957966 0.3302527498901599 0.0006530383982936855 1.57499319107795e-11 0.9999994332164719 1.944286563683359e-12 5.667815838425727e-07 2.438036420876228e-35 0.001575935652117971 1.552988446669544e-08 0.02349547249807964 0.9749285763199179 1.370210849689543e-11 0.9660815461742605 3.666431616324339e-137 0.03391845381203754 0.7183991192278129 0.01905860627644996 0.2600382361037709 0.002504038391966347 0.003548988006308602 3.871761324698635e-46 0.003856308801339201 0.9925947031923521 0.179537607218828 0.1832387069665839 0.6372224966462257 1.189168362349766e-06 0.04820069820308611 0.0004482442448879028 0.951351057546607 5.41904864392999e-12 0.09744920767169218 7.941947013352046e-20 0.8449962056144537 0.05755458671385429 0.0001185873838327044 1.160929553792132e-08 2.745184140672314e-14 0.9998814010068442 0.8292511983826754 0.1707488016173244 1.67759519002311e-16 7.46733904225559e-17 0.02695461445247721 0.008317693929256079 3.785946543751149e-09 0.9647276878323202 1.610386404883928e-25 0.9481234311179861 0.05187045009262423 6.118789389719818e-06 0.0002215890042096834 1.440704852049418e-09 0.01905300946648021 0.9807254000886051 0.8650069071779598 5.511823986112316e-52 0.001994122542988219 0.1329989702790521 0.0008347612861871581 0.4578518353794161 4.658414276388027e-08 0.5413133567502538 0.01607855149467221 2.302357975744995e-10 0.004142505828853118 0.979778942446239 0.5706518555332233 3.460570684310693e-05 0.4293135387577147 2.2189932952445e-12 0.9921131336332608 1.750484185706821e-14 0.007876788249077398 1.007811764439254e-05 1.003421698718117e-06 8.477578401185979e-19 0.8132106103715886 0.1867883862067126 2.441880061334923e-06 0.8759828965268688 0.1149436312976813 0.009071030295388451 1.713540786370675e-09 0.9999831047827491 3.9173555228318e-82 1.689350371025417e-05 8.813293432544406e-37 0.000554401880347964 0.01502721715249577 0.9844183809671562 7.520537362025051e-26 0.134410219612017 3.822545795610731e-13 0.8655897803876008 3.416556191593542e-18 0.9850089329020139 0.01475654730933699 0.0002345197886491833 0.6399357357928085 0.009946501401949411 0.3050550256091856 0.04506273719605665 1.710910523083489e-11 8.956797525602683e-48 0.03380684049161368 0.9661931594912773 2.523448012298778e-05 0.003152134140912188 0.4803494050332697 0.5164732263456953 0.0009374329499783358 0.9989885302253187 7.259262436427602e-05 1.444200338557772e-06 1.39988345438909e-34 0.3565655747833074 2.437010271309442e-24 0.6434344252166926 7.768690511778888e-07 0.9994441080872628 0.0005551149174017364 1.262843270698268e-10 0.1135409925481436 0.0397994574264682 0.8015573967390698 0.0451021532863182 4.409732912170023e-06 1.57870015649068e-09 0.3335767989997523 0.6664187896886353 0.04084529308218572 0.959154706917432 3.532069828869638e-18 3.82253276254646e-13 0.9966027414244015 0.003397258575590778 2.104609819110497e-17 7.693789506207948e-15 1.004230641683389e-37 0.999999976872079 2.312792107211924e-08 5.954943609198959e-18 0.01257840312523476 2.279286870764174e-05 0.9622819219319151 0.02511688207414269 0.02819994614662461 5.41479930088771e-88 0.9479666813017099 0.02383337255166532 0.2920881517925609 0.6110420702107311 0.0967621928141007 0.0001075851826074483 3.305587651473199e-07 0.9999961117387883 3.30442942821924e-06 2.532730183540912e-07 1.036563008165332e-57 0.0004363500363157754 0.8514826987300543 0.1480809512336298 0.001323820720720216 2.616313984707959e-13 0.9985854214932744 9.075778574377503e-05 0.0001557915611592866 1.001758472144615e-27 0.9998414843159722 2.724122868631974e-06 0.2702218096476545 0.7297730120348237 1.988645920072072e-25 5.178317521873391e-06 1.682569697984966e-08 0.6529581289135774 0.3251044950551653 0.02193735920556022 8.736808012821198e-08 0.008926973477664902 0.0001257157312642059 0.9909472234229909 1.981627998838388e-17 0.9999991047362201 8.952637741568814e-07 5.938760126541397e-15 0.3395564904335354 2.716905849693445e-05 0.3235986088732164 0.3368177316347511 3.874081037661905e-08 0.300614600870199 8.758503322796579e-13 0.6993853603881149 0.0001051268918632679 4.22974897492871e-05 2.562181963054231e-23 0.9998525756183874 0.4224422829646781 9.630772347743593e-32 0.577557717035322 7.897451654269202e-31 0.004131692375241892 0.1451736642998795 0.06837446106038306 0.7823201822644956 0.9150391626465806 4.369798398008721e-09 6.315993058082298e-11 0.084960832920461 0.2459588960997202 0.7068413977529318 6.90755159108122e-16 0.04719970614734744 0.0007171581340509073 0.0001293438167311836 0.0002977039891341018 0.9988557940600838 2.845455831315957e-05 0.5727317095932408 0.4180786015861679 0.009161234262278059 0.007142123713178915 0.9928545895209461 3.285981095810782e-06 7.84779171833496e-10 0.4601563562585999 0.4416899944622417 0.09814393992867054 9.709350487896826e-06 0.009597952443756837 2.72303164587173e-09 0.9904020448332115 1.959068793036352e-42 0.9995973105145654 0.0003804297623183678 2.016663831974487e-24 2.225972311632093e-05 0.03638400153642155 0.2781365839690141 0.6835346247010514 0.001944789793512815 0.01670158623330318 0.4580768019033368 1.642953465099971e-22 0.52522161186336 0.000129811632521169 0.7303690299851919 0.1213322399531648 0.148168918429122 0.0005641443140039564 0.001445970699147149 7.677863062768431e-16 0.9979898849868482 6.960575514455417e-05 7.031347598965133e-157 0.9905492129087151 0.009381181336140351 0.02385686423559621 0.002306016935551764 0.9022252801218221 0.07161183870702989 0.9974087749833715 0.0006211566229729134 3.26286740462179e-06 0.001966805526250746 8.800097395434177e-10 1.385403531484798e-18 0.999896427353123 0.0001035717668672789 0.169402127109911 0.8234040182537629 0.006923915598161954 0.0002699390381642 1.302037316643059e-13 0.5043265711391162 0.02502945959733551 0.4706439692634182 0.704063918859457 4.573923299601499e-16 0.1537950332851135 0.1421410478554291 6.469938534843345e-177 0.9927732768033428 0.007226002711787011 7.20484870236088e-07 0.01564103052868228 0.868912646255689 0.1154463231854671 3.016169953762085e-11 0.001261237229829347 3.932599726183749e-10 1.953955273543339e-07 0.9987385669813834 0.7435746887228776 0.2420596426666464 0.01436566857586722 3.460883547203594e-11 2.585756929747449e-05 2.642901691923732e-11 0.997037886188152 0.002936256216121546 0.007997261826873102 0.9897283577936482 0.00195568376403946 0.0003186966154393674 0.0764515756277887 0.6993098754685805 4.681416095827487e-11 0.2242385488568167 0.03702764211215316 0.4779632164883333 0.05916467072360877 0.4258444706759046 0.01331351970373011 0.2474701739427418 0.2740917671536462 0.4651245391998819 5.979031784219854e-08 0.8450802537395306 0.1549196862600072 2.101443631367768e-10 1.146875132279388e-15 5.87050442407198e-05 0.9954521319774493 0.004489162978308742 2.955806065228635e-46 0.8902153779436573 0.1097846220563426 5.29413116065181e-81 0.9999691673953977 3.081721912598301e-05 1.538547609142829e-08 2.081852747402808e-16 0.02180548243773141 1.808357561800705e-06 0.0006899075325455008 0.9775028016721612 3.646606406864221e-06 0.002209710069582056 4.322991293540871e-32 0.9977866433240109 0.0004627376939343613 0.1125273576377462 1.474523281425772e-07 0.8870097572159913 0.7474333052421127 0.2525666885234273 4.393830138834365e-09 1.840629760199443e-09 3.712008443956337e-13 1.714475673384636e-08 0.9999999828255308 2.934125946684453e-11 0.5552804286110493 1.481068188014326e-06 0.3314941055531306 0.1132239847676321 0.07465410641522205 0.2190760558404075 5.081724479342846e-07 0.7062693295719226 0.1465964429183694 0.3413086121833409 4.569346863338695e-43 0.5120949448982897 0.1145168135784073 0.8450919204676519 0.02077870271542315 0.01961256323851758 1.666388228495078e-21 8.576324658356272e-05 0.0004510093824050656 0.9994632273710112 2.546434853204811e-06 5.606020188816437e-05 0.9999409201529375 4.732103211718493e-07 0.02389182113637807 0.003757144099377999 2.570904484261729e-07 0.9723507776737955 0.04285486663087976 1.454007867617932e-12 0.9571333029755307 1.183039213545365e-05 6.414685294639282e-06 0.9683648223606612 0.005826855347294901 0.0258019076067491 0.2225337432934555 6.57049698164454e-30 0.2651608248028645 0.5123054319036799 0.9997180978404712 0.0002819021576059201 1.923026396345723e-12 6.379049252839538e-134 0.9999835230589033 6.42294274070452e-06 6.800224754404907e-09 1.004719813127076e-05 0.07672164222187236 0.9231885475749472 5.28096009352103e-05 3.700060224525176e-05 0.9887362903237046 3.15754574663289e-24 0.01126370757494101 2.101354371318108e-09 0.01312254071590625 0.008198064681027987 0.88484195613737 0.09383743846569574 0.1078397000120409 9.213596056728004e-05 0.8920681635626986 4.646933870348603e-10 4.256210627651974e-16 0.01340842467327795 0.9865915753267217 8.957759636961004e-28 2.707690261809812e-05 0.9998020837035436 5.142450446095854e-05 0.0001194148893772375 0.9423785460858934 0.05745235948483199 3.256660506338207e-46 0.0001690944292744833 0.07078260320092508 0.0002979514133900348 0.9156393950159537 0.01328005036973107 0.00026576847079443 1.801864640784682e-28 0.9448897505024703 0.05484448102673536 1.354546797497258e-09 6.484046212248913e-08 0.7103819242114842 0.2896180095935069 7.773085672700722e-07 2.031350512977387e-11 0.02630067123580148 0.9736985514353177 0.006899056132430906 0.0381394086349634 3.317434170517355e-11 0.9549615351994314 0.9952088049516985 3.231558417208844e-88 5.328409693788676e-10 0.004791194515460654 0.004286199219767792 0.00277057991590632 0.006397186752777901 0.9865460341115478 2.784780903020258e-17 1 5.624474037668344e-42 3.005945579126858e-111 0.165024265090385 0.1633654080171885 0.6716103006863364 2.620609001541836e-08 0.6344827656296893 0.288639791598049 7.037570132910975e-53 0.07687744277226162 2.172579417890215e-09 3.349604781243293e-09 0.9984717967022512 0.001528197775564733 0.3635041919118079 6.077083874991727e-11 0.1312436308241876 0.5052521772032338 1.463688573189531e-08 0 0.06810617767372892 0.9318938076893853 7.629735146287208e-44 4.503142368307072e-09 0.001502409300823138 0.9984975861960345 0.1483837161395654 0.210141728016696 4.567997598660344e-94 0.6414745558437387 0.4012345516809765 0.5982639401613106 1.261232466119084e-06 0.0005002469252469353 0.01822567086994376 0.00316443669209718 3.483661613754736e-05 0.9785750558218215 0.01790354668057076 2.378332805000885e-22 0.2094838733051797 0.7726125800142496 0.01641820506484888 0.002033438756808098 0.981548356178343 0 0.07135540005174987 0.8941067295555406 2.330389748617654e-10 0.03453787015967068 0.02098035454222929 0.0003537000540856476 1.543086184804441e-07 0.9786657910950666 0.5558881345387394 8.731722635640853e-08 0.250276805128347 0.1938349730156874 0.2590282122623786 2.279408343287257e-08 0.0001490008849198048 0.7408227640586181 0.0001493563269430481 0.9998499474159058 6.962564443077551e-07 7.068952418143584e-13 0.00020214431866731 0.3376693958036902 0.3919981603434915 0.270130299534151 0.3196564225092487 0.0002744889354877905 0.01068891440901855 0.669380174146245 0.05553715986426327 0.9277604159041547 0.01670242423158203 4.915408529761091e-36 8.310839555516327e-08 0.7283959842966475 0.2713392210521706 0.0002647115427862854 0.9999998871274332 2.533776472501095e-25 1.128725666686728e-07 3.457970546035999e-113 0.0003643723295258208 3.853772325036815e-22 0.0723851029723713 0.9272505246981028 4.911963459143752e-22 1.285545995206077e-20 1.1414640373316e-12 0.9999999999988586 0.9991540200555525 0.0001474826915256215 0.0006983808070394584 1.164458823406287e-07 0.0009520809039074152 1.187605296007833e-07 0.6576055408486826 0.3414422594868803 2.163087715868904e-45 0.001638050989943771 7.16535018913439e-28 0.9983619490100564 0.9202203488872442 2.762576498510292e-21 3.858934642822811e-09 0.07977964725382117 3.810357221677077e-07 0.003363173231230578 0.8578018065299674 0.1388346392030798 0.9992463447497955 0.0007535469792480514 2.353890691442797e-17 1.082709564297655e-07 2.967838029853408e-09 0.7109113845535147 2.622926447240801e-06 0.2890859895522001 0.05228216329260132 0.003462062425222478 5.289541480378251e-85 0.9442557742821762 0.000802328239715931 3.716129113042079e-12 0.9991976717552713 1.296522524870312e-12 0.01318625349625901 0.9868125304324966 2.619675825071582e-17 1.216071244314751e-06 0.2009691522631064 4.719381005876745e-06 0.2418568714193669 0.5571692569365208 1.086467268270264e-12 0.9565393261715346 0.04313905564031881 0.0003216181870599879 0.970410898388565 0.0001607428506895341 9.631458934585652e-21 0.02942835876074549 3.089843356505137e-23 0.999999999996292 3.708107890543532e-12 9.324119129910286e-167 2.327484819267652e-05 0.9986994952127947 0.001277229894158213 4.485443899143742e-11 1.992579027409351e-12 0.9857545990366819 0.01416743493307771 7.796602824764118e-05 0.9998677857464024 4.164587957693081e-10 2.4268056032224e-57 0.0001322138371386484 0.0002267127964022251 0.9742927309388179 8.393693715059781e-10 0.02548055542541052 9.660526903777024e-10 6.772693416186941e-05 0.9999322221678409 4.993194460557586e-08 6.095296389869473e-14 0.1097025044008591 0.0003236386515914431 0.8899738569474885 1.083788267059685e-38 4.679908558560167e-06 0.9999951985170072 1.215744343914158e-07 0.0704549396907746 2.079433208678008e-41 0.03908498537185041 0.890460074937375 9.864569423556417e-09 2.605482215963357e-08 0.0152432237707132 0.9847567403098952 0.9999999999999472 1.419595095768137e-71 5.2799474544839e-14 4.545833234684e-25 0.7617752435768691 0.143639837990075 0.09458461330452252 3.051285335186177e-07 3.565030553246274e-11 0.9976575224325155 0.002328138539803463 1.433899203075276e-05 1.306916434546973e-37 0.9999997882867826 2.117132173377925e-07 8.180535776202992e-163 0.08784462265418232 0.0007086413369301466 0.6284754984422283 0.2829712375666593 0.05771560618454145 9.435984065159214e-05 7.239616105548945e-10 0.9421900332508453 0.05245750579078122 0.9475352955183358 7.198690882765403e-06 1.136188257831555e-196 0.06851965835597448 7.682073648619911e-33 0.931468445662665 1.189598136046953e-05 0.7669978176716751 5.019649050113692e-13 0.2329541610040293 4.802132379371891e-05 0 0.9940844165512711 0.005915583448728932 7.334332797143118e-26 0.8952893838145449 0.01103339790749591 0.0936772182779592 2.839536753601589e-21 0.4695984168240648 1.452279876620698e-11 0.5226838431587132 0.00771774000269897 0.3530227551963683 8.740613656095971e-11 0.646977237522384 7.193841668152425e-09 4.715004615770548e-06 0.960345545878326 1.557929201848041e-11 0.03964973910147888 1.218343823074742e-05 0.9646726711855171 0.0004568301488809096 0.03485831522737121 1.578920547511942e-19 0.9874221615140815 2.731512443899783e-16 0.01257783848591823 2.734224707729786e-115 0.0106758067523745 0.971240684953386 0.01808350829423953 4.911573237192006e-89 1.100645287250768e-18 0.1587590244162624 0.8412409755837376 0.01894289439526823 1.573366772106954e-05 0.9810413719370049 5.741712898413132e-15 0.05098500828138086 0.943013294465764 1.741839907901812e-05 0.005984278853776118 0.002194273545920812 0.9735620357098925 0.0242410606348909 2.630109295773603e-06 0.9998667353084093 1.395627558317257e-19 1.140321351146184e-119 0.0001332646915908475 9.317180243800516e-06 0.006151160989849212 1.229214100023438e-11 0.9938395218176149 0.01728518807036973 0.0001099600950899041 0.4729780995573877 0.5096267522771527 1.713925630360577e-13 0.001418970922794056 0.9985744557257074 6.573351327155958e-06 0.9999961039078579 1.693117447869334e-70 3.896092142239698e-06 1.109649743145486e-68 6.223366764684999e-08 0.8816828951414775 0.1048383225413687 0.01347872008348621 0.005241059360858801 0.9504119431046389 7.127759514191928e-16 0.0443469975345016 1.628518588589393e-156 0.9996358555195377 0.0003641444804623617 2.704290365519617e-21 0.02185381934657406 0.9544868309996045 0.0236593297695186 1.988430260522239e-08 0.01335299031172898 3.646453087041002e-05 0.5789630288545388 0.407647516302862 3.338195638540781e-07 0.9988502223959769 0.0001111325780898549 0.00103831120636938 0.9991528083297916 6.876699243461009e-09 4.082611067724658e-13 0.0008471847931009447 0.8666037441089506 0.1329586458547063 4.859197858238083e-21 0.0004376100363430849 0.2281705990710749 6.73330240982011e-05 0.003042371095975175 0.7687196968088518 0.06348972691193028 0.9353303306587425 8.581382290014636e-07 0.001179084291098231 0.1517028892352159 8.523349618335469e-05 0.6641778627575199 0.1840340145110808 0.9941069139457924 3.855016356010547e-29 0.005893086013403476 4.080410979719213e-11 0.7902075164498479 2.317742554213539e-49 0.209792483447803 1.023491326639551e-10 2.23867464642088e-06 2.395212734858815e-05 0.999973809198005 3.513634140080674e-22 0.0001932690834488753 0.6094150307815717 7.070958734518617e-11 0.3903917000642699 0.3240658997162695 0.6759319982510558 4.761202965017443e-18 2.102032674753755e-06 0.9987831633457958 2.574600671979378e-29 6.588767204293692e-06 0.001210247886999903 0.4971969933603618 3.778300829527677e-05 0.4728476874409756 0.02991753619036726 9.111886582511974e-09 0.7878532812408489 0.2121467094559555 1.913090911434042e-10 0.4477637826123117 0.0001843901941943747 9.945083853902345e-05 0.551952376354955 0.0001146242898116522 0.9994388849732746 0.0004464907369138219 9.73599165770066e-28 3.944732487859838e-34 0.09425626055607979 0.9057437394439202 2.148430994125873e-79 2.026180295392745e-08 0.5695017754455755 9.873031584911752e-45 0.4304982042926215 0.06224617659246675 0.002441712847772053 4.539778779187062e-11 0.9353121105143634 0.07935228752704097 0.04622692619682622 1.198545161222757e-18 0.8744207862761327 0 6.49833795087967e-12 0.01697230090364549 0.9830276990898562 9.491804508579017e-11 0.9963252849047998 3.106755114151266e-07 0.003674404324770698 0.02023337637946926 0.873363272555352 0.001183407208750991 0.1052199438564278 0.03657667019462811 1.61459075833473e-05 0.5550672370645165 0.4083399468332719 2.60056782996774e-12 0.0001422795130235008 0.9998577204843759 4.721313122799434e-107 0.964713858635756 8.448278607587409e-05 1.611003045321731e-15 0.03520165857816658 5.599601898969431e-07 0.03708178544322385 0.9629176529127235 1.683862795078763e-09 0.2043385039595657 2.127115701311991e-07 0.2188926640444107 0.5767686192844534 4.13133831757263e-30 0.1055153454005744 0.5279722075534263 0.3665124470459992 0.002474776681264986 0.06263285437810924 0.934877661474704 1.470746592167456e-05 0.9943195360862994 0.00242019049264818 8.399385478060694e-55 0.003260273421052541 0.06456563400851006 0.08207718259743858 0.8528673203901761 0.0004898630038752638 0.005047491271710633 0.000103504758994931 0.9675277811145839 0.02732122285471041 7.895318092687498e-09 0.8383717185517149 0.1616236724548702 4.601098096936707e-06 0.9998984495713554 1.208091844160384e-05 8.946626110737276e-05 3.249095640138747e-09 1.934187278315179e-149 0.003412131711754575 1.571272287343179e-08 0.9965878525755226 5.902554940926672e-37 1.244196397911497e-06 4.104351045006556e-05 0.999957712293152 0.5725406944841127 0.4266542323085231 2.917674641755136e-06 0.0008021555327224865 0.9894616843552203 0.008722562761501709 0.001812167257212824 3.585626065041511e-06 0.1136499871510773 0.5978860701739348 0.2765877894912055 0.01187615318378229 0.4697439025322446 0.3417063935359965 0.0006681564599097781 0.1878815474718491 5.562045939709609e-129 0.9986430423128347 0.0007701066191064688 0.0005868510680589269 0.3043381548665636 4.338445983295066e-06 0.695657506088477 5.98976008998484e-10 0.9026771520155821 0.03469888906932878 4.332741877869626e-05 0.06258063149631035 0.01605097923328154 0.9540982624252657 0.02985075830378402 3.766856176383017e-11 0.6091277612659212 0.3872092058385708 1.122060926820925e-28 0.003663032895508028 0.9993596097772904 1.116312194674393e-13 0.0006403902225942644 3.682702851795452e-15 0.0003887319299935147 8.036568092117255e-05 0.5004002524120666 0.4991306499770186 2.225595999143853e-08 0.02600925848311487 0.9186862798872933 0.05530443937363189 1.046559699254729e-91 0.01333644790183563 0.7782151230030113 0.208448429095153 0.0002241585523464722 3.073178142170858e-07 2.47634541540649e-25 0.9997755341298392 0.6326888061168741 2.461845287802229e-79 0.02692734306012027 0.3403838508230057 0.0006715799012222204 0.9692039883905444 0.0002218023017983041 0.02990262940643505 4.400920286892979e-10 0.1191559406504405 0.8774534815804294 0.003390577329038188 0.03182311043936302 0.9531730161438964 5.401519441616657e-06 0.01499847189729899 3.963287686900944e-36 1.31447554205031e-59 0.0002376814634195808 0.9997623185365805 0.7642243880704063 0.2257188679072179 0.01005674402237578 6.50780432081654e-20 0.999995587972885 5.631384603297253e-09 4.406395730404273e-06 4.686889437447772e-29 7.235450811840399e-05 0.7650050195637748 6.195662660781708e-05 0.2348606693014992 0.9988617536501777 9.189572399390434e-08 1.548724053084402e-10 0.001138154299225905 0.8818051230078153 0.1181773734465429 1.750354564165133e-05 1.88352394246167e-51 3.206821116116216e-14 0.01303088174372314 0.001384095448254612 0.9855850228079901 0.6243909212681673 0.3755893564414599 0 1.972229037278596e-05 1.244411287268694e-10 6.858214621289054e-10 0.9999999991897373 2.537289695293515e-17 0.0005590169945366915 0.2356739361961914 0.7637670468092719 4.550620696633191e-125 6.196754774217047e-24 0.03921614487525279 0.9453579854169843 0.01542586970776283 0.3224378176930649 2.338050008733826e-06 0.6775598442569264 2.016590282964883e-30 9.739126978998717e-05 0.0001972150397804593 0.1406656044055458 0.8590397892848837 0.1000698239421387 6.60291879018754e-07 0.009677797953030795 0.8902517178129515 0.00108164068692686 0.9985818355644513 0.0003365235729148789 1.75706967678671e-10 0.9495277342686863 1.250406014766207e-08 0.05047225322725365 9.635209004882655e-22 8.763628300031584e-13 9.170207967060377e-08 3.507784989127632e-19 0.999999908297044 0.9999299808328392 6.963875483012973e-05 5.768585828063968e-46 3.80412330624763e-07 1.398392576972859e-05 0.9374711695471546 0.0004231562026735899 0.06209169032440197 8.676828477386906e-07 0.415075965862014 8.115157103600644e-26 0.5849231664551384 2.540131780199861e-15 0.0207734914700915 0.979226508529906 6.794979574800487e-39 0.01434132529491561 7.242473289593375e-09 8.741816411002391e-29 0.9856586674626111 0.9999443927142357 5.200656366260629e-05 3.600722101714916e-06 3.08004734492947e-67 0.0196715864645281 0.8671897163735115 0.006201816197131725 0.1069368809648287 0.9914733964903018 0.008526603063515246 7.627486644548831e-40 4.46183030327787e-10 5.000268961166401e-43 0.9998824030526784 0.0001175969257897751 2.15318200084768e-11 0.7768742159356749 0.1271550483315051 4.759877319636262e-05 0.09592313695962346 3.014253880650731e-06 0.001999815900965407 0.6837684913628155 0.3142286784823384 0.019720675178204 0.3094913233547634 0.1394073490249801 0.5313806524420526 0.9346662487428165 0.008103480025344988 0.05723006726297161 2.039688669684745e-07 2.253788237828474e-54 0.04653795852260791 8.294614752749545e-24 0.9534620414773922 0.9963431877030478 2.845383425639891e-09 0.002757343661499226 0.0008994657900695666 0.001655993610774702 0.1329071225155523 0.000386692500915224 0.8650501913727577 0.8393015969781097 0.01548202819663332 0.1452163748252571 1.84963832246661e-37 0.9999999999996915 3.084775180951018e-13 1.502316344954989e-26 1.30591582185607e-126 0.605655723667731 0.2373065504027141 0.04022245304804554 0.1168152728815093 0.03206975870353303 1.524722939831149e-14 0.6583706941753235 0.3095595471211282 0.9987755497121161 1.37441298275354e-12 0.001223806135333707 6.441511757209463e-07 0.3815516683535924 0.0194719628237154 0.5276685846571603 0.071307784165532 1.125928086324416e-18 2.007044138764547e-28 0.3742454070430435 0.6257545929569566 0.07056062331348452 0.917419855762139 0.0004614129074278296 0.01155810801694874 0.9999999777981281 2.213193928308231e-08 6.993262379851814e-11 2.531868149190898e-30 8.897174653674587e-26 0.9974342103444793 0.002565772325974204 1.732954633985961e-08 3.136369437973297e-07 0.05770002100367035 0.9240585344458101 0.01824113091357561 0.07945547973169689 2.283782139313897e-06 0.001167880734608142 0.9193743557515557 0.0001415264749405713 0.9776406271527363 0.02221784637232306 2.151748428553913e-32 0.0150808326855747 0 0.9759936687729847 0.008925498541440592 0.003064639686056592 1.766352866832969e-28 0.9969353603139434 1.125315356585137e-37 0.1257882760956802 0.4905276321752144 0.3026704186053766 0.08101367312372884 0.9997419527600859 2.050824298070105e-15 7.542600274868607e-11 0.0002580471644860729 0.9834567061453515 1.276192289531703e-07 0.00529560016528484 0.01124756607013459 1.16250013888857e-07 1.852155654364456e-06 1.67453110311809e-11 0.9999980315775865 0.6227798802010496 0.2019082418954052 3.561011999890508e-05 0.1752762677835464 2.637037102612296e-15 3.032736920182279e-20 0.2851075531122346 0.7148924468877629 0.6427864460657046 0.1645841814552343 2.195909762587735e-07 0.1926291528880848 1.953081234246353e-10 2.421825537877503e-06 0.139439513163281 0.8605580648158729 0.9920611935168534 0.007938806483146627 2.370170722832502e-19 3.778031357171713e-17 0.003731286261079215 2.785244572142779e-06 0.9957192813382987 0.0005466471560499816 0.04930252029313317 0.9506468997913918 8.404759954523642e-11 5.057983142744984e-05 0.946227328076152 0.04265291011100383 0.01111976181284444 2.392183737687941e-72 0.8877671962321548 8.54513942360079e-10 0.1108041983030459 0.001428604610285235 2.594971506691085e-19 0.9976278238742931 0.0003426291529107024 0.00202954697279617 1.418491577861352e-145 1.946341649308889e-07 0.0005772938706972155 0.9994225114951377 0.09643590670799083 0.8985134112024494 3.770362942942221e-16 0.005050682089559242 0.5518282883806587 5.091779730732019e-11 1.354149895181384e-242 0.4481717115684236 0.7801455188644645 7.409588125708357e-06 8.48257264516201e-182 0.2198470715474097 0.002272073876224396 0.9977279261237755 5.292921464920117e-36 6.486015705789801e-19 0.9579028156672813 3.469820457272544e-14 1.255866046166675e-75 0.04209718433268411 0.8181766750275021 1.764767824771159e-15 0.1744605184144029 0.007362806558093356 0.01168026682174633 0.0003096449003896282 0.9272177808583483 0.06079230741951572 2.766802014266592e-05 0.6507935402465065 0.2042286234267572 0.1449501683065936 0.004490739793543902 4.80627524037964e-10 0.9869720659306923 0.00853719379513619 4.597344096088337e-06 0.009290812148672748 0.6159214787891433 0.3747831117180878 3.660289784083788e-58 0.1605856820761771 0.8394143179238229 9.722775521312904e-21 0.0006371822128469742 0.9993628177576412 2.951003277547551e-11 1.713095179404599e-15 1.586797025825043e-05 0.08955012748373595 2.238612423778476e-05 0.910411618421768 0.0002058090554556448 2.871848212411994e-08 5.093108004059135e-05 0.9997432311460217 0.5777157410234556 0.02458432211689932 0.3171052223885607 0.08059471447108425 0.9999999999999987 6.591422958456171e-43 1.30643883253069e-15 1.900301603174702e-46 0.8137159454915658 0 0.1815314887755043 0.00475256573292999 0.5373696027501733 0.03665328682424406 0.004648637923131536 0.4213284725024512 0.001394166622777462 3.128945980372928e-129 5.561116558713287e-05 0.9985502222116355 0.2095287148462307 0.5572432288118295 0.2332280397403481 1.660159169415638e-08 0.4510738350078354 2.418679867243565e-33 0.24090319540347 0.3080229695886946 3.430610364327668e-06 0.001759836515293042 0.8816977356670287 0.116538997207314 1.316158504517087e-19 0.9568064393028091 0.03373429919646252 0.009459261500728275 0.6746533424629516 0.003282338768649036 0.2357755062967264 0.08628881247167298 0.1820495711781386 0.000199730554921203 0.01683394704009387 0.8009167512268462 0.001743840424177684 0.8381008437544939 0.1094766272960768 0.05067868852525152 0.9999999631223777 3.313491623816298e-08 3.742706011827234e-09 2.13887067841568e-75 6.743005344692479e-08 0.0009713389927481374 0.8852249984967441 0.1138035950804543 0.3922978437191936 4.488845895117503e-06 0.1816344227042741 0.4260632447306373 9.204248884123778e-05 3.599480165021267e-06 0.9999022016400201 2.156390973707166e-06 0.00386320202478304 1.965222142368202e-05 0.9961171457537933 4.83767796053378e-28 0.5632004494947294 2.800123499801988e-08 0.002481501424343716 0.434318021079692 2.075504636114621e-45 0.2191788173798431 4.050965280222944e-43 0.780821182620157 0.945121093596942 3.815910979194412e-05 0.05484074729326613 4.333088041425941e-19 3.697469101558626e-08 3.318625497994065e-10 0.2432056676662236 0.7567942950272227 0.9192695182367152 2.776467573071684e-18 3.320081713670455e-05 0.0806972809461481 0.5820741206963619 1.251149125798948e-154 0.4179258793035761 6.204914237710168e-14 0.04246070581142418 0.9575392853944161 8.794114658053321e-09 4.498682013556713e-14 0.006803828188118137 0.4869799473030455 0.06740771891963694 0.4388085055891994 0.1938625974679908 6.220378557593793e-07 0.8061367430866511 3.740750235861019e-08 7.126005612248193e-09 0.002906540918917224 0.0002675747698284095 0.9968258771852487 2.881942529312525e-05 0.9971404066763734 0.002830773898333457 1.688124458806824e-23 0.9967235696252315 1.239985201630128e-07 1.066850037635808e-09 0.00327630530939826 0.02951817332242583 0.006939695232090624 0.9635421314454835 6.525623799126954e-19 0.001121398773456184 0.002503819780654372 0.1400312015488933 0.8563435798969962 1.564845395694941e-08 0.1707447246813713 1.777629024924727e-07 0.8292550819072724 0.0004111793115816764 0.9995888206884184 4.707577439488573e-70 0 0 0.007096333203181742 0.9929036667967523 6.583670298104099e-14 0.995119339110664 0.000136781356845496 2.455218849535408e-05 0.004719327343995163 0.007467964878341905 1.011548877917581e-19 0.2040331054951189 0.7884989296265392 5.645648332429742e-11 5.069264770065219e-07 0.01568118420789668 0.9843183088091697 0.6904198733481479 0.185071082268882 0.1245090443829699 3.935942821219052e-28 2.172892058054208e-17 0.9999970981223962 2.901877603653592e-06 5.683077489002545e-138 0.001220271209770711 3.980012528403117e-31 0.2987453754257153 0.700034353364514 0.1404966875148785 1.047515274916993e-79 3.156686243258871e-06 0.8595001557988783 0.5105217761749645 0.4894774571202557 8.431269446285652e-12 7.666963482888023e-07 0.007566044408984733 0.5762357598789732 0.4156777407084992 0.0005204550035427186 0.01854285986988549 0.8326352761822032 0.02636987429203496 0.1224519896558763 1.113499432627343e-22 0.0005234216705269688 0.0001211551128684932 0.9993554232166045 3.716064106282508e-06 0.0005673591400397121 0.975270312242159 0.02415861255369493 0.01723526710958796 0.01483176286122803 0.9679200007550235 1.296927416051912e-05 0.9849640106041858 0.0002360490107572075 0.01479405681973188 5.883565325231615e-06 0.9926948817675553 0.007302540512278395 1.022750037920697e-06 1.554970128561922e-06 9.486314720139589e-52 0.9966936236487879 9.889612443954742e-05 0.003207480226772661 1.668708374497278e-05 0.001724795239219372 0.9982585176770357 1.600070701311058e-21 1.22513186358746e-23 0 2.371801437576071e-08 0.9999999762819857 0.003740711765987796 0.07146613596851613 0.4713760697871502 0.4534170824783459 0.01176095829266987 1.976362386229732e-84 0.9882390417073299 1.641761465893465e-16 3.566478453257718e-05 0.1348312742806415 0.8651330419455433 1.898928266813499e-08 0.4584436765096658 0.5415419329172452 6.785659615495709e-11 1.439050523236994e-05 0 6.340062931627293e-10 2.147171310517886e-15 0.9999999993659916 0.8637737985339805 0.1361820555314388 8.427978590831774e-09 4.413750660208788e-05 3.609738684748519e-47 0.0004028399977392781 0.5143297320312963 0.4852674279709645 5.426868214059308e-11 4.177743649057282e-06 0.9999299236145904 6.589858749186e-05 7.972928950467665e-06 0.9994691903735563 9.894484053298263e-12 0.0005228366875987507 3.622659278039234e-06 0.4109609470892355 0.3935467638719504 0.1954886663795361 0.1651895123821323 3.589013670012558e-12 0.8348104876079143 6.364398937465886e-12 0.01645241905392429 3.402436024845658e-16 0.9835475809065581 3.951728522418591e-11 2.768850462703849e-22 0.9977396646093926 2.324681933487329e-07 0.002260102922413962 1.870345892524462e-06 2.276440151401887e-05 1.939933137303624e-07 0.9999751712592797 0.9611154497970695 0.02792995661490161 0.01084585785784154 0.0001087357301873874 0.9816405034615093 4.018228114963652e-65 3.973355931108533e-149 0.01835949653849058 3.293289379032932e-14 0.5948859013766257 2.57988351560439e-35 0.4051140986233416 0.000851466047554357 0.007108924209262361 3.724224687091241e-05 0.9920023674963122 5.494855357723702e-07 0.9992717359910874 0.0003090222945510372 0.0004186922288256458 7.314410321439128e-29 0.03564279384756577 0.007560565950747804 0.9567966402016865 0.0001115942010183458 0.7272063675814746 0.2726553596000988 2.667861740819529e-05 0.2691147957040145 0.5460502227739327 0.01631779743182214 0.1685171840902307 0.8749419069722872 0.1247886127009357 0.0002694803267769774 5.496986653551964e-29 7.699024998944607e-05 0.9999221508770541 8.409713282066915e-07 1.790162835843186e-08 2.669800110764416e-22 0.9753433596423271 0.02177591877527492 0.002880721582398145 0.2081295055705153 8.672165168395147e-31 0.7918704944294848 3.458730178203515e-80 0.08428564995475239 0.02752672576511552 0.8756255039737711 0.01256212030636107 1.801449633496964e-06 5.721140826574783e-09 3.684281700848084e-12 0.9999981928255413 4.52116344329467e-09 4.022492368153298e-13 1.224857913390752e-05 0.9999877468993003 0.4491019561577048 9.462177453582844e-13 0 0.5508980438413489 0.9732930236455154 2.59042459641923e-68 0.02669743656518998 9.539789294611155e-06 6.893970268156906e-25 2.201802326370853e-11 0.9953353055170721 0.004664694460910026 0.007345990133192914 0.6380740793107145 0.3542274697895218 0.0003524607665707877 2.245254560346991e-09 0.7355586752274945 1.06906689180483e-07 0.2644412156205617 0.1061426038941361 0.08598227474507489 1.148487308323585e-30 0.807875121360789 0.5074242995454707 1.52216147652063e-08 0.4906288341833988 0.00194685104951583 0.004932972398124983 2.408104285153576e-10 0.9730068318055788 0.02206019555548561 2.380154041326782e-06 0.999997141186928 4.436084389326156e-45 4.7865903075809e-07 0.4320676207222576 0.549649286939874 0.01828037154252352 2.720795344736527e-06 0.282810042854267 1.630140983415773e-08 0.7171899408443232 1.860737640509052e-18 0.9640933361926572 1.197919112639028e-55 0.03590666234624919 1.461093589254783e-09 0.9890161992840669 8.512215321381558e-12 0.01096309027445828 2.07104329625002e-05 0.2526207954012828 0.7472907658065916 9.883097715041217e-14 8.843879202681925e-05 2.962085653924975e-05 0.002638326495371564 0.4767456505031635 0.5205864021449257 0.004425137045390748 0.2120831184199211 0.7834903332342724 1.411300415724879e-06 9.726794723508617e-07 0.9999990246302585 9.661997417371129e-28 2.690269182162528e-09 0.0001240551419349212 0.9991744030085388 2.831756627518247e-149 0.0007015418495263652 1.02140650847477e-77 0.9490557657489559 1.838812855305437e-12 0.0509442342492053 9.563603161060427e-07 0.9999990436396508 3.306570004094014e-14 1.192041679580299e-60 5.391636101306421e-10 1.386795417164574e-05 0.01033511946186281 0.989651012044802 0.999999990106641 4.941856114011432e-87 3.289357274685566e-44 9.893358975265615e-09 0.02133007363282709 9.523382313895334e-10 0.9786694131705241 5.12244310555465e-07 1.671415632100506e-29 4.872359702954422e-14 0.9999999999999513 3.755166456872789e-35 0.9999504984498471 4.950155015294467e-05 6.127440565450188e-86 1.09862816003369e-23 0.8584454809372642 0.1399399047982209 2.944105288867409e-10 0.001614613970104047 4.239599749417364e-06 3.850148249621736e-06 3.833873559048788e-22 0.9999919102520008 8.4922193865008e-17 0.8773943543059346 0.0197474767791737 0.1028581689148918 0.4646046612226324 0.5352518401974133 3.314674306527726e-31 0.0001434985799543594 0.5813644690051097 0.4024415660470699 0.01619396494782024 2.225625991669792e-245 0.04322421545759889 0.9546311166248206 0.002144667917580474 6.432070622725113e-115 0.3055062625975033 0.6944937229197432 2.774154819603419e-09 1.170859866052201e-08 1.031536635120514e-05 0.0003175644669398233 7.790295838836777e-34 0.999672120166709 7.980259774440822e-33 0.5918862115654072 0.3806101118223965 0.02750367661219629 4.241927202493718e-05 4.223212202382194e-16 4.996145482292431e-12 0.9999575807229785 9.421638495342212e-16 0.4604636460985738 0.5349957712138576 0.004540582687567577 0.9962861571902899 1.307745894949012e-09 2.741903130830045e-13 0.003713841501690155 1.781247115187774e-15 0.2801644007967823 4.237027880640832e-16 0.7198355992032155 1.674156055628669e-24 5.913972273915312e-05 0.6032765381442219 0.3966643221330388 0.007510640485381978 0.0001258069965695682 0.007650152231682965 0.9847134002863654 0.0004183105135980084 0.03124714106519954 0.4195074590406406 0.5488270893805619 0.82997760268861 0.0670008175103893 6.735994376534095e-05 0.1029542198572353 0.9996620006350913 2.601541218191791e-06 0.0001280627197169086 0.0002073351039737516 2.322930256069029e-06 0.7342491895934957 0.001086760752326858 0.2646617267239215 6.349620986475747e-24 0.01959579027391767 0.9788614624835981 0.00154274724248423 0.0004058077934178936 6.578257881422297e-07 0.7105819028287201 0.2890116315520738 0.9975668853518536 0.001905670526623387 0.0005265743083527544 8.698131703399005e-07 0.6146933264052317 3.01570611211641e-11 0.3439904849678345 0.04131618859677679 0.999981884287358 1.748146334028176e-05 4.225663678478443e-08 5.91992664986853e-07 0.3093095691642361 0.05581132506160835 0.6348791057741555 1.555710771513656e-56 0.6222407018701589 5.952452815638338e-07 0.3777587028845596 2.281641716573385e-61 9.153951130915859e-07 0.1864606249403084 0.8116358260607427 0.001902633603835783 0.01981588962965638 0.8933259617052841 0.002224441484914165 0.08463370718014541 0.05203268060315348 0.5179917514042206 0.4299555778562152 1.999013641083126e-05 0.9615522687693315 0.03749327018582851 2.356923239159015e-14 0.0009544610448162737 0.2324320939636905 0.7625336262329643 7.439146726196511e-62 0.005034279803345204 0.8224228733508078 3.385867576323448e-20 0.1144311377568206 0.06314598889237169 0.1948324066240705 0.7735276468653942 0.01327983633088107 0.01836011017965412 0.2320961202417884 2.861662307764898e-08 0.6646159909312593 0.1032878602103292 0.001069600211490944 0.05377215406930134 0.924852733949482 0.02030551176972573 0.01164081857154939 0.723858621609819 1.118407972994054e-09 0.2645005587002237 0.4028340043958311 5.586020196226262e-06 0.08129733067075427 0.5158630789132185 0.4520712663469327 0.5479284882754376 7.523689745799859e-09 2.378539401050931e-07 0.05871174749091313 5.820709771226239e-49 0.9412850476575193 3.204851567492569e-06 1.172298405644002e-06 0.1026141085163335 2.098430159785377e-15 0.8973847191852589 2.003873203716018e-07 0.05896705915503329 0.03252447226445626 0.9085082681931901 1.380604795430433e-07 0.9573795303515384 0.04262031500486026 1.658312184526113e-08 0.1545375323995643 7.561200906628165e-11 0.006106619588231293 0.8393558479365923 0.0002159621051072492 0.002563080924551329 0.9971993962307528 2.156073958859842e-05 0.009895940085169287 4.920911409478151e-06 9.527728457041018e-05 0.9900038617188509 0.9999989019930526 5.264140893139076e-10 3.495340738851333e-30 1.097480533223722e-06 0.0002780585753556303 0.09492150097381993 1.293818284416122e-06 0.90479914663254 0.8948532148579521 0.02802073245236593 0.06764227952928673 0.009483773160395134 0.9999556367637713 4.297099750318346e-05 4.288669886382614e-07 9.633717369157831e-07 8.960609328751161e-07 0.9999990553847338 5.588902512264153e-54 4.85543332743269e-08 0.9930257311250991 0.006974268874900892 1.469889826986172e-46 8.270858260327396e-34 9.086657980244026e-07 1.428407613914149e-24 0.07257534542357459 0.9274237459106274 0.3985251132024866 6.911253789118424e-08 0.6014213585183378 5.34591666378209e-05 0.001361483768334184 0.02645748820047002 0.2790598764218394 0.6931211516093563 5.60708497851579e-15 8.426594842250914e-05 0.9969467563037652 0.002968977747806761 1.346531347311325e-05 1.392479418245106e-09 0.9999864848171556 4.847689178937145e-08 5.416711094768401e-09 9.771381562915584e-09 5.134758437802736e-315 0.9999999848119073 0.5402678183840214 3.324074642827138e-32 0.4080638355243148 0.05166834609166389 0.4889551656180046 0.3530828193851318 8.893769701913113e-87 0.1579620149968636 0.002253976757355666 0.2875736422541658 0.005826916381838579 0.7043454646066399 0 0.02466054009908848 0.9630864025187228 0.01225305738218882 0.2509074140605903 0.6694092181369936 7.387385490364112e-16 0.07968336780241519 5.226179212826302e-06 0.9949713722961971 1.079743904745586e-07 0.005023293550199664 1.891813535039564e-08 0.203326363995934 9.174640053287282e-25 0.7966736170859305 0.994016082973454 8.185585017500189e-07 0.005983098468040991 3.179576596409483e-15 0.9999985966381436 1.403361856370629e-06 4.464845469421114e-130 5.971559973831358e-18 0.0005739146174835043 3.817373861422803e-06 0.8271551556788143 0.1722671123298408 0.5852851240132873 0.1916356977903563 8.205089470381443e-27 0.2230791781963564 3.08128756271656e-23 9.775380577024511e-31 0.2090786348373904 0.7909213651626096 0.9377128330602027 3.27890778736904e-11 0.03005490590116693 0.03223226100584147 9.276631918709446e-12 1.860121003292736e-07 0.0001909783294059574 0.9998088356492171 0.1392796153593847 1.969477646781195e-06 0.8607184151629683 1.877425398876722e-16 1.477525865364642e-21 0.4378047031947649 0.5621952968052351 3.254531333367656e-24 6.200056518842736e-08 0.001113777165799543 0.7003387881634405 0.2985473726701948 0.0003422738268100449 1.051290354543458e-19 0.8678721928574431 0.1317855333157468 0.0001640786363664913 0.2185487144631176 0.7812872049032715 1.997244369898943e-09 0.03053849348027746 0.0001696978229306002 0.9692918086962714 5.205670975883095e-13 5.161195035321785e-11 1.140414607453931e-13 0.9999999999477811 4.928184318824848e-13 0.9999385912914005 6.14087078193955e-05 7.800720208071316e-13 5.316736990256076e-107 0.4481969624890426 0.5455027154570983 0.006300322053859077 8.027753263749835e-84 0 0.8439971090762838 0.1560028909237161 1.308566793856149e-21 0.9813183597104426 0.0001131660231796516 0.01854867139763823 1.980286873949987e-05 0.3648010049942431 0.4668430977925637 8.176868134318444e-22 0.1683558972131933 1.692684588710796e-09 7.857984943220607e-24 0.9999999983073155 8.510539313945619e-17 5.854529006284049e-05 0.9948454579483152 0.005095996761621872 2.141743628458883e-24 0.07154640343781538 0.4869230762604606 0.4415305203017241 4.255328233048083e-20 0.001667176668514807 2.819883505948012e-29 0.9983109467684975 2.187656298759442e-05 0.3991934217361773 0.5984516910008144 0.002148293751837947 0.0002065935111701861 0.001175665790968213 0.0007209077918986315 0.00113366486705925 0.9969697615500739 0.001378117799142103 0.9985253884633929 1.173155938052976e-12 9.649373629186838e-05 0.02970345067647779 0.9702965493233118 2.102104225166679e-13 1.828502950644016e-16 0.002770012048672808 0.9275704320913642 0.06965955585276942 7.193454693552146e-12 1.157019905667004e-23 2.250159223131815e-07 4.016951431369221e-95 0.9999997749840777 0.8058787202815715 1.217404285417378e-12 0.1922254595475938 0.001895820169617229 0.003752621395583616 6.622831544721124e-06 0.6331257207123161 0.3631150350605556 0.9885097467870855 4.503428310035517e-10 0.0114902413130675 1.144950415576572e-08 0.02291233358702827 0.499957748869353 0.4771299175436188 1.34742320470437e-27 0.04549765754996348 0.0004268010399254534 5.135968968080184e-27 0.954075541410111 0.5595928006698934 1.191122880445444e-50 8.532688869264883e-06 0.4403986666412374 0.01433430095125852 0.9856653870133457 7.903163978669895e-49 3.120353956964321e-07 9.274565002013671e-55 0.9999976693937097 2.330605718918241e-06 5.713496287677208e-13 1.299872830611722e-08 0.5762679019425393 0.3595320570487029 0.06420002801002979 1.183270034652637e-35 0.9999951074762229 4.892523776607701e-06 5.816992725102174e-16 0.8489679475211753 0.1412916829784691 1.077854306271168e-10 0.009740369392570163 0.9972883708007532 1.236001232795668e-79 0.00271150956106401 1.196381826752314e-07 1.270478337358111e-13 0.9999999963235333 3.676339639090985e-09 1.328907468323493e-20 9.791162775373227e-09 1.466540216505165e-98 3.827574025417715e-08 0.9999999519330969 0.9998765802050831 0.0001232566084906843 1.81105036895127e-08 1.450759224972874e-07 0 0.7886864924914208 4.434612333227412e-16 0.2113135075085789 0.03199383418238221 6.748787906475326e-07 4.433526581503727e-69 0.9680054909388272 0.10515400111622 0.0001062344386212715 0.1964475825702738 0.6982921818748848 0.4631398516075145 0.03411078875488539 0.5027493596376001 1.437860719036775e-61 2.392465736912152e-17 0.9909100834884564 5.461125525187665e-34 0.009089916511543589 1.053879522521859e-17 1.655528445064192e-08 0.9999999834447155 1.961463765793497e-212 1.057356488763079e-08 0.7491080757743344 5.847085741462248e-06 0.2508860665663594 0.710749233751118 3.619920798987988e-08 0.2892497169470516 1.013102622513885e-06 5.345905300946588e-15 3.873114812210459e-11 0.9976127627808289 0.002387237180434665 0.0316258411315669 0.9654710047215729 1.403001539311668e-176 0.002903154146860328 0.9968386230031887 1.612432135708477e-07 0.003161215753597644 7.762926089026347e-30 0.0001473902679705643 1.403572639550306e-05 0.09731459680749113 0.9025239771981428 1.878094010378331e-13 1.478424693564135e-13 0.9999295109353892 7.048906427516188e-05 1.904365582049552e-09 1.457180264879839e-05 6.880201041086024e-12 0.9999854262861054 6.412640218917388e-36 0.3687895418498379 0.6311032316327726 0.000107226517389433 4.788895315023399e-16 0.9999999999994309 6.475540759368412e-190 5.68639425371477e-13 1.653247817369808e-19 8.303218384101088e-06 6.90129946426011e-28 0.999991696781616 0.09526233597526912 1.266298557245899e-06 0.0004747520517562942 0.9042616456744174 5.410133627940062e-102 0 0.9118326232372035 0.08816737676279654 0.7916353156901171 9.284126317727881e-10 0.04294807200449288 0.1654166113769774 1.037252541370754e-05 2.10927333515355e-05 1.213703930149915e-07 0.9999684133708419 0.005483679462549139 7.757004708172152e-14 0.00215562702623873 0.9923606935111347 0.9642324042542397 0.01221769463684738 5.79977809413511e-05 0.02349190332797169 1.89055994040368e-31 3.706631950416797e-24 0.719468876909206 0.2805311230907939 0.00356751341438719 0 2.216535062533838e-07 0.9964322649321066 8.264232566002739e-14 0.4010331543538774 0.598966845609273 3.676696943473423e-11 2.100807569436584e-05 0.9991169021699384 0.000766896041875473 9.519371249164048e-05 4.447818198140281e-42 8.135542597721305e-17 0.05652562294805537 0.9434743770519445 0.01330863292639745 0.9099690098091541 0.001570388758809602 0.07515196850563877 0.006529444847330557 0.01590190808564614 0.9775686470670233 1.040989718683829e-141 5.544424736194387e-21 0.0564570037202858 0.9435429962797027 1.15589928856158e-14 0.003134849655570223 3.394078798051919e-10 0.1334860928137639 0.863379057191258 0.9906760773449241 0.007479265163331023 2.548609997686613e-05 0.001819171391767964 0.0001155014192014188 0.5465710137355204 0.4533134848452781 6.496522207668596e-248 5.489556467002058e-21 0.9999896756144993 1.032265968612694e-05 1.725814530126543e-09 0.9999999508882166 1.916579730975371e-25 0 4.911178342596265e-08 0.007930139758314241 0.3184670736918485 0.0862790146220843 0.5873237719277531 1.708217235920353e-42 1.16161458192378e-05 0.9606957979755926 0.03929258587858809 0.7671622094248025 0.2328377905751975 8.428687346565622e-37 1.433945948962005e-28 6.363435211101238e-08 0.05656159304849151 0.9434382240107472 1.19306409206103e-07 6.857452233358889e-17 1.311585185023511e-05 3.41300191569629e-20 0.9999868841481497 1.97082072717245e-06 0.1979587673390855 0.3760424913851443 0.425996770455043 0 1.165396126455208e-116 0.3030622883307814 0.6969377116692186 7.996288710945186e-05 0.9954361147067547 0.0001217607541831675 0.00436216165195254 0.01837567611145924 0.7465115206414851 0.2351128032470557 4.147715795525001e-17 0.05006817340343556 8.92033774802747e-48 0.9498928046081174 3.902198844699627e-05 0.167344774291699 1.430921278381867e-08 0.0006303578256680443 0.8320248535734202 8.770744557150449e-10 0.860520330418324 2.606449048942802e-20 0.1394796687046016 0 0.08547614155446767 0.04888601813763047 0.8656378403079019 4.981283403767965e-37 0.0001859459665189967 0.01004302965610857 0.9897710243773724 0.3772614040766244 1.072694005235632e-05 4.921939674372142e-06 0.6227229470436488 0.0002786083885888317 1.388338340724841e-18 8.5828171993445e-53 0.9997213916114113 7.296634917946486e-107 7.964962220620511e-199 8.421442075954865e-05 0.9999157855792404 1.577809809602532e-17 2.003659754342493e-30 0.9998313368027035 0.0001686631972964352 7.69476628214611e-05 0.139820720923333 0.02036165013482539 0.8397406812790202 5.555127493451431e-06 1.798787441313431e-05 3.896544249464804e-06 0.999972560453844 0.007759538987418037 2.433634106862572e-27 4.99868095166608e-54 0.992240461012582 0.01852206163228202 0.003445148928177886 0.01862302397570783 0.9594097654638324 0.5253965701057592 0.002713905558781173 1.418589472008453e-06 0.4718881057459876 0.006987125476776387 2.105557254654012e-12 0.9930128745211181 3.273636616846224e-17 0.000618921884949567 0.9796180742299745 9.103604254932424e-15 0.01976300388506673 4.390196862935353e-16 1.386541458116675e-10 0.999090330877361 0.0009096689839843539 7.068827196635369e-37 0.000153304900703812 6.734400202595302e-05 0.9997793510972701 0.007837557209490248 0.0008154556369710574 0.7004647236396178 0.290882263513921 0.002320590914095693 0.9976778717555109 2.348278251585897e-39 1.537330393264941e-06 0.2910312306860314 1.366582088767169e-05 1.192532795877378e-12 0.7089551034918884 0.04892642858431784 0.8902096752333416 0.06086313757326056 7.586090800231285e-07 0.9999999542027427 1.185353821962807e-22 4.118235927160733e-73 4.579725733068491e-08 0.0001311897526138519 0.9691012449975985 0.02527953447771564 0.005488030772071867 0.001656042281339988 0.6927758987403045 0.3055680487932154 1.01851400887537e-08 9.15927372351652e-07 1.888047666837265e-06 1.097162932641964e-43 0.9999971960249608 8.92856099591892e-08 7.245851449632341e-80 2.561548926560902e-13 0.999999910714134 0.001032554399687452 0.04889832928894946 0.008624225097480736 0.9414448912138823 0.4375876167332933 0.2424904402700534 0.1810468547369448 0.1388750882597084 0.963802760056702 0.000375698455046682 0.0001405476615335937 0.03568099382671795 0.9999999856899873 2.85533289679282e-20 4.646922782099283e-37 1.431001252992434e-08 0.0004998418904705785 0.189519986477906 0.7891283936506148 0.02085177798100856 1.999989559696631e-07 0.4987884827293791 7.002211322361309e-43 0.5012113172716648 0.0004566436131759701 7.492960868299761e-20 0.8273591559456498 0.1721842004411743 4.03110152227934e-09 3.556563814336717e-05 9.292957854887529e-07 0.9999635010349697 0.0005497626073381206 0.002743142218790956 1.931154517181592e-47 0.9967070951738711 0.009763821683244297 0.9902361783167556 2.373185759387451e-69 6.650089994923562e-33 0.0474383265357309 0.8064063857570629 0.146141647961567 1.363974563924451e-05 2.222881968721454e-31 0.00184678174015582 0.02411190892926547 0.9740413093305788 1.102848134994034e-05 0.008588630257443783 0.8537247410562386 0.1376756002049678 0.367306282352208 0.6326935434073976 1.742403935305576e-07 8.992114066152675e-16 0.002645216882119215 0.2084948553668713 2.30312404306122e-13 0.7888599277507792 0.08808616694481998 0.8933778250625986 0.01853600799258152 2.591582326598792e-18 0.8989875970810625 0.09375911483965006 0.004994785733570493 0.002258502345717046 0.1374727477026047 0.0241272765832329 3.09655238749634e-13 0.8383999757138528 0.002193229970153857 0.0006808331895625299 1.09760417430825e-34 0.9971259368402837 0 0.9976310344212684 0.002289037352164052 7.992822656747527e-05 0.02455530129275888 0.0001107008132044936 7.769491698881167e-06 0.9753262284023376 0.008368110007587866 0.9906485205517283 1.079863885625187e-09 0.0009833683608201091 4.015792752600827e-18 3.156970440165108e-67 0.9975036742902668 0.002496325709733134 0.06686017893196293 0.7199555487257919 2.453900126152083e-35 0.2131842723422451 0.8697994937521273 0.001579994404366075 8.882275616559161e-10 0.1286205109552792 9.325840576549745e-14 0.009864463759724468 0.9874134290631057 0.002722107177076594 0.7040582176108841 0.1638007272361511 0.1321409135727326 1.415802324117927e-07 0.00234113399477283 0.9740661693991274 1.024627893287768e-09 0.02359269558147186 2.787978533813113e-16 2.094805275729329e-10 0.999995928005299 4.071785220162482e-06 0.01325761002676692 0.007138092404967609 0.09120900607537549 0.88839529149289 0.00677416012680384 0.9224702928848751 0.07075554403672688 2.951593983313379e-09 6.916693080185297e-97 8.046085628040592e-07 0.9913972666136418 0.00860192877779538 0.002056543755662585 0.8377662323028827 0.1362828100356172 0.02389441390583737 0.8468723614177409 0.1520749940212192 2.109110988088996e-08 0.001052623469929902 0.4601799661317594 0.5398200177509512 1.608865526364219e-08 2.86342639845782e-11 0.9999968937133366 3.105175809364727e-06 1.110844532571798e-09 9.522369274225176e-15 0.1815776071490318 0.8174182310328126 0.0008824361488759169 0.000121725669279766 3.904925440303143e-12 0.9990168954547641 4.96322959503931e-15 0.0009831045413261693 0.9978416476536425 1.891123263923265e-31 0.002158351809185648 5.371719417480345e-10 0 0.8769047431169724 0.1230828097500962 1.24471329314763e-05 1.558366024125163e-07 0.9773292366045144 0.02047454932758742 0.002196058231295647 0.004557894701590418 0.8159454892506547 1.382166973211553e-06 0.1794952338807817 6.795069729005419e-06 8.464221352618763e-08 0.3187436931669863 0.6812494271210712 0.009995361289193875 0.1370027728691618 0.0004825577697640457 0.8525193080718803 4.721964340558701e-05 0.003148983301599673 0.9968037970545656 4.292338386587414e-13 1.711506664943224e-65 0.9999450487861617 3.206571184442802e-18 5.495121383806497e-05 1.010464946246145e-59 0.9999725265373213 2.74734626786523e-05 7.44335289434024e-17 3.855116033006054e-07 0.9990489219817441 3.947914380850335e-14 0.0009506925066131054 0.1828048412695545 0.8168515783992799 0.0003434570813726526 1.232497929524595e-07 0.8574238302091914 0.142574205146136 2.593036396565531e-27 1.964644672536116e-06 0.0002037879168319495 0.99979616775272 1.770608103879496e-14 4.433043051417768e-08 0.0001685572988644729 0.01606362084274867 0.01295711779010127 0.9708107040682855 5.55609640300042e-08 0.0004968203570324672 0.9954010432616933 0.004102080820310178 0.1328251216654047 0.0009867115230936803 0.8652543748833933 0.0009337919281082743 9.843596824696489e-05 0.5419263921536285 0.000230653906521628 0.457744517971603 4.203663979443174e-13 0.4094658949436545 0.5645228857553337 0.02601121930059148 1.269890248308511e-10 0.0244105941195903 0.9755893630109548 4.274246599873918e-08 0.9554227311526885 0.04316767325273637 8.750353696319917e-06 0.001400845240878817 0.9999049068044169 9.44890496718376e-05 1.094206034451187e-10 6.040364907010515e-07 0.1084033584835305 3.697343748732893e-35 0.3114952315750384 0.5801014099414311 0.0008115517948414152 0.1116330529814145 3.920526477252419e-05 0.8875161899589715 0.9586757728909304 6.188439559849695e-60 0.04132422058055296 6.528516569270621e-09 1.193259220890052e-07 3.149486496655413e-09 0.9956916726661454 0.004308204858446089 1.522796202964701e-35 0.9999819722844437 1.160336609673737e-85 1.802771555618986e-05 0.3710552386739364 7.798061924998305e-35 9.789630257300178e-29 0.6289447613260637 0.1293510128263697 1.635034850780433e-05 4.620097461480519e-06 0.8706280167276612 0.2366239310702941 1.702352362542558e-07 0.0003225181266950355 0.7630533805677746 0.003713560098743661 3.89929154880318e-06 0.0008611035963509805 0.9954214370133565 0.3873428094854742 0.6126548761042888 2.314410236300603e-06 6.098809202801849e-16 0.9469729247577173 0.001250269410542945 1.059560823290193e-07 0.05177669987565754 1.759646114718975e-06 0.05933756119020341 1.555512007563297e-14 0.9406606791636662 0.9985608588369015 2.107784148435732e-05 5.180357595125853e-10 0.001418062803578472 2.149580261344393e-07 0.1125357170267855 7.574487006496755e-11 0.8874640679394434 0.2745710940046001 1.725409745932403e-06 0.0002580138417887711 0.7251691667438653 4.963724010805563e-06 0.01670022151288685 0.9832948147053453 5.775713046100715e-11 0.9999995811847594 6.825914081024721e-29 4.188152406559242e-07 1.817986081099022e-47 0.002882232409787415 0.9922134740404316 0.004898968070384304 5.325479396573041e-06 1.017802121972004e-10 0.00269832853681029 0.671993332835338 0.3253083385260715 0.07553680134800105 0.7402084617131096 0.07349423771489376 0.1107604992239955 0.9987586873847544 4.906628694871615e-06 0.001236405986550869 3.643007070796301e-18 0.9999920098145013 7.938896293909084e-06 1.64693016037005e-27 5.12892048862072e-08 4.722996309636905e-08 9.936529623973927e-222 0.9999999522606396 5.093973325345064e-10 0.5449095416443023 0.3452670070076276 3.254882329969811e-17 0.1098234513480701 2.661007546656693e-28 0.000331683259502069 0.2737356549557552 0.7259326617847427 0.09656647091643689 0.06586196182264344 0.05319086220383111 0.7843807050570885 2.617684128441218e-08 1.452999210053081e-60 0.9976505211970936 0.002349452626064859 0.001368816704955835 0.648325267513287 0.3503059157817571 1.796444934643477e-57 1.320110518275018e-11 0.9999989438814026 1.056105396260946e-06 1.729254705191435e-56 0.9960679551700673 1.919311107505092e-06 0.00393012551882521 2.200063215072254e-26 0.0362456290942007 0.6623249188214969 0.3014294520843024 1.905108690017818e-24 0.1739566180072118 6.90385425566405e-06 6.779219616365199e-31 0.8260364781385324 0.9999842801058196 4.610001086501332e-06 1.110989309387065e-05 5.023990071238553e-72 0.3822292417943647 0.001071520661568108 8.611533949431567e-07 0.6166983763906722 5.805903128174011e-06 0.4182526521688116 0.1676312092736633 0.414110332654397 4.676783984890444e-12 0.9437206507833856 0.05627934564873469 3.563202663552171e-09 0.9440725802103478 6.699793965814484e-05 3.012957885475234e-12 0.05586042184698123 8.17689170755986e-38 0.0151317366579867 2.91493423776803e-65 0.9848682633420132 0.02473600022597487 0.405559380608003 0.484387119023622 0.08531750014240026 0.998952650332912 4.432174848891911e-34 0.0007021213551799373 0.0003452283119080527 0.04462669152588496 0.9240205253738204 0.03135278310029469 4.474174390686259e-87 1.235753439197772e-09 0.5449742595067121 6.707457443497004e-07 0.4550250685117903 3.31526733683582e-27 1.224176138254415e-17 0.2877312224591029 0.712268777540897 0.4922883428068388 0.2750369054650857 8.201851110311564e-203 0.2326747517280755 4.525870460007581e-13 0.4293617564589204 1.266362911850441e-10 0.5706382434139907 0.1156549237282835 0.8839472944523912 0.0003977818193250787 1.495964820531418e-16 2.245927632010962e-53 0.9999962452226925 5.899122474082381e-11 3.754718316460317e-06 0.7013297109901262 0.004165013305329104 0.2945052757045239 2.083262294917823e-14 8.938557751566112e-06 0.3638813001218548 0.6359803435621834 0.000129417758210296 4.529026118668326e-07 0.003663724640023839 2.206678287391483e-06 0.9963336157790769 0.06980167632383606 0.9301858449460851 6.57341197530101e-06 5.905318103646154e-06 1.198457122592249e-10 7.082792648899309e-08 0.9999950847519932 4.844300234681484e-06 0.002004485290401803 0.2278960425777825 9.333187901566584e-22 0.7700994721318157 0.001497719664411072 3.576608497331612e-21 3.663792394313073e-10 0.9985022799692098 0.03414656383673877 0.8919683658839248 0.06128355760427998 0.01260151267505635 0.02348905956749954 0.001033455403092991 0.9248805813124108 0.05059690371699667 4.02311040494287e-05 0.275176235219539 0.6581022153681715 0.06668131830824008 0.9891857009188028 3.106375955045317e-16 0.01080430255625095 9.996524945996024e-06 2.283967577805936e-08 0.08303948104989628 0.02612744146936013 0.8908330546410679 0.9135036558062506 4.081687306518227e-06 0.08649226250644296 5.441183994226579e-20 2.941949398827537e-24 0.09099243070736385 2.650944045041573e-13 0.9090075692923711 1.169270646831121e-52 2.246837889564538e-06 6.291264097898757e-09 0.9999977468708463 1.090914494700481e-07 8.112744249699673e-23 0.2752441878423561 0.7247557030661943 1.177448404131032e-07 7.245269970875507e-08 0.9998659060119974 0.0001339037904623635 0.8524140980330686 0.06581721004852958 0.08176869190723349 1.116828225192859e-11 3.285666675087887e-63 1.149867433228136e-111 2.82577138826704e-15 0.9999999999999971 0.7985397541869028 6.371545047580911e-13 0.1620850687681711 0.03937517704428896 0.4133492007341922 0.1108296504799375 0.002327170497457206 0.473493978288413 6.55541602325971e-12 0.001729894975563091 0.9978750444547834 0.0003950605630982512 0.01152081240725965 5.563668048794594e-12 5.994760536725772e-31 0.9884791875871768 0.7008249323065042 0.2991750676934956 1.116026808627528e-22 1.071539479839928e-22 0 6.616892285583902e-06 0.02102628127872317 0.9789671018289913 0.4120253030277825 4.182162032561605e-10 0.1521580390770935 0.4358166574769078 0.3467902183590576 8.910629769907762e-51 0.6418998185183387 0.01130996312260382 0.004430681989863599 0.9910816893618809 0.00343179302433942 0.001055835623916051 8.851243225779754e-06 0.008649270558720022 0.006160137395113634 0.9851817408029406 8.148297618584456e-08 0.2392580048337453 0.7607291189557543 1.279472752433029e-05 0.4614565680804523 3.735104173132602e-06 0.5385396968153746 1.889137763899074e-23 0.5763475896034924 1.10755148004344e-07 0.4224638488952993 0.001188450746060274 1.178424916465828e-22 0.1200743741629171 0.8799256258367324 3.504306135744479e-13 2.599429776511103e-10 1.030885075868702e-115 0.6635732474591036 0.3364267522809533 8.187745051805324e-15 0.9999962747557061 3.64694084848997e-06 7.830343733546967e-08 0.9957394155724741 0.0009828179099375743 0 0.003277766517588262 6.81895936875261e-26 0.007958587067512291 0.003173921625018482 0.9888674913074692 0.0003918752803554342 0.9224763340631524 1.138999903966477e-08 0.07713177926649294 0.5951680422794597 0.2275333676068338 0.001887026264770622 0.1754115638489357 1.328972371516079e-08 0.3901184028395106 3.110301695196931e-15 0.6098815838707624 0.9693379399357014 0.007902401327376973 7.300392856548327e-09 0.02275965143652876 0.5985831231184001 0.4005989655562212 0.0008179113253785789 5.339560807246063e-26 1.793620490355656e-64 0.41242087937757 0.58757912062243 3.306764311198053e-25 0.003178566746333272 0.0001928803697280285 0.4479949639117298 0.5486335889722089 1.195127007074393e-05 1.722701815557502e-13 8.552919384508378e-06 0.9999794958103725 0.2057581777913534 0.007060393356261618 4.730625982924619e-06 0.7871766982264021 0.0002782519756449263 0.01385160105221564 0.9542614791110063 0.03160866786113314 0.0009886035361785139 0.6872829360757974 0.311728460388024 1.01307794111099e-16 0.0150326880631723 0.1631318901602321 0.8151642704221519 0.006671151354443928 4.966779418471741e-09 0.09249939272816406 2.332087583836987e-10 0.9075006020718478 1 1.781119682542112e-104 0 3.094804060370005e-21 1.347607758197903e-05 1.469324612275893e-05 0.991053317952487 0.008918512723808232 7.063846906344011e-06 1.167950618007353e-08 0.0001308364693579617 0.9998620880042294 7.179424047116518e-13 0 0.9999999999470351 5.224679051364891e-11 0.01735599704274852 5.677191711529966e-34 0.9826440029572515 1.908572957885343e-44 0.1464021214137079 0.178450942306125 0.6252076624389061 0.04993927384126093 0.06748762893452366 0.0001286586833764817 8.32765027191741e-31 0.9323837123820999 0.6870396687348388 2.017059061736397e-80 0.0009462244263737327 0.3120141068387874 0.001185377158463911 9.811148228293415e-08 0.0003596065259104337 0.9984549182041433 0.9940981735208002 0.005901826478613947 1.722323413514936e-14 5.685683175316308e-13 3.789731648553799e-05 2.783797001309393e-07 0.9999618242855663 1.824812989554676e-11 0.05384770918303335 0.8402484566141152 0.1059038342028488 2.73971107715992e-15 0.9827479278488311 0.01634275329951766 0.000909318851582651 6.871084795386296e-14 0.0008377085717086925 0.5055747707830321 0.4864069909683099 0.007180529676949291 0.9846864806352911 3.524642195700225e-08 0.01393658037431418 0.001376903743972958 0.01407703408753168 2.005214598791681e-05 0.985902913650836 1.156442259833279e-10 0.0002685526370076004 3.312960875511285e-05 0.9989335225399225 0.000764795214314764 0.001102591242595603 1.06985901841913e-06 0.3421737351290416 0.6567226037693444 0.002727400576376191 0.9951063758923377 0.002166212218544701 1.131274133888802e-08 0.001154334610513015 0.9962024894467634 0.002628449899966987 1.472604275672595e-05 0.9582410267457078 1.54220978190639e-21 0.04088786301852001 0.0008711102357723226 0.2041136469011727 0.08786514030461719 0.03607637405682274 0.6719448387373874 0.5297677428416412 3.532882917710646e-13 0.4702322571580054 2.331583618190887e-27 0.002202841192546172 8.168122371573194e-158 0.9939485270718296 0.003848631735624116 0.0001364571564670737 0.8214372183416823 0.1784263245018506 2.237772157073061e-84 1.648951335830574e-05 0.05316414772500919 0.9465057576571316 0.0003136051045008486 2.332903369054009e-06 1.181550496655971e-38 0.9880234472135249 0.01197421988310603 6.572554704992142e-05 9.472347532189008e-05 8.305105737896233e-08 0.9998394679265709 0.7212088893401846 2.343950243044475e-05 0.2787676691645356 1.992849303996335e-09 2.502631261352252e-17 0.0002244002457274843 0.0001946997069389661 0.9995809000473336 0.001326252113051511 0.01671111906776731 0.9819626288191812 2.167694380131029e-21 0.6612294225360081 0.1982832168528599 0.1404873606108215 3.103693108060042e-13 0.9999999046986389 9.425197997040056e-08 1.049381072673767e-09 1.38951885613051e-19 0.999961933879114 3.80275568769111e-05 8.709728295682063e-21 3.856400891880537e-08 0.7766944665883615 0.002594309047394264 0.2109192763417586 0.009791948022485682 4.364219980522815e-10 4.960880430431591e-21 1.301059310114864e-08 0.9999999865529849 1.140655117693861e-25 0.4311354272953883 0.0009239365948558759 0.5679406361097558 1.636532379619181e-06 0.003689056478350506 1.301089684057821e-07 0.9963091768803015 2.683473400597989e-15 0.01104409003858752 0.005548761595947613 0.9834071483654622 5.580299913804587e-41 6.456021803745445e-06 0.9999935439780819 1.142503724525233e-13 0.9962745267834495 0.003215253549354659 0.0005100993245207091 1.203426750630435e-07 2.047935998919135e-27 0.9628080605191272 0.03648265006279811 0.0007092894180747551 0.00152743535936389 0.9984725646406361 3.498261447833973e-161 1.282287251204067e-28 7.625784917829105e-17 0.1087498286922212 0.8912440653914657 6.105916312967842e-06 0.1526879444880063 4.136340976279907e-06 0.8473079191710174 1.628267614401907e-79 0.08462963678189998 0.7574464627814124 5.287541324465729e-19 0.1579239004366877 0.9114150347044626 0.08008031981378687 2.345931566063861e-05 0.008481186166089862 1.206519318790677e-22 2.456920240745643e-05 0.0001526431254809512 0.9998227876721116 9.775787494994463e-05 0.04458803173225851 4.128223219796442e-09 0.9553142062645683 4.640096341947751e-08 0.06628628858016522 0.924085156272202 0.009628508746669243 1.219832663020891e-33 0.01401615718125133 0.8025139285430437 0.183469914275705 0.0002213089402062976 0.01305431085981447 0.07776456583929936 0.9089598143606799 0.5286322228153332 3.112482094686593e-05 0.47133665236372 2.133737404554791e-31 0.239684523076756 2.082644913473773e-25 0.008702244704256833 0.7516132322189871 0.007440719292448328 1.45404430140311e-10 0.003962697168471452 0.9885965833936758 0.002894556835173174 3.102326544070827e-09 0.960495946341917 0.03660949372058334 1.552268196267306e-15 0.9342957846047428 0.03504439843180481 0.03065981696345066 0.619914631482412 0.006224765501337362 0.01470160117097981 0.3591590018452709 0.314998457451332 0.006079468882406734 0.5755772920182917 0.1033447816479695 0.9285419340502399 1.174089760238592e-28 0.07145806594976016 2.129230147350847e-25 0.001207048783298625 0.01791482793712398 0.980878097312237 2.596734032777253e-08 3.280060013285837e-14 6.589007926256235e-14 0.9128638518403618 0.08713614815953948 6.419868729768704e-11 2.080152866067532e-10 0.2396970831579104 0.7603029165698757 0.2023241474253348 4.216732178421495e-16 2.457684542662967e-12 0.7976758525722071 0.0005624940361653938 0.9661093112197858 1.818113838372382e-15 0.03332819474404702 2.398563322250747e-11 8.036453137911123e-78 0.9999500827942372 4.991718177704129e-05 0.000340892028981831 0.9349345615992076 0.06468556799577391 3.897837603661295e-05 0.7729105831891772 0.2267954478789661 0.0002748790303071926 1.908990154959518e-05 0.9998674386950968 9.075047352155107e-06 7.286781842555758e-22 0.0001234862575511888 0.997748854006218 0.002251145993777522 4.489864616760089e-15 1.49396342341788e-17 0.9676003474967696 2.991379383869671e-07 6.62012423414871e-06 0.03239273324105791 0.07771292502015653 0.05284405308007838 0.01267361571372925 0.8567694061860357 2.473339259057915e-11 0.9996560702905892 0.0003439296846773112 3.083725532934795e-37 6.067551673665544e-05 0.3217895228909474 0.0004785811053016344 0.6776712204870142 3.112696811017616e-14 0.8951918837867596 0.04371382565299819 0.06109429056021107 0.000255352097439378 0.4421972417371295 0.4970771054837806 0.06047030068165044 0.008708835323907324 0.004699646794928156 0.0003615397759272902 0.9862299781052373 0.001729392868780126 0.9969209730531183 0.001256258368399647 9.337570970190433e-05 3.237301703718386e-08 0.01687870820829672 0.3612419535151798 0.6218793059035064 6.874846270576013e-05 0.9706278837970971 3.247657048339555e-07 0.02930304297449227 0.2109502140110521 6.059789320670915e-08 0.001642547925701786 0.7874071774653529 4.707311805805737e-12 8.382638394182834e-21 0.7741872426870101 0.2258127573082828 2.91259518768e-22 1.479699116054605e-162 1 4.409746856239148e-41 0.001981465852410916 3.626888389141752e-35 3.003561925985928e-14 0.998018534147559 0.8347056183914143 0.1651587094073023 0.0001356452095873683 2.699169591779915e-08 6.073221867177279e-33 0.99650368324558 9.487829235371604e-34 0.003496316754419868 0.9999999871166462 8.117730547374281e-19 1.288335315575036e-08 5.999664937874094e-16 2.295102070418786e-12 3.985993566629027e-32 4.471946052107808e-05 0.9999552805371839 6.366315076154199e-05 0.9198032174090617 0.08013311938159749 5.857933797295017e-11 1.005672364610152e-21 0.9999999999990735 9.264128951902743e-13 3.03131072318337e-26 0.0004640357986637471 7.980496567276015e-16 0.9877134330909256 0.01182253111040975 0.7190591920881118 0.2770195759616998 0.003340999240320805 0.0005802327098676456 7.632042640401033e-61 0.999011999346357 5.94406333175166e-24 0.0009880006536430617 5.355744433551792e-31 2.662368595840923e-06 1.913695688812636e-07 0.9999971462618353 0.9950648309193471 3.88035312768525e-15 8.876459081685178e-29 0.004935169080649044 8.837907196771713e-05 0.01102803329912292 0.9888835876288713 3.815391955098646e-14 0.03690168352356684 0.9473405919421468 0.001357230736719112 0.01440049379756727 0.02804822952816814 1.339317672201265e-07 0.001600130859908213 0.9703515056801564 7.412788909975956e-23 1.227312829185688e-09 0.9995136259138629 0.0004863728588241456 0.9999999999985476 1.452274592330681e-12 1.946060228510732e-97 6.309843283955753e-150 0.6145219726795152 0.3836901514414238 2.395696424437751e-11 0.001787875855104058 0.005925957788102456 0.001645953987285386 0.9924280882246121 0 0.006401001377768077 0.0689887287743698 3.16130142346855e-09 0.9246102666865607 1.714677534898634e-10 0.9999678680775905 3.213175094170003e-05 3.942011979602837e-35 9.690106408817173e-07 0.5188550420949772 5.103102319213828e-112 0.4811439888943818 0.03658077560488779 0.9634192243932126 1.899624316643765e-12 1.635879819570573e-86 8.761962311249951e-16 0.335951366948183 0.6593308428987109 0.004717790153105139 0.009186596141447241 0.1141695319689243 0.8764846272945644 0.0001592445950640339 2.016407689861192e-15 0.09059461646662444 0.8777773978092487 0.03162798572412465 1.837549011515588e-06 0.1117299162598356 0.8837890225666816 0.004479223624471184 0.9812648679591239 2.997187725473441e-19 0.01873468662086502 4.454200110285886e-07 0.6244741654419175 7.678448802333932e-07 0.3748455672023043 0.00067949951089804 0.9899842674213708 1.281911137969073e-18 3.926534708996857e-12 0.01001573257470266 0.1658926325328007 0.003616875506078128 0.04200480760436824 0.7884856843567528 2.168341021790494e-09 0.04278583355839435 0.040344121732669 0.9168700425405956 1.515141544261341e-22 0.8118771166838971 0.1840611121345005 0.004061771181602414 0.001069055821593198 0.0007927580390375378 0.9345489364988828 0.06358924964048647 0.935852072439761 0.06410462045407181 1.557459838544989e-11 4.330709059267192e-05 0.0005979462522161398 5.005656078351281e-07 0.9994015531709962 1.117973380365938e-11 0.9002959519310619 4.222358638568705e-07 0.02296000623225817 0.07674361960081595 0.03976595925755807 0.3918158298343518 0.5683975657469814 2.06451611086801e-05 0.0002044247281593908 0.8937462377706544 0.0001527655536285199 0.1058965719475576 0.2470341106565151 0.7489094819659632 0.004056372687598316 3.468992323344504e-08 0.7733597482472953 7.726302097736706e-07 0.08810241031038478 0.1385370688121101 0.0008297348726319019 0.9790021468972507 0.001994567358879219 0.018173550871238 3.702265452434128e-08 0.9999999629773371 4.589688675321034e-116 8.361700827365829e-15 2.656848518901034e-14 0.02482134290698177 8.602883175079827e-06 0.9751700542098166 5.119986339482185e-09 0.1889988710709586 0.811001123809055 6.56276732731274e-23 0.9739683645370719 0.02603159323892822 4.04356022103566e-10 4.181964393451977e-08 2.23968829463017e-10 0.008180780147110503 0.965602511111223 0.02621670851769779 7.455723340910035e-35 0.09581822641852626 0.09818847854120696 0.8059932950402668 0.661827433698493 0.292786189771897 0.04538637652960997 4.642206402290814e-110 0.0447021458036402 0.001029541080878124 0.3185682172127026 0.6357000959027789 2.711669318195803e-10 0.5548433234963931 0.4451566717056776 4.526762418605988e-09 1.202741571194181e-12 0.9961051397915462 0.003894013356675842 8.468505754050025e-07 2.603364020113293e-05 0.999973966359799 5.353030576961424e-30 3.252261567325216e-33 0.005736068076010616 0.9569752893100563 3.517700930063545e-12 0.03728864261041547 2.411630972549876e-202 0.9998102621876955 0.0001764027109124178 1.333510139191116e-05 6.510088852807442e-14 0.9988971649335061 5.659507903264292e-24 0.001102835066428804 6.486798507729832e-10 0.906408963740525 0.06542669152082377 0.0281643440899713 6.490987428571677e-08 0.9988184069310712 0.0008889223894208876 0.0002926057696335587 0 0.9920749191238918 0.007925080033843627 8.422645298251236e-10 0.731267855116856 0.0007308904013481663 3.147795931214901e-09 0.2680012513339999 0.0195029439262635 0.0007691643403160131 0.9796243997550448 0.0001034919783757331 0.002435567173303749 0.3928192441438538 4.382151807496078e-66 0.6047451886828425 0.2097404412670515 0.0738112206502525 8.027520593826024e-15 0.7164483380826882 0.9579313957223921 1.133794433283504e-14 0.03931715922765761 0.002751445049939126 1.701938332056427e-23 2.027560465718572e-17 0.02519576237980077 0.9748042376201993 0.05515375504015293 0.94484601578681 2.824305033012981e-45 2.291730369162147e-07 0.0001707807221274024 0.6585326040598676 0.1271219001029205 0.2141747151150845 1.054408887079572e-09 0.6922990166338474 5.871436826331195e-32 0.3077009823117438 0.9999359131137215 1.106424392289249e-48 6.408688627842811e-05 6.526331169931843e-30 1.989727325258439e-09 0.5998204975812499 0.001002094241727777 0.399177406187295 1.647487748018985e-49 0.01036551125233268 0.9883124902835803 0.001321998464087033 6.606251028256581e-14 0.001692704216425356 0.3709699379713164 0.6273373578121924 2.513372985177885e-09 0.5048335425992041 0.3858738972104088 0.1092925576770141 2.359136280357919e-10 0.2977163989334032 0.6995720540452506 0.002711546785432552 0.08239280828225855 0.5610335272977763 1.82470068012922e-23 0.3565736644199652 0.9998839776491257 3.197098940438757e-16 9.180961905554702e-05 2.421273181836814e-05 0.3596461413197187 0.0008751770311010008 0.6384892974192525 0.0009893842299278535 0.01451539032656271 0.9854846096734368 1.348079672921827e-49 5.569298508946093e-16 4.279532519124434e-08 0.03384957074124318 0.9646055552845836 0.001544831178847925 0.9593935257347848 4.613800917027315e-07 5.239891315884735e-06 0.04060077299380765 0.8764855380944666 3.303902598056516e-28 0.001656203864828086 0.1218582580407054 9.01041874324822e-05 0.9218977683231896 1.259891950867642e-09 0.07801212622948599 0.938500543889868 0.0003061575165210251 3.496104019673269e-16 0.06119329859361065 4.350573043125878e-05 0.003510286975264804 1.923514790699844e-05 0.996426972146397 0.9735738930618618 0 0.001184292524924777 0.02524181441321349 0.4961858349902268 1.946601147013673e-27 0.0005154218830898639 0.5032987431266833 0.008056882274954909 1.01796996398422e-06 0.9908710127175453 0.001071087037535855 0.3785804318741039 8.666463929296047e-20 1.908253606351078e-06 0.6214176598722897 0.0004108970727134082 0.9995887011461341 5.044322903470048e-60 4.017811525250282e-07 4.279827904256906e-20 8.425230184838637e-17 1 1.203843439328582e-55 0.05021365335687192 0.06017507183335523 0.8896112316018727 4.32079001463344e-08 4.235086526093253e-05 0.02141922961559579 0.002708447001274035 0.9758299725178693 1.438088753860713e-07 0.03515611422165372 3.481180144602586e-07 0.9648433938514563 0.5552529781044568 2.178493320662577e-07 0.3340795037798842 0.1106673002663268 0.000681384422694527 1.54881776571223e-09 5.45786821122971e-08 0.9993185594498056 1.394175629639656e-07 1.081828288790597e-21 0.1515710017574335 0.8484288588250036 2.701728315914503e-10 1.569212821827603e-07 0.999999794111435 4.869711000402632e-08 2.627001778017647e-37 0.5391303372319065 0.03753882008370538 0.423330842684388 1.44096193208685e-11 0.9586973070811061 0.0001062223729277433 0.04119647053155668 0.6806975998083302 0.3163954483128346 0.002906861368802159 9.051003289167427e-08 2.646941328576901e-13 1.792394941856896e-49 3.074755013569912e-11 0.9999999999689877 8.359446015242226e-13 0.8596821418680062 0.1403178581311579 2.025285655249648e-25 0.5424893968726954 1.549402279249695e-07 0.04937279508212559 0.408137653104951 0.0002423221619389019 8.627156732686269e-07 5.585607877774853e-08 0.9997567592663091 0.9993820738608713 1.120218593843582e-10 4.498782649020526e-63 0.0006179260271067013 4.817323998930389e-17 0.03909663120292319 0.9609033687966212 4.553888292373954e-13 0.1100037315449002 1.495855814080081e-25 0.8899962684550852 1.468301762940678e-14 1.673415191294615e-110 1.915159170955021e-19 0.8986255277888293 0.1013744722111707 8.503817370420008e-153 3.687240452249858e-128 0.5825161716428902 0.41748382835711 5.381112768211287e-11 0.9999992481828691 7.517633199075776e-07 3.824877326414684e-22 0.9615154242670397 0.005496085906566354 0.001474764667490212 0.03151372515890363 0.9414282723993986 4.50853471724792e-08 0.004627611109223065 0.05394407140603098 6.821093471113205e-10 3.347289550732992e-12 0.06531574620710023 0.9346842531074431 0.7849769099387824 1.831245233204716e-185 0 0.2150230900612178 3.22936828538909e-07 0.057644165558612 0.939128717932015 0.00322679357254442 0.001328559871057895 1.573026179779876e-12 1.027093691523468e-51 0.9986714401273691 1.889771388414836e-08 7.733867645936822e-47 0.9991772083663891 0.0008227727358969477 2.965497359222611e-06 0.004682226226371638 0.246408393037389 0.7489064152388801 0.9946818019893402 1.853036254726722e-19 0.005318198008762525 1.897264941083977e-12 0.9449451090792218 0.0007840532905262477 3.286545739477238e-09 0.05427083434370616 0.01644094029576797 0.000734730825682179 5.596526431342625e-25 0.9828243288785498 1.465818649975749e-16 0.4467679684165334 0.5532317735294117 2.580540547767305e-07 0.06449956077286836 0.1625788983446567 0.7729213714605335 1.694219413510267e-07 3.848576438838708e-05 0.9999532047861684 8.618201068612848e-169 8.309449443150829e-06 0.0002390949850009267 6.037587525380323e-08 0.9636382883224601 0.0361225563166637 0.2135743403014942 0.1581866880949065 0.6282389713711007 2.324985730727659e-10 0.05356038481557304 0.7151993313687288 0.0008462836663697573 0.2303940001493283 0.05258366059801578 3.862954211295998e-05 0.9412339455408382 0.00614376431903318 0.0001248112332040715 0.9998751886913468 7.544920405835343e-11 9.279927917568451e-18 4.771782294845252e-07 0.01881451161147529 0.8733359374380824 0.1078490737722127 0.7924305080069237 0.05010265239770034 3.229136491952987e-56 0.1574668395953761 0.00107112849732283 0.9034995220006888 0.09542934943725032 6.473807122291871e-11 0.001139648195262434 1.224790383908168e-15 0.9580274684822717 0.04083288332246462 8.809144733031605e-06 1.629829744252418e-06 0.000414414921488611 0.999575146104034 4.704452048728873e-08 0.185125748559007 2.624453671128104e-13 0.8148742043962101 3.369458267776061e-06 0.6199717681186209 0.09628934462445661 0.2837355177986546 5.383946092092425e-12 0.9999999920025905 7.976800564685944e-09 1.522515856443829e-11 3.131347846994012e-15 0.03247008712916433 0.9637087508181303 0.003821162052702275 5.612009059272751e-17 8.021323858071713e-08 0.9939511806928698 0.006048739093891587 6.581978474924855e-08 9.801343987462575e-05 1.896656209380809e-51 0.9999019207403407 0.9983717173240102 8.647165413255292e-16 0.001565315733722924 6.296694226600965e-05 0.5204601232439015 0.0003444917179015965 0.4239084317003153 0.0552869533378817 0.9317994572171924 2.033882341739132e-05 5.184662363269577e-06 0.068175019297027 8.141103064634308e-22 0.01123672130070289 0.2262699019248419 0.7624933767744552 3.033462402119167e-05 0.8501798878842173 0.1497897774917616 1.044932919170658e-20 0.07638342599444808 0.1669045198058893 0.7567120541996626 2.134000341702777e-20 0.04011214801994496 0.7468170678368238 4.051335677026865e-11 0.2130707841027178 1.287211368569235e-09 0.8142048055594981 0.009419323425321136 0.1763758697279694 0.9991769242178317 2.653087989345497e-08 2.035654035652461e-05 0.0008026927109318308 0.9999557001643442 3.147999816738066e-06 1.00771785764996e-09 4.115082812133661e-05 0.1313096705391268 0.07936960372642901 0.7893207257344442 3.137325106428073e-25 1.216358875015616e-14 0.9992624698459626 2.090841122629528e-09 0.0007375280631842187 1.149609177547167e-05 5.859100916670455e-47 0.9999815496507475 6.954257476972509e-06 0.03841268039171083 0.3743381133778207 0.5872492062304684 1.629311573172388e-35 4.183496841151133e-07 0.9982173050989395 0.001004777826555014 0.0007774987248212697 3.830134765131443e-06 0.9999961697748322 3.79915105031934e-13 9.002275616122924e-11 1.196163113812109e-09 0.9999982476388594 1.077988607284809e-13 1.751164869633796e-06 0.7037327102816828 0.2141794396442213 3.094670592148096e-19 0.08208785007409589 5.607675134944763e-09 1.703605000634507e-169 0.9999999943923248 5.977674030596371e-23 0.1244084230402791 0.873073834949008 0.001559305877111995 0.0009584361336008315 0.6255965957329449 0.2557646111957423 0.1181022234801227 0.0005365695911901207 0.9668364136675367 0.03208877709945201 1.604618148026677e-05 0.00105876305153107 0.06453356689440434 0.2569729036226392 8.116714181226215e-11 0.6784935294017893 0.1069877226877353 9.921218299512545e-08 0.7736969169431163 0.1193152611569656 0.03324333584136862 1.343434088694833e-16 6.187059672586661e-24 0.9667566641586313 0.6122044231353256 0.3876149062607552 0.0001806705787625095 2.515678259988453e-11 1.27055868621615e-10 1.940900033747701e-15 0.0008633982793779481 0.9991366015935642 0.07565309740525543 2.512324788353403e-37 0.9211491223607351 0.003197780234009388 0.6409421693295295 2.709218458498629e-13 0.002496016812726311 0.3565618138574732 0.07447130245371771 0.9232238273911394 1.608791352473685e-08 0.002304854067229337 0.0008936750441284585 0.02723454185977041 1.737991419593428e-08 0.9718717657161869 0.6966409631284424 0.2977502114043559 7.947421869613736e-17 0.005608825467201478 0.8452125817293779 0.002270689389815624 0.00308182610690244 0.1494349027739042 0.1043706781180755 4.063851203098568e-19 0.8956242305386829 5.091343241715947e-06 3.819249272008114e-12 0.001341129644829137 0.0790498365083246 0.9196090338430271 1.949823095623545e-15 0.9999562403461654 4.375965343354498e-05 3.992483604734075e-13 1.713585740856929e-07 9.837522888081327e-08 3.585534182324251e-14 0.9999997302661612 1.257846048471995e-20 0.9989316073734013 0.001068392626598887 1.542894468756832e-26 0.002808975906948869 0.04115134452177608 0.000147700985690215 0.9558919785855847 0.9806332704218461 0.0005876739706061811 0.01866454666548866 0.0001145089420590116 3.441687463750508e-09 1.121649982985399e-10 5.904999644137282e-05 0.9999409464497061 6.374693631707243e-13 6.122075297139873e-09 0.9947586882544825 0.005241305622804756 0.003355528849435962 4.904143821581513e-07 0.9433882234867115 0.05325575724947022 0.999070462224222 1.829513836848645e-78 0.0009295377757781249 1.58495480489669e-18 6.271435852020738e-26 1.471626541563743e-06 0.9999985283734585 8.108326079162726e-25 0.004134276915658317 0.02938796720193346 0.966208824832361 0.0002689310500472297 9.234586660631172e-12 0.8018250069853767 0 0.1981749930053888 1.069731024278766e-09 9.00108905675397e-12 0.8870858687570161 0.1129141301642517 0.963461363883942 1.251291012056374e-05 0.03652376209933067 2.361106606838886e-06 1.107642438184757e-12 7.002704419253408e-11 2.075748869385142e-153 0.9999999999288653 2.955357371937744e-11 1.128376626983501e-08 1.459829657350604e-05 0.9999853903901068 0.9585326221147238 0.0414673778847435 5.610741393369609e-16 5.321306322545484e-13 0.9031019738396728 0.06322542475189463 0.03079084851127679 0.00288175289715561 9.127987148061142e-09 0.292799578853719 0.7072004120182939 1.330963666665026e-36 0.02432747149289259 1.954201000732051e-05 0.9213766631525442 0.05427632334455596 0.0007341798492147664 0.3307191341292912 0.3457020804644814 0.3228446055570127 1.58478580746008e-15 0.004740252891865697 0.9481730433562447 0.0470867037518878 0.0001011896332972243 0.0004896131251706379 0.2343763030579713 0.7650328941835608 0.9997029443074881 1.696860416699718e-09 3.573089266080113e-08 0.0002970182647588097 1.365065097767785e-13 0.9738500346495624 0.02614994285293559 2.249736556528112e-08 5.172537101538944e-10 0.9999595430483645 3.081336871999566e-89 4.045643438166448e-05 5.412180782751184e-09 9.549203581229362e-09 0.9996805889283698 0.0003193961102459398 0.7269436422227099 2.9807159871218e-07 1.971800676025974e-06 0.2730540879050153 0.4657045860609275 0.08730773413359626 0.3563691857033813 0.09061849410209484 0.0187144892215089 8.608456811285481e-74 0.9812797765193964 5.734259094883412e-06 5.330126412903186e-06 0.9999452621146757 4.940774496567417e-05 1.394568216734825e-11 0.003353690374062353 0.9924802728632605 0.004166036762677251 2.355965282130632e-18 8.793186476455902e-28 0.2266467173322891 0.7581799289573076 0.01517335371040327 8.30270657296326e-43 1.11610877699619e-84 0.6231797216792502 0.3768202783207498 0.07110058476065631 0.9282014617605343 0.0006974424153531334 5.110634563001283e-07 7.792304729258741e-09 0.9999999527982808 3.939721131495978e-08 1.220325312294593e-11 0.9725965450754305 2.635166365331792e-13 0.02740344589978767 9.024518355525779e-09 0.007929201393860901 8.955062445549635e-05 0.0005116289034368348 0.9914696190782467 4.064677589966244e-08 3.567712216529956e-07 0.9326738563209181 0.0673257462610841 6.09412563476337e-38 0.9887817391774567 2.139012916367811e-23 0.0112182608225432 0.0314389929446147 1.573963071998399e-32 2.488666705509057e-09 0.9685610045667186 0.5957601369426587 0.3073477157836499 0.08797565614023692 0.008916491133454444 2.370615324799323e-10 0.1543243413243987 0.00265625641472218 0.8430194020238175 0.8378622382952143 0.1621377616952448 9.540844925532573e-12 2.69188707795732e-44 0.04415018387488893 1.350815198162933e-14 0.0009210724376274442 0.9549287436874702 8.916551410246234e-09 7.629456924558991e-14 1.128417418488303e-16 0.9999999910833723 7.164643812795462e-06 0.864267137572367 0.1357256977838203 2.73340898025093e-165 4.102505303109443e-13 0.2169595097773226 0.6647715132536496 0.1182689769686175 0.9990614868887817 3.986272289332944e-06 0.0009345268389289963 4.39724890563161e-19 0.7994074819551339 0.2005924034108705 6.490883912611756e-29 1.146339956889786e-07 3.37875092847389e-06 0.08704924443677152 0.912947376739332 7.296814370034106e-11 0.8818322813660943 2.480843877777586e-40 0.0785461941000844 0.03962152453382138 1.974001648876755e-06 0.9964310635858397 2.76211256417131e-05 0.003539341286869698 7.260313991739186e-05 0.999927396589059 