<?xml version="1.0" encoding="UTF-8"?>
<!-- This file was created by ACADEMIC version of SMILE -->
<smile version="1.0" id="Unnamed" numsamples="10000" discsamples="10000">
	<nodes>
		<cpt id="U1">
			<state id="State0" />
			<state id="State1" />
			<state id="State2" />
			<state id="State3" />
			<probabilities>0.1 0.1 0.1 0.1</probabilities>
		</cpt>
		<cpt id="U2">
			<state id="State0" />
			<state id="State1" />
			<state id="State2" />
			<state id="State3" />
			<probabilities>0.1 0.1 0.1 0.1</probabilities>
		</cpt>
		<cpt id="U3">
			<state id="State0" />
			<state id="State1" />
			<state id="State2" />
			<state id="State3" />
			<probabilities>0.1 0.1 0.1 0.1</probabilities>
		</cpt>
		<cpt id="U4">
			<state id="State0" />
			<state id="State1" />
			<state id="State2" />
			<state id="State3" />
			<probabilities>0.1 0.1 0.1 0.1</probabilities>
		</cpt>
		<cpt id="V0">
			<state id="State0" />
			<state id="State1" />
			<state id="State2" />
			<state id="State3" />
			<parents>U1 U2 U3 U4</parents>
			<probabilities>8.572603062330235e-05 0.0008806388724193854 1.674583297775423e-05 0.9990168892639795 4.026938711949894e-12 3.589707561722077e-06 0.9999887458999893 7.664388421870505e-06 0.7168408958275247 6.655810831354879e-09 0.2831590918310337 5.685630730365259e-09 0.9924152953069584 2.184358265828943e-18 0.007584704693041552 3.409054578676662e-30 0.03253264584207417 0.9674623888894154 7.881149671352123e-13 4.965267722342768e-06 3.250773140444372e-13 0.1046446322780378 0.8812242126486169 0.01413115507302 0.9998155857191475 1.110244220271048e-11 2.057556170892078e-05 0.0001638387080410824 0.1745756501283779 5.089939539228184e-149 0.05579052092953939 0.7696338289420827 0.4307921475422973 1.828361607695451e-28 6.381160178474685e-34 0.5692078524577027 0.02876154974401115 0.9712384502559889 3.965679717257586e-85 2.156783177757065e-18 0.07380357624585983 0.926196423748831 4.40773994552802e-18 5.309245482774139e-12 0.8173062235004068 0.1826937764995931 2.272871568403372e-37 2.365206847921408e-23 0.2142881188363681 5.160500308801886e-09 6.587126356612079e-05 0.7856460047395656 0.2542394743412465 0.7457595620437474 9.636150062582648e-07 0 0.04921964025185505 5.620767623606228e-10 0.9507803591860682 4.539700295537057e-26 0.04597464266263188 0.0196463623049583 1.963526193965878e-07 0.9343787986797905 0.9887198758690806 0.001848251579126808 5.61915850384946e-27 0.009431872551792696 5.271586030566413e-07 0.0005640485035826786 0.3557557220253547 0.6436797023124596 0.06203435447129037 1.072858588027798e-06 0.9379645726701216 6.662984266089456e-69 5.998142812657896e-05 0.001304158500664134 1.627889356638795e-08 0.9986358437923156 0.0122403967445185 0.9689175190706135 0.01884037003695089 1.714147917251065e-06 0.9996215502699121 4.740873409029197e-19 0.0003784497300879176 8.946278444426314e-37 0.06553149258357419 0.3281986051431474 4.333485415995369e-36 0.6062699022732784 3.374896064679231e-07 1.90365253674051e-08 0.9987766695808531 0.001222973893015162 2.517213794576031e-06 1.706409728597458e-17 0.00917368810713374 0.9908237946790717 2.729623197605893e-17 0.1408825326690642 0.8591174673309356 3.526492601491007e-22 0.3652557707711917 0.08251466369923323 0.1378905870672393 0.4143389784623356 0.0008823925125621539 0.9991150439266224 2.563560815350826e-06 3.067409630107668e-17 0.3961731986346179 7.952022915752417e-05 8.077853703821787e-126 0.6037472811362247 0.0005011366954650478 0.982050975101052 4.412744003497176e-05 0.01740376076344787 0.002238820255940976 0.249801737526066 0.7479594249702441 1.724774892372418e-08 0.003734607275216682 0.1912071968715884 0.2862692353395705 0.5187889605136244 0.2720106183554521 0.001310258620707945 0.6582218183690132 0.06845730465482683 0.9416279817384994 0.0334292128014807 0.0249428054600198 6.957310074835874e-22 3.599094415653475e-05 9.630434298856702e-06 1.68978093963231e-06 0.999952688840605 0.1474041440126306 0.5556137908308894 0.0028190672947362 0.2941629978617439 7.597606917150984e-07 0.07536582233623071 0.588756140596173 0.3358772773069046 7.943933811754314e-27 2.693748274044567e-07 0.5532985315985133 0.4467011990266593 8.216843903174625e-08 0.005983668690832336 2.725181588269406e-09 0.9940162464155471 4.992478039253121e-47 0.0006125600138782051 3.115228228003782e-10 0.999387439674599 0.3004998743308623 0.6955685927657049 0.003931532903432743 3.431311400072915e-204 6.766746052679214e-10 1.099221778839386e-39 2.049538803391429e-05 0.9999795039352913 0.0005303609079139913 8.478567369295325e-06 5.578825325538246e-12 0.9994611605191378 0.4585988390997573 0.33626623568417 0.1916542110934671 0.01348071412260545 0.5700090313320552 4.804754332856023e-10 0.4299909681874695 3.958235087005268e-119 0.0001497824392890275 7.668625611827652e-06 0.9998425489350991 2.428420103927862e-44 0.5026945354668908 1.55050069485519e-06 9.150169707886932e-19 0.4973039140324143 0.5953940309587555 0.01193622243538837 7.894156543582e-16 0.3926697466058552 0.9032556173125476 6.343859350116722e-05 0.09510032375245384 0.001580620341497462 0.9755617886259472 2.99208002244874e-06 4.594713866538027e-47 0.02443521929403032 9.76030785599011e-29 0.9999706996906849 2.898154983564567e-05 3.187594794493496e-07 6.775037335855679e-11 0.9864203007549146 2.373771937748119e-32 0.01357969917733511 0.2098887152759525 0.76332421674241 0.004964747145372954 0.02182232083626457 1.796121770523587e-39 7.258634332666868e-13 2.758128230279024e-52 0.999999999999274 2.741064743809187e-09 0.9929710490622964 0.007028948196638878 8.639418420875148e-19 1.565350678901513e-74 1 0 2.353746954086076e-120 0 1.05708228531569e-05 0.8967482283351399 0.1032412008420071 0.005883119537916958 2.254919378886713e-06 0.994114625542704 8.359953013348691e-83 2.401506526493195e-08 0.07299647006180014 2.682335274145598e-09 0.9270035032407995 0.9836524700129864 0.01634752998701336 2.132855541362902e-18 3.687526416393515e-16 1.852454534651852e-07 6.452404664596045e-14 0.9807568182258224 0.01924299652865959 0.8375904725361002 0.1556131078915622 0.006796419572337444 1.298659308759068e-23 2.201350249413901e-19 0.9999999819559554 1.646899351473912e-21 1.804404455866487e-08 2.287564822649843e-46 0 0.7767901018112564 0.2232098981887435 2.682990389577857e-10 0.3555674674829449 0.644432532248756 5.019240237684692e-38 0.8981110334203077 0.00682266324315992 8.991730943424698e-07 0.09506540416343799 0.9666664560212098 0.0003191379084958277 0.03300532447026667 9.081600027610043e-06 1.541906104577919e-06 2.407127983383215e-33 0.0003876941171933189 0.9996107639767021 0.3193542786248124 4.149833495580525e-21 0.6806457213751875 7.992015328689411e-26 0.9999999870002001 4.356660754141708e-12 3.583809874541788e-11 1.295960505054594e-08 0.07176402148033963 0.01936604945089266 2.449996013043524e-07 0.9088696840691665 0.05687261168527913 0.02540253666271369 5.676610152112989e-05 0.917668085550486 0.04854614588582407 2.167966954971547e-12 0.0007052414511526513 0.9507486126608552 0 0.689225084038838 0.3107749142700754 1.691086565167521e-09 2.12268556153162e-35 0.0009358698170298943 0.7286958833681729 0.2703682468147973 4.214287176317127e-13 0.9743942445002005 0.02560575059317816 4.906200084774714e-09 0.001598251270822539 5.096136096939571e-22 0.9981964379762729 0.0002053107529045613 0.3774502854873793 0.594120228756337 0.006291140901031556 0.02213834485525226 2.555257874297309e-28 0.8479090119170939 1.874007356714501e-06 0.1520891140755493 0.0002301404115925101 0.7063919746372016 0.2933778849512058 5.409219558240763e-18 0.9259047344733087 0.07400380928936205 3.094702088643555e-08 9.142529030834545e-05 3.2292859700486e-09 0.0002695917701370079 0.999730405000577 3.425864153929892e-21 4.698633959285752e-13 1.321741194112537e-12 0.007216221747568449 0.9927837782506398 0.236822091718258 4.184311501403121e-08 0.002769789130504859 0.7604080773081222 0.0200668512573502 0.01420846392272733 0.96571764101172 7.043808202560192e-06 5.15489651342624e-45 0.004670505416721969 1.885151066642964e-09 0.9953294926981271 0.1603837147064008 5.80567246137917e-06 0.8396104796211374 4.074282861112121e-16 0.0001268521689469236 0.0696862662874812 0.668613967832745 0.261572913710827 7.411711674457033e-05 0.9999258828832553 6.872585871365595e-75 4.948276502462983e-22 0.07715485146976651 0.7127340104594427 0.2101111280874838 9.983306937923694e-09 9.534672844367873e-07 1.532805347583898e-22 0.9999990464984863 3.422923081403043e-11 0.9999913960254287 4.095164154354811e-10 8.603565054823356e-06 1.005222286266751e-18 5.058277382132029e-15 0.8965234704918063 5.735475257594623e-15 0.1034765295081831 1.558692301782439e-05 3.072740207501799e-30 0.9927820415916331 0.007202371485349177 0.6724976768655594 0.001331715188138325 1.545190247527789e-17 0.3261706079463022 0.000132509673526903 0.9959348365777623 0.003932653748710851 1.132955602107877e-17 0.5862757420138061 1.642931823981046e-05 0.002516019414129623 0.4111918092538246 0.9990478593280194 0 4.184051654569845e-05 0.0009103001554349844 0.8568959959415421 3.733149313814905e-15 3.236649289270743e-10 0.1431040037347892 3.563665010843992e-06 0.2942748138817195 0.7057216224532696 0 9.304619422449311e-08 0.9979667080903173 6.594875730161268e-10 0.002033198204000935 1.531547568767468e-05 0.897527258371115 0.07913819627887622 0.02331922987432119 0.9959570868821112 6.437619968946217e-06 0.004035990526221832 4.84971698082963e-07 0.9999999998140982 4.375748987092384e-25 1.859018170470348e-10 2.888634439286807e-283 5.995457719711464e-45 1.930849859779987e-35 0.8904259546487447 0.1095740453512551 1.919298972853466e-94 0.5225857392501184 0.122708897053913 0.3547053636959686 0.0001633004820087218 9.571270028059216e-07 0.9998357421397481 2.512402199481812e-10 0.6661733608768962 0.3126054242367836 0.02104079610224433 0.0001804187840758429 0.06542858061203072 0.9343796027186053 0.0001918166693638092 5.338400004707947e-63 5.821436239613027e-10 0.8246641299340698 0.001190944288601051 0.1741449251951855 0.001384841117248707 0.9985602885461073 2.690983500960295e-05 2.796050163439783e-05 7.918301422106052e-19 0.0222238345306874 0.9433396190385447 0.03443654643076809 0.7575942812467297 0.03867120174217987 0.1358335397371976 0.06790097727389312 0.1068283636267124 0.8931716342227962 4.289961503741648e-73 2.15049149086106e-09 0.9595014946276714 0.04049850537224535 6.12646649520917e-18 8.320967867116887e-14 8.285415878169504e-05 0.0742959826608806 0.05714789186606878 0.8684732713142688 0.5863164098145199 3.581878137641549e-06 6.068461068031627e-08 0.4136799476227316 4.542669419961053e-66 1.452911376730774e-05 0.9999540258650004 3.144502123225298e-05 0.6511611943856892 0.06062616673178669 0.0001847449546946957 0.2880278939278295 1.385762798671543e-13 0.006931108303128767 0.9776495548882692 0.01541933680846342 0.9998397571710191 1.473055225779071e-15 0.0001602428289793439 1.079130139667956e-27 0.9942415342018428 2.03264795830974e-11 0.005758465777830391 4.286107258243099e-16 0.001933860331997748 0.9898919302136899 0.008174209454312222 5.150141904277586e-164 0.08143929620485152 0.9185607037951485 6.209416682018371e-26 3.419930221536201e-67 0.2610568510446012 0.002999294256378071 9.859315131661651e-05 0.7358452615477041 0.002048740051582713 1.509703212175006e-16 5.644805343498072e-09 0.9979512543036118 3.185397950183879e-06 0.9743762531327821 0.01083722983062658 0.01478333163864122 0.9998428196363184 1.672716867175023e-05 0.0001404531950069701 2.801567928886727e-15 1.578951456020169e-12 0.1477145547804028 0.51503413281045 0.3372513124075683 2.20341366619197e-07 0.02490286953230369 0.8544056654411939 0.1206912446851358 0.002391726835349256 0.7879446349384087 0.2096636381928322 3.340970072826337e-11 0.05717088444559724 2.95958025565095e-06 7.519843799712983e-26 0.942826155974147 5.606061974499017e-19 1.725249544369566e-14 0.9983842460561526 0.001615753943830208 4.085772731281227e-08 2.696324815482659e-30 0.9999991068420971 8.523001754927814e-07 0.9186335880120814 0.08136614605465949 1.724475372539223e-17 2.659332592816445e-07 0.9999996469934924 7.001931618674833e-12 3.52999505713781e-07 1.410769377846231e-27 0.736985300810465 0.1060958808135751 2.189091123670905e-11 0.156918818354069 0.04668293162791892 0.9531220627940817 1.175565557353868e-50 0.0001950055779994371 3.28511329107219e-10 0.1497321512776001 2.887325546869116e-06 0.8502649610683417 1.28803886698459e-41 0.8794141865826344 0.03368113665015515 0.08690467676721052 0.001368910999570654 0.009338061105206812 0.9890110471761324 0.0002819807190902248 8.898081262678884e-09 0.4936625968082945 0.3922523184809688 0.1140850758126555 0.9974593080120787 4.539381561378397e-22 1.055660616478814e-07 0.002540586421859499 1.454335559191148e-40 1.39721134525563e-10 0.03389607364844341 0.9661039262118355 0.06413967130079638 0.1827774966823583 2.937006480567895e-08 0.7530828026467805 0.006139800229635113 4.822625256635528e-17 2.429160564846418e-229 0.9938601997703648 5.831744500945285e-22 0.6344711226311789 4.120305881724083e-08 0.3655288361657623 0.5649568724906098 1.843740866981416e-14 2.304854390015673e-128 0.4350431275093718 6.359336431763761e-05 2.994000818616892e-48 0.9999363977758178 8.859864601215318e-09 0.5785973379989837 4.292637347785316e-48 0.000715717270424905 0.4206869447305915 0.0002239938597671609 0.008842509617110979 0.9905393247049176 0.00039417181820431 0 0.8280702760384201 0.1364163027148084 0.0355134212467715 0.07638186633534497 0.7351767064454909 0.1203788595598173 0.06806256765934675 0.1630375187292768 0.7789572005825947 0.03164087999704601 0.0263644006910824 0.9999652684958643 4.80612996371201e-32 2.685303068171646e-32 3.473150413575403e-05 1.046429261642226e-91 0.9869660566256268 1.177500462446732e-34 0.0130339433743732 0.9885078262925973 0.003907280860063721 0.006109125735139757 0.001475767112199285 0.001814017171839067 1.467255913885747e-05 0.9181451840051571 0.08002612626386495 1.176358652545591e-16 0.999991305329747 8.694670252823986e-06 1.593038065234866e-35 0.4539461358618557 2.007743202024863e-18 6.227790739477733e-05 0.5459915862307495 0.9324025802799896 0.06632328046754975 0.001274139252460646 9.172357679063437e-20 0.0002215210797070114 0.999778478893219 2.707383738059522e-11 1.424418094969149e-40 3.043936978564693e-09 0.1555269303182064 0.8444730666378435 1.313753670018151e-14 1.983529573488243e-09 0.9888429116635463 0 0.01115708635292404 1.925935737563763e-05 0.0152515624813329 0.9098102448196969 0.07491893334159458 0.8163501688583749 0.1835898921573355 3.103104430052723e-31 5.993898428954109e-05 5.874144150658133e-76 0.9999935596212022 6.439137223163886e-06 1.241574674908332e-09 0.6794848692513382 0.0005436620500176494 0.3196762663497378 0.000295202348906341 0.007235440690512709 2.860647032155729e-300 1.05182496542964e-06 0.9927635074845218 0.3509445904463066 0.01033329331919629 0.4549231452241013 0.1837989710103959 0.9932130553619065 0.0001180963542573613 0.006668847573964271 7.098718827033047e-10 2.403120372403526e-43 0.4612714500178707 0.5387285496171448 3.649843592021466e-10 0.9631078675056727 0.03689213249432735 1.694838429613288e-25 5.029358222887135e-212 0.329108590390615 0.5473845121260729 0.0003366918904535836 0.1231702055928587 0.9640824253636392 0.03122870190359323 3.371478782264174e-10 0.004688872395619856 0.3554224077310996 0.0002026358249048055 1.311782099283586e-38 0.6443749564439957 5.712750907623526e-13 0.4593141173315051 0.5400847866473645 0.0006010960205592958 0.9982261335650779 0.001729710086015913 4.327910469698088e-100 4.415634890613481e-05 0.9999999999971716 1.492690020682151e-18 2.73762174395963e-12 9.063665955057901e-14 0.02333226354272764 0.9747395700554596 0.001928166401812456 1.57698351141306e-16 4.765765921101563e-91 1 2.574825928700775e-101 6.97422673397164e-62 1.785740535445762e-06 0.07775889639862986 6.365426355584282e-08 0.9222392542065713 0.8051808376983376 3.532509267380544e-12 0.1947889319605559 3.023033757399795e-05 1.299805292210141e-09 1.75573757118519e-06 0.9278836140116925 0.07211462895093101 0.9075563876764219 0.0003908572823380169 0.005367597393216834 0.08668515764802309 7.188751697734247e-20 4.044985069313788e-19 0.9159920915928782 0.08400790840712176 1.014868573692612e-11 0.7853098446237348 3.661374393074298e-23 0.2146901553661165 2.97183254674715e-11 0.7247330544561502 0.02035681237929107 0.2549101331348404 1.674206927871728e-05 0.9983786960063303 0.001604561924390909 5.172376763978771e-26 0.001388476067109558 0.8609945483255663 8.092766070303729e-05 0.137536047946621 1.686434591017801e-07 0.005936798578254659 9.835638898240607e-54 0.9940630327782862 0.1165578397395366 0.7778516609035613 0.1055904993569022 6.316974187722336e-19 0.0001046553925544352 3.098340818250725e-85 0.7366833770522971 0.2632119675551486 4.200742805526443e-14 0.2064482309037562 1.195065881822441e-29 0.7935517690962018 1 6.02119098269937e-17 4.345895805056229e-60 6.406004319888116e-89 0.0001460409457205652 9.465317127252672e-09 0.7148775288566932 0.284976420732269 2.498519153284341e-05 1.923918294855978e-09 0.3446448848074677 0.6553301280770812 4.567292116559987e-09 8.44339550480791e-29 0.9999999788488774 1.658383047847949e-08 0.5657227538466617 0.4269635020118822 0.001553870683696601 0.005759873457759689 0.9999975180357041 1.915797903871922e-24 2.437422738767421e-06 4.454155711348394e-08 0.0336265324771997 6.809456226027427e-09 0.8874354228317921 0.07893803788155207 0.05649871860614279 0.192799797965483 0.1640308827034206 0.5866706007249536 5.060144409504113e-83 0.9999945986178432 2.129168553263214e-06 3.27221360343037e-06 0.1036490989374684 0.8928436403224148 0.003507260740116608 1.273508106305221e-22 0.1912214743898888 4.114197147943679e-12 0.001239290468881565 0.8075392351371156 0.9684981178012184 0.0292448890724786 0.002256993089681382 3.662142969445705e-11 4.527925707865359e-09 0.001624874889428631 1.063603372683282e-11 0.9983751205720097 0.9998290367201828 1.350406440926643e-05 0.0001574592154080886 0 1.317536868723734e-08 0.07483829854965655 0.07488123357489029 0.8502804547000844 0.0005877792003099957 8.797986799936233e-06 0.9128262017266354 0.08657722108625453 0.9478661731392477 3.383086705197936e-202 1.166757480032363e-25 0.05213382686075232 5.549659854328907e-07 0.9998162448049847 6.326946878434148e-08 0.0001831369595613228 0.004459047181025577 0.00991369540839873 0.446446371303384 0.5391808861071916 5.563225723154905e-05 0.145093727483484 0.000397971132364515 0.8544526691269201 0.7099110091218167 0.1866668354985759 0.1034079194984265 1.423588118099929e-05 1.79428079540062e-12 0.9515672944572898 0.04843270554091587 2.385277362377417e-21 2.365200101279349e-06 1.606896743465479e-05 0.9911176068949656 0.008863958937498565 0.09650403964465458 1.368364766058106e-34 0.8117628232750607 0.0917331370802849 6.221062386465439e-12 0.3461563014980196 2.113657126072111e-28 0.6538436984957594 0.8497491342374824 0.1374001576679585 0.0005084081618093406 0.01234229993274984 4.690850719506779e-09 0.0006437395943097811 0.9983816021785806 0.0009746535362588284 0.03803970233387181 7.254859802563002e-05 0.0039405483466773 0.9579472007214251 0.03352490503431468 0.08335188838405747 0.1455943906884998 0.7375288158931279 0.6006487479886709 0.3992857184493185 5.715467603707513e-05 8.378885973630886e-06 8.206109915393057e-48 1.871106610599775e-12 5.249344857778598e-14 0.9999999999980763 0.0003554953590008159 0.7159232642860622 0.2835073444258724 0.0002138959290643923 0.9995356905048804 0.0004643094951195736 1.828391946983559e-22 7.964889036215003e-216 0.03104588544312152 6.255555267707225e-05 0.1807054572645803 0.7881861017396211 0 0.0007150344488205881 0.001579496704561142 0.9977054688466183 5.140291916763487e-20 3.514419915844767e-71 1.040803769839333e-07 0.9999998959196229 0.01858815512891747 1.547746701798602e-77 0.9798842037422861 0.001527641128796365 0 0.0004848682396624661 0.58357476251069 0.4159403692496476 0.2857477799479921 0.01808660754536889 0.05132043445184755 0.6448451780547914 0.03707639422778092 0.000104266856886879 0.9628184795121884 8.594031438591723e-07 0.002862167815867201 0.9971352715490571 3.964834070340171e-07 2.164151668445155e-06 3.997181211140158e-09 5.196518004502856e-05 9.74626685674633e-07 0.9999470561960881 1.76194628721233e-05 0.00275191489971519 0.9814422250196806 0.01578824061773212 0.05268638919502594 0.2291931343059631 0.7180932492418851 2.72272571259357e-05 0.5069997555984281 0.4896196233542273 0.003380621047344525 5.806545866948382e-59 0.9544086272218952 0.009149723572599055 0.03644083025555026 8.189499555349709e-07 2.770649888763362e-10 0.1372784556809215 0.8072053825387541 0.05551616150325935 0.9979248650694669 7.314419220385248e-07 0.002045824449124572 2.857903948644205e-05 0 0.0002496091626351531 0.4883317073674394 0.5114186834699255 1.983396631010857e-10 4.26290118902676e-07 1.349269848377656e-07 0.9999994385845565 1.293149800449978e-19 0.7675345845384813 2.257647015321e-11 0.2324654154389422 0.9996226079915187 0.0003619739381333715 1.124052147449506e-64 1.541807034799915e-05 6.707855837489726e-05 0.1544198798437695 7.557833366689567e-10 0.8455130408420722 0.04742077226299463 0.7225794119202552 0.2293624496456906 0.0006373661710597282 0.6831911586379245 4.898012331901325e-23 0.3167696803375826 3.916102449301969e-05 4.413856220987037e-09 0.6332895841716882 0.1681861209254406 0.198524290489015 0.0002765418286197992 0.9997234581713801 5.480398759772076e-168 2.094668394912826e-37 0.01979348522797644 1.053659493089513e-12 7.146900943162865e-12 0.980206514763823 0.6975049058342194 0.087228905574181 3.926128771736242e-06 0.215262262462828 1.054097814772556e-05 2.588111772626653e-07 0.9955054746997238 0.004483725510951168 0.4372107822314263 0.1799431975987624 0.3818703333579063 0.0009756868119048715 0.5441785764136899 0.4294747066943647 1.565115899287866e-07 0.02634656038035555</probabilities>
		</cpt>
		<cpt id="V1">
			<state id="State0" />
			<state id="State1" />
			<state id="State2" />
			<state id="State3" />
			<parents>V0</parents>
			<probabilities>0.9966095106551276 0.00154382488721133 0.0001437200785929948 0.001702944379068038 0.00308600205826365 0.9966095106551276 8.117391936673681e-05 0.0002233133672419765 0.002000020825190588 0.0002201220029761129 0.9966095106551276 0.001170346516705662 0.000783731751541441 0.00242510029089796 0.0001816573024329619 0.9966095106551276</probabilities>
		</cpt>
		<cpt id="V2">
			<state id="State0" />
			<state id="State1" />
			<state id="State2" />
			<state id="State3" />
			<parents>U1 V1</parents>
			<probabilities>0.02434351800795172 0.002368947870908023 0.6150541255527677 0.3582334085683726 0.9699247711731476 8.206259640962538e-07 0.03007440819917363 1.714813601935505e-12 1.85763049644302e-05 6.604096090132608e-138 1.242192071303284e-28 0.9999814236950357 0.0008105777084144635 2.273674412278516e-15 0.00102418508512785 0.9981652372064553 0.1025557919584904 0.0001113652711020438 0.8973328427704076 4.919821888759658e-24 2.133083730940847e-06 3.28391334755784e-34 0.9999970371928872 8.297233817144899e-07 0.1016871408140049 5.588313189427643e-30 0.8983125700757054 2.891102895852507e-07 0.3393330954052177 1.165504955050424e-06 0.0002877283899916184 0.6603780106998356 1.028132123315509e-32 2.254900187888738e-17 2.317660119552809e-07 0.999999768233988 4.900706941208573e-05 0.08378403163739662 0.9161669612912398 1.951555862820091e-12 0.9995007807741783 7.998902103233804e-07 7.328916026386301e-06 0.000491090419584991 3.898813884903728e-09 2.618077994791265e-08 0.01202687118475192 0.9879730987356544 7.163023077158399e-05 0.03499515167349168 0.001058172497717717 0.9638750455980188 0.842403987023034 0.1575956788217412 2.119071568100678e-07 1.222480679519174e-07 0.01447528292871175 0.9819632619853593 9.573927689055752e-07 0.003560497693159991 0.007343225119265156 3.36268151492391e-06 0.0007618501700083169 0.9918915620292116</probabilities>
		</cpt>
		<cpt id="V3">
			<state id="State0" />
			<state id="State1" />
			<state id="State2" />
			<state id="State3" />
			<parents>V0</parents>
			<probabilities>0.9934221455990787 0.001872857019211937 0.00320329938740274 0.001501697994306617 0.003022371473058184 0.9934221455990787 0.001382868044794648 0.002172614883068463 0.003352302178488775 0.002832237869634087 0.9934221455990787 0.0003933143527984329 0.003944546309834304 0.0008939537223484042 0.001739354368738586 0.9934221455990787</probabilities>
		</cpt>
		<cpt id="V4">
			<state id="State0" />
			<state id="State1" />
			<state id="State2" />
			<state id="State3" />
			<parents>U2 V3</parents>
			<probabilities>0.9838981627350054 0.0009468767741543084 1.996487578110126e-179 0.01515496049084032 0.1100785853010989 0.01534447020123642 1.217949702112476e-17 0.8745769444976645 2.158978043270418e-22 0.9999999661596203 0 3.384037974122179e-08 0.03748373008042932 0.1028073060962044 2.125773199955434e-05 0.8596877060913667 0.000812040639789391 0.0001717248912316826 0.9490165134301687 0.04999972103881033 0.9367351254201089 1.50468498516014e-08 0.04892793420140724 0.01433692533163387 1.082190701732001e-09 0.7552315002486876 2.354799646465907e-07 0.244768263189157 0.1423238032620478 2.597117362768522e-13 0.8538494110483267 0.003826785689365884 0.8106612171039081 2.734153457965443e-12 0.001817061448942908 0.1875217214444148 2.218486734294363e-12 0.0001641723529304926 0.0127898314150918 0.9870459962297592 0.9674923565289206 3.191539165591883e-21 0.03250737276845425 2.707026252621691e-07 0.03754760879092033 0.5496428073102411 0.4127875349791713 2.20489196673836e-05 2.820928854447892e-15 0.9621908079981677 0.03780915895618726 3.304564240720962e-08 0.999999975919475 1.842782421866359e-08 5.652700879768808e-09 0 1.831606741056489e-05 0.2997396182915377 0.4456163472281687 0.2546257184128831 0.0001569637536644066 0 3.174278743233696e-11 0.9998430362145928</probabilities>
		</cpt>
		<cpt id="V5">
			<state id="State0" />
			<state id="State1" />
			<state id="State2" />
			<state id="State3" />
			<parents>V0</parents>
			<probabilities>0.9964922813677121 0.0001917767524319775 7.580070742338716e-05 0.003240141172432525 0.001294233116514818 0.9964922813677121 0.001436793382676484 0.000776692133096587 0.001136414403984883 0.0001219842827656458 0.9964922813677121 0.002249319945537361 0.001605281033383765 0.001438709282604202 0.0004637283162999221 0.9964922813677121</probabilities>
		</cpt>
		<cpt id="V6">
			<state id="State0" />
			<state id="State1" />
			<state id="State2" />
			<state id="State3" />
			<parents>U3 V5</parents>
			<probabilities>2.744609187136721e-12 0.9607071284202368 0.003925318726369335 0.03536755285064948 1.07694262692605e-07 0.9961072471255039 3.044891473601287e-19 0.003892645180233466 0.5909348186135482 0.3285399543619167 0.07837762672206643 0.002147600302468704 0.004708936671459185 0.002567935306143402 0.002941235575827305 0.9897818924465701 0.6894069546802971 0.03141196776942839 1.27139174929036e-06 0.2791798061585252 0.02570831537034987 0.9742914796762393 1.594081278843778e-23 2.049534109913205e-07 2.70094333029905e-08 0.9984892550441758 0.001509237878739163 1.480067651788236e-06 2.635307006382592e-05 0.9999736469299362 9.448227553543737e-48 8.989586219570618e-18 8.646080779447397e-90 1.858730686267429e-30 0.99999286542655 7.134573450041715e-06 0.8181304506897981 0.0001293379626167024 0.02664750001705529 0.15509271133053 3.099933775407843e-127 0.0002422659451003606 6.817562334808733e-26 0.9997577340548996 1.572314015277143e-07 0.9974230767888037 0.00257439875341342 2.367226381237478e-06 1.975919364301895e-20 0.03566530185568623 3.02128185383391e-06 0.9643316768624599 0.003796474218731893 0.2487860915886449 0.7405581273833297 0.006859306809293455 3.334960945091089e-05 0.00105644989347752 0.9989101927684302 7.728641425003371e-09 0.1899045256452519 0.007832759843458674 0.02112897752741191 0.7811337369838774</probabilities>
		</cpt>
		<cpt id="V7">
			<state id="State0" />
			<state id="State1" />
			<state id="State2" />
			<state id="State3" />
			<parents>V0</parents>
			<probabilities>0.9993310001103388 0.0004728702276749373 0.000152366260153814 4.376340183242364e-05 0.0005219345943578165 0.9993310001103388 7.524608098100075e-05 7.181921432235767e-05 0.0001669571552132362 4.683081793800692e-05 0.9993310001103388 0.0004552119165099318 0.000244209092832092 0.0002568028552621164 0.0001679879415669665 0.9993310001103388</probabilities>
		</cpt>
		<cpt id="V8">
			<state id="State0" />
			<state id="State1" />
			<state id="State2" />
			<state id="State3" />
			<parents>U4 V7 V2 V4 V6</parents>
			<probabilities>0.7516475342521172 1.6035280746029e-51 0.2483524657478829 1.45541009483096e-25 3.93128068434933e-12 0.0007168356570366001 0.9992811465065402 2.017832491932117e-06 0.9941341228592064 0.005809837735181209 5.603940560534058e-05 6.879999619481905e-15 0.006924673378508108 0.9929947474502614 1.695337982750392e-08 8.056221785067164e-05 0.8413895245895243 1.324864606528284e-16 0.006752241377206166 0.1518582340332694 0.001233966330732941 1.239232764633765e-21 0.0006228669127058344 0.9981431667565612 1.74529677744453e-08 0.5063724123324376 0.105714852870567 0.3879127173440275 1.575050692879273e-05 0.4617301452237274 0.3934688381988724 0.1447852660704715 0.01424161780601374 0 0.9857581077300143 2.744639720941213e-07 0.01487270189306864 0.4379819407909474 0.5471219833361753 2.337397980858907e-05 0.9995187895239009 2.875717402280996e-08 1.10277078653691e-10 0.0004811816086478602 0.6866163548724303 0.1584854491205965 0.1543927327486602 0.0005054632583130144 0.03573210128157518 3.462093938923923e-08 3.988864724354304e-07 0.964267465211013 5.884046298087725e-87 0.06155363899612144 0.9384463609884318 1.544659969237636e-11 0.07107064399182748 0.0866538992053921 0.8422754568027795 7.254618610548458e-16 0.9622138190843011 1.515726647568879e-06 0.03778426730347047 3.978855807583741e-07 0.001011419766493575 0.9969090440226408 0.001992412966090557 8.712324477512104e-05 1.679430211682303e-05 0.0002686208177369927 0.1284116205455771 0.8713029643345692 2.583881202104169e-17 0.0001906751121832003 0.9523023714416474 0.04750695344616937 2.438901026741923e-45 0.9987656725436451 5.088203459432856e-08 0.001234276574320336 0.001953759176215256 6.057833675351272e-136 0.01919229797236621 0.9788539428514186 1.326750280932473e-137 0.3885216148809333 4.724989657330467e-06 0.6114736601294093 0.03504310775390927 1.671657998580044e-10 0.964956891741233 3.376920310428797e-10 0.9999999697602964 2.618934906760022e-09 2.762076869634784e-08 5.060926948546756e-22 0.0007554427611030394 1.381795589786937e-07 0.04806126271030003 0.9511831563490379 0.415389778851553 0.255957447868485 0.1598644405558907 0.1687883327240714 4.723211969618887e-07 3.409241931083421e-17 0.3160745563835219 0.6839249712952812 0.06527247734815127 0.902356173892236 0.01267340894037076 0.01969793981924192 0.999998559696233 1.402549793286065e-06 1.716487072972322e-33 3.775397374868035e-08 0.00181722679446022 0.6096097262874787 6.490127583763844e-05 0.3885081456422234 0.1733954988917537 0.4449003965584853 0.3476979159398111 0.03400618860994978 0.9996550692625291 1.706433830817597e-21 0.0001372556872225791 0.0002076750502483425 0.4925526705078602 0.5074471995006056 1.844394822403112e-22 1.299915343256593e-07 0.2722554372532927 0.02425024067196476 0.7027365615103468 0.0007577605643958109 2.54243362593594e-09 0.9673030418930874 0.03269695556447908 1.298217796888335e-23 0.5558466827436291 0.3430885949692857 0.1010647222870851 3.872528363227065e-46 1.504230582363828e-13 0.003828486424619266 0.9961714621614945 5.141373580561899e-08 2.944953702003498e-46 0.05253233080652697 0.8061175666304728 0.1413501025630001 0.2311894330230128 0.3650981083563885 0.4016570566282119 0.002055401992386712 0.3136326290762488 2.232390876100908e-11 0.6863673709014273 7.733804305329567e-118 0.9669908116071657 2.890763579369192e-09 4.347924421705883e-08 0.03300914202282656 3.580428348883032e-13 4.319596846563539e-07 4.395468624957727e-34 0.9999995680399574 0.0005029683467137026 1.141623613228498e-52 1.738881401620729e-05 0.9994796428392703 0.1044051974487811 0.5178206468357111 0.3777741557155079 1.621550645126712e-35 0.2754592320647622 0.001988629110456442 0.7225521388243152 4.659871407805118e-13 0.0001311802311888965 0.9821016226731234 0.01776719161909794 5.476589702804355e-09 0.0004422565481990769 0.9995577434518009 4.453434639684703e-59 1.200308190969432e-78 1 6.364954958552015e-43 2.394452542582451e-52 0 5.135893826790963e-14 0.9999683572896936 1.092430607120427e-17 3.164271025508299e-05 0.005626168641960247 1.753403498261092e-06 0.9942673642859663 0.0001047136685751453 0.1566704392399517 0.8297824690269567 0.003586900540305551 0.009960191192785909 0.1143557748044307 5.706633146742768e-06 0.8822802205969736 0.003358297965448754 0.9633882761784636 1.709874647942516e-08 0.03660820757661767 3.499146172320816e-06 0.1845012746648574 0.5834133644324864 2.428347504941474e-84 0.2320853609026563 0.0001434427718492751 3.555360263404533e-06 8.536657565373134e-07 0.9998521482021308 0.08958019477898636 0.001203646412288665 2.043800067686679e-10 0.9092161586043449 2.466038358459967e-09 2.009483245421223e-09 0.5707994006928166 0.4292005948316618 0.0001340701691069588 0.5916131220324348 0.4079950803765627 0.0002577274218954764 0.007118260374553836 0.9927602900407878 0.000121449243510128 3.411482424756008e-10 0.000734969185747503 7.241166532470839e-08 7.944680349180094e-07 0.9992641639345523 0.03230216430770289 0.0003639441078605579 0.9642576857819726 0.003076205802464223 6.187555885557694e-26 0.02937304916438431 0.9706269508356157 1.194281461106788e-118 0.3432259507712554 4.235544803643161e-06 0.5882534397588786 0.06851637392506237 0.9997915330238315 0.0001702208970486109 3.824520734556301e-05 8.717743427575303e-10 2.13237076473393e-13 4.259495678783625e-06 0.9999957361768311 4.32727686840316e-09 0.02736506899369337 0.907546122259453 0.06432607660012427 0.0007627321467294345 2.388808923525699e-42 0.02316833932412843 3.517824764589522e-13 0.9768316606755197 0.08911248183363414 0.9108875180677773 1.837709669214528e-35 9.858866907588151e-11 0.5860376279593317 0.0001545155301185324 0.0049300390874426 0.4088778174231072 8.240322091508465e-05 0.9999163675301381 2.558349925931856e-11 1.229223363316839e-06 0.7980415934554121 9.295942563716592e-08 2.138092453621732e-19 0.2019583135851621 0.03630605218569909 1.02453936059789e-05 0.9636836351757742 6.724492080721325e-08 1.153215098027468e-30 0.9999999963637516 3.636248479294357e-09 1.721295319747522e-39 0.0004449250465933462 4.367548073617671e-05 0.0001512697939062645 0.9993601296787642 0.2533395972523383 0.7463981917663075 4.51373900459845e-06 0.0002576972423498298 0.9999809108753532 1.908787362737076e-05 1.251019302697066e-09 3.976316817480753e-28 0.001268627197875348 0.007022093047210299 0.9917090533691798 2.263857346707343e-07 6.435545672086343e-10 0.9999953383303859 4.66102605944031e-06 3.11501645916934e-20 0.9944652986830912 0.005534701316908724 3.809547051760601e-27 1.062330324222018e-35 0.02907265849989438 0.855991033623793 0.02800009285960167 0.08693621501671109 0.0002153098667865062 1.453314877412237e-08 0.6194798230851579 0.3803048525149068 0.9842728766598042 0.000271351817185039 0.01545577152301071 4.182168684713044e-24 0.04438404141003972 0.768762131983561 4.739279745230438e-05 0.186806433808947 9.68379099949282e-05 0.981617441797212 4.392929659620599e-45 0.01828572029279292 0.05192382067394939 2.235297937756631e-07 0.1362841644363909 0.811791791359866 0.2887483919423711 0.0162231168283265 0.3644802684490008 0.3305482227803015 0.9999855512701474 1.444872850066431e-05 1.331493819361106e-49 1.351921457738895e-12 8.242204060755518e-05 0.9935690303219263 0.003761241127333364 0.002587306510132765 0.0005852609848688702 5.592821748199055e-22 1.73026709692215e-20 0.9994147390151311 6.39412555014894e-12 0.9939697316024088 1.157070477462685e-05 0.006018697686422578 5.741732690638195e-05 5.702210759056835e-08 0.0008859465784385804 0.9990565790725475 1.811436144676086e-43 0.2663101390415316 0.7336898609584684 6.251445625217371e-100 0.000491351681637531 0.02506335741743861 0.049629884108296 0.9248154067926279 0.1475060981629278 0.003248426396734276 1.165785380388134e-11 0.84924547542868 1.60511570521642e-06 0.08228307879013315 3.180783830049421e-15 0.9177153160941584 6.126512487746096e-31 6.048367837795144e-07 0.2955856157096753 0.7044137794535409 1.301705019575126e-06 0.03482562241595233 0.965172853475295 2.2240373307043e-07 0.002505577694789654 0.3931086998708931 0.556012040455904 0.04837368197841325 7.998174044021914e-07 6.571603787202262e-05 8.331713201546829e-10 0.9999334833115523 0.9949750111873783 0.0001303630366809008 0.002026671293044634 0.002867954482896219 0.2464342385966869 0.2570696036724532 2.007972964430166e-12 0.496496157728852 2.661895835186413e-26 9.613724654824996e-15 0.8254761609880135 0.174523839011977 6.183021420585869e-06 0.9954523129041094 0.004541504074470092 3.192707124522661e-24 1.771200326578878e-22 0.1912400552673341 0.8081089086861488 0.000651036046517273 0.0007535983572881218 0.9982170214897162 0.001029380151036865 1.958792008707433e-12 0.390203393149544 1.962509938596737e-26 0.6090856671476389 0.0007109397028171062 4.957790143618756e-09 0.002382422797282983 0.9794422222682708 0.01817534997665613 0.6163046736587302 0.3836900577623242 3.128164555914359e-06 2.140414389741033e-06 0.7623740355425366 0.0002668031098054891 0.2094845692801507 0.02787459206750712 0.9298045135393488 0.005260090642032109 2.393737768746399e-05 0.06491145844093169 0.01249547943942654 0.9872908219189317 7.634745494600862e-22 0.0002136986416418023 7.984551709218049e-11 0.7781406962000886 0.2218524096287214 6.89409134456053e-06 2.291275663649053e-07 0.1959624681286122 0.7987114362449307 0.005325866498890656 4.776413459720643e-59 3.094098686327568e-56 6.410868099164076e-13 0.999999999999359 0.4089469336080971 4.267815401295473e-76 0.5910530663917267 1.762443261634767e-13 0.8085901520971278 0.001994418886751676 0.184856260491651 0.004559168524469521 0.2638951838885037 0.0008997883191666432 0.7352050263119954 1.48033430703777e-09 0.006292378942890947 0.4498731000945462 0.003006311335019115 0.5408282096275436 4.733303315661881e-18 0.9997186912598606 0.0002813087401393868 9.581261579363908e-49 1.20125574258525e-42 0.9996489255586924 3.454953650722748e-18 0.0003510744413076858 0.002152594611173794 0.9978474053888263 5.532701293596614e-23 7.970985240171975e-98 1.117126646285021e-05 0.00307350617669348 0.3958867714271625 0.6010285511296812 3.269713432316515e-20 5.319467012860569e-06 2.726787793246402e-18 0.9999946805329871 0.07082848348161801 0.7480907031457628 0.1810749356011088 5.877771510497585e-06 4.721030090070053e-06 6.561278873333443e-32 0.7607028897450726 0.2392923892248374 0.1465483891482796 8.197319661947835e-19 2.992885067605124e-07 0.8534513115632135 1.103056860386333e-28 0.7177166258957182 0.2755619814777547 0.006721392626527118 0.1069495717582633 3.98226713474353e-07 0.8930500300150233 1.260546607027714e-39 0.9999999984383695 3.906187653186965e-27 0 1.561630551808475e-09 0.981567787361061 0.01843214239873742 6.981807289873902e-08 4.221286989002033e-10 7.295057900803031e-24 0.5238595513904778 0.1907156377478023 0.2854248108617199 1.343467737942292e-06 8.974862194433772e-12 0.003271118017508459 0.9967275385057787 4.181122357348464e-11 0.02227205961162845 2.605339498928887e-05 0.977701886951571 0.9999864247251489 1.149588194930822e-05 2.079392901795293e-06 1.78305926806231e-16 0.229369567397652 1.737285013650606e-06 0.7705591121640686 6.958315326579293e-05 0.09906752684264966 1.370514772353619e-09 0.9009324717864559 3.798963432821717e-13 0.08900105102303014 3.427972979157848e-07 1.022213758447892e-07 0.9109985039582962 1.443046063547916e-06 0.9294876549177469 3.795241685032366e-07 0.0705105225120211 0.1628383783790741 0.6170325730268174 1.667961078177092e-06 0.2201273806330306 0.990321655136049 2.758738358800628e-12 0.009563210867676248 0.0001151339935160102 5.107279659680464e-05 0.0242650514528374 6.168346757897598e-06 0.975677707403808 0.01277442739735185 0.02088237929144308 0.966343193311205 2.454893496352196e-29 0.9999864299674756 7.105644975462845e-07 1.285946802677451e-05 8.320228619569309e-45 0.1391382203346132 0.01482269912637471 0.8460390805390121 7.226634717011976e-24 0.01561102449443683 0.0608714209840123 4.554202701363299e-17 0.9235175545215508 0.8452030879236564 0.1547969120763435 2.16798387900723e-77 0 6.70861294855713e-05 1.060914313087602e-29 0 0.9999329138705144 0.04021158922550387 5.686179426514075e-05 3.452881087196557e-07 0.9597312036921223 0.8748850677616961 0.07631108856259879 3.73419133828162e-11 0.04880384363836326 3.074818074489709e-09 0.7759484244666868 0.2218202680410472 0.002231304417448057 0.01200720399311219 0.7315655040287247 7.403249973801319e-18 0.2564272919781632 2.953743273448742e-09 0.0001107027400963369 0.9962197864331648 0.003669507872995611 0.862400235984482 0.01949691767807278 0.1181013238665966 1.522470848690204e-06 3.051683597458025e-92 0.9999849900680721 7.596272295054696e-123 1.500993192780132e-05 7.356377259024361e-71 8.553474013995839e-60 0.9999999987517011 1.248298908915815e-09 0.08846689551676454 0.01922041429875664 0.8922484968123511 6.419337212779967e-05 2.705026784185319e-24 0.002850268194170473 0.9971497318058277 1.865790463959678e-15 0.009884458595502344 1.469256243183733e-05 0.007855730653338142 0.9822451181887275 0.02791453282154304 0.9719461692446139 3.069826540209126e-58 0.0001392979338429636 0.1758870678877777 2.215575684582059e-07 0.3826688710444381 0.4414438395102158 0.1226175899491934 0.794668491340396 0.0004616533814291249 0.08225226532898146 7.455362455457431e-13 0.9998240590562426 0.0001759409430116347 1.777826803971852e-18 0.5128162796771731 0.4871837200164741 1.718858255610121e-57 3.063527347513705e-10 0.01019367844583145 0.9821915430461975 4.024067090158864e-06 0.007610754440880908 0.9083078551925277 1.586475523665387e-07 0.09169198615991979 1.123191375246887e-278 0.3801987469842421 1.445241582508599e-05 4.828670301097973e-13 0.61978680059945 6.151528696960451e-12 2.383978034511047e-16 0.009724705215605534 0.9902752947782427 1.303470797178104e-31 7.279782913144774e-18 2.351622365392434e-06 0.9999976483776346 0.5786780249604657 2.032391994947214e-43 0.3890407595436871 0.03228121549584715 1.754721913576054e-05 0.06365599238916142 0.1152662094024786 0.8210602509892241 0.03403336197206373 0.4757540066603581 0.4896764382413232 0.0005361931262550205 8.610521067849286e-11 0.0007417573682068149 0.999258242545688 2.980449497911227e-77 1.56529460844609e-24 0.01045777194918415 1.447353565949409e-40 0.9895422280508159 3.711690647670917e-19 1.76530357316242e-07 0.9999998234696427 8.5312114831937e-30 4.417289143660785e-15 0.2433547826652744 0.7566452173347212 2.437521716034014e-90 8.804891619740765e-09 6.110694183307407e-06 0.999993880500925 9.697607114530292e-35 7.003334351202659e-08 2.836170837533181e-08 0.999999901597632 7.316156287855395e-12 0.4101939024504576 0.3885636536768106 0.1653940618268097 0.03584838204592215 0.000564342171055889 6.52933645499494e-21 0.9977170773302466 0.001718580498697555 5.359661710943912e-09 3.170687223509276e-07 0.4937974568889985 0.5062022206826173 3.21401225719356e-05 0.1682399498735691 0.8317170447188557 1.08652850032406e-05 0.0003021351570582027 0.001316495829321795 0.998380142086527 1.226927092942009e-06 0.0004880439906702649 0.9215510251954226 0.07796093081390701 1.848621785990355e-20 0.2919214112063868 1.452684466856022e-06 0.02971787922573142 0.6783592568834151 0.7324279282733662 0.2668193230863492 1.795934832150244e-26 0.0007527486402844831 0.9911619673323643 0.001736946798936584 0.006844396351564985 0.0002566895171341896 0.001267772261431227 1.14089703224101e-10 0.9188242071168577 0.0799080205076213 6.975243264795901e-07 7.287934314436635e-07 0.0812367009804352 0.918761872701807 0.2001401212522769 0.5334085987820163 0.2664512799657067 0 0.3801809550002522 0.5462803453776246 1.637765225485228e-57 0.07353869962212324 0.7811989705280266 0.2184458860973463 1.515442870431383e-13 0.0003551433744755431 0.01232958711658329 1.143671036487385e-12 0.9876691843043723 1.228577900779453e-06 0.1256311561459405 0.8368151549641354 0.03755368888992401 2.468032001874527e-28 0.9999997650298277 1.685170005953512e-07 6.636894256938061e-08 8.422920216425806e-11 0.1542634228555552 0.1523931621171423 0.03476166187905109 0.6585817531482513 0.9913834750801808 0.006297055697247225 8.676501526707165e-13 0.002319469221704551 0.3300067352009944 0.002072470582872685 0.6679207607540888 3.346204407758737e-08 0.01226218346103082 2.383287605400748e-11 0.511883734141109 0.4758540823740274 0.004850848989546575 4.529796475990901e-26 0.3885858419158024 0.6065633090946509 0.01405553408461846 0.8079719411342353 0.1779725247811462 4.596883556150182e-29 0.9081136216012634 0.0001933035200223487 1.692261197787884e-10 0.09169307470948811 3.958555307685008e-12 1.249670004617697e-30 0.5218491212189744 0.4781508787770672 1.250375688642102e-06 0.01775180337482336 0.9822464780978666 4.681516214325651e-07 1.506015679063557e-18 2.5442484821304e-11 0.9999996792292228 3.207453345789962e-07 0.00899037220661336 0.991009598146473 2.96468745128111e-08 3.89477092281539e-14 6.073445852585833e-41 0.9942169190302689 9.738336084145829e-16 0.005783080969730198 0.1110199581664129 1.576093471322e-05 7.835287702655535e-11 0.888964280820521 0.3028582804467565 0.1020368212323208 0.5950476583787812 5.723994214139942e-05 0.1006790798297253 0.4532594138504835 0.4094192108645987 0.0366422954551926 1.164851504884072e-05 7.419022597400162e-91 0.0006322038631743783 0.9993561476217768 0.06402989138882138 1.231704871587301e-05 0.9359552198666599 2.571695802754795e-06 1.888716132288109e-16 0.185430370704622 3.40185277161198e-05 0.8145356107676617 0.757766268697739 0.01376694806375764 0.2284667832385034 3.229149040758635e-35 3.450827496509411e-21 0.9269965327812519 0.07300346721874819 2.988998344210373e-319 0.5790281283216313 2.688882153695898e-82 0.0001329196673645542 0.4208389520110042 0.362894308073426 0.6371056873742866 4.548147402124889e-09 4.139904005408319e-12 0.9737894230049848 0.002837738233688106 0.02335720415631279 1.563460501417689e-05 1.170326289890684e-06 0.01861083326752632 0.9813837778073652 4.218598818655309e-06 5.95035332936487e-13 0.3937520932745484 0 0.6062479067248565 0.8681224800687281 0.0002031800628294886 0.1316743398674682 9.742591899880263e-13 8.845754958114885e-12 0.372158320355603 0.6275882602557827 0.0002534193797685986 0.1939555151668949 3.33690547381336e-133 0.8060444848331052 2.200844342139381e-17 1.183291924203589e-06 0.9999988167080758 1.526510177127779e-25 1.584292531987109e-58 3.896739457389997e-07 0.0001038027398794565 0.950240756400102 0.04965505118607279 0.9906361082216431 9.940375235605732e-07 6.893695724787867e-05 0.009293960783585419 0.9999999953976019 4.572749578851483e-09 2.964842644162227e-11 5.376353619043762e-19 0.9999999181707481 4.509447001664558e-18 4.093919590667949e-63 8.182925187487546e-08 4.191254124572629e-05 1.917947980304838e-29 0.9999399400519124 1.814740684187044e-05 0.9999999902100913 4.866244170693445e-35 2.806190098041999e-42 9.789908594961945e-09 0.3083027818330632 0.0007110651391858077 0.6821480353069931 0.008838117720758092 0 0.03750938293931586 0.2233526497997048 0.7391379672609794 0.0002701204781028671 7.936687854851545e-15 0.007916527297653105 0.9918133522242362 1.70768746623514e-18 3.797011660868689e-29 0.9999998098343523 1.901656476454113e-07 0.9061407836759232 0.09385921591620484 3.491397956876707e-18 4.078718775538267e-10 3.986682064731432e-08 0.1336738443525619 1.037082914983601e-14 0.8663261157806071 0.8631307225779592 0.136869269250918 1.385186993855987e-22 8.171122784933531e-09 0.9999998460210118 1.539789879864061e-07 8.625250772175344e-53 1.410424637019729e-16 4.493832652113816e-23 0.006277391940203288 0.9876470525424903 0.006075555517306274 0.9998402306457591 3.146549102721424e-63 4.404663793572762e-08 0.000159725307602885 0.09790904884679795 5.230225078091594e-07 0.8977808710916405 0.004309557039053738 0.007911549658577689 0.3900866132599857 0.3018755497974841 0.3001262872839526 0.00646284085318637 0.9935371572189011 1.927912382600621e-09 4.138898468366723e-17 0.9995538419112017 0.0004461580887982526 1.353669646170403e-17 1.343820205637705e-106 1.531362921189678e-08 0.4947539242432562 1.310808748844889e-05 0.5052329523556262 0.2306751986554968 5.764179808223385e-07 0.1145491882400781 0.6547750366864442 5.85653534399951e-18 0.9999953197315172 4.68026847339621e-06 9.489003539614856e-15 6.239426915814611e-10 1.800183776831235e-268 0.4353814560115757 0.5646185433644817 0.975848450010825 0.001615128361443946 4.410220405563887e-24 0.0225364216277312 1.802955557373872e-07 0.01248042099069136 0.9875193987136882 6.479421367623127e-14 0.05595156471041689 0.7512539795659122 0.1927944557236708 1.116960880860039e-21 0.9343056495345715 0.05765587986678724 0.008038470598641287 2.594323181289345e-226 1.544100318483262e-07 0.9995869534223495 0.000412871315579755 2.085203902294953e-08 0.006184854933027651 6.027779923919266e-20 0.6366023168643562 0.3572128282026161 4.797807668221033e-08 2.17546587779849e-12 0.0015756649194448 0.9984242871003031 1.058832870175683e-08 0.3936778226698935 0.6063221667417776 2.75298938874438e-56 2.606845064935097e-05 0.997345272905391 0.002627951488445446 7.07155514186886e-07 0.0642695623689062 0.02131302621228268 0.9144174114188111 1.797177738223141e-18 7.497014043655679e-10 6.681906936693995e-36 0.9999999992502986 4.845881111116347e-46 0.002326413768992766 0.0003224719520294037 0.9954950014758711 0.001856112803106638 0.1139661172898287 5.338534028608752e-33 0.8860338827101712 5.646951115759212e-79 0.9859863705491443 9.487448671055995e-15 0.01400921372762896 4.415723217439514e-06 0.002394626307775661 0.05726289851775995 0.09798397000839812 0.8423585051660664 0.004297958562806297 7.475965584539461e-37 0.9957020414371937 5.816326220009437e-40 0.1175607659155963 0.0839567153753645 0.0001060947492439473 0.7983764239597952 0.04758655554326643 0.8593950625946279 0.0883009959557359 0.00471738590636973 1.183963258114549e-146 3.496072863898792e-17 0.9999891464453264 1.085355467345642e-05 0.3847577961405587 0.5741898746452032 0.04105232921418762 5.048584870952974e-14 1.981366177246495e-14 3.596436395777807e-06 1.394526022191651e-05 0.9999824583033625 1.895728423916834e-70 0.9984770754363117 0.0002555736569140212 0.001267350906774109 0.9996195914814621 0.0003804085172967519 1.241340725009772e-12 2.317083958178771e-23 0.000263544605786856 0.0001554448531212566 0.3626004199941812 0.6369805905469108 0.03455939099774381 1.90009712758491e-13 3.335180767350679e-26 0.9654406090020661 0.2844024311791965 0.7142687581167281 0.001328810704075584 1.343310594761978e-125 0.1253119696646729 0.8746868999384654 6.617907005156308e-07 4.686061612194045e-07 0.9999903720518556 2.763277925406663e-14 4.244700792501149e-12 9.627943872052233e-06 1.173437728888392e-51 1 3.93667166974757e-209 3.445215311064173e-40 1.41566743422032e-05 0.999517150427784 8.734541235061898e-07 0.0004678194437502684 0.0001586486087427744 9.653201796330406e-22 0.004947754044274224 0.9948935973469831 0.01320316418308301 0.04903670758253676 0.07808589643545247 0.8596742317989278 6.366877089403429e-21 8.277091903003118e-05 3.497414468436383e-06 0.9999137316665015 0.9736784286995529 5.113862881571754e-24 4.748790984249533e-39 0.02632157130044715 0.1252587995220722 0.255350400733054 0.5767936277246178 0.04259717202025595 0.07694108182780289 1.216043519735469e-05 0.9219907108278662 0.001056046909133482 3.432522435002063e-05 0.9433853182085171 0.005945856137169332 0.05063450042996348 0.8467091995300455 0.03202815416986306 0.1212626462414698 5.862162982648911e-11 0.07120525210176241 0.913531938558695 0.01526280930487155 3.467098398936703e-11 0.9546389261162364 0.04533012913694195 1.872239173738611e-22 3.094474682169283e-05 0.9996162348604984 0.0003080793359591986 2.317672973102467e-08 7.566262681249283e-05 0.5964177492944137 0.000686072588010909 0.4028961686346832 9.482892107363322e-09 1.58614562495409e-10 0.690494501496377 0.3094005744581527 0.0001049238868557678 0.9983101333916117 5.74332158362352e-08 0.001689809175172372 3.932465444172752e-26 0.07984796052861234 0.03691634957631898 5.980180924957227e-07 0.8832350918769762 2.579113277369169e-10 2.488497304809555e-05 6.653421237469892e-09 0.9999751081156192 0.9788333378706734 0.02116636838017473 1.09943977263952e-07 1.838051745395424e-07 0.9556893637372962 3.684273949527972e-08 0.01427652416877801 0.03003407525118622 0.7829935865752841 0.1339138424335984 0.0002597304707225454 0.0828328405203949 2.609274515504187e-176 0.961522895702609 0.03847678352586942 3.207715217465753e-07 0.9999999999908196 9.180375866411123e-12 1.557889182030634e-44 2.919760068870316e-17 0.00182586905295535 0.5601212883572836 5.059611438981122e-05 0.4380022464753712 2.559417684535546e-123 0.9982978742082763 5.013903679482937e-05 0.001651986754928949 0.3810474226315233 0.01200310509667591 0.6067788597976429 0.0001706124741579531 0.9451239050304009 0.001527206390128872 1.488979135044814e-29 0.05334888857947038 0.9999625212536306 1.871132919052186e-05 6.203497430732012e-07 1.814706743581447e-05 0.01432862260701993 0.9856713583622589 1.351441104206203e-08 5.516309962940223e-09 0.9999998878898267 3.1942351952528e-217 1.121101731425073e-07 5.470032636795528e-26 6.64429891630594e-07 1.842645226948259e-11 0.9999993355513884 2.936419022923251e-13 0.9386506273430029 0.06134937265688254 4.500906044468387e-42 1.14762724300064e-13 0.9876195438168309 0.001329479703628062 2.179772525500604e-18 0.01105097647954095 3.150971578808356e-10 0.8149341490286057 0.179386071393018 0.005679779263279161 0.5224646148836288 8.229676466071749e-06 0.477336556942619 0.0001905984972860517 0.09522137787857635 0.9047783025236029 1.904494903349666e-78 3.195978206623617e-07 2.311982939600335e-12 0.1372095977347649 0.8574345605575747 0.005355841705348495 0.3387666242093274 0.0002191525852733835 0.003287950962082062 0.6577262722433171 3.189665420531964e-07 1.354906651134e-25 0.3871937232989077 0.6128059577345504 0.006910219824353336 0.9918801103243003 5.941787858644799e-06 0.001203728063487707 0.0007111299368414126 1.273431024945473e-05 0.9992761357529092 1.021996324315472e-45 1.974894837399634e-55 0.9999949585203898 7.233374814372742e-07 4.318142128867464e-06 1.41227875414945e-21 2.224740146269434e-08 9.434217901428126e-13 0.9999999777516552 0.485450159225136 4.457926965846302e-06 0.4233100958885084 0.09123528695938962 3.568323369426353e-05 7.254614563511224e-16 0.4743064138496756 0.5256579029166294 0.3732512256904451 0.335159414717692 3.60827174623455e-10 0.2915893592310359 7.546607816245368e-06 0.9996619113278793 4.411205201399615e-08 0.0003304979522523347 0.2782406145496473 0.6997028337497135 1.731920725249773e-08 0.02205653438143202 5.680333867703192e-06 0.233797484863368 5.027366905847095e-13 0.7661968348022615 0.0002429414502203784 1.047107631136809e-06 0.9997559748693073 3.657284107318783e-08 0.0007286285754291272 0 0.9992713714245708 1.82913065733447e-28 0 0.002207702984177148 0.00254682202540392 0.9952454749904189 5.933193124948325e-15 0.05434754286122533 3.808672534243233e-35 0.9456524571387689 2.371555288896305e-07 1.899485762314361e-08 7.295526111948442e-10 0.9999997431200608 0.09387749405966152 0.2959786792624863 0.3187496049575078 0.2913942217203445 0.0001857996681372058 0.9997948938159104 3.235612316395342e-26 1.930651595246163e-05 0.2216050321539321 0.6022903150196721 0.00386110886595679 0.1722435439604389 5.095426471878062e-13 0.118906713688221 0.8390218431420615 0.04207144316920801 0.0003249977838947723 1.63137169401625e-12 0.9996750022144739 0 0.2423737574549363 1.180915306194142e-25 4.889057687749885e-17 0.7576262425450636 0.0001817753031943736 0.000183723318673409 0.4315619884152169 0.5680725129629153 3.258788948417755e-09 0.3006534434004881 0.699346553340723 2.18126864352084e-28 0.3788864412402367 0.5915376146161549 0.02957594414360828 8.595908794182315e-54 0.2549431110798818 4.302931522640746e-29 0.744891466842072 0.0001654220780462229 4.432500346999624e-12 5.479072625827891e-08 9.280019771035018e-06 0.9999906651850701 0.9893097452162644 0.01069025478373564 1.606120279168077e-84 5.533986764248666e-48 0.3257981606432766 0.0123903630647679 0.004932432996026927 0.6568790432959287 0.00415585361799589 5.326757970894802e-07 0.995843613706207 6.372446849545953e-29 5.74377894578086e-15 0.00211654678321964 4.600374686361719e-05 0.997837449469911 1.966244640245783e-07 0.6975587731006573 0.3023491038560576 9.192641882107689e-05 0.8654510141761811 0.1344867229508904 5.025791678080142e-05 1.200495614764711e-05 6.769202540281085e-14 2.341300855847244e-05 0.9999765869913738 2.260051384706771e-20 3.529273351100795e-14 0.02112627644844747 0.9715846884182453 0.007289035133271875 0.9712478834551553 0.02661041928166539 2.333116058624525e-44 0.002141697263179321 0.00262351357260496 1.902370100352425e-20 0.7696026620272783 0.2277738244001166 0.02141761033168318 0.9784461123149216 3.385497973525536e-05 0.0001024223736599105 1.667009267590889e-09 3.166022026246304e-05 0.8099652106234501 0.1900031274892782 0.9920616610639409 0.0009899778125890052 3.332129692053742e-06 0.006945028993778027 0.3394960298280426 0.03774346793754348 1.971254440460617e-06 0.6227585309799736 1.566001951186752e-34 0.000182747931263328 0.9998172520687367 4.639912719269464e-21 0.5521542895376707 0.1750243595505005 0.2328252687604429 0.03999608215138575 0.9993359735828309 1.983796191825815e-17 0.0001670111488852352 0.0004970152682838774 0.8694599477654553 0.1299046632457176 0.0006168244209428784 1.856456788421719e-05 0.180338030607777 0.07500438707720335 0.3198127309576815 0.4248448513573382 0.9689141455906473 4.055880653183381e-12 8.009553761094939e-07 0.03108505344992062 0.05282408297739206 0.24463076016121 6.761206915812604e-12 0.7025451568546368 6.99002098858665e-20 0.005591463372473176 0.9944085356992336 9.282934655649127e-10 0.9942381869985208 0.001920706491951159 0.003840970148921927 1.363606061672543e-07 9.714778468279249e-85 2.447893465254332e-06 0.9908268120223719 0.009170740084162984 0.1306594843061833 0.7475182735967556 4.322426669804252e-14 0.1218222420970179 1.483699974721628e-30 0.04602138220015763 0.9539786177996409 2.01463777979918e-13 4.480821907021702e-30 0.765460922503976 1.364659832728251e-07 0.2345389410300407 0.9920546828747777 0.007742995305638376 1.515171182619999e-13 0.0002023218194324302 0.0002642604814823696 0.002287029315064562 0.9046398625885774 0.09280884761487565 0.1509271344991662 0.002309761631492752 0.8265470079010395 0.0202160959683015 0.006212411557595778 0.9937850821956056 2.506245731032116e-06 1.067620227746311e-12 1.427819042022278e-24 0.001492012704783738 0.9818687979529669 0.01663918934224927 0.999992722418953 1.656549078697792e-12 3.021610572699051e-06 4.255968817604306e-06 0.3805362255729179 2.689707740616542e-10 6.056119878274202e-22 0.6194637741581112 0.004230567714997041 0.994853185717172 0.0006629355556766871 0.0002533110121542661 1.06014564194655e-08 0.4563940633028366 0.07148356643441875 0.4721223596612882 4.37169866750181e-05 0.03960015758739231 1.996583356574829e-06 0.9603541288425762 4.899511852407734e-07 0.9701458077243067 0.0291064361468856 0.0007472661776224272 1.554265934266609e-05 2.235923104587878e-10 1.292152465995144e-06 0.999983164964599 0.01178929165042866 0.6467590341522079 0.1405666614228158 0.2008850127745477 5.476409867502226e-08 1.919456878801265e-25 9.25653650607452e-12 0.9999999452266447 6.805350225001568e-06 1.61500264236847e-05 8.238447275570596e-24 0.9999770446233512 3.609391810641242e-06 1.899941776655996e-15 0.3725146753321175 0.62748171527607 7.071399864564428e-10 0.6602825575128959 1.039132916596687e-19 0.339717441779964 0.04145049319723693 0.0003992631982880367 0.0009397731589536437 0.9572104704455213 0.03348053407770714 0.01229335918947189 1.903485910164151e-10 0.9542261065424724 0.9999997102513185 9.088517517810216e-15 4.943176054972346e-33 2.897486723430499e-07 2.330956525011562e-07 6.471257978506237e-05 0.0822406408141298 0.9176944135104327 4.72555932806565e-06 0.0003355330696242382 0.1712244167295891 0.8284353246414586 0.3850748002385287 0.09662978438417304 0.5182948217604879 5.936168104283508e-07 0.2483911188765682 0.1992209028173956 0.513155686022587 0.0392322922834492 0.9883450132230864 0.01165073201253207 8.254455102995941e-08 4.172219830556356e-06 1.390092007759754e-05 0.5538148092655882 4.124921559195392e-14 0.446171289814293 0.0003231990603391238 6.838185115743932e-111 5.104163653410923e-07 0.9996762905232955 0.9969557406930659 2.411717869483218e-09 0.0004691587096727223 0.002575098185543561 2.543973197227307e-09 0.7398551555505303 0.2601448419054963 4.473181789819368e-61 0.2561430757110096 0.001967737041551368 0.7400551002016842 0.001834087045754769 0.9999997501420843 3.108744480259643e-34 1.446097042895364e-32 2.498579156202331e-07 0.9848546843161866 0.0003177517569130419 0.001991076221623801 0.01283648770527662 0.4688447730119125 0.5266881814881965 0.004434515889387374 3.252961050361709e-05 0.6864109616744628 0.3133338108409701 9.93741168718882e-05 0.000155853367695213 2.359031734529661e-50 2.137474651306272e-15 0.1476588214424766 0.8523411785575212 0.004023510077837027 0.3779132713067402 0.6180557694614731 7.449153949625636e-06 1.069412885684198e-10 0.00942356454174495 1.495225883134917e-05 0.9905614830924823 1.200036607389426e-32 6.266065113824728e-06 0.588602078042715 0.4113916558921712 3.22862769956703e-07 0.00119267022251758 0.9001630004077111 0.09864400650700134 0.001547731636951532 0.9865202841175471 0.00638036508893495 0.005551619156566375 0.1255369821802942 0 4.567972947718373e-09 0.8744630132517328 1.021260783032839e-20 3.945564551873179e-14 0.01810060607363709 0.9818993939263235 5.395452260758425e-25 0.3919042630673316 0.3058333418182344 0.302262395114434 0.3809597485871179 0.000484796221225743 0.6177837388111632 0.0007717163804932155 0.007820611805980744 0.9921784233566607 7.997351835126017e-07 1.651021751416531e-07 0.9993623839565313 0.0003515899832506879 3.060768671920366e-18 0.0002860260602178865 0.04823870986941475 1.51597144182689e-05 4.291892478324143e-13 0.9517461304157377 4.244751767338107e-16 0.9568438893194197 0.0422134438749074 0.0009426668056724305 0.00138402315149808 0.001383265923673552 0.0002590022847497093 0.9969737086400786 0.6781199075403115 0.2810761394076259 0.0002186039697917907 0.04058534908227083 0.8611510994119302 0.135344408487811 5.790987655026477e-17 0.00350449210025889 4.926611130819415e-08 0.999999950720198 8.47235127096084e-187 1.369063838601149e-11 0.0001185745244799892 2.805370953853764e-06 0.3762592558452701 0.623619364259296 5.251146135202888e-05 0.9959566232261866 1.515327067730267e-24 0.003990865312461328 0.2915537490508227 0.7084202793006745 2.597164850113039e-05 1.573079331597462e-15 0.0003913418272009449 3.029115709998373e-15 0.9996086519518995 6.220896493186246e-09 0.2985019806127598 0.7012712109784277 7.142905751998668e-05 0.0001553793512924453 2.371644648436614e-05 0.9999747672694439 6.953803335141732e-26 1.516284071852009e-06 2.220042114018186e-05 0.00318062728002003 0.9964095878827053 0.0003875844161343604 0.9954573278637395 0.0001992395456069558 0.004343432590653611 5.344332505223888e-29 8.403886851562781e-09 2.768943091470645e-18 0.9999999915961131 4.054596836432696e-18 0.01905578373712277 0.9151756999430954 5.847770870636248e-27 0.06576851631978187 0 0.9999453809487291 5.461872614934469e-05 3.251215408221575e-10 2.389084079587749e-09 2.296505141407576e-18 1.705883551720842e-88 0.999999997610916 2.724058898446769e-07 0.03780803332018824 0.962191692837261 1.436660928494314e-09 0.002846693959901595 0.990855046105711 0.006069501451252369 0.0002287584831348958 0.05616409909264506 2.39711414146335e-09 6.418954978574459e-12 0.9438358985038219 2.780957519892139e-05 0.1270840046364687 0.3677285319825005 0.5051596538058319 0.01916830506932392 0.9734100203755242 0.00742167455515191 6.410381780572301e-52 0.0001034397130564923 0.4393175840058929 0.02054718208961876 0.540031794191432 3.853094716247018e-42 0.04647739306270593 1.873275494094106e-06 0.9535207336617999 0.005927032707979665 0.9924900867276562 0.0002752481417705932 0.001307632422593493 3.542844652190891e-07 0.9733128711787882 0.02668677453674669 2.560823845490076e-46 0.001667765028463726 0.9967823208425225 0.001549914030918913 9.809478429128092e-11 0.8388402633107521 4.293077286651775e-06 2.632529082020716e-06 0.1611528110828794 0.7481241464233722 2.068312202208197e-60 0.2467314804914774 0.00514437308515053 0.9999998295729567 1.866275539055844e-35 1.704270432350341e-07 6.085306729498274e-22 5.085652658294761e-06 0.9993136296665652 6.855975675545331e-05 0.000612724924021031 0.9992862219045668 0.0004797038539345446 9.238348530605343e-05 0.0001416907561927036 0.8629230298659027 8.015045240258938e-17 1.099203391411619e-05 0.1370659781001831 0.5086156322149189 0.4848692253507348 0.006515142434345876 3.287062272611585e-16 0.2434085201121221 0.007949092009875584 0.0002476717879187616 0.7483947160900835 0.9674555382411166 5.037481531638655e-09 0.0200104001720767 0.01253405654932509 9.121219496644995e-08 1.825763228016599e-58 0.9999999087878052 2.141411573334678e-23 0.1168709968700448 4.413430719430422e-09 1.07561303675701e-07 0.8831288911552209 8.619669681678738e-05 5.567329137240739e-11 3.337826994753797e-12 0.9999138032441721 0.9473879070422575 0.02910551692988559 0.02247942362928715 0.001027152398569838 1.960709695388708e-08 0.6977800676891391 3.967335309848013e-10 0.3022199123070303 4.627653299618197e-05 0.3163700709241734 0.6486844886536131 0.0348991638892174 0.9990056110540181 3.403855279567287e-05 0.0009603501658177941 2.273685212243803e-10 0.6687971989954754 9.332892172541866e-10 0.03430525686246197 0.2968975432087734 0.4336907490067612 0.1618264141589369 0.4044828368343018 2.858715200816572e-92 0.4766854429762764 6.688350594228452e-26 0.01472017479255506 0.5085943822311687 1.273882718734299e-07 0.03243305485203535 0.1605329314369676 0.8070338863227251 0.001421240533275556 1.724110575833099e-05 0.9985615183609661 3.045587955998339e-25 0.4102868458672367 0.5897131506018657 3.530671047349083e-09 2.265839844989593e-13 2.079881549120301e-07 3.678904698851342e-06 0.9999961063039314 6.803214779772621e-09 0.003611932063484571 0.9963880679365154 2.511894649873379e-18 4.474771566656025e-108 9.447818628883478e-05 2.498758988961003e-14 0.9998839029986989 2.161881498732272e-05 6.348523644042061e-64 0.0389056345141903 0.02664213417095935 0.9344522313148503 2.563609303686312e-24 1.220034118782232e-14 0.9999990508609135 9.491390743456729e-07 2.026121731193754e-23 7.552010806227783e-11 5.969484520513272e-09 0.9999999939549954 0.005013165315693305 2.844728260571772e-05 0.9949577496043441 6.377973567592255e-07 0.003171233055072953 0.02332435045777821 0.9735044164871488 9.898535636632744e-76 4.414171805481986e-14 3.273142421280123e-07 0.9999807241716631 1.894851405076034e-05 0.1607986378910707 1.419321356487813e-05 8.73732472090189e-06 0.8391784315706435 0.002818957847022503 0.003117316554737464 0.6486969379350637 0.3453667876631765 2.652492045382872e-06 0.7093466584292613 0.2769853689330165 0.01366532014567693 1.498300445424011e-13 6.225871459113941e-11 4.698041771316644e-06 0.99999530189582 1.5993000001385e-10 0.9979557121228496 3.350681263734675e-07 0.002043952649093942 0.6689817830521702 0.01403314982474576 0.1578452096841352 0.1591398574389489 0.7516277007815544 0.1291326551655013 0.1191160603227493 0.0001235837301951516 0.04266512244900574 0.9573333425673891 7.988043651338776e-08 1.455103168659479e-06 0.0004167987302948342 0.4811317997421508 0.5149932101017857 0.003458191425768633 1.937941654002512e-16 0.9853630156330456 0.01439873727550513 0.0002382470914490101 1.469916708835359e-11 2.355748186763835e-10 0.9788608061602396 0.02113919358948626 0.8665743903073604 9.471203358868604e-13 0.1334102076541686 1.540203752394294e-05 0.9999936940949095 6.305905090537926e-06 4.730812643506678e-32 3.202370811817368e-47 7.825631954201277e-07 0.6323119838684683 5.774262751500806e-08 0.3676871758257086 0.6297579254298803 0.0002361778717346966 0.01863606539849959 0.3513698312998854 0.0004680494456049735 0.9995319054365092 1.646395555858403e-147 4.511788591069829e-08 0.0314570458312286 6.923166803774431e-12 7.201350806123726e-10 0.9685429534417132 1.028066247507885e-43 1.394391057012169e-11 0.9999553187625613 4.468122349466032e-05 0.0002826005942846185 7.335280859910179e-05 5.337450204270603e-20 0.9996440465971163 0.0009922187930259652 0.7436524663888694 0.2553553148113745 6.730181707467861e-12 0.02326359530878687 0.3038023095211099 0.6729334424379732 6.527321302076676e-07 2.215195513513093e-05 0.8212527654473294 5.438311474566814e-27 0.1787250825975355 2.100291140454463e-05 4.389932562973186e-05 1.369769023525956e-66 0.9999350977629657 2.743580542003264e-07 2.270732153384142e-05 9.652879072036808e-05 0.9998804895296917 8.790669395128726e-06 0.7162215140898508 0.2837255956440268 4.409959672736887e-05 0.9999916320484087 6.319486593856948e-17 8.367951591273512e-06 1.243880801866685e-16 4.663041834926386e-10 0.8410713498726409 0.1479712159089147 0.01095743375214018 0.8112337151517542 2.325117304725943e-06 4.202388973873046e-07 0.1887635394920436 0.995672989031642 8.501895828441543e-06 0.004315524572312569 2.984500217011598e-06 7.818040665281139e-05 0.006488012839628404 0.00503162118617145 0.9884021855675474 0.4157418667069919 4.158966372377102e-19 0.05152809613703157 0.5327300371559766 0.02852018620822451 6.55864683553531e-05 0.04806088008988512 0.923353347233535 5.228815859036303e-16 0.01317803760459032 0.9868219623954092 7.040310848123564e-24 0.2883243940270644 0.7115581115922298 0.0001174940731745326 3.075311812379421e-10 0.01712561096030494 1.618018939220995e-22 5.182525792977234e-22 0.982874389039695 5.378487068044616e-18 0.09246481623452775 0.0007735329350795644 0.9067616508303926 0.06720548421911775 9.377152301922624e-07 0.9018304357493527 0.03096314231629934 0.9498657682365326 6.352144425172726e-06 0.05012787961904219 1.302474913374388e-16 9.550605910370296e-07 2.133826132071899e-25 0.2262089782127219 0.7737900667266872 0.09029052748944114 0.0003198402451062984 0.9093896257617274 6.503725218436e-09 0.5653634738750539 0.4346333767052648 3.642107407440472e-07 2.785208940380537e-06 3.571034160954867e-06 4.899346199758186e-34 0.7524849869906047 0.2475114419752344 0.9989624813111669 0.001012173672556237 2.53450162769069e-05 2.099155897116026e-43 0.9998997557378277 5.130490127430982e-12 4.827424073943051e-09 0.0001002394296175347 0.02161595789635384 0.01379300347989819 0.964591038623748 8.767384038079488e-29 1.343314486242618e-09 0.3120255619006116 0.6879669268937576 7.509862316348242e-06 0.5055549481604681 9.489766515280283e-21 0.4944450518272125 1.231939974530498e-11 0.6523981696544179 0.001891725301091516 0.001068427600194719 0.344641677444296 0.2721974063187799 0.01294706929075045 0.0007052531274985562 0.7141502712629711 6.073791541816498e-17 0.7854641050495335 0.2145358949504664 5.909340796521624e-18 1.45304641247314e-05 1.085335074534124e-14 7.920408571944737e-40 0.9999854695358643 5.420959849717929e-07 0.7137394654886404 0.0003500488851896219 0.285909943530185 0.0005522962044158631 0.682677071846681 0.3121416177645284 0.004629014184374675 0.3177786791635268 0.004954369205630428 0.4442325259194964 0.2330344257113465 0.1062074059509898 0.8754001843072937 0.01833126064536211 6.11490963542409e-05 4.38061511670712e-45 0.9881423234979951 2.192714296105422e-13 0.01185767650178556 4.70045508349476e-12 0 1.990325277280296e-08 0.9999999800920468 0.06823525085015517 8.925058679068096e-06 0.9317558240911658 5.859492263430919e-20 3.856160536517218e-12 0.9936954195284405 0.0003801693436741938 0.005924411124029133 2.750886535025728e-11 0.0003679458574234934 1.33382037801042e-25 0.9996320541150677 1.724489442303444e-27 1.324093501798692e-09 0.9999999986759064 1.986096217578833e-36 0.008683687632986239 3.55761311665247e-10 2.108695591795564e-107 0.9913163120112525 0.7255081047545263 1.118981798539569e-06 0.1637540420855812 0.1107367341780939 4.853300899675952e-08 9.041548672751871e-23 0.9987919608888961 0.00120799057809484 9.836647885042396e-06 0.0238444127544052 4.554474340204171e-06 0.9761411961233696 0.4613044028167144 0.003720076931107005 0.520662224924639 0.01431329532753977 9.893774042558494e-22 7.940039513165009e-18 0.009417296809056765 0.9905827031909433 3.444252710664085e-38 0.8636842689033016 0.1362787509550012 3.698014169724897e-05 0.9583123803077598 4.827045452888217e-05 2.898937486364785e-13 0.04163934923742141 4.168384505781438e-92 1.347563458489778e-30 1.868816259887107e-41 1 7.602837216371969e-10 0.3838565859450717 0.6161434132932513 1.393376152797621e-12 0.9940420158630495 1.129230159261008e-14 0.005957984136939172 2.737951678000232e-17 0.001141696554692811 0.9535360894358508 0.04474836804292328 0.0005738459665330419 0.9847975385813104 7.034336386184671e-14 0.01520246141861933 8.908344562307254e-32 0.8275986602963729 7.335089242690413e-13 0.01250448502575364 0.15989685467714 0.8711636447726084 6.744366121881716e-06 5.582057850518142e-13 0.1288296108607116 0.6054144795009643 0.0002187533975348182 0.3943667671015009 4.239824219358244e-44 7.49097587847547e-28 0.01247166442410122 0.9875279873371378 3.482387607718291e-07 5.54790844500786e-35 7.897808651035719e-05 0.9915611338475592 0.008359888065930503 0.5302399531405838 0.4435854476890747 0.02617459610967623 3.060665268005391e-09 0.00970344061959095 8.864443512389981e-27 3.199287257840607e-09 0.9902965561811217 0.1016518512615325 0.8983480911774829 3.704319367178707e-33 5.756098469417069e-08 3.314924299942606e-09 9.55739249895685e-07 0.9999990409458258 1.17641219164062e-38 0.6801747794393787 0.319823382463689 4.278748246691435e-07 1.410222107718626e-06 0.03306865954068602 0.9669313391943924 3.631039442241488e-23 1.264921597845353e-09 0.9998403204774969 0.0001596794971769468 2.532613558552119e-11 9.848114963996053e-22 5.801015881573844e-20 0.8662176373356709 1.920259813583152e-06 0.1337804424045155 0.5683870940207685 1.356913989590961e-09 0.4316129046223175 1.036884932678893e-32 0.9998191982713602 0.0001808017282863775 3.534871086278801e-13 4.694161313102569e-92 0.3535484049705027 0.6464335718216969 1.802320780035515e-05 8.610117179208534e-29 0.03211764856921313 0.08027207121868693 0.8876102802120999 2.103370001727785e-26 1.607939294580037e-05 1.735531711733644e-09 0.9996135894291661 0.0003703294423561897 0.992026755371914 0.007971870800306558 1.373827779548406e-06 3.993510761084039e-37 0.9929171385347045 0.007082635192183494 4.231479127566797e-28 2.262731118406199e-07 0.8557831965300755 0.0001681046956320001 5.294619265684657e-29 0.1440486987742925 4.869180452359061e-256 0.001499883684956611 0.04050389440060661 0.9579962219144368 0.9301240727110114 0.02440741653746209 0.01215332011890551 0.03331519063262094 0.999638609146053 0.0003613820004183856 9.894920550985186e-30 8.853528617797932e-09 0.07284098180633321 0.9271590181936669 8.274191577632302e-36 1.859687414081624e-27 5.342637890290655e-17 0.9398317206131275 1.150038896864673e-53 0.06016827938687259 0.8387247509127644 0.1611795471408095 2.436642589870587e-05 7.133552052728414e-05 3.643084443280723e-76 1.256026065309633e-65 1.091420306517034e-07 0.9999998908579694 8.039421093820165e-07 0.01092237834733795 0.9890768177105527 2.378999127463851e-188 0.001479500563711069 1.593034608114426e-08 2.714873385944654e-08 0.998520456357209 3.343782670389515e-06 0.9999951730651544 7.170743855716085e-91 1.483152175255994e-06 4.632509805546084e-05 0.004867889500861567 0.9901126326319033 0.00497315276917976 0.06491726180192443 0.213217929401628 5.595525764200394e-51 0.7218648087964477 0.1612794497621186 0.8133999217766117 0.02532062846126976 2.126393417232347e-23 4.466023286076997e-55 0.06015481838964393 0.001413705250564499 0.9384314763597915 1.025411730680549e-18 3.919095829569819e-10 0.1796134165945296 0.8203865830135608 0.88382565774972 0.1161722338183492 1.85434129729572e-18 2.108431930716644e-06 0.006770582289986719 1.246980739911697e-09 0.0004099844214775597 0.9928194320415551 0.02062820425532637 0.01746245951958733 0.9619093362250862 5.12557543992921e-27 0.4598767990358135 0.2487412248410109 0.06427287246387189 0.2271091036593038 0.0001585881961044396 0.3009690692732701 0.6987971715455887 7.517098503676982e-05 0.4289385872100996 0.5710587414213497 2.671368550676047e-06 1.868384739563154e-30 0.1830160997145476 0.7038965327257972 3.138291620358435e-42 0.1130873675596553 0.9359264739365557 0.002966569130769866 0.0611069569326745 2.653640291098433e-40 0.0002752366122686433 6.096133293740842e-08 0.0002610369941228057 0.9994636654322755 0.9367817355337348 0.06321260892825682 3.915309768306059e-06 1.740228240009501e-06 0.002831514152165533 0.01725946197958347 0.9799090238682452 5.809541634203833e-15 0.1481609478131058 0.8253855251395307 0.02644058553266075 1.294151470282954e-05 0.9849359394440161 2.758199614823469e-07 0.01506378473004008 5.982346201537808e-12 0.2685665655891543 2.44970425064065e-37 2.722386685551131e-06 0.7314307120241601 1.382745052382964e-12 0.6345433756521366 2.224596904529617e-07 0.3654564018867903 0.006667258575698239 0.9535889733081725 0.001472013893187704 0.0382717542229415 0.0004232384564196852 0.999501466840691 7.529470288941539e-05 2.324065480191422e-19 1.547718417665525e-16 0.9995216447335227 0.0004723408924139559 6.014374063299027e-06 0.0134609279692415 1.098159200816518e-05 7.956468980907443e-05 0.9864485257489413 0.5186658177848493 0.0004552041137737506 0.4808674555145503 1.152258682660822e-05 8.143944867891763e-06 0.5759168229445422 2.196409299988549e-12 0.4240750331083935 0.0003119827135917378 0.9817038109403381 0.002591331091710808 0.01539287525435913 0.0001116637353633944 0.8924754760260215 0.1060937127636658 0.001319147474949138 4.608752546436566e-51 0.04706020969778259 0.9529396087217328 1.815804847024357e-07 0.03440356940586265 0.004137640058825815 0.6043874863191163 0.3570713042161953 2.371967604509389e-07 0.03383465479504216 3.230342851063487e-18 0.9661651080081974 0.9960888306631144 0.003910609655949922 5.596809358621302e-07 1.872422166403987e-20 0.976910892845933 8.012239421962167e-05 0.02300898209848051 2.661366713670924e-09 0.4346332073652195 0.003538277621929924 1.697482655490652e-07 0.5618283452645851 0.0001821317352696932 6.390345354554767e-61 0.9998178682647303 1.20926769362622e-18 0.8523877601395392 0.1363981431240377 4.089533472657035e-06 0.01121000720295037 0.4816916306518111 0.1685624324055975 0.349745276224304 6.607182875198742e-07 4.011279491866124e-10 1.127280703499085e-16 0.840151069978753 0.1598489296201189 0.9999785030501471 3.866316747696399e-16 1.423575914232828e-05 7.261190710178234e-06 7.14908206927624e-05 0.04695185166329557 0.9298423265877994 0.0231343309282122 1.308960003669468e-16 7.031843577580023e-15 0.99999999445168 5.548313057178435e-09 0.0005246813200287974 0.7967664281035238 0.2027088803767007 1.019974686370414e-08 0.009328450551730537 0.7610935727355609 0.2284842863756069 0.00109369033710171 0.06779521412322488 1.545988001607592e-30 0.0005684666403287086 0.9316363192364464 2.636520014728514e-82 0.9999999999999999 2.825431558297897e-18 1.965065270190343e-16 0.001784441208848472 0.6240150944226824 0.003359199609961623 0.3708412647585075 1.82491875771116e-24 0.9872578532584398 0.01274214560267822 1.13888198322727e-09 0.003662149982391663 0.6419174291157236 0.1605937746042985 0.1938266462975861 0.01023249873870624 1.20886417134427e-89 0.4098752339891741 0.5798922672721197 3.104055043485381e-05 0.8314834973502275 0.1552795850784786 0.01320587702085888 7.366328936523735e-05 0.9042178457332944 0.04543600425728489 0.05027248672005537 5.79747817067554e-05 0.8743988701425156 0.1255425641617781 5.909139995326544e-07 0.5931570839295404 0.4067126724252715 0.0001302375031929098 6.141995207602949e-09 7.857262398226533e-11 5.52967077458084e-52 0.002836530259695717 0.9971634696617316 0.110602826416275 5.84765835077034e-17 0.8893970551890172 1.183947078686401e-07 4.115928583697027e-23 0.0001093146840104278 2.358212350345672e-18 0.9998906853159897 2.531460863693008e-06 4.700649907069505e-22 0.0224477985139013 0.9775496700252351 0.5750227712130387 0.0001249345896283288 0.4248522934627877 7.345452524829961e-10 5.384956871276172e-17 8.810180284820937e-18 0.9995240693881611 0.0004759306118388608 0.3763912475783168 0.3821741007809479 0.1847999378490986 0.05663471379163674 1.766646425754768e-05 0.002686578657925449 2.961742999189132e-06 0.9972927931348179 0.6003659090351232 1.867591534046101e-05 0.3996154150495006 3.585258764334764e-14 0.0003071277115332073 0.01317129146920709 0.9865214368669923 1.439522674410105e-07 0.882020707182012 2.258069556309983e-20 3.253156619349986e-31 0.117979292817988 6.679727212531134e-22 0.001546084517216637 3.040122544933995e-05 0.9984235142573341 0.7386339980220015 1.165625217649523e-12 0.2613565080354345 9.493941398523282e-06 1.14955823046057e-09 0.0007791221718321611 0.6948773293881937 0.304343547290416 2.622129589109203e-16 9.360839121624876e-08 0.1686141089606478 0.8313857974309605 0.02254783241334997 0.9774416041220612 1.136395079534411e-14 1.056346457752107e-05 0.07603797539864364 1.047525105966724e-27 0.8669837446954732 0.05697827990588315 0.2751865854305056 6.946822127115417e-12 0.7248134145625477 4.407690160562053e-36 0.9999793711468874 1.40290115992838e-05 6.045846359906475e-06 5.539951533905013e-07 0.9388242206361704 1.876741933793678e-08 0.06117574949295979 1.110345040496534e-08 0.01608657295804961 0 0.9824894589003581 0.001423968141592259 0.03408018916527284 0.02798572025420223 0.9375967119863803 0.0003373785941446749 0.008331696987526161 0.991484715242272 0.0001689356351550886 1.465213504684411e-05 1.307034446040943e-05 0.3757054231026211 0.3113782747588483 0.3129032317940701 3.36675408194201e-16 4.417560500979089e-05 0.9983057974538789 0.001650026941110754 8.502850746125475e-05 4.2160351626562e-05 0.1008856639115839 0.8989871472293284 0.2529711513568522 0.05347010433897262 0.0004137430534991823 0.693145001250676 0.9999927154580089 7.236046459111266e-09 7.235321815440757e-06 4.198412917398539e-08 0.0002219602000072106 0.988942444827928 0.002739858858527838 0.008095736113536915 0.9898601997931411 6.248798960716275e-09 0.009728549565017491 0.0004112443930423944 0.5565799625807842 0.4155550128477715 2.936182262564032e-20 0.0278650245714444 0.01566655482805761 0.1857651803975594 0.7949501933253372 0.003618071449045733 0.281299964325436 0.001272967707019298 0.7173139772515816 0.0001130907159630647 1.020668972480211e-07 0.192298374841896 0.6147005089350195 0.1930010141561873 0.982583156095322 0.01741663888058586 1.679300036434666e-07 3.709408841506367e-08 7.903083398410132e-99 4.378656518208781e-41 0.9999874131970644 1.258680293571459e-05 0.3256963429706411 0.6741267141099408 1.450934767160964e-09 0.0001769414684833821 0.01869894510060948 0.8842641766450046 0.09702360814520693 1.327010917908728e-05 2.72456121173716e-30 2.357970038093718e-08 0.9999999764202996 9.405998282925689e-20 0.4525185350367989 0.006045274109494179 0.5414323860546647 3.804799042443579e-06 0.02794956859650213 0.005328020119546278 0.8778586498819229 0.08886376140202873 0.01620931409002463 0.8706000801529479 2.792927405924192e-10 0.1131906054777349 0.9990762820272878 0.0002109952332675628 0.0007123890230145738 3.337164299616761e-07 0.0001591121834768482 0.1621922321941726 0.8193942156875963 0.01825443993475417 0.989839333676218 7.062479137345192e-08 0.01015964636462221 9.493343683978829e-07 5.575574010742422e-91 6.66407337722814e-09 3.488599574761342e-07 0.9999996444759691 0.00035300325979232 0.01636538505022172 0.9593556989283302 0.02392591276165584 0.952170881086822 0.04038483565161861 0.000412216941056821 0.00703206632050243 4.234754058752047e-07 0.5959401610999477 0.4040589277982174 4.876264288807447e-07 0.9925517543743606 0.002346265272405498 0.005101980353233978 4.176950713758329e-37 0.9929725852192729 0.007026855121868828 3.090373286010987e-14 5.596588274567143e-07 0.3979802003287162 0.6020197935935669 6.077275239317744e-09 4.417653628351958e-13 2.435780350002614e-06 0.007864368980321744 1.769791654025402e-15 0.9921331952393266 0.5415661698904779 0.4538420324797665 0.00458753352134826 4.264108407239035e-06 1.650823470476555e-11 0.991441058721945 0.008558941261546927 5.885021304647834e-49 8.085729487908186e-14 0.9999786039692634 4.206527153645151e-64 2.139603065575779e-05 1.556912882300231e-18 0.003600102431698571 0.003789794264781168 0.9926101033035202 0.3288090906214841 0.3976834382001371 0.0002588082823513514 0.2732486628960274 0.007863588484429888 0.02936409739740211 0.9627594780315363 1.283608663172856e-05 8.738128524783474e-06 0.02694963968224592 0.2635677832341595 0.7094738389550697 8.811241930321291e-07 4.95326953134485e-84 7.042991832025846e-43 0.9999991188758069 1.939400147263497e-80 0.9987252013776403 8.258274034142324e-53 0.001274798622359692 0.01142903013774588 0.0227243303572772 0.001711637301121138 0.9641350022038557 0.7421886691898385 0.1665712181641492 0.07050001103618281 0.02074010160982945 2.589411876026563e-06 0.00108634312672752 2.75757668467051e-24 0.9989110674613964 0.2103153445722177 0.0189461338075803 0.06710424400376097 0.7036342776164409 0.9984743944881002 0.001519615331470806 5.989395066868119e-06 7.853624143383135e-10 0.8209497673972718 6.954155271347914e-05 1.567449195058029e-17 0.1789806910500148 0.4540266998276549 0.4833704354414597 0.05120095424213367 0.0114019104887516 7.311035117214432e-23 0.9999999870523372 9.953590622998709e-09 2.994072339594745e-09 0.944563210591825 0.04772313791159998 0.007713651488670708 7.904221050306873e-12 0.1207297628103793 0.8396778349451501 0.002161310069457168 0.03743109217501345 0.0005950617456486138 4.954660618353549e-07 2.017960294174071e-13 0.9994044427880877 4.348830045392866e-37 0.2564741275094591 0.7435258724905409 2.031602331739709e-21 2.120668638780155e-09 2.357599127250695e-05 0.9999764218880585 5.159130640670365e-16 0.03074796700394911 0.04816527464683996 0.9210866942024579 6.414675291111697e-08 0.6846607103350174 0.03052424951157095 0.2848150401533557 5.598262993405273e-14 6.498010071620175e-05 0.01649607515065717 1.088217497793073e-130 0.9834389447486267 0.3862034503787545 0.4820751564663435 0.1317213722376545 2.091724760027673e-08 0.9847562919193663 9.020937477150368e-17 8.269981975187682e-20 0.01524370808063342 2.17087871178645e-05 0.0129681622505221 2.074654178770136e-10 0.9870101287548946 2.869784047820847e-42 0.007586485603834395 0.005343814625604572 0.9870696997705611 0.9891603040276092 9.852820416114193e-05 0.009854074926266965 0.0008870928419626109 0.3488993509609207 0.4665840037106957 0.179360186447905 0.005156458880478393 0.6163883218930511 0.003795443378800981 0.3784371193915992 0.001379115336548832 1.320086812912387e-22 0.04338872811217507 0.7312263034792462 0.2253849684085787 2.066652549165233e-65 0.7747049148800306 5.139056380429078e-10 0.2252950846060638 1.184529426726578e-29 0.1041852401131898 0.895810294636464 4.465250346260768e-06 0.7699442504864216 0.2298609874854288 0.0001876316148797286 7.130413269870631e-06 4.306566309207264e-10 0.980707206463033 7.456753222839079e-07 0.01929204743098822 6.421948327347422e-41 7.757851359530486e-09 0.9960743298030114 0.003925662439137174 0.4701723863157741 0.5050050606145903 0.02482255306963556 1.085095869441762e-31 4.068770551324451e-07 5.484703493209202e-31 0.8370929760597212 0.1629066170632238 0.0001291063868297842 4.123006041760755e-07 0.9998704813124314 1.345608594789774e-13 0.2946637400223566 0 0.7053362587360762 1.241567174103361e-09 1.904849728367553e-09 0.004260325059729917 0.9927716804842902 0.002967992551130165 0.1169823933343501 0.8821959501683033 1.062098208411225e-24 0.0008216564973466638 0.0001140972122878003 0.9996658652655285 0.000185963728123202 3.407379406060872e-05 0.621078377945435 2.640004434767841e-06 0.0003650603548367531 0.3785539216952936 1.017244807772807e-07 0.999975333030815 4.246827282217579e-14 2.456524466184985e-05 1.865697697011736e-07 0.4272573669347986 5.342734659515165e-12 0.5727424464900891 9.526888841115677e-10 2.589930843729519e-10 0.999998983257216 1.015531101905109e-06 9.948630836612043e-139 0.009925601718067893 0.09870926911866953 0.8913651291632626 0.1809923765673498 2.022724609464065e-06 0.8190056007080407 2.511402356077502e-20 0.2541415950407613 0.1083556144629291 0.6375027904948616 1.448131882338123e-12 0.9587417742430687 0.003038067358974744 0.03822015839795651 4.490787099066152e-20 7.470437134382903e-12 0.7641803019418387 1.376013366636942e-18 0.2358196980506908 0.001163319243801864 0.0001281757068188334 9.870881124891703e-06 0.9986986341682546 7.928394132232684e-15 0.7113117677464094 0.2886882322535827 1.821030380342575e-22 0.02925732302249687 1.341622453740848e-46 0.9707426769628685 1.463461478416141e-11 2.430721069688247e-32 5.589814880642529e-23 2.642927267182843e-05 0.9999735707273281 5.180791490239246e-05 0.0004215039984909905 0.9995266880300177 5.658916670284448e-11 8.288040063680551e-06 0.02542073792877794 0.03649373223254761 0.9380772417986107 5.73823613213576e-56 3.242574172245124e-06 0.9999967574218966 3.931280318830471e-12 3.007687291508195e-44 2.123195058312413e-08 0.995944690658833 0.004055288109216361 2.261052381936892e-06 0.0007075989020207399 0.9991258687905368 0.0001642712550605546 2.852400600734287e-08 9.990340026872605e-261 0.0001651277288669048 0.9998348437471271 0.002121771470734672 0.9978782283087765 2.204889329751656e-10 2.354699401611668e-22 2.184279508850156e-19 0.6603900672340175 9.386318228771161e-72 0.3396099327659824 0.9995183339457909 7.319110551630909e-05 1.123210594743235e-21 0.0004084749486927633 6.925429182971935e-151 0.9411207861067903 0.0008790333371370625 0.05800018055607273 7.469378268141811e-05 0.006022622093925622 0.7166956762439253 0.2772070078794677 0.550832664603551 0.0003533580662540032 0.4319024833147369 0.01691149401545811 0.9969102435502226 0.001449405028098665 0.00105560639594643 0.0005847450257323802 3.199509708332802e-08 1.115290532981131e-209 0.8409997635421306 0.1590002044627724 0.5404762349262761 0.3747039964803545 4.520263579756995e-06 0.08481524832978964 0.1953139508778723 0.7840595435197056 0.02012059436745309 0.0005059112349689977 0.04067163062441317 0.1076097323096082 2.402204331405813e-06 0.8517162348616472 6.051072051060398e-42 1.815812816890745e-23 0.9999972425960787 2.757403921181396e-06 0.9999999999999647 0 3.529407426322301e-14 9.283481980365448e-33 0.05148777449440291 0.006263853212526438 0.05913693098245432 0.8831114413106165 0.3645683535080054 1.66656657093534e-10 0.1773295391605254 0.4581021071648125 0.7468985298326932 1.404297123068192e-06 0.186349950444617 0.06675011542556662 0.5809040884001927 5.057540724735799e-18 0.1023836304056215 0.3167122811941859 0.9326831875467829 0.01295904945109556 2.848499662314587e-08 0.05435773451712503 5.211982719755041e-14 0.04784958629956212 1.238799492674082e-59 0.9521504137003857 1.006091888678794e-07 0.001362047225091951 0.9986378521657192 1.856713537129295e-73 0.7349126515558616 0.006663344853327904 0.2584240035788617 1.194863853099245e-11 0.8990829016426403 1.13047207127704e-13 0.0742567154546058 0.02666038290264083 0.01345840813376794 0.9681493934640623 3.33656720309588e-13 0.01839219840183625 0.3570126029892565 9.7873605257478e-06 3.069533440577912e-17 0.6429776096502176 0.9999740783698727 2.592163012729059e-05 1.184131038142789e-29 2.827058414344565e-18 0.2468667031047545 2.833481394367617e-14 1.681379719232624e-05 0.7531164830980248 0.9940275138818047 4.442757234707317e-32 0.003646555879061516 0.002325930239133881 0.6317141378638498 0.3679093997514888 5.42883604342824e-18 0.0003764623846614525 0.5090566052358015 0.0004219069034605845 0.4905211584715451 3.29389192771771e-07 0.000384567849706781 0.9996154225244931 5.639576755425877e-15 9.625794465375378e-09 0.01111484869463318 0.001742919689180759 3.311059226483608e-19 0.9871422316161861 0.001850921921631047 2.650086166442947e-06 2.136225991189599e-72 0.9981464279922024 1.799882465208742e-20 7.585154459064249e-06 6.147740252618276e-08 0.9999923533681384 1.146863437002675e-09 0.9999999987679898 1.990223654554828e-23 8.514680082360268e-11 0.987047480505408 0.01295248405463757 3.538058316911548e-08 5.937111939477452e-11 3.348975880425831e-208 0.932943857571791 0.06705614242815477 5.425351187176941e-14 0.6415941529250558 0.3347125897367598 4.448869302099454e-06 0.02368880846888226 5.541356887976073e-154 0.3193365427567229 0.5377613510642217 0.1429021061790554 0.4235437596113769 0.5676911048441109 1.546642138453892e-36 0.008765135544512311 0.9999999993476207 4.338855200196911e-11 6.089907641482547e-10 4.324832848488824e-43 0.00129202837252513 0.997103174533848 1.717027168985705e-05 0.001587626821936953 0.003186591875834851 0.0002868762183982693 0.0001177030381619264 0.9964088288676051 0.8284077022789543 0.1015995933089831 0.06948581413303034 0.0005068902790321851 0.01821604579705871 0.7002139516092799 0.2815674615406527 2.541053008660155e-06 0.00649837334858831 0.3071813989909871 0.2233228530911039 0.4629973745693208 0.07536982669652549 0.4502273900719122 0.4743822826495159 2.050058204650753e-05 5.46671718563333e-05 4.648033053609454e-13 0.9999453328276789 9.253279654051107e-43 0.5991756815755321 0.3920286109471472 1.518447761564336e-07 0.008795555632544683 0.0008360903014373795 1.313896492647539e-18 1.553886633571089e-39 0.9991639096985627 6.051411998129618e-07 0.9939801428109202 0.006017649173731955 1.602874148102758e-06 0.9980508708975492 1.858924559026769e-22 9.032847510451371e-06 0.001940096254940477 0.9973690451391576 0.002520363786350428 3.883313674709892e-16 0.0001105910744915991 0.6414595544072739 7.199989279092136e-11 7.50455233092382e-16 0.3585404455207256 6.394966341400705e-11 5.738856579120001e-12 0.9999998695500003 1.303803111032898e-07 0.9912769320697736 0.007616508754593817 0.001105382491229609 1.176684403096438e-06 2.361130486633139e-05 0.1543519837599597 0.6659247437569256 0.1796996611782484 0.08537387805349947 4.691518857847662e-10 0.9128558262848218 0.001770295192527021 0.6322602112784604 1.871238722701545e-08 0.07955173594608134 0.288188034063071 0.2455788882713856 0.09435457908461226 0.3283532128175656 0.3317133198264366 0.9200345181209524 1.18379671071785e-05 1.343110897459946e-43 0.07995364391194035 9.507061814647627e-46 1.289590919385478e-17 1 1.489362465726551e-21 0.9907214470406255 0.009236294132571115 4.225882680342341e-05 2.205120730308434e-55 0.7565209880345076 1.524039965072012e-12 0.2425415130213764 0.0009374989425921225 0.02941037467816563 8.885653751113059e-06 0.9705807209853775 1.868270577066571e-08 0.4704329670050917 0.02320557861695788 9.377948116667717e-10 0.5063614534401554 1.392181399507845e-05 0.7950483729087162 0.0597088046890363 0.1452289005882523 1.056985636119811e-09 2.8849839507361e-66 0.9999999989430144 6.635294541265593e-57 0.1242666666562407 3.299294220706532e-42 0.8748372237057964 0.0008961096379629604 3.905293510431847e-66 0 2.869005066149829e-08 0.9999999713099494 0.439565546443164 0.03727681556071902 7.579042477677913e-16 0.5231576379961163 5.951192017138142e-57 1.76231423231508e-10 0.9999999675195649 3.23042035366835e-08 1.632167476021354e-05 1.699095731708165e-05 0.9507063927759858 0.04926029459193678 0.04881798926918308 1.738931874475092e-08 0.9511819926613864 6.801117623559888e-10 0.01372855424570775 2.491753690906754e-05 8.78696389069156e-12 0.9862465282085963 0.9967375157153808 0.0002101627595741187 0.002852074110711811 0.000200247414333364 1.179816156126044e-16 0.1024579650509765 0.8975420349379593 1.106422502759631e-11 0.7055922057254383 2.100173675965274e-11 0.2567928563348099 0.03761493791875004 2.50925569215385e-05 1.272241451126167e-26 0.02714963201940397 0.9728252754236745 0.7601329622621757 0.2337832423103305 6.634809519618722e-06 0.00607716061797394 0.2505505677531237 0.0001169563189895286 0.7493324759278868 8.780383019927739e-18 0.4231677918093886 7.997434434178605e-251 0.5654036551851158 0.01142855300549581 2.897459733626252e-05 2.614311404878484e-20 0.9997372130732395 0.0002338123294241698 0.9990607178526721 5.253027699220417e-30 3.431712713678711e-07 0.0009389389760566202 0.1296832709508982 0.8702642748191808 5.245422992126066e-05 2.383531808747626e-22 8.977619625197992e-19 0.9780935724768033 0.02190642752319674 3.491499450556275e-24 0.0003988731483311542 0.0006037558969112196 0.1941955866488592 0.8048017843058983 0.8130541823198346 1.353496309027504e-07 0.04222693001022991 0.1447187523203045 0.001385115864720038 0.8086340242260001 1.071750205241203e-32 0.18998085990928 6.683106407313288e-16 0.0001516487710487714 0.3996239537310742 0.6002243974978764 3.589112910189817e-32 0.01878778353781389 0.9091227726664584 0.07208944379572775 0.0003260164976291436 0.1381449527979886 0.486541673911994 0.3749873567923883 1.871260522359874e-07 0.594708472520035 0.3909524400464651 0.01433890030744747 7.899457077146778e-16 1.189078821013291e-23 0.002123323174925246 0.9978766768250739 2.630782388682412e-06 3.405377513650921e-08 0.9999973114900572 2.367377902573705e-08 0.8930409735479264 0.0002949204134584663 0.1066635982741791 5.077644359930167e-07 0.1764268296182921 0.07021603101427973 0.7533571393609945 6.433724752267735e-12 0.2390382065265906 9.506244758585424e-12 3.592597290861494e-08 0.7609617575379302 0.03099071032919183 0.1881638592717186 0.7788196734440334 0.002025756955056264 5.384806771029879e-67 0.009039398399242393 0.5119619964626871 0.4789986051380705 0.0263462802753218 0.001168656980116651 1.143806680908348e-13 0.9724850627444472 0.9845775878899352 2.039997583028754e-05 0.01540201213423444 4.177596499399595e-52 8.562467921782183e-12 5.974357765767639e-39 0.9999999999914375 2.242752163493109e-49 0.0005294438477630565 0.0002443938277099257 5.92877629668609e-21 0.999226162324527 0.00111206648706412 0.9988879193131844 4.561215761650524e-13 1.419929538875189e-08 2.239235654051729e-12 0.05190872194355304 0.1098402263209444 0.8382510517332633 0.0006537898379373174 3.379843194990024e-14 1.421249377620829e-24 0.9993462101620288 3.374578803240921e-10 9.932902907413757e-06 2.575929990108637e-06 0.9999874908296448 5.056352533760837e-06 0.007650745534144518 0.0001859438279355203 0.9921582542853863 0.82359392376802 8.708278814872353e-29 5.940818049984629e-27 0.17640607623198 5.729984357974261e-07 0.9287367752327308 0.01799737439261913 0.05326527737621414 1.56480485308378e-06 0.3010867985264136 0.6436491178501212 0.05526251881861211 3.540949944293632e-57 0.9999999999999997 3.89306337937722e-16 6.603583801563953e-38 1.697161434443667e-07 0.4677694517324203 0.5321511792728093 7.919927862691383e-05 6.053412101712426e-27 0.9992913969677474 0 0.0007086030322525658 0.0003319860640300217 0.9819972265120006 5.424173513134048e-08 0.01767073318223427 0.06121283055318072 0.9387871499428317 1.950398756583059e-08 9.449481781215154e-20 0.7810966063398198 0.1663255786915367 0.0525778149686434 4.566732098337038e-35 1.135445300092861e-05 1.830806932565089e-12 0.9999886455451682 8.303698086091074e-17 0.6327053149113638 5.297945368141902e-25 0 0.3672946850886363 0.1067436068713109 0.8931456672495514 2.577910239008305e-06 0.0001081479688986535 0.137105587498013 0.1738943681375164 0.6890000443644705 1.636798201398471e-17 0.4356250107382984 0.4865976693389471 0.02743056564541571 0.05034675427733883 0.002252090431552878 0.0003892320874165258 6.423636574095537e-05 0.9972944411152895 0.2088042812314293 0.7911951662669294 5.525016413150878e-07 1.659499196741314e-36 1.553397525367851e-05 0.0001347289099599534 0.5234806188550439 0.4763691182597424 0.000321691790504451 2.629601363331811e-05 0.9996520121820867 1.377546774446926e-11 1.390709384529882e-181 1.758399428890508e-20 0.9808866578826936 0.01911334211730638 0.9843651013014563 2.44945954155579e-08 4.928225736089493e-05 0.01558559194658732 0.7296354399856377 0.03722439452977899 7.905731539579658e-05 0.2330611081691875 0.02335634888153733 1.22006399786249e-138 0.1028944269155556 0.873749224202907 0.8761233403446783 0.04514817538267193 1.733840993926675e-09 0.07872848253880869 1.510197789532037e-106 2.493933197934057e-24 0.0002826531174042709 