<?xml version="1.0" encoding="UTF-8"?>
<!-- This file was created by ACADEMIC version of SMILE -->
<smile version="1.0" id="Unnamed" numsamples="10000" discsamples="10000">
	<nodes>
		<cpt id="U1">
			<state id="State0" />
			<state id="State1" />
			<state id="State2" />
			<state id="State3" />
			<probabilities>0.1 0.1 0.1 0.1</probabilities>
		</cpt>
		<cpt id="U2">
			<state id="State0" />
			<state id="State1" />
			<state id="State2" />
			<state id="State3" />
			<probabilities>0.1 0.1 0.1 0.1</probabilities>
		</cpt>
		<cpt id="U3">
			<state id="State0" />
			<state id="State1" />
			<state id="State2" />
			<state id="State3" />
			<probabilities>0.1 0.1 0.1 0.1</probabilities>
		</cpt>
		<cpt id="U4">
			<state id="State0" />
			<state id="State1" />
			<state id="State2" />
			<state id="State3" />
			<probabilities>0.1 0.1 0.1 0.1</probabilities>
		</cpt>
		<cpt id="V0">
			<state id="State0" />
			<state id="State1" />
			<state id="State2" />
			<state id="State3" />
			<parents>U1 U2 U3 U4</parents>
			<probabilities>0.06121020358023749 0.676729206552166 0.2620497760577017 1.081380989474528e-05 0.03447930534439991 0.0001460371833986006 0.8598051921223147 0.1055694653498868 0.8583217951507922 0.001476609416108945 0.04301212587204654 0.09718946956105223 3.246917592909315e-12 0.9972092226388917 7.712902409128743e-30 0.00279077735786137 5.122459836429426e-88 0.06018163458983433 0.9090333968023107 0.03078496860785501 0.003293643680410433 0.2826170901917204 0.0001640691927922797 0.7139251969350769 1.997193771121269e-14 6.322797383996379e-09 0.3237978777407395 0.6762021159364431 4.430743996507357e-05 0.9998235508966833 0.0001320495843797229 9.207897188122853e-08 0.9501806486000759 0.006413060246908972 0.01534758331519823 0.02805870783781686 2.101725269099163e-09 0.9999999975705656 3.686924803207461e-14 3.276721872528581e-10 0.8641977258054915 9.829993801727988e-12 9.358189573752548e-138 0.1358022741846785 1.575769083576944e-13 4.994645814002846e-47 0.9991098728699558 0.0008901271298864762 0.5085443178536987 1.085806474097921e-80 0.001577952451080047 0.4898777296952211 0.9999999999999984 4.346237610613701e-21 1.069803238433104e-33 1.517230684061767e-15 2.531530459940617e-05 5.566660264852236e-194 5.247002329266136e-24 0.9999746846954005 2.757587621782476e-05 0.42715910059142 6.928584361895065e-43 0.5728133235323621 0.9916586623187718 2.055362106433296e-92 0.008341271930470349 6.575075768335072e-08 1.119232089311234e-12 1.109099464603134e-05 0.9524949981128474 0.04749391089138722 0.9304758110534478 0.05453617477449147 0.002342415660855431 0.01264559851120518 0 0.9999949846314903 5.015368509749245e-06 1.86796073750756e-22 3.967363180120131e-07 6.029073885244575e-11 0.909526788863262 0.09047281434012922 1.54461606110983e-26 0.9980773819969013 0.001904432707096654 1.818529600197935e-05 0.0391490215521237 0.9595837881729063 0.001266810649682769 3.796252873508701e-07 0.001972594219592387 6.068480390797981e-05 0.9979667209764995 4.112870797201514e-17 0.1443516545462729 0.8556441211369558 9.863849570868465e-07 3.237931814261369e-06 0.9888596317164269 0.01103115748720828 2.59364755184278e-06 0.0001066171488130387 0.0004767825772530563 2.797795125109929e-11 0.001393253330210941 0.998129964064558 0.9998629986140225 6.529610920578418e-09 1.587580040267632e-08 0.0001369789805660162 3.04313323726232e-39 8.234419073379054e-06 3.010559324526798e-06 0.9999887550216021 1.240152336397539e-68 7.450624939651646e-15 0.04356887712362717 0.9564311228763654 0.02524044466463155 0.9736596627956513 0.0007691152070479504 0.0003307773326692369 0.5166133239516559 0.0002207058214426886 0.0003274248867616427 0.4828385453401398 0.5838227672901994 0.0002307370987964071 4.611645411822614e-19 0.415946495611004 0.1726958258708933 0.005527331474833689 2.176262987145941e-09 0.82177684047801 3.033179628634116e-05 0.2411984293836537 0.7587709394781236 2.993419364641934e-07 9.86112072982544e-06 1.344577174777235e-08 0.004234763623608313 0.9957553618098902 6.936363904156143e-06 6.062141061436514e-27 0.9999930636360959 1.590251027818443e-27 2.878413657219617e-05 0.9225610095091704 0.07741020635425661 6.776053013095243e-16 0.0001700763073167225 1.40822795739875e-32 0.9893392752356601 0.01049064845702311 0.5640718868438745 4.60501365733656e-13 0.4359278859531997 2.272024651425963e-07 0.03796453641337678 0.7727870523899841 5.029172347486309e-08 0.1892483609049154 0.5544579698145491 7.889353787915937e-24 0.03631762202096674 0.4092244081644841 0.6653946480088401 0.2748753918102249 0.0530855860289051 0.006644374152029875 0.9999752664883911 2.473351153878855e-05 1.829190421633266e-22 7.0082040544386e-14 0.2163185467304752 0.7836814482492578 5.017879965374806e-09 2.386969178967154e-12 0.9966382398031088 0.0001128697026438229 6.914737131106652e-17 0.003248890494247342 0.01148243252737382 4.496522500186591e-06 0.988513070950126 1.527758277783141e-44 0.6516572969048295 0.3482817327984879 6.097029668251142e-05 6.440475673175531e-17 3.773172718778393e-08 0.9333444598225191 0.06665550244575374 0 0.004687925456770417 0 0.9953120745432297 4.111697931977166e-37 0.9983106264592019 4.196300194861447e-05 9.296446747622314e-07 0.001646480894174657 0.9310273127727169 0.06897229654457961 3.906827034682048e-07 0 0.002067135183956126 0.9979328648160306 8.843063540407664e-45 1.322213848820545e-14 0.9904013918659779 3.900859492281156e-10 0.009598607743936213 6.85045953003795e-47 1.567144364278204e-05 0.1954516215435002 0.6516279225847632 0.1529047844280938 1.852958572647382e-07 1.085630928745142e-07 0.9999990158305943 6.903104555945747e-07 1.989828379639982e-08 1.356310729073598e-29 0.9999999801017163 0 0.9995676426814836 6.753461864815037e-42 0.0004323572169419238 1.015746202065651e-10 0.996330846677107 5.544688128365614e-12 0.003669153317348194 8.99800556079789e-43 0.03130391392578999 1.206056445420342e-143 1.342379755661209e-06 0.9686947436944543 0.9805925259314662 4.368177716350342e-14 0.01940662640991633 8.476585737932221e-07 0.5849628485150357 0.0001720082172894203 1.908831881454067e-08 0.4148651241793561 0.8921920805460466 0.1078079010650716 1.838888149580015e-08 1.736801503289504e-16 0.2904098276924199 0.7032968821727175 0.002859249894498871 0.003434040240363649 2.949474938634525e-08 0.9999981169145779 1.792836270674167e-06 6.075440220470817e-08 0.09344758691464387 0.7715866187680875 9.867860874950783e-05 0.1348671157085191 0.01078651915962725 0.7913455970415775 0.1972621041714711 0.0006057796273242445 0.09659418343686356 0.6386909145158522 9.515177238543036e-08 0.2647148068955119 1.243786795730237e-08 0.0238656271052933 0.002997946957609362 0.9731364134992294 4.559147178455863e-15 3.775332230747293e-22 0.0001242230161525967 0.9998757769838429 0.01203303968254009 1.569811096645256e-28 0.7280108415882874 0.2599561187291726 0.0004513690937757426 0.9988084374290422 0.0007401934771819954 1.399615082135672e-30 0.6650915493295222 2.045021833568539e-07 0.0001739768585957097 0.3347342693096987 0.9027587958453169 1.759665268934204e-15 3.63036921454593e-05 0.09720490046253594 9.903657687992625e-26 2.35498685088792e-60 0.504592226599098 0.4954077734009021 2.68808464909041e-11 0.337803378795776 5.917027978935869e-41 0.662196621177343 0.06240373495645254 0.0006794703264295259 0.003962440151596447 0.9329543545655214 0.9555231197264897 3.909264209321618e-08 8.011173293640273e-13 0.0444768411800671 7.971115777533562e-13 3.110265322666245e-06 0.9999968897338656 1.455273594063096e-14 0.0004283776291464754 0.4858742338404303 0.4129664434515974 0.1007309450788257 0.9992633812052062 5.210283407438935e-07 3.062300384859651e-08 0.0007360671434493621 0.9997728822319741 9.664216648222419e-09 2.292578768968425e-05 0.0002041823161196362 1.853540724860514e-20 0.02388508055524874 0.9750876519402247 0.001027267504526624 3.05302389211749e-14 1.201865252293878e-15 0.9999999999999682 4.341197179816932e-89 0 0.3385772187789001 3.760963859242692e-06 0.6614190202572406 1.224192501098579e-05 0.5960567294218261 0.01558711829523753 0.3883439103579255 9.64016178705256e-07 0.9164910142825948 0.08350801246398158 9.237244779155292e-09 7.222811100148459e-17 1.155785535146093e-06 0.8272834746067734 0.1727153696076913 0.9945274733299356 6.519812454148714e-05 0.002363123745737019 0.003044204799785995 0.002610217503563282 0.9859358675941265 8.469032914740272e-07 0.01145306799901868 0.002319577409959842 9.149479001126668e-15 2.198813928344877e-45 0.997680422590031 0.01603111398072284 0.976024546445927 0.007941195352499755 3.144220850354797e-06 1.230673711732111e-12 3.859761949705787e-05 1.123991869365874e-08 0.9999613911393537 6.111724796251986e-42 3.86810302892211e-09 0.9999999961318969 1.620304663982968e-80 0.9986322766832936 0.001328189005453073 3.95343109678311e-05 2.855383896703954e-13 0.0005741014563745643 6.862616473285019e-07 0.000454031838328158 0.9989711804436499 0.003767371155755868 0.9951598688711838 0.0001412867465677782 0.0009314732264925148 0.8018101935392847 0.19815941710103 1.998861444782287e-06 2.839049824053444e-05 0.007524470158332491 0.9421670389573713 0.02082847935516043 0.02948001152913568 0.01114675096154308 0.9873516078586378 1.618349769808895e-06 0.001500022830049191 0.9978842456927611 1.116931153232685e-08 0.001156372809154548 0.0009593703287725838 0.01670316879722375 3.939007321097777e-12 2.021674059534495e-21 0.9832968311988372 0.02824408741709915 0.971755802859823 1.46115875795715e-24 1.097230777119435e-07 0.04570008723079864 1.694074847092166e-100 0.0003814646635290237 0.9539184481056724 2.527592694102377e-14 7.9057604273013e-17 2.287445177292175e-16 0.9999999999999746 3.048529908243662e-86 0.9624276469253532 0.02763142492331368 0.009940928151333303 7.877518768041814e-08 0.0001010475468980362 8.147111678611327e-16 0.9998988736779134 0.1058389172216203 0.1811788984742974 0.01610204996933299 0.6968801343347494 0.006024996048188878 0.02588218052937095 0.0005869954896474124 0.9675058279327928 6.593584317087983e-11 0.9999994511236792 1.463022416763058e-36 5.488103849063842e-07 0.1939012012920662 9.747279976497654e-24 8.613541235333584e-05 0.8060126632955805 1.679234558969026e-06 6.723784792495506e-13 0.9999374979821664 6.082278260214834e-05 0.9999999996116984 1.273866066257181e-14 1.225606708780637e-12 3.870631519118551e-10 0.6253833770741183 3.016272215953528e-07 0.3746163212986598 1.450012624329664e-16 1.45336098796009e-133 0.000560732535179289 0.0007384973396307049 0.99870077012519 5.811043621540408e-06 0.999840926460533 2.291443599984767e-06 0.0001509710522457257 0.8590765205526707 2.951207583402064e-46 0.1409234794473254 3.910107258386072e-15 2.588145406307881e-125 0.999982474213014 1.832803777342174e-09 1.752395418227657e-05 0.8489099510798931 1.566278032603902e-10 0.0002579645929105879 0.1508320841705686 1.157292157197563e-06 0.02656197846589234 1.563794308942359e-219 0.9734368642419504 0.2344924281090346 0.7655075718909654 4.433362526310042e-161 1.199342050073035e-23 4.551236425415854e-09 0.9266813778683128 2.292720451871424e-06 0.07331632485999905 6.550986373438301e-05 4.624399279084147e-06 2.089032486428289e-10 0.9999298655280834 8.9882511432938e-06 2.757250794845499e-15 0.6290901916992344 0.3709008200496196 0.9221643291553484 0.07753655269759119 1.480116746073825e-18 0.0002991181470604477 0.006529818500697845 8.413977102320233e-09 0.980633609444388 0.012836563640937 4.789979837594058e-06 0.374910841428013 0.5199838707955325 0.105100497796617 0.3586443990336267 7.219549685095276e-05 0.6403002942239604 0.0009831112455620991 0.0001480511526642583 0.05114608241791285 0.1971288576261158 0.7515770088033071 0.8630228488146517 0.04741485317731486 0.08940994561937506 0.000152352388658158 0.0009760267747729076 0.9989132320574329 0.0001107411677940558 2.876962749597029e-75 0.939668748031637 0.06032864510145917 2.606866903921274e-06 3.182105456184485e-26 0.8940486000293266 0.003224811431051559 0.1027260429507052 5.455889166104661e-07 0.9999787690398868 7.978036066623509e-06 2.682312477472377e-90 1.3252924046745e-05 6.633662744810277e-07 1.505464089165858e-21 0.007001826110302234 0.9929975105234233 0.02224062354067908 2.200069691240023e-05 0.3414141688798588 0.6363232068825496 8.354572254559958e-05 4.173702207022768e-11 0.9999164344153628 1.982035441895069e-08 4.426730527479081e-07 0.9999995573269473 3.719450919791978e-37 2.138810982912624e-40 0.9995472476562616 0 0.0004527260407669161 2.630297155128099e-08 5.698170110124365e-42 0.6621874549873846 0.3378094076535105 3.137359104865098e-06 0.0006802432358637448 0.5631403367178096 0.436152035785333 2.738426099364613e-05 7.125808933066515e-64 0.8730656119629634 0.09067863570152321 0.03625575233551331 0.9999678908470095 3.451164820195413e-16 3.611431542257396e-06 2.849772144776871e-05 0.07093301200344534 0.8206896168836808 0 0.1083773711128738 7.674988209595151e-08 0.9999274210174326 2.883177342871851e-05 4.36704592567247e-05 0.02883932224692789 2.866135897586173e-20 3.548974920134172e-08 0.9711606422633229 8.726453213847796e-05 0.9992468478715906 2.110041259264401e-66 0.0006658875962709018 8.275576697984583e-06 0.0002562506604960921 0.085679748549672 0.9140557252131341 0.0005562183891455245 0.410733621358073 0.005425353966824492 0.583284806285957 1.04591378845031e-19 2.169175362271049e-40 0.9999970678506813 2.932149318729975e-06 0.4843146558866231 2.269789729067938e-11 0.001399853376071226 0.5142854907146075 6.244086249888863e-09 0.7907532776764418 0.05366932217806714 0.1555773939014048 0.6793174668796538 0.01672892004691311 0.0003178386023969228 0.3036357744710362 0 0.9997488054946438 2.495964016023372e-08 0.0002511695457159995 3.764222547387347e-13 4.906312920796238e-57 4.949254739684649e-13 0.9999999999991287 0.4278011674271843 0 0.5720807427738243 0.0001180897989914367 0.0790178144039385 0.8945688728955389 2.788592810365572e-17 0.02641331270052276 2.230271999574212e-15 0.9999856057004459 1.439429955191894e-05 8.971577672926957e-53 1.892216043239198e-06 1.119834024121482e-11 0.9983406193174174 0.001657488455340939 0 0.2616973585169046 0.738302569528746 7.195434958466459e-08 3.030556646888486e-08 2.085673636392909e-11 0.9405847404164529 0.059415229257124 2.303882446805665e-67 0 0.9993844202557326 0.0006155797442674835 0.03853448043067184 0.0005648304785413104 0.03926650994987601 0.9216341791409108 0.999909398395792 7.821844208508086e-18 2.693812798167365e-38 9.060160420808588e-05 0.8213511557871548 0.1786488442128451 7.777297093486415e-75 3.326962598078454e-19 0.2062028722093862 0.7473143918872308 0.04648273590338308 9.96568911182452e-53 0.600365217964837 0.03848150470597132 5.425695777441596e-37 0.3611532773291916 0.09524005325210068 0.004252030242279787 0.732401628462361 0.1681062880432586 0.961958816763762 0.03779506613658218 7.744191932127218e-05 0.0001686751803342585 0.08950166024891099 0 0.9031701746527675 0.007328165098321474 5.85666823306838e-11 1.141300527056151e-31 0.04731846625885237 0.952681533682581 1.001984990961939e-28 0.4490873262827053 0.5509126672733357 6.443958995198781e-09 0.6923080383540146 0.3054843569435291 4.245586459115837e-09 0.002207600456869717 2.279910163944763e-28 1.325242590497953e-08 0.9999999864009219 3.466521414225207e-10 7.130475833233993e-10 0.9987085736806471 0.0002866720004806128 0.001004753605824698 0.007017616043239494 2.333939539415655e-05 8.729007301596245e-06 0.9929503155540648 7.677058398012714e-09 0.9990217794916327 0.0009782128309900084 3.188216384184215e-13 0.3087186458187067 4.188494114844221e-14 0.6912762060285057 5.148152745589865e-06 0.3214890457337405 2.928182617846157e-19 0.6785109447324458 9.533813771539625e-09 2.590849533719608e-12 0.8799859062319522 1.737302649305527e-10 0.1200140935917267 0.0001687396160850895 0.479350761574 0.03016400277398338 0.4903164960359316 0.3752154339398576 9.644633569755862e-05 1.152605406786189e-09 0.6246881185718394 8.046785604235147e-16 0.6225223910226525 0.3774776089742968 3.049722569263948e-12 1.501171493114415e-15 0.9999999944918606 2.009343614613258e-112 5.508137931076115e-09 2.120367779353275e-10 0.9052722709843253 0.09472772880363813 1.00980003032223e-20 0.36771201793324 0.08989980551660173 0.3675170009375362 0.174871175612622 0.8070197607640045 9.902717499481648e-31 0.167628546772473 0.02535169246352241 0.1380319435833976 1.187003719736153e-15 0.01326564165089765 0.8487024147657036 0.0001888366082099017 2.790470474740829e-12 0.02367011921796423 0.9761410441710353 7.572478051496524e-05 0.1378127622876419 0.1185990688204184 0.7435124441114246 0.01826917678912141 0.1173405272719906 0.04918719682060007 0.8152030991182879 4.439460135646025e-74 0.05353622706457521 0.9464637725073851 4.280395654813051e-10 4.772169371621527e-12 0.9984302026571196 5.022415885370111e-05 0.00151957317925476 0.005353103650185586 0.2249987762511484 0.0007839953363096793 0.7688641247623563 7.456783116765992e-09 0.9999999925203756 1.371131160655125e-18 2.284125137823101e-11 1.389666116484201e-08 0.1267990756768664 8.648767401581409e-148 0.8732009104264725 0.4003722304722518 5.715978241874787e-37 0.0003927038517377461 0.5992350656760105 0.04643508696188443 0.005809273695365469 1.711754435420695e-12 0.9477556393410385 0.999772539754488 0.0002205042564819027 8.666295705599653e-27 6.955989030236417e-06 0.8179290660718196 0.06098403041706906 0.1210869035111113 3.523418102908008e-26 0.0003187629521673856 0.07559808626081829 0.9169943003371593 0.007088850449855025 9.056255158480175e-08 0.1842796480021479 0.8157202614353006 4.622361777586455e-17 0.0003850066802639226 0.002233330649339699 0.9972697359892009 0.0001119266811957002 3.110313057432649e-15 0.002883332397821152 0.8772247242125685 0.1198919433896072 0.9986657045680194 4.457382280215898e-54 0.001334279087521335 1.634445922348789e-08 0.002552929360756399 0.9974457462647174 1.434036849805967e-08 1.310034157758809e-06 3.391916539225585e-35 0.969100415997513 0.03089958387247672 1.300103410202381e-10 0.9968109850086154 0.003188760460218826 2.242365943187101e-07 3.029457128907022e-08 2.022204747832587e-09 0.00188974235501778 0.9981102556227774 3.561048350254935e-24 5.732120217974736e-12 0.1429774884216646 0 0.8570225115726035 0.007718707554747852 0.9922812622926105 3.015264156516389e-08 9.567925312620645e-20 2.66935262518051e-05 0.07548204768420193 0.2053196837434311 0.7191715750461152 0.6264482618297803 4.640404357291234e-30 0.3734981259787905 5.361219142914956e-05 0.09764506509855446 0.0004655046749258311 0.001186812007409929 0.9007026182191098 1.677299894574755e-08 0.02071628306520035 0.0007986182995623948 0.9784850818622383 0.0004271352121287724 0.9894679167957982 0.001004716834041344 0.009100231158031614 0.939146068806387 0.005337049137451345 0.006397352004743622 0.04911953005141827 0.0003795259099206294 0.0005630835052936735 0.008948746794374475 0.9901086437904113 2.54399981088894e-16 0.2884812812554715 0.0006596503460554373 0.7108590683984729 0.9999947302004321 9.826957452206223e-07 1.414832607347797e-17 4.287103822810224e-06 0.00598508999963818 1.820296771889843e-49 4.45041000271041e-09 0.994014905549952 4.572731988756674e-17 0.8616175729333976 3.275404305886975e-11 0.1383824270338483 9.840967603932462e-23 0.01024937659972113 0.002981820681569867 0.986768802718709 3.908254306008715e-08 1.276561384794868e-07 0.01749554959669337 0.9825042836646251 3.688045042193227e-11 0.003232464404568247 0.9967617912254964 5.744333055023597e-06 4.045835824455078e-06 0.99997382563619 2.212852798546125e-05 5.008745578611158e-171 3.336539832018568e-06 2.477754481645992e-08 0.004620938922817585 0.9953756997598056 0.06050645399134508 0.875101269449071 0.001034552856708839 0.0633577237028749 0.0003433265415767503 0.2489048350236689 0.7494132455392748 0.001338592895479761 0.0004895877821722625 6.5954583229829e-25 0.9995103635047287 4.871309912225951e-08 1.135864765921028e-45 3.078981857340669e-06 0.0003981068063404275 0.9995988142118022 0.001270087167408333 0.4798347190536897 5.964607193862723e-18 0.5188951937789018 0.01550091497526797 0.9570128835081313 0.02247129887050559 0.005014902646095183 8.274016377506389e-05 2.919709378276009e-05 0.9998879114334688 1.513089733597714e-07 0.8275626043500643 3.317502870261468e-05 5.029005524702452e-09 0.1724042155922276 9.825019491913318e-05 0.9876833370502656 1.752521903000061e-06 0.01221666023291227 0.9999999765269075 3.484687698896811e-67 2.250570907526412e-08 9.673835811485333e-10 0.9922016606298786 5.264120044005984e-124 0.007794463268622326 3.876101499028853e-06 2.681147373757481e-06 0.9965655918063552 5.440034052729868e-07 0.003431183042865725 0.9577052407942939 2.770050409404081e-28 3.061607691343651e-07 0.04229445304493696 0.001096623556367635 3.51089466428296e-10 1.192199051075318e-08 0.9989033641705525 7.910435361863784e-05 0.5351112811171086 0.1926494381195199 0.2721601764097527 0.0003098105545923977 0.0001751181072682654 5.56652575651389e-05 0.9994594060805743 0.05458947059287791 0.01227731093740851 0.03802869433228103 0.8951045241374326 0.0001018793792971412 0.9387008522928131 1.467936187543667e-37 0.06119726832788966 0.4053219221299794 0.5946161020514185 6.185051257660039e-05 1.253060254388653e-07 2.641297484386861e-05 5.631655214529749e-07 8.508301967111804e-21 0.9999730238596346 0.7210630442273034 0.2576428625231563 0.02129408154853107 1.170100920776001e-08 0.9988214973597618 6.930967076972257e-07 8.291198382548944e-10 0.00117780871441073 0.9983731736368405 0.001427142758858174 3.774122505315065e-18 0.0001996836043013001 4.407891272345945e-06 2.10636217104913e-07 0.9999953814725107 3.927863730697057e-48 0.0003569666680402182 1.014381824839013e-08 2.258642644556006e-17 0.9996430231881417 0.01417829118027699 4.305538582171141e-29 0.4009355022391662 0.5848862065805568 0.2204322576593884 1.411570092391861e-49 0.2240516712434534 0.5555160710971583 0.0003357126734865121 0.1074704559132428 0.8898291197319204 0.002364711681350352 0.03672641579939113 0.0005058046648202079 0.5181048467189259 0.444662932816863</probabilities>
		</cpt>
		<cpt id="V1">
			<state id="State0" />
			<state id="State1" />
			<state id="State2" />
			<state id="State3" />
			<parents>V0</parents>
			<probabilities>0.9942332190687374 0.0001322091583926095 0.0001194306215694729 0.005515141151300506 0.002324824293143049 0.9942332190687374 0.0029705823171966 0.0004713743209229394 0.003182673758684038 0.0005234049305994399 0.9942332190687374 0.002060702241979111 0.005185522751899007 0.0003710405401482796 0.000210217639215302 0.9942332190687374</probabilities>
		</cpt>
		<cpt id="V2">
			<state id="State0" />
			<state id="State1" />
			<state id="State2" />
			<state id="State3" />
			<parents>U1 V1</parents>
			<probabilities>7.477967857468163e-09 0.023132533468756 3.666417380201899e-05 0.9768307948794742 0.06160904862644246 0.004596786771117101 8.995699038843467e-13 0.933794164601541 7.542849567576515e-15 0.9992290649015514 0.0007709350984410597 3.411785946424712e-20 0.005259160254782641 1.217358833496769e-06 0.9848316021049593 0.009908020281424434 2.515895859653324e-06 0.0002754015256721556 1.257667029910769e-14 0.9997220825784555 0.9999999784438662 3.129631037549494e-36 6.467884630420698e-143 2.155613368301516e-08 0.7766607583652992 0.0005604474376570813 0.2206956872630088 0.002083106934034809 0.0012876812258001 0.9983241092884791 7.032837823488199e-19 0.0003882094857207137 0.9999743477450874 2.562207312442592e-05 1.100934704203725e-12 3.018068720008285e-08 0.000114800730114877 0.9425383970348615 3.527892404290476e-05 0.05731152331098062 0.9801762023924668 0.003603158649976754 0.004287546168171149 0.01193309278938526 0.1693799508393927 2.731294887027866e-25 0.2504277259918707 0.5801923231687367 1.25368525006788e-55 0.92752095033811 0.04888013229726926 0.02359891736462077 0.2599497026083499 0.06120469172292762 0.545997502119868 0.1328481035488547 8.592233787443215e-05 2.319304861802554e-09 9.353161453361016e-102 0.9999140753428207 6.98418757533584e-16 0.75476825630697 0.1286082441005545 0.1166234995924748</probabilities>
		</cpt>
		<cpt id="V3">
			<state id="State0" />
			<state id="State1" />
			<state id="State2" />
			<state id="State3" />
			<parents>V0</parents>
			<probabilities>0.9916008897976225 0.003448692468231341 0.00324184954258494 0.001708568191561237 0.002282334493955055 0.9916008897976225 0.00276011882930632 0.003356656879116142 0.00158577072557781 0.003807255940457631 0.9916008897976225 0.003006083536342076 0.003756789759247759 6.406341862311459e-05 0.004578257024506644 0.9916008897976225</probabilities>
		</cpt>
		<cpt id="V4">
			<state id="State0" />
			<state id="State1" />
			<state id="State2" />
			<state id="State3" />
			<parents>U2 V3</parents>
			<probabilities>1.089494179704423e-29 0.9972411069083004 0.0001539676080483036 0.002604925483651252 6.394364309641998e-07 0.001260901657179475 5.946200395418766e-05 0.9986789969024353 0.006957517237443236 0.99292679996796 0.0001156772977527261 5.496843974396197e-09 0.2625983103408817 0.6483400701560136 1.306304604541856e-05 0.08904855645705934 0.02203828934676505 0.01499276546603843 0.9629689451871717 2.492566701291698e-14 3.658304403069658e-39 4.290886144751443e-15 0.2847250304356954 0.7152749695643004 0.9993148496321481 6.061732074563454e-06 0.0006790886357774009 9.271309743479279e-127 0.001001062949298045 0.6158539417002867 6.929025227103625e-49 0.3831449953504153 0.9999726788665469 2.769465059750431e-08 1.870617010972454e-05 8.587268692711133e-06 0.001995495128498808 1.545799310235829e-07 0.06126011901608133 0.9367442312754888 0.01054451610074671 0.008728224053586765 7.018658799171686e-13 0.9807272598449648 1.208105656105629e-08 0.02853708588980681 0.9556655377316139 0.01579736429752282 0.08407439856822434 0.9150625820365742 0.0008630193952014531 1.747570321125131e-20 3.436926969811127e-13 0.01822985324422218 0.0124349096569577 0.9693352370984766 0.002276579638377229 9.706223547318413e-09 1.796255500232737e-42 0.9977234106553993 0.9442021305627161 0.005205197786494185 2.200886050328268e-07 0.05059245156218484</probabilities>
		</cpt>
		<cpt id="V5">
			<state id="State0" />
			<state id="State1" />
			<state id="State2" />
			<state id="State3" />
			<parents>V0</parents>
			<probabilities>0.9964112410950038 0.003502402437028151 2.708446354364834e-05 5.927200442444443e-05 0.001583498806468552 0.9964112410950038 0.0002453221691523757 0.001759937929375316 0.001248914487050295 0.0001297073817803996 0.9964112410950038 0.00221013703616555 0.0003977557155407131 0.001002785024473782 0.002188218164981749 0.9964112410950038</probabilities>
		</cpt>
		<cpt id="V6">
			<state id="State0" />
			<state id="State1" />
			<state id="State2" />
			<state id="State3" />
			<parents>U3 V5</parents>
			<probabilities>7.551174749899919e-07 5.393388822406088e-10 6.32062573231133e-05 0.999936038085863 0.1614726055443928 2.522969203915302e-73 0.2723862330818351 0.5661411613737722 9.937678525110232e-07 0.9930141966698692 1.790087655442214e-14 0.006984809562260422 7.03347397002699e-16 0.9992486794083375 0.0002108208734601909 0.00054049971820164 0.0001181165966389474 0.0007776389647138073 6.198306333139254e-09 0.9991042382403409 9.416013387594575e-06 0.4721153477828837 0.516220119467759 0.01165511673596985 0.8167701358483068 0.1617412295554336 0.02148762084773265 1.013748526728983e-06 0.9973769513258645 0.00195336377741458 0.0006479756517890316 2.170924493193752e-05 0.1976913512577971 4.188305591008627e-13 7.37129579813904e-05 0.8022349357838027 0.000149915705439522 4.862062813878754e-05 5.63024854338388e-151 0.9998014636664216 0.9437848531423222 4.497241141959584e-10 0.05621348637875481 1.660029199131116e-06 0.01747720255584038 0.0001332442283719967 0.1643417158869746 0.8180478373288129 0.6958338349674935 0.124416834251678 0.1797493307794603 1.368200548066342e-12 0.0002597573271413622 0.03562802287216771 0.964112219800666 2.491181189713665e-14 0.9993385833787418 3.42124034293175e-06 6.533986561863109e-10 0.0006579947275165819 1.310709509465321e-58 0.9999286972480425 2.638172048994043e-07 7.103893475266062e-05</probabilities>
		</cpt>
		<cpt id="V7">
			<state id="State0" />
			<state id="State1" />
			<state id="State2" />
			<state id="State3" />
			<parents>V0</parents>
			<probabilities>0.9900081687784105 0.00849764687534464 0.0007405433085170127 0.0007536410377278282 0.002947998551926236 0.9900081687784105 0.002147426016628106 0.004896406653035139 0.005974864848216892 0.001932471040127367 0.9900081687784105 0.002084495333245221 0.001888091857627908 0.0006633331221573626 0.00744040624180421 0.9900081687784105</probabilities>
		</cpt>
		<cpt id="V8">
			<state id="State0" />
			<state id="State1" />
			<state id="State2" />
			<state id="State3" />
			<parents>U4 V7 V2 V4 V6</parents>
			<probabilities>1.920454147000524e-07 0.7249593987201144 0.2540901253949694 0.02095028383950137 0.3492998547647773 1.287061519844451e-21 8.310819454225495e-08 0.6507000621270282 0.008305237918964706 1.153830633657298e-05 0.6949761499164622 0.2967070738582365 0.0005901384671276184 0.994919985995378 0.003882213255237606 0.0006076622822568897 0.1142215640464899 0.8857783955766342 4.037687606486194e-08 7.719094089598388e-24 4.203749660884136e-10 5.378354070100981e-05 0.3113625551465318 0.6885836608923922 7.049742271904754e-13 1.266337387357484e-10 8.042457203088332e-05 0.9999195753006304 0.03252135167020968 5.288376277357799e-08 0.6243639670635766 0.343114628382451 0.9999956949894027 4.255750273616206e-06 3.071968783053133e-88 4.926032385439888e-08 0.002815462324853616 0.001869116861725054 0.8140839890133403 0.1812314318000808 0.3331102306260709 2.926830460902793e-14 0.6668893804103017 3.889635982814948e-07 0.5985477923153292 0.3838739449501375 0.01757826273453336 9.499843929748483e-32 0.619698810572897 0.0003864944452999764 0.3793406094928088 0.000574085488994233 0.6657499186487372 6.076459120510159e-10 0.06406072353716138 0.2701893572064555 0.2664017933666314 0.4579947432148002 6.623232510428386e-181 0.2756034634185684 0.0001065371437498279 0.9953823216259855 0.004507333926728392 3.807303536117251e-06 0.8331708059551303 0.1309635295455069 0.03221358092663439 0.003652083572728469 4.795053546132499e-05 0.9685141184094767 5.803838147345718e-12 0.03143793104925806 1 7.027545035980729e-23 3.169606255992407e-51 5.977283429967943e-42 1 1.543607349149431e-41 7.702723798418472e-25 1.287348494004349e-22 0.9473567895892482 0.05221446989270889 0.0002845085363319869 0.0001442319817109637 0.01099265995971892 7.923924520039035e-05 2.948463562458827e-07 0.9889278059487243 1.664638592363124e-20 0.9944041614279521 5.161412675009512e-10 0.005595838055906546 0.9991598941358789 0.0005122523110564483 0.0003278533985250631 1.545395127037519e-10 0.7905904547625494 0.05663236932185822 0.01304618633543256 0.1397309895801596 0.02674286561468714 8.608040423655391e-11 0.003250875142440737 0.9700062591567917 0.9455368769839343 9.766377955858214e-41 0 0.0544631230160658 1.342899580762905e-06 0.02523542007168035 0.9747632370287389 3.549562213994752e-67 0.02617856420171933 1.406944416790506e-31 0.9593608127610826 0.014460623037198 0.2189377367548556 0.7810622632451444 7.18649639461901e-32 5.368085233675765e-49 3.360312071529397e-15 0.8175532311051698 0.000204767278372334 0.1822420016164544 0.0187539352700217 2.034365997203095e-06 0.004216879542062848 0.9770271508219184 0.05251995486276071 0.9471463530536586 0.000333692083580795 1.059094937446167e-95 1.654352527518823e-09 2.957938590643507e-05 2.066322094983807e-44 0.999970418959741 2.542270584158314e-06 1.622285664155785e-08 0.997852584821585 0.002144856684974043 0.000727770933710488 0.6604600616704971 0.001733166082495648 0.3370790013132967 0.6041064284963735 2.54745716938613e-42 0.3958935715036265 0 0.1779393695572078 0.1714272309453868 0.02602460627797498 0.6246087932194305 0.05816619501523824 0.01601179418210064 0.92582200708741 3.715251011424608e-09 5.189356725176119e-08 0.9611218544232155 0.03860670947976948 0.0002713842034478751 0.9999999996143384 3.856188234447039e-10 4.2633922966233e-14 1.679895450598028e-162 1.025839118466345e-06 0.9951508047217523 0.004848169437328001 1.801108458408377e-12 0.9852771724228344 0.004642560026008354 0.01008026755098905 1.680850002799097e-13 0.9986025829214378 0.0001982223644084941 5.012991321787673e-07 0.001198693415021588 2.617657988828392e-70 0.9935793832465001 3.763825331713996e-07 0.006420240370966796 6.969459121725843e-23 1.891619243520552e-06 5.57272209389888e-11 0.9999981083250292 0.0004855508842033853 0.004062163540971088 0.9954522855748204 5.31895308665269e-15 0.981715057440308 4.010538220146592e-06 1.912966053057365e-22 0.01828093202147193 0.9586664899549705 0.0003937678928221571 0.0409389686516464 7.735005610955657e-07 0.9150837660844477 1.464317051808585e-14 0.01447967961885224 0.07043655429668538 0.9997576474513583 3.095983603831089e-09 2.341498540746982e-12 0.0002423494503165556 0.5623778453936831 0.09822821629357512 0.3393939382026365 1.101052546953631e-10 0.9999998464942058 4.206017972120951e-13 9.207077646451391e-15 1.535053642675584e-07 0.001140062068408456 0.7636138103511829 0.23523406004186 1.20675385485012e-05 8.489567398434261e-09 3.215120643492871e-17 0.9124378739799999 0.08756211753043276 2.433388353163739e-06 1.030770078565925e-08 0.004058015794023069 0.9959395405099229 1.228985937779909e-15 0.984668116137052 0.01507618746400083 0.0002556963989460857 0.8845676888632311 0.1154323111260564 1.071243145979415e-11 0 0.007788608272245732 2.993162229186488e-06 1.212860994008597e-05 0.992196269955585 0.006213490160882438 0.009123061611210534 0.9846634482279072 5.167226175889794e-22 0.0001713489315020304 7.705576098126353e-41 0.9995233915550437 0.0003052595134543229 8.143564883683409e-12 1.369144847062087e-10 1.013236221014704e-07 0.9999998985313199 0.002994458906124109 0.9670241573317278 0.001026516524975465 0.02895486723717254 0.2040130956066373 0.3592807396129804 0.4367061647803824 2.209836463018088e-90 0.3965816051986938 0.2128442157911908 0.390574179009986 1.292976643551136e-13 5.47522155204669e-05 0.8871304617660156 0.1025993437067935 0.0102154423116704 1.777716902487674e-09 0.02699917147288688 5.794417082051323e-63 0.9730008267493961 0.1788448305439269 7.4775986546384e-05 0.8089644974736352 0.01211589599589151 0.7368198937078353 0.2158288386405232 0.005250016566007356 0.04210125108563401 0.1954819018673764 0.8045180981326238 2.624050709158724e-90 0 0.16517710485798 2.035140937432403e-14 0.8318313075384649 0.002991587603534615 9.016174110548201e-12 0.9996619139175902 1.215389774086211e-05 0.0003259321756527489 0.004582326975903394 6.746132901904683e-61 0.9954176730240967 2.49999859496467e-21 3.32803802735143e-05 0.9983673622429008 0.001599264422912983 9.295391286222561e-08 0.8155675967126774 0.1745866919919919 0.0003113128989480871 0.00953439839638248 0.3062941269727977 0.6937058618933479 1.113385063990368e-08 3.80657966626206e-15 2.913235904915249e-16 4.647754427655104e-05 1.063852957373442e-12 0.9999535224546593 2.218661877379872e-179 0.8787532736992747 0.1207942992734614 0.0004524270272639808 0.001867965390410034 0.004478153468875882 3.031078708203271e-07 0.9936535780328433 0.02975892921533155 0.9702410706702997 1.89849955175143e-146 1.143686270226138e-10 0.08030278782161425 6.649742351524165e-18 0.9196972121061707 7.221505989415406e-11 0.001007331833077166 0.9977859807975153 4.916087004576034e-14 0.001206687369358366 0.03868759740063504 3.632767003500886e-06 0.9612317462318246 7.702360053690362e-05 0.903632132017068 0.06140595117748154 0.000204664114777073 0.03475725269067339 0.05626536553133263 0.1370753098814854 0.8036140515445833 0.003045273042598778 0.326046888784315 0.6737976575693506 0.0001546532250320157 8.004213025107432e-07 5.73859955966443e-10 6.297461708187379e-06 0.04035126529140605 0.9596424366730257 0.1831925650539343 0.8168074349460658 0 1.752746119737523e-17 0.7864829531983138 0.06222565851238463 0.1410533818484684 0.01023800644083325 0.9785268184721239 0.0009503617509862367 0.01458221823561784 0.005940601541271961 0.002694972234260495 0.4657957827582097 0.5315092450075297 1.88049220041867e-39 0.9248581725361067 0.06509881996912663 0.01004278983466516 2.176601015115735e-07 1.641763074256452e-18 0.0002501221814623 1.725330853206459e-56 0.9997498778185376 0.9999081020729407 1.040186331954144e-06 3.0430134276772e-33 9.085774072736793e-05 0.3339807202328362 0.05803690847666049 0.006133395687739861 0.6018489756027634 2.543229757533492e-12 6.066163767198511e-123 0.0004172857335174833 0.9995827142639394 0.7878975540819816 0.2045297690592209 0.007572676832825199 2.597228651465668e-11 0.9999999681874953 1.723409643901993e-10 3.829938044940032e-14 3.164012565016812e-08 4.241123988033774e-05 0.9983712834827034 0.001571528036435044 1.47772409813424e-05 7.625668561029685e-26 0.1597247909517746 0.8283812657478595 0.01189394330036605 0.01512787899698745 5.409312340068645e-07 0.9822602062625738 0.00261137380920462 0.9999700388910635 3.293054877788024e-38 2.875315674812352e-14 2.996110890773375e-05 0.9875088547767085 0.01249114522329158 0 1.287691164660515e-49 0.005304961595124064 0.9946949378518224 1.309330510867403e-26 1.005530535105951e-07 0.3912071451604788 0.5658221484726947 0.04264132711049359 0.0003293792563328701 0.008931392295462567 0.9910651291062078 3.477161917258484e-06 1.436412187122546e-09 3.664446308008713e-05 0.0002456188578439938 0.9989998732157936 0.0007178634632822073 3.063794557232022e-75 0.1221842967098588 0.1483862195459703 0.7294294837441707 0.0002968238995383104 0.9817348282146507 0.0179683478858095 1.406811479898669e-15 0.7112802217029021 0.2722199036451184 0.0001272088869778566 0.0163726657650017 7.205042641905784e-06 7.522986360640654e-05 0.9868931936569274 0.01302437143682437 0.7063987173611882 3.881878727133976e-14 4.824182812268259e-13 0.2936012826382907 0.02283461696609771 0.3078505544815811 2.335520945860404e-16 0.6693148285523211 2.120239202231769e-13 0.9697725373143038 1.615150198569903e-12 0.03022746268386929 2.139508115510608e-26 0.05394690195734677 0.1255784553844045 0.8204746426582488 0.805375157997441 0.004346524266611668 0.0001368197679512999 0.190141497967996 0.3406668686896824 0.1384795690496139 0.5017859503586685 0.01906761190203504 0.002525328168020126 0.9968419009953657 0.0006327708203841261 1.623005132803844e-11 2.184845316927665e-06 0.0001121132175920436 3.099579553563097e-63 0.999885701937091 0.8903376864585033 8.271309823088601e-05 0.1095247617060525 5.483873721335179e-05 4.043859684112924e-05 0.9995007567991215 2.159814269422482e-14 0.0004588046040156953 0.3663956621916132 3.269796809607493e-06 0.6335905787160319 1.048929554521957e-05 5.455406973421498e-08 1.372141500337237e-55 0.02368379354181796 0.9763161519041123 5.366165105061122e-08 0.0002545674600242964 0.476436378572297 0.5233090003060277 3.972246687496757e-20 1.184460344576956e-11 0.3800786513122186 0.6199213486759367 0.2911174574620183 0.00629189589551392 0.7025906464690573 1.734104854379915e-10 3.139559683507571e-05 0.05940171318601122 1.200575215115802e-23 0.9405668912171538 1.495764377364606e-27 0.9999996875753537 3.124179811382866e-07 6.665096196166949e-12 0.04760679199266915 0.9190575225197584 0.03262943555279717 0.000706249934775474 0.7312137633382507 0.2687615015947586 1.141988729031824e-05 1.331517970048292e-05 0.9775075303199262 3.70052475700171e-06 5.817849166979768e-06 0.02248295130614992 0.5795048838923075 5.030591357844408e-24 0.4204951161076925 6.151593520650904e-63 0.8189184110448834 0.181079858137855 3.021462343889134e-13 1.7308169597592e-06 0.004779461069357105 3.722986348835575e-05 0.0001084929225640866 0.9950748161445904 0.06246929957963857 0.05133458610658821 0.414955536910004 0.4712405774037693 0.2944996084148925 6.252726868350822e-14 0.7054848462756016 1.554530944346407e-05 9.600292122728202e-181 0.5852137214667751 0.08989126041303998 0.3248950181201851 2.115261258412823e-17 0.9999999989678461 1.685471120664961e-58 1.032153946133607e-09 7.746265564664335e-05 0.009416489840762444 0.7450802004878744 0.2454258470157164 1.56576575241692e-06 0.0419842150099214 0.008730409319705951 0.9492838099046202 0.3163977196874541 0.0355227713251265 0.6464266588746145 0.001652850112805025 1.796268076647387e-23 2.865037443142406e-24 1.703422840053492e-06 0.99999829657716 0.8698871728030459 9.025255822151105e-16 0.06279442899522043 0.06731839820173267 0.1617155015607847 0.8382771859138264 7.312525389093127e-06 5.615955312724833e-178 0.999531491654301 0.0004684819614665212 2.601818052079014e-11 2.635821436283845e-08 0.001943113566374715 0.4159030697520406 0.5821538166815847 2.117469577575513e-57 0.008520767391281388 0.9914245446176247 5.842870498611675e-25 5.468799109391097e-05 0.008418006780040991 0.991581865006868 1.281906047695336e-07 2.248639304179779e-11 9.409342351898908e-14 0.9780123766809926 1.161585230459837e-05 0.02197600746660871 1.013675660989051e-06 0.9939429636121476 1.555824468962548e-10 0.006056022556608906 1.911676046835538e-06 0.008449079681069569 0.0001957739641968888 0.9913532346786867 4.129797506202764e-17 0.9825784478360728 0.005468162253217048 0.01195338991071008 0.0008355205751691289 0.8588468860233359 9.732166419212808e-116 0.140317593401495 0.5959258046570437 3.728809822963602e-10 1.735086897342079e-10 0.4040741947965667 0.0002096695417602203 0.9997903304385097 1.973003708440743e-11 6.800282192825218e-17 1.947682666552491e-05 0.7733635442091971 1.720745004827534e-73 0.2266169789641373 0.002977468059935185 0.2788423289776115 0.4298961736952223 0.288284029267231 0.2211378480116102 0.3117950069580479 5.739586406967504e-99 0.4670671450303421 1.072683660010927e-62 2.391202214436711e-43 0.9600563984136625 0.0399436015863375 0.9639042560431514 0.004360116839124518 6.827277492054065e-14 0.03173562711765567 8.876398993478393e-05 0.9997364289200561 0.0001737197528296947 1.0873371793112e-06 7.517048484969709e-08 0.7399223918346195 2.716292911566096e-15 0.2600775329948928 0.9992336385475914 3.402619681756733e-61 3.313354071482229e-18 0.0007663614524085697 0.0009440808406895322 7.728970197457303e-08 0.9990558381126721 3.756936501459847e-09 0.217925391077854 0.7741282725778517 0.007946336344294253 4.849049097092484e-61 0.005277790881227088 0.01396111764099508 0.9787983917210721 0.001962699756705859 0.3011460576377959 0.03108537589730668 0.5259466886556667 0.1418218778092306 0.0002786944564470639 0.9997211563674293 1.231202031556572e-07 2.605592060573365e-08 0.9280123666698099 3.155573515118355e-26 1.336871094080017e-21 0.07198763333019019 1.079522119954779e-06 0.0228993937867792 0.9770633616421592 3.616504894169499e-05 0.001549106339187347 0.130307026567809 0.01946843962944617 0.8486754274635576 0.2497268557998621 0.4345806541955942 0.3139499164562901 0.00174257354825381 0.3661145568750919 0.07364898746945392 1.439319961272877e-38 0.5602364556554541 0.002854234067941552 0.00428222435437517 0.9928635415776833 9.165224102633444e-46 0.002200589471175759 0.9954569324168867 9.510759053857975e-11 0.002342478016829878 0.7682530131874479 0 0.02493375985021903 0.2068132269623331 3.714531593350892e-08 1.825064026770921e-05 0.1817884871271295 0.8181932250872868 0.05867269653862907 0.5282648093343436 0.2985567217564564 0.1145057723705708 0.1652172103099133 0.8347827896900867 4.672143930875155e-79 3.691064637747768e-26 1.836655353650432e-09 0.9999201519899892 7.984617335536089e-05 1.29448959338506e-22 1.128257262509851e-23 0.9975557443791687 1.88809138665548e-15 0.002444255620829386 0.9990216659348791 1.358757247951621e-146 0.0008189587540096777 0.0001593753111112021 0.2123706495256977 0.7876257285575562 3.62191674592073e-06 2.127673494017978e-91 0.01949442242459871 0.0005948666925584163 7.753062497615711e-17 0.9799107108828428 1.810200406527093e-20 0.9999999353917515 6.428276714988436e-08 3.254813042062567e-10 0.3885065161202835 0.2415475849006586 0.3699445279467937 1.371032264288256e-06 0.9986028435939212 0 0.001394401079569442 2.755326509372473e-06 0.561757897545935 9.240361784559399e-43 0.003330765857570299 0.4349113365964948 5.396338844813421e-06 0.0005383226435062221 0.9814716385873217 0.01798464243032727 7.434093870745922e-06 1.749667660192568e-60 0.9999925659056976 4.316225351091704e-13 0.003060131457559652 5.655431522883091e-29 0.9812727874311269 0.01566708111131344 1.277206319493544e-09 0.9953816933936706 0.004618305329123101 9.987274581437787e-32 4.472036943779065e-13 0.6668792982983585 0.2849934445138531 0.04812725718734122 0.03709867321813286 2.820023860798225e-06 0.9628983779748694 1.287831370899428e-07 4.987432011798562e-25 0.9378804793141089 0.06211588660233997 3.634083551055796e-06 0.9624809690508327 1.120271214332575e-09 0.001257029550696253 0.03626200027819993 0.06366913305836681 0.8418490191682567 0.09436798605241099 0.0001138617209654316 0.02996225000548276 0.0001121708164305846 8.080822982884981e-08 0.969925498369857 7.564447691679402e-81 0.9982301401736938 2.158997315347758e-07 0.00176964392657461 0.2689430523359581 2.499386014126899e-10 0.7310569473696815 4.442164266477872e-11 0.4702253675786954 0.1501200721348669 0.102721524401938 0.2769330358844997 0.0001925886298049677 0.05195733332674454 1.078470560198411e-15 0.9478500780434495 1.079692061506247e-06 0.008023763656843048 0.9897914435221675 0.002183713128927894 0.001243763885197813 0.1052785571101595 0.8239680901568944 0.0695095888477483 0.0004066298000055903 1.302158681530184e-09 1.909860808304545e-06 0.9995914590370274 0.8397113178328244 2.957968251051506e-05 9.0285873454875e-25 0.1602591024846651 1.075529247631609e-13 0.8378326537842131 0.1590524537290574 0.003114892486621944 1.049540771100412e-10 0.00173146268685304 5.073346297345976e-14 0.9982685372081421 0.001154856166484197 0.001301951672721731 0.9975431921607942 6.011668720252283e-24 0.2451987773145106 0.3963203774203517 0.3584808452590054 6.132365007919545e-12 7.458742999136053e-13 6.448352962427855e-13 0.8313657390917097 0.1686342609068996 0.5771707847957369 0.0479571690965109 0.3748720461077522 4.512215356371038e-147 0.004873340614357557 0.9907952430244013 0.004325235967287106 6.180393953874386e-06 1.495935278031848e-05 1.908070938470138e-14 0.7875464496419536 0.2124385910052469 3.950649975278443e-132 2.364265120551002e-05 0.008837856585325234 0.9911385007634692 8.113378350451767e-11 0.9999999999188545 1.163094382117262e-14 9.612368232534129e-61 0.9672699793740565 1.155426377734796e-27 0.0327300206247814 1.162113065191639e-12 0.9710132428379949 0.02613291156836079 0.0002195302078570186 0.002634315385787327 4.344936399288435e-07 0.9999987308380235 8.346683366637422e-07 9.166798026193894e-24 0.6658769189859788 1.261938955248757e-12 0.306400401731799 0.02772267928096015 0.24236188976691 1.602525549654246e-07 2.493598495695431e-11 0.7576379499555991 0.986066065548167 1.328713212397657e-72 0.01392296728340884 1.096716842415033e-05 1.213453861694969e-12 0.005578811917102294 0.08135759344786636 0.913063594633818 0.9984710147363642 5.829183236002237e-07 1.583878262380984e-17 0.001528402345312205 0.01825089645419351 0.9370405578128995 3.888786241930028e-24 0.04470854573290692 0.008214770862767937 0.0002774365631330981 1.116412869312908e-16 0.9915077925740989 0.0006781566350527302 7.685878611645814e-25 0.0417704499726726 0.9575513933922747 0.0008171514398951129 4.270197397180244e-53 0.0004459844416559848 0.9987368641184489 0.01152922031377094 0 0.00921637410766259 0.9792544055785664 0.9929065904556256 0.001408446145105694 0.005684963399268831 7.426865309409739e-28 3.558030547054709e-07 0.5586903459689668 0.4016661018913118 0.03964319633666672 0.8147423093227344 0.05135470009717331 4.129201237405578e-09 0.1339029864508909 0.992415282624478 0.007581811430114128 2.905945407797588e-06 1.734657715300039e-18 0.1261190689091428 2.611158143075493e-25 0.8675321404419564 0.006348790648900828 5.689098262159974e-47 0.919692725279958 5.167039146414934e-11 0.08030727466837162 1.271384426948892e-51 0.004600600781931237 0.05451122854569498 0.9408881706723738 7.449754274048601e-09 0 0.9999999924477962 1.024495241671689e-10 0.7640819485042355 0.2346755188008113 1.605539775029489e-07 0.001242372140975668 0.0009236729473140393 0.3271063313822004 0.01543033377818512 0.6565396618923004 0.9916877767738398 0.001590964627944425 7.374197919808508e-08 0.006721184856236734 0.008216997567174821 0.991724444145945 4.099333353285054e-11 5.855824588681977e-05 0.005091887792916186 0.4174173488453934 0.5673284571845805 0.01016230617710998 0.8049120521927291 0.1950802462966987 7.701510561747959e-06 1.045484248135632e-14 0.5338357112453431 1.772131417922354e-06 3.371569033045981e-06 0.466159145054206 0.411502895299667 0.5884971046895905 1.074245649981406e-11 1.078822507220525e-44 0.02421952140025408 0.9534925119970992 0.02220311387329293 8.48527293538027e-05 0.9637989875386107 0.001191315112341202 1.443481227314987e-208 0.03500969734904815 7.281974029917862e-13 0.8509225034924046 0.1490774601357386 3.637112840116828e-08 0.02333612493454305 4.214688402710643e-07 0.7790035991316802 0.1976598544649367 1.372435729708198e-14 0.5076228277723974 3.957012106036504e-07 0.4923767765263783 0.01271793533627662 4.518207145522337e-05 1.887584819171723e-09 0.9872368807046834 0.0007640421084416235 0.2831604053951189 0.7160755524964395 5.235258815193985e-143 0.1399013748565541 5.398622996801909e-05 7.886021400553017e-09 0.8600446310274564 0.0009328513380404552 0.1613035998720838 3.56699089692679e-09 0.8377635452228849 0.0002961005602684818 0.6433933510492514 1.49956636416309e-09 0.3563105468909137 1.958996023949815e-66 0.962325751186751 2.798095553407687e-09 0.03767424601515357 0.4966215620629042 0.2995221100117667 0.2038563279136958 1.163335990381853e-11 8.675589335449742e-81 0.005220097604420255 2.119349237011318e-07 0.994779690460656 4.770413762375976e-05 2.240821654421564e-283 0.03707623418613155 0.9628760616762447 8.476018143426551e-50 6.866722502824361e-09 0.01444835514891944 0.9855516379843581 0 0.1593493783316526 0.8406506216631149 5.232447904791215e-12 0.02314487031435351 0.001213477402253376 0.4934004296393768 0.4822412226440162 0.2265476421164772 4.961915860811364e-06 0.773447395967662 1.493656731431117e-24 0.8059894090047282 2.032998171911627e-06 0.001142996874469693 0.1928655611226304 0.003191654778053903 0 0.0005264484157044523 0.9962818968062416 1.728239775468607e-93 0.033404548553611 1.580134676451025e-12 0.966595451444809 0.1056158037118449 0.410646155877727 5.66649810995462e-07 0.483737473760617 0.7647304669890563 6.068682409607559e-05 2.229355709938583e-28 0.2352088461868476 0.5407823953133036 4.049327236277128e-09 3.993259281402982e-13 0.4592176006369696 0.5903783324595009 0.4094818999078634 0.0001397676326357185 1.453745348959654e-58 0.007222377204388258 0.003328112579330287 0.152628037073383 0.8368214731428983 0.05923953654268203 1.526959677453545e-07 0.9407600553923279 2.553690223268801e-07 0.02850815007997807 4.161820069056236e-60 7.527171867516093e-05 0.9714165782013467 0.195026525272542 0.7468696442100669 2.983933033888588e-08 0.05810380067806065 4.540818016104552e-30 1.383640453703713e-12 0.9999999999986164 1.868816224777343e-23 0.533833647913132 0.458872266217048 0.007293571276009343 5.14593810725141e-07 0.6478514267641463 9.901018010162294e-26 0.3521485732358535 1.881413691006614e-16 0 3.631821667242569e-76 0.3125519193509216 0.6874480806490784 0.9999999992694697 7.305302899552113e-10 1.635277125848799e-192 1.408996122295512e-19 1.157824015767772e-94 0.05339674322313713 0.9466032567761726 6.901561132592672e-13 0.8653014234983664 8.562905173522147e-05 0.1346129474498986 5.911000738103619e-104 1.881573776529298e-18 1 3.273013021222356e-33 3.300034778749413e-80 0.008466005866693748 0.0020035490846911 0.9895304450486152 4.783753714951707e-66 1.198040538044178e-09 0.9999279178612527 2.415450786636675e-05 4.792643284037225e-05 0.0009143946982870718 0.9853145918721093 0.0137710134293515 2.520274613827741e-13 0.02155221086831752 2.246303226820364e-12 0.9784477299499467 5.917948966601797e-08 2.446492095741773e-14 7.718583860877207e-11 1.13167374705863e-16 0.9999999999227897 8.986167236170903e-05 2.047738325181088e-06 0.9998635156822839 4.457490702939588e-05 0.0008315631362758381 7.417758654956039e-18 0.3439366952557534 0.6552317416079708 1.465173515889159e-47 0.6988377907256288 1.2165524339048e-06 0.3011609927219374 0.9994943678506275 0.0001536982141537471 0.000276466001893921 7.54679333247849e-05 0.01046184641229867 9.880801218694661e-09 0.9895375218211202 6.21885779972669e-07 0.07096899530080213 0.136633413741118 0.7923975882102063 2.747873622454331e-09 0.9971209113099607 1.062491610019837e-14 0.002866514034638469 1.25746553901522e-05 0.3365783717924126 0.6125703336301811 5.86844994255351e-07 0.05085070773241201 3.922060510590985e-24 0.0404927015010198 0.9595072884684857 1.003049449369019e-08 1.071774818601333e-05 0.8152613550131973 0.07754002993533535 0.1071878973032813 5.710534799703789e-07 0.9743126815654243 0.02142426006785695 0.004262487313238849 7.011213335098278e-11 0.3274054703976655 0.6534587251899771 0.01913580434224522 0.007427054634234423 0.9712503191535941 9.328525792886613e-17 0.02132262621217132 0.9623174974823137 0.03768250251767734 8.976377343000435e-15 6.166886716376075e-23 5.90217123202774e-74 7.45953963220884e-19 0.001292282523068988 0.9987077174769309 0.1385465068026922 1.466310346905184e-46 0.8614534463704135 4.682689428705558e-08 0.9302306428866299 0.0004875840008536738 0.01969353168195621 0.04958824143056029 7.628332135740085e-22 0.9996737092202327 0.0003262907633229923 1.644434674655927e-11 0.9999522625252929 7.759003497308398e-06 3.997847120833462e-05 1.397676657226985e-15 0.001397153529177873 0.0008809599970305391 0.9977212479505254 6.385232661774938e-07 0.2333333383034949 1.244823755234572e-18 0.7666666616965051 5.364151021966673e-21 0.002505946053841182 0.9707676101802939 1.683032751010065e-104 0.02672644376586493 0.03837003729855098 1.536316732492691e-05 0.0213624984821221 0.940252101052002 2.373120575079448e-12 4.412816442731028e-12 0.9991039198812424 0.0008960801119715483 0.9816706179109109 6.914808129126156e-06 3.178638383984484e-21 0.01832246728095989 0.0003023019447605309 0.9996976980552387 4.338951932367061e-32 8.046052912921667e-16 3.024360807793288e-11 0.00578954457939521 0.9942104551605467 2.298144778843697e-10 0.9403643009250362 0.05963484252594359 8.564253986498899e-07 1.236217210112021e-10 0.003975294290112505 0.0002721197395028711 0.9957525771162666 8.854117890552432e-09 2.549872189135061e-21 1.832555022735319e-08 3.718969592331028e-06 0.9999962627048574 0.4886992915104515 4.814520910096907e-19 0.00018713436689085 0.5111135741226577 9.593057206565998e-53 0.08285926573146235 0.3235630674173782 0.5935776668511594 1.60246886049095e-40 1.018090419549026e-10 0.9999999998981876 3.418532733587372e-15 1.0511038408499e-08 0.9231739012174999 0.07669259982744171 0.000133488444019796 0.9971436240350124 1.960660074317634e-09 0.002856374004325691 1.728779802833851e-15 6.07758902888529e-09 0.9999999894203064 4.502104543982919e-09 3.291669134962481e-18 0.7440533573896351 1.009989363927182e-11 0.2558683092564853 7.833334377967692e-05 3.32333014082385e-17 2.157271877453155e-68 0.7079042840633331 0.2920957159366668 0.9989431046954824 0.0001191437534385152 0.0005854028002984095 0.0003523487507806762 0.3045866313169148 0.5470355774749721 0.1483777800982605 1.110985261142564e-08 0.9944771906232137 8.297391126007271e-05 3.189570927165769e-10 0.005439835146569143 0.01527120471990751 0.984728793581394 1.43597171017804e-30 1.698698527941578e-09 1.749878373477782e-06 6.338528617129071e-07 0.9999976162687647 1.354224544310125e-29 0.1727486578051799 1.33841588451673e-13 0.7697403914680471 0.05751095072663925 5.685635924828274e-16 0.1693105454669928 0.8306894545330045 2.018723331458588e-15 0.008671110333741907 1.98990108880517e-12 0.989565747176639 0.001763142487629012 2.211189019937587e-12 0.002914430096092575 0.0001032810167389761 0.9969822888849572 7.853970747567473e-07 0.001178799479667663 0.6184794303883128 0.380340984734945 4.159591970971888e-98 0.9657339640030095 5.093434599060762e-11 0.03426603594605605 0.0002846855805676715 0.9148641934151965 0.05456324461523197 0.03028787638900369 0.01965137369456798 0.9749962863136195 2.938633038025273e-05 0.00532295366143235 1.022698422850917e-07 3.312915498923075e-43 0.9991929464758933 0.0008069512542644891 7.228705656993898e-10 0.005409952403316714 0.6905386837120224 0.3040513631617903 0.9978728405086215 4.698232709352378e-07 0.0004623382780348157 0.001664351390072739 0.009355322598872692 0.2896933808877767 1.883546140366233e-07 0.7009511081587365 0.6819666504555065 0.004983080745887136 0.252754065952662 0.06029620284594437 5.084351442363845e-07 0.8509809782814229 6.961281628397391e-16 0.149018513283432 0.976456738696882 0.02285858581384921 6.823805230141191e-25 0.0006846754892687733 1.235727857093757e-05 0.9471572202123604 0.0002470007917466742 0.05258342171732203 0.9358964956160666 0.0002648113655176483 0.02620947683516441 0.03762921618325137 0.659913081268973 0.314364532483898 0.01416844900865095 0.01155393723847805 6.17962660896059e-11 0.5206515939500812 0.4793484059881224 2.411952984047349e-32 0.1307406605884123 0.004240366407005858 0.0003218648998665752 0.8646971081047153 0.1557168080759724 7.171749738537362e-07 2.885560190052947e-15 0.8442824747490508 9.028965275945957e-33 0.937048663242491 0.0009376148882428304 0.06201372186926616 0.0669343675773873 0.0246712743084267 4.403141031817405e-27 0.908394358114186 0.03152021966063538 0.05422697423566226 0.8403304900360304 0.07392231606767202 0.9952846908891739 0.004715309096473647 1.272715582396788e-11 1.625296332613e-12 2.48052330027174e-08 0.7096970007678437 0.2616576719947473 0.028645302432176 2.436561914381885e-08 0.00419688460871357 0.005701918617729959 0.9901011724079373 0.9999154684436508 1.254671910975331e-27 7.510318899183291e-08 8.445645316019434e-05 1.729420496482379e-11 0.1452635656002881 3.741943197910056e-05 0.8546990149504384 0.0002175863481805268 1.925197541443407e-08 0.9977907352546295 0.001991659145214673 0.9251246320855988 6.301008137774744e-15 0.0001369891592563154 0.07473837875513849 0.04235685231474399 5.282162850736568e-06 3.655599184324674e-20 0.9576378655224053 0.9853415689875598 6.108634976943737e-14 8.916786969974727e-08 0.01465834184450966 5.58920784450655e-16 0.5061061117546425 5.806613546622172e-05 0.4938358221098907 0.006968106207754661 0.8625815488403259 0.1304080369938535 4.230795806594588e-05 0.6192164555225899 0.380782707273481 4.699742645798791e-11 8.371569315377616e-07 0.1101075900804051 0.02691111787970303 5.344132822018685e-11 0.8629812919864506 0.007936122966971102 0.05613805207932782 0.762408301617417 0.173517523336284 0.008911034997599014 0.01663493935607706 0.09818906886854378 0.87626495677778 4.110451933732586e-09 0.9406840222996283 0.0001679248668552527 0.05914804872306451 3.389365996178276e-09 0.5801084548871451 0.4198915234944373 1.8229051472484e-08 0.0009033272334471278 4.347875037228419e-129 7.627462572688821e-21 0.9990966727665528 0.4713473854400472 6.455657936800576e-30 0.5286526145599528 3.802781321183921e-69 1.250497520859799e-08 0.02877752237387668 1.570598009320389e-11 0.971222465105442 0.01058618632691249 0.6684648828473073 0.3209436778277766 5.252998003590866e-06 5.83333208203311e-31 3.837059012005978e-07 0.04882737756079938 0.9511722387332994 0.03045638062764286 0.5661969723444356 0.1793867279191696 0.2239599191087521 2.302915829099278e-20 0.4176445512118167 0.5821940755610292 0.0001613732271540934 0.002726283016795437 0.1236537721776492 0.01075090586181834 0.862869038943737 0.05748807937253884 0.9399761662260999 3.992218364087698e-07 0.002535355179524808 0.00205831926284165 8.28662612405696e-12 1.071587435054624e-26 0.9979416807288717 0.9853611469714019 1.139062731632065e-09 0.001739905170520145 0.01289894671901519 1.116147453572602e-07 0.3219324375443047 0.6780569969923378 1.045384861222252e-05 0.002282556308153251 0.9977173442530428 9.943880399360299e-08 2.332746900959965e-49 0.001055265106150484 0.08957222603829786 9.376536364474946e-07 0.9093715712019153 2.24149663572056e-11 3.629095773039903e-13 1.565250898193049e-25 0.999999999977222 0.1540903256350379 0.00593319628835721 0.006294742199023653 0.8336817358775812 0.006291992931017585 0.007374398854974264 0.856089517782915 0.1302440904310932 1.643259520745655e-13 2.183573512511482e-08 0.109358342693719 0.8906416354703816 0.9999999598742877 6.258602142593775e-09 1.763053139563071e-11 3.384947964043624e-08 3.718238468920945e-12 0.2558565307326821 0.1536717514145745 0.5904717178490252 0.003524053627600074 0.006715998536315914 0.9724187877819024 0.01734116005418159 0.3126930389526484 0.2016939451718461 0.05023328290432894 0.4353797329711765 0.6296260203739642 2.645738228906928e-19 0.3697832901257837 0.0005906895002519913 0.9999908049688578 8.963039569389454e-06 2.973619759060021e-09 2.290179531455502e-07 0.9937503034416345 1.083005233762541e-11 0.006247166654177514 2.52989335797193e-06 0.06617488184476726 0.9338251181402714 3.805679168158639e-314 1.496126480613295e-11 1.44367968746586e-33 0.004014575982696958 0.3906942732487172 0.6052911507685858 0.4351569455291224 4.967294096758987e-08 2.354761465508805e-16 0.5648430047979364 1.585195463381199e-15 0.2383118638901552 0.5158081148048913 0.2458800213049518 0.001235459310815156 0.9987594623948425 3.668421900317582e-120 5.078294342367593e-06 0.9672301192596338 0.02563735290599396 4.940820707368444e-11 0.007132527784964255 0.02422714140226488 0.4254586103504379 0.5503142482472972 2.418519758781111e-38 0.3948131698847998 0.6032793632518005 5.963911144535469e-06 0.001901502952255032 0.997199515672431 0.002716290825530646 8.419323764441308e-05 2.643937815590492e-10 0.9999999463525525 2.389228677309967e-32 3.156610469556223e-34 5.364744750762751e-08 4.237292444890795e-05 1.669096178679638e-09 0.03282585051711669 0.9671317748893382 1.638079064853799e-06 2.193955120504722e-06 0.1284238683645129 0.8715722996013017 2.444565685813165e-05 1.043760347585113e-204 0.9994657267568886 0.0005098275862530846 0.5242624699604407 7.041510297766059e-06 0.4740013638631166 0.001729124666144805 0.9999973891812692 1.668904185663874e-65 2.483789288392404e-06 1.270294423865196e-07 0.9985579716780477 0.001424432374475206 1.725858154508888e-90 1.759594747710356e-05 4.500294269645194e-13 0.9996313460716183 5.825668861440903e-41 0.0003686539279316249 0.03655543347265139 2.00633583479743e-13 0.8107253335191282 0.1527192330080197 0.06806664250523992 9.823876194794878e-10 0.006390471519335578 0.9255428849930369 0.0114088460226698 2.829636581930481e-11 0.001635662412378511 0.9869554915366553 0.8869444517634327 6.231914698974515e-09 6.107461739696227e-07 0.1130549312584784 0.0001218744501805275 0.005457092871839957 0.09237535089001736 0.9020456817879622 0.2509482357968152 0.3741350451326559 0.01357176295443145 0.3613449561160975 0.9637819974576459 0.03621800254235271 3.953963288567257e-58 1.430516872682922e-15 0.8284050718272596 0.1035548128403881 0.06804011533003008 2.322218313794042e-12 0.09133160010978064 7.902813465822082e-05 0.0573721812186867 0.8512171905368745 1.071662442026811e-26 0.9391893157757435 0.06081068422044887 3.807743299840548e-12 0.9370874173528939 0.06291060882705206 1.671212346081625e-07 1.806698819269975e-06 0.7491556835478378 0.2508380072068356 6.309245309559125e-06 1.699468865410828e-14 0.1367890046683283 4.015237911734878e-07 0.5335260850643211 0.3296845087435594 0.9650391737608096 0.03054703516011773 0.0009068244383887515 0.003506966640683909 0.7370426366547671 0.0001783470528925544 0.04300098255183869 0.2197780337405015 0.7807786451357724 0.2161804887231931 0.003040866141034367 3.636981354888977e-31 0.7331939281714889 4.011180674473084e-11 0.2668060514445337 2.034386555690752e-08 0.9653815476113988 1.195255077793011e-19 0.03461845238860129 0 8.930162398252897e-08 2.417415953712358e-07 0.00547874482576225 0.9945209241310186 0.9253845625371393 0.07461543746286071 2.230434571363816e-24 2.920623810980341e-49 3.389766129632641e-07 0.0001346831643540307 5.389638251540783e-05 0.9998110814765176 2.760517834292379e-09 0.0173700384209547 0.6626607481703457 0.3199692106481818 0.5623376284984798 1.694215099214583e-44 0.01056397661744836 0.4270983948840718 0.001613011666854642 0.5677043602064641 0.430587373172694 9.525495398713968e-05 2.613939039817715e-08 8.612316571662063e-12 1.183319480003285e-10 0.9999999737336653 7.044945819004213e-05 0.001848681726921998 0.1753066933472226 0.8227741754676653 0.7966998881052022 2.684991231963449e-09 0.1338721412830286 0.06942796792677777 1.33591160349833e-14 0.9983313250984737 7.607744109496403e-09 0.001668667293769085 0.2343522381279734 2.539651724947344e-31 0.7655699540020272 7.780786999948307e-05 0.001891038225624852 0.9979577275470398 1.059491254989155e-08 0.0001512236324228029 0.01024778420725405 0.06091995618942164 1.102758589724541e-42 0.9288322596033243 0.3090626087392245 1.503017647971642e-09 0.6909373897577578 2.219902051525708e-17 0.0002406339767915886 0.07444625643528166 0.0005030433419339073 0.9248100662459929 0.4219297607923288 0.01148165832154194 3.534572696206239e-05 0.5665532351591673 0.08201153789110126 0.6126678799098065 0.2546698878691722 0.05065069432992012 0.8801555103547143 0.1198444770571156 7.916419580480839e-12 1.258025378133735e-08 0.008625536751868416 5.009467973004683e-15 0.9913744590245167 4.223609820455009e-09 0.00016049465201599 7.817212210918208e-14 0.0649126047562012 0.9349269005917047 7.096238058048588e-05 0.9789132487792055 0.005317507858245034 0.01569828098196892 4.447292313010274e-19 0.2596301296022752 0.0006191853829933756 0.7397506850147315 0.2854614277826883 0.7145381446531044 1.298422465496087e-16 4.275642071136494e-07 0.6272428709622155 0.3708527114521362 1.704995527074836e-18 0.001904417585648227 0.3747810543380613 0.6252175533031749 4.800738868656494e-10 1.391878689967748e-06 0.9707605654922471 5.122922592100353e-10 0.0005812097705828165 0.02865822422487771 0.7320841684041091 3.477994285857488e-08 0.2675831943065425 0.0003326025094054883 0.9999708672485015 6.285194522837977e-11 1.185042529077828e-06 2.794764611746699e-05 6.925494072950404e-08 6.392972609595768e-11 0.0001402873952719039 0.9998596432858576 8.630937097872312e-09 2.07380432939214e-20 9.581827077359652e-07 0.9999990331863552 4.072284941522572e-19 1.39979590853473e-29 0.999997323867044 2.676132956145887e-06 0.0007816827239353474 0.6202973882559736 3.339029089031139e-11 0.378920928986701 0.0002209081999257813 7.75087394445445e-05 0.001056024355508859 0.9986455587051208 1.749713731591213e-09 0.4943166377657508 0.5056833208040364 3.968049900018292e-08 0.9999904815782955 1.528557772499947e-59 9.518417952937262e-06 3.751551968177136e-12 0.9859771819455291 0.01399605927216691 2.675878216306412e-05 1.409754279348066e-13 0.4915852657567947 0.5084147342432054 1.013806120362325e-25 7.511423519046658e-20 4.840014214460245e-17 0.03670077157758966 6.703417907447443e-05 0.9632321942433357 8.062495033358031e-07 0.0002016500569826939 3.29975543510026e-05 0.9997645461391629 0.9968614633836561 0.003006517696382098 3.888260932803451e-07 0.0001316300938682923 1.528050402731237e-05 0.9944896412209301 4.688908048144202e-11 0.00549507822815342 0.006783945404422928 0.04357825944802433 0.873650554549522 0.07598724059803079 0.1202756258722025 0.000641138087448875 0.8788360744072219 0.0002471616331267046 0.00161503072270423 0.998318070920724 2.333694758081409e-37 6.689835657192583e-05 0.999971395678078 2.724721664118745e-05 2.504352560124556e-32 1.357105280681613e-06 0.9999511167824985 1.058189573210322e-10 7.837124455517311e-07 4.809939923705923e-05 0.0002472796532846134 0.9997527203467154 1.016093810879137e-19 1.403186899387142e-25 0.007783040923625421 0.9922138439245336 4.329058679186246e-09 3.110822782327564e-06 0.199786640774765 1.95266465672013e-06 1.813306476483323e-10 0.8002114063792477 0.6570949592124389 1.22939019336764e-60 0.0008742170192649572 0.3420308237682962 0.9996793396467298 1.593726569225741e-05 9.046485834302375e-67 0.0003047230875778863 1.167952480404798e-07 0.07874423472715085 0.4855539415810959 0.4357017068965051 1.569000919019721e-12 0.0350666524987044 1.151937528133254e-09 0.964933346347789 0.9999260002770677 1.291989729039385e-10 7.399959373328295e-05 5.639383845907519e-39 5.068805610202868e-11 2.437927515932034e-07 0.001716952561265613 0.9982828035952949 3.258875184073295e-07 0.007660440767106758 0.9796821765412069 0.01265705680416796 0.9109785508832968 0.08902144840792968 7.087734261732874e-10 4.659289700670474e-52 6.947841301678658e-05 0.09829604256650547 0.005100791405388795 0.896533687615089 4.475357653361901e-05 0.9973377743421296 0.002617472081336927 5.48103932434244e-171 3.464403234228581e-09 0.004870146922952416 0.995129827541463 2.207118134279844e-08 2.601837819616476e-05 0.01910961523578558 0.9808566350496273 7.731336390849811e-06 1.215012013797939e-10 0.999999999171897 7.066017942233395e-10 3.755534200190652e-77 0.9917463961611273 0.008253506766959292 9.707190394980458e-08 9.580550967383934e-15 0.02262983552250426 0.9764178089518993 3.363635912746635e-18 0.0009523555255964483 6.458947288397973e-09 1.064846064497662e-20 0.0002518047763645526 0.9997481887646883 0.6349163015260726 0.3650833947012657 1.633040475730613e-12 3.037710288074122e-07 1.06227457761986e-13 0.06153792639928055 0.001844136216748386 0.9366179373838648 0.8993130104727215 0.08669580038805566 0.01386172097304998 0.0001294681661729327 4.266113149973956e-32 0.00767815288524431 1.834016182963424e-13 0.9923218471145723 0.7595400847668251 0.228486979622883 0.01197290892895002 2.668134180047827e-08 0.9992060925563977 0.0007938505589441963 5.688465813244049e-08 5.656817134328458e-28 0.6616812099063778 0 0.3383187865395583 3.554064039304662e-09 4.549220727770543e-06 1.700048839754394e-17 3.431498983558381e-27 0.9999954507792722 0.05807315239525608 0.04012654346562108 2.160136478241782e-11 0.9018003041175214 0.01061128981894816 7.474928711406356e-90 0.02711375630094384 0.9622749538801079 0.8443378859118131 0.02490145818316498 0.1278115323498888 0.002949123555133205 0.126845377527783 0.01388084924606614 1.434439521565226e-07 0.8592736297821986 2.049432330865843e-100 0.007558115226720116 0.99244188477328 3.593418312171225e-19 0.2884830906258576 0.001543780188496282 0.002234970663428435 0.7077381585222178 2.298019458225193e-15 0.9398406301513487 0.0002191418012865252 0.05994022804736254 0.01234330628514461 0.02244876936808464 0.9652079243467706 6.793010668481297e-42 1.518415075445479e-12 7.58720650177695e-05 0.9997947883751412 0.000129339558322354 0.1323782856196304 2.008920512767686e-06 0.8554729054714124 0.01214679998844439 4.8276352010794e-17 0.9996071523018023 0.0003928476981977572 1.055795484327977e-234 0.009055902329464984 0.9705301092312151 5.949193416874759e-16 0.0204139884393192 0.9797704354565017 0.003299151579473337 0.01386932376785743 0.003061089196167585 0.03071380049466697 2.724592217252121e-15 0.9688500630883637 0.0004361364169666107 0.09498438441497903 2.077375564248039e-14 2.11049343540152e-12 0.9050156155828898 0.9460970577954613 2.415330776849947e-07 0.0002196982367650036 0.05368300243469603 1.091946256785892e-23 0.9103955895386762 4.011125985539599e-25 0.08960441046132372 5.146514523404585e-07 2.176450899652294e-23 0.9999994853485477 3.179816238115397e-26 0.07606794621546914 0.277643896465894 0.631599353185443 0.01468880413319392 3.786806639931876e-08 0.993548423235768 0.005614901847424521 0.0008366370487410874 0.9996772661504603 8.438150106540704e-05 0.0002382778139838758 7.453449048072737e-08 8.516767251280361e-08 2.379224591001853e-06 0.7154158600627438 0.2845816755449925 5.212834525954503e-08 0.9178148062604934 0.08218434525034242 7.96360818704307e-07 0.0004540391395026138 0.6537129674554163 0.3458329934031388 1.942334424456989e-12 0.3535975460772691 0.5933492509222051 6.674016936902872e-165 0.05305320300052584 0.00647935092137577 1.08231060726723e-06 0.8631105275513314 0.1304090392166856 0.02646060383734249 1.001903956490351e-06 0.108535446561967 0.8650029476967341 0.002172496359021126 0.8020447483386511 0.1957827535083043 1.794023197501214e-09 3.657214909536915e-99 0.5463756071168716 0.4096852111768127 0.04393918170631578 0.9733852203093312 0.0179435105955639 0.008671269095088856 1.587978451362589e-14 0.000738960443941774 8.303477092983653e-06 2.077443608581321e-07 0.9992525283346044 1.172824849177501e-70 0.6703541587967452 0.3110645775246965 0.01858126367855839 5.466658577532173e-09 0.8134985062506889 0.133165176542456 0.05333631174019669 0.9973450612584713 1.595890512965657e-09 7.984368879313022e-40 0.002654937145638147 0.5538178041053714 0.446058383941853 1.746177193892394e-06 0.0001220657755815834 2.798960274300636e-106 0 1.829897669086026e-09 0.9999999981701023 1.78516868218911e-57 0.01785082346001285 0.9817588308152952 0.0003903457246918119 0.0002067968881379326 1.104327928850122e-10 0.001950746452135879 0.9978424565492935 6.023692688397558e-18 0.004807800307390359 1.149025018237371e-06 0.9951910506675914 0.005383646157493959 0.02347219900492968 8.222276352567175e-23 0.9711441548375764 0.12841591115622 5.127308076513032e-05 2.021227746708424e-26 0.8715328157630149 0.01260396535129027 0.01419036454512572 0.0001339954794798435 0.9730716746241042 0.0007804525375347039 9.735648747253688e-35 4.259383728994089e-25 0.9992195474624653 0.3103266269821983 0 0.6896733730178018 6.943579639353378e-17 0.9943672349364966 0.005245648720299413 0.0003871033809221523 1.296228198428965e-08 0.3251370436510221 0.002379282942527759 0.6537718851781917 0.01871178822825851 1.702973596381661e-11 1.491445176636885e-50 0.234588422879346 0.7654115771036243 0.000108923454099933 0.9998910764735726 7.232741984485794e-11 2.93235378850504e-21 3.592536956219283e-21 7.959857163161308e-06 0.9999920401428368 2.63656833085036e-33 4.842756187106582e-07 0.9999995157243812 2.114324493255646e-33 2.599349355581463e-32 7.213226063222986e-20 0.1101670984732542 0.8029328776617474 0.08690002386499834 0.9933285897647701 0.0001036896194497483 3.690225109862352e-05 0.006530818364681541 2.099282368035268e-08 0.08573054423755536 0.914269434769621 1.698100069555855e-18 5.644366272897001e-26 0.5265896639493737 0.4733708954811269 3.944056949939025e-05 3.188530387278432e-08 7.655332148524749e-17 2.774143001210655e-05 0.9999722266846839 0.3803482462642064 4.301269633006898e-14 0.02203309109852854 0.5976186626372221 2.315598934750656e-05 1.051272495494411e-10 3.60388469855993e-17 0.9999768439055253 5.907974180406792e-15 0.2687356089056188 0.2536596892874706 0.4776047018069048 0.1575508994569181 0.8408948033850067 0.001554297158075327 1.368251395504887e-19 1.582220769316279e-08 1.057081558296519e-17 0.9999999841777912 1.04713823633428e-15 0.0009428674462694974 6.825759945884893e-15 0.0005925311041046862 0.998464601449619 5.823985276277081e-08 0.320057311929374 0.01031582570217161 0.6696268041286015 2.530039083012153e-17 0.218519504421623 4.330159163913366e-06 0.7814761654192131 0.2731444836364654 0.000695353786091623 4.733142964355038e-83 0.7261601625774429 0.6478551621614846 0.002362547347437392 0.3497822322796565 5.821142145371979e-08 0.4476233956900588 0.5182337216490641 3.367591932756838e-21 0.0341428826608771 0.001490296409140117 4.271148046845363e-06 3.586067307776017e-05 0.9984695717697353 0.00161412129428769 0.9568902624720558 6.698703965192764e-10 0.0414956155637861 0.1540252800122758 0.5598334469579918 0.0002173629335219531 0.2859239100962104 0.002017621234200722 3.45934471145347e-07 0.947416840308023 0.05056519252330522 6.270148006322716e-06 0.3031293411212451 0.575002401396392 0.1218619873343565 0.05045975315701789 8.763304831769233e-05 5.957049380936349e-08 0.9494525542241705 0.05355843292312278 0.2132192358153964 0.7319062488752714 0.001316082386209479 0.9581187805388505 0.04188121944737957 1.376997882319582e-11 8.618808068084018e-20 6.232370610110444e-06 4.195595306565396e-12 0.9999937543418809 1.328331323271731e-08 0.04356275430526133 7.469133727699925e-06 2.076787857332326e-43 0.956429776561011 0.8017658209399097 0.1982338835934066 4.744190226271208e-13 2.954662094261457e-07 0.1047960456317067 8.155236789315426e-15 9.491579849495009e-16 0.895203954368284 0.0657185327257727 0.6962375591983541 5.044793008168339e-07 0.2380434035965724 0.000103397305832309 0.0002952298976197515 0.09053018838560907 0.9090711844109388 0.4945962000442466 2.512006506061603e-17 0.02604350886158625 0.4793602910941669 0.6830891224346041 0.01720573747743163 0.2997051400879643 4.837969251131653e-22 8.251223024814731e-06 6.817588125573489e-15 0.9562340026651228 0.04375774611184556 0.001678291687954981 7.533778373218273e-08 0.6734730863938571 0.3248485465804042 0.9644734499599402 0.02476238036016187 0.01076416967989235 5.391308726770719e-15 0.06674750018597714 0.9149346288460111 0.01823951548394352 7.835548406835699e-05 7.90848314022489e-09 0.7170911311487959 0.1660612765226618 0.1168475844200591 0.9999990507943896 4.518475509917064e-10 0 9.487537628027483e-07 0.9453919833881268 0.04687553240612079 0.007732476205589827 8.000162608074412e-09 0.04153430256342152 0.001514697051792969 0.9569509260399623 7.434482323505651e-08 1.957028906909472e-32 1.267438540307295e-219 0.9999927037472849 7.296252715043469e-06 0.9899940152323211 1.123262923626683e-06 0.007771112765222518 0.002233748739532764 4.966977227461517e-10 0.9986888228230217 0.0003860482286337894 0.0009251284516465715 0.009467038654367679 1.111397709053208e-53 0.9905329613456324 5.869595568763412e-21 0.7889085261317732 0.2045609973116952 6.450737456467469e-09 0.006530470105794153 0.9300097521895305 0.06835141741709991 0.001638829480659913 9.127094940502606e-10 1.262527658910855e-149 0.2010332157300753 0.4010365625061562 0.3979302217637687 3.041787840151521e-06 0.8189826294182933 4.426281374421882e-07 0.1810138861657292 0.9997512372033407 1.784536756427479e-78 0.0002487627966594234 2.605061218537159e-34 1.757675029274826e-06 0.1218236441158993 2.958635651485522e-12 0.8781745982061129 0.0003241640989962637 0.9995049326808572 4.849697487776548e-10 0.0001709027351769288 1.21264083920587e-12 0.1247636477708201 0.826156484624444 0.04907986760352338 4.585648215001873e-15 6.674043357175837e-05 0.9957841261411938 0.004149133425229614 0.0001655370579677892 0.4292267849402038 0.1190072448243018 0.4516004331775268 0.8164976669950617 0.005613938724144257 0.1778469213033499 4.147297744394228e-05 0.9652586568225713 3.331316488611154e-06 0.03473748326252937 5.285984108470134e-07 0.001455882377324277 0.8892474117919513 0.05490123248783433 0.05439547334289004 0.06055810969034578 4.172729201840428e-28 3.303978226783491e-08 0.9394418572698721 5.652717207911307e-18 0.999999986627274 1.337272597705263e-08 5.705985985042847e-57 6.174248120243103e-22 0.999963519700259 2.563552574150161e-06 3.391674716688317e-05 2.624203579009464e-23 0.0004957193700172763 7.212578567381592e-20 0.9995042806299829 2.32510683026595e-25 0.9780890589437301 0.001161966196741565 0.02074897485952837 0.2321589081530896 0.7670284220268986 0.0008056398169901808 7.030003021540113e-06 0.01577620494558318 0.4061957112811073 6.511420676975292e-124 0.5780280837733095 0 0.2486825856237498 0.002684520795789617 0.7486328935804606 1.322558429839064e-06 0.9996527704354224 0.0003458638830770748 4.312307075296383e-08 0.7372278671432225 0.2025411386826107 0.02344345457209346 0.03678753960207338 0.1107025934239075 0.3725705089332257 1.239878171345601e-10 0.516726897518879 9.055506699880516e-11 0.1360984474594829 3.289810356598275e-09 0.8639015491601517 0.01193057524291399 3.894953214667511e-05 0.4068734462310761 0.5811570289938631 0.9969908044190061 0.003009097445080292 1.93818381166518e-81 9.813591363207763e-08 4.093954962566237e-06 1.286872838669538e-72 4.68931900014564e-07 0.9999954371131373 8.778809425438245e-10 0.03449439329880036 0.965124660441494 0.0003809453818247216 0.7397167519898731 0.1200588614105364 0.1402243865995905 0 1.588408316591877e-06 0.00585084341174805 0.8730874126830521 0.1210601554968832 0.007712969435885004 0.0115352845477829 0.980749946642241 1.799374091150722e-06 0.04572144844401733 0.1488353165990062 0.8048495991793239 0.0005936357776524768 1.238331136591298e-05 0.0003352915310011872 0.9979698780199699 0.001682447137662945 3.543547671522832e-18 0.6438247371865793 0.3561752628134208 9.722214321702616e-102 0.9979222171687688 7.319487266352013e-06 1.136169831953354e-16 0.002070463343964519 3.89007942797939e-06 2.337518368586313e-08 0.999993056932572 3.029612816316585e-06 0.004281403559242566 3.354220079999167e-39 6.279572971512951e-05 0.9956558007110423 0.9888675881625666 0 4.500270392562444e-29 0.01113241183743344 0.9499137621930226 0.002498676169920864 0.01687337099012839 0.03071419064692817 2.273530578996828e-17 1.750195673970434e-20 0.0001799695842788945 0.9998200304157211 0.9999999491964922 3.925381275268442e-71 2.076588619061452e-23 5.080350785308882e-08 0.003716633910066592 0.3037591016298263 0.6925242630750575 1.385049477181666e-09 7.87475239807139e-06 3.468351083831477e-06 0.002376449942235028 0.9976122069542831 4.130550932610996e-06 0.0009250940426828246 1.997370666192601e-05 0.9990508016997226 0.0009579761700234436 0.001605529533119518 2.203190438429124e-10 0.997436494076538 0.7642489136271688 0.004587603902606708 0.2211175219286766 0.0100459605415478 1.325381222044396e-26 0.001505861420123062 6.914454711853838e-26 0.9984941385798769 0.002007734558564995 0.008480135147759263 6.427129633875248e-05 0.989447858997337 0.1650345439190584 0.0001593793201557431 8.00975908999746e-14 0.8348060767607056 0.191421382097282 7.043233484343486e-26 0.7532035911297408 0.05537502677297701 1.95744280997419e-42 0.9795640020366471 0.006956768444288788 0.01347922951906404 1.916984455921537e-22 0.968589303203842 0.0223023173393564 0.009108379456801832 3.548015542009985e-19 7.106084542880172e-19 0.9941650007942366 0.005834999205763356 3.415105970411645e-05 0.23181500399008 0.7681453425603418 5.502389874042623e-06 0.9999999577349494 9.201295418513782e-227 2.621926388611303e-11 4.223883116330154e-08 0.0003685351145388529 0.9662825932892971 0.02266169323617835 0.01068717835998566 0.0004612830292481347 0.9995387146790952 2.291357922138329e-09 2.987413642201618e-13 0.00191645582922548 0.08766366444937117 2.804825922143988e-73 0.9104198797214034 1.329680216402074e-10 9.215600700948063e-18 0.9758802949308394 0.02411970493619265 0.2374633079871011 6.29819804224487e-05 0.6951167631335622 0.06735694689891415 0.8342798859464058 0.1657060314907048 1.408256288928157e-05 9.80338667478486e-17 7.594359166576062e-13 1.729503076677194e-07 0.3200064685249988 0.6799933585239341 0.8563380269053502 0.000800455130096899 6.799999399311191e-06 0.1428547179651535 1.113242826605562e-13 0.6565346337534075 6.965213911093545e-10 0.3434653655499598 0.4714638358269498 0.3602791128295524 0.1682570513434977 2.156382970062746e-75 0.004695010277588901 9.487754586846339e-11 9.695399127415734e-13 0.995304989626564 0.8774154715019276 7.649314861554171e-10 0.1134495374906702 0.009134990242470746 0.9965325216697952 3.996323316819187e-286 5.723960856649672e-06 0.003461754369348061 0.2321073943114597 1.24638023906207e-06 8.435463475319827e-06 0.7678829238448259 2.371423747621704e-118 0.02643245051880473 4.476236017618694e-16 0.9735675494811948 0.3053463531497691 6.397567452118271e-11 0.6946536458897595 8.964956166717646e-10 0.9988553081872646 6.253155335209045e-22 0.0005374249099858691 0.0006072669027494794 0.4546408279343906 0.01368241318909699 0.5299182986977073 0.001758460178805011 2.882715060517134e-86 0.0008261783736691419 0.9991611559999484 1.266562638260643e-05 0.03929639453187529 0.03757862375312512 0.9096121249934582 0.01351285672154119 0.052441450692977 0.9475585475257385 1.781284286364697e-09 1.927267932973104e-16 0.4057546791289319 2.839364439494662e-10 0.001701241692095785 0.5925440788950359 5.037089089777578e-28 0.9795852875165828 0.02041463307484338 7.940857384364736e-08 1.589842089248905e-06 0.8774699030741728 0.1222024815860903 0.0003260254976478298 0.1095704047292335 0.8902421463950458 1.371141058641385e-199 0.0001874488757206274 0.9975544355063707 0.002277465251354928 1.56081986408691e-07 0.0001679431602879239 0.007260476703541683 1.077947485303025e-19 0.008182523903884723 0.9845569993925735 0.5177250213487301 0.009086871156988309 1.528118621538463e-11 0.4731881074790005 0.7504728899454399 0.0003107288648826303 0.1799487736429295 0.06926760754674785 2.585837330697637e-10 0.003482417207828597 7.268228910403025e-08 0.9965175098512986 6.350150292497943e-17 0.9985967604851195 0.0001668074097859158 0.00123643210509451 0.7764766895730298 0.2143827270146778 0.006353051430631004 0.002787531981661272 4.214721281151183e-17 0.9999999981156855 1.884308476712662e-09 6.000235153211525e-15 0 0.9891297094280677 0.01087029046878368 1.031485454634644e-10 9.946068183369538e-06 0.9770447847376499 0.02294127914084281 3.990053323799043e-06 0.6125928728510284 3.808629449010083e-72 0.2463119083221686 0.1410952188268029 0.006696693914399182 0.0002937144993084572 0.7885246325698704 0.204484959016422 1.880542583738941e-05 0.000490435593455323 0.994450621471744 0.005040137508963282 3.91446726765029e-06 4.929082248620298e-18 0.3565705483385224 0.6434255371942099 0.0003052144246764913 0.9965939305631792 0.00146818014799456 0.001632674864149661 0.02327142300168352 0.340645589971604 0.5967252271453103 0.03935775988140214 0.002462950905932809 0.9013894986925428 0.04471931275628779 0.05142823764523662 0.002586850928734883 0.7902874826366236 0.0001419101145493497 0.2069837563200921 5.270572109094011e-05 0.03579665977006007 2.055188390952261e-50 0.9641506345088491 5.659421765353634e-07 0.9999832433605509 1.646454706551926e-10 1.619053262714227e-05 1.540014021859445e-10 1.080822255410794e-08 0.9999127652531321 8.722378464388405e-05 0.7748240310479156 1.432985956321769e-06 0.01575735316653448 0.2094171827995936 1.951221421861371e-114 0.9999807437302002 9.187026874732216e-25 1.925626979969024e-05 0.6513947011612685 0.1822750443739802 3.526680577601993e-05 0.1662949876589753 0.9994755219144766 8.972980617036326e-05 0.0004347482793530298 2.220163655404416e-30 0.8477565860533028 0.09255630392614839 1.255363926478075e-16 0.05968711002054872 0.9999868060985839 8.442998519759173e-46 1.266954535097987e-05 5.243560650616137e-07 4.172971275577677e-08 0.9999999441380504 1.413223685459587e-08 9.721847921375422e-105 0.001088287596342771 9.808514025171755e-10 2.019302381875999e-37 0.9989117114228058 0.1199935739383629 0.05378647172423818 0.08326716248846425 0.7429527918489348 0.0001474629460953781 0.6536929750419314 1.906397372872281e-07 0.346159371372236 7.620962701812892e-16 0.202733534759287 0.7787954998382635 0.01847096540244872 0.993273228232824 0.001066689496331319 4.414464668989221e-10 0.005660081829398097 2.917371696523937e-108 0.993138176549482 0.006623637380567133 0.0002381860699507881 0.1296426028850538 2.355427587060418e-11 1.48455475077391e-31 0.8703573970913919 0.1237232992297701 0.01966887144978504 7.416800224477276e-96 0.8566078293204449 4.089120892557201e-06 4.720541149440706e-06 5.53469480153036e-25 0.999991190337958 5.959159513767122e-15 1.149670844198766e-05 0.03111676740805471 0.9688717358834974 0.5755851201109072 0.03746454421667997 0.3718574310662007 0.01509290460621197 0.3761223058845965 0.0006490406803346674 0.5499175846772677 0.07331106875780108 0.00441978341618387 0.0001069084629762136 0.06591815519643822 0.9295551529244016 0.1651961650845075 3.540701424098049e-05 0.8105581726914195 0.02421025520983191 0.008209534842120675 0.0005529824279057688 0.304298968155121 0.6869385145748526 0.3229603830362491 0.640552295540211 0.03648732142353985 4.403890152952993e-28 0.004145864348144938 0.2879097463056723 0.365895047536144 0.3420493418100388 0.09126786149799823 0.470723210165006 8.568720118433544e-13 0.4380089283361387 0.0006376519744637079 0.2225485403484241 9.185506924929747e-18 0.7768138076771122 1.02235771754801e-22 1.027536159467472e-10 0.9921807804950119 0.007819219402234519 2.18643094623041e-05 0.0001065504588994129 3.992488679084086e-25 0.9998715852316383 0.0003565176500621479 9.993888129594537e-160 0.9995993155847874 4.416676515045624e-05 0.02354987435515509 0.02464081632823566 0.001678460447045348 0.9501308488695639 1.572389539728764e-05 4.099594403404558e-19 0.3056395578769857 0.6943447182276169 0.9998805993740213 2.081908610128052e-05 1.026733878945202e-10 9.858143720413094e-05 5.594643625666543e-26 5.598729660537216e-09 0.9999032870193216 9.670738194862973e-05 3.524906583820859e-14 0.8553437408593945 0.1446562591405702 1.822775926217663e-125 2.639792169027346e-10 0.999971347104827 2.864456595623093e-05 8.065237525275549e-09 0.9995560362808716 0.0004439636999734402 3.179073108465075e-26 1.915486860131856e-11 0.9999999865338877 1.346611248079659e-08 3.755049879771205e-63 7.581125658773558e-19 0.02841060613524948 4.150390923784966e-10 0.9715893934497114 7.039595470241882e-162 0.02688818569084022 5.319318200890873e-07 0.9731112658567281 1.652061155781863e-08 1.26043672355987e-13 0.1574685380297358 0.2917814807595449 0.5507499812105934 0.9990750457346861 1.70613372536784e-05 0.0009078929280603309 0 0.9051058736267698 1.688883518825118e-05 0.03566076893093959 0.05921646860710236 3.115678433415295e-300 0.02002208820807118 0.9799779116849824 1.069463174877014e-10 0.08857690985689433 5.129348230002267e-20 0.1050103306131334 0.8064127595299723 9.761218838868859e-05 3.081092328300521e-95 0.9896125333974676 0.01028985441414365 0.9457756812899129 2.228204210596171e-08 3.552301723336208e-09 0.05422429287574333 0.006365863469517129 0.9934447543816093 0.0001578871854789595 3.149496339453104e-05 0.005155341729252297 0.9948441316954381 3.240987380038775e-07 2.024765715339271e-07 1.45911068344619e-26 0.003099236153360393 0.9838228159130621 0.01307794793357747 1.618446488476914e-236 0.9999968291033392 3.170896660757511e-06 6.95178065603534e-81 0.4211732378978957 2.676485661999755e-18 1.162032954349496e-06 0.5788256000691498 2.92115937339447e-12 0.0001078668186205305 0.004238006459313774 0.9956541267191444 7.042049169274312e-07 1.583529516091598e-08 0.916553913697467 0.08344536626232092 5.241224675673171e-14 0.9999999999999476 6.460146594791505e-20 8.395027724895689e-25 0.02580116439615957 0.1019676125480474 6.718221701687469e-10 0.872231222383971 0.3422536239269203 0.6577463736787119 2.050077663476881e-86 2.394367946542132e-09 4.085215923167948e-12 0.0001802430808356815 1.345932111321796e-15 0.9998197569150776 0.9557512054791253 9.066506020549203e-05 5.102172113440032e-08 0.044158078438948 0.008118746224796457 5.391723474926559e-08 0.003564647302896642 0.9883165525550721 0.0001600397849354672 0.9116178573419829 0.002998655887290976 0.08522344698579053 0.02260530041701727 0.0006158888703556306 6.76430210178518e-07 0.9767781342824168 0.1980403702522663 0.3410852553756232 1.123628411502379e-08 0.4608743631358265 0.006418212141739343 0.001924830060028255 0.9857654946250045 0.00589146317322785 0.9981612864746071 0.001695438323620855 0.0001432690122258396 6.189546198485865e-09 0.3952420878852164 3.282060430167844e-28 0.5454669739073282 0.0592909382074553 8.109044123931363e-17 0.9998313471324149 0.0001100650706461844 5.858779693872015e-05 6.37120414605608e-33 0.9175449310884195 0.08245097872863412 4.090182946316366e-06 7.755039508713998e-06 2.565806186351007e-09 0.0008724531182194823 0.9991197892764657 0.02257484747596539 0.9774238847186342 1.267805386866166e-06 1.37563089697918e-14 8.672865667576505e-08 0.9937572901212958 0.003380867395545595 0.002861755754502027 0.003342929983000138 0.9966564213575706 1.544874339937575e-15 6.486594276671808e-07 2.10236243127237e-14 0.9972891652917329 0.002710832564281468 2.143964613290326e-09 0.001346567345705569 0.9855341047652658 1.456097143513121e-66 0.01311932788902863 5.319146878742669e-12 0.9999999999946808 1.661448829479038e-48 6.584799299511701e-131 0.001223856115700663 1.192809016631005e-05 0.8733432566043435 0.1254209591897893 0.6688996461635471 0.002374465557714087 0.3286312230363844 9.466524235406094e-05 5.67047994120677e-15 0.9999999999999942 1.388642289558966e-25 6.372408232987068e-17 0.1885346245593736 0.7928237480167539 1.803950259893715e-21 0.01864162742387248 0.03576897252586084 0.006327412625863568 0.006802157025567799 0.9511014578227078 0.9999763750021726 7.924525279707149e-07 2.283254249536444e-05 2.804022539246637e-12 0.07909458391579947 0.9200713005674432 0.0008341155167574236 1.256787157512311e-37 1.783662451119824e-21 8.022058702806853e-10 0.001746506642731759 0.9982534925550623 0.7701469894347484 0.007180735783220597 0.1543598773939333 0.06831239738809768 0.8990936398771122 0.0001833766157782483 0.05757392697456749 0.04314905653254199 2.470983845262209e-55 0.9823625039098683 7.149694325079428e-16 0.01763749609013087 5.20458445264752e-10 0.9997201140699985 1.157817111348496e-06 0.0002787275924318412 1.591667428052448e-11 0.002752599140958122 0.4568597649719304 0.5403876358711946 6.635666009062032e-07 0.8573537778900051 0.1426439174722039 1.641071190231674e-06 0.01386633615771364 0.9861218384534708 5.035020915723595e-34 1.182538881552028e-05 6.389808757178989e-06 0.9999935663438168 3.016845666744266e-08 1.367896956463485e-08 0.4948740290655732 0.5051255650352207 4.058992061844878e-07 6.693841568562201e-160 3.942398871687276e-05 2.416703495686784e-28 4.286308536334179e-06 0.9999562897027467 7.592558905239351e-08 0.5499063712859088 0.4262386340600237 0.02385491872847843 0.9998659248030356 0.0001340751572632399 3.970127320325266e-11 0 0.9948316344178076 9.686054207740754e-237 8.281494735251239e-23 0.005168365582192377 0.4412605736103953 0.5587384938089082 5.188262301055192e-10 9.32061870455923e-07 0.1893389272192729 0.1338101715831921 0.676850901197535 3.549453863417619e-27 1.753298810263596e-46 4.049589536551434e-05 0.358333186973892 0.6416263171307424 2.480658706685218e-10 0.9970541738216783 4.289867251130545e-39 0.002945825930255744 1.441073380222413e-10 0.9999999998558926 5.730768966261716e-40 2.339747963442145e-217 1.928139211297664e-13 0.9791314681146489 0.02086853188515831 1.318904439753997e-39 0.02367557803195759 9.190327091504077e-08 0.4700872437823186 0.506237086282453 0.0003000737423746933 8.539230870443861e-24 1.180340199414368e-08 0.9996999144542232 0.0012991693726754 0.9883996827073585 0.01030114791789047 2.075753395783151e-12 9.564339745660154e-62 0.9999999999998512 1.486352754079067e-13 1.768639166741579e-80 0.003944484087879982 0.1575689510312413 3.769124886469269e-10 0.8384865645039662 0.9667707280909643 0.03322927190903515 5.198418199968745e-16 0 0.2500108564052561 0.2403292130320318 0.5080849364581139 0.001574994104598199 1.632514643074269e-16 4.74281164964252e-17 5.243411061646472e-12 0.9999999999947564 0.9946436315610242 1.457404247977364e-06 5.489947835527555e-06 0.005349421086892228 0.04934969501935157 0.9095744704298052 1.830210566976742e-29 0.04107583455084316 6.21514441591645e-18 0.1534501832379051 0.846519840360897 2.997640119810285e-05 0.9723241208385783 7.098385434651187e-20 0.003445181307688693 0.02423069785373304 5.851693669051527e-08 0.8664812754128276 0.1335186660702077 2.820148754178085e-14 0.9499959448775644 4.309397345567694e-11 0.0005766410831948122 0.04942741399614697 1.058502489138033e-05 0.854158764241985 0.135086574196914 0.01074407653620954 0.9096882496303266 0.09000136196106306 4.357186481296421e-08 0.0003103448367455894 0.9999692894864536 2.945599937354574e-05 9.591583172242011e-07 2.95355855553388e-07 0.316876253758629 0.6707385048091393 0.01237965311091935 5.588321312394975e-06 0.133297381141248 0.5116542935420239 0.3550440735746526 4.251742075685957e-06 5.622633901810422e-06 3.479572993053285e-05 0.9999592367380542 3.448981133336866e-07 0.5873321308124195 0.412635752831351 3.21163562296131e-05 3.387879807019768e-20 0.9999999377168084 1.053866901616813e-10 6.217780493023599e-08 0 0.2691882587313789 1.905216608284641e-34 3.023204353103372e-06 0.7308087180642681 1.132915591750796e-05 2.11731605366014e-63 0.9999886346865701 3.615751230181794e-08 0.6834101360716383 0.316579315997682 2.876908855560491e-16 1.054793067952785e-05 0.8033193744944283 6.429967736917096e-09 0.1265119764050981 0.07016864267050583 8.379701005045196e-07 0.9984734141621329 0.001525747749516884 1.182496445758108e-10 0.0002830532205037717 0.005754508872589744 0.9924366714775023 0.001525766429404382 0.3619805219718918 0.299493371966031 0.3383047800103893 0.000221326051687953 0.6522255479436232 0.003288463131062301 0.004693913690021905 0.3397920752352927 4.690228130405225e-77 0.9866059681453055 0.01339400521094724 2.664374731535687e-08 4.971471830171691e-46 0.07879971986507293 0.9211883390259309 1.194110899602852e-05 0.1011232674774589 1.693505871216789e-05 8.388630001600447e-06 0.8988514088338273 5.239334066759673e-07 0.007986523369155949 0.03362855598542656 0.9583843967120108 0.0262196294368238 1.684827891392648e-11 0.03228332222467672 0.9414970483216512 0.8451121719911102 0 0.1548878280088897 0 0.1042524183379751 0.0001244650131917693 0.8955229778806731 0.0001001387681601788 0.9926384531741594 6.185096993147272e-05 0.007299695855909063 8.61714816355435e-24 0.002285068790445668 0.2780537770957998 2.298508799772135e-15 0.7196611541137524 5.606613728483367e-05 4.391790007811065e-06 0.09458699956930586 0.9053525425034015 1.476707717614397e-11 0.9999915024066475 1.743517789002985e-06 6.7540607964207e-06 0.870770520547028 0.04854309598151176 0.004659147462298396 0.07602723600916193 0.0004123566722892155 0.01231265351618799 1.437896362036767e-06 0.9872735519151608 0.6034774989330031 2.01453172535547e-05 0.396441546331448 6.08094182953364e-05 0 0.0009812933786454057 1.912418999293282e-227 0.9990187066213546 0.0001244975092641413 4.593765777873726e-09 0.9998744630561409 1.034840829163881e-06 0.0004889028414869209 0.1193950561302812 0.8801160410282317 1.774138489769458e-30 0.0969828478599102 0.9028063952932527 0.0001398862105943039 7.087063624276162e-05 0.9912475111090417 6.730682311219114e-07 0.008751815822331435 3.958218282063462e-13 9.141364762680763e-08 0.02944082665806926 4.591039132888012e-185 0.9705590819282831 0.01794755859259644 4.623600272389106e-166 0.9820524414074036 2.805286133059673e-33 1.860531591013868e-13 0.9967091347717619 0.003210012486548601 8.085274150338069e-05 0.9999999647378157 3.526218236602309e-08 1.90442295986912e-15 2.266726616108935e-37 0.03691721396066774 0.961551252497671 0.00153153341928048 1.223807549372931e-10 1.123615243342622e-07 0.5578700692714552 1.014179594471178e-08 0.4421298082252244 0.9963671876139923 0.003632808326398721 4.05960883963144e-09 3.699568428878494e-40 0.9990860625616537 0.0009139097431970876 2.890306462215096e-26 2.769514939464946e-08 0.004431001022532444 0.0576153163382874 5.356948550314132e-05 0.9379001131536769 1.542768741342634e-06 2.93100729996492e-15 0.9999984572312556 1.11633144856353e-37 0.8999360778075385 0.1000639221924615 2.257557970761615e-137 2.91528762193533e-39 0.9115128254430616 6.337010393444898e-08 4.057454414488956e-05 0.0884465366426896 6.124063627614724e-105 1.927158533998937e-06 0.9302896303693641 0.06970844247210196 4.082144877576638e-21 0.9910200905249642 0.008979909475035745 3.310785994449763e-20 0.8584876977403194 2.187292087189326e-103 0.1408190304650288 0.0006932717946516044 1.037122305992664e-66 0.9984061780820848 6.074270391716479e-13 0.001593821917307967 0.9541285205261935 3.414633728484809e-10 7.371121915819736e-56 0.04587147913234321 6.534230852313385e-12 2.720270232051612e-60 2.824306330568097e-05 0.99997175693016 0.5031522420592508 5.742842239476054e-05 0.4967903295183545 3.328286926140405e-38 0.008474506685602132 0.9908692689280898 7.45791267804819e-30 0.0006562243863081716 1.691544323473605e-24 4.359036717269947e-261 1 6.126101795954708e-28 0.03116608414950109 0.001527638223237236 3.391030540685874e-16 0.9673062776272613 4.86606459585404e-11 0.03913535510048683 0.1453384201741107 0.815526224676742 9.926686950294689e-10 0.9999999990072918 6.321658451065996e-127 3.951302779908455e-14 0.9999999999795793 1.760292572295437e-22 1.272909745181626e-33 2.042073346836211e-11 0.001213034739403111 1.61371052643953e-09 6.685083819145092e-09 0.9987869569618025 5.401311872060958e-07 0.5500607205634934 0.4232678883128024 0.02667085099251702 0.06671184573284261 4.955967017379559e-07 0.8923386333646642 0.04094902530579143 0.01494289138069029 1.017595254281241e-07 0.3262674500821414 