<?xml version="1.0" encoding="UTF-8"?>
<!-- This file was created by ACADEMIC version of SMILE -->
<smile version="1.0" id="Alarm" numsamples="1000" discsamples="10000">
	<nodes>
		<cpt id="Anaphylaxis" target="true" diagtype="target">
			<state id="True" fault="true" />
			<state id="False" />
			<probabilities>0.01 0.99</probabilities>
		</cpt>
		<cpt id="Intubation" target="true" diagtype="target">
			<state id="a" />
			<state id="b" fault="true" />
			<state id="c" fault="true" />
			<state id="d" />
			<state id="e" />
			<state id="f" />
			<probabilities>1.654396215426066e-14 2.77148283181743e-09 4.053037208934611e-08 0.09939921234131881 0.8218423607113398 0.07875838364546986</probabilities>
		</cpt>
		<cpt id="KinkedTube" target="true" diagtype="target">
			<state id="a" fault="true" />
			<state id="b" />
			<state id="c" />
			<state id="d" />
			<state id="e" />
			<state id="f" />
			<probabilities>1.654396215426066e-14 2.77148283181743e-09 4.053037208934611e-08 0.09939921234131881 0.8218423607113398 0.07875838364546986</probabilities>
		</cpt>
		<cpt id="Disconnect" target="true" diagtype="target">
			<state id="True" fault="true" />
			<state id="False" />
			<probabilities>0.05 0.95</probabilities>
		</cpt>
		<cpt id="MinVolSet" diagtype="observation" ranked="true">
			<state id="Low" />
			<state id="Normal" />
			<state id="High" />
			<probabilities>0.01 0.98 0.01</probabilities>
		</cpt>
		<cpt id="VentMach">
			<state id="Zero" />
			<state id="Low" />
			<state id="Normal" />
			<state id="High" />
			<parents>MinVolSet</parents>
			<probabilities>0.01 0.97 0.01 0.01 0.01 0.01 0.97 0.01 0.01 0.01 0.01 0.97</probabilities>
		</cpt>
		<cpt id="VentTube">
			<state id="Zero" />
			<state id="Low" />
			<state id="Normal" />
			<state id="High" />
			<parents>Disconnect VentMach</parents>
			<probabilities>0.97 0.01 0.01 0.01 0.97 0.01 0.01 0.01 0.97 0.01 0.01 0.01 0.97 0.01 0.01 0.01 0.97 0.01 0.01 0.01 0.01 0.97 0.01 0.01 0.01 0.01 0.97 0.01 0.01 0.01 0.01 0.97</probabilities>
		</cpt>
		<cpt id="VentLung">
			<state id="Zero" />
			<state id="Low" />
			<state id="Normal" />
			<state id="High" />
			<parents>KinkedTube Intubation VentTube</parents>
			<probabilities>0.9977333980773355 0.0002364541299630515 0.0008240545441914164 0.001206093248509997 0.01605290921356062 0.9831190925176854 3.169922953390342e-06 0.0008248283458005334 0.009355841290023733 4.550998667956843e-20 0.9906441587099762 4.928497979981858e-28 6.553921109717791e-30 0.999869326953379 0.0001304013212321455 2.71725388787974e-07 3.286855037433209e-50 0.635441586843706 3.393105925811079e-32 0.364558413156294 0.9400081091356211 0.05996946352326763 2.241017473139946e-05 1.716637991617293e-08 1.222762542307724e-16 1.600927286131133e-10 0.9999987287326021 1.271107304985665e-06 1.919238731066395e-26 0.1416105097690921 0.0009109064159089059 0.8574785838149991 1.125962821047084e-25 0.0002470793746527511 3.352157253679311e-05 0.9997193990528105 0.3927470819164153 0.005992721129483074 9.283511701236169e-22 0.6012601969541017 0.9999999980625276 3.348586234884577e-51 9.693339146531662e-27 1.937472402946306e-09 0.09100840927646189 4.750462357111999e-29 0.9089915907235381 1.499508463605666e-17 0.05840389729924874 0.03015338378627528 0.354911585693024 0.556531133221452 0.3654282152765128 2.272688122658752e-149 0.00575256784829859 0.6288192168751885 0.1538812785451546 0.8461187214546942 2.400352766698916e-23 1.512996046124685e-13 0.06168791612206612 0.9382959166443419 9.57168947453206e-08 1.60715166974398e-05 0.2517316360739342 7.135716124812994e-16 6.386528315989992e-05 0.7482044986429052 6.996150485160216e-13 0.03314434019193455 0.9668556598073659 1.052333627368866e-32 0.04527497335528812 0.6673221193711426 0.0894121654650948 0.1979907418084745 9.384771228097386e-06 0.9999903870394832 2.281892886139487e-07 1.565327910695756e-27 9.384898393579783e-15 0.0231861363952552 0.9768138636047159 1.95272982153622e-14 0.004165512969830303 0.0108175985642025 0.9850168884659666 6.670641763579572e-16 1.095523241058987e-22 0.6572844859164098 0.3164244703185088 0.02629104376508145 0.9995733419772627 6.164459856505644e-09 0.0004266518582775341 2.239912113369408e-38 0.00013243724860535 1.954655823266693e-07 2.575491974978977e-05 0.9998416123660626 0.9832183692440024 0.01667641396652652 1.99453353771411e-06 0.00010322225593345 0.9251172149033207 0.02498023319563257 0.01571696467240048 0.03418558722864633 0.4175202585180554 3.033128471402923e-05 0.5768393678356453 0.005610042361585249 5.947445384692031e-05 0.01472273566175622 3.303141764902409e-11 0.9852177898513653 3.252392239226436e-27 0.02888666248681757 0.7737349088031732 0.1973784287100093 0.0002041609759487701 1.925450322664403e-181 0.9997534105775674 4.242844648385008e-05 0.9954304008669621 1.829375923856699e-06 0.004567761616487951 8.140626116225794e-09 7.435228664806534e-12 0.1306176477036213 0.02274008749322397 0.8466422647957195 8.369996645594076e-07 0.070837153823924 0.7006305692381285 0.228531439938283 7.071289517482993e-06 0.7143585211208492 0.2856344075896333 0 7.37193026956709e-11 0.2286939752359043 0.7681339031203037 0.003172121570072526 2.26067091783153e-13 0.9999170443345894 1.467605559636993e-07 8.280890462865505e-05 0.9999999264774175 2.952408824844306e-17 7.321792909644797e-08 3.046533367067331e-10 0.006363739588660335 0.679477517454538 3.46194036237603e-58 0.3141587429568017 3.984439389058204e-13 0.0002351262387951937 0.4932424574626704 0.5065224162981361 0.8232913803122793 0.1767086196112888 7.642512885645254e-11 6.68620908319285e-15 0.7116588749938781 0.288341124990218 1.590379496878046e-11 3.246220794539785e-31 0.6153209481735451 0.009137222582756057 0.2139438193241462 0.1615980099195527 0.2477533352442202 0.01804874836652855 1.144631013391356e-19 0.7341979163892511 4.073787735481643e-13 0.9718045295994369 0.0281954704001557 3.867007221571404e-19 6.968854658617469e-07 2.723484651048745e-05 0 0.9999720682680237 0.9948790587751094 0.005120941197122012 6.231074023815081e-28 2.776842910564641e-11 0.6330636595996546 0.01855027046845138 0.3479607354406401 0.0004253344912540739 2.117389491698971e-124 0.00380406430922133 4.885486634995894e-12 0.9961959356858932 0.7371996305639 0.08652349427686788 5.762912523449185e-34 0.1762768751592321 0.7792790768246052 1.82514904502107e-29 1.902818017588896e-17 0.2207209231753948 0.4486591652401827 3.262930637636042e-09 0.01499471763395359 0.5363461138629331 0.9995976056677269 0.0003908136033047555 9.084754664012383e-08 1.148988142182518e-05 0.1424207530816335 0.007887480265559058 0.01909274780594068 0.8305990188468667 0.9999991820573841 8.179423249209948e-07 1.243733497165194e-13 1.665176234671014e-13 0.3438314005136627 5.112481971961672e-05 0.01981981677179745 0.6362976578948201 0.9989758046653838 0.001024185647900776 3.087296614621925e-09 6.599418823989438e-09 0.05412390184599318 0.3730131716127871 0.5723568724134911 0.0005060541277286387 0.01012221602006845 0.9467375710717005 3.328019335944469e-08 0.04314017962803788 0.000125898791537334 0.2661982218609552 6.004928767377073e-100 0.7336758793475077 0.9999876201435235 1.146159857054552e-11 1.237984492550725e-05 8.912453406379072e-14 0.003319805702734756 1.416140185800544e-08 0.6468215941674819 0.3498585859683815 6.189170947582923e-19 0.8960982611517441 0.04069429493744257 0.0632074439108135 5.388105239806158e-08 0.03239985454145865 3.049285386249114e-72 0.9676000915774889 0.1487086306923771 0.8512788340350013 5.818121427097305e-37 1.253527262169563e-05 0.03387822344259336 0.9489156044160428 2.140931771002939e-16 0.01720617214136363 0.0004275215815059166 0.1787768582342789 3.45046637207495e-13 0.8207956201838701 1.709281843246302e-79 0.9999999999999999 3.201909045539642e-17 3.766497516576722e-27 4.64725211279168e-29 1 2.467312447199303e-244 0 9.294955496962047e-08 0.03152980830627337 4.816535390040543e-07 0.9684696170906326 0.6914785074904357 0.002301737209565932 0.2958955534963377 0.01032420180366066 6.062947439464425e-21 0.8627151708337386 0.1372443410627622 4.048810349920151e-05 0.09000366907079121 0.0001539357541349125 1.898618248952876e-21 0.9098423951750738 2.216230408714582e-06 0.6824874502445135 0.3175103335250777 1.001166082554191e-25 0.02951877227801104 0.9590040336129281 1.331903433500452e-05 0.01146387507472599 3.487204578162051e-08 0.9654422346147692 0.03455773003325984 4.799252250882644e-10 7.670463827357857e-88 0.03125206629660317 0.9687283519129113 1.958179048544105e-05 0.999246135909358 0.0002867199815045866 5.010561546708774e-11 0.0004671440590317362 0.1703671016956439 0.8296196421893817 1.227794960649973e-19 1.325611497442918e-05 9.396319510032403e-05 0.9991327957833553 0.00077324102154425 1.831760125768407e-47 6.180844555650414e-21 0.001027627101307128 6.894234586217646e-08 0.9989723039563468 0.9641232094801065 6.203978740372616e-05 0.03581475073162924 8.605533464199468e-13 5.633495997865275e-22 7.948382093015042e-15 0.9985107972989187 0.001489202701073507 0.7153667310100168 0.2838538805892214 0.0004394004300990164 0.0003399879706627552 0.001484602043641279 0.03043478727990002 5.196688433945941e-06 0.9680754139880247 0.06640382846991125 0.9335953639236293 8.076064595280116e-07 6.730142835143676e-34 8.216506720800922e-09 3.252198176030913e-55 2.544456230498094e-60 0.9999999917834933 1.312852477137189e-20 0.06912437779902041 1.040093022671248e-54 0.9308756222009795 0.8823152134737372 0.1130789367888541 3.857475560341425e-09 0.004605845879933192 0.1545802833653719 0.0002889609439292304 0.8451307556864123 4.286756800579304e-12 5.168042725900794e-38 0.8419397290622695 0.1580051987256767 5.507221205385636e-05 5.226530076614783e-19 0.9997167940009887 0.000229897121996983 5.330887701433379e-05 1.179550446419874e-11 0.2509228502189255 5.874364497850724e-11 0.7490771497105354 1.490782170414453e-08 1.254518185293617e-12 0.1394515232550475 0.8605484618358763 0.9997450210084285 7.913591288783869e-48 1.642897551211029e-08 0.000254962562595946 0.402888501489046 0.0002998188459844777 1.421644594888695e-08 0.5968116654485236 0.9998518705970505 2.80686729432732e-10 0.0001481290522630426 6.999973032190036e-11 0.886231510342719 0.1137478012589474 2.068839833368345e-05 2.41779562731207e-46 2.430518570576158e-11 0.0112551218292502 0.3079982748218057 0.680746603324639 1.958945817515328e-10 5.671734941009298e-18 0.999999943072559 5.673154643927145e-08 0.0001161455475615796 0.9996373974002414 0.000246457049665999 2.531148734184536e-12 6.361738688468466e-12 0.06004868891751636 3.13946788873485e-07 0.9399509971293329 0.8319400372374101 0.1680391273645244 2.030087132759099e-05 5.34526737887837e-07 0.427328594754819 0.09215623573445042 0.003622606851893515 0.4768925626588371 0.8202355919724031 0.1702337179936217 1.053924691476441e-08 0.009530679494728146 4.791535504348806e-11 0.0362033431992978 0.9633623340951754 0.0004343226576114659 6.456416954001531e-19 1.090768069220131e-46 6.166039288306529e-05 0.9999383396071171 0.002135039208852784 0.0006325725805924297 0.1952803504619137 0.8019520377486411 0.004908623994666701 0.0299013843359498 0.9649352627124758 0.0002547289569078474 2.184025431702912e-25 0.9999958591793943 4.140820605640825e-06 2.522868829171547e-25 3.639367696151533e-56 0.9991260816285835 4.640991786725655e-18 0.0008739183714165031 0.03023525728249655 4.911825556285635e-05 0.1707830373943667 0.7989325870675738 0.000145979261847514 0.6733273581184831 0 0.3265266626196694 0.9892229314241298 0.008709324638709022 0.002067743937160544 6.778244836610274e-16 0.01818203401709499 2.627810144796522e-15 0.9795007447382257 0.002317221244676575 9.760601750724927e-31 3.926230811811875e-07 0.000214501481036952 0.9997851058958818 0.08795029808248764 0.01049622944472707 0.9013687030367767 0.000184769436008586 1.012804673652378e-06 1.856925293617606e-125 0.9858421826025583 0.01415680459276801 0.5240686892150069 6.996495753236774e-05 0.4742926434351787 0.00156870239228184 3.569262310761302e-15 3.58679082839628e-15 0.006582042474774855 0.9934179575252181 0.0285315315197689 0.2979534653232058 8.815876400785266e-05 0.6734268443930175 0.0001261744515512018 0.9998738255336603 1.478847897011054e-11 6.080965737068228e-59 0.0003295604869206778 5.276902911071814e-129 1.717670323351215e-152 0.9996704395130794 4.859140669407606e-06 6.623454625663854e-09 1.111635553486566e-09 0.9999951331242405 0.04678578091997645 0.000458277203252521 0.9516198089787602 0.001136132898010981 0.9729195870531868 0.001472182846789683 0.0256065986308594 1.63146916429975e-06 0.9300400583302764 4.993523956438428e-45 0.06992530712252944 3.463454719429365e-05 4.046888198036252e-34 0.9997818563183659 2.728060584813312e-06 0.0002154156210492861 2.883004198051743e-14 0.9961887149730717 0.003476129285990464 0.0003351557409090422 1.233263435011513e-12 0.9071297345142227 0.09287026548451296 3.082022230716815e-14 0.4540850270085354 0.02198121268567158 0.5239316407994485 2.119506344394338e-06 0.6105575067672179 7.4560309167803e-18 0.1575841946007081 0.2318582986320739 0.02143307647922693 0.365501985397905 0.5945307513114139 0.01853418681145416 4.978471726129912e-07 0.9999994941253778 4.219184915650209e-38 8.027449730220305e-09 0.3096459513726477 1.147044304562761e-08 0.6903540326588594 4.498049793551224e-09 0.0003159448883661843 0.1436937205564109 6.162290209518704e-07 0.8559897183262021 0.8843278066586775 0.115671983979275 2.023642035602596e-07 6.997844237759856e-09 0.5705790816783345 4.003809184736192e-54 0.3252063003608373 0.1042146179608281 0.5176213667429439 0 1.38962573792193e-11 0.4823786332431599 6.053410010078231e-10 0.000438715202493405 0.9562389686906834 0.04332231550148235 0.9993686224258985 2.254330692205462e-09 0.0005712465674736653 6.012875229720841e-05 0.01632375908398567 0.983675506587451 7.343285633782606e-07 1.10329717221819e-40 5.72483627834253e-136 4.960600942984104e-12 0.9999999999941281 9.112846724471873e-13 0.990178891548445 0.009821108451555068 0 1.194670336007259e-20</probabilities>
		</cpt>
		<cpt id="VentAlv">
			<state id="Zero" />
			<state id="Low" />
			<state id="Normal" />
			<state id="High" />
			<parents>Intubation VentLung</parents>
			<probabilities>1.452654670188657e-40 0.1967746863838423 0.8032253136161577 4.588858428686671e-19 9.937556303127207e-05 1.961447653595444e-16 0.9999006244369685 1.519362136716801e-28 6.086910772307548e-05 0.9915000732208641 0.008439057671412745 1.782537839214945e-32 0.7220475182530198 0.1448553742417068 0.1330728618086252 2.424569664826082e-05 0.972008422697626 4.739943591154342e-06 0.0001334977809351786 0.02785333957784757 7.80176261265851e-32 0.9149638038555399 0.03699313495679923 0.04804306118766096 1.248377306437433e-17 0.1794505706871063 0.02094458334574353 0.7996048459671501 0.4851668297774449 0.005470758357743122 0.5093622416631595 1.702016526474742e-07 8.155479436444895e-53 1.691122048263196e-13 0.0008062147874361988 0.9991937852123948 8.81674987367523e-14 8.09001918810922e-12 0.9999990144487083 9.855431134586721e-07 0.06834125281285715 0.0005843753416039694 1.499545675423788e-06 0.9310728722998635 4.875657471031485e-18 0.999985438643235 9.261827458910447e-12 1.456134750321632e-05 0.9999801339427148 6.309654988800368e-15 1.986605727864828e-05 1.169913848768599e-16 5.625893033387819e-07 0.03376399506657797 0.001253770948365858 0.9649816713957529 1.979647284628205e-21 0.9966277552630487 2.084254085673142e-17 0.003372244736951322 1.802787489972183e-21 0.999999163166589 8.368334107735958e-07 2.895784261397467e-16 0.971665342325774 2.265124625809463e-235 0.001132156611951205 0.02720250106227483 0.4728717526070996 1.689104080139673e-10 0.406746955608409 0.120381291615581 0.03057707092136745 0.002350614366117101 0.8968149460800654 0.07025736863245019 0.0002716820823015415 0.1451578632883818 0.6922419885837733 0.1623284660455434 6.260333510154539e-14 0.2893866542397717 0.0001030952875755649 0.7105102504725902 0.9891653647365135 0.01083463520623158 7.866026344941784e-12 4.938884112070614e-11 0.001456197875323253 0.003666504906941386 1.33269030907585e-05 0.9948639703146447 8.54323695851182e-11 0.9999489773867984 5.102252776920682e-05 7.701795990820958e-21</probabilities>
		</cpt>
		<cpt id="ArtCO2">
			<state id="Low" />
			<state id="Normal" />
			<state id="High" />
			<parents>VentAlv</parents>
			<probabilities>0.01 0.01 0.98 0.01 0.01 0.98 0.04 0.92 0.04 0.9 0.09 0.01</probabilities>
		</cpt>
		<cpt id="TPR" diagtype="observation" ranked="true">
			<state id="Low" />
			<state id="Normal" />
			<state id="High" />
			<parents>Anaphylaxis</parents>
			<probabilities>0.98 0.01 0.01 0.3 0.4 0.3</probabilities>
		</cpt>
		<cpt id="Hypovolemia" target="true" diagtype="target">
			<state id="a" fault="true" />
			<state id="b" />
			<state id="c" />
			<state id="d" />
			<state id="e" />
			<state id="f" />
			<probabilities>0.8288663960239906 0.0009769290280731632 0.1561283738722995 0.01251451440904506 1.506888876453931e-39 0.00151378666659192</probabilities>
		</cpt>
		<cpt id="LVFailure" target="true" diagtype="target">
			<state id="a" fault="true" />
			<state id="b" />
			<state id="c" />
			<state id="d" />
			<state id="e" />
			<state id="f" />
			<probabilities>9.972923939019471e-10 0.169095104672684 0.3304186626076874 9.61552847773019e-09 4.637518889133969e-26 0.5004862221068079</probabilities>
		</cpt>
		<cpt id="StrokeVolume">
			<state id="Low" />
			<state id="Normal" />
			<state id="High" />
			<parents>Hypovolemia LVFailure</parents>
			<probabilities>1.246353959341725e-08 0.001185921824322541 0.9988140657121378 0.9979325019601488 0.002066437628747011 1.060411104206908e-06 0.9992153342157829 0.0004819329789377064 0.0003027328052793537 0.8971140108481647 1.991093064009104e-314 0.1028859891518353 0.976856931267522 0.02314306873247793 4.224202488336487e-153 0.05490991766337795 0.9443795559185474 0.0007105264180746015 0.0001639302536902158 0.9998360697463098 4.532967527129029e-36 0.001239980059515857 6.624389298560086e-42 0.9987600199404842 0.9998524785665299 1.421688490315462e-11 0.0001475214192530989 8.177253381403901e-05 2.769622683258511e-05 0.9998905312393533 2.398148368367711e-20 2.836560295796522e-121 1 0.08141716041374394 0.0003111167719932061 0.9182717228142628 0.5158363496469737 0.374163262802978 0.1100003875500484 0.96307240821257 0.03692755136145619 4.04259737796544e-08 0.3758778149790485 3.007529211501155e-11 0.6241221849908762 0.001170436792320233 0.02042810647148606 0.9784014567361936 0.9999997984153357 1.864465446177551e-07 1.513811985485363e-08 1.303285122058495e-07 0.9999497080038987 5.016166758904228e-05 0.9989898028783014 0.0006156041833991335 0.0003945929382994599 0.9841417320094114 0.01585797834239534 2.896481931951746e-07 0.006972621495781264 0.006446527802845541 0.9865808507013734 0.4564713070932341 0.5435286929067658 1.719000065209702e-91 7.239378373753428e-82 0.9133937629897498 0.08660623701025016 6.018440025375251e-36 0.9999999999186754 8.132458975209921e-11 1.401230941255856e-30 0.001232512133908331 0.9987674878660916 0.1111454871543724 9.16438185218133e-10 0.8888545119291895 0.2257755350448321 0.1928599432523192 0.5813645217028487 0.9999999999995024 4.97725100938419e-13 7.903633019940082e-17 0.9999870337630089 1.296623698235348e-05 8.828407366605296e-15 4.11923942979105e-09 8.812328290731168e-17 0.9999999958807606 0.9995692971471773 0.0004307028528225621 1.1168067817957e-51 2.512280544844744e-13 3.844681414412434e-23 0.9999999999997489 5.236694193770038e-10 7.988972477565142e-58 0.9999999994763304 4.453615415720839e-116 0.7361304004934356 0.2638695995065645 0.5274334628290515 1.191716153924966e-11 0.4725665371590315 0.9882329760701876 0.01176510849987494 1.915429937628826e-06</probabilities>
		</cpt>
		<cpt id="InsuffAnesth" target="true" diagtype="target">
			<state id="True" fault="true" />
			<state id="False" />
			<probabilities>0.2 0.8</probabilities>
		</cpt>
		<cpt id="PulmEmbolus" target="true" diagtype="target">
			<state id="a" fault="true" />
			<state id="b" />
			<state id="c" />
			<state id="d" />
			<state id="e" />
			<state id="f" />
			<probabilities>0.0004102231942100175 0 0.002381343236232158 5.56344545707299e-05 7.163080708875037e-08 0.99715272748418</probabilities>
		</cpt>
		<cpt id="Shunt">
			<state id="Normal" />
			<state id="High" />
			<parents>PulmEmbolus Intubation</parents>
			<probabilities>1 3.722620842092339e-27 1.064708006337522e-06 0.9999989352919937 0.9993752286136222 0.0006247713863778734 2.364025310459154e-05 0.9999763597468955 0.9999996883615353 3.116384647827648e-07 0.7695925928982326 0.2304074071017675 0.976228860906823 0.02377113909317691 2.01074588986852e-136 0.9999999999999999 0.9882356973149514 0.01176430268504856 1 5.744186877673781e-28 0.1835459857874541 0.8164540142125458 5.466657705470649e-12 0.9999999999945334 0.6232597260022886 0.3767402739977115 2.143141510246922e-11 0.9999999999785685 0.999084423213136 0.0009155767868641255 0.7696421895144113 0.2303578104855886 0.0003409781406438303 0.9996590218593562 0.507949519474942 0.4920504805250581 0.8213277661117092 0.1786722338882908 1.378991483369652e-07 0.9999998621008518 1 4.188798595652287e-24 1 1.277232600520772e-18 1.419808819703293e-11 0.9999999999858019 0.9999750644377954 2.493556220457883e-05 1 5.795148033287664e-57 0.9997119466375159 0.0002880533624841421 0.0007172856855094986 0.9992827143144905 0.9936950970198996 0.006304902980100433 0.9999999999999999 5.5409886344588e-27 0.0002200738401349549 0.999779926159865 0.9999999999997141 2.858810704889886e-13 4.721060446148336e-10 0.999999999527894 0.8270116782931553 0.1729883217068447 0.9999999571404967 4.285950337692085e-08 1.523753246968531e-08 0.9999999847624677 1.684221402472694e-10 0.9999999998315779</probabilities>
		</cpt>
		<cpt id="FiO2" diagtype="observation" ranked="true">
			<state id="Low" />
			<state id="Normal" />
			<probabilities>0.01 0.99</probabilities>
		</cpt>
		<cpt id="PVSat">
			<state id="Low" />
			<state id="Normal" />
			<state id="High" />
			<parents>FiO2 VentAlv</parents>
			<probabilities>0.98 0.01 0.01 0.98 0.01 0.01 0.95 0.04 0.01 0.95 0.04 0.01 0.98 0.01 0.01 0.98 0.01 0.01 0.01 0.95 0.04 0.01 0.01 0.98</probabilities>
		</cpt>
		<cpt id="SaO2" diagtype="observation" ranked="true">
			<state id="Low" />
			<state id="Normal" />
			<state id="High" />
			<parents>Shunt PVSat</parents>
			<probabilities>0.98 0.01 0.01 0.01 0.98 0.01 0.01 0.01 0.98 0.98 0.01 0.01 0.98 0.01 0.01 0.6899999999999999 0.3 0.01</probabilities>
		</cpt>
		<cpt id="Catechol">
			<state id="Normal" />
			<state id="High" />
			<parents>InsuffAnesth SaO2 TPR ArtCO2</parents>
			<probabilities>0.01 0.99 0.01 0.99 0.01 0.99 0.01 0.99 0.01 0.99 0.01 0.99 0.01 0.99 0.01 0.99 0.01 0.99 0.01 0.99 0.01 0.99 0.01 0.99 0.01 0.99 0.01 0.99 0.01 0.99 0.05 0.95 0.05 0.95 0.01 0.99 0.01 0.99 0.01 0.99 0.01 0.99 0.05 0.95 0.05 0.95 0.01 0.99 0.05 0.95 0.05 0.95 0.01 0.99 0.05 0.95 0.05 0.95 0.01 0.99 0.05 0.95 0.05 0.95 0.01 0.99 0.05 0.95 0.05 0.95 0.01 0.99 0.1 0.9 0.1 0.9 0.1 0.9 0.95 0.05 0.95 0.05 0.3 0.7 0.95 0.05 0.95 0.05 0.3 0.7 0.95 0.05 0.95 0.05 0.3 0.7 0.99 0.01 0.99 0.01 0.99 0.01 0.95 0.05 0.99 0.01 0.3 0.7</probabilities>
		</cpt>
		<cpt id="HR">
			<state id="Low" />
			<state id="Normal" />
			<state id="High" />
			<parents>Catechol</parents>
			<probabilities>0.1 0.89 0.01 0.01 0.09 0.9</probabilities>
		</cpt>
		<cpt id="CO" diagtype="observation" ranked="true">
			<state id="Low" />
			<state id="Normal" />
			<state id="High" />
			<parents>StrokeVolume HR</parents>
			<probabilities>0.98 0.01 0.01 0.95 0.04 0.01 0.8 0.19 0.01 0.95 0.04 0.01 0.04 0.95 0.01 0.01 0.04 0.95 0.3 0.6899999999999999 0.01 0.01 0.3 0.6899999999999999 0.01 0.01 0.98</probabilities>
		</cpt>
		<cpt id="BP" diagtype="observation" ranked="true">
			<state id="Low" />
			<state id="Normal" />
			<state id="High" />
			<parents>TPR CO</parents>
			<probabilities>0.98 0.01 0.01 0.98 0.01 0.01 0.9 0.09 0.01 0.98 0.01 0.01 0.1 0.85 0.05 0.05 0.2 0.75 0.3 0.6 0.1 0.05 0.4 0.55 0.01 0.09 0.9</probabilities>
		</cpt>
		<cpt id="LVEDVolume">
			<state id="Low" />
			<state id="Normal" />
			<state id="High" />
			<parents>Hypovolemia LVFailure</parents>
			<probabilities>8.965241677154402e-06 0.476905829145469 0.5230852056128538 3.269760184741045e-09 0.6700763567919199 0.32992363993832 4.649836974591609e-07 0.005743946772790663 0.994255588243512 3.327646929975788e-16 4.133776698216867e-24 0.9999999999999996 0.3887967810531128 3.572759541978302e-49 0.6112032189468871 3.53264027033249e-76 0.006746694985111692 0.9932533050148883 0.3328313262196668 0.2203798901050696 0.4467887836752638 8.553497380496346e-18 0.6158450211851078 0.3841549788148922 0.458168682460057 0.5418312159472896 1.015926533347522e-07 0.008588501070562238 0.9914114989294378 1.211218496522071e-28 0.7928493020344545 0.2071328504220342 1.784754351123026e-05 0.005651343089522925 0.994348656910477 2.549404624440321e-55 4.470177922683776e-11 0.9999915850561962 8.414899102039152e-06 3.138344551328012e-07 0.0006116052571157975 0.9993880809084291 0.001523613406832584 8.275874863440381e-05 0.9983936278445331 0.0007831401945583669 6.561564402352675e-21 0.9992168598054416 0.838787722946623 0.001169242155421171 0.1600430348979559 4.838646426317532e-276 1.660159481378248e-10 0.999999999833984 0.0009779891388912772 0.949513180120133 0.04950883074097572 6.3128309978737e-12 0.999999999993687 1.724431317684828e-17 0.596836502445506 0.4029104854854905 0.0002530120690035503 0.8478988773214373 0.1520841714814265 1.695119713625602e-05 0.019492802002362 0.6944226624668737 0.2860845355307645 0.9999999999999999 5.68945515071445e-33 1.492352034435083e-136 0.9880917212638906 3.881220633274182e-09 0.01190827485488873 0.0006132160500554675 1.019429964683029e-16 0.9993867839499444 0.9972248411246667 1.342725167504401e-23 0.002775158875333263 0.9733106816705914 0.001272991918995419 0.02541632641041308 0.9750200298299693 2.319712838589528e-06 0.0249776504571922 4.323026384960135e-05 0.9999564718562145 2.978799357979677e-07 0.9909504628791292 2.646769634773967e-05 0.009023069424523101 0.0006496157130787031 0.01032480672882208 0.9890255775580992 0.05217952289524871 7.851094516097857e-11 0.9478204770262404 0.09254034939914665 0.9074596506008533 5.316201786696377e-67 0.01489011616097309 0.9290774404859918 0.05603244335303505 0.611058757717343 0.3889412422826571 4.553395125070391e-40</probabilities>
		</cpt>
		<cpt id="CVP" diagtype="observation" ranked="true">
			<state id="Low" />
			<state id="Normal" />
			<state id="High" />
			<parents>LVEDVolume</parents>
			<probabilities>0.95 0.04 0.01 0.04 0.95 0.01 0.01 0.29 0.7</probabilities>
		</cpt>
		<cpt id="ErrCauter">
			<state id="True" />
			<state id="False" />
			<probabilities>0.1 0.9</probabilities>
		</cpt>
		<cpt id="ErrLowOutput">
			<state id="True" />
			<state id="False" />
			<probabilities>0.05 0.95</probabilities>
		</cpt>
		<cpt id="ExpCO2" diagtype="observation" ranked="true">
			<state id="Zero" />
			<state id="Low" />
			<state id="Normal" />
			<state id="High" />
			<parents>ArtCO2 VentLung</parents>
			<probabilities>0.97 0.01 0.01 0.01 0.01 0.97 0.01 0.01 0.01 0.97 0.01 0.01 0.01 0.97 0.01 0.01 0.97 0.01 0.01 0.01 0.01 0.01 0.97 0.01 0.01 0.01 0.97 0.01 0.01 0.01 0.97 0.01 0.97 0.01 0.01 0.01 0.01 0.01 0.01 0.97 0.01 0.01 0.01 0.97 0.01 0.01 0.01 0.97</probabilities>
		</cpt>
		<cpt id="HRBP" diagtype="observation" ranked="true">
			<state id="Low" />
			<state id="Normal" />
			<state id="High" />
			<parents>ErrLowOutput HR</parents>
			<probabilities>0.98 0.01 0.01 0.4 0.59 0.01 0.3 0.4 0.3 0.98 0.01 0.01 0.01 0.98 0.01 0.01 0.01 0.98</probabilities>
		</cpt>
		<cpt id="HREKG" diagtype="observation" ranked="true">
			<state id="Low" />
			<state id="Normal" />
			<state id="High" />
			<parents>ErrCauter HR</parents>
			<probabilities>0.3333333333333333 0.3333333333333333 0.3333333333333334 0.3333333333333333 0.3333333333333333 0.3333333333333334 0.3333333333333333 0.3333333333333333 0.3333333333333334 0.98 0.01 0.01 0.01 0.98 0.01 0.01 0.01 0.98</probabilities>
		</cpt>
		<cpt id="HRSat" diagtype="observation" ranked="true">
			<state id="Low" />
			<state id="Normal" />
			<state id="High" />
			<parents>ErrCauter HR</parents>
			<probabilities>0.3333333333333333 0.3333333333333333 0.3333333333333334 0.3333333333333333 0.3333333333333333 0.3333333333333334 0.3333333333333333 0.3333333333333333 0.3333333333333334 0.98 0.01 0.01 0.01 0.98 0.01 0.01 0.01 0.98</probabilities>
		</cpt>
		<cpt id="History" diagtype="observation" ranked="true">
			<state id="True" />
			<state id="False" />
			<parents>LVFailure</parents>
			<probabilities>0.9999999999988245 1.175644422957551e-12 3.511884100139619e-09 0.999999996488116 0.4392778150518124 0.5607221849481876 0.2997697313897099 0.70023026861029 0.9999999999999999 3.708037040267252e-50 6.685277442451787e-44 1</probabilities>
		</cpt>
		<cpt id="MinVol" diagtype="observation" ranked="true">
			<state id="Zero" />
			<state id="Low" />
			<state id="Normal" />
			<state id="High" />
			<parents>Intubation VentLung</parents>
			<probabilities>0.2590345382708503 0.1304010926279581 0.610526918883914 3.745021727780483e-05 0.8548229943295428 1.190968321956781e-08 0.1106616676345493 0.03451532612622468 2.813845697841896e-11 0.8207858314389501 0.03322972203974206 0.1459844464931695 0.09245040959502905 2.23231477578386e-07 0.9075493671734933 2.731399272496488e-21 0.8446495369462959 0.1553481708345962 2.201748688481772e-06 9.047041941956327e-08 0.005502309157822747 2.893445904875025e-09 0.001960214283040372 0.9925374736656911 0.08675150370126319 0.1102852681397972 5.952372830142725e-08 0.8029631686352113 0.8545418070698002 0.1454581929301998 1.782498523954155e-18 7.45051089858878e-26 0.9554798037096458 0.0444994631091547 2.073318119954501e-05 1.231173173352771e-98 0.9987385528189281 0.0007643131591113554 1.522834926201177e-32 0.0004971340219605109 1.973288551441287e-21 0.307939994873147 0.6920412451277154 1.875999913769008e-05 0.9224029623748782 5.346987396689119e-05 0.0003156718413058862 0.07722789590984881 1.854342733332371e-05 0.0001714608382934602 0.05789679981143709 0.9419131959229361 0.0002985844139082664 9.379277214203421e-34 0.5814704375412839 0.418230978044808 9.716241843285847e-13 0.03912022487688679 0.9608797741420926 9.800489558978075e-10 0.02440928253812804 7.019306328182768e-05 0.3611016582016419 0.6144188661969481 0.0356788940516472 0.9605743374921334 0.003734594671732118 1.217378448730333e-05 0.9909253595054035 0.009072961538948814 9.605112469206897e-15 1.678955638019165e-06 0.02844200922530206 0.5966622667045599 0.01515314208014263 0.3597425819899953 0.5536625540026859 1.266020994935951e-05 0.4344677255817928 0.01185706020557195 0.8594313401033847 8.152733605954032e-07 0.1405678446232547 8.420871642291849e-20 0.9904494875071354 4.771850800952007e-09 5.76328975976665e-09 0.009550501957724002 4.347702792609363e-06 0.0006729096405746612 1.220212197681376e-08 0.9993227304545107 0.9998504179269487 0.0001481681086915029 4.572064427351585e-52 1.413964359719676e-06</probabilities>
		</cpt>
		<cpt id="PAP" diagtype="observation" ranked="true">
			<state id="Low" />
			<state id="Normal" />
			<state id="High" />
			<parents>PulmEmbolus</parents>
			<probabilities>4.247514862441739e-101 2.942065349588433e-06 0.9999970579346504 0.0008107134599549045 0.001405558709531606 0.9977837278305134 4.203346025157687e-279 9.66267121479293e-15 0.9999999999999903 1 3.431983784843159e-17 4.671305268142397e-27 0.04969381573940641 0.9502997631060528 6.421154540774382e-06 0.09230351736371881 0.0002722337399319704 0.9074242488963493</probabilities>
		</cpt>
		<cpt id="PCWP" diagtype="observation" ranked="true">
			<state id="Low" />
			<state id="Normal" />
			<state id="High" />
			<parents>LVEDVolume</parents>
			<probabilities>0.95 0.04 0.01 0.04 0.95 0.01 0.01 0.04 0.95</probabilities>
		</cpt>
		<cpt id="Press" diagtype="observation" ranked="true">
			<state id="Zero" />
			<state id="Low" />
			<state id="Normal" />
			<state id="High" />
			<parents>KinkedTube Intubation VentTube</parents>
			<probabilities>0.9902273048682668 0.008504826233962674 0.0009857170154405886 0.0002821518823300325 0.000305284506760215 0.844563974460766 0.1551307410324738 1.699128771110673e-23 0.2432261413826558 0.7429819535996607 6.40647018328543e-11 0.01379190495361882 0.1217241298465005 3.879626059915762e-134 0.8782758701534993 1.023954587727152e-16 3.777832649848042e-11 0.009055975372001859 0.9909403739658724 3.650624347225623e-06 0.9859728524565614 1.700094977011494e-16 6.342310064860846e-05 0.01396372444278975 5.036615874824184e-06 6.14382518100899e-06 0.9998578952408017 0.0001309243181424017 0.8376107979036385 2.662853902064881e-59 0.03493770501425857 0.127451497082103 6.47179591635106e-08 0.8080775672534668 0.004264274849878511 0.1876580931786954 0.0009267723265006824 0.1391166744928964 0.00243198443347332 0.8575245687471296 0.0001044515093145653 0.001542401575602666 0.006812411282312286 0.9915407356327705 4.337873917019862e-05 0.99689073262948 0.003033309132050865 3.257949929888245e-05 0.1794076439818708 4.116644639625334e-10 0.7889495968417211 0.03164275876474369 0.3025358711843489 0.6962736888373204 3.858455476332772e-06 0.001186581522854151 0.1685048843206859 0.8314888981141036 9.264350483890595e-310 6.21756521034852e-06 1.733274319161277e-09 4.108864672404053e-10 2.984125994429965e-35 0.9999999978558393 0.06453279533092592 0.01104621360274235 0.9244209910663105 2.127723596156767e-14 7.785418787235909e-05 2.791723409041774e-136 1.133195519454058e-10 0.999922145698808 1.074778892153676e-47 0.2286336693243888 0.7713663306665655 9.045781078435532e-12 0.003714531527031821 0.996254131577072 1.774966281808508e-06 2.956192961440543e-05 0.001728567271673212 4.025631966872443e-19 0.4765352595110621 0.5217361732172648 0.00102326705175899 6.878818412583996e-23 0.9989613616385243 1.537130971670557e-05 0.4158972556017286 7.189383929387115e-27 0.5840964498328267 6.294565444607934e-06 3.849402045142529e-179 0.9784636735600235 0.0094811413186191 0.0120551851213573 0.7080989432583275 0.2907881154942439 0.001112941247428768 1.752212631668061e-67 0.9999689352666399 4.887801412079134e-07 6.097317735430691e-12 3.057594712166275e-05 3.015860508393837e-13 2.250953554467531e-07 1.217450298870367e-06 0.9999985574540441 0.1076849095923304 2.485637095817641e-20 0.8923150904076697 6.172239801860442e-66 0.0003444832339383621 2.046035349993969e-23 2.203991096171093e-08 0.9996554947261507 0.08916718742831245 0.8973747862722059 0.01268716717444504 0.0007708591250367427 0.5561057275761537 0.2240692741351254 0.01929841083238806 0.2005265874563329 2.110880849944839e-07 2.000541792627706e-07 0.9999995888546028 3.132766975143494e-12 0.000177247496247871 0.7530408289833264 0.01161621677144746 0.2351657067489783 0.9999998715341148 1.284658815702268e-07 1.772263321220855e-17 3.500577590770259e-15 0.006262491153228661 0.9390187626738897 0.05471874617288165 1.840575595643511e-192 0.000272597698354338 0.9997274023016082 3.748342152744187e-14 8.136452916534313e-18 0.9475651219068102 0.05243487725133356 2.692758039068709e-18 8.418562299873992e-10 3.503734371542365e-08 3.635996558168995e-06 0.1604785175241211 0.839517811441977 0.9936457838936954 1.888250067301875e-11 0.005437585805103769 0.0009166302823183276 4.335527442011566e-27 0.03129327913764401 0.9639975930923209 0.004709127770035104 0.06568336119832588 0.6781579951307976 0.01951491087274059 0.2366437327981359 0.4598612525997499 0.4686798152040084 0.04422878565597724 0.02723014654026444 1.553585727711655e-09 0.9976665573978607 1.194434876239372e-18 0.002333441048553525 0.001490237540670548 0.9982198460048046 0.000275039601222596 1.487685330244863e-05 0.001014095086083491 0.02336733397214143 0.1104183488987432 0.8652002220430318 0.005969305750558139 0.736939826947596 0.2570663419510525 2.452535079333948e-05 0.0003638240017727765 0.1489167775078571 0.8507193984870686 3.301570036796004e-12 0.1150948911073537 5.120718032505313e-58 0.8849051088926463 2.277054271425007e-154 6.339399714313973e-05 0.0001596721231045776 0.2467447954402706 0.7530321384394817 0.002173500582203287 0.006380938534229661 0.6654769124709355 0.3259686484126315 0.2524121426963776 1.599834026755401e-42 0.7475878573036224 3.806670656891367e-47 0.9735514485384852 1.354306755798655e-05 0.01233619431307147 0.01409881408088552 4.37117019747457e-07 1.779946975275728e-11 0.2399088377327627 0.7600907251324182 3.169243057989217e-06 0.5969842601984234 0.4030125705585118 6.905764209731949e-15 0.5534944783820646 0.4375662786871095 0.0004377534434110537 0.008501489487414896 0.9984599028060922 0.001540096401790462 5.119984965971271e-15 7.921123391475478e-10 0.346675417223722 4.017248779453027e-07 0.0001053798355652049 0.6532188012158349 2.087984114417492e-07 0.005527100928394284 0.9944726902731943 2.628251010754613e-49 0.9688769273971366 4.903804210771315e-07 1.241073023393447e-26 0.03112258222244233 9.458071271789845e-08 1.423353051537359e-08 0.9238438016400355 0.07615608954572127 0.1285585283470907 0.006772849478758024 4.678793512106479e-07 0.8646681542948 4.5117234576219e-10 0.01432226384463618 0.7239399191497248 0.2617378165544666 0.9937327596994898 1.541708240776885e-09 0.006266676819160905 5.619396410518208e-07 2.944005952751841e-07 2.417695630810001e-15 0.9565453759601552 0.04345432963924716 0.9994669018960788 4.195654884173334e-08 1.878002362966241e-08 0.0005330373673486591 0.001324282062123172 0.9179198632989084 4.673966394729634e-05 0.08070911497502119 0.003139389476525586 0.1129381804098337 0.0001941028956707414 0.8837283272179699 0.002701045429300937 0.7435797419099107 0.2500209790149299 0.00369823364585828 4.43468875600385e-09 1.566120909197577e-05 0.9999843343562193 2.733497717695872e-22 2.947431007531312e-05 0.9999606501773387 0 9.875512585993624e-06 0.9915750431925583 2.088338458441541e-43 0.008332857808166453 9.2098999275141e-05 0.05215835057908486 0.389687512920243 7.010043391088071e-41 0.5581541365006721 1.353712896655056e-06 0.4168849776280626 0.5826509770830923 0.000462691575948404 0.4945797510687647 0.1689430866160503 0.01181371716560644 0.3246634451495786 1.514250045017824e-08 0.0001127104431327635 0.9998872744143668 5.231066099941951e-25 0.9898648414042659 6.981534761386551e-28 0.0101325696500225 2.588945711616739e-06 0.4787976501261828 0.05393097305628586 0.007569985494791679 0.4597013913227396 0.7146743749937468 0.1061125529872484 0.01345229751921423 0.1657607744997904 0.07930393644614879 0.3939524695189107 1.551690486822384e-09 0.52674359248325 2.751144051487132e-59 0.06049512512287067 0.7310829609110815 0.2084219139660478 3.672805244703068e-19 0.4541839132621062 0.5458160867378937 7.251983001026846e-86 4.612653401408198e-14 0.4594241182598191 0.0004434422274055727 0.5401324395127292 0.5948076883025737 0.3154502469000695 0.001188085339942291 0.08855397945741454 0.9999999999999984 1.554684001019976e-15 3.240857841388904e-108 4.127040726055834e-150 8.166019114159784e-07 1.558747059679698e-13 0.9999991833979328 6.732355204576302e-32 0.8691398282117883 8.046194222553066e-06 0.1198752675602279 0.01097685803376129 0.4844359390632472 0.5119458144281946 0.0006048914339579991 0.003013355074600062 5.264831085562594e-45 0.7679561032087675 1.126450907736525e-26 0.2320438967912324 0.5194274308146758 0.4783018033389043 2.307650513889484e-11 0.002270765823343289 0.7318070277373654 0.2681929722626346 2.14846591538523e-34 7.601593928862926e-22 1.139813693208688e-24 0.9975861420223597 4.615734982854493e-19 0.002413857977640283 0.6993485351272853 0.3006514648727145 3.317773949400609e-41 2.591781786422492e-137 0.1715579698775324 0.1463181392170071 0.4345437731053509 0.2475801178001096 3.169058799939138e-15 0.0006502757627687601 0.9993470462251409 2.678012087180733e-06 7.05151211261322e-31 2.898851654881003e-47 0.9572361327406333 0.04276386725936671 2.910634289586362e-32 1.532501351078798e-08 0.3049456188829494 0.6950543657920372 2.008504572503722e-05 0.7297636289741352 0.2702162858905351 8.96047188762668e-11 0.987964279784563 5.995343613295899e-11 0.0007086150744817202 0.01132710508100183 9.729951947912545e-08 0.3323073440175341 0.666764602813371 0.0009279558695751536 0.004211530374412378 0.173171712742235 0.8226167562619406 6.214121098449239e-10 0.6330811439809428 0.01226070730460277 0.3546444820856041 1.366662885038636e-05 8.521433228248508e-47 0.1268589255031185 0.8731167608825056 2.431361437584238e-05 0.9992776362054984 1.041177699849654e-30 0.0007223637944030938 9.846628798488733e-14 0.6069188726732541 0 1.314144751964983e-108 0.393081127326746 0.9999898750387659 6.171419393082308e-09 1.011877507332816e-05 1.474130272910498e-11 0.9925560797593331 2.406385097071241e-09 7.656636778442679e-05 0.00736735146649726 0.6991123336599105 7.01477137232919e-05 0.3008175186263662 1.194734342647984e-61 4.462647806349477e-07 0.854234561994679 2.133477093258391e-177 0.1457649917405404 0.0005240966281506436 0.6703531177073634 6.676542079664797e-22 0.3291227856644859 3.035563012911766e-13 0.3211246090580656 0.1610751812210936 0.5178002097205372 1.125084412351696e-23 7.329184525605761e-05 0.01178370385149026 0.9881430043032536 0.9431479886336531 0.01845183409126024 0.0355660923672128 0.002834084907873897 8.929891835067349e-05 0.2212891864645309 0.7786215115245552 3.092563204061803e-09 6.546874804508993e-88 1.208127008253172e-05 5.271602651551696e-05 0.999935202703402 0.999989794604917 1.355158703384528e-11 9.299028211672106e-06 9.063533198370912e-07 0.8267826398518802 5.593023954686721e-05 0.0002516195525887491 0.1729098103559842 9.455526031053207e-07 0.2356254558638796 0.3239401316300997 0.4404334669534177 1.856088430645601e-06 0.1023341133027483 0.8684904999596753 0.02917353064914556 0.2159523536826533 2.137355128315423e-16 6.108058019923641e-16 0.7840476463173459 0.9664247565360758 6.147937090717974e-18 0.01260912162295448 0.0209661218409697 0.8489803720331334 1.118344013873367e-63 0.1096479364849878 0.04137169148187873 1.857595581164055e-18 5.578972692331928e-25 0.007680489908764896 0.992319510091235 0.3345511518374319 0.5621151750872172 0.1033336704231786 2.652172300571172e-09 5.94728326122114e-05 4.829355052505728e-278 0.02133780786198152 0.9786027193054063 0.6170429320380509 0.382957067862743 0 9.920612303498996e-11 0.0001423012685872384 1.243745887193272e-12 0.001587269693134558 0.9982704290370346 1.650657080087523e-05 2.754597631090657e-15 0.0004744817059528011 0.9995090117232437 0.3050018289751854 0.665890536159912 0.009056484126280937 0.02005115073862159 2.407561863838959e-09 0.1746574862496089 0.8140914149444651 0.01125109639836404 0.001306072223265679 0.007561109286990903 3.325805809448366e-06 0.9911294926839338 0.8646470582424052 1.625505538755318e-19 0.02326774516417162 0.1120851965934231 0.9998991628538313 8.403053690821439e-26 4.722473292647294e-44 0.0001008371461687418 0.002337441874365812 0.003908129796481142 2.100069406244369e-28 0.9937544283291531 1.303593177446268e-38 0.01166155758229782 0.9882127949806757 0.0001256474370264078 0.5983552727400199 0.2867318272520094 0.11460562026413 0.0003072797438406118 0.5255308704794629 6.790640435803607e-06 7.359739544542488e-05 0.4743887414846559 0.9104285832849018 3.548961371144537e-27 0.0009110629680432362 0.08866035374705501 3.868243746232791e-09 0.03762591129803852 0.7825230260168236 0.1798510588168941 1.133612011586525e-10 0.9975711211583411 9.255811540610824e-07 0.002427953147143727 7.478166686457683e-08 0.8250337925959605 0.1569544738106854 0.01801165881168708 7.197011187068151e-45 0.5080547420888524 0.4916344159763268 0.0003108419348207391 1.78502607202492e-05 0.8856290299843592 2.959483136884457e-06 0.1143501602717836 0.3030542522672305 1.039818240321089e-07 0.6969456437509455 3.053338684650674e-171 0.07975247208673053 0.9202475260422369 2.945530542102125e-71 1.871032542318233e-09</probabilities>
		</cpt>
	</nodes>
	<extensions>
		<genie version="1.0" app="SMILE_ACADEMIC 2.2.0@40eb97e8a55a" name="Alarm">
			<comment>The Alarm network has been developed for on-line monitoring of patients in intensive care units and generously contributed to the community by Ingo Beinlich and his collaborators.\nReference:\nThe model has first appeared in the following paper:\nI. Beinlich and G. Suermondt and R. Chavez and G. Cooper, The ALARM monitoring system: A case study with two probabilistic inference techniques for belief networks, Proceedings of the 2nd European Conference on AI and Medicine, Springer-Verlag, Berlin, 1989.</comment>
			<node id="Anaphylaxis">
				<name>Anaphylaxis</name>
				<interior color="ffcc00" />
				<outline color="0000bb" />
				<font color="000000" name="MS Sans Serif" size="8" />
				<position>262 162 350 198</position>
			</node>
			<node id="Intubation">
				<name>Intubation</name>
				<interior color="ffcc00" />
				<outline color="0000bb" />
				<font color="000000" name="MS Sans Serif" size="8" />
				<position>690 23 766 59</position>
			</node>
			<node id="KinkedTube">
				<name>KinkedTube</name>
				<interior color="ffcc00" />
				<outline color="0000bb" />
				<font color="000000" name="MS Sans Serif" size="8" />
				<position>791 23 874 59</position>
			</node>
			<node id="Disconnect">
				<name>Disconnect</name>
				<interior color="ffcc00" />
				<outline color="0000bb" />
				<font color="000000" name="MS Sans Serif" size="8" />
				<position>958 101 1050 137</position>
			</node>
			<node id="MinVolSet">
				<name>MinVolSet</name>
				<interior color="00ff00" />
				<outline color="0000bb" />
				<font color="000000" name="MS Sans Serif" size="8" />
				<position>965 23 1041 59</position>
			</node>
			<node id="VentMach">
				<name>VentMach</name>
				<interior color="e5f6f7" />
				<outline color="0000bb" />
				<font color="000000" name="MS Sans Serif" size="8" />
				<position>886 66 962 102</position>
			</node>
			<node id="VentTube">
				<name>VentTube</name>
				<interior color="e5f6f7" />
				<outline color="0000bb" />
				<font color="000000" name="MS Sans Serif" size="8" />
				<position>862 125 938 161</position>
			</node>
			<node id="VentLung">
				<name>VentLung</name>
				<interior color="e5f6f7" />
				<outline color="0000bb" />
				<font color="000000" name="MS Sans Serif" size="8" />
				<position>741 142 817 178</position>
			</node>
			<node id="VentAlv">
				<name>VentAlv</name>
				<interior color="e5f6f7" />
				<outline color="0000bb" />
				<font color="000000" name="MS Sans Serif" size="8" />
				<position>644 160 720 196</position>
			</node>
			<node id="ArtCO2">
				<name>ArtCO2</name>
				<interior color="e5f6f7" />
				<outline color="0000bb" />
				<font color="000000" name="MS Sans Serif" size="8" />
				<position>509 217 585 253</position>
			</node>
			<node id="TPR">
				<name>TPR</name>
				<interior color="00ff00" />
				<outline color="0000bb" />
				<font color="000000" name="MS Sans Serif" size="8" />
				<position>245 221 321 257</position>
			</node>
			<node id="Hypovolemia">
				<name>Hypovolemia</name>
				<interior color="ffcc00" />
				<outline color="0000bb" />
				<font color="000000" name="MS Sans Serif" size="8" />
				<position>38 23 135 59</position>
			</node>
			<node id="LVFailure">
				<name>LVFailure</name>
				<interior color="ffcc00" />
				<outline color="0000bb" />
				<font color="000000" name="MS Sans Serif" size="8" />
				<position>170 23 246 59</position>
			</node>
			<node id="StrokeVolume">
				<name>StrokeVolume</name>
				<interior color="e5f6f7" />
				<outline color="0000bb" />
				<font color="000000" name="MS Sans Serif" size="8" />
				<position>158 96 259 132</position>
			</node>
			<node id="InsuffAnesth">
				<name>InsuffAnesth</name>
				<interior color="ffcc00" />
				<outline color="0000bb" />
				<font color="000000" name="MS Sans Serif" size="8" />
				<position>358 190 449 226</position>
			</node>
			<node id="PulmEmbolus">
				<name>PulmEmbolus</name>
				<interior color="ffcc00" />
				<outline color="0000bb" />
				<font color="000000" name="MS Sans Serif" size="8" />
				<position>475 23 578 59</position>
			</node>
			<node id="Shunt">
				<name>Shunt</name>
				<interior color="e5f6f7" />
				<outline color="0000bb" />
				<font color="000000" name="MS Sans Serif" size="8" />
				<position>538 96 614 132</position>
			</node>
			<node id="FiO2">
				<name>FiO2</name>
				<interior color="00ff00" />
				<outline color="0000bb" />
				<font color="000000" name="MS Sans Serif" size="8" />
				<position>618 96 694 132</position>
			</node>
			<node id="PVSat">
				<name>PVSat</name>
				<interior color="e5f6f7" />
				<outline color="0000bb" />
				<font color="000000" name="MS Sans Serif" size="8" />
				<position>547 151 623 187</position>
			</node>
			<node id="SaO2">
				<name>SaO2</name>
				<interior color="00ff00" />
				<outline color="0000bb" />
				<font color="000000" name="MS Sans Serif" size="8" />
				<position>461 179 537 215</position>
			</node>
			<node id="Catechol">
				<name>Catechol</name>
				<interior color="e5f6f7" />
				<outline color="0000bb" />
				<font color="000000" name="MS Sans Serif" size="8" />
				<position>365 265 441 301</position>
			</node>
			<node id="HR">
				<name>HR</name>
				<interior color="e5f6f7" />
				<outline color="0000bb" />
				<font color="000000" name="MS Sans Serif" size="8" />
				<position>263 308 339 344</position>
			</node>
			<node id="CO">
				<name>CO</name>
				<interior color="00ff00" />
				<outline color="0000bb" />
				<font color="000000" name="MS Sans Serif" size="8" />
				<position>164 344 240 380</position>
			</node>
			<node id="BP">
				<name>BP</name>
				<interior color="00ff00" />
				<outline color="0000bb" />
				<font color="000000" name="MS Sans Serif" size="8" />
				<position>18 430 94 466</position>
			</node>
			<node id="LVEDVolume">
				<name>LVEDVolume</name>
				<interior color="e5f6f7" />
				<outline color="0000bb" />
				<font color="000000" name="MS Sans Serif" size="8" />
				<position>38 96 135 132</position>
			</node>
			<node id="CVP">
				<name>CVP</name>
				<interior color="00ff00" />
				<outline color="0000bb" />
				<font color="000000" name="MS Sans Serif" size="8" />
				<position>13 170 89 206</position>
			</node>
			<node id="ErrCauter">
				<name>ErrCauter</name>
				<interior color="e5f6f7" />
				<outline color="0000bb" />
				<font color="000000" name="MS Sans Serif" size="8" />
				<position>246 374 322 410</position>
			</node>
			<node id="ErrLowOutput">
				<name>ErrLowOutput</name>
				<interior color="e5f6f7" />
				<outline color="0000bb" />
				<font color="000000" name="MS Sans Serif" size="8" />
				<position>406 374 504 410</position>
			</node>
			<node id="ExpCO2">
				<name>ExpCO2</name>
				<interior color="00ff00" />
				<outline color="0000bb" />
				<font color="000000" name="MS Sans Serif" size="8" />
				<position>608 250 684 286</position>
			</node>
			<node id="HRBP">
				<name>HRBP</name>
				<interior color="00ff00" />
				<outline color="0000bb" />
				<font color="000000" name="MS Sans Serif" size="8" />
				<position>403 429 479 465</position>
			</node>
			<node id="HREKG">
				<name>HREKG</name>
				<interior color="00ff00" />
				<outline color="0000bb" />
				<font color="000000" name="MS Sans Serif" size="8" />
				<position>151 430 227 465</position>
			</node>
			<node id="HRSat">
				<name>HRSat</name>
				<interior color="00ff00" />
				<outline color="0000bb" />
				<font color="000000" name="MS Sans Serif" size="8" />
				<position>314 430 390 466</position>
			</node>
			<node id="History">
				<name>History</name>
				<interior color="00ff00" />
				<outline color="0000bb" />
				<font color="000000" name="MS Sans Serif" size="8" />
				<position>278 96 354 132</position>
			</node>
			<node id="MinVol">
				<name>MinVol</name>
				<interior color="00ff00" />
				<outline color="0000bb" />
				<font color="000000" name="MS Sans Serif" size="8" />
				<position>711 250 787 286</position>
			</node>
			<node id="PAP">
				<name>PAP</name>
				<interior color="00ff00" />
				<outline color="0000bb" />
				<font color="000000" name="MS Sans Serif" size="8" />
				<position>458 96 534 132</position>
			</node>
			<node id="PCWP">
				<name>PCWP</name>
				<interior color="00ff00" />
				<outline color="0000bb" />
				<font color="000000" name="MS Sans Serif" size="8" />
				<position>103 170 179 206</position>
			</node>
			<node id="Press">
				<name>Press</name>
				<interior color="00ff00" />
				<outline color="0000bb" />
				<font color="000000" name="MS Sans Serif" size="8" />
				<position>851 250 927 286</position>
			</node>
			<textbox>
				<caption>The Alarm network has been developed for on-line monitoring of patients in intensive care units and generously contributed to the community by Ingo Beinlich and his collaborators.\nThe model has first appeared in the following paper:\nI.A. Beinlich, H.J. Suermondt, R.M. Chavez and G.F. Cooper, The ALARM monitoring system: A case study with two probabilistic inference techniques for belief networks, Proceedings of the Second European Conference on Artificial Intelligence in Medical Care, pages 247-256, Springer-Verlag, Berlin, 1989</caption>
				<font color="000000" name="MS Sans Serif" size="10" bold="true" />
				<position>519 300 1042 471</position>
			</textbox>
		</genie>
	</extensions>
</smile>
