<?xml version="1.0" encoding="UTF-8"?>
<!-- This file was created by ACADEMIC version of SMILE -->
<smile version="1.0" id="Unnamed" numsamples="10000" discsamples="10000">
	<nodes>
		<cpt id="U1">
			<state id="a" />
			<state id="b" />
			<state id="c" />
			<state id="d" />
			<probabilities>0.1119398925396704 9.13334388005546e-16 2.52238431562451e-06 0.8880575850760131</probabilities>
		</cpt>
		<cpt id="U3">
			<state id="a" />
			<state id="b" />
			<state id="c" />
			<state id="d" />
			<probabilities>4.780574595994625e-102 0.8871393214306481 0.1128604753058395 2.032635122839962e-07</probabilities>
		</cpt>
		<cpt id="U4">
			<state id="a" />
			<state id="b" />
			<state id="c" />
			<state id="d" />
			<probabilities>0.0004202161783944033 2.300857776118278e-06 0.09606763591209352 0.9035098470517361</probabilities>
		</cpt>
		<cpt id="U2">
			<state id="a" />
			<state id="b" />
			<state id="c" />
			<state id="d" />
			<probabilities>5.339683138902383e-196 0.1258274014275074 0.1639547650779756 0.7102178334945171</probabilities>
		</cpt>
		<cpt id="Z2">
			<state id="a" />
			<state id="b" />
			<parents>U1 U2</parents>
			<probabilities>5.563425651649158e-05 0.9999443657434836 0.2464797941676995 0.7535202058323007 0.4560066536358668 0.543993346364133 4.024102909005826e-09 0.9999999959758972 1.712152116326765e-06 0.9999982878478836 3.723373400273475e-35 1 1.598749013076114e-19 1 1.987392019243676e-09 0.9999999980126081 0.9999999674858145 3.251418561410385e-08 4.31275534337818e-32 1 0.9999888866968366 1.1113303163453e-05 7.29261664713634e-05 0.9999270738335286 0.9675467781889212 0.03245322181107888 1 0 0.9999816097979654 1.839020203464304e-05 0.09855895433347121 0.9014410456665287</probabilities>
		</cpt>
		<cpt id="X">
			<state id="a" />
			<state id="b" />
			<parents>U1 U3 U4 Z2</parents>
			<probabilities>0.0003197509015397489 0.9996802490984602 0.09565893025998673 0.9043410697400133 0.998611975745898 0.001388024254102049 0.1750580008043366 0.8249419991956635 0.06553047410211009 0.9344695258978899 0.9999999999999849 1.513840341906997e-14 0.002908664350062704 0.9970913356499372 0.03699005287028768 0.9630099471297124 0.9974907894517396 0.002509210548260395 1.126107312837709e-06 0.999998873892687 3.021366444437841e-72 0.9999999999999999 4.732255060159974e-28 1 0.9999999765619048 2.343809540528989e-08 0.0001604460861941667 0.9998395539138059 0.7095841182036454 0.2904158817963546 nan nan 1 4.19850636640331e-215 3.306861071572374e-23 1 1.259377274905864e-22 0.9999999999999999 0.08202065032718603 0.9179793496728139 0.5015930674960558 0.4984069325039442 0.999036952665576 0.0009630473344239732 0.9999408295419918 5.917045800817739e-05 0.002277661721883922 0.9977223382781162 2.603168463362046e-14 0.9999999999999739 1.833016976740883e-07 0.9999998166983024 0.9999999999999999 1.555252534184963e-77 4.715548637064439e-20 1 0.9999999460413497 5.395865043224664e-08 0.8946664791764865 0.1053335208235137 0.9999999994671342 5.328657036708582e-10 0.3530956196805809 0.6469043803194192 1.938238631995285e-13 0.999999999999806 1.719850841950649e-15 0.9999999999999983 0.0007702060644631937 0.9992297939355368 1 3.211383874635306e-17 0.9999999976595457 2.340454257027851e-09 7.136622698543299e-37 0.9999999999999999 0.9999999998046695 1.953304819914548e-10 0.5236407825615039 0.4763592174384961 7.511342019874505e-06 0.9999924886579802 9.694331218785482e-12 0.9999999999903056 9.355790743020081e-09 0.9999999906442093 7.519483664684208e-33 1 0.9970579214051453 0.002942078594854811 0.8465203326181989 0.1534796673818011 1 6.398668871434955e-99 0.5924218094005775 0.4075781905994224 0.02665979911054461 0.9733402008894554 0.9999999999664165 3.358352532731965e-11 2.530980254751431e-13 0.999999999999747 3.553753967173606e-09 0.9999999964462462 1.52646224274696e-51 1 1.351329953891752e-16 0.9999999999999999 0.00249321819935691 0.997506781800643 0.9999999999993251 6.748646941754433e-13 0.9988760432866894 0.001123956713310594 0.9999999854509458 1.45490540793711e-08 0.9999999998577813 1.422187701673809e-10 1 3.752639152927275e-22 2.475575416028817e-50 1 7.442783492536522e-11 0.9999999999255721 0.9999999574001418 4.25998581549505e-08 8.792315326034298e-10 0.9999999991207685 4.403149152229598e-11 0.9999999999559686 0.9999999981815758 1.818424261141324e-09 0.0009748401151967138 0.9990251598848033 1.961886242218824e-23 1 0.9999977427751919 2.257224808092414e-06 0.9999988592345284 1.140765471739986e-06 0.999998310451064 1.689548935952183e-06 1.323539707309075e-18 1 1 4.849458587592861e-155 0.9999999919475479 8.05245211646277e-09 0.9964024904149189 0.003597509585081132 0.999999999999956 4.378361216958382e-14 4.862009425940793e-06 0.999995137990574 0.0004866518005397021 0.9995133481994604 1 1.042081989675256e-75 2.291895003805815e-06 0.9999977081049961 3.321847050163239e-64 1 1.811560163733372e-26 1 0.2699604425207129 0.7300395574792871 0.9999999999961081 3.891949320317553e-12 0.9972108471736693 0.002789152826330797 1 3.440029369100739e-31 8.258806083691927e-06 0.9999917411939163 1 7.128696081775242e-95 2.062472506148279e-22 1 7.528078395598596e-42 1 0.9939858964799367 0.006014103520063182 1.408195121265352e-05 0.9999859180487874 1.249147023566027e-12 0.9999999999987508 1 6.676589577491667e-25 0.9999999999976595 2.340353765979183e-12 0.7380910669083874 0.2619089330916125 4.033988843756215e-39 1 0.700284181276842 0.299715818723158 2.154764586251647e-27 1 0.9999999999999526 4.750043699268288e-14 5.090573148757139e-14 0.9999999999999489 1.785950236099867e-18 1 0.9999999999999999 1.430541204176675e-51 0.0002153541281277342 0.9997846458718723 1 3.007474108349069e-89 1 5.315692649263613e-29 0.1820422369624096 0.8179577630375904 2.973008998769362e-20 1 9.513792578402178e-11 0.9999999999048621 0.000123533117096687 0.9998764668829034 0.9999999999979488 2.051197126237164e-12 8.27637186955981e-175 1 4.413799231931199e-07 0.9999995586200768 1 1.305427695763734e-19 0.9999999977875113 2.212488728927187e-09 0.9999999999999126 8.738136265154233e-14 0.9999999999999999 1.705886113816515e-45 0.199891735259037 0.800108264740963 2.083859030741302e-49 1 9.312749077652635e-09 0.9999999906872509 0.9999999999999999 2.805202195062896e-64 0.9999999997484749 2.515251736672477e-10 2.826940286096031e-53 1 1.743776282641048e-10 0.9999999998256224 1 4.917681102837039e-46 1 1.443381206288258e-126 0.4388157787436753 0.5611842212563246 0.9999998263518433 1.7364815674579e-07</probabilities>
		</cpt>
		<cpt id="Z1">
			<state id="a" />
			<state id="b" />
			<parents>Z2 X</parents>
			<probabilities>0.9981795623022048 0.001820437697795215 0.001820437697795215 0.9981795623022048 0.9981795623022048 0.001820437697795215 0.001820437697795215 0.9981795623022048</probabilities>
		</cpt>
		<cpt id="Z3">
			<state id="a" />
			<state id="b" />
			<parents>U4 Z2</parents>
			<probabilities>2.892118024721501e-12 0.9999999999971079 0.9999999999999999 3.805846167905724e-25 1.006034484310772e-23 1 0.9999992771113481 7.228886520695832e-07 6.670333514575625e-10 0.9999999993329667 3.494912595377577e-14 0.9999999999999651 0.9998566012321265 0.000143398767873637 0.9999999999997745 2.255543491967601e-13</probabilities>
		</cpt>
		<cpt id="Y">
			<state id="a" />
			<state id="b" />
			<parents>U2 U3 Z1 Z3</parents>
			<probabilities>1 5.958709202874259e-22 2.846838601951314e-29 0.9999999999999999 0.02674895962309555 0.9732510403769044 1.054973466777339e-47 1 1 7.443308580903471e-305 1.618876123056891e-51 1 0.2633943182512363 0.7366056817487637 1 5.990503554995137e-25 0.00151250772305857 0.9984874922769413 0 1 1.516511020140359e-41 1 0 1 0.6128806767725358 0.3871193232274642 0.9999967601695759 3.239830424083988e-06 0.1259778195331991 0.874022180466801 0.9999558054492339 4.419455076607561e-05 0.9999829334114657 1.706658853418671e-05 1 1.139570850266781e-17 0.457941783392351 0.5420582166076489 0.9999999939805819 6.019417932075978e-09 0.001688043519844622 0.9983119564801552 1 2.679735541736065e-67 3.07151092587056e-07 0.9999996928489076 0.9873511024274546 0.01264889757254539 1.335271802805622e-27 1 0.9999999999999978 2.279835658434309e-15 0.9998591839603338 0.0001408160396661192 0.001931942685919026 0.998068057314081 8.132881419196915e-15 0.9999999999999918 1 5.764078149397247e-38 3.291462489633082e-37 1 6.087956810028383e-05 0.9999391204318997 1.654010160506091e-08 0.9999999834598984 5.788037294438249e-08 0.9999999421196272 1 4.328176427665201e-181 0.9993106044358727 0.0006893955641272399 0.9997924308313567 0.0002075691686432851 6.325509827631918e-52 0.9999999999999999 1 4.879251765347327e-52 1.257544977460007e-05 0.9999874245502255 0.5689906089153891 0.4310093910846107 1 5.85700683064812e-32 8.809465843119282e-09 0.9999999911905342 0.9997765259078737 0.0002234740921262223 1 4.373603127888377e-47 0.0009301944555049743 0.999069805544495 0.9999797430113545 2.025698864552422e-05 0.9412667060365837 0.05873329396341637 1.638216216328467e-23 1 0.9999643881175202 3.561188247974597e-05 0.5617315516719951 0.4382684483280048 0.9995850485181802 0.0004149514818197009 0.9785394431898947 0.02146055681010541 4.420368064760517e-27 0.9999999999999999 1 9.546606466557738e-23 6.785099661367536e-06 0.9999932149003387 4.154477455574651e-46 1 0.9999999999948032 5.196792522156437e-12 0.3538600934394317 0.6461399065605684 0.999999999613971 3.860288898611148e-10 0.0009926309434403972 0.9990073690565596 0.999999999999966 3.404753189732255e-14 0.999020138138544 0.0009798618614559962 1 0</probabilities>
		</cpt>
	</nodes>
	<extensions>
		<genie version="1.0" app="SMILE_ACADEMIC 2.2.0@40eb97e8a55a" name="Unnamed">
			<node id="X">
				<name>X</name>
				<interior color="e5f6f7" />
				<outline color="0000bb" />
				<font color="000000" name="MS Sans Serif" size="8" />
				<position>100 100 185 155</position>
			</node>
			<node id="Z1">
				<name>Z1</name>
				<interior color="e5f6f7" />
				<outline color="0000bb" />
				<font color="000000" name="MS Sans Serif" size="8" />
				<position>120 80 205 135</position>
			</node>
			<node id="Z2">
				<name>Z2</name>
				<interior color="e5f6f7" />
				<outline color="0000bb" />
				<font color="000000" name="MS Sans Serif" size="8" />
				<position>120 81 205 136</position>
			</node>
			<node id="Z3">
				<name>Z3</name>
				<interior color="e5f6f7" />
				<outline color="0000bb" />
				<font color="000000" name="MS Sans Serif" size="8" />
				<position>120 82 205 137</position>
			</node>
			<node id="Y">
				<name>Y</name>
				<interior color="e5f6f7" />
				<outline color="0000bb" />
				<font color="000000" name="MS Sans Serif" size="8" />
				<position>50 50 135 105</position>
			</node>
			<node id="U1">
				<name>U1</name>
				<interior color="e5f6f7" />
				<outline color="0000bb" />
				<font color="000000" name="MS Sans Serif" size="8" />
				<position>85 50 170 105</position>
			</node>
			<node id="U2">
				<name>U2</name>
				<interior color="e5f6f7" />
				<outline color="0000bb" />
				<font color="000000" name="MS Sans Serif" size="8" />
				<position>120 50 205 105</position>
			</node>
			<node id="U3">
				<name>U3</name>
				<interior color="e5f6f7" />
				<outline color="0000bb" />
				<font color="000000" name="MS Sans Serif" size="8" />
				<position>120 50 205 105</position>
			</node>
			<node id="U4">
				<name>U4</name>
				<interior color="e5f6f7" />
				<outline color="0000bb" />
				<font color="000000" name="MS Sans Serif" size="8" />
				<position>120 50 205 105</position>
			</node>
		</genie>
	</extensions>
</smile>
