<?xml version="1.0" encoding="UTF-8"?>
<!-- This file was created by ACADEMIC version of SMILE -->
<smile version="1.0" id="Unnamed" numsamples="10000" discsamples="10000">
	<nodes>
		<cpt id="U1">
			<state id="a" />
			<state id="b" />
			<state id="c" />
			<state id="d" />
			<probabilities>2.06866022373165e-07 0.3007561226390225 0.001423205671245166 0.6978204648237102</probabilities>
		</cpt>
		<cpt id="U2">
			<state id="a" />
			<state id="b" />
			<state id="c" />
			<state id="d" />
			<probabilities>1.887740648360184e-24 5.073796074928357e-12 0.02377596122736177 0.9762240387675645</probabilities>
		</cpt>
		<cpt id="X1">
			<state id="a" />
			<state id="b" />
			<parents>U1 U2</parents>
			<probabilities>0.5 0.5 0.5 0.5 0.5 0.5 0.5 0.5 0.5 0.5 0.5 0.5 0.5 0.5 0.5 0.5 0.5 0.5 0.5 0.5 0.5 0.5 0.5 0.5 0.5 0.5 0.5 0.5 0.5 0.5 0.5 0.5</probabilities>
		</cpt>
		<cpt id="R">
			<state id="a" />
			<state id="b" />
			<parents>X1</parents>
			<probabilities>0.9922917733406041 0.007708226659395839 0.007708226659395839 0.9922917733406041</probabilities>
		</cpt>
		<cpt id="U3">
			<state id="a" />
			<state id="b" />
			<state id="c" />
			<state id="d" />
			<probabilities>0.5 0.5 0 0</probabilities>
		</cpt>
		<cpt id="Z">
			<state id="a" />
			<state id="b" />
			<parents>X1 U2 U3</parents>
			<probabilities>2.33931140650013e-05 0.9999766068859349 0.9999999993913452 6.086546529666071e-10 0.004202250111072281 0.9957977498889278 0.9991405146828145 0.0008594853171854774 4.530462770251858e-23 0.9999999999999999 0.9990682491573591 0.0009317508426407602 1 6.697978924860858e-83 1.779620793894874e-23 1 1 4.165061271904574e-78 1 4.171241349995631e-117 0.9999999999999999 9.594912026728618e-48 0.9287161427298973 0.0712838572701026 0.9999696811768201 3.031882317998612e-05 0.9980409209833874 0.001959079016612702 1 3.330423109484314e-18 0.9961846187324899 0.003815381267510107 0.9764290718819311 0.02357092811806893 0.4350140403817114 0.5649859596182886 2.439058159187797e-22 1 4.672472054476002e-05 0.9999532752794552 0.8035658479817451 0.1964341520182549 1.191035769606004e-07 0.999999880896423 8.413388269168617e-05 0.9999158661173083 0.0001495416584102223 0.9998504583415898 0.1488548306371275 0.8511451693628724 0.1446209551592342 0.8553790448407659 0.9999999999999999 1.518172538197201e-33 0.7640416456127427 0.2359583543872572 0 1 0.5392626685159526 0.4607373314840474 0.9998769958413353 0.0001230041586647985 1 1.177698517501239e-309</probabilities>
		</cpt>
		<cpt id="X2">
			<state id="a" />
			<state id="b" />
			<parents>X1 Z</parents>
			<probabilities>0.992629201605113 0.007370798394886976 0.007370798394886976 0.992629201605113 0.992629201605113 0.007370798394886976 0.007370798394886976 0.992629201605113</probabilities>
		</cpt>
		<cpt id="Y">
			<state id="a" />
			<state id="b" />
			<parents>X2 R U1 U3</parents>
			<probabilities>0.9991586194423125 0.0008413805576874497 0.1175275971773728 0.8824724028226271 0.001800962405225226 0.9981990375947748 1.399719136052727e-15 0.9999999999999987 1.60505960716959e-70 1 1.510434231738228e-22 1 1.804093406507934e-211 1 1 7.793663273120578e-18 0.0005727385453207262 0.9994272614546793 0.999999997735982 2.264017978208298e-09 0.9999999999811557 1.884433628983381e-11 0.9716224676416797 0.02837753235832028 0.9999995505636452 4.494363547475745e-07 0.005320985267265933 0.9946790147327341 0.857262946796204 0.1427370532037961 0.9999999999997323 2.677287147252394e-13 3.267792686098333e-209 1 0.008559968932509616 0.9914400310674905 0.0234720539433436 0.9765279460566564 1 5.437510421848793e-36 2.202259431499748e-06 0.9999977977405684 0.9877743933710554 0.01222560662894471 0.7766268172956824 0.2233731827043177 0.9999958378919013 4.162108098629758e-06 2.671900274106592e-06 0.9999973280997259 0.6019128428825005 0.3980871571174995 1 1.451057423689708e-47 0.2419569586661101 0.7580430413338899 1 1.024660434460255e-77 3.413791478073694e-13 0.9999999999996586 0.6986601345084221 0.3013398654915778 1 3.107763330580282e-28 2.421539292946132e-34 1 0.9969031901220228 0.003096809877977248 6.312359315052867e-06 0.999993687640685 2.320065003377324e-05 0.9999767993499663 1.864795392700052e-86 1 0.9999652381532103 3.476184678965721e-05 4.828441688023614e-15 0.9999999999999952 0.9368925485797563 0.06310745142024367 1.381667175444294e-14 0.9999999999999861 0.9985566401058175 0.001443359894182582 0.9899176452385846 0.0100823547614155 0.9894518014923807 0.01054819850761931 1 0 0.9999999999644876 3.551236033202877e-11 0.001388425507927058 0.9986115744920731 0.9997476766260404 0.0002523233739595331 3.962940152819348e-71 1 0.9998001725579555 0.000199827442044581 5.843777449651441e-13 0.9999999999994156 0.9999610204573568 3.897954264333227e-05 0.00110482893536038 0.9988951710646394 5.477743382475559e-08 0.9999999452225663 0.2846296721770328 0.7153703278229673 0.9999999999993757 6.243040312397525e-13 0.2511220924653731 0.7488779075346269 0.0004296150928423808 0.9995703849071575 0.1058517718754012 0.8941482281245989 0 1 1 3.518819279765153e-25 0.9999999999671985 3.280162100157668e-11 0.8753897026935107 0.1246102973064893 0.9999999655593911 3.444060905885435e-08</probabilities>
		</cpt>
	</nodes>
	<extensions>
		<genie version="1.0" app="SMILE_ACADEMIC 2.2.0@40eb97e8a55a" name="Unnamed">
			<node id="R">
				<name>R</name>
				<interior color="e5f6f7" />
				<outline color="0000bb" />
				<font color="000000" name="MS Sans Serif" size="8" />
				<position>80 80 165 135</position>
			</node>
			<node id="Z">
				<name>Z</name>
				<interior color="e5f6f7" />
				<outline color="0000bb" />
				<font color="000000" name="MS Sans Serif" size="8" />
				<position>100 100 185 155</position>
			</node>
			<node id="X1">
				<name>X1</name>
				<interior color="e5f6f7" />
				<outline color="0000bb" />
				<font color="000000" name="MS Sans Serif" size="8" />
				<position>120 80 205 135</position>
			</node>
			<node id="X2">
				<name>X2</name>
				<interior color="e5f6f7" />
				<outline color="0000bb" />
				<font color="000000" name="MS Sans Serif" size="8" />
				<position>120 80 205 135</position>
			</node>
			<node id="Y">
				<name>Y</name>
				<interior color="e5f6f7" />
				<outline color="0000bb" />
				<font color="000000" name="MS Sans Serif" size="8" />
				<position>50 50 135 105</position>
			</node>
			<node id="U1">
				<name>U1</name>
				<interior color="e5f6f7" />
				<outline color="0000bb" />
				<font color="000000" name="MS Sans Serif" size="8" />
				<position>85 50 170 105</position>
			</node>
			<node id="U2">
				<name>U2</name>
				<interior color="e5f6f7" />
				<outline color="0000bb" />
				<font color="000000" name="MS Sans Serif" size="8" />
				<position>120 50 205 105</position>
			</node>
			<node id="U3">
				<name>U3</name>
				<interior color="e5f6f7" />
				<outline color="0000bb" />
				<font color="000000" name="MS Sans Serif" size="8" />
				<position>120 50 205 105</position>
			</node>
		</genie>
	</extensions>
</smile>
