<?xml version="1.0" encoding="UTF-8"?>
<!-- This file was created by ACADEMIC version of SMILE -->
<smile version="1.0" id="Unnamed" numsamples="10000" discsamples="10000">
	<nodes>
		<cpt id="U1">
			<state id="a" />
			<state id="b" />
			<state id="c" />
			<state id="d" />
			<probabilities>0.9931486825232159 3.017013074660556e-42 4.765237231158612e-59 0.006851317476784055</probabilities>
		</cpt>
		<cpt id="U2">
			<state id="a" />
			<state id="b" />
			<state id="c" />
			<state id="d" />
			<probabilities>1.446372061622342e-09 1.905107430985188e-12 0.02490122990404547 0.9750987686476772</probabilities>
		</cpt>
		<cpt id="X1">
			<state id="a" />
			<state id="b" />
			<parents>U1 U2</parents>
			<probabilities>0.5 0.5 0.5 0.5 0.5 0.5 0.5 0.5 0.5 0.5 0.5 0.5 0.5 0.5 0.5 0.5 0.5 0.5 0.5 0.5 0.5 0.5 0.5 0.5 0.5 0.5 0.5 0.5 0.5 0.5 0.5 0.5</probabilities>
		</cpt>
		<cpt id="R">
			<state id="a" />
			<state id="b" />
			<parents>X1</parents>
			<probabilities>0.9922917733406041 0.007708226659395839 0.007708226659395839 0.9922917733406041</probabilities>
		</cpt>
		<cpt id="U3">
			<state id="a" />
			<state id="b" />
			<state id="c" />
			<state id="d" />
			<probabilities>0.5 0.5 0 0</probabilities>
		</cpt>
		<cpt id="Z">
			<state id="a" />
			<state id="b" />
			<parents>X1 U2 U3</parents>
			<probabilities>0.2039283518314358 0.7960716481685642 2.956797571808988e-60 1 1 9.196245596364994e-216 0.0001868581580704048 0.9998131418419295 0.9999975573121132 2.442687886945743e-06 8.143873663031009e-06 0.9999918561263369 0.9999999999999977 2.313448005906091e-15 1.265936018879329e-39 1 0.8838957354484406 0.1161042645515595 3.058845764999691e-11 0.9999999999694116 0.9828230559756289 0.01717694402437103 1 1.289836611014772e-62 1.697498164708809e-05 0.9999830250183529 7.396804037939821e-14 0.9999999999999261 0.9999999997675904 2.324095587417343e-10 1.472808603104574e-27 1 0.8988695373682605 0.1011304626317395 0.02466693658938694 0.975333063410613 1.519255957450006e-12 0.9999999999984808 0.9997669854982077 0.0002330145017921552 2.285647005027163e-169 1 0.9994606246016945 0.0005393753983055774 8.70403335709308e-50 1 5.671415846467577e-07 0.9999994328584154 0.9999999999999986 1.352947206711383e-15 1 2.165813318547866e-29 7.492413161867047e-37 1 0.004273861847726586 0.9957261381522735 1 5.029529119173087e-115 7.332766103453691e-13 0.9999999999992668 0 1 0.03561917773986229 0.9643808222601378</probabilities>
		</cpt>
		<cpt id="X2">
			<state id="a" />
			<state id="b" />
			<parents>X1 Z</parents>
			<probabilities>0.992629201605113 0.007370798394886976 0.007370798394886976 0.992629201605113 0.992629201605113 0.007370798394886976 0.007370798394886976 0.992629201605113</probabilities>
		</cpt>
		<cpt id="Y">
			<state id="a" />
			<state id="b" />
			<parents>X2 R U1 U3</parents>
			<probabilities>3.452597685169826e-130 1 3.971201423029842e-59 1 6.399114375932672e-08 0.9999999360088562 0.0001010348312541389 0.9998989651687459 0.999999999292834 7.071661425127356e-10 1.265055996035502e-192 0.9999999999999999 1.126938106338458e-62 1 0.9999999999394871 6.051290430922974e-11 0.9999999999998213 1.786275185365883e-13 0.9933086825294585 0.006691317470541556 0.4593650444637755 0.5406349555362245 0.03816764890230061 0.9618323510976994 1 1.681197029112185e-83 3.339674751607576e-09 0.9999999966603252 2.30168893349694e-10 0.9999999997698311 1 1.188841559811701e-20 0.1020165492486404 0.8979834507513594 0.9498415604281427 0.0501584395718573 1 4.915508386285382e-41 5.861142517267265e-69 1 2.361783054944279e-06 0.9999976382169451 2.611490146747523e-05 0.9999738850985325 0.9989247162301014 0.001075283769898574 0.0002246033568265878 0.9997753966431733 0.1383415634463143 0.8616584365536856 0.01470278384785849 0.9852972161521415 0.008071456265924868 0.9919285437340751 0.9997930766001515 0.000206923399848636 0.9999999703487429 2.965125705000995e-08 3.532566672645191e-45 1 0.9999999872505024 1.274949753999279e-08 2.149556175136004e-56 1 0.9999999994690442 5.309558042342076e-10 4.278491255162529e-26 1 0.999999160639183 8.393608169973882e-07 3.357216076838656e-05 0.9999664278392315 4.947353861168627e-09 0.999999995052646 1.439793379595683e-213 1 0.9046880187694659 0.09531198123053414 0.9999999999999999 9.718345555169363e-46 0.01159965810467006 0.9884003418953299 2.268293205032315e-28 1 1 3.756072145095128e-22 1 6.311558596239547e-18 0.4366729139749355 0.5633270860250644 3.979387905078698e-19 1 7.743245884282254e-07 0.9999992256754117 0.6589512613326044 0.3410487386673956 8.169918608263488e-12 0.9999999999918301 5.839214470023644e-06 0.9999941607855301 2.133319928258819e-18 1 1 9.146972215127721e-42 0.9351591254380934 0.06484087456190663 0.9999999999999999 1.656130639646837e-31 2.269606039204235e-12 0.9999999999977305 6.971603924775088e-15 0.999999999999993 0.9999999999999696 3.041436411853313e-14 1 1.723892284077684e-25 1.343465508591565e-05 0.9999865653449143 0.999999856622888 1.433771119981561e-07 0.9999999999819238 1.807610468833996e-11 0.9999994230962042 5.769037958831793e-07 0.9249667180683169 0.07503328193168311 3.612150189119194e-45 1</probabilities>
		</cpt>
	</nodes>
	<extensions>
		<genie version="1.0" app="SMILE_ACADEMIC 2.2.0@40eb97e8a55a" name="Unnamed">
			<node id="R">
				<name>R</name>
				<interior color="e5f6f7" />
				<outline color="0000bb" />
				<font color="000000" name="MS Sans Serif" size="8" />
				<position>80 80 165 135</position>
			</node>
			<node id="Z">
				<name>Z</name>
				<interior color="e5f6f7" />
				<outline color="0000bb" />
				<font color="000000" name="MS Sans Serif" size="8" />
				<position>100 100 185 155</position>
			</node>
			<node id="X1">
				<name>X1</name>
				<interior color="e5f6f7" />
				<outline color="0000bb" />
				<font color="000000" name="MS Sans Serif" size="8" />
				<position>120 80 205 135</position>
			</node>
			<node id="X2">
				<name>X2</name>
				<interior color="e5f6f7" />
				<outline color="0000bb" />
				<font color="000000" name="MS Sans Serif" size="8" />
				<position>120 80 205 135</position>
			</node>
			<node id="Y">
				<name>Y</name>
				<interior color="e5f6f7" />
				<outline color="0000bb" />
				<font color="000000" name="MS Sans Serif" size="8" />
				<position>50 50 135 105</position>
			</node>
			<node id="U1">
				<name>U1</name>
				<interior color="e5f6f7" />
				<outline color="0000bb" />
				<font color="000000" name="MS Sans Serif" size="8" />
				<position>85 50 170 105</position>
			</node>
			<node id="U2">
				<name>U2</name>
				<interior color="e5f6f7" />
				<outline color="0000bb" />
				<font color="000000" name="MS Sans Serif" size="8" />
				<position>120 50 205 105</position>
			</node>
			<node id="U3">
				<name>U3</name>
				<interior color="e5f6f7" />
				<outline color="0000bb" />
				<font color="000000" name="MS Sans Serif" size="8" />
				<position>120 50 205 105</position>
			</node>
		</genie>
	</extensions>
</smile>
