<?xml version="1.0" encoding="UTF-8"?>
<!-- This file was created by ACADEMIC version of SMILE -->
<smile version="1.0" id="Unnamed" numsamples="10000" discsamples="10000">
	<nodes>
		<cpt id="U1">
			<state id="a" />
			<state id="b" />
			<state id="c" />
			<state id="d" />
			<probabilities>1.367129181020994e-48 1.046170052942132e-30 0.9973261015686984 0.002673898431301607</probabilities>
		</cpt>
		<cpt id="U2">
			<state id="a" />
			<state id="b" />
			<state id="c" />
			<state id="d" />
			<probabilities>2.362560619045194e-213 2.34277238015357e-05 0.9065283964748254 0.09344817580137299</probabilities>
		</cpt>
		<cpt id="X1">
			<state id="a" />
			<state id="b" />
			<parents>U1 U2</parents>
			<probabilities>0.05907980295242846 0.9409201970475716 0.1396263185645696 0.8603736814354304 0.9999999999964547 3.545160111815742e-12 1 1.599433458600082e-19 0.9999999999986273 1.372557495304549e-12 4.243429116793922e-97 1 0.9999925929587222 7.407041277877966e-06 0.9999998661457487 1.338542512713651e-07 0.9909648321269375 0.009035167873062284 7.865372077962091e-31 1 0.001131444427551088 0.9988685555724489 0.9999253502318222 7.464976817781896e-05 0.8876213690984741 0.112378630901526 0.001335039585885831 0.9986649604141141 0.9999999999991941 8.059174972887353e-13 0.9666539736695887 0.03334602633041124</probabilities>
		</cpt>
		<cpt id="R">
			<state id="a" />
			<state id="b" />
			<parents>X1</parents>
			<probabilities>0.9957568222287 0.004243177771300049 0.004243177771300049 0.9957568222287</probabilities>
		</cpt>
		<cpt id="U3">
			<state id="a" />
			<state id="b" />
			<state id="c" />
			<state id="d" />
			<probabilities>0.002193426376593756 0.9732270043451456 1.889794452398497e-06 0.02457767948380811</probabilities>
		</cpt>
		<cpt id="Z">
			<state id="a" />
			<state id="b" />
			<parents>U2 U3 X1</parents>
			<probabilities>0.9904980356808687 0.009501964319131294 2.485995792034324e-84 1 0.9999999733843536 2.661564637802476e-08 0.9999971156233936 2.884376606456447e-06 5.511499777365417e-27 0.9999999999999999 0.9994452354819019 0.0005547645180980869 1 2.54379719395873e-48 0.999885793033469 0.0001142069665310743 5.823616271230975e-05 0.9999417638372876 2.595328276797958e-06 0.999997404671723 2.578052701559937e-08 0.9999999742194728 0.9999990829476664 9.170523336195672e-07 7.421617900664719e-308 1 0.9999999999902141 9.785969242836912e-12 0.0004765333443048558 0.9995234666556951 1 2.686764784546955e-17 3.204545927383923e-104 1 0.9694577118759476 0.03054228812405237 1 4.18033362716555e-38 1.928312145523675e-11 0.9999999999807168 4.508359160877337e-09 0.9999999954916408 0.8361573753167141 0.1638426246832859 1.239388150666195e-07 0.9999998760611849 1.17700350001415e-07 0.9999998822996501 0.9999984878142403 1.512185759757037e-06 9.326872710989915e-42 1 0.9999656117446775 3.438825532267891e-05 1.628559692371996e-20 1 0.9999999999999999 2.228618537162025e-160 2.397592211885655e-08 0.999999976024078 0.9997979378343501 0.0002020621656500362 1.838219132822221e-22 1</probabilities>
		</cpt>
		<cpt id="X2">
			<state id="a" />
			<state id="b" />
			<parents>Z X1</parents>
			<probabilities>0.9943558136291301 0.005644186370869962 0.005644186370869962 0.9943558136291301 0.9943558136291301 0.005644186370869962 0.005644186370869962 0.9943558136291301</probabilities>
		</cpt>
		<cpt id="U4">
			<state id="a" />
			<state id="b" />
			<state id="c" />
			<state id="d" />
			<probabilities>0.8175099010620878 0.1824900989378515 9.879507980875713e-15 5.075764612044787e-14</probabilities>
		</cpt>
		<cpt id="X3">
			<state id="a" />
			<state id="b" />
			<parents>U3 U4 Z X2</parents>
			<probabilities>0 1 0.9999977644418773 2.235558122722919e-06 2.01047871845445e-10 0.9999999997989522 0.001067752880162434 0.9989322471198376 0.2018261126370424 0.7981738873629576 7.010735270591974e-07 0.999999298926473 1 3.171673765766041e-19 0.9999999999968094 3.190554396308392e-12 1 0 0.9999939166242529 6.083375747178951e-06 0.9999999997678108 2.321890235471976e-10 0.9935010303488097 0.00649896965119033 0.450635192699548 0.5493648073004519 2.545627726171641e-05 0.9999745437227383 1.129794276341588e-18 1 8.287332889508389e-05 0.9999171266711048 8.524281901475476e-28 1 1.991449399800786e-40 1 1 1.099297438392825e-26 1.878639446739847e-66 1 0.999997200666072 2.799333928005376e-06 0.9999999998463482 1.536517811096449e-10 0.9998297757107162 0.000170224289283916 1.047983678549018e-107 1 1.502520553238166e-203 1 8.30922726708015e-06 0.9999916907727329 2.87451491272435e-52 1 0.9999999998081732 1.91826816056976e-10 0 1 0.9994006187875366 0.0005993812124633517 2.585648720778544e-05 0.9999741435127922 0.9999998545178634 1.454821365252459e-07 0.9122446295445824 0.08775537045541761 0.9999999999999999 1.712028040700119e-28 0.9740402771854015 0.02595972281459838 0.9999999999999999 9.426925259320589e-22 2.624025556242666e-74 1 1.280688156758495e-96 1 1.384160583911262e-13 0.9999999999998616 1 7.329875629661306e-88 0.6902809194461281 0.3097190805538719 0.3096887775673216 0.6903112224326784 1 1.598497512502442e-26 1 9.116071505580825e-20 0.02342450106227751 0.9765754989377224 0.7103639872818226 0.2896360127181775 0.9999999997099802 2.900197619548138e-10 0.8347528870975396 0.1652471129024605 0.001992847853955729 0.9980071521460443 0.9999996617297775 3.38270222475851e-07 0.9999188301316831 8.116986831672406e-05 0.0004241853555385838 0.9995758146444614 1 1.197915614592426e-157 1 5.830937586656076e-30 0.9999999999288189 7.118098908689916e-11 0.04722019274050317 0.9527798072594968 1.855783133392198e-185 1 0.9999962468060516 3.753193948412807e-06 0.9999985894489415 1.410551058539638e-06 1.933714864845855e-46 0.9999999999999999 0.09877510697978113 0.9012248930202188 1.259539071101173e-17 1 0.9997982339469569 0.0002017660530430962 0.9999999999999897 1.023533090783524e-14</probabilities>
		</cpt>
		<cpt id="S">
			<state id="a" />
			<state id="b" />
			<parents>X3</parents>
			<probabilities>0.9924862680535547 0.00751373194644533 0.00751373194644533 0.9924862680535547</probabilities>
		</cpt>
		<cpt id="Y">
			<state id="a" />
			<state id="b" />
			<parents>U1 U4 R X2 S</parents>
			<probabilities>5.396152089414328e-16 0.9999999999999994 9.090923483248761e-18 1 0.9978347714892554 0.002165228510744681 0.06086296360674393 0.939137036393256 1 4.69035141250662e-37 0.9475015712119074 0.05249842878809272 0.03015678049008556 0.9698432195099145 1 2.031178060122361e-30 9.589172847834209e-13 0.999999999999041 0.0001455355987268867 0.999854464401273 0.5542945097896351 0.4457054902103649 0.9999717220384988 2.827796150121888e-05 0 1 0.9999999999999999 1.399332020236365e-23 0.9904760879892219 0.00952391201077819 0.0001606208412264809 0.9998393791587735 1.533289704587909e-08 0.9999999846671029 0.4334058710087009 0.5665941289912992 0.9999999999478397 5.216028314598819e-11 0.9186097770584513 0.08139022294154871 0.9693924788965136 0.03060752110348643 0.2219395254142105 0.7780604745857895 1 4.220561896974986e-37 5.682451634510331e-06 0.9999943175483654 2.346774961614559e-38 1 1 3.516913224035692e-35 1.256865315854354e-18 1 1.18239807754101e-08 0.9999999881760192 2.56988325214732e-41 1 0.9999994938136966 5.061863035205361e-07 1 4.975728598416637e-33 0.001024800693588921 0.9989751993064111 1 0 1 6.762855298986868e-18 2.478926348595843e-05 0.9999752107365141 0.9999999999999998 2.658858498012558e-16 3.700593720985203e-16 0.9999999999999996 1.510257634757884e-198 0.9999999999999999 4.135004376442608e-36 1 2.146731343397913e-35 1 1 1.648130775105078e-48 0.5405812251436969 0.4594187748563029 0.9999858318089024 1.416819109762367e-05 0.001157026072181947 0.9988429739278181 2.524993506821294e-68 0.9999999999999999 0.9999999999999999 2.341921136358979e-43 7.232429341879898e-05 0.9999276757065811 0.9909359046255474 0.009064095374452619 0.9858516898770586 0.01414831012294143 0.02342629522064781 0.9765737047793522 7.693704432171017e-09 0.9999999923062955 0.0005940728593440163 0.9994059271406559 0.01613245071457249 0.9838675492854274 2.191824389510188e-08 0.9999999780817561 6.995410504354161e-06 0.9999930045894955 0.9999998164524937 1.835475063726418e-07 2.230715415342017e-08 0.999999977692846 1.927979324002506e-132 1 1 6.984341765328519e-144 0.7002385131092715 0.2997614868907285 8.029842446674338e-06 0.9999919701575534 0.01010607084873095 0.9898939291512692 2.303105252940183e-175 1 0.9999999999987483 1.251707728341335e-12 0.01685219342934554 0.9831478065706545 0.9998944936300588 0.0001055063699413411 0.9997939060830571 0.0002060939169429382 0.7216332801502164 0.2783667198497836 0.9079975451649287 0.09200245483507127 0.9125235079723549 0.08747649202764493 0 0.9999999999999999 0.2070690324174896 0.7929309675825102 0.9999999999999967 3.474621539947118e-15 0.5077782790610091 0.4922217209389909 0.8406873331656004 0.1593126668343995 0.9930966152561682 0.006903384743831853 0.9924602439968154 0.007539756003184595 4.586571183495147e-34 1 0.0001910384944656136 0.9998089615055343 1.623692965484524e-09 0.999999998376307 0.642936829487873 0.3570631705121269 0.9999578912787427 4.210872125720588e-05 0.2210896367858256 0.7789103632141744 1.860633241112734e-05 0.999981393667589 0.4049893992336867 0.5950106007663133 0.9999547231706911 4.527682930876435e-05 2.41881211441947e-53 1 2.780994234565832e-122 1 0.9671425786544722 0.03285742134552776 0.9734748201091203 0.02652517989087976 0.9820493334832749 0.0179506665167251 2.275675913194017e-17 1 6.321197447383733e-06 0.9999936788025525 1.826123020816252e-37 1 1 4.718800697839468e-27 0.9999999999959167 4.083228621909435e-12 1 1.138712068860631e-21 0.9938148850336718 0.006185114966328316 7.081452125288535e-23 0.9999999999999999 0.9959950696298888 0.004004930370111276 0.9999999999991908 8.091713176012765e-13 1 5.35155392197709e-75 0.9999999999999997 3.86149185159245e-16 0.9999999999983697 1.63016536715503e-12 0.5414765208217948 0.4585234791782054 0.9897104349700772 0.01028956502992277 0.9982367683962142 0.001763231603785773 0.9999936824109417 6.317589058428322e-06 0.003235362594907721 0.9967646374050924 0.0002406933053737183 0.9997593066946262 0.03934143432983141 0.9606585656701686 3.166309041107792e-182 1 1.772037120597671e-09 0.9999999982279629 0.9999999806549034 1.934509655691875e-08 0.05340398510104722 0.9465960148989528 0.6784278522110481 0.3215721477889521 1.05785996363336e-08 0.9999999894214003 0.9999999811112884 1.888871147018436e-08 0.9625765601729793 0.03742343982702073 0.9999979693694404 2.030630559714715e-06 3.584526566982536e-11 0.9999999999641548 1.418170266056544e-13 0.999999999999858 1 1.184473730331678e-17 1 0 8.403772627748895e-33 1 0.009749550483913743 0.9902504495160863 0.9998645561235634 0.0001354438764366178 0.03975727600745018 0.9602427239925498</probabilities>
		</cpt>
	</nodes>
	<extensions>
		<genie version="1.0" app="SMILE_ACADEMIC 2.2.0@40eb97e8a55a" name="Unnamed">
			<node id="R">
				<name>R</name>
				<interior color="e5f6f7" />
				<outline color="0000bb" />
				<font color="000000" name="MS Sans Serif" size="8" />
				<position>80 80 165 135</position>
			</node>
			<node id="Z">
				<name>Z</name>
				<interior color="e5f6f7" />
				<outline color="0000bb" />
				<font color="000000" name="MS Sans Serif" size="8" />
				<position>100 100 185 155</position>
			</node>
			<node id="X1">
				<name>X1</name>
				<interior color="e5f6f7" />
				<outline color="0000bb" />
				<font color="000000" name="MS Sans Serif" size="8" />
				<position>120 80 205 135</position>
			</node>
			<node id="X2">
				<name>X2</name>
				<interior color="e5f6f7" />
				<outline color="0000bb" />
				<font color="000000" name="MS Sans Serif" size="8" />
				<position>120 81 205 136</position>
			</node>
			<node id="X3">
				<name>X3</name>
				<interior color="e5f6f7" />
				<outline color="0000bb" />
				<font color="000000" name="MS Sans Serif" size="8" />
				<position>120 82 205 137</position>
			</node>
			<node id="S">
				<name>S</name>
				<interior color="e5f6f7" />
				<outline color="0000bb" />
				<font color="000000" name="MS Sans Serif" size="8" />
				<position>100 100 185 155</position>
			</node>
			<node id="Y">
				<name>Y</name>
				<interior color="e5f6f7" />
				<outline color="0000bb" />
				<font color="000000" name="MS Sans Serif" size="8" />
				<position>50 50 135 105</position>
			</node>
			<node id="U1">
				<name>U1</name>
				<interior color="e5f6f7" />
				<outline color="0000bb" />
				<font color="000000" name="MS Sans Serif" size="8" />
				<position>85 50 170 105</position>
			</node>
			<node id="U2">
				<name>U2</name>
				<interior color="e5f6f7" />
				<outline color="0000bb" />
				<font color="000000" name="MS Sans Serif" size="8" />
				<position>120 50 205 105</position>
			</node>
			<node id="U3">
				<name>U3</name>
				<interior color="e5f6f7" />
				<outline color="0000bb" />
				<font color="000000" name="MS Sans Serif" size="8" />
				<position>120 50 205 105</position>
			</node>
			<node id="U4">
				<name>U4</name>
				<interior color="e5f6f7" />
				<outline color="0000bb" />
				<font color="000000" name="MS Sans Serif" size="8" />
				<position>120 50 205 105</position>
			</node>
		</genie>
	</extensions>
</smile>
